encog,BasicNetwork,java,3.4.0,1,1561120648816
[BASIC]
[BASIC:PARAMS]
[BASIC:NETWORK]
beginTraining=0
connectionLimit=0
contextTargetOffset=0,0,0,0,0
contextTargetSize=0,0,0,0,0
endTraining=4
hasContext=f
inputCount=21
layerCounts=4,49,67,49,22
layerFeedCounts=3,48,66,48,21
layerContextCount=0,0,0,0,0
layerIndex=0,4,53,120,169
output=0,0,0,1,0,0,0,0,0,0,0,0,0,0,0,0,0,0,0,0,0,0,0,0,0,0,0,0,0,0,0,0,0,0,0,0,0,0,0,0,0,0,0,0,0,0,0,0,0,0,0,0,1,0,0,0,0,0,0,0,0,0,0,0,0,0,0,0,0,0,0,0,0,0,0,0,0,0,0,0,0,0,0,0,0,0,0,0,0,0,0,0,0,0,0,0,0,0,0,0,0,0,0,0,0,0,0,0,0,0,0,0,0,0,0,0,0,0,0,1,0,0,0,0,0,0,0,0,0,0,0,0,0,0,0,0,0,0,0,0,0,0,0,0,0,0,0,0,0,0,0,0,0,0,0,0,0,0,0,0,0,0,0,0,0,0,0,0,1,0,0,0,0,0,0,0,0,0,0,0,0,0,0,0,0,0,0,0,0,0,1
outputCount=3
weightIndex=0,147,3363,6597,7653
weights=##0
##double#7653
   -1.3595933531,-0.4685416263,-0.4146698277,-0.3965322803,0.0349039279,-0.8504353789,-0.3358841678,-0.0474937682,0.6533835514,-0.8777449991,-0.1063882244,-0.1886504618,0.7622215076,-0.2082347616,-0.0468341405,-0.3799706656,-0.7302125319,-0.0048297377,0.5565402963,0.0260924057,0.0976258276,0.6942419274,-0.0096078774,-0.3648514215,-0.0177668091,0.52684367,0.0844905699,-0.7159760657,0.0584953014,0.2317187398,0.667923678,-0.8463158168,0.004015796,0.5277201923,0.1899792664,-0.6168226192,-0.5577342366,0.235596304,-0.5933461316,0.1279915745,0.7728797596,0.8885283418,-0.5815526358,-0.1286355627,0.9394263094,-1.014622838,0.7865217638,0.4915727251,0.130675829,0.572882633,-0.1074323305,0.192360476,0.390611014,0.2317033054,0.4299507636,-1.0225968979,-0.2669633057,0.150281866,0.153619171,-0.120475666,0.3905696302,-0.1967313839,-0.2634095441,0.619294706,0.7354666167,0.5133272342,0.1711009677,0.231020822,0.6543150915,0.8496490303,0.4335877385,-0.3687486833,0.0668918591,0.1782561566,0.2005030989,-0.5818903254,-0.2684240921,0.3996622618,0.0135273901,-0.9397924976,1.2710808729,-0.0175225856,-0.4586468917,-0.1155125027,0.0989801924,0.3092958877,-0.2584135299,0.7156226785,0.6989998173,0.7071360217,0.772752353,-0.5955140359,-0.5960585209,0.0857911302,0.5559367519,0.5441639234,-0.1037322106,-0.7746977635,0.2737948912,-0.1175790268,0.7133525341,-0.2042358533,0.3050179484,-0.0244236539,-0.6869871049,0.0128026614,0.5146193999,0.0326137252,-0.9267088937,-0.4677757711,-0.36527373,-0.4887121725,-0.1316148804,0.1183968686,-0.1278293961,0.2606663671,-0.1882502581,-0.7314049599,0.8118121886,0.5536526953,-0.6578135847,-1.3428381443,-0.7403292952,0.2186323381,0.3733738347,0.1380068932,0.9743308524,-0.1346064243,-0.8253586718,-0.9350643368,0.5841009759,-0.0579705277,-0.2660942041,0.6565739234,-0.0609433808,-0.4039457826,-0.0460191207,0.3820888515,0.5821663894,0.6900862645,-0.1543221174,-0.8260852793,0.329420855,0.7568206737,0.2222326448,0.3127111569,0.8346846822,0.904339745,0.3648812236,0.1198745473,-0.2193933405,-1.0358920403,-0.6397360682,-0.7582540323,-0.8091462586,0.8585427542,0.7778535999,-0.23820014,-0.0116726228,-0.4646770965,-0.9903798703,1.0500156422,0.5789437114,-0.863354588,-1.1843773186,-0.1627434385,-1.0668844932,-0.3783225266,1.0336921708,-0.1012067664,0.2777567081,-0.0239381376,1.1250543335,0.1609553875,0.5156621454,1.1747000778,0.4497851101,0.4990437977,-0.5060691868,0.9138734098,-0.048200659,0.7636830621,-1.1274559333,-0.4873063654,-0.8839276087,-0.8072953067,0.1212651173,-0.1392377115,1.1051187879,0.7857018307,-0.7222783819,0.0046322848,-0.4245111245,0.9523063745,0.9021023215,0.1202878581,-0.3762093967,0.6241412469,-0.2175609313,-0.6398945304,-0.1682959694,0.8359073169,0.4451496541,0.4130829908,1.2554424345,-0.031891673,0.9070975435,-0.234812974,0.7110403696,1.010546784,0.7827918526,-0.1350652134,-1.4717562148,-0.3275511047,-0.1336010905,-0.1203013404,-0.7814474056,1.3909386903,0.804019687,-0.5109375433,-0.5611752121,0.4939536839,-0.0647763913,0.6443624982,-0.2503940412,-0.7074245801,0.3417052833,-0.5254672348,0.2028644675,-0.0630596616,0.6735338869,-0.3965448432,0.3397752725,1.2419774514,-0.7978647199,-0.3779877433,-0.4838872879,-0.3289205453,2.0850491482,-0.329636523,-0.1636631433,1.011315712,0.2656675958,0.3629327058,0.3905654266,-0.3814655702,-1.2094497054,0.4218425465,0.0101552261,0.7165863946,0.0155195874,-0.5601449486,0.7660686444,-0.74457319,-1.0127653557,-0.3201687538,-1.0088227252,-0.5979030101,0.6315129118,-0.0810244953,-0.4563780425,-0.3912990013,0.7025106305,-0.5630123232,-0.3355242224,0.2237983589,-0.3984380953,-0.8745124435,-0.8365517095,-1.4129077454,0.3526884404,-0.4656485828,0.253726071,0.1605383003,-0.500736442,0.6408921877,0.0166588483,-0.5792568302,0.7266947149,0.1285721036,0.09297129,0.1150122895,-0.2281716068,0.020851596,-0.637244548,1.0872621202,-0.444774915,0.2223041627,1.9251996271,0.4276030145,0.6335105455,-1.9880298942,0.9595306063,-1.8698988076,-0.4193055985,0.8422912944,-0.9956872865,-0.0012233875,-0.1004373143,0.9393118946,-0.4368644518,-0.1355158147,-1.1853829807,0.342437132,0.3120003114,-0.5215658933,0.4631153271,-0.0526157371,0.3311284258,-0.5257627039,-0.8716427896,-1.0439210612,0.0114387057,0.2155955761,0.6525401902,-1.2900520459,0.3490307637,-0.2390614936,0.5356117308,-0.1812261,0.9890615505,-1.7465958996,0.4639833484,0.5153189846,1.1492518531,-0.4786014018,-1.2546325515,0.0337568712,1.525015142,-0.3359128523,0.1677257763,-0.3079924307,0.3530668929,-3.7232937841,-0.0874966225,0.9929566572,0.0662552263,3.7975524871,-0.5295423184,3.4767380407,0.8774326094,-0.6219122802,1.1000007182,-0.4476047432,0.5155707162,0.7538045777,0.1524483766,0.4472437793,-0.1463208464,-1.1756684179,0.320807879,0.0694169854,-0.8630236266,-0.7775939372,0.3034664028,-0.5898118046,-0.0028244951,-0.0930550197,0.0492660624,0.9424492148,-0.3659185474,0.2986565706,-1.0169546467,-0.4870290674,-0.1051491453,-0.9903341176,-0.6259434748,2.1217584968,-0.7840624219,1.3361284135,-0.1826369106,-0.4194241223,0.5109892429,-0.0700078625,0.1242300056,0.7887921821,1.7313697811,0.0092875081,0.0272121187,-0.3639875063,-0.550496851,-0.6000414837,0.0435177055,-0.433611118,1.1188455249,0.6497249274,-0.9067606602,-0.1931648542,0.205678868,-0.7333273827,1.2158697721,-0.044024096,0.877688364,-0.2487587118,-0.6395962306,-0.6154031275,1.4011667835,0.1759866434,0.7942642292,-0.1220693681,0.8413016146,0.1649197398,0.007941673,0.1772886459,0.5759006853,-0.1902789956,-0.1711818446,-0.7827723404,-0.2056681371,-2.4079986297,0.7020591244,0.3090315756,0.5914661144,-1.4018191327,-0.4354481715,-1.7054570265,-0.8600832984,-0.1057856775,0.4872105538,-0.747382615,0.9160855846,-0.0844237236,-3.6917611982,1.0157662463,-0.2337611575,0.1366222147,1.1355926279,0.9900419387,1.5106570305,-0.5203981642,-0.0045746969,-0.3389496012,0.1054079322,0.2542503795,0.1590336123,-0.4846188616,1.924317616,-0.7321391925,0.4240034242,-0.479999148,0.5244399923,0.0190169128,0.3390379462,-0.7730592362,0.5846251459,0.0975902742,-0.2730678486,-0.035256183,0.3334136459,0.6260803975,-0.7647666804,0.10270224,0.5570281339,-0.6457082231,-0.2540996249,-1.1103595022,-1.0049638007,0.5909544289,-0.7053668999,0.2588104456,0.5695378937,0.3177893031,0.0467025638,1.2103039686,2.577855032,-2.0790254327,-3.2137164522,-0.1272914885,-1.0397384891,-0.304829486,-0.1525051807,-0.3925722522,8.5222550546,0.3271914815,3.1648929677,1.0427051866,-0.8590366462,1.2353954607,1.1384262749,-0.0297811193,4.9504294754,1.6077904888,0.1847795022,-0.4647418749,-0.9171338745,0.2818004396,-1.2154505723,-0.1937233538,-0.2965484547,-0.3798394731,-0.7458822267,-0.6429006328,-2.1715592792,0.9054230689,-0.4430383947,2.5806125194,-0.6914987,-1.2424491889,0.8833525098,0.5564824237,0.9534006289,-1.2092240819,0.9482887166,0.1605627903,-2.3807895445,0.4291135366,0.1179485903,-0.3628122257,0.9427833869,0.0648299295,0.6380229985,0.7246597607,-0.1128748647,1.0767772767,0.4560636591,0.3194137123,-0.6991953697,0.2763384728,-0.8256189183,-0.1687549452,0.469255813,-0.5247004454,0.2953156883,0.9565123301,0.8162877548,-0.3680905656,-0.8427990344,-0.3681386135,0.4577331895,-0.5913720119,0.2690634311,0.7562739488,-0.0520565736,-1.4702619648,-0.3906369931,0.4403281695,1.0551651837,0.046511966,0.5131968092,-0.1959673424,-0.1916926444,-2.0890091418,-0.1891991747,-1.2081195449,0.8167026504,0.4583507791,0.2319450588,-2.0527248593,-0.9707694006,-0.1695848361,-0.2317691052,0.20126542,-0.3579110414,-0.5633670762,0.8556438643,0.7153905529,0.5815811139,-0.8299810818,0.3611978088,0.4084649639,0.3843044523,0.2660082834,-1.2748144862,-0.2880383187,-0.4359454381,-0.2817371082,-0.955674147,0.9586531402,-0.202667376,-0.1689617084,0.2704695331,-0.0530893676,-1.5726379817,-0.2207007707,-0.4302751231,-0.114357648,0.4599986617,0.7556620205,0.3397593885,-0.3307951267,-0.2598191398,0.348579375,-0.7509095826,-0.7298746207,-0.0672513787,0.7760070169,-0.4866172846,-0.367687196,-0.6529881655,0.3122524727,0.4281340745,1.5865561275,0.1039337369,1.0429858985,0.3627331831,0.6478354374,0.3366098018,1.1560600397,-0.7166047907,0.8961549447,0.0654345286,-1.4026370672,-0.8261494987,0.3952840275,-1.0084305201,-0.5391736662,0.1735341896,-0.5191994457,1.2472912547,0.7331965277,1.4613954816,0.5621049869,0.592328954,-0.948787865,0.2152738617,0.1761322646,0.4391464221,0.5347495217,-0.1327389556,0.1875516126,-0.7262755827,-0.0432480039,-0.0283708442,-0.3574301564,0.9132773163,-0.1971032704,-0.696203821,-1.2654499549,0.1965948211,-0.1269847984,-0.4718596761,-1.3928568509,0.7632307935,0.9402407739,0.7442451723,0.0219821797,-0.9058868908,0.0439967223,-0.1499032717,0.2954503517,0.8318131312,-0.3330503114,-0.2032255004,-0.1167763071,0.5547570659,-0.5397326955,-0.0680017303,0.5313131816,0.8834668082,-0.0606654122,-0.0331995329,0.7220271023,0.7282240165,0.3267826414,0.9653257744,-0.3055034072,-0.3936213931,1.0787458153,0.3917129989,1.5556430833,0.5438115006,-1.3384379943,0.1767139219,-0.216561267,0.8145322975,1.975125443,-0.1280214233,0.6443065139,-0.3264415751,-0.7902231687,0.4298460711,-0.0981991043,0.3536880963,0.795505518,-0.7786178559,0.5266994675,-0.0570867298,0.3640583097,0.810975483,-1.162665815,0.673044984,-0.7521505373,0.5485148868,-0.6398518903,0.4646676029,-0.1883948163,-2.0496779122,0.5645889311,-1.0152833604,-1.2935747813,1.082757584,-0.1824855296,0.9167216598,-0.2777470912,-0.283717053,0.3384823465,-0.5967914906,-0.9749511896,-0.5088454238,-0.8280307753,-0.6652094845,-0.1733308289,0.251354346,-0.1347955149,0.0642133444,-0.2288350242,-0.7570791393,-1.0083097155,0.47163953,-0.1899496254,-0.1188039037,0.7875276952,-0.7104978511,0.091394759,-0.7549525043,-0.333720743,-0.4229944141,0.6526362185,-1.9259922524,-0.2563423849,0.8766227454,0.3428531884,0.0525625509,-0.4322535859,0.4975620721,-0.1805887844,-1.3196881627,0.714340168,-0.4133045554,0.191412379,0.0922957777,-2.0203106873,-0.9116812339,1.1430011504,0.3585200555,-0.8726086681,0.4299909829,-0.366918969,0.1095576429,-1.0745032299,-0.3720648899,0.7914557814,-0.0316502049,-0.540029015,-0.2082180808,-0.3738377331,0.6200427042,-0.9732511537,-0.3031777968,-0.0382596577,-0.7650259404,-0.3664902723,-0.2910106715,0.1930019225,-2.8390055651,-0.6642490668,-0.6173944373,-0.008208019,0.5810248182,0.8920119842,0.2938755409,-0.2786803936,0.171103541,0.5683402215,0.3158743366,-0.2189586917,-0.0734675234,0.1842659543,0.4210252609,-1.2238615581,-1.0029098546,-0.2050864833,0.7157634364,0.5447364294,1.734290478,-0.6256475782,0.4278216888,-0.0201120587,0.6706767201,-0.1193454844,-0.3875187887,0.9102494176,0.0730546512,0.411671717,-0.0991768337,-0.238025816,0.5792142245,0.1240548825,-0.4357509495,0.2240436851,-0.2917137349,-0.1417934198,-1.292700301,0.3253107148,0.6825625389,0.2393724587,0.3550088232,-0.9022370408,0.6783332377,-0.1536603372,-0.2306488504,-0.3873573908,-0.7665025466,-0.5833237597,0.897643647,0.3045075553,-0.3034309192,-0.187735535,-0.1362114,-1.5896059409,-0.0254370149,0.8835951001,-0.4949869822,-0.3669536683,-0.6783132703,1.0056596459,-0.4409254869,1.3012162069,-0.1425155721,-0.9072903867,-0.9924654344,-0.8594312888,0.7382814755,0.0906238303,-0.1681038397,0.6451435361,-0.1817025998,-0.2716601733,0.5377614332,-0.6591337044,-0.4179434606,-0.8363967362,-0.648325555,1.4741031726,-0.7120486333,0.3063526526,-0.2425977708,0.3619998859,-0.6646851154,-0.0591592179,-0.4098599045,0.6509523306,1.0049333545,0.2257325623,-0.8782036668,0.168128608,-0.4831444052,0.3716765721,0.9420874568,0.0621398574,-0.2549764401,-0.1524367682,1.2618277115,-0.5530166622,-0.4188306881,3.0173275958,1.006804761,0.7598727438,0.4933094561,0.1330244307,-0.6271325277,-2.1178005458,-0.7209956593,1.1700192198,-0.0482609458,-1.4047902496,2.0180850525,0.9584129502,-0.7980495529,0.1408832632,-0.3315129398,-0.5916867847,0.9028795877,1.2670259097,-0.7239354451,-0.0158227129,0.9791121602,0.3891241603,-0.294008832,-0.2883483149,-0.8042070051,-0.9793947552,-0.9919960231,-1.2167811046,-0.6447158199,0.223612032,1.2877138135,-1.0589865851,0.2531345777,-1.0374160908,-0.6750593916,-0.1451720577,-0.2555604009,-0.6432327256,-0.6715978183,0.8322970089,-0.1879061162,0.7343808828,-1.1170628924,-0.4869209008,0.3404491184,-0.138629569,-0.3471185558,-0.1208464622,-0.7654533578,0.3726336962,-0.8968144692,0.2678891153,-0.3997321831,-0.9537647858,0.2546807104,-0.7932929917,-0.3293779133,-0.4361872865,-0.9904785178,0.8565681407,0.721963599,-0.5280774459,-0.6899114192,-0.4886892164,-0.4158127416,-0.1073721162,-0.7485715121,-0.2747300065,0.2490973787,-1.3951072888,-0.4185720565,-0.9060196248,-0.3257872624,-0.2193744742,0.6731290173,0.2210403557,0.239782205,-0.8284715802,0.4744098436,-0.9543465874,-0.5145047408,-0.4314605762,0.2931860755,0.5107985945,-0.5213387165,-0.8631735683,0.3589100897,0.6966041919,-0.4991739126,0.3517315511,2.3924395113,0.6744138881,-0.608651855,-0.3933314012,0.0021566532,-0.5167660373,0.1233601444,0.1561470035,0.460268165,0.694171974,-2.7280535564,-1.3371823751,-0.2145983823,4.851820357,0.1981379118,0.261884676,0.388187807,0.9259361384,1.0185752037,-0.7682512132,0.48683672,-0.6253874681,0.7162061504,0.0446908785,0.3451621152,-0.293967075,-0.4322787587,-0.4219155288,-0.5939139738,0.609858675,-0.6768418196,-0.3664293356,0.2142759851,-0.031538486,0.7898615575,-0.4181026697,0.1636559393,-0.7568602342,-0.4305002581,0.9903931073,-0.1247779808,-0.3278161704,-0.2781631421,-0.7778087319,0.7600165137,2.7793316844,-1.0156421128,0.1577106708,0.3486548349,0.037790206,1.1690882095,-0.7130981734,-0.341759451,-0.3546605973,-0.9528828206,0.8164810215,-0.4509265764,0.0002803151,-0.494908693,-1.0443729157,2.4237179445,0.4653964879,0.4193207598,-0.016358344,1.2953266737,1.0671221199,-0.5444520919,0.6009607901,3.2799202204,0.741641572,-1.0330021662,0.0023552124,-0.0245763958,0.8501006726,0.0032929754,-0.6277270003,-0.7964809472,-0.0771781484,1.1148687243,0.6990703416,-0.6269008643,-0.3942905719,-1.021943593,0.0784386854,-0.3302143537,0.5366989313,0.7057758705,-0.6350587237,-0.2502006744,1.2017278217,-0.8363380576,0.026479513,-0.8637160417,-0.8218232863,1.3314371833,0.5331977355,-1.2499442323,0.3089491089,0.2342867289,0.911779113,0.2898497944,0.9548212774,0.5867512629,0.0574930435,-0.4423691466,0.8037064012,-0.9450047025,-0.8862556243,-0.5085589891,0.156125149,-0.3798700958,-0.3585118139,-0.1816514251,0.0830197971,0.7821819983,0.1001431403,0.1427169516,0.0434469234,0.9540225302,1.2535112882,0.4303721419,-0.4923007743,0.7355856068,-0.2394536173,0.2084221526,0.6454139824,0.6275966549,0.8828783475,-0.507595107,0.9808178458,-0.1804659319,0.2795051139,0.6806503111,0.1409671859,-1.4299413633,0.5690993386,-0.5353044576,-1.0606160495,-0.3178667388,-0.6256544663,0.464772639,-0.4880758022,0.5711653006,0.306749745,0.1680730184,-0.9573712923,-0.9142682693,-0.069474054,0.0194440062,-0.1568909336,0.5769323035,0.1851757458,-0.0163737525,0.4808743408,0.9500994857,0.4117697127,-0.4505813807,-0.0125332552,1.2520494439,-0.0866599375,0.7330292086,0.1814290856,-0.443962489,-0.0519882031,0.5995348272,-0.8373115441,1.2851872112,-0.8274407754,-0.3668867659,-0.2854397109,0.9923826423,-0.3649119365,-0.5643513718,0.0090815395,-0.381974831,-0.654071793,0.3143722468,0.0856728249,-0.678323513,0.1717253438,1.0375784101,0.9652824704,-0.7192297909,0.8982027878,0.5930162275,0.6649455085,-0.0738981353,0.4845961863,-0.6824105359,0.1123865739,-0.3342240913,-0.566832839,-0.2084365645,0.335984307,0.1967167062,-0.3470295869,-0.8553711971,-0.1759067209,-0.3463253847,-0.2145317872,0.3614131487,-0.5517735348,0.3156830044,-0.1339633225,0.3952745182,-0.4573580014,0.6123694812,-0.5945320156,0.7657867676,-0.0145263453,-0.2739168035,0.0867193463,0.0646620044,0.1496911336,-0.8682989095,0.6260188707,1.1193437133,-1.6332624972,-0.5607928392,-0.752138792,-0.6042905977,0.3152011098,-0.0285180803,0.4906129576,-0.4868044256,0.6922347698,-0.5003884653,0.0746598045,0.2646216265,-0.038270442,1.0350138899,-0.7570953133,0.4726039781,-0.0994235548,-0.5344812093,0.0145669559,-0.1370670689,0.0359717937,0.1106990606,0.4047165459,-1.1255553936,-0.3159424199,0.5004737061,0.3512115094,0.8154432791,1.0546420136,-0.4692679478,1.0059090473,0.5401814326,0.861617335,-0.3888758053,-1.1000906727,1.286933425,0.3280161958,0.2794612384,-0.0028159342,0.596651583,-0.9101790087,-0.0519342972,-0.6651413075,0.0798723681,-1.5699643542,0.0293308315,0.9088694313,-1.4152013275,-0.2234614928,-0.1561064039,-0.4967907589,0.4933742115,0.1306877984,-1.0037842857,0.874858753,-1.4901249858,0.0845543921,-0.090715288,0.6245887805,0.0618834181,0.4512152841,-0.3748707308,-0.1193086308,0.6580043874,1.1008307446,-0.6646893225,0.3249457811,-0.6478112955,0.19521517,-0.1757548761,-0.1653246365,0.7501857761,0.3642015704,0.4825912675,-0.8811788268,0.6447105954,-0.662439963,0.0587952638,0.4653024164,0.6228916511,-0.1073496344,0.6658231448,0.0352453119,1.130355422,-1.1231539009,-0.2598526371,0.6704721117,0.0105360365,-0.7181664527,-0.4756039181,0.412152025,0.725544738,-0.5862609635,-0.2822692266,-0.2181180718,0.1754295809,-0.1610230448,1.1004684553,-0.528103978,0.7827905665,0.4660648731,-0.7906661947,-0.1908626526,0.7142751385,0.3265079526,-0.4224051924,0.4413111016,-0.5798619959,-0.7837468838,-0.6293923455,-0.8091264321,-0.2033058349,0.1108839898,0.3809581961,1.2671352411,0.7603961743,0.0520337272,1.0554998392,1.2750907597,0.3485224375,0.7579750823,0.1976460659,-0.5223249138,0.6014872951,-0.5988425014,-0.7973224479,0.7031335965,0.9620367581,-0.4304612448,0.7906489938,-2.9413616801,0.2100080413,-1.3992898996,-0.6318315161,0.3416998442,-7.6947314711,0.050796129,0.1241603353,1.4408674587,0.1153178346,-1.0023331809,0.0893436842,2.9752045341,-0.6181438335,0.9230871595,0.884697332,-0.7052129822,1.0477277107,1.0125753315,0.3156525141,0.3065588917,0.3541053878,-0.2448228734,0.5545254539,-1.5907725615,-0.372316822,-0.2660799118,0.2909732017,-0.9120080749,0.0396099941,0.2409368641,-0.231842318,0.8734362666,-1.2092966838,-0.7105720648,-1.6297418716,0.5078942051,-0.1615981444,-0.746440286,1.0471587466,-0.4763200349,1.8385541251,2.3669188661,-0.228748805,1.2070761415,2.1817464846,-0.1339031151,-0.6318672406,0.5653734749,0.4469136947,-0.916433614,-1.3682525288,1.1583121667,-1.4611177208,1.8888500589,-0.1945790983,0.5531472908,-0.0221678358,-0.5227398267,0.4448719065,-0.7471522392,-1.7735256381,0.5418234714,-1.9416964353,-0.9601457042,-0.7312227861,0.971663739,-0.7124054671,-0.18060647,-0.9956183479,0.1489937051,0.9413184978,-0.6187641555,-0.0264582198,0.9069069574,0.4574966599,-0.9941949558,-0.6758580259,-0.7058512629,-0.5913583665,0.8656182659,-0.7418052699,0.0146992061,1.333221786,-1.8600557086,-0.5125302348,-0.7709719002,0.0471136882,0.1937031562,0.8829763383,-0.3976356248,-0.0333158034,-0.6302078084,0.1721993708,-0.5932629671,1.5491444817,-0.6077872048,0.5920738836,0.1637198373,-1.0921733928,-0.3255358036,-0.1203159256,-1.1505075765,0.6220129061,-0.0271445515,-0.1589240726,-0.167053113,0.5983898011,-1.1926591108,0.2623164081,0.5709932988,-0.3081186244,-0.4246176633,0.2224858067,-0.4104877912,-0.0310922123,-0.4765322323,2.0209981362,-0.0057205963,-0.3837259281,0.860723464,0.6143986614,1.7681959348,1.0660361244,0.7504190292,0.5747075804,-0.4508954319,-0.1723465279,0.512955279,0.6384365882,1.0190580348,-0.1933568432,-0.3120973098,-0.8408491065,0.0683830459,0.4903899509,-0.8653882776,-0.3667633644,-0.3599740157,0.181372338,0.7600513132,0.474235808,-1.2385866768,-0.3123282068,0.0316151415,0.3208820127,-0.5439208765,1.0965502917,-0.1801230331,-0.9511830361,-1.8507212845,-0.3753193593,0.6250922009,0.0025871922,0.2083007616,-0.837764662,0.3254107583,-0.156084353,0.4806040186,0.3443693183,-0.650401567,0.1696083222,-0.5856710425,0.4920010746,0.970913938,0.5462730245,-0.2692254804,0.0443332233,-0.6293021426,-0.922357053,-0.0220290886,-0.4775411152,0.6547624363,-0.0980384858,-1.007034582,-0.4028365267,0.200819293,0.9618132306,0.8376713009,-0.5041788551,-0.0141880345,0.7396127232,0.1917286041,-0.1610832651,0.3798685348,-0.4755238853,0.7577624217,1.0484459914,0.559233462,-0.0743941875,-0.1650346076,0.3991489168,0.3521849037,0.6449428315,0.3744334833,-0.958274043,0.807491023,0.1487956141,1.142631664,0.2491092364,-1.063111053,-1.0287647543,-0.9100477483,0.2575029553,-0.2182345946,0.2530092545,0.2170044443,-0.2315984278,1.0635398269,-0.7281682796,-0.6374711538,0.7215508911,-0.9799521746,1.0576599382,1.0035787977,-0.843263352,-0.159658843,0.3033521981,0.5781945707,-0.6797900359,0.6496102205,-0.4366741133,0.4576156617,0.8231741208,-0.1654617634,-0.6347577048,-0.6423672036,-0.8992744605,0.3530268993,0.8705518167,-0.7367365767,0.7477577944,0.7935627225,-0.4850929145,0.2286219485,-0.9183465666,0.3828780591,-0.4615219618,-0.4145266233,0.2632521624,0.9824184935,-0.0624147071,-0.1652218497,0.2698630538,-0.703141424,0.0260630303,-0.5946074502,-0.702690979,-0.0566616093,-0.3138833628,0.7769180408,-1.0371092688,0.1703335782,1.3051537188,-0.0483995299,-1.2018588444,-1.448879366,-0.5001904314,0.7630802266,-0.8328712687,-0.6796503469,0.2023217489,-0.8238158262,-1.0091158692,0.8376537973,0.3635674276,0.2727600748,0.6237914313,-0.2198224941,-0.1258270042,-0.9660380767,0.3836817824,-1.1575797767,-0.4404423953,0.5810217712,-0.7008337535,-0.6498374272,0.7870807769,1.0775384027,0.3561399355,0.5488981625,0.3250206579,-0.6545166828,-0.6447866431,-0.7395954633,-0.1191664657,0.4548023328,-0.533463867,-1.0127318143,-0.4381047931,-0.3709827959,-0.0458076975,0.776666799,0.1773349141,0.4193492297,0.1364602286,1.4549222581,0.5371952619,-0.019892832,-0.9693999675,-1.4515857434,0.1678911774,-0.34361868,-0.7877183891,-0.0384656806,-0.7188945114,-0.7460949515,-0.8133928039,0.0683039713,0.8567124818,0.8468826745,0.3920323668,1.0437394505,0.628002079,1.0604922859,0.1998582025,0.5951689646,0.3913137641,0.8839329808,-0.8077579551,-0.7436363489,0.0139004427,-0.8390308765,0.9613350399,-0.1429631423,0.6164122524,0.6983472246,0.7413845102,-0.1811994883,-0.5466055875,-0.5477015394,7.1858553517,-1.3027992391,0.1632953274,0.2338966837,0.2204418212,-0.592536402,-0.925653966,0.6200610362,-0.4052516318,-0.327273235,-1.4095424114,0.9414532533,-1.7091679019,0.409187328,0.057994941,-0.6540065374,0.0088821161,0.5738453409,0.6428081079,1.6557967442,-0.7272197986,0.0601335382,0.6801792145,0.365804052,-0.2503758949,-0.0287015659,0.7140679879,0.4654047012,-0.5361263969,-0.9027906519,0.21831398,-1.3001657474,-2.505539586,0.6950089464,1.8740010826,0.2460708187,0.7102080539,0.8828201945,-0.8374153023,-0.379124868,-0.8734080299,-1.1564226107,0.2787417722,-0.9705385264,0.441717015,0.6576348774,0.6785258052,0.1377045281,1.634045781,-1.0110674641,-1.342284438,-0.5357341927,-0.6469349811,-0.3337979885,-0.3838846512,0.5912010358,0.4399762767,0.3705778128,0.9864843484,-0.2122013704,-0.7204902912,-0.2686527931,0.5612453957,0.4212779943,0.9486221897,-0.5448916439,0.2610493804,-2.3498755953,-0.2629604016,-0.121844758,-0.0565805289,0.6833793043,0.0828303473,-0.5432061343,0.4908697917,-0.1618961855,0.3972889114,-0.8646400008,0.2291496083,-0.9613810757,-0.5420097527,0.1678207189,-0.8413837636,-0.5859965876,0.3161465145,0.7974260709,-0.0590923639,0.8669375066,-0.5314575505,0.5252038772,0.6917818846,0.1656504685,-0.5380514112,-0.0468410547,-0.3925883944,-0.1499858439,0.2558044219,-0.2597879197,-0.2568350249,-0.302467825,0.4930380662,-0.4412709427,-0.4765478687,1.3269558379,0.1392807683,1.2086717217,-0.285898144,-0.0619970943,-0.1917028611,-0.2717223561,-0.1091533862,0.841989637,-0.2991881007,0.2852547609,0.961377373,0.1087500143,-0.0613410179,-0.8159222805,0.8017965144,0.7471900831,0.8466971021,-0.7621172161,-0.6963595,0.7883487293,0.5303381968,-0.5212852503,0.5222667728,-0.8681875355,0.1372879334,0.3676623582,0.5569781751,0.4125879962,0.0727979878,-0.3234577675,1.0857539702,-0.8744636961,1.0445176434,-0.4637813405,0.6018655561,0.3305727034,-0.7250054165,0.8359247799,0.9304152299,-0.6779716913,-0.5043886823,-0.0350059836,-0.6012057628,-0.9106267218,-0.6985567035,0.1143858543,0.2807891167,-0.8625660287,0.2084069475,0.6354540679,-0.8455124303,0.1024847117,-0.7712496854,0.1860866406,0.3599253521,-0.5721195529,-0.7217570388,0.2776757931,-0.4571270547,-0.8633976066,0.2319949618,0.0832958701,0.1057176433,0.3265052758,0.3430633515,-0.4033414853,-0.6273721799,-0.3668421765,0.4221374431,1.0536212161,-0.1247642741,-0.1659177758,-0.3905818075,0.3924043017,-0.9275392372,-0.3212147481,0.8483155123,-0.3877352837,-0.9950547413,0.3015244116,0.6631448229,-0.3920223596,-0.6436015744,-0.6912758567,-0.5164983589,0.3878235449,-0.6288814177,0.9846549361,-0.3425673158,0.1595876831,-0.1316801778,0.6813954886,-0.9769437713,0.6694999371,-0.5697656537,-0.0637119385,0.7422171025,0.8414481617,0.4267492248,0.1154890911,0.2385547897,-0.9051348477,0.0326216692,0.543534633,0.406310568,0.8303631696,-0.1443738684,-1.5935189584,0.7845037703,1.5123656062,0.1664856827,0.5562459153,0.9989744402,0.081646887,-0.7706243446,1.0880558529,-0.2271897659,1.1842160154,-1.0706489901,0.5453036798,1.0953717759,-0.6275939006,0.3301627934,-0.3272424932,-1.0250390325,-0.0921167695,1.0165425559,-0.1219695466,0.6334738875,-0.5377515339,-0.8358087636,-0.2025178934,-0.1550847961,0.7803123194,0.0463629352,-1.0163906077,0.0640617706,-0.6625937213,-0.0463779782,-0.4995950454,0.2341563189,-0.7977662624,0.4144183934,1.0144003442,-0.6014757769,-0.3922624317,-0.5822204307,0.6435368103,0.6627604871,-0.6753266963,-1.0334115935,-0.122448821,0.282936703,-0.8819164371,-0.82531692,-1.5569606762,-0.6412699456,-0.0325804959,-0.9491973206,0.3282637263,-0.4271658297,0.4442909687,1.2346722987,-1.6068049641,-0.677814104,2.3022823168,1.2923654721,0.3317059358,-0.40374613,-0.0374416379,-0.55361754,-0.333389011,0.04886799,-0.1989339748,0.5537196572,-0.3189151484,-0.7682370658,0.9315669062,-1.9462869932,-0.7439925037,-2.1325719422,0.1179910762,-0.819492164,0.3623735621,0.8559425985,-0.0532052131,0.4199416888,0.3174492505,0.2879482505,-0.1142422708,-1.1832233233,0.5338580321,0.0198624278,-0.3576508945,1.0441559334,-0.8705956188,0.6206062897,0.9210895235,0.5757699471,0.9058719772,-0.6362221462,-0.2341875094,-0.733894979,-0.4302138336,0.1454059322,0.1099004015,-0.7642138825,-0.3502830532,-0.576794236,0.8205113972,1.0728552077,0.941401144,1.2643534512,1.0449466101,-0.050041472,-0.6961307635,0.7225606247,-1.6326122951,-0.7534786992,-3.3337415483,3.9567195165,-0.8246122783,-0.2685233772,-0.4497900467,0.792685769,1.0609726517,-0.6044366182,-0.5155798335,0.7377741813,0.92727161,0.7170238251,0.0279912587,-0.37386525,1.1495325253,-0.6654504139,0.4405499678,-1.0909554335,-0.4724759919,0.5807167466,-0.586776268,-0.3638418184,-0.692134469,-0.0811253437,2.3428932888,-0.2538357458,-0.158626847,-0.8066469338,0.4137366842,-0.3832333894,0.4942502054,1.5474609734,-0.1028642412,0.7399022176,-0.6026553931,-0.7834608018,-1.4212267803,-1.9522767291,-0.6268773127,0.5701315549,0.198554299,0.4167925662,0.4555398022,-0.1623769649,2.1366987586,0.8958820014,-0.0944604905,0.3389869116,-0.5831860138,-0.3134700012,0.8712776023,-1.56416434,0.5873775713,0.0419208343,-1.1064340359,-0.2572514618,0.9737332017,-0.7143650914,-0.0216199417,-0.9651646393,-1.4400979526,0.4492875082,-0.8170534977,-0.9113999167,-0.2898992517,0.8211771476,0.6705614108,-3.2884062671,1.0859426576,-0.4911706518,0.8762496764,0.1009602539,0.0145907646,0.2303183647,0.0217118003,-0.051992446,0.331520984,0.4245281592,0.0116993546,0.5742903386,0.7057911168,0.2584521017,0.7440937882,0.6990771927,0.9754234341,-0.9742460859,-0.5887095493,-0.2625390475,0.642727745,-0.1710571702,0.1924866296,0.2903530662,-1.2990596908,0.3884461096,-0.2223092697,-0.8450351204,0.2710651005,-0.9817844874,0.0321073682,-0.590259826,0.6426543033
   -0.7124654835,0.9356500795,0.029942108,0.7552756931,-0.7116663894,-1.1673925208,0.0630056326,-1.0319929736,-1.6893623807,-0.7871312425,0.47417652,0.9506949645,0.3104361727,-0.6018667715,0.2776817337,-0.7442937795,0.505332498,0.2425690937,-1.0941230368,-0.2934118982,0.5327500733,-0.9114707047,0.9178655008,-0.3135978541,-0.3824614236,0.4621408788,-0.1398613118,-0.3915894311,-0.0466260027,0.6700223152,0.1325893278,0.6682060287,0.1731805089,1.5121206256,0.1167097443,0.5900212588,0.1793733353,0.8158138592,1.0927073595,0.3543662299,0.073326755,-0.0809264558,0.3315157278,5.644154577,1.4657882024,0.3257616583,3.8281322685,-0.2504237362,0.0353713093,-0.7689815788,0.1333493376,0.5235884928,0.7033997668,-0.1432498133,0.8049661367,-0.3046006444,1.985521155,0.2357702784,0.1529734032,-0.537186407,-1.9757734391,0.3990019496,-0.6937042467,-0.2139621629,-0.1525686357,0.1462056525,3.2255908494,0.3997120465,-0.2896378102,1.2913765317,0.4435657981,-1.0267755346,0.1446011592,-0.1387558988,0.5539251482,0.8732273964,0.1496181002,2.0544892666,-1.9283290264,0.7709392153,-1.8057781092,0.3041406037,-0.10890131,0.5951304667,-0.7846607376,4.376421434,-1.0505716296,-0.4831452315,0.6643731743,0.9004975331,0.6519680816,-0.2052120606,-0.4951508613,0.6722894588,0.1870549553,0.2601603078,0.209962708,0.3579756093,-0.8547398746,0.518179855,0.3059167165,0.0446189198,-0.906115028,0.2517409953,-0.0081753083,1.824259414,-0.6484912666,0.3799353656,0.4828728772,-0.530486334,0.1638380113,0.9766985724,-0.7568541839,-0.7432464685,-0.4016874147,0.1685394231,-1.3162793365,-0.0247638682,1.1639395172,0.6321627177,-0.829185813,-1.0288989185,-0.3576001,-0.8271183051,0.9527486803,-0.4459330437,0.956106948,0.2930079208,0.1648472704,-0.7209567728,-0.452935655,0.8982815479,-0.2801649646,-0.4536360096,0.9601355208,-0.6064498961,-0.3949720516,-0.1094347429,-1.1610082597,0.1261362988,0.0364616855,0.8203129133,-0.9664394461,0.4255226421,-0.3508074903,-1.0107943681,0.5445703161,-0.5774616176,-0.9216154461,0.0897391403,-0.412553767,-0.5533435104,-1.0961056523,-0.6936475872,0.8170684903,0.8397009588,0.6762229375,-0.0169954838,-0.89082346,0.0630317343,0.2764451054,0.4039097323,-0.7088495464,-1.104773181,-0.5591949383,-0.6969478226,-0.2718958875,-0.9137177693,-0.7458722305,0.0533264525,0.2154080296,-0.5809497277,-0.1465316288,-0.8231767993,-0.2064912001,0.2127785168,0.7282782134,0.3055852392,-0.6755108505,-0.4545055216,-0.1445007428,0.0971810693,0.0724708661,0.3221421394,-0.1514403447,0.6731380708,-0.2281527683,-0.9308635638,-0.3807472083,-0.1839521359,-0.4031696545,-0.8420363635,-1.1906313498,-0.0963605644,0.1307505505,-0.7467676644,-0.3640803876,0.2618585074,-0.1901366002,-0.6309669265,0.0719579539,0.7520711849,0.8586065921,0.445719832,0.804734021,-0.0306272252,0.3238025161,0.757383763,0.0409438441,0.7331446926,-0.9428895679,0.3627804631,-0.9043351264,-0.2104184666,-0.5935803901,-0.1887880989,0.9598352262,-0.2154440117,-0.430054102,-0.187172783,-0.0880740545,-0.8980638809,0.9368558932,-0.2375926375,-0.3507519762,-0.7865434512,-0.4510935662,0.5883934328,-0.914228002,-0.8345555206,-0.4940500071,0.6938756037,-0.6820545476,0.2144654534,-0.3977240497,-0.2249939713,-0.8267549877,-0.3356392905,-0.9902850679,-0.6461993906,0.6162038935,-0.0925522811,-0.5362026512,0.1717114433,0.1338056432,0.3425344512,-2.2721241722,-1.2376613866,0.5622239181,-0.1275201123,0.5207901865,0.8655885278,0.4241469268,-0.5672170818,0.4887091042,1.5256170302,-1.1506860673,0.7624323377,-0.616030261,0.9087887732,0.749504215,0.0172866888,-0.0195400817,0.1882391582,-0.8315301275,1.1912698738,0.5883193307,-0.6843017907,-0.8457083521,0.8581575227,0.4916143957,-0.9874734887,0.4366863854,-0.7599126582,-0.3586868832,0.4450126768,0.5949142472,-0.6906686821,-0.2810763742,0.043834501,-0.3225432574,0.4432726996,-0.3135920484,-0.9761768684,0.4334730938,2.125280554,-0.7394285386,-0.0124821915,-0.5555608067,-0.3728592398,-0.261318591,0.1566869041,-0.5862086896,0.6229572906,-0.2733753718,0.8892084818,-0.937946669,1.4053421536,2.7979727081,0.5439620716,0.5609228863,-0.9049846392,0.6119593838,0.3329979415,-0.3070504863,-0.5310973089,-1.0324035438,-1.1234032549,0.4547220439,-1.0396227376,0.5594102495,0.6624921101,0.913731923,-1.1928013785,0.3314300208,0.2342133546,0.6260164634,-0.2968006272,-0.1855932385,-0.5145347154,-0.0670128644,0.3255409067,-0.3136523614,0.6604896597,0.548859659,0.4861421921,0.4227764796,1.0947714278,0.7754673326,1.7627594593,0.3005431695,-0.6732104641,-1.7299911041,-0.6603032283,-0.9146031301,-0.4865642753,-1.3910963698,-0.6807474376,0.0450418762,-0.7217921727,0.732723438,-0.7958404996,0.5703618816,-0.0518786162,0.4748199424,0.4645415365,0.283220938,0.5768254328,-0.5394323372,0.9219225159,-0.741751899,-0.0261700079,0.1400838046,0.1926825407,-0.9103675166,0.2145273576,0.6400528142,-0.9414908676,-0.9278675552,0.309998919,-0.3007263697,0.2880651182,0.2734217741,0.379485743,0.4410412906,-0.0298982632,0.562394341,0.0260996962,0.6956296144,-0.3713573986,-0.1367575073,-0.3527578286,-0.1919178887,0.7071675107,-0.3919600549,-0.4885764565,0.2119566862,-0.2452223025,0.1558593677,0.5959518713,0.2141597912,-0.6271730034,-0.7592652431,-0.8781995092,-1.2886998007,-0.8680566141,-0.3996917985,-0.2694969843,-0.5344053714,-0.2549322952,-0.199220017,-0.6652544172,0.644250159,0.3452740025,0.4859458215,0.979023035,0.4206096373,0.2828445546,-0.0630642552,0.7254491508,0.7365281457,0.6102233112,0.0471083976,-0.5410855274,0.7686398675,0.5020447724,-0.4569249947,-0.6503425594,0.3418746911,0.7851026771,-1.3863443333,0.1666449991,1.1408812283,-0.0286689815,0.6752630862,0.6353221211,-0.4444495915,-1.7094106807,0.5557193623,-0.3787902293,-1.2578543616,-0.3858589434,0.5867519765,-0.1901169413,-0.7577063761,-0.4816137746,0.5546734196,-0.3283913415,1.172295166,0.954733596,0.5209446403,-0.6113582616,-0.4715293952,0.2584681525,-1.4371058497,0.5726560982,-0.5164513231,0.6698809118,-0.8659605623,-0.2471993172,0.3291555177,0.437272191,0.9810993339,0.1061327352,1.1065527918,0.0285031921,0.5638505237,0.1708787269,0.3786049811,0.1602110105,-0.0194442518,1.364272093,0.5623994608,0.5577992259,-0.8547010817,-1.4745514624,-2.0540487243,0.6560649361,0.6787731682,0.7105873491,0.1001615407,0.3701364303,0.1308075031,0.5167631748,0.1240304137,1.9863899882,0.4147380839,0.8120157969,0.6327307575,0.4761590273,1.0463617638,3.1356928122,1.0782986189,0.2527055653,0.1121920653,-0.0001551071,0.977704378,0.4051830891,-0.0254174313,-0.1710113383,-0.8253762289,-0.0817247867,-0.2108891278,-1.7135417186,1.3738404573,-1.4333888398,-0.8583036757,0.0611654001,0.9119181535,-1.507308901,0.6704941224,0.7052355663,-2.2301189859,-0.3748131005,-1.5614615038,-0.1199194199,1.0622992083,3.0201230719,0.4787522272,-0.6097007621,0.68364524,-2.2242072519,-0.5595010158,-6.5485620173,1.5580839815,0.5819868378,0.5409958879,-0.5902840975,-0.7037456309,0.7498461736,-0.3621446047,-0.755301232,0.126356469,0.0976402496,-0.418238143,1.4494086479,-0.0990477984,0.6867899894,0.5595967907,-0.9218096357,-0.8221869908,1.6662302401,-0.7925629972,0.2668234006,-1.1827914753,-0.3566722906,-0.2017433718,0.3545131651,0.9183388981,-1.1374483485,-0.7813699253,-0.066777035,0.6176384998,0.1737701831,0.263594978,0.1263048641,0.9424287868,0.3650998552,0.1809434753,0.3234538116,0.18874262,-0.5964083612,-0.0091493217,0.5252880628,-0.4627364524,1.148922639,-0.4976937363,0.5126060267,-0.6707218947,0.7869359214,0.147001493,-0.7800955044,-0.7445657345,0.2104541792,0.7732949948,-1.6690857508,0.7159087322,-0.0909390426,0.6261897579,0.16732858,-0.2549361791,-0.5901880887,0.3587364863,-0.0599788005,-0.5450342844,-0.0797903273,-0.0011020544,0.3017026824,1.0296730643,-1.3370839673,0.5940449572,0.9996174023,-1.6729528855,-0.0273848925,-0.4832942759,-0.2505043918,1.1224019475,1.0205795882,-0.5411157945,0.5094588151,-0.6452992615,-0.8755552572,-0.0181044138,0.2412259494,0.9124655097,-1.3786566345,-0.7005305141,0.1306570281,0.5547652198,1.146423774,0.0194023111,-0.6876406135,-0.3835861614,-1.2564318302,-1.0441648328,-0.2493151315,0.7118829646,0.6839253091,-0.9030243496,0.8066350306,-1.4206554516,-0.2955743952,1.138706714,-0.2142295827,0.7385531274,-0.7954856656,0.4702571682,0.5457482326,-0.0199222214,0.4520851331,-0.6795107762,-0.1189020874,0.4693090984,-0.2134392275,-0.0708470667,-0.0524974426,0.1626533082,0.7005363716,0.6611611882,0.3228779073,0.1177650893,-0.4596301563,0.6639587272,-0.6692670347,-0.7983460734,-0.5251905897,1.3237344925,0.828256431,0.573327583,0.0287285935,-0.7247169085,0.2126784983,0.9192682929,-0.6631281536,-0.3597251167,-0.531828523,-0.0083057732,-0.1312672583,0.6744427784,0.624298829,-0.6370381725,0.9312166149,-0.7093509235,-0.0781124006,0.0280124635,0.9588616747,1.4169326562,-0.2102112545,0.4042932761,-0.2065692932,0.8719573313,1.1089954407,-0.8641131222,-0.1634239022,1.0016388762,-1.2959112934,0.6089829056,-0.0341616829,-0.1721006451,0.5560496237,0.1065457505,28.3876702764,-2.9352425348,-0.1308969745,1.8942317512,-1.0548800292,-0.8593219222,0.2176274149,-0.2853345737,0.1984301392,0.4892713498,2.5204402533,-0.6426762093,0.2956104531,-0.8969506268,-0.3823833365,-0.04851556,-0.5216929443,0.0954213069,0.3305843028,0.1553823486,-0.7224773812,0.5547732387,-1.3016086716,-5.2294869999,0.370110467,0.9250964084,-0.5814526844,0.9542944311,0.3003491446,-0.1144953577,0.2197437424,0.4108333556,0.0503385598,0.6770393701,0.121820439,-0.5627340585,-1.40157255,0.4455017709,-0.7081630214,-0.9898777092,-0.6332279716,0.0390271596,-0.8983557463,-0.3974271132,0.2146524124,-0.0791739032,-0.3133190515,-1.0837945646,0.8780759436,0.303153404,-0.0697470034,-0.4685564761,0.2116185524,0.9080426159,0.0750063174,-1.0749665276,1.2068718742,0.5214214343,0.5910566718,0.5314742842,0.0071482049,0.8993146598,-0.5189041012,-0.19972171,0.5518170947,0.0303303017,-0.8561733656,0.6072076885,0.4303542506,-1.0442281809,-0.3837025623,-0.509454729,-0.8110417155,0.4216084243,-0.7458042354,0.7282748743,-0.1575514229,0.2692963492,0.4781729412,0.5659275547,0.9401494426,0.0801175178,-0.9268836705,0.1486765801,-0.1008902976,-0.6130716192,-0.0806626159,0.8262076356,0.074640582,-0.0968116402,1.0072383646,0.0691838154,-0.1066433701,0.1929084679,-0.426609518,0.7956164287,0.621282406,0.7408853432,0.2876695778,0.0133651695,-0.9346989786,0.4303853536,0.2595236443,-0.6736973868,-0.4595307127,-0.2577140892,-0.1074410164,0.2908804386,0.3487808857,-0.5192633755,-0.3256172964,0.0096865991,0.9195798815,0.141185525,-0.5210035311,-0.3863300873,-0.7794410674,0.5551081201,-0.8944653473,-0.6310057125,0.4354686006,-0.2977580891,-0.5287150496,-1.2176301866,0.179376374,-0.3929002641,0.4049874713,-0.7170029996,-0.2265833026,1.1524074106,0.4242254073,-0.5461504111,0.518759913,0.2801037277,-1.2737708267,-0.8750058069,-0.8332076358,0.5484963807,0.4224777698,0.7134327885,0.2097765105,0.8018556878,0.7558313361,-0.840656315,-0.5557362955,-2.6631991281,-0.7434214134,0.0440455132,0.9772080083,0.5690745232,-0.6133892435,-1.3567121723,-0.3979012898,0.3444723252,0.5509677045,-0.3234352632,0.8496911429,0.7132917,0.7606612201,0.0961113446,-0.3657411743,-0.9052340865,-6.9480516998,0.7636997296,-1.039012708,-3.7632127983,-0.1754585443,0.7839937936,0.8529277531,-0.2582643301,0.5878802704,-0.3414434312,-0.4307313493,-0.964819505,-0.3733910713,-1.3167790228,0.833318737,0.6197171087,1.1357204982,-0.024930188,0.9412922629,-1.8909694006,-0.5253215811,-0.7494910153,1.2579602933,-0.1069948258,-0.1285791116,0.2672650552,-0.1135449044,-0.8674479737,-0.571754307,-0.4598045351,-0.0240040834,0.6623617512,0.3341010379,-0.3107365168,-0.8079956502,-0.9145142901,0.2026272451,0.0285085561,-0.7451061485,-0.1507326931,0.2917676823,-0.2923109461,0.3335019119,0.6355514876,0.2845914897,0.3298769618,0.6843075211,-0.513896572,0.5155809693,0.8765236989,-0.4275987294,0.1140053866,0.1633769928,1.6020110716,-0.4456335933,-0.2137774242,0.396961076,0.7958141319,-0.6131669636,0.308577776,0.2046396957,-0.8120761705,0.3142343237,0.9547091129,-0.0076757266,-0.1335327576,0.2496595551,-0.5651279087,-0.9075606627,0.6524825462,0.0451397713,0.3915407685,-0.4782054496,0.8988565411,0.6887290403,0.111597706,0.7871969929,0.1166875827,0.9321093776,0.0525636367,0.5840029969,-1.1406404892,-0.3640758299,1.000040804,0.0013167358,0.0871115758,-0.6924690298,-1.5836958892,0.1281911955,0.0741956076,-0.0146399435,0.1679411535,0.2567246209,-0.9045047327,-0.1773734446,-0.7389502662,1.089636655,0.4528804561,1.0795974049,0.6713664568,-0.7641269579,-0.5322766401,-0.5269187036,0.0558354022,-0.5044918982,-0.5745215237,-0.1214820963,-0.3712694492,-0.1340987346,0.2289777961,-0.3411049723,0.0152368222,-0.6715382586,-0.2299083093,0.5411952115,0.0664910139,-0.754179619,0.2636286714,0.9540523045,0.9702664913,-1.0180702353,0.8244730858,-0.147113698,0.5310442948,0.026158876,0.4152450328,-0.1673177585,-0.5911273347,-0.3538401546,0.7081051233,-0.2031616735,0.6471960429,1.1686223176,-0.9012304851,-0.5914840474,-0.0295841086,-0.4549624841,-0.3432934269,-0.2178471799,-0.4926310219,0.0653510006,0.4267522283,0.6187306652,0.0626561372,0.9354460624,-0.0162292486,0.9680185837,0.9023816357,-0.1515415739,-0.8851366879,-0.4952982539,0.1293617495,-0.25186984,0.9458342304,-1.3033311564,-0.3047648862,-0.8090510687,-0.4795953306,-1.239096646,-0.9393606751,-0.312825567,-0.0127162049,-0.8842394089,-0.5431168922,0.5439613048,0.5948208318,-0.5697341654,-0.1259436658,-0.0921332734,0.6949237898,0.387271438,-0.1725343682,-0.3822367122,0.3860153737,-0.9690720771,0.5506059231,0.042651273,0.7465914992,-0.639744822,0.6019398278,-0.5259903351,1.3052240213,0.4250855043,0.6367322682,0.0781381939,-0.0118549379,-0.1252611895,-0.2042500781,-0.2440306875,0.629669254,0.6792492657,0.0527762559,0.7387989965,0.003447894,-0.9117335217,-0.8642467883,-0.2567038938,-0.6687611143,-0.7869606374,-0.9348524303,0.1015093336,-0.6219718494,-0.5904386151,-0.3520316703,-0.1212574005,-0.4126439225,0.5260437542,-0.3386222261,-0.3442865782,1.176507216,-0.0765249713,-0.3235904245,-0.5761102653,0.9549286498,1.1969520944,-0.6436852082,0.0930797119,0.1579187152,-0.2048211371,-0.0793188676,0.1290423205,-0.1976439023,-0.2902043116,-0.0912424887,-0.4912411037,0.059750528,0.5251543819,0.0991831113,-0.4388934433,1.3547449497,-0.373287297,0.5467271544,-0.1382592624,-0.4380599343,0.4701714476,0.2048634473,-0.5174563561,-0.9239510755,1.4276889227,0.7538510806,0.3202334666,0.445799597,0.6876481162,0.704464772,-0.2963548592,0.6143099524,0.2391887729,0.4756891569,1.3524269761,-0.7171738223,1.088311359,-0.0055039342,-0.2653362463,-0.0633815028,-0.831532639,0.2457973265,-0.2846616069,0.4922195112,0.5917005342,0.3176532638,-0.1962612137,-0.149601172,-0.4860578973,-1.1525670084,-0.2454114003,-0.9301654202,-0.2920773377,-0.9410703283,-0.3696240753,1.0972320023,-0.5440053015,-0.152013867,-0.792440264,0.0801830181,0.2300688615,0.3133098856,0.8486490303,0.743518962,0.4496378147,-1.5129888147,-0.7204793199,-1.091244062,-0.0193623086,0.470500972,0.9605354695,-0.051633792,-0.0866767158,-0.6251338889,1.1725811934,-0.3990213652,0.5228310592,0.0118016757,0.1873076196,0.7479223058,-0.8510191622,0.7273072575,0.3497592916,-0.2806354211,-0.9773890527,0.019431303,0.5977072744,-0.2962564035,-0.0127734787,-0.7034086341,0.1313386391,-0.4104663812,0.8791382402,0.2085597371,0.328508933,1.1489090619,0.4514391657,0.6048088537,-0.3589528957,0.2752172447,-0.7582151375,0.7953504198,-0.710228549,0.7349984564,-0.4887504607,0.4101542235,0.7495544298,0.0610460243,0.3535652504,-0.7568111361,0.468612646,-0.6887270889,-0.6533029049,0.2856161554,-1.1445693065,0.3368251156,0.6935146147,0.7452112678,0.2755262251,1.0574137035,0.8247303981,0.7933982284,0.7989699389,0.8876330613,0.6157729707,-0.6395269723,0.4246502674,0.0343492357,-0.0975410495,-0.2435264811,-0.657364377,-0.367800392,0.7969975276,-0.4239455731,-0.5661360193,0.8162484556,-0.5913691661,-0.9771263386,-0.7025747811,-0.2802845406,0.8778330547,-0.037780835,-0.9202689418,0.3756130944,-0.5118861165,-0.9521941998,-0.3570115057,-0.8032947475,0.6964629557,0.3335569892,-1.5731401945,0.7057481613,0.073328405,-0.5149748649,-0.5442842583,-0.088587622,0.36609038,-0.2620249539,-0.0529244281,1.2658564078,-0.3886558393,-1.0122430897,1.0376992971,0.059483219,0.099681025,-0.0823020005,0.4594650353,0.8544649431,0.7683400832,-0.4670271077,-0.2180712341,-0.7211587578,0.4514133898,-0.6693100077,-1.2411158484,0.1156872824,-0.5463554273,-0.8294906804,0.466820398,1.2431821827,-0.2487512514,-0.2661582443,-1.226007741,0.7061679145,-0.4391210408,-0.6887490947,0.8521864267,-0.2093074413,-0.3820224932,1.1453626032,-0.6870587917,0.4339734849,-0.4615320585,0.3060729674,-0.4604413474,0.2556554259,0.1922361165,0.0791602742,-0.0914497369,0.5490923676,0.6827774441,0.4306936905,0.2929622548,-0.9678528787,0.4304863123,0.0283674466,0.4425551854,0.3272277354,-0.0555116562,1.0366871251,0.4625404379,0.0356676483,0.2101003417,0.3463812094,-0.3200205256,-0.0357163987,0.3420808298,-0.9894652188,-0.1803975465,-1.1539591524,-0.6274080603,0.8590820983,-0.3855438259,-0.5748980404,2.132477521,-0.5362894591,-0.644767898,0.2476445147,0.1914983511,-1.0913121009,0.0999275655,0.6153100386,0.8619854187,0.8835809281,-0.4127223274,0.6942722923,0.5854733253,-1.5144783576,0.8961381626,0.4398153993,0.3331992547,-0.0774853383,1.5731382078,-0.1445078095,0.8418992558,0.3310104777,1.6303810032,-0.2997465331,-0.2219960969,-0.023230776,2.1878326383,1.1327723578,-0.2749318223,0.7095305353,0.4781170682,0.1571062812,0.12939736,-1.0144867047,-0.219599705,0.5566422625,-0.7742697056,0.281224968,0.9534272772,-0.5733794674,0.7254792101,-0.2822688411,0.4954151941,0.9475841202,0.4336533929,-0.3446580064,-0.1403525678,-0.0470217659,1.9353016488,0.2842401413,-0.429996717,-0.4497527378,-1.0118279241,-0.7236583241,0.3789579655,0.9912764974,-0.161895821,-0.8579242914,0.1275783068,0.4517079944,-0.2332991333,-0.1931470496,0.9746191793,0.0739345766,-0.1384069529,-0.5205630751,0.9608552777,-1.1687900134,0.1996616312,-2.2047836441,-0.4527263904,-0.0195598225,0.0808300121,-0.0368990414,-1.0293988395,-0.9769140216,1.7907434453,0.950887591,-0.5713653305,0.2990682487,-1.1112319161,-1.2189561862,1.1308735047,-0.578622351,-6.0889343714,0.3953168312,-0.4244196725,0.4752036726,-0.2175984456,-0.7048304653,0.6584001804,0.5773049254,-0.8257352467,-0.1503151761,-0.8124603235,-0.3912027831,0.5556432837,-0.3019887399,-0.5892030753,-0.4347218607,7.7182595755,-1.7589369849,-1.0125395909,-0.5313050866,0.269038036,0.3343094349,-0.5091803109,-0.9414614633,0.6943251873,0.3347827063,1.1188065941,0.49203384,-0.3130198625,-0.2952849648,-0.3560392152,-0.4676705816,1.011838705,0.9335358458,0.9262402002,-1.0014348241,0.0157860725,0.1231436781,-0.8689114878,-0.782414728,0.5458378291,0.1054220565,0.4816383742,-0.6442985729,0.5138713246,-0.0750671458,-0.4867612864,-0.6417200485,-0.8900680082,-1.0390559833,0.673682586,0.1922005944,-0.484763006,-0.5934976224,0.7177851925,-0.5600783627,0.3550682583,0.3304192674,-0.959563781,0.3409862962,0.0739756022,0.4871841059,0.9711863558,0.3165490497,0.3194303455,-0.47811753,-0.0958415363,-0.5713825646,-0.9626838411,0.3805172857,1.064356847,-0.560428888,0.1367886808,-0.8180483499,-0.2593554606,-0.3484526953,0.8653515694,-0.7644602479,0.420286863,1.0203324289,0.1022627113,0.5016674233,-1.0707574245,0.0322741628,-0.6341637417,-0.2552230087,-0.368037409,0.1468676873,0.2986819064,-0.5000483428,-0.1399607424,-0.9099386926,0.6635982134,-0.7057519795,0.5620082565,0.5628556763,-0.5940002445,1.0744587413,0.3319887324,0.3938987746,0.1957812829,-0.2723548966,0.4959831538,-0.4055052147,0.390842354,-0.6350874283,0.5293191029,0.3380386668,0.2026979789,1.0934615176,0.5711468163,-0.7952293285,0.4561596219,0.8481021945,0.9877018455,-0.5630309239,-0.0822351057,0.4707888869,0.8080630285,0.7596037337,0.952628316,-1.0973449258,-0.1392873387,0.2370123556,-0.2672401732,-0.4513521889,-0.8664358863,-0.9526029098,-0.1599918652,-0.5824865807,0.7518278027,0.9546024644,-0.0317906085,-0.1438324434,0.4170656621,-0.7682605439,0.0033277083,0.1349356038,0.2105759567,1.0213189698,-0.0817341492,-0.3910307634,0.663440901,-0.0211094439,-0.0573143259,0.5735628603,0.2489373823,0.2132506585,-0.6879806631,0.589419587,0.8041686255,0.2045620242,0.6848820458,-0.7952632513,0.0455334909,1.0043245479,-0.6833049525,-0.166350594,-0.7165079985,0.0864074729,0.485167682,0.0358053074,-0.3177536345,0.4662924664,0.0322855963,-0.0488827027,-0.511273149,-0.1386569165,0.7199946611,0.1765929047,-0.0694408898,3.8122624427,0.9798905628,-0.4124714699,0.2429673455,0.7687294623,-0.7766295922,-0.7780663243,0.1845604815,-0.9130177602,-1.1610298269,-1.0875226234,-0.1673554398,0.153877885,-0.8265465613,0.1863450079,-1.082621661,0.4078052355,0.932222488,-0.4843173612,-0.2751113266,-0.6907847895,0.2381331753,0.1838321738,-0.7709376418,0.6541569282,-0.5738563385,0.4727513584,0.1189596835,-0.9507266855,-1.0416521054,0.3932900588,0.4239651206,-0.8604402538,-1.0853029575,0.7650872872,-0.6422661773,-0.9106712261,1.9463185935,-0.5953702167,-0.8469998454,1.4906388525,-0.874917466,1.21586471,-0.5729703673,-0.9952981945,0.0234589704,-0.508335091,-0.0638798325,0.7187726042,0.0073907935,-0.1304863094,-0.433023672,0.0459069104,0.3394532253,1.7963665157,0.2846377451,1.0686013101,-0.1459989338,0.0414978601,0.4861307389,-1.2743265197,0.0750169402,1.0407286027,-0.0027782645,1.5164739968,-0.5834196032,0.2039944281,1.2246353021,-1.0531436528,0.3950026455,-0.6679006037,0.7260677987,-0.8584859664,-1.1844013495,0.2465436817,0.9492702944,-0.3968104708,0.8258930873,0.1501821818,-0.2045949333,0.2029071085,-1.3868200458,0.8447155316,1.1626750116,1.0684779619,0.0009908989,-0.9041892682,1.872384677,-0.0353947075,0.309610558,-0.0286210051,0.2713960723,-0.2720511418,0.8807795617,-0.337222571,0.8620666159,0.8625783707,-0.9873298846,1.2384897818,0.5180737228,-0.6674314289,0.4666739778,-0.9292390024,0.1959589661,-0.6897527108,-0.1974966459,-0.373452945,0.633713565,-0.2532401753,0.7695421216,-0.7193870863,-0.0889648351,0.7786877576,0.7668078516,0.4694448339,-1.0396745017,1.6270946981,-0.6528420517,-0.6331791122,0.521517888,-0.9258936035,-0.7781853961,-1.2642508172,1.1412330147,-0.0703853818,0.3011974338,0.7556402389,0.2274962224,0.6921309385,-0.3294686098,0.4105667006,-1.4333256648,0.2784644914,0.7868676032,-0.5802732755,-0.2556175515,0.8568817109,-0.8397943855,-0.0048309262,0.1108886083,0.5521649977,0.2032942831,-0.9421234985,0.1688362566,1.194238038,1.2325030393,-0.4083628761,0.6089765449,0.8924982648,0.9053148809,0.5634003947,0.3676963124,-0.072678762,-0.3086743066,0.2335201755,-0.2300160948,-0.7229432984,0.8601545505,0.128033414,-0.5529629369,-0.8809864451,0.9163637765,-0.3190939801,-0.1830757205,1.0333430472,0.9841012751,-0.2149897391,-0.7374529407,0.3004155954,1.5473110086,1.3439777703,-0.2499905082,0.2460659667,-0.1879916908,-0.864716201,0.4537394317,0.506101505,-0.6742863651,0.4711021724,1.0187021811,0.9895516261,-0.6076806052,-1.1060510788,-0.093626956,-0.8329389532,0.4141973152,0.2677519032,-1.0866637641,-1.3646526638,-0.682524891,0.8585679032,0.59121737,-0.7653386364,0.1819882223,0.0022426138,0.2835326343,0.571673894,-0.6867258003,-0.1418185502,-0.464631037,-0.763823356,-0.1588112846,0.6141885224,-0.8799974663,0.2176033504,-0.7950997863,0.9862589624,-0.8948581214,-0.2432145341,-0.7644978754,-0.3155808059,0.0647265367,-0.4230089142,1.3170705724,0.5065281224,-0.0227112857,-1.1418568076,-0.3652975944,-0.6379496269,0.4430315993,0.4343578489,0.9445868806,-0.2367645258,-1.2224724067,-1.0087889694,-0.2836316643,-0.6795392906,0.0642729603,0.1809528823,0.0470633942,-0.1726571457,-1.3704968348,-0.4266017775,-0.6548858664,-0.8324141838,-0.0288200458,1.1223451793,0.108916943,-0.5842440856,0.0633498058,-1.4243262101,-0.6396586564,-2.1620478046,-0.8246350029,-1.4970632851,0.4194669045,-0.6326450799,-1.0960184533,0.7676751589,-0.471825228,-0.1210861635,-1.0228683594,-0.9378094652,-0.3664649774,-0.4803821321,-0.0070853191,0.9451221825,0.2777346312,0.2007788718,0.0641628635,0.3444049163,-0.620583265,-0.9303253245,0.5439289493,1.1519728886,0.7031396607,-0.9603760197,0.2581621546,0.0064666735,-0.9991446222,-0.4978005872,-0.1316303571,1.8265565726,0.0046348237,0.9303592898,0.976054592,0.3169593146,0.2668517122,-1.0824375009,-0.3901551232,0.6217172396,0.8826494624,-0.8243946882,-0.2796150304,-0.7683689405,-2.2509812183,1.6810175231,-0.5318514499,-0.9863546293,-1.1116138039,-0.3676877869,0.6958273897,0.0612544462,-0.671092586,-0.5053606763,-1.4707229783,0.9818895137,-0.1887136196,0.0496911539,-2.2546582435,0.4366318023,0.9203327502,0.4833095917,0.3285326679,0.5597870912,-0.2064634438,-0.2828264543,-0.3066671257,0.1559755832,-0.8574968756,-1.5152628823,-0.801246422,0.8488064092,-0.3803580518,0.4332232708,0.914390832,0.8720325476,-0.6489253405,0.3785708173,0.7849031543,-0.059171677,-1.0429368357,-0.4007289733,-0.8152773607,1.0260296487,0.2162273735,-0.5329353205,0.0506367828,-0.7518294612,-0.9417001136,0.3770156507,-0.6022604734,0.877460694,0.0688805385,-0.8448287783,-0.2539406518,-0.1256800669,-0.5394954021,0.4151522899,-0.2809910568,-0.7532260677,0.3261790692,1.1944784364,-1.0204836596,0.9535897046,-1.3309656281,0.1776166078,-0.4833313592,0.5665753102,-1.0168796794,-0.5906708803,0.3072672575,-0.3511296956,0.1541194857,1.0621224213,0.5167717312,0.456518617,0.4038510308,0.5486623991,0.2302259731,-0.534045613,0.2423324823,0.0814960589,-0.4114189284,-0.550218633,0.2618147882,-0.9416688316,-0.5765653868,-0.8627132005,-1.1798160822,-0.659017895,-0.310337941,-0.7118735141,-0.4067891524,1.3512329506,-1.351562474,-0.2997890311,-0.2986358827,-0.2666115843,-1.0194253611,0.8994130553,0.494140963,0.9729637612,-0.3074547778,0.245103699,-0.5923986142,0.3201753472,-1.6785225564,0.1237817968,1.2354059069,0.7883822386,-0.9346789926,0.2186725463,0.2041920008,-0.1153188064,0.8461705453,-0.5047181896,-0.3727223065,-0.2418743627,-0.1066472005,-0.1060167519,0.0392478508,-0.2685275456,0.474217729,0.4947394003,1.5637316149,-0.7034797299,0.8422330955,0.7017276547,1.2166536522,-0.5117889656,0.3923559086,0.048806335,0.0028598855,0.870637118,0.2752427885,0.1124909465,-0.2372412416,-0.9350362918,0.5218084323,0.6504186235,0.1661648973,-0.6564238307,-0.3185410288,-0.7056504919,0.3387282792,0.414440525,0.8242240736,0.4752626235,-0.4552810114,-0.4870815823,0.1962604855,-0.1499317825,0.5276993507,0.0990519644,-0.8009377869,0.794173363,0.1540683569,-0.5608755088,-0.9171701099,-0.4897601132,0.9652164422,-0.1816572918,-0.6977486913,-0.350288431,0.8010725963,-0.9144150696,0.2665688372,-0.718046763,0.6842971271,-0.4427895959,-0.6826454451,-0.3423964499,0.3324046694,-0.185853504,0.2116238887,0.457545811,-0.1595894006,-0.4566362728,0.909761161,0.0857432547,-0.5742834308,-1.0184545292,0.6204351089,-0.7890067124,-0.6656699019,-0.529448756,-0.7667659796,-0.5837181277,-0.079309583,0.9848844088,-0.6049729295,-0.1722274544,-0.9544255811,-0.0643412781,-0.9281328603,0.2837045201,0.4977963234,-0.2030850571,0.4427921755,-0.3064681893,1.0201685835,0.9597350765,0.3351507624,-0.5276630903,0.6629609211,0.8773564361,-0.2203135376,0.1845296365,0.5347441643,0.3771469354,0.6196395519,1.563885369,-0.1973401469,0.8890448455,-1.5768802156,-0.5472328497,1.2717271336,0.1771321772,0.6729006987,-0.3035757057,-1.1235619407,-0.2029026318,0.1839709494,0.0300695424,1.6573630592,1.5574831139,-0.1897134456,0.0346843185,-0.7202730855,0.3227599773,1.0382510621,-0.3032570816,0.0798646058,0.6162594719,-0.8664398623,0.8897269926,0.4231016708,-0.4319618189,0.5365087532,-0.1810378664,0.6843379823,-0.4678520457,0.2771683582,1.2771480265,-0.1194759026,0.465729355,0.7387836867,2.9706854959,0.5111067708,-0.396859921,-0.4463299025
   -1.3353626964,-0.9968090245,-0.2391028584,0.5958306041,0.3235213027,-0.8348480335,-0.0661721081,-0.4693225664,-0.5046216782,0.5241850564,-0.5473141026,0.5225567329,-0.8505703903,-0.0380008752,0.1011267018,-0.0576162363,0.7573664551,-0.9701148265,0.5980173746,0.7710295443,-0.0002753938,-0.877808546,0.351575814,1.3607803735,0.7738979455,-0.9883871871,-0.7773052981,-0.8700766836,0.086826699,-0.5235367732,0.1064603594,0.7401981269,-0.7529658117,-0.1765528665,-0.5278308104,0.7128949426,-0.0469580829,-0.4457358428,-0.6414741294,0.5269327761,1.1752209855,0.3467459053,-0.2761985268,0.8227919494,0.986931511,-0.5500657747,0.2986502683,0.6527381287,-0.7945891587,-0.0160766344,0.3119094594,1.0300914524,0.2641944173,-0.2401074511,-0.7237959422,0.5865830436,0.1479744285,1.3634356364,0.9442080551,-0.8465394491,0.7499313177,0.1014134088,0.0191682332,-0.5560913886,0.0202323707,-0.2744114779,-0.8211749183,0.0779621435,0.7272995245,0.5517700779,0.5439420568,-0.1435453386,0.2799124364,-1.0187063144,0.7121949548,0.5835122776,-0.320484202,0.0771299765,-0.4091523404,-1.1325461674,-0.9334326891,1.0977678517,-0.4774392047,-0.8167779188,-0.5418381046,0.6694732693,0.5757943852,0.3484735419,1.0989157594,-0.1556138726,0.5123771866,-0.8888747947,-0.8499140337,0.83137138,0.0246266263,0.4392047904,0.2316490046,-0.5670776743,0.1491804289,0.5325144227,-0.3198452302,0.4346855558,-0.4178651469,-0.8783863644,0.7897647469,0.3619165871,-0.4855495301,-0.1884050185,-0.0624224346,-0.9585717792,0.6511345838,0.8212563934,-0.7132730429,-0.3146001825,-0.3509555597,0.0865294172,-0.7473236296,-1.1231833475,-0.1599649069,0.7287159192,0.0629987019,-1.7153963093,-0.7452566385,0.2804650959,0.8326308042,-0.4507068599,-1.4832282197,-0.2574148911,-0.7691137009,-0.1387437134,0.1594633416,-0.4497461371,1.3577699905,-0.9527171225,-0.370177214,-0.3176771144,-0.5666444932,0.5814515212,-1.8539843594,-0.1015433642,-0.6650446897,-0.0706009375,-1.215937771,1.1319119982,0.3097621343,-0.653684134,-0.3314738652,-0.7193043351,-0.7539554181,0.6891949602,0.4798477208,0.4579320722,-0.4138872194,-0.6059450594,-0.285117862,-0.1680150853,0.4874408322,1.1016729414,0.0002936048,0.6051538601,0.5228299488,0.0534438915,0.1136421822,-0.7970680334,0.8477944592,0.2461636389,-0.3109106955,-0.0700315159,-0.9410970618,0.8481201514,-0.0476165666,-0.2526404198,-0.8727008379,-0.2913242419,0.851986509,-0.6003107293,0.7455629605,-0.8262239203,0.0107750974,-0.8434692524,0.2986616274,-0.6533748289,-0.800503298,-0.1786286243,-1.0753163589,1.0272724081,-0.5430450975,-0.3136079886,-0.8255689644,0.3554548748,1.0648017684,-0.1026347488,-1.1102433152,-0.3049808156,0.0284395114,0.5978166539,0.1123105721,-0.4598850257,0.1670971237,-0.3830629699,0.1371372317,-0.0868134495,0.2530974311,0.050577797,0.1227303226,0.7851399945,0.6210141019,0.8265829765,0.2293010291,-0.9155649648,0.2872389234,-0.1725367561,0.9194472541,0.6808391001,-0.2433067124,-0.0874954891,-0.345076652,0.1338506766,0.0191953037,2.3530634158,-0.8180484853,0.257923239,-0.7013353397,0.0362471734,0.3842929956,0.0911994976,0.7397585807,0.0364602529,0.7336902601,-1.011348958,-0.5807882699,0.716663631,0.8486683536,0.4685612611,-0.8430486634,0.1450345002,1.392985123,-0.5879814294,-0.7538558233,-0.7875612083,0.3344337755,1.6706651505,0.754805602,-0.040006344,-0.4035829928,-0.2904829343,0.8266901586,-0.501969831,-1.0559068047,0.9932545913,0.0719870815,1.5563855444,0.6700116859,1.0582693887,0.14205029,0.928611919,-0.1214777358,-0.3012129288,-0.1014986861,-0.2534558015,1.1812491894,-0.2124508136,-0.4871704166,0.5088669535,1.0736778593,0.3179595956,-1.4407711299,-0.3817309936,0.7335583163,1.9020757458,0.0547011482,1.6005316552,-0.5941915181,-1.4425066902,1.3214246912,0.4683221899,0.3821099769,1.3586527199,0.0597041032,-0.9873161141,-0.1487418738,0.6597306848,-1.0430893685,-1.1924764002,-0.1566637268,-0.1498486369,-0.4584042697,-0.8293244034,1.3520430307,0.3783447954,0.7606320983,0.7679336685,0.1301137499,-2.7863357516,-0.3797287104,1.212850351,0.1475024906,0.2703976358,1.9948519555,0.6117374079,0.8564745739,-1.1133464319,-0.5390196236,-1.3175714448,0.7722129042,-0.4375193848,0.5440306564,0.9430895205,0.4997769478,-0.3858875509,0.9349529854,-0.3583268106,1.0445852519,-0.7240901922,-0.4826016473,-1.3258497388,-1.0927350146,-1.5432046285,-0.7182889395,-0.4453329771,-0.434877143,0.6198549663,0.7285270407,0.7383956983,-0.3118082024,0.1950795251,0.404109103,-0.8582966142,-1.0482516401,0.5460390228,0.5438376354,0.3290939299,-1.0056322659,0.7050886731,-0.6656044863,-0.9393990073,0.12981216,0.2713433436,-0.6573532515,-0.4618839237,-0.8347305136,0.1746982285,-0.3585072578,0.3773819756,-0.9304621489,-0.8954096309,0.5361561701,0.2645066568,-0.5883318799,-0.6587883979,-0.3474886992,-0.5297795156,0.4389225676,-0.4733183039,-0.7870685581,-0.6540979404,0.3904656359,-0.3453038729,0.2300967329,-0.4919268184,0.5491230529,0.5421075004,-0.4466510897,-0.6794005045,0.5688247304,-0.9662859177,-0.6528085363,0.8074225016,-0.0661165334,-0.8826119885,0.5215065476,1.1611300204,0.0519039825,-0.6512522171,-0.7329096261,0.5330945801,0.6593983818,-0.0619419484,0.3577292139,-0.9831107365,-0.1945983483,0.2118468259,0.9647079845,1.5947794468,0.6155628046,0.0420436138,0.3858883553,-0.1273051269,-0.6081175836,0.5074017529,-0.9833695377,0.2171375937,0.2311327606,-0.2299532612,-0.5353838423,0.7651582394,0.0582208611,-0.4785281173,-1.0183797602,0.332540972,0.7625683791,-0.6126886968,0.6455344758,-0.6521170554,0.9803642948,-0.8543036782,-0.3492772551,-0.7809179319,-0.1560428479,0.3430623344,-0.6604311609,0.0727781525,-0.1083797233,-0.6851265954,0.3800613928,0.0324780006,-1.0493597692,-0.7611673243,0.1710763581,-0.8122200497,-1.4078824128,-1.2697175212,-0.5588233056,0.8287661088,0.3046210931,-0.8115636829,0.8550179727,-0.6689622999,0.4604966846,0.9846902545,0.2282989073,0.1086166758,0.0904906372,0.6872459465,-0.2998298549,-0.6683635039,0.7322755333,-1.0170746729,-0.1911110888,-0.8505099201,-1.3287820971,-0.1824296907,-0.3499087455,0.7022720046,-1.0222720955,-0.4835893819,-0.8004778498,-0.4900136068,-1.3310817116,-0.3574208343,0.0224156114,0.109863991,-0.6575965097,-1.0288015142,0.8424073598,-0.5296704546,-0.1996634058,0.7716464974,-0.8315818055,-0.6584832412,1.0061647425,0.3165341843,-0.3967532351,-0.6757431076,-0.8887801909,0.6080807966,0.1804424063,0.077275746,-0.1655983639,-0.6282529592,-0.8489978816,-0.5015297794,1.1360374874,-0.0435188918,-0.4919556247,-0.4293878209,0.1091912717,0.255905728,0.5844434685,-0.6969663376,0.3572809632,-0.2227177138,0.5359772136,-0.696528889,1.0897091376,1.3723557528,-0.9104850977,1.0603425588,-0.9237714381,-0.1163180546,-0.7252205836,-0.2018527576,0.7370053136,0.5722935742,-0.6892196041,-1.0222687893,0.8860820689,-0.1160629896,-0.6489453054,-0.2461994534,-2.7473967429,0.720852624,-0.3315183377,-0.2191793181,0.0125872865,0.2328064675,0.5761087549,0.3144667555,-0.8249165189,0.4891660215,-0.0860236562,1.1371934522,-1.1002257593,-0.4023545949,-0.0047525623,-0.728898605,-0.5730733269,0.3376142573,0.0077829576,0.309367603,-0.8847439599,-0.1604733513,-0.2535122491,-2.2580372805,-1.0974082134,-0.0078260161,0.5844432539,-0.2445894142,1.1723134885,-0.1173068344,-0.3995626782,-0.8253099022,0.7781147215,-0.6322755043,-0.9285283141,-1.2640247256,-0.7392917204,0.619257891,0.0334237903,-0.8419365815,-0.1927595047,1.3448106933,0.1329321495,-0.5992562768,0.8882942733,0.1370380485,-0.2636379129,0.2414302327,0.1725852395,0.330602734,0.1641438803,0.0358001659,-0.3930122299,-0.9038522606,-0.0806223669,0.4934791027,1.1539205143,0.5869773194,0.0953177629,-0.2941320083,0.0751438257,0.4909976355,0.6131931792,-0.6200707291,-0.9240886541,-0.6347238164,-0.5379182321,0.7319751329,-0.6230915221,0.1745994024,-0.2592180859,0.4675371908,0.3494616934,0.5620972478,0.3762263623,-0.423419548,-0.6708723682,-0.7493864274,0.1397421454,-0.0223681481,0.6708763915,0.0021999908,-0.4677786328,1.0426763405,-0.8452022654,0.6851793913,-0.1791553688,0.4011249246,0.2939257505,0.6998929752,-0.5406977932,-0.1873921889,0.8479152348,-0.3180759739,0.451797996,-0.4999587548,-0.6209285902,1.0337360663,-1.0684061813,0.5236283711,0.1330378927,0.8691465165,-0.3692644951,0.9195393804,0.7283972124,0.9781206712,-0.7505904323,-0.6554358528,-0.7104942332,0.1878878421,-0.8753220421,-1.4402674569,0.0694035121,0.2754110806,0.570558696,-0.2977598265,-0.8137607797,-0.3298765351,-0.7562865781,0.9522703084,-0.9793140515,-0.2696490182,-0.0896994065,0.2966189199,-1.0063866859,0.1147243461,-0.1852901721,0.53054125,0.7319690945,0.4593364673,-0.5455431029,0.2541345505,-0.3231437225,0.7575540054,-0.6038888728,0.4635110311,-0.0867366453,0.6700514432,-0.8406287018,0.2467826987,0.1758456425,-0.756124209,-0.5280307683,-0.813314592,-0.3475844695,1.2131514904,-1.0542761727,-0.7779732793,0.8827772848,1.0769711329,0.2975704026,0.0996600416,0.9405795828,-0.6747946682,-0.3548829658,-0.7618996959,-0.7983459832,0.603401403,-0.6832982078,0.4482453973,0.7436374146,-0.5411928085,-0.8414697582,0.4358194026,0.7069487081,-1.0166347508,0.2220423663,-0.6494226024,0.4177701651,-0.5661035788,-0.6729575488,0.7533039223,0.3785234041,0.7595983201,0.5751122786,-0.9771229449,0.0219439133,0.0356912862,-0.0965364797,-0.2419349415,-0.7530464179,0.8976458851,-0.4081967394,0.0575134037,0.9117860346,0.5457154619,0.6361401788,0.7919974345,-0.3299443606,-1.7270153645,-0.4544995928,0.0064972717,0.8034055314,0.5525687777,0.436935343,0.5550614077,0.3627317675,-0.9204553822,0.3758290911,1.6674194277,-0.834061486,0.7308115495,-1.5918321947,0.5227449272,0.5671682642,1.073254225,0.3678687331,-1.5491268834,-0.3592334043,0.6698936884,0.366656477,-1.3955130267,-0.2159077414,-1.0095652768,0.684415017,-0.1942548253,1.0415979042,0.8714989409,1.199974121,-0.0680420313,-0.6535036675,-2.3553021387,0.2969070282,-2.4268604872,-0.7326477861,-0.768900949,-0.4891740635,-0.9307521732,0.6610375765,2.2719407518,0.8316523815,-0.4085417536,0.7701776077,-0.2712113693,0.5188921565,-0.3003739853,0.9094678522,-0.0513353013,-0.46893714,0.7020329799,0.8899022533,-1.2100252439,0.1393829318,0.6500911478,0.000121482,0.2264103777,-0.9674873082,0.8512387057,1.503946372,0.5949676183,0.2509445895,0.1405373621,-0.2805830364,0.540829582,-1.8382707654,-0.7211372648,-0.3001355882,-0.3604338077,0.045227554,0.2253808427,-0.7633830615,-0.2962672673,-1.1106052502,-0.7813614483,0.4595514168,0.5828953573,-0.7520253134,0.9837506318,-0.779302072,-0.467189048,-1.3228776422,1.3635568406,-1.4195062106,-0.3964839696,-0.2888835189,0.4373389215,-1.1075705449,-0.6839991251,1.6195775579,-0.8228266273,0.8326275001,0.5776964819,1.1771290438,0.6403562554,0.243621203,1.8730576909,0.7178546125,0.538658123,-0.6510836107,-0.1167605668,-1.6184797003,1.8130091561,-0.2573113114,-0.0877928147,0.5517411541,-0.807523249,1.2610581158,1.0203001805,-0.0390860745,0.8958049968,-0.9404005839,0.5282027811,-0.5537179544,0.7830347519,-0.2321047592,-0.0782170804,-0.2545853749,0.6936842659,-0.5231118438,1.1535766499,-1.4000992997,0.8793256949,-0.5443026358,-0.1524680288,0.4420858693,0.3953987498,-0.2921524687,-0.0156196742,0.8720730138,-0.3329058694,0.070029115,0.2860396889,0.6230308987,1.2623448285,0.3608765866,-0.5843187573,0.6082277182,0.4673040654,-0.9860933889,1.5026067801,-0.7859277726,0.0084825691,0.1566599509,0.5925631522,0.7836625756,0.9399012218,0.0033847734,-0.7349876147,-0.5646810169,-0.5053498435,-0.2467563006,0.5213130124,1.325002726,0.2797284786,0.8477743713,-0.674636208,0.0703172335,0.5729550413,-0.114341394,1.5292810382,0.5578846804,-0.0895271778,-1.4297429257,0.2351668726,0.7115280758,-0.0000374222,-0.6913448468,-0.0409043056,-0.4278449718,-0.2790701246,-0.4140326863,-0.6470347952,-1.3123437146,-0.6983142947,0.3376343619,-0.1641256018,0.6717079525,0.1974237889,-0.237908783,-0.8993415072,0.4158995517,0.1755130742,-0.6121051428,0.0128722842,-0.0658343988,0.5365736588,-0.4793973888,0.6296428368,-1.0711028864,-0.1599153102,0.1135729581,0.4427212715,-1.253877404,-1.1778652022,-0.2812631779,-0.1448786255,-0.7783123762,-1.3186926098,-0.7125144779,-0.5838436583,-0.6161976206,1.7464301991,0.5133753378,1.1733293216,-0.9138214926,0.3356678506,3.2762759907,0.7585049443,4.5555392679,-0.2418953842,-1.0063877843,0.0295946665,-0.821015038,0.7108959136,-0.3086378515,-2.7484744644,-1.2842802626,-0.2766854698,0.9133181523,0.6219965372,-0.5256513809,-1.0899486907,-0.2255122492,-0.1258426157,0.7469395119,-0.631982005,0.1160194869,0.3812590455,0.1399525179,-0.3368482598,0.5102377919,1.0193746861,2.34468921,0.4242832925,-0.0911080956,-0.6973906598,-0.9949947376,2.0196867973,0.4733089574,-1.2661569243,0.4936929925,-0.7977612535,0.5609263058,0.0980193555,-0.4260509072,-0.6122864144,-0.1113593611,0.3415511088,-0.4441336228,0.9198912864,-0.0128177016,-0.9225260309,0.0258623815,-1.0873483413,-0.1181770976,-0.6606081373,0.6485991713,-0.084984868,0.361956535,-0.6389137184,-0.6635825634,-0.3175315258,-0.4651447808,0.3696110926,1.1241324194,2.8136938494,0.9909543165,-0.9836395671,0.7117063872,-1.0272937294,-0.2247956534,1.6902001936,0.3965710654,-0.0120349239,2.0009073379,0.5560078357,-0.5101465824,0.1397412102,-0.9265859559,0.3504528396,-0.1177280183,1.3063884894,0.196261855,0.8474940842,-0.0953335228,-1.8330630709,-0.0406352579,0.9254000839,-0.217943557,0.6226215974,0.5426091607,0.3417344884,0.8423240559,0.0684123448,0.8460702747,-0.6779478767,0.9833565299,-1.0065472258,-0.9550221145,-0.0260214206,0.5421387719,-0.678143238,-1.0010640851,-0.2934942107,-0.1338826931,-0.0057898714,0.3052107161,0.5848466949,-0.6183762847,0.8630526208,0.1218514961,-1.08945204,-0.10669249,-1.0062147572,0.9204254655,0.0974919818,-0.0250866347,-0.0097195193,0.8369606465,-0.0332202054,0.1706935503,-1.1568896479,0.3506467844,0.6824281064,-0.5606682526,-0.3479659624,0.8265061591,-0.1691540353,-0.1738664846,0.6155365485,-0.8221772422,0.0261149604,0.6149743837,0.6774388529,0.3897261804,0.3185370067,-0.861275696,0.1956592105,-0.0435457035,0.7914121283,0.9150651491,-0.50738769,0.0723446803,-0.3880303814,0.2741892635,-0.5483158163,0.6337847957,0.6966750792,-1.1322298297,0.2294893151,0.6152333167,1.1062275055,1.0386770437,-1.7563059824,1.0320160208,-1.6944026716,-0.6376300735,0.6383179942,0.5043090786,0.4105967078,0.0451937835,-0.9212781512,0.6820413802,0.2678620542,0.4352214861,0.6705737555,0.5421609298,0.9614626325,0.0432027992,0.3776484256,0.6288357755,-0.5494282274,-0.3874858314,-0.0359987288,-0.7749233852,0.5357620533,0.029234241,0.7488632916,0.0633530439,-0.5070448319,0.568712526,0.4696291073,0.501260365,0.7830825415,0.8197297872,0.5538236975,0.9818817418,0.759415812,-0.0087292756,0.3514577411,0.5422762095,-0.0930274219,0.5741193457,-0.2295645261,0.5096308411,2.3763419359,0.5507587818,0.0324632975,0.7161899368,0.729495211,0.0714240359,-0.0632749708,0.145542475,-0.2218103417,-0.1210048074,0.1697044719,0.7123835736,0.7739599903,-0.2275400292,0.2016791799,-0.701233686,0.4083972099,0.9428147968,-0.9215216244,-0.4694585842,-0.1510243425,0.3934106325,0.0736040552,-0.0589008759,-0.5617936387,-0.3066326309,-0.0865034493,-0.9512025633,-0.3625019986,0.1399710863,0.6693331831,0.8050507402,0.5057229547,0.2059123649,-0.8256635577,-0.2793216003,0.2815962514,0.2186498754,0.3541128748,-0.315927656,-0.9232668998,-0.5976868518,-0.5059827289,0.0931540142,-0.7173946925,0.8246126323,-1.0959040349,-1.1586559908,-0.8177074003,1.1077003184,-0.4081782131,0.0591083899,0.0094781064,0.8020431623,0.6110360397,0.6991969284,-0.4117065726,0.3600392574,0.9278148044,-0.6140699826,-0.0418310758,-0.7822447618,-0.5745270968,-0.1774339577,-0.8985441875,-0.0525610598,0.5003352092,0.5749849319,-0.4297487768,-0.1000306558,-1.3586099555,2.8377367016,-0.5022734062,0.6229846089,-1.4413998607,-0.1714096383,2.4011332267,-0.6091348599,0.8385300728,0.4166819251,0.6393695172,0.941777786,0.2488793722,0.9072024579,-0.085282254,-0.0662428754,-0.7834535523,0.0968889151,-0.0795832235,0.6458055147,-0.2378003199,-0.8824052477,-0.2062118452,-0.222633484,-0.0250632088,-0.5025073893,-0.1864809159,-0.4018445161,0.6720603998,1.462053866,0.4740208951,0.2467269275,-0.0854786445,-0.1117006765,-0.0571578906,-0.3928011502,-0.9614406248,0.0676672699,0.5766049937,0.2811344494,-0.9384750492,0.6178990891,0.6476213698,0.0929795035,-0.7758391985,0.3380637077,0.8093760532,-1.1578384378,0.9738484033,-1.0429567756,0.1464998864,0.1601349686,0.5502155392,0.5149436835,-0.5276072043,0.9915361532,-0.1365310257,0.6728432508,-0.2773015459,-0.4863040599,-1.0055780253,0.8888630563,0.5564632081,1.6004859839,0.5939351963,-3.1963574775,-0.9569746175,0.9023615527,-0.4471175069,0.034867253,-0.2763106699,-0.2923223063,0.0449977611,0.2268160652,-1.2158134945,0.6236650881,-1.8756667571,0.1099006599,-0.7665989991,-0.515448877,-2.1571172586,0.0903628487,-0.8415334661,-0.4556032439,-0.1808335283,0.4657086804,-0.7844555142,-0.4837316041,0.4599128225,-0.9645599961,-0.2978884834,-0.425057053,-0.7661488884,-0.1728705103,0.0489044995,-0.8902627481,-0.7356230423,-0.7200612317,0.5441425209,-0.1214338811,-0.9612512931,0.9351792551,0.3660145321,0.5399128004,0.8144317876,-0.9298582979,0.8572100786,1.2120031903,0.0681885548,-0.5677297569,1.6244421602,0.8877010624,0.510182455,-0.5505152414,-1.238586173,-0.8909994115,-0.7901647003,-0.2779260811,-0.7648180061,-0.3556983917,-0.2401771074,-0.3903082418,-0.0697056569,0.0447463627,1.1427880185,0.8199651025,0.2213970769,-0.3448207952,-1.879706892,0.9645897865,-1.0263315044,2.0579134414,-0.3573199708,0.4804027704,0.3189170646,0.5784678189,0.5254051068,0.966669236,0.2724735034,-0.7160416707,-0.9770192774,0.0799494229,0.2676248899,-1.9496320709,-0.6681723928,0.6126731525,0.3322665102,-0.2938399063,-0.3769642064,-0.5155832524,0.4951642228,0.2701474497,0.7278283043,-0.4341506949,0.3127812552,-0.3378010338,0.1727333968,0.6303426185,0.2342869095,0.1061851819,-0.3537623453,0.1401943113,0.5519783738,-1.1588987736,0.9355677954,-0.9069692846,1.7107987765,2.1407825622,0.7170893193,0.4090205036,0.5652445361,-0.354494423,0.0964176904,0.2724204787,-0.5887173682,0.330961401,-0.0514515977,-0.7360323796,0.6247775413,-0.6023943945,0.3084770988,0.4981121759,0.1598212417,-0.7212594868,-0.9012228351,-1.065818093,0.6355811507,0.1714017378,0.2182847901,0.2611589872,0.3166894021,-0.7628582182,0.3028338231,-0.8948651838,-0.1457334626,0.6931938197,0.8729835157,0.9771869711,-0.112901883,-0.536892733,1.1393043853,0.6052143602,-0.6479033861,0.44128784,0.7271353539,-0.0772124327,-0.3216968485,-0.798712044,-1.0552113652,-0.0439659334,0.1987254142,0.3511310682,-0.4653697206,0.6272979422,-0.900680875,-1.5260424297,0.9030780647,-0.2050767383,-0.4934780445,-0.4391078069,1.0961739296,-0.4937281536,-0.9539112954,-1.519387988,-0.8339723103,-0.5223306093,1.2042141671,-0.916054692,-0.8796114314,-0.6295052442,0.5148604066,0.4640768443,-0.937065391,-0.9430340871,0.0261700533,0.0567242748,-0.5613238036,0.2166043421,0.2110740399,0.2456677815,0.6135152743,-0.1260698473,1.2050072917,-0.760343979,0.5862849162,-0.4197385741,0.7751365607,0.4722067331,-0.604962535,0.3710341976,0.0695538922,0.9049140175,1.009350203,1.2962321295,0.7802662417,-0.7827559939,-0.0270716013,-0.4215710906,0.8570365086,-0.5616845576,-0.1611603229,-0.960661163,0.7286110271,0.1656022129,0.396281357,-0.3864496444,-0.8341399437,-0.188560085,0.283831717,0.3516747976,-0.9040506095,0.3822187848,0.9554448461,0.0356483825,0.5251468297,0.6727374449,1.0395184255,0.3075469115,0.067598092,-0.9209906521,0.0468827961,0.3161864539,-0.6969266374,-0.0503739252,-1.0214680576,0.0057330393,0.3911482798,-0.1492428275,0.0929244215,0.3688891574,0.0126642222,-0.0483455584,-0.3504557746,-0.729638998,0.4822371302,0.1190344453,-0.2787928197,-0.2119921761,-0.1132807006,-0.6652076096,-0.8911168744,0.1971515178,0.8397678692,0.6099980515,-1.1766948664,0.165684926,0.7790648923,-0.4597653869,-0.5597319595,0.236085373,1.0705904303,-0.6076969048,0.295160706,-0.2216106893,-0.7522467177,-1.1987666717,0.4440209956,0.821424358,0.1868834885,0.6627811733,0.3491276792,0.5617565831,-1.370993651,-1.0315303796,-0.9175389186,-0.1935548477,0.2622237191,-0.0604834504,-0.2899338227,-0.4436929325,0.0278412206,0.0035426747,0.9262096702,0.6122910386,-0.0144985196,-0.512928058,0.0626183052,-0.6319676405,-0.2616047223,-0.9203023186,-1.4951368129,0.1024586097,-0.4991647791,-0.2110307561,-0.3416617823,0.8242081767,-0.4628490181,-0.5344885926,-0.392342772,0.1144570584,-0.9603628683,-0.9285019172,-1.2081031925,0.6617906028,-1.5972036827,1.4260432298,0.0033629276,-0.4798677874,0.4483681437,0.4804848065,0.371994836,0.3760596304,0.0499671961,-0.8553702391,0.9009799238,0.5380750869,-0.431128856,1.1118985643,0.8263486537,-0.6253720008,0.2681431482,1.0079685278,-0.1552950446,1.508763445,0.0975943116,0.5373834566,0.3112344933,-1.2187685058,0.9357835949,-0.0999705588,2.1760431032,0.6196043731,-0.6271434854,-0.1598689266,-0.9816681175,0.2309236586,0.5758526264,0.3566348464,-0.5112342817,0.1045193619,0.7382745926,0.4473714929,0.1511751603,-1.0759766597,-0.4340630742,-0.3841704622,-0.6127085813,0.5191788639,0.7875882842,0.6635806231,-0.6813201778,0.1280247357,-0.8419426387,0.4379339289,0.0719326651,1.2202270328,0.4205900285,-0.8188339281,-0.4049888323,0.4346863409,0.5609981465,-0.686647743,1.0207189657,0.2793872218,0.5429631301,-0.8471030231,1.0134943372,0.596738169,-0.2758009623,-0.2667306068,-0.5067489416,-0.4445999806,0.9775406962,0.2957326572,0.2389326798,0.1760866987,-0.5705795542,0.9760719798,0.3542951799,0.7989530589,-0.7848877767,0.8917956252,-0.5040756108,-0.5598959258,0.7455366861,-0.0891399946,0.6368550123,0.2615365058,-0.4897783307,-0.7134310972,0.9201568003,-0.4742505044,-0.6613150831,-0.6875563718,-0.7184212004,-0.0831703066,1.1375224005,0.7816844337,0.8664669196,-0.0104683317,0.1157006027,-0.3982609859,-0.3492167583,-0.4349318957,-0.5033738652,-0.6959097187,-0.7707197061,-0.663503593,-0.4360190358,-2.0406255703,-1.2109616426,1.0573928649,3.0908204042,0.4096683561,0.2530586941,-0.5122712879,0.4779279275,0.2842949655,-0.2703568606,0.4430566317,0.5920481749,0.4713687677,-0.3672991587,0.6997114729,0.2858942962,0.7038204447,-0.707513304,0.298060358,0.6430417144,0.4102296898,0.6865526785,0.0742800107,0.0641425913,0.4806969796,-0.2340787657,-0.0965304411,0.3633077371,0.4178221219,-0.4728708087,0.945967258,-1.2108795585,0.94961597,0.4769910285,-0.2394557965,0.2597432003,0.8507617599,-0.355443061,0.8227442294,-0.9206925558,0.0583079721,-0.7712577403,0.5988818417,-1.064581253,0.2905707436,0.6684125171,-0.344697964,1.2124695723,0.8568292332,0.3756865066,-0.3531098273,0.296315039,0.8837552809,-0.8611960198,1.8180660058,0.8489948459,-1.0670099424,0.0312862068,-0.7595189603,-0.3234181911,0.1598404079,0.4234946315,-0.4772171225,0.9212762496,1.0074027197,0.4580338435,0.4482561285,-0.3525382171,-0.5841835916,-0.5883293757,0.3171756605,-1.0029213601,0.9578532125,0.4645745867,0.2701881143,-0.9052550968,0.3573896339,-0.1139626166,-0.2075083234,-0.7288650784,0.2409913108,-0.201926501,0.8521138303,-0.7806204497,-0.9257341794,-0.8053902803,-0.4183073741,0.435839253,-0.7758128615,0.2853111942,-0.05421397,-0.7658717664,-0.6732260272,0.6397091211,0.102190344,-0.8159080569,0.7402580605,-1.3821792092,0.987599704,-0.2893501853,0.7291786657,0.8954434738,0.8319882577,-0.6325943779,-0.8725353326,1.5791832482,0.1452212841,-0.3065954991,-0.2274302879,-0.8974381729,-1.2426316678,1.5564301468,-0.7199209991,-0.5093189251,-0.9944088502,0.6797557775,-0.7664643698,0.9821435185,0.1713677653,0.8659857169,0.1575490582,0.2483231556,-0.5005114649,-0.0350741701,-0.8709666006,0.4941730175,-0.6825253655,1.9153375028,-0.747336339,1.1923872927,0.3891395361,-0.7930962302,0.3378497437,0.6318396919,-1.3728445273,-1.236359706,0.209686343,0.4810714705,0.4983836511,-0.5424119041,-0.4554815371,-0.9543165184,-0.925987515,0.9216555829,0.7586839379,1.2222622317,1.1724892906,-0.4596441513,0.8110269284,-0.0984133568,-0.1821612973,0.3407100429,-0.0549130604,-0.0309821954,0.6488985047,0.3057056063,0.4167172651,0.4249263851,0.5098597925,0.1680799468,-0.4893630261,-0.8726297844,-0.4403059052,0.4873691423,0.5977224529,0.7848217425,0.0702015134,0.8715937166,0.3524410543,-0.8793760948,0.6133798982,0.0269760594,0.0340732874,1.6304227864,-0.2687152556,0.0543298971,-0.8101072318,-0.0954515837,0.6002207518,-0.4157096532,-0.4433893167,-1.0142744234,-0.4226379355,-0.1755470867,0.9064260117,-0.3621567821,-0.6349892779,-0.0227683664,0.1276552753,0.4006898344,1.1024501107,0.8191052866,0.4216265678,0.0739111736,-0.936703751,0.8109552423,0.0819761982,-0.0916124933,0.7519578909,0.762884992,0.2093229538,-0.4418604046,-0.0295608881,0.1737809597,0.5366434694,0.8254999543,-0.3704036383,0.8508808052,0.1942430287,-0.2755720324,-0.8471747413,0.6525357993,-1.0413667798,0.7327223285,-0.078910996,0.6457012931,0.9438877115,0.3817713296,0.8634973021,-0.43372176,0.283208121,0.6137186973,-0.0172142803,0.2574976479,0.6601026686,-0.3990823028,-0.0274542386,-0.8925705509,-0.2284529995,0.5600483951,-0.5946378624,0.6534164517,-0.2984576591,-0.2510948952,0.3096342571,0.0697483751,0.5092161552,0.4531121377,1.3242517833,0.5410104095,0.1841357088,0.7854315967,-0.5089229066,-0.9024503288,-0.5616278869,0.139078571,-0.0832691411,-1.0213903787,-1.0997592425,0.7547560997,1.0599322133,-0.5649921541,-0.5858463322,0.2133432084,-0.8954464774,-0.4717530079,0.6797295829,0.2274828328,-0.2805958509,-0.1650421222,0.9539356512,-0.2948882382,-0.7400303925,-0.2692274837,1.1163280666,-0.2586082983,-0.6897935312,0.4906173607,-1.1109235219,0.506583222,0.1210358747,0.1796536325,0.3329137467,1.0041048415,-0.8425697263,-0.296413654,-0.954530457,-0.3960715886,-1.495053767,-0.6537019339,-1.0005413742,-1.2514780319,4.2319980877,-0.6262538615,-0.6657942809,1.2321329374,-0.5001257312,0.0572185713,0.8240673104,-0.0522109587,0.0729307435,0.4093144844,-0.9885591938,-0.9268743609,-0.3861304642,-0.3836448359,0.8075971851,0.1950908095,0.0487333047,0.3360595734,-0.0717770735,0.7441796052,0.3035128854,0.050218433,-0.9510988688,1.4029623491,0.0345427497,0.2461973132,0.4150091557,1.0499911349,-0.7228483103,-0.5705333488,0.1150512839,0.5106245228,-0.4991333445,0.9208029635,-0.3513765461,0.032555232,1.1494218493,-0.1963340432,0.2896685245,0.0326196562,-0.3794000949,-0.5028434738,0.9188090711,-1.7660708016,-0.3511657704,-1.0010385515,0.4738293727,0.5930425964,-0.1679893226,-0.4061721691,0.0203972815,0.8767378026,-0.5762027783,0.0861149736,0.417459818,0.4095466785,0.1370061261,0.8721504946,0.5138357595,0.3675191452,-0.8888275593,-0.8303980932,-0.6772998097,-0.8392518064,-0.8275766998,-0.1731686652,1.0660462035,-1.0009752333,-0.4311573765,-0.5304104725,-0.2362318635,0.0625943876,-0.251044087,-0.2980276889,0.5521686287,0.4319198269,0.6524826737,0.5967119591,0.7671894121,-0.889075583,-0.1540586712,0.4418908051,-0.5813941631,0.4884656747,-0.1617726537,-0.6498088923,-0.4717801531,-0.0514707762,-1.2153988933,0.672497669,0.5723907863,-0.6196845235,-0.1914961999,-0.7770456417,-0.4462458079,0.8787958791,-0.3867690991,-0.1598081992,-0.7266172116,-0.4152181527,1.4392458499,0.667366766,-1.2148227815,0.435716863,-0.3974388865,0.2376929011,0.106540665,-0.8602912107,-0.6161579277,-0.9142659808,-0.1933504668,-0.2686033008,-0.6123058319,0.389786874,-0.3009946317,0.7292821193,0.3555512164,-1.2771949817,-0.2987329258,-0.6771871394,1.4592074661,0.4229163665,-0.5790342327,0.3504675572,1.1972898756,1.116535499,0.1441027878,-0.2026313063,-0.7829932955,-0.4353083002,-0.6003151024,0.3535213896,0.4184627655,-0.3116208558,0.7445352239,-0.5270275944,1.0947357801,0.7792081726,0.5472182992,-0.7137939579,-0.1267085029,-0.9717333189,-0.1169969927,0.1938549878,-0.6479706498,-1.2170003618,0.2165579481,2.3748746789,-0.0527919302,-0.3248490643,-0.0614863165,-0.0540225787
