encog,BasicNetwork,java,3.4.0,1,1561684453232
[BASIC]
[BASIC:PARAMS]
[BASIC:NETWORK]
beginTraining=0
connectionLimit=0
contextTargetOffset=0,0,0,0,0
contextTargetSize=0,0,0,0,0
endTraining=4
hasContext=f
inputCount=21
layerCounts=4,49,67,49,22
layerFeedCounts=3,48,66,48,21
layerContextCount=0,0,0,0,0
layerIndex=0,4,53,120,169
output=0,0,0,1,0,0,0,0,0,0,0,0,0,0,0,0,0,0,0,0,0,0,0,0,0,0,0,0,0,0,0,0,0,0,0,0,0,0,0,0,0,0,0,0,0,0,0,0,0,0,0,0,1,0,0,0,0,0,0,0,0,0,0,0,0,0,0,0,0,0,0,0,0,0,0,0,0,0,0,0,0,0,0,0,0,0,0,0,0,0,0,0,0,0,0,0,0,0,0,0,0,0,0,0,0,0,0,0,0,0,0,0,0,0,0,0,0,0,0,1,0,0,0,0,0,0,0,0,0,0,0,0,0,0,0,0,0,0,0,0,0,0,0,0,0,0,0,0,0,0,0,0,0,0,0,0,0,0,0,0,0,0,0,0,0,0,0,0,1,0,0,0,0,0,0,0,0,0,0,0,0,0,0,0,0,0,0,0,0,0,1
outputCount=3
weightIndex=0,147,3363,6597,7653
weights=##0
##double#7653
   -1.1071514017,-0.2804069401,-0.8452515999,0.7137827042,0.5215253233,-0.1505179035,0.3418189927,0.4931954607,0.718422497,-0.8494571445,0.99544442,-0.8339441959,-0.5673691879,-0.3818332445,0.4379018788,-0.1861495451,-0.7981546749,-0.0870084852,0.5882766688,-0.5508877398,-0.0538449651,0.5748828738,0.1384639153,-0.37055342,0.7312989936,-0.4986649082,0.0857752166,-0.8957904945,0.0222117607,-0.6520433407,0.6300167981,-0.4190346815,0.3736076625,1.3730553122,-0.0197739441,-1.4025553194,-0.965975554,0.4845488857,-0.5524401879,-0.6147059617,0.7569469884,0.4513306844,0.896071518,-0.1911178331,1.1129028399,-1.267273848,-0.5871667086,0.5941079938,0.1900608437,0.8390806707,-0.480000804,0.5891212733,0.3876192884,0.0425691907,1.0278652585,-1.1004135729,-0.1331421604,0.1913192267,-0.0072562583,-0.1979271333,0.2336699443,-0.1410390612,-0.1757467825,0.0163886926,0.7509195329,0.6509923876,0.1333883376,-0.3802778696,0.2936982665,0.7219997994,0.3296726669,-0.118921931,0.2051106536,0.2106740338,0.1985873439,-0.4856823338,0.0835360496,0.4396667576,0.0223602689,-0.9961874219,1.2153935647,0.1423983335,-0.2526538647,-0.076776169,0.030853403,0.5633275288,-0.2974191305,0.5037298337,0.243580576,0.7713488037,0.9214022058,-0.6994568099,-0.5712988556,0.3073660166,0.5935185121,0.3254701161,-0.1867470253,-0.7142158275,-0.1083746448,0.0514308061,0.2990844361,-0.059971586,-0.0078507643,0.0055333671,-0.0702680484,0.0272631561,0.3652405962,-0.1618017405,-0.064008476,-0.0097109913,0.0142032148,-0.3226073772,-0.1159688333,0.0320317498,0.0253602126,0.5177481718,-0.3005852199,-0.2522165119,0.6929707535,0.2735159899,-0.7214343106,-1.374495347,-0.2469975553,0.0515110335,0.0657794041,0.2692180933,0.8663147774,-0.0134672666,-0.5267847797,-0.0262286194,0.0022720192,0.0725083349,0.1788789502,0.0150709317,0.0008607963,-0.4658705219,0.1081440039,-0.0209868357,0.2150803586,0.0479341524,0.1290275067,-0.6993223901,0.102539003,0.0664595488,-0.0017190411,0.02543226,0.5287593061,1.7639225569,2.6064545342,-0.7564573372,-0.6077388745,-1.4340244116,-0.4508830464,-0.0475209648,-1.166262802,0.8261458983,0.8984137694,0.0054575562,6.8573565926,-0.5710750871,-5.4592975214,2.0452508053,3.6111490873,-0.2924739782,-2.7094957151,-0.1609276027,0.8295465477,5.490740936,4.2165011661,0.6228942642,1.552261102,0.8147514555,1.2255252522,-0.0611349101,0.295955168,-3.3412019026,0.2436732312,0.31333628,-0.3356636635,1.359834233,0.0310718164,4.2282737704,-1.3467687057,-3.517800854,-9.0378693757,0.7881527995,-3.2222963488,-0.9797779899,0.9141794902,1.3161818941,-0.4112788259,0.0528218011,-0.6426816973,0.9887829844,1.9343476621,0.3494029924,-0.1993949117,0.741652924,0.3789607969,-2.2922234121,-1.8761560034,0.5182335893,0.5913315999,1.3971937729,0.2436845263,0.0583747539,-5.237947383,-0.4262666959,1.2109994809,1.4870793655,1.0247660174,-1.662686055,0.9172586803,-0.5190081946,1.584065222,1.7316384473,2.887732158,1.5047651099,3.9779321558,-0.7086618895,1.6036406891,3.9494943325,0.3218082866,2.4830707013,-0.8577599455,-0.7274701665,0.2261001783,-0.8390079804,-0.4622693973,1.0219981364,1.3484063393,-1.5547171771,0.584835324,2.7060253148,-1.6918851374,-1.3283975092,1.87125871,0.3446984965,1.0675076111,-3.2237196714,0.0331261426,1.3288848272,-0.1136986231,1.9387082714,1.5990543393,-0.6000069132,-1.8579373661,-1.3587154607,-0.5612646975,1.315917953,0.256707432,-1.3221127458,0.8305821106,-6.1687149341,-0.8305674526,-0.0757272183,-1.5933590674,-0.2994389853,1.5827169087,0.0035407747,-0.7273324563,-1.342623256,0.4376589099,1.6353553889,-0.8778617657,2.1200546998,-3.5939517839,-1.1152123286,-0.5792059099,-5.082825796,-0.6559158924,-1.7072900595,1.0043413156,-0.3462614951,-0.2586019159,0.4021467776,0.4643334219,-0.0383522231,3.334781593,0.0419395006,0.3350887724,1.1244044414,0.102529383,0.1641630413,0.254499503,-2.3070542259,-0.2215569731,0.098336762,2.5348491963,-0.213494741,0.8933341709,-0.3346149071,-1.9391763164,-5.1819271595,0.1884288309,0.7597652289,-0.7508946935,1.2746830359,0.6659979432,0.614796585,-3.9154318271,-0.2143889768,0.4198603606,0.7762553449,0.3825811656,-2.1875321181,3.4514496811,-1.7315958574,0.6298060727,0.3528147273,-1.0991601421,-0.9069874791,0.1327833759,0.4089617457,1.4908471262,-3.8171613221,1.2752251477,-0.4586797824,3.9054022563,-0.1272943717,1.0305427001,-0.8145094879,0.1391494138,1.0382718346,1.4705016217,-0.4392336016,-1.961812733,0.1512664241,0.2206632984,0.9293966237,1.5564484698,-0.7420860734,-5.5719736911,-3.78417826,0.2676961453,1.0742637715,-3.313559938,4.5772856021,-0.6109718893,6.3411121186,-3.1139063207,-0.9467462148,3.0849645835,-2.8945905491,-4.4505860124,1.3987900013,1.7400958638,0.1224098447,-2.8816424605,0.1724936126,0.3024349382,-1.3724321074,1.8574376624,-0.5400123997,4.0291638115,0.2761838181,1.7285403007,-0.8093466554,-1.8975642173,1.3909138797,-1.7711490942,1.867411741,-0.2168252259,-0.2142368126,-0.4471474807,-2.4985395265,-0.6532130667,2.9634386483,0.4303644014,0.7715420456,-0.9419443881,0.5329170971,-0.8964195411,-1.1029482254,-1.1866326087,0.7275526332,1.7994341761,1.3265241175,1.7422845559,-0.1096928628,0.3739023934,-4.8894419547,0.7043857822,-0.6784697257,0.3780124108,6.8533565226,-0.9312605067,-3.8632213192,0.5937705682,-0.6639806689,0.3433912284,-0.2232937638,1.0951097507,-0.1999920655,-0.8420571139,-2.8600595897,0.8137273311,1.1028682922,0.8743344043,1.2052367436,-1.9907801749,-0.172177794,1.3978858963,-3.8937393292,-1.6553326065,1.8000920653,1.558384293,-0.4585365525,-0.1363619858,-3.010397203,3.7887444334,-0.0887866804,1.8460877617,-1.2296045254,-0.3661420202,-0.8448746254,-0.7025958452,-2.3767475433,-1.2343175474,-2.0038978476,-0.5892114253,1.5344383139,-0.2240518717,1.7351442595,0.7547656994,0.4612535772,0.2669503531,0.2371957892,2.2910750544,1.1041191754,0.5999114056,-3.4960737679,2.4338738755,-0.1525508066,-1.3701156965,-0.7265447743,4.0534989001,-0.2336655218,3.0823035924,3.0039807285,-0.6693265222,1.3659897993,0.7235861697,-1.4250822125,1.5109657421,-1.252921983,-0.4297998963,-0.5006237629,-2.3796449101,-0.295531624,-1.2867565555,-0.0948580843,0.7145037658,-1.0621123532,1.8532823356,-1.7246017596,-1.4118677474,-1.3188005872,-0.2280090424,0.8803952229,1.9409702118,2.657124998,2.7919574174,0.354739375,5.0387472777,-1.8772158164,6.5890093876,2.045788016,-1.1461119455,0.6801253036,2.2707595732,2.3360520113,15.7031608463,4.9112548015,2.2896044236,0.6358012399,1.7864407454,7.1298169886,0.7961722165,-0.2068324323,7.4629789492,1.200886542,-0.6899714541,-2.7564228624,-1.4781630634,-0.1248951707,0.6406083839,-0.2748746914,-1.7745098348,-0.9294624079,-0.6801956176,-0.4086251655,-3.371861485,2.579363319,-0.4540917974,3.2856232212,-0.8404588039,-1.5445485314,1.1769665931,1.8231461483,0.7158753471,-0.1569459739,2.1325296903,-1.1386548217,-2.51515157,4.1284260133,1.4736600689,-2.2080016286,5.3780496908,1.1786295183,0.7814245531,-0.1955607979,-0.3485610405,0.464138551,1.0880194042,-1.3558449729,1.19740253,1.7215239982,-1.4208618423,-7.1566237026,0.6005270806,2.0410110218,0.2432139335,0.7204990343,1.3550697334,-0.1348744555,-0.5492989844,-0.8080149732,0.2736294974,-0.9251250754,0.4507038735,2.872210508,-0.691527845,-3.0368773264,-1.1675785333,0.597025718,-0.1656711051,-2.3846221902,-0.9472856195,0.4576337485,0.5282075897,-2.5167722552,-0.4252157195,-1.5054464187,0.5290877515,0.6746557722,-1.6387766385,-2.2067340683,-1.2067859454,-0.47418244,-0.6450180299,-0.1049636457,-0.4246548587,-0.9106273527,0.9301188367,1.1701786256,-0.3119481373,-0.844676265,-0.2889508417,0.5028037382,0.9848932986,0.3806124851,-1.3082538469,-0.7778785153,0.3872036549,-0.2678123373,-1.1722697422,0.9762030037,-0.0826376343,-0.2905951711,2.3970653167,0.2414294433,-1.9840428253,-0.1287857766,-0.6331334354,0.0737523044,0.329898869,1.4716222286,0.9829787898,-0.2618142469,-1.0638708281,1.9075350851,-0.6488298506,-0.8451740256,0.0646286817,1.3887879401,-0.7648559812,-0.2131399253,-0.2808993106,-0.3606421825,0.4456825779,1.7829667232,-0.107829886,-0.9153529055,0.10267045,0.8768391164,-0.0604455698,0.9848846963,-0.4254045975,0.865524414,0.3631669008,-1.4588236013,-0.3839272833,0.6333087749,-0.3347665292,-0.2776895053,-0.0006469462,-1.4078903656,0.8436465108,0.7507450312,1.3719480929,0.2614125533,0.5573738284,-1.2999988756,-1.5791681819,0.1936807681,-0.3471845865,5.9966634376,-0.9535754549,1.0046901006,-1.9069258223,0.0516618226,0.3260411929,-0.2068893603,0.699544351,-0.3120032521,-0.7585543393,2.1398230808,0.5779130767,1.3018523607,0.6135886077,-1.4316781801,-0.093942893,0.2027218632,0.6572263831,0.8521465165,5.4772639836,2.2392648196,-1.4407751693,-6.6673555381,-0.9755699191,2.9626720291,-1.5488946424,5.7747528035,-1.7334442777,0.048183962,1.565483527,0.05015613,1.1761980905,1.8739167738,-2.8842238619,-9.2047688588,0.8101165155,7.6197487985,1.2677580946,-3.5447408858,0.3704629996,0.9916810931,-1.0003683881,0.8310176438,-1.4470501192,-1.4506204551,0.2617249601,0.636913363,0.7080679291,4.6201589068,-0.4117804918,-1.0835675613,-2.0942782237,-0.4688858978,0.3857073639,-0.1859102534,3.8721059911,0.9308495747,-1.1629889258,-2.0353379946,-0.1441514521,0.3590053277,-0.8015409175,-3.3214365614,-0.3092381552,-0.9827534021,0.4614501645,-3.0522582266,0.2939609719,14.4543966256,-1.9625359481,2.3278016259,-1.1765317221,-0.209157484,3.6758677292,0.6129047162,-0.7246039354,-0.4527519211,0.5365132035,2.6397091384,-0.37851316,-2.3085503444,-0.7202054755,-0.4059372007,-6.191985612,0.9431144645,0.0098671793,0.3782383827,-8.10652072,0.3421582834,-0.8108549591,0.835414238,-3.7065063103,-1.3956051278,-4.4628565092,5.0796350271,-0.3430815621,4.6062509713,-0.9175573567,-1.9842517963,-1.7772958128,1.5813799306,-5.7417658458,-1.1373562842,5.8567578637,-4.8621298507,2.9193655506,-0.5827883489,0.7895530481,0.3811326272,-1.4569351487,-0.2988767367,0.2482570229,-0.0423768528,-1.7610942747,-2.1847239832,3.1060219317,6.1354572152,-0.2661246654,-0.9004494196,0.585517202,-0.2095395597,-0.4202399798,1.374263987,1.2424419299,-1.5533743109,-1.0960632675,0.2074476336,-0.2584871433,0.0516453549,7.3577072572,-0.3737673213,0.0257583198,0.7090485742,-1.0779842306,0.5665839693,-0.6685677118,-0.1145117019,-1.1499022347,-0.6964891139,-1.5102798466,0.8966354392,0.6576713439,0.780315479,0.31538979,-1.6132476002,0.3926383099,0.5273330441,-1.008232885,-0.5545972006,0.1384215207,-1.1182947789,0.741527796,-1.3471186247,-0.8730182154,-0.7100385066,3.1473910755,0.838382725,0.7684502078,-0.839594942,-0.2806283543,0.1769960158,-0.7969230525,0.5341615003,-0.2842923793,0.6298790693,0.8719614766,-0.8971603112,-0.1543936972,-0.2361297995,0.6739317992,0.4718615,0.4884211127,-0.1450222431,-0.2940611098,-0.0423370877,-1.5656542078,0.1770324921,1.7567918407,0.1590481752,-0.0853045452,-0.1747417426,0.4230697675,2.365271305,-0.0660931156,-0.088971252,-0.2672293079,-0.6941392588,0.9291077032,-0.2466219823,0.2373375905,0.1735255683,0.1945388085,-1.5111789232,0.0748786278,0.5710850713,-0.4223700264,0.0327718618,0.2905907313,1.1495996414,-0.3406054751,0.2999679656,0.9864140289,-0.5178815619,-2.3591159686,-2.4019923078,0.7297611283,0.4094609659,-1.4616319376,-0.160041029,-0.3153971767,-1.4753521423,0.9499315454,-1.1096655459,0.1066542833,0.0145733282,-0.6190010247,1.7718206909,1.1897396101,0.2899615122,-0.055124964,1.1407335134,1.9635409689,1.3869152888,-2.0718898135,0.5288424316,2.7470023439,2.7002727819,0.0876149884,2.8789717304,-0.1813838181,1.8306550399,0.874418172,-1.5074503534,0.7184323041,-1.7362126713,0.7030346509,-0.7525599485,-2.0880620937,1.8583554153,-0.8877775545,0.3708145859,0.4769205157,-0.4243304054,-0.590287369,-1.5535384582,-1.2692189691,1.556526878,3.0593410104,-1.8857089459,3.9124388299,0.7560199485,-1.66539406,-0.0032434132,-0.1886524021,-0.5989399458,0.7141445006,0.0515794822,-0.6908894745,-0.8021134384,0.891536823,0.3727352199,-0.0164810396,-4.4822966399,-1.5835506298,1.206109213,-1.2496463184,-1.233170045,-0.4427055457,-2.592956345,2.2925451235,-1.2385109836,0.5646392645,-0.3667496629,-4.79271801,3.0383074946,4.1743440561,-0.9437671774,-0.3016829497,4.3359534463,-1.5455356086,1.2081633163,-2.5096341939,0.8682440607,0.6253723422,1.7540417563,-0.6627143855,-0.4151627756,-0.4042767782,1.9381926821,-0.5104179745,1.1817534002,0.9271878576,-2.2016030595,2.1828834962,0.7037060234,-1.6537556038,-2.0483232066,-1.0614773123,1.1180637945,0.9828840163,-6.1050257901,1.7316176784,3.0304589409,-0.1928644507,1.9252082098,-0.5451146706,4.0302082741,0.0736366466,-1.514382267,0.9062529271,-0.7745817282,0.0791041036,-0.7316493931,0.7908440195,0.7520996825,-0.8649355794,11.8565516389,-0.5892778232,2.3355185028,-3.4306098613,-0.078614758,-0.0870543667,-3.5532426218,1.3693640567,-3.1740031488,2.7658778911,1.1913837276,-0.6178757783,0.4162830121,7.5597580346,-0.0659097955,-0.5694193052,-0.2912405314,-0.1166442213,-1.7762132441,-0.1201820068,-0.2902040665,0.2413768526,-1.038461112,-4.3840956238,-0.7298925917,-1.788645821,3.5739677157,1.1142150585,-0.5515036614,-1.7989465234,0.37755222,0.6362704229,-1.0689168367,4.1095165101,-0.3708923428,2.2564934082,-0.0620922456,1.2147165896,-1.1554341899,-1.9609571653,0.7384972748,1.0158220182,1.3587919713,0.2209846958,1.3177129117,-0.412455484,-0.3249038381,0.2963176411,-0.4891147359,0.778842502,-0.7115824693,0.5247506542,-0.5997722354,0.0393999316,1.6995433815,-3.2596420241,-1.7035158033,-2.0376539689,2.657487146,-1.1905570527,0.5110804712,0.4899853221,1.172669427,0.6794647591,-1.3362532089,-2.3773264518,-0.2315182315,1.0067930846,1.3886453245,-2.1677951177,-0.946765136,-0.7886317749,-2.1213129688,0.1341502023,1.0950376627,0.7217892404,0.1409921516,2.9654202836,0.89220718,-0.5953519667,-0.6886766643,2.116814693,0.8789860728,-1.2770775832,-0.1725597275,0.5539953022,0.4369679888,-0.8966620552,-0.9639801012,-0.6639336936,1.1150822467,1.6919669901,1.6787641558,-0.6668352823,1.2333749288,0.3218107126,-0.7069274426,-0.5169355458,0.1594275156,1.4136069993,0.3341527673,0.7887354391,-0.3480226623,-2.4862916183,0.498264634,-1.6759679441,-1.55375984,2.9856003481,0.8564318773,-1.4563087001,1.5487378327,0.1328375516,0.0132687643,-0.7422197573,-0.0951337532,-1.0632037677,0.5390669267,-0.1311346356,0.6738040035,-0.5112118187,-0.8533912459,-1.2090450747,0.6499701394,-0.167225251,-0.9832868365,0.4854996008,-1.5669394335,0.890179767,1.2554214892,0.33445027,-0.8148943683,1.7982621072,0.8324309186,0.6684309388,-0.5214771707,-0.390688992,-1.3601913887,0.0499833928,0.6886290848,-0.5847832321,0.7368282243,0.0310464504,1.1718842758,-0.0590901653,-0.0853031837,-0.9693047195,0.43522649,-1.2978617709,-0.1840998463,0.2521604311,-0.3944210134,-1.9678217694,-0.5839590447,1.2574113414,-0.0256070318,2.1503999378,1.1753206009,0.7869859961,-0.3284153531,2.7843899363,0.120732282,-0.1177472523,0.1173251831,1.3802020834,0.0840744606,2.1257077904,-0.2064057284,2.5205988703,0.1337105744,-0.6264625885,0.1317186282,0.892609589,1.2869431366,0.6908909752,-0.0610051466,-2.9281221884,-1.8644377904,1.8341764141,0.1691076159,0.1262495225,0.1063380255,-1.4456781591,-0.1212049467,0.4417692853,-0.3823466959,-1.233763679,0.2549435885,1.9640205239,-0.4042005515,0.4349065198,0.140653166,-1.6904271601,0.3322468384,1.1825258321,1.4601068345,-0.8750141798,0.95145497,0.8288888773,0.5961265773,1.7469239341,0.3121888375,1.6283862006,0.0812772802,-0.7332892872,-0.9161790591,-0.4407797493,-0.3223911272,-0.0635577548,-1.2552629048,-1.4965783402,0.260587894,0.1496901136,-0.0691997674,0.0774450048,-1.7697458664,0.3026248851,-0.4953333009,1.5034252347,-0.3120546591,1.5026579236,-0.6959305041,1.6076381082,0.1563839572,0.041494524,-0.0008170348,0.9251929342,-2.7746643624,-0.6863350879,0.7415748673,0.8597425462,0.6838459659,-2.82177883,-0.7171294231,0.8129872302,0.9633561228,-1.1836023321,-2.5618362367,-0.9432990655,1.1408138003,-3.9337899327,12.0107809819,-0.4903802693,1.8043804933,1.6270060113,-1.7505926063,0.5755128293,-2.57035933,3.9478122111,0.8772413691,-0.4130135553,0.6467326163,0.4896320728,0.1700556338,-0.2634102442,-0.7992324694,0.6564576394,-7.92024484,2.1126695602,-1.0968549338,-0.044580591,0.9799762656,1.2490884373,0.8172219962,-1.0414517591,-1.003466104,1.2938195912,-3.6366855121,-3.6707874004,0.9643978027,4.4305336105,-0.5033275821,-0.953274019,-1.2949283399,-0.0202681237,-4.1400617927,-0.2933093883,4.0101824066,-2.1032842021,1.9055875895,-0.1754723113,-0.7333529679,0.0041660054,0.9780447526,-0.9826850113,0.5165222719,-1.5106753914,1.011425802,0.4863817537,-0.933160245,0.0700646393,7.4532145575,0.0023358373,1.1081409676,2.9590697814,1.1222149925,0.7012478411,2.616044175,-8.2535135806,0.2662595348,0.9651361244,-0.5304381505,1.0830955695,-0.3537171492,-4.5889367629,-1.2230883871,1.1616803408,-0.4567435661,-11.8596631309,16.5626126183,-4.7522495899,4.0590508719,1.3821303712,-0.2969574285,0.5873740882,-0.607451099,1.8757058211,0.3260628487,0.7081520977,1.977440414,1.871510957,-0.9755612162,0.9488689671,-0.8666997328,-0.7464496913,-0.1077967763,3.1395331705,0.6672978326,0.7585219789,-1.7103596064,0.9239306933,0.5248986463,-1.3549842457,-0.4210688469,1.1987659116,0.9742174623,1.3570191912,0.4135715678,-1.3199039368,-0.4785164541,-0.2520703628,-1.113665083,-3.1218917113,-0.9538573939,0.2007519506,1.6328177753,-0.8057713116,-0.2899127492,1.355443794,0.9368977089,0.6978715225,8.7173998397,-0.1283111482,-0.8642713902,-2.0221550091,-0.2121260952,-6.1916898333,3.1081961108,0.2862399559,-0.2218971541,0.6707614857,-0.9989139035,0.2825730453,-1.8202742728,-0.5269290384,-0.2842952243,-1.0433588085,-0.9553981922,0.2080214564,1.9218433078,1.625517321,-0.254056962,-0.0865967132,1.2865415551,-4.8252835301,-0.3636027444,2.2321672022,-1.7237204119,1.0776875527,2.9311854525,0.9671118563,-0.3887524283,0.1644739981,0.2260463479,0.3320385377,-1.547319562,-1.0601108457,-1.0113321933,-1.9860596156,0.5176383373,0.2540249028,-0.0225298922,1.6995878001,1.1113586698,-1.6271601309,-0.8867792115,0.0319962515,-0.23897029,-1.36286898,-0.4643437175,1.086196076,1.852435624,-1.4060674331,5.5425989896,-1.4390806787,-0.2804374457,0.592794533,0.1003240365,-5.3007815878,0.0920820304,-0.5059524051,-0.9732088212,-0.6813741262,0.5530029643,-1.6373386953,1.9779622542,3.3723678631,-0.3298903868,4.1251248922,-0.1739442833,0.2685869377,-0.13695283,-2.4447085329,2.1372940137,-2.370163838,-1.2257080147,1.3936516867,-4.1891789631,-0.0103483582,0.1784817624,-1.9279785902,1.3366861237,-1.7765624513,-3.1960330405,1.3320965394,0.0690218193,0.7833448472,-2.4657727504,-0.6206675302,-1.1838858304,-0.5847825767,4.1208206602,-3.3256063911,0.6059967922,0.630293568,0.4475335062,10.7451821534,-1.3274952093,0.8826584909,2.7254468574,3.4095008009,0.3168498308,-0.209180709,0.6575550064,1.16661294,-0.3268803491,0.9133850839,-2.5126885764,3.333186373,-1.1309811832,-2.371781609,-1.9968772636,-0.5741159339,-0.7073649766,-0.149793094,3.1201517939,-0.5858249709,0.29229485,3.3040851025,-0.4957051041,-1.9093843908,0.3722126254,-1.8401770934,1.2134964733,0.5849228145,-0.8643406571,6.0617068007,-0.3283379724,0.8939945032,0.6393690429,-3.511658748,0.3928586376,1.2062247936,-0.1606010859,0.9023181852,0.7316617031,0.6228586914,-0.9164085713,0.2446248626,1.3290678288,0.4167232815,0.4406438393,-0.5082769103,-0.0484460416,-1.0331009343,-1.8775411517,0.0916089838,-0.6215060508,-0.209188151,-2.20282243,-0.3137374479,0.353684077,-0.3832468874,3.2969564495,-0.7273603147,0.7210735451,0.0682795273,-0.5379623291,0.940832675,-0.0522616352,-0.1559249024,-0.6284353303,-0.6378218839,-1.0531225061,-0.85894414,0.3151744507,-0.1452859108,0.0023759635,-0.2227676775,0.9209866226,-0.5814676206,-0.4353098153,-1.2730048639,-0.3178310037,0.1961425823,-0.4106603442,0.052018587,-0.0139202067,-0.1057769006,-0.8809646727,0.3188745388,-0.0939469992,0.0512636571,0.2459614841,0.3499745704,-0.4723806265,0.0641682544,-0.5191210171,0.2038883308,0.7215607771,0.0755363298,0.5516814704,0.294976696,0.2235544919,0.0551444921,0.4162509865,1.0976542542,0.0898470938,0.7970169712,0.8289780177,0.0519529268,-0.1100209673,-0.1994663656,-2.7439391238,0.393539505,-0.1881601007,0.3178217538,0.0777604724,0.7816400147,0.0609794638,0.989556666,-0.3097357071,-1.3553426075,-0.9786798634,-0.4777833593,-0.1123117207,-0.5406706588,-0.0279931495,0.5002160242,0.0676912851,-0.5780776979,0.452907089,0.7259633867,-1.2550089359,0.944325471,-0.1673517832,-0.0694589312,0.2467196099,0.5295989981,-0.2640911144,0.308701804,-1.3778439994,-0.109503526,-0.051680547,0.4966069591,-0.2944492323,0.2443670077,0.1371116464,-0.164062693,0.1338988904,-0.9909490403,-0.9724013713,-0.0742311326,1.937735876,0.1102097357,0.3157432499,-1.1934395303,0.2926741956,0.0732194427,-1.2645646789,0.0898972897,0.9552246513,-1.2539630125,-0.3085733596,-0.6477155069,-1.0893945366,0.6302027406,-0.0707991612,-0.3106605241,-0.1034933416,0.1324975618,0.0267582604,-0.8497067713,0.1618431192,1.2710322137,-0.3232520361,-0.8839703846,-1.716541115,-0.5971268793,0.0750012058,-2.9554373732,-0.954502853,-0.1582708413,-1.8242455654,0.6597908564,1.5161735575,1.1490576222,-0.5459855771,0.1478518216,-0.9340920592,0.8312724868,-3.6618335914,-0.1725005281,-0.5634232008,-0.0114555917,1.2171721417,-1.1397401707,-0.5648978351,-0.0316411472,0.914165874,1.6960024799,-0.1078233081,1.0735233351,-0.1770584139,-2.8902840942,-0.0750276089,1.4774948701,-1.1038018237,0.0617591772,0.2711256558,-0.1452827838,0.4476063836,0.772781482,-1.1394568019,-0.6218966418,-0.1385597835,-0.5999633603,1.0882922104,1.9325121197,-0.0641604332,-1.2311835519,-1.0199206509,3.6708271386,0.4691980648,-0.0087748492,-0.8571388732,-0.8437138313,-0.1785168336,-2.4430749227,0.0949829187,-0.0242518339,0.3151072849,0.9927944753,-0.2221276174,0.3854321795,0.0681862408,0.8240983895,0.3593399844,0.1345479022,0.5960785981,-0.9588753523,-0.6200462743,0.8325484799,-1.7166636435,2.8767799767,0.5438713861,0.2316688626,1.4927067486,1.5599736897,0.3867859739,0.4645094626,0.0041950366,6.0978462561,0.1702764015,1.0498209883,0.8547102482,-0.1231617876,-0.9961348969,-1.0255295557,0.2538333773,0.092906688,-0.5946317981,-1.8202283104,0.039702304,-1.5810246698,0.8389768732,0.0385636197,-1.2701299088,-1.7761253109,0.9935260306,-0.1090574148,2.4780980218,0.2151334211,0.2440004139,0.7989944129,0.3137662523,0.2157366546,0.406824968,-0.1078154112,0.3169485331,-0.3860136362,-0.4665711675,0.2252847786,-0.1526583612,-0.1604198486,-0.2459349277,1.4437714586,-0.6817587839,-0.1846550708,1.770574326,-1.633292663,-1.0649395124,-0.1026229437,0.4420660469,-0.0436672442,-0.3181844981,0.1263331003,1.6136664772,0.2388277527,-0.7531591113,0.0281840237,1.1612370999,0.2965752687,-0.864122875,-0.071255449,-0.2185527272,0.5739565319,0.543747555,-0.6057341579,-0.4252995479,2.0957550474,-0.3338209645,-0.9025848343,-0.7265361388,0.9891802487,-0.3745993665,-0.165248071,1.0090927995,1.9330984875,-2.2181833576,1.9673423616,-0.9244894555,1.1898565858,2.2838596275,-0.0910400139,-2.0419555593,0.2088138895,-0.9109452702,0.3315105424,-0.9712088423,0.6170136378,-1.0662212517,-0.448937326,0.8999870281,-0.8645579848,-1.0449756177,0.9638694699,1.0854821338,0.1484446082,-0.1642418376,-0.3580282267,-2.7336864698,-0.2519134168,-0.1164564823,-0.231142707,-2.7873854965,-0.4257885067,-0.6232788357,-1.2631627986,0.0097624412,-1.3559353189,-0.653386322,0.5926747456,-0.1873233441,-0.4889803263,1.0343728127,0.3122773618,1.18201573,0.5592339242,0.1073588917,0.5921285551,-0.2917258508,-0.3281811586,-1.0234549166,0.3147837911,-0.2543869735,1.1558448052,0.5414933708,-1.0828063579,-0.5726688456,1.1945981184,-2.2904344706,0.4083616309,-0.6729482203,-0.6693562835,1.4275508142,0.5036822052,-0.6949723235,-0.5158289848,-0.8950843143,-1.8172114798,-1.1495393892,0.5303221834,2.1220255902,1.398483416,-3.5596633749,0.9552626281,2.0325944628,1.2138345073,-1.6718184171,-2.6079340787,-0.5169606219,-1.6729195047,0.2568363161,-0.2319660549,-5.0489702898,-2.5563359047,1.7926767359,1.5588346599,-1.4280966108,0.611945238,-0.1544533494,-0.2611561465,-0.7034384684,-0.6490134535,-2.3648547605,3.9644751706,4.5774548548,3.9812905674,1.2962214716,0.3915558124,0.3323034013,-0.7746225097,-0.9667565952,0.0018227896,-0.300271703,0.2143924995,3.2334352257,3.2275681065,2.4314514211,-0.6441016181,-1.4376233606,-0.9050138016,0.1716591967,0.3681081353,1.6595625786,1.7394028828,-0.3663530392,-1.1127265328,0.6954916935,-3.4809889887,0.1588405037,-0.9065157295,-1.7463210492,3.1553731329,0.3475911281,0.2068840355,-0.2299313832,-1.0274654833,-0.7879671934,0.4265702651,-0.123884874,0.5311470568,0.7256980424,0.2061704293,0.3359576134,-0.4424043826,-2.3240610796,1.4933612152,0.4099544901,0.5643399969,0.0725104365,1.0378712014,0.4220530748,-0.175626531,-0.0349204993,1.3900102362,-1.3243431785,0.3064957416,1.0288536529,1.0625931902,-3.7532053001,-0.5799452116,-1.1566330071,3.2334721369,0.3783724179,-0.3955855587,-0.793835122,1.1845851053,0.4280147265,-1.4174749339,1.3265028553,-0.0392407264,0.1695018918,-2.3354236873,0.3833166717,1.0301501065,-1.5547142889,-0.8032589857,-1.281091522,-0.8878810158,0.3223770645,1.8042350805,-0.2075869637,2.344653311,-0.0245782789,-1.3267681154,-2.032209557,0.9140347907,0.1698325919,-0.6029413644,-0.8303311127,-2.4923910699,-1.9199770974,-0.0887676115,-0.5040691887,0.3017257259,0.2783790296,-2.2451618304,-0.8375885191,-0.4460367553,-0.8264534553,-2.0096646859,0.9252587151,0.2411039519,1.178798014,-0.6190870106,-0.400622632,-0.1243235214,-1.3404734395,-0.639254345,-1.2708125829,-0.8633052215,-0.3265789513,-0.3726639839,2.1478879376,-0.2411054546,0.9363390742,1.4316472484,-0.8789893484,-0.7421533794,2.4662304044,1.2706032718,-0.1122029179,0.77337727,-0.2358760745,-1.3608395542,-0.3428762907,1.0660999865,0.7734880227,0.298473424,-0.9036507275,0.567468106,1.4476809032,-0.7814385528,-0.2283794531,-0.6518315089,0.7997932002,-1.0273617526,-1.8036533765,-0.0998410595,0.6657936138,-0.1225377167,0.7668976125,0.1715032401,-0.571018248,-2.0028275229,0.2340359907,0.5984184855,-0.2744781205,1.1891597986,-0.9257921449,2.7692012022,0.9933828607,-2.1985762984,0.877099917,-0.9951586644,-0.1601454132,-0.631968618,0.860100531,0.0348537295,1.5345235752,-0.6154489207,-0.3849794797,-1.8189629255,0.4450030852,1.0753218759,2.7272953116,4.867216922,-0.0986928498,0.1869778526,-0.9323880157,1.7782358309,-0.4353147876,-0.0061890989,-3.4931494858,2.8453064596,-0.7226859173,-0.3287430479,-0.4117851498,1.0163213953,0.4873355902,-0.5466393653,-0.4136534725,1.0606364129,1.3357670907,0.0964933257,11.4652874793,-4.4173140441,1.925960882,-3.1198736936,-0.1889304227,-2.7033132064,2.9135591793,0.8826082961,6.1029426117,-1.5176952885,-1.4059336663,0.9642481641,2.3673085364,-1.2493357051,0.591712769,-1.1828436577,1.1831111493,-2.2547363895,-0.9662453838,2.0372455222,0.6271589687,0.4598083165,-5.4146319217,-1.2794232269,-2.1598898236,-3.1041422226,1.0108647119,-0.033958525,0.5193186008,2.6027355741,-0.3665664275,0.598607124,2.0582598927,-3.0678099933,-2.4958132234,1.2640743417,-0.1880502666,-0.2174577199,0.2562347249,-1.5220454045,1.8562027019,1.9698483357,-1.7887068105,-0.0220471361,2.6051437065,0.2765432281,-0.9303452259,-1.4129660007,3.1145717643,0.4235818824,-0.1322073832,-1.282776129,-3.3376391107,3.9980642141,1.0000538895,-2.5955637476,1.0899942235,-1.1084814884,1.3324772419,-0.6078554977,0.0433066056,2.0268048964,2.2715584689,-0.6693052826,-0.2787411283,1.1246196182,-0.1615866434,1.1238429761,0.249009083,0.335411192,0.5782137675,1.0342595371,1.1944417356,-0.7336888366,-0.9699200516,-0.4248851128,1.0731810677,-4.6022267172,-1.0021075506,2.3246802211,0.13751172,0.5856726345,-0.6060553521,0.479251593,0.4068597296,1.459237465,-0.1486883823,0.9156985656,-0.5426287224
   -0.772094565,-0.4237695655,0.7873766639,0.2134838129,-3.1812987165,-1.4816424477,1.3150635415,-0.0066713877,-0.0303111612,-0.7179487921,-0.518388654,0.759788623,-1.0938805161,-0.4160420244,-0.275283009,-1.2061102611,0.1215208141,-3.1341580893,0.1254620209,1.7329940287,-0.8691082441,0.1511593355,1.7480731977,0.2295422324,-1.3043650485,-0.5448976807,-0.5286062637,-0.5851983412,0.1128221141,0.2070530593,-0.5169733449,1.0811847739,-0.1007512598,2.2781982139,-0.8256841004,0.2061777642,0.6950872135,1.0541660025,1.7623870764,0.9533586519,0.6851338332,-0.4647699504,2.5836466617,2.6735443872,2.4192523439,0.2646382523,-2.9834524209,-0.2520638662,0.1711317265,10.0120002209,-16.2822044426,0.279280695,1.1057467592,-5.7063300085,1.1634907096,-1.0629994683,4.6643028116,2.4039188077,-0.2880628886,2.201457951,-0.412521543,-5.0721377228,2.2885587803,1.7404167847,-4.5606577951,-0.3078979536,3.0048197826,0.738015102,10.2768647436,-4.9888315294,0.5391937372,1.749909145,0.5885756192,-1.6106568787,-1.1950570785,2.099742635,-2.0371692987,14.8953045236,-1.8535674955,-9.962195036,-0.5405017693,5.006470437,-0.7893979562,1.9420163884,-1.8209449417,4.1658745225,3.1892945204,1.1460036052,0.4626442091,1.4786642279,1.5296491205,-3.5822449213,4.5188911093,0.5677033971,-1.7955041594,-4.4355007251,0.6305434419,4.2268301098,-1.4960019081,1.3485940859,-0.5343718632,-2.8474044143,-0.4729422179,0.0173781476,-1.2775320509,0.8128406144,-4.4999250983,-0.8463909816,0.9183864805,-0.8674604677,0.310130551,0.2091594018,-1.0574771922,0.8239519487,0.0970586108,0.1475040655,-0.9606509733,0.0686967185,1.5041186544,0.3559467958,-1.3824233701,-2.0206522333,-0.4818052458,-1.5805384557,-0.6749569921,0.0231770688,0.8886458572,0.017791988,-0.1109270036,-0.7539690505,0.6336544984,1.3670123616,2.6130493582,-0.1921214435,1.0233377816,-1.3973234355,-0.0042935515,-0.8752847414,-1.9276648859,-0.4282069705,0.2407978322,1.4815230508,-3.0630654636,0.6177722305,-0.4675994567,-1.3675804116,0.8741856065,-0.3926436872,-0.5068893899,-0.0286420799,-0.9000696227,0.0997657357,-0.6108138753,1.6382455405,-4.9602651493,1.9381225413,2.187432071,-0.0178515815,-0.8992696322,-0.7835378431,-1.4934763583,1.2537578601,-0.7947344432,-0.8105081788,-1.328243086,0.463035032,0.0108143323,-0.4950615322,-0.6735983923,-0.4366290903,0.6460621779,-1.0372502664,0.9638296147,-0.734670984,-0.0526377462,-0.2760127744,0.9375152201,0.323773191,-0.3970003215,-0.514468159,-0.3115013643,0.3023237207,0.6079898365,-0.0341051398,-1.1761172507,0.593609135,-0.0892906767,-1.1829028597,-0.84689625,0.3887428572,-0.4628731921,-0.7315417888,-1.2201305004,-0.4388752417,0.1153356929,0.73188311,-0.1467174724,1.4497786032,1.3284122234,-0.6682812216,-0.8476345247,-0.0483094992,-0.3665162883,-0.4767209394,-0.1629288678,0.1347778089,0.5577553891,0.9329712245,0.7623692919,0.6760658607,-0.2498998755,0.1296818186,-0.2623899664,-0.2666931844,-0.1858512727,-1.2465734145,1.4245940857,-0.1525209606,-0.1373788343,-0.1651293626,-0.6391940017,-0.8100584761,0.9744318277,-0.7513540681,-0.2946781003,-1.1174283204,-0.4952983207,2.0506193067,0.1936249484,-0.9428767499,-0.9340460219,-0.6372862766,-1.0771548666,-0.112288062,-0.3674941743,0.8947916736,-0.7638836464,0.0341892694,-2.2837817558,0.1875514084,0.2378025007,1.2485241526,-0.4735115811,-1.9779037654,-0.2022353898,-3.3562879852,-1.8014895404,-2.6092106365,0.431043195,1.3561800206,0.437224965,2.0924640941,0.2565341301,-0.7217470748,-0.9532734858,1.9944596614,-1.3493175143,0.5466102275,-2.8132714561,0.7647997981,0.9527930084,0.1890614443,-0.8404612202,0.2704486131,-1.2663426954,0.1514573009,0.6351073111,-0.32084326,-0.2898341379,0.765301952,-0.0521288674,-0.5380417132,0.2293348209,-0.6314660508,-2.290790913,0.6778029446,0.106906702,-0.5075427385,-0.2493672519,0.2642594852,-0.8391622043,1.5007569661,1.4071361261,-0.6051732115,0.6052929574,1.4565181077,-0.2475969666,-0.9316663746,-0.8427531069,0.0126889211,1.7149341558,-0.3508587508,-1.5451552246,-0.4237787674,0.2301906515,-0.1531028481,-0.9392348177,2.1881672109,1.5272244139,2.7939642076,-1.6054375469,-0.6901141544,1.2594579052,0.504817805,-0.9153758585,4.1999175977,-1.0844026457,-1.0972076371,-0.0569414314,-0.867802874,-0.5054132955,-4.804209015,-4.0106072147,-1.229151812,0.7914250834,-0.0388235395,-0.1350220937,0.3978093314,-0.7171150151,-0.1383625273,0.1860417844,-0.0750966411,-3.9545443832,-1.8657428321,-0.4010017842,0.6947434929,1.4953789323,2.7142621215,1.0436632318,3.6376186569,1.1653579389,-1.5347404061,-2.7703841317,-0.956901378,1.7003743538,-1.5291611887,-3.1587630663,-1.8854050935,0.757563319,0.1959514164,3.7890113007,-1.1366322171,-1.3444633364,-1.6980196941,2.8231110276,-0.0253008386,0.4189063434,0.8490561802,-0.5219044655,8.078063092,-0.5844052823,0.0904479073,0.3775399414,-0.8673445139,-1.864186488,0.1322950565,1.2431185248,0.4434106776,-0.6448010116,-0.3596254092,-0.4253541621,3.3673331711,1.3318511734,0.1126012133,0.5860317052,1.0801358973,1.0731758189,-0.2971179844,-0.7425313465,-0.2775363923,0.1299980616,-0.4707541456,-0.1126424366,0.8332567393,-0.0856787346,-0.7960852591,0.4787097271,-0.7455463187,-0.1102682546,0.8626795258,0.1393667604,-0.5486603012,1.036077169,1.0184996369,-2.3081273925,-1.5205493428,1.4255865743,1.1728626351,-1.3646592272,0.0824089303,-1.9290344388,-4.2080436786,-0.1626954854,0.780200905,0.1390838594,1.0060755202,0.2191600364,0.7457556676,1.3141061531,1.1410183082,-0.5260286792,-0.0329817605,-0.6815689966,2.4030239596,3.0596043631,-0.6736310901,-0.6211111149,-0.6374175697,-0.1436016733,0.8297003306,-1.6496417212,-1.1700110759,0.1134055236,-0.0548670274,1.1092500097,0.4917713605,-1.9838153905,-1.3565311328,0.5788672874,4.5324444205,-2.3448237633,-1.3855894421,0.6693233423,0.1468494887,1.2353658801,-0.7455389906,1.1669929755,-0.0188785087,-0.6021178604,-0.0473279892,0.5718692581,-0.7215586063,-0.266915942,0.1822422264,0.5626291926,0.6344945055,-0.8407085229,0.6906477112,-0.6362818893,-1.1850670625,0.6218642226,-2.1809802251,1.4099082318,0.1268964562,0.6458377537,-0.138654739,0.3166895836,0.611606838,1.3935997683,0.2757365593,-0.5234422652,-0.4805325821,0.5793879498,0.5325780602,-1.2880368593,-1.3959650882,-2.368300693,0.8923409186,-0.6515342057,-0.4633106717,0.6435232091,0.4450206978,0.1619249945,0.0843604857,0.8307843001,2.1862590037,-0.4088199704,-0.9688959166,-1.5919895687,-1.5725078156,0.2526238178,4.2167615526,-1.6574168493,-1.4184768115,-0.4153788697,-1.1699080238,-0.6816683157,0.963754435,0.281297002,0.7573588032,-1.6654584116,-2.9533696107,-0.317714717,-1.6261411713,1.7644146616,-1.8514177358,-1.2431376773,0.099075333,-1.258792156,-2.4216983953,0.8787096173,0.5727700868,-1.5431345068,-1.6886434208,-1.6938231679,5.3115074247,0.5216704334,3.1188427648,1.173231844,-0.843754223,-2.0562921212,-1.4287536783,-1.5790650043,-7.3414785326,1.5145347462,0.5846375822,1.0622428195,-0.2484977451,-2.450988212,1.2456221365,-0.4156685458,22.8866185585,-0.1211695873,-6.7056774747,-1.5881371071,1.7140007456,-0.2248972083,5.178521764,0.1465334526,-1.1904667857,-0.9947172833,2.0985330578,-1.8687804051,0.440843115,-1.6657011064,-0.0655752648,-2.773136817,0.172654154,1.3402260612,-0.9767305838,-2.3603577604,-1.0236440271,-1.7025486414,0.9226248375,1.2851113299,-0.6137483276,-3.2572852725,7.971964765,2.0893861745,6.4108397173,-0.7534421009,1.0596018108,-1.3692399255,0.8409298364,-2.8437220464,-0.4319787005,-0.7634586716,0.6525321519,4.831598201,0.9098248197,4.5314807052,-1.086840022,-0.7658783199,0.4633947734,-4.1324388842,-2.9353815971,0.7025783763,-0.2584479957,-1.0162677683,0.7913903126,-0.8575645501,-1.6199568962,17.3482889345,-3.5491146008,-1.1026780654,1.0953373609,-8.3578523153,1.0709161858,1.1414759297,-0.916188414,1.0562672555,1.1680677745,-1.85429522,-2.1201898408,27.7631069979,7.9015567563,0.1629138041,1.1881519326,-0.1019153413,2.8809311347,-0.2482188638,-1.1397081186,-0.1721057954,0.4063954708,1.1547335766,-2.262333407,0.0570221314,1.1731543775,-0.9637567265,-0.6292588534,1.4259008544,-0.8036969324,-0.3353563509,-0.8205739231,-2.6547542353,0.2918061763,1.6165336308,0.365830751,-1.8007611265,0.9836398836,-3.1933444237,-0.5501545435,-0.3948214942,-1.7781123904,-0.5405023576,-1.3215305442,-0.5633317958,0.6926628205,-0.0594469054,0.1340744598,-0.8605418172,0.1568740482,1.6173504836,0.0799161756,-0.3733498786,0.1842413538,-0.1075353517,-0.0048185074,0.0131279765,1.2684969933,0.3275474907,-0.6775651487,0.3883958627,0.0726139969,-0.5212567715,0.4270920079,0.5381977415,-0.2051079111,-1.7587091185,-0.5223422897,-0.2421559264,0.3697478304,2.3132616954,0.0669479453,-0.5663813409,1.6075368155,-0.9647795534,0.5196405033,1.6201561702,-0.3054758881,0.0073117847,0.5279662738,-0.0772246476,-0.7019542778,0.9737267541,1.1332477548,1.1317074458,-0.4553200816,0.2432564563,2.0122962169,1.1262824474,0.6242888606,-2.9053616235,-0.3451484584,1.2570131501,0.2793623372,2.2555686926,3.5907718506,3.1964682876,2.2215882835,26.0881907355,70.3319002624,-5.0020257848,-0.3827472806,1.5686291231,-0.5035808717,2.2686740826,0.4724160628,-8.5918286367,5.0317468544,0.4936592365,1.6017413539,-0.2442032042,11.2726826395,-7.2444110396,-0.6369308808,-1.6777641656,-1.6384259875,0.570905117,-4.1387801922,4.5099505143,-0.9769725717,0.3863527894,-1.2627408448,3.3856031785,0.8945920963,0.6704882611,-0.815816647,1.240116007,-0.3489812405,-0.335041455,0.7401256503,7.4461089274,-2.4152164655,-0.9508692941,-0.1223758893,-2.0754376872,-1.3148559164,1.1452379574,-0.8895405722,-6.4251251717,-1.5362976445,-0.1658282551,2.0473715873,-0.4951311364,-0.0399557349,-0.5090608154,0.3282405706,-1.2720559648,0.9244069773,5.0271082947,-0.3243551506,-0.7341038696,0.2731916557,-0.0449599855,1.0648360008,-1.0586826414,0.9980693975,0.3831084921,-0.1766320027,0.7070838072,-1.1832851352,0.4146080935,0.2010500505,0.0064289265,0.6817132556,-0.1167617265,-1.2459521442,0.3836514678,-0.7412503371,-0.8336209667,-0.0769058065,0.0207013857,-0.8352786079,0.3140803687,-1.6564935444,0.5010905499,0.7253423202,-0.1919927652,-1.442732313,0.8399942291,1.009587436,0.2948357984,-0.671196336,-1.4044230245,-2.1262707084,0.0389242979,-0.2064820574,1.1896006044,-1.5969346668,1.1492083669,1.2202261909,-1.8958255793,0.1033787392,0.8109480477,-0.6613534376,2.3491338209,1.1710280225,0.5704374223,-0.2486444684,-0.3134174217,-1.4814590229,0.6779096095,1.4562805278,-0.4256526226,-0.6498628373,0.0095376784,-0.0433085962,-0.5563649042,0.07745689,-0.3409518036,-0.5049712297,0.2196219903,0.6603266865,1.1800137811,0.6314368355,-0.5813915938,-0.0586437151,0.7650435113,-1.3924304029,-0.5187113557,-2.3592269373,0.4689824714,0.6950896793,0.9834096408,-0.443297818,10.9133777533,0.8948889613,-1.2016705179,-0.1717121959,2.0460812975,1.0971375101,0.3246484082,-1.1336460719,-0.2153409093,-1.7135509707,3.9508898289,-0.5550289311,0.2645810255,0.1870819183,0.1613639978,-0.370048296,0.9213061001,-5.1538222372,-0.8760857006,-0.5008201088,-8.0338772753,3.6020128122,-0.8125242804,1.4743810854,0.6498976704,2.7180059156,-1.6558398483,-1.535096387,0.4244421114,2.1700082818,-0.0887313032,-0.4267555684,-0.6303245701,10.8819834728,0.6056609427,-0.6500300745,-2.2962769807,-4.6151226927,0.3637456896,-2.862548089,-1.911272752,-0.7282893733,1.6516474534,1.2686319582,-0.2044910903,-0.1358731119,-0.6749724232,-0.2533022026,3.2455122273,0.3103568644,-0.524889383,1.3995045766,1.1904304072,1.6455235195,-0.1665186235,2.9494985107,-2.0314997149,-4.6709150564,0.1310236757,1.7677633147,0.7755855393,-0.8896882742,0.4461164138,1.3854117794,-0.1157916411,-0.9329870764,-0.2205980499,0.4942172375,0.0263313201,-0.5355853761,-0.8181651806,-0.5392822273,-0.0813215398,0.1414797718,-0.227538077,-2.2630030062,-1.0421780292,0.2550449687,0.5781400944,-0.7332923702,0.4081107674,0.3371523765,-0.0562174106,1.1895078234,-1.5984606326,-0.7884187296,0.763513054,1.6991325164,1.0458669862,0.2341192735,1.2530732331,-0.881154848,0.4143297808,-0.0076820341,0.1663061959,0.4109699004,1.1380710296,-1.5636116275,-0.724274568,0.3025633446,1.6349423074,0.8619849197,-1.0927963007,-0.6158665017,-1.0109064406,0.3679888123,-0.1996852638,-0.2190391557,-0.3414803022,1.5706858483,1.5868876663,1.569154307,1.4040086875,-0.3382034754,1.0038302736,-1.7121210978,0.4555006048,-0.2410973506,-0.9987882057,-0.7220402361,1.869707846,-1.1599902426,0.578270238,-0.6369963002,-2.3454332884,2.8732304436,0.9438626496,-1.334012491,-0.4148931722,0.4332446414,-0.9062240796,-0.3770350235,-0.7014573895,0.5217780696,-1.0289083976,1.025146939,0.5751573302,-0.4491958754,-1.1351848858,0.0164157225,0.2868334166,0.1553502738,-0.4905942715,-0.7247320751,-0.9236577929,-0.2976990866,0.4962043683,0.4492080402,-0.3097417493,-0.5876435059,0.0525361809,1.2405444942,-0.9877633805,0.0126605382,-0.6920765325,0.6478826227,0.9828739916,-1.7447655371,1.0540242528,0.0847716564,0.3784273759,-0.0184485474,1.8050764504,-0.3013541318,-1.2467161917,-0.5511800346,1.8864513508,-0.4636263433,0.6378965259,1.5751259458,-1.1150027179,-1.0767794011,-0.1837645811,-0.3462725041,-0.7825353963,-0.0949605736,-0.0321855746,0.1742939206,-0.4615899185,0.4045797368,0.1034156044,0.7421741845,0.9901763382,0.2176971146,1.0765190187,-0.2583076303,-0.8204044854,-0.5331225925,0.2963211095,-0.3463466377,1.0241349413,-1.6122850988,-0.2755556893,-0.8468754073,0.162959369,-1.0483245541,-1.8604167803,-0.4075997673,-0.4194693774,0.9931370228,-0.4778432862,0.6650066819,0.5750456394,-1.3832360049,0.675157523,0.9725007857,-0.3170540465,0.0388370929,-0.1069121981,-0.563519426,0.3025315486,-0.7899486167,0.3885942589,-0.6962704948,0.4626464321,-0.4679029453,0.1052879324,0.6140023593,1.9934412939,1.4971271443,0.0696593722,-0.1202070027,0.1878606901,0.1512549815,-0.0981172805,-0.0635847297,1.5113508539,0.2920542099,-0.6147151744,-0.0163519317,-0.0533223676,-0.1309510045,-0.862305683,0.3803925587,-0.629604987,-0.957829887,1.4944934732,-0.1139471575,-0.9360088505,-1.0091617791,-0.3369132998,-0.7920595238,-0.5538544612,-0.0409184123,-0.0623321445,0.3260931879,-0.0097888906,-0.0720953103,-0.4708327787,0.5306995069,0.0596929268,1.4059452271,-0.2189800663,-0.2610432389,0.1509675161,-0.12322349,0.1042331145,-0.0102237128,1.0944048493,-1.0136119516,-0.0975207744,0.081929089,-0.1277496775,-0.6944482622,-1.1807518673,-0.7545834884,0.9220029589,1.2605061909,0.7215966987,0.1833815129,-0.4540843833,0.1319852478,1.1062033189,0.0163433143,-0.4206289639,0.8972753404,-1.5932440291,-0.1433125115,-0.9310766166,1.2507342748,0.0750464577,-0.0579602606,-0.904114908,-0.5437709335,0.4323296408,3.8840381841,-1.6010095814,1.339154033,-0.117455334,-0.8876677613,-0.2499949215,-2.704160019,-0.1445241444,-0.4827090561,0.3617923855,0.2530402119,0.0592423981,0.2422471018,-0.0739679717,0.6991223533,-0.5552525706,-2.5478284222,-0.3671633444,-0.0159128129,-1.4200740239,-0.6877163863,1.7579381745,-1.6477422471,0.7300466929,-0.4621714943,-0.0567363273,0.9254062872,1.6513443243,1.4859165527,0.4062657992,0.941197035,-0.5313190355,1.2130682562,-0.5639866418,-0.5778386169,0.8383504464,1.3986184303,-0.6320502953,1.5001911269,0.5315765351,-1.2927160159,-0.8906267048,0.9609140201,1.2409642029,0.3999460313,0.6502634379,-0.2078434613,1.3300611795,2.8377023314,-3.2671347198,-5.8552737078,0.0292827155,0.845838344,-0.0582714683,-0.4057565243,-0.7619029731,-0.2258251277,-0.8445216722,0.7779421444,0.1716194188,-5.6418288154,1.0674324842,0.7851899026,0.447346442,2.1383561039,1.4251932,-0.2635999079,2.5600595156,-2.8784103301,-0.5297482711,0.3961882596,2.3231739319,1.7255699955,-0.000360093,0.1991161944,-2.5516904678,-0.9595199495,-1.865542397,0.8913606548,0.3015002566,-2.9475927783,0.7038653097,1.1496181176,0.4621745695,0.2822143875,1.3586029534,0.9095446726,0.2546548895,1.0161178106,0.869331282,-0.0788968407,-0.5075829663,4.7319795587,-0.1218419533,-1.3714085306,0.0618790954,-0.6576414395,-0.4273304113,4.386166739,4.9137234984,-0.9516533914,0.8059849309,-2.4255526702,-1.0317542119,-0.6907553598,-0.9948385882,1.3511274943,0.15446687,-1.0998536376,0.3202873951,0.2705872633,-0.3707197247,-0.5650510138,-0.8066195794,0.661192159,0.5793976452,1.459027965,2.1976342514,-0.0157782958,-0.4651562299,-0.5048352927,0.2608030018,0.1488431182,-0.1082944508,-0.4013400064,1.5152399244,-5.3726399432,-0.443878967,0.804341049,-1.2090409911,0.0009055529,-0.6621362317,1.9421673051,1.0458427485,0.683239396,0.0374574199,-1.0724362523,-0.41374618,0.5819974611,-0.9124285509,-1.4704286593,-0.6136614087,-0.2939279964,1.9048340006,0.871761394,0.3616856819,-0.5371180219,-1.5726028665,-1.4915878518,0.4532902615,-0.8920744584,-0.9199625187,0.6502125285,2.9351975311,-1.6408861282,0.8416631867,-0.3937986146,0.5881471042,-2.4931346445,1.1070871514,-0.755213855,2.0585283607,-0.6304732934,-0.7491681184,-2.1204689536,2.6626635418,-0.2069559337,0.3876152786,0.163911585,-1.0167186459,0.2006566348,0.1608656712,0.2594521697,1.1262633584,0.50811486,1.4325682074,0.2327489394,0.5577649411,0.2099861515,0.7105480921,0.6178684709,-3.2327879565,0.1842575542,0.3973306251,-0.6943611618,-7.2787621251,-0.6426466099,0.981545219,-0.0263397187,-0.8849491176,0.189255102,1.6362293973,-1.5407078679,0.0914419348,0.2743250875,-0.6887553968,0.0663397361,0.9483471096,0.3971804918,1.5326736892,0.5360822601,-0.63704755,-0.2483205338,-9.0370252945,-7.9171248626,2.565359266,0.5561998146,0.0828340898,1.8285016875,-0.991111441,-1.1728573168,0.6145115238,-0.1171739134,-0.1131457148,-2.9346088266,0.0577965981,7.7719030954,2.1497730151,-0.1165798724,-0.220030922,0.3203240947,-1.0773358507,0.1907151491,-1.4196319774,-4.0040103853,-0.4896319352,-1.6163864977,0.8087998458,3.0779609649,-0.0641092497,0.7948209684,-0.2052715604,2.8240721429,0.8193252126,0.3018538907,-1.3248211498,0.2829554682,0.1116981568,1.1033638074,-4.0601031425,-0.759824141,-1.3477093628,-1.001705261,-0.5649384014,-0.7978771861,0.837196838,4.9229937135,-0.7109779568,-1.699315853,3.6489246042,1.9513301787,1.5603115661,-0.2033548535,-0.0864355517,0.7863814549,-0.3664834157,1.0049890007,-1.014710354,-0.5596869454,-5.7934084311,-0.2576460412,-0.1736394819,-0.0732496473,-0.1909787008,-1.620799814,-0.8606616657,1.5678067122,-1.1805420628,-0.1068235548,0.1449885893,-2.7439136755,-1.3448341362,1.2980922301,-0.4245426916,-8.9886877868,0.5165004215,-0.4662406569,0.3211240132,-0.3975435064,-0.8589101248,0.1397316079,-3.0697570231,-2.6631850457,-0.3043948355,-0.7432843058,-0.2371231237,1.0394922729,-0.1508389018,-0.4351234158,-0.7898505555,7.2981469051,-1.1459494935,-0.8584599315,-0.6038070901,0.2888635835,1.8351928365,-0.5290058585,-0.8648295987,-0.4332227364,3.0601053742,4.0246430083,0.4610038215,-0.0648087466,-0.9609177498,-0.3758647628,-2.6221683146,0.9920131574,4.9296568662,1.4036169933,-1.9312613576,0.03561162,0.1429692257,-0.8490859403,-0.7415746771,0.3291678041,-0.4426835006,0.3674423701,-0.5407916411,0.5336968722,-2.6482096775,-0.37436959,-3.1756170627,-0.9098935558,-3.2723879769,0.8950708168,-2.6617596512,-0.4649374584,-1.1484368199,0.73761074,-2.567924713,-1.0154826486,0.1748969794,-0.9397382334,-0.3217505468,0.0541500547,2.7707121315,0.6230870457,0.297213785,0.9198008411,-2.6374048255,-3.1284764571,-0.5912081121,-0.6467775679,0.4984333694,1.6305945147,-0.6783449717,0.7962967476,-3.9445092009,-0.8909931132,0.7204008465,0.6206399795,-0.6465463642,1.0821770693,0.9024163452,0.6391285565,0.3837513396,-0.6899790896,0.5638860866,-0.7966999438,-0.137306925,-0.2501213253,0.264783771,1.1793281646,0.6893562075,-0.2252491525,-0.6649770778,-0.3767124785,-0.5878358957,3.3153466775,0.8075672662,1.0086487321,0.9565426576,2.0372549379,0.5325066412,-0.7862185962,-0.1544388128,0.6060706041,-0.287589131,1.0204281422,-0.0126410405,0.7991746545,0.4559547505,-1.3983995388,0.9755454339,0.3534903686,0.3938568228,0.3382435382,0.8396652735,3.4000005111,-0.9252614673,-0.2001511894,-1.4273212186,-0.1821655706,0.6594149646,1.9428569152,0.0906347022,0.1627277936,0.4037747761,-0.467224714,0.7044508985,-1.8566236954,0.6582362026,0.830236734,-0.6101061514,1.7420564019,0.9962105234,0.470148819,0.3902041558,-0.573162937,-1.758489143,-0.9869008909,0.0778113607,-0.2843366511,0.2521035883,-1.0708586024,-0.4248462731,-0.3267876982,-0.8242861692,-1.0321571444,0.781057979,1.2391659814,0.4861466272,-1.6365909405,0.3221762258,-0.1860599737,-0.6263117209,-0.3053465534,-0.8497206454,-0.8494162997,0.9047812075,-1.6735335517,-0.9806046026,0.2737206007,0.2147786975,0.5115609364,1.0260546244,0.0164218888,1.1492420985,0.1767384471,0.9413458965,-0.6355538358,-0.2080805596,-3.0370557145,0.2460165478,-0.2078893552,4.0515715906,0.6734217949,-0.9895571208,0.3127717802,0.6993051792,-1.0278398926,-0.7086426811,-6.9616768559,-0.8435941171,0.9021360287,1.4346122687,-0.0978357385,0.0844542419,-0.8959702044,0.1169213648,1.059759827,1.3218818486,0.9344167222,-0.308800738,-1.6506128778,-0.7602084326,-0.4647419511,-0.0859334908,-0.4043013138,0.7235805713,-0.6617827264,0.6169432846,0.3745233053,-1.0201503286,-0.8746583825,0.3238664157,2.506776655,-0.2529891067,-2.9040969011,0.6956636441,-2.0783820946,-0.841247583,1.047689402,-3.0671362281,-0.7768949639,7.6544371003,-0.7157288484,2.2414851155,-0.5035467242,-1.535606238,0.1418362542,0.5263982707,-0.1729889747,1.6475498716,-1.4662733162,1.2767672461,-0.0729543787,-0.048094766,0.6918305091,0.5511138263,0.1662604613,1.8970034424,-0.2643762176,-1.8799064802,-0.9265338101,-3.1915616658,0.193394224,1.1591058865,0.1155990193,0.7413140689,-1.6723540626,0.7666556243,2.0869347185,-2.0105824198,0.5133799293,1.4628130904,0.7330011613,-1.7779336237,-1.3027786333,-0.8162286139,0.1648425669,-0.0821142327,0.9442703711,0.6871268515,-0.0862176495,2.7338029151,-0.3174117256,-0.6581120852,1.2810522954,-2.3744578975,-0.117386385,0.6037638017,2.3014090054,-0.1210878682,2.3507694449,-0.462590885,-1.0802983257,-0.3904284256,0.3279875384,-0.8195602135,2.060914717,1.3449816563,-0.4470797208,1.7763953009,-4.321645236,1.418023731,0.9227723509,-1.4115562426,2.4456494701,-0.2074150683,6.1471476034,0.1088846975,0.5998047923,-4.0274292642,1.2570164013,-1.2017247288,-0.5713024776,0.2963501151,1.8081350808,-0.1410373917,-0.9335184634,1.4691133722,0.5298023449,-1.1155167547,1.4012047283,-1.4481744306,-0.0209172996,-0.7819131747,0.6653336755,1.0292257147,0.623044365,0.2733025964,-0.0755714727,0.209793296,-1.8582664505,0.1920090275,-5.8775550694,-0.2038731511,0.8990037917,-0.097935633,-1.0148963281,3.1333433841,-0.3608021108,0.6447095207,-0.0177902106,-0.4412476783,0.6856319256,-1.2766000774,0.3271901837,1.2650252962,1.074151349,-2.0640692699,0.7929717366,0.8230855821,1.2390576778,0.7573198276,-0.4197940355,-1.5468501202,-0.4670282337,1.9302964349,-0.3883700219,-4.1681533614,1.5277843013,-0.0288068389,-0.3946090098,-0.7226325181,1.0747177036,-0.2406076482,0.1711557173,1.195825531,1.1272609641,1.6887095112,-0.5790990136,2.4714992396,1.3690419001,0.7667730446,-0.4083444352,0.3224971132,0.5591023438,-2.4157479006,0.6120933588,-0.8383929206,-0.515932438,-0.938267978,1.4443626179,1.1556822466,-0.4493266782,-2.9111168238,-0.251980883,-1.649439011,2.4478801563,0.110817386,0.0500339885,-2.6038754577,-3.3342607487,0.7002139761,0.7937999168,-0.1499587858,1.3427795736,-0.6131372368,-0.3849996835,0.707310056,-1.6367442756,0.8482140486,-1.0788947973,-0.1484435054,-0.4135287595,-0.0011913282,0.3951487841,-0.3977765002,0.1082180638,1.8020119655,-1.510237972,0.3721653165,-0.1491180248,0.2997990446,1.1284184741,-0.0322665304,1.9319254355,1.1216208684,1.2760209335,-0.526476957,0.0935687511,-0.2319259624,0.1677629898,-0.1810220017,0.0881318896,-0.312099793,-0.7296196899,-0.3934091188,0.3356975709,-0.06415944,-0.1370732934,1.3173299297,-1.1322727057,0.4427227049,-1.7940087744,-1.0419816281,0.1313505835,-0.5671928973,-0.6441998964,-0.1629263257,0.1259089942,-2.6790541007,-0.5520300448,-0.1386236605,-0.2068282295,-0.5019009353,-1.2613316494,-2.957461133,0.9560387143,-0.8380180115,-2.8435915637,1.1747484417,-0.038994801,0.087689533,-1.4556987863,-0.3339035965,-0.7992954043,0.4346328283,-2.4788551989,0.512258449,0.7105650581,0.6336092987,0.4969932904,-2.1740560023,-0.5066938307,-0.4807089348,0.997526298,1.3736700156,1.1359700876,-5.155624869,0.5553223978,-0.8165675499,-1.4319750491,0.40609612,0.8491382638,5.5613692788,0.4374652506,1.3581876207,1.4088850189,0.0366418242,0.4220861572,-0.4854611359,0.0426753037,-2.8745049976,0.4498190355,-1.5537796988,-2.2120654883,-1.2011993674,-2.7423443296,3.752119996,-3.4960635998,-1.4191850562,-0.5559474427,0.1882501306,0.5189820016,-0.4946834713,-0.5320945567,-0.5393269605,-1.5110940364,0.3256101411,-0.5677991449,0.6056290715,-1.6168727971,-0.1193061152,0.9002152892,-0.0726283258,1.3007094747,1.6765245326,-0.76239234,0.2731114632,0.2492707918,0.7119135008,-0.6658957166,-1.5443541223,-0.5179085815,1.4071176139,-1.2076694646,0.9891611883,0.2374009794,1.1122197417,0.8539006032,-0.1773671002,-0.1105867338,-0.5211254745,-0.7402410501,0.1552089443,-0.8213953946,1.5819675663,0.3667015143,-0.1589221912,-0.1898672946,-0.1958915437,-1.2037503124,-0.1789222668,-0.0004875013,0.3925375262,-0.487057379,-1.6267894677,-0.9389796935,-3.0134871663,-1.0954333196,0.7868697822,0.0533597307,0.8485760625,-0.0081717183,2.3267776658,-1.2669497647,0.4476029656,-3.0795474216,-0.1482341374,-0.1489805717,0.857662311,-1.3512304669,-1.5799887855,-0.0270835299,-0.1788087313,1.1776021507,0.7330838348,0.8511225187,0.7908694045,0.7382018183,2.6204531304,1.3358899754,-0.2595215212,0.571844321,-0.881818453,-0.0770681409,-1.4599915265,0.4493329537,-1.2702455502,-0.9109161743,-0.9935950068,-4.8588429304,0.0316044428,0.0240128464,-0.5204681904,-0.0724383649,0.5658045499,-1.1998815444,0.0278478272,0.0357149048,1.2482709207,-1.3537761486,0.0334707627,-2.0865207018,0.6386129737,-0.2221717409,1.2408353202,-0.3340346699,-0.0141754403,-1.7890283989,0.197808326,3.1028001608,0.7143557094,-0.4202351699,-0.7989960352,-1.3870254383,1.3804730091,0.4906051521,-0.4283456334,-1.2421664535,-0.3159008919,1.4582693784,-0.1800432811,-1.5816881924,-2.504433088,0.4000320549,0.5687659296,1.6377581441,-0.6294532007,1.1303421455,3.0820856249,1.2913221753,-0.4392656316,0.9466094914,0.1228328642,0.1607108534,1.0621786735,1.4912751799,0.0384644172,0.8796031268,-2.4818220323,-1.4925597994,0.7244451527,0.6181063995,-0.5823973014,1.6602149376,-2.4076723617,0.8416635526,0.4884670542,-4.0285653817,0.4012360942,0.5028540593,-0.9421324169,0.1206673644,2.9009251328,1.2261857597,2.7745591965,-0.8749643161,0.5786511022,-0.2103610195,-0.2966761739,-0.5527407334,0.1870956296,0.2269351347,-0.4697119374,-1.9930465912,0.0087907919,0.4366432198,-0.9353354348,0.6309982136,-1.3616759157,1.0487265036,-0.5576312119,1.0631793846,0.0220329265,-0.032024707,-0.5502828804,-0.1528054877,0.9296108161,-0.6348273031,-0.8218378784,0.5453317846,1.709702629,-0.9387128073,-1.0797860859,0.5524227696,-0.8653873646,-0.3012405255,0.0379240213,-4.4632130028,-0.1315453851,-0.4437389594,0.7366124283,-0.9694023059,1.5707703677,-1.4101969318,0.1872179134,-1.2925622367,0.1542180083,0.8622256999,-1.2307072122,-0.3244091518,0.0579464975,1.7407032336,1.1785124463,0.9244439305,-0.1632337138,0.0722677621,1.153570074,1.437637504,-0.0904887068,-1.026342817,0.3652190768,-0.8228327196,0.9814834497,1.4141347755,1.1652584834,0.3541083841,-0.8234464876,0.3540575421,-0.0990814607,2.3286891318,-0.1664089346,-1.3997927913,0.0733110062,0.4601845873,0.3062831803,3.382891255,1.7105874844,-0.1632148294,0.269784054,-0.8256803057,0.5989736152,7.833633965,-0.0751796386,0.775351346,0.340045834,0.1237469377,4.317666757,-0.7449029403,-0.155748181,0.8121992161,0.0951757715,1.3819461293,1.3592309344,1.8677101326,1.5533616644,-2.3177876862,0.1895157171,4.4318554224,2.9232309744,0.2348931329,-3.7312887857,-12.3090821905
   -2.2716519838,-1.2730226624,-0.5935993559,1.2923786039,0.217007292,-1.5314814257,0.1928733612,-0.9581765677,0.1259443778,-0.2298895847,-1.3234579435,1.2193862302,-1.182139931,-0.734548875,-0.0563276592,-0.7541642361,0.6997026367,-0.6827370983,0.0854239976,1.4675775441,0.696272606,-0.1812605462,0.0083677827,3.7305370831,1.8387005436,-0.2923151342,-0.2633056244,-0.1735286838,-0.6908130309,0.2158480436,-0.4315945186,0.0436501271,-1.1864377427,0.8119025542,0.32552542,1.4094429424,0.7336187765,0.250812157,-0.9811407004,0.90731121,1.2277741763,1.0432939051,0.8795530493,0.1262439496,0.9273800908,-0.0496144185,-0.3978478652,0.5573479628,-1.7281589873,-0.6558965046,-0.3846385404,0.878769658,0.0713831969,0.615798425,-0.5305604384,2.0429117186,0.3677839046,1.5774981577,2.8099372642,-0.5846923878,0.5571200974,-1.0977862767,0.2119794535,0.0040093239,0.213043591,0.5334417711,-0.9112689376,0.2707733639,0.5344883041,0.3589588575,0.3511308365,0.1469517643,-0.0836964962,-1.2133492975,0.5245503284,0.4673168983,-0.5132954224,0.0132410678,-0.5923097254,-1.1025981573,-0.7406214687,0.9950873742,-0.6675622252,-0.7862213411,-0.734649325,0.4808346148,0.3829831649,0.884284538,1.0132412044,0.2559125031,0.3195659663,-0.2964350426,-0.6571028133,-0.4474280813,-0.1978034783,0.632483418,0.0126504604,-0.4432082978,-3.0090273162,0.7253256431,-0.5981623432,0.555967046,-2.3733313766,-0.9994025006,-1.0250954312,-1.6672296179,-1.0965086851,1.0444839847,-0.1926120169,-0.8380089673,1.8293005821,0.6999749032,-1.3002570446,-0.4358816726,-0.3220538749,0.9915118408,-0.8686051198,-1.0019018574,-0.0386834168,0.8499974094,-4.4050803248,-1.3663445655,-0.625421871,0.4096835695,-0.1202514509,-0.3294253699,0.9424075032,-0.1759001667,-0.2122634209,-0.2600252035,1.0179907706,-1.7820660752,2.0366105047,-0.8314356323,-0.0573334687,-0.1963956243,-0.4348773503,0.4088191384,-5.4391335652,0.0197381259,-0.2795158525,-0.1918824276,-2.151194484,0.69866811,0.1887660737,-2.4978469915,-3.9373713983,1.3145919594,-0.8752369083,0.0995861581,-0.1097511514,0.7271226858,0.1757189427,-0.4110765364,-0.3731066345,0.4213673173,0.3806915348,1.6755315507,-0.5893052674,0.6501447932,1.112428821,-0.0284709647,0.7032410544,-0.9165531969,0.8466104577,0.8357625111,-0.9005095677,-0.6596303881,-1.530695934,0.4522100854,0.0531703527,-0.6897010679,-2.6043113801,-0.1042836507,0.2623876368,0.0515060728,-0.9842309249,-0.2366250481,0.6003739696,-0.2538703802,0.0334500639,-0.772111631,-1.3901021702,-0.7686933727,-1.6649152311,0.4376735359,-0.6076394159,-0.7588037196,-1.4151678366,0.2613721017,1.6544006406,0.1385194059,-0.6700947633,0.2846180566,0.1439693281,0.8873501675,0.3317863337,0.1297138465,0.4533852972,0.5718568356,-0.7964979501,-1.0417305512,0.3554226461,-0.0512154044,-0.0929288798,0.8903888723,-0.3310504348,1.781502782,0.1598650154,-1.8704847704,0.2973546991,-1.1274565616,1.2443082841,0.7837854598,-1.1982265179,0.8674243164,0.6098431535,1.0887704821,-0.2059054945,2.6317425035,0.1372039911,1.2104639695,-0.6395377411,0.9911669789,-0.3147699466,1.2745907093,-0.2151588853,-0.9184595527,-0.2214178849,-0.8501042271,-0.3237873011,1.6715834366,2.0322057369,1.4234810666,-0.9463364223,0.1161995157,1.4088716186,0.3669383762,-0.8177681191,-1.7424810138,0.751685641,1.4899429414,-0.199842478,-0.7694451066,-0.9567450185,-1.0475039824,-0.1282296469,-0.0818409113,-1.06478963,2.6871589249,0.0732620544,0.6954945887,-0.0062888333,0.280440369,-0.3626713134,1.0370996647,-0.1303475007,-1.9817500714,-0.0926158608,-0.0499770741,1.1901320147,1.3507864216,-0.8848496474,0.5202496638,1.064795034,0.3090767703,-1.4496539552,-1.135352368,0.6232723489,1.8931351762,-0.5195797745,-0.2801229567,-0.6030743434,-1.358292866,1.2241041355,-0.0299421212,0.3909928022,4.9139508156,0.2313350657,-0.570765502,-0.1576246992,0.6403906067,-1.0519721938,-0.9250192975,0.2177099211,0.0568562871,-0.467287095,0.1411793959,1.360925856,1.6167679549,0.8354307837,0.7768164938,-0.6337843965,-1.1933172093,-0.8179282689,1.2217331763,1.3745126969,0.3175324824,2.1689407541,0.5646025613,2.8329423257,0.2817962917,-4.0548485065,-0.0155216599,1.0178060067,-0.3916068883,0.5156872408,0.895954674,0.3126126696,-0.4330223975,0.8919503091,-0.0668341985,0.9901848056,-0.6769553456,-0.4354668007,-1.2787148923,-0.2764350678,-1.1286595121,-0.6032035472,-0.2064418901,-4.1491691197,0.6669898129,3.888308359,1.0850563674,-0.6888042366,0.1479446785,1.3893223432,-1.2792246407,-3.2227683077,0.5931738693,0.6075702712,0.3762287765,0.3288773578,-0.2049258292,-0.5616129227,-0.8922641607,-1.0259909482,0.224208497,1.1072271275,-0.3884983133,-0.8818653602,-0.1330269864,0.1823571533,-0.6342152203,-0.9775969955,-0.4936258287,0.9384235685,2.8412910527,-0.9905992783,-0.5878956961,-0.9904336171,-2.6185249369,0.1161270762,-0.6712593904,-0.3848011598,-2.4070396617,-0.0118017624,-2.6601988539,-0.1721706655,0.42971881,4.235614654,0.1398401021,-0.0443836913,-0.2771331062,0.9710921288,-0.7462833333,1.7204983524,1.5623615882,0.3402667161,-2.4569992024,0.923773946,-2.7765557601,0.1960995522,-2.7887628902,-1.1351770245,1.7769920706,0.332029031,0.4448327174,0.7599966123,-0.5839771077,0.20766905,1.825058085,0.9406566116,1.9607270648,1.017830203,-0.4860361225,-0.016379043,-1.0969589108,-0.9614332133,0.1051343546,-1.4290386893,3.143285606,0.728566851,-0.6322206595,0.4791898158,0.5933161055,0.7133954013,-0.3066859834,-1.1561570847,-1.9435173939,1.1426022642,-0.8969990337,0.8220003313,-0.8239619813,2.5740175247,-0.6824615443,-0.3062102111,-0.609075798,-0.8825184111,-0.2331601389,-0.4886422789,-0.0990639814,-0.2802218572,-0.8569687293,1.9483731762,-2.0889843636,-1.2702339161,-1.1236262705,-0.2515061596,-0.9840621836,-1.3161202725,-2.1350944077,0.0396637103,1.0006082426,0.3332791498,-1.0571131138,0.8844366225,-0.8408044338,0.100471152,0.8128481207,-0.3658222728,-1.0993411167,-0.1723820645,0.5154038126,0.5479361578,-0.49652137,0.0113726688,-1.657577079,0.1710362433,-1.3545850752,-3.7918532383,-1.3160703073,-0.1780666116,0.5206216049,-1.2067291129,0.7533455329,-0.7764821907,-4.3858168623,-2.0667387851,-3.5151664938,-0.6166925159,0.1219457708,-1.1021979769,-1.7642507092,1.0268643772,0.8991814495,-0.0152063884,2.8947783879,-1.3087108753,-0.4730787153,0.8217077251,0.1320771669,-0.5812102526,1.1073598932,-0.8590389796,0.5999458869,0.172804987,-2.5045772995,-0.3500553813,-3.513775742,-1.2452848523,-0.3713010213,1.3204945048,-1.0084908554,1.3943026464,-2.1593665128,-0.0752657458,0.0683065899,0.399986451,2.6200560372,-0.2577873338,3.8131133176,0.3515201962,-2.8971489773,1.2741661551,1.398176707,-0.7699514841,1.0841553213,-1.7081967056,0.3240111183,-1.1434951068,-0.0173957402,-0.6958106631,0.5374325368,-3.8918976145,-1.0275847452,0.4131484812,-0.211560942,2.9139449161,-0.8323783724,-2.4253102503,0.7562974946,0.2434546415,-0.1843182806,0.4585089407,0.267667505,1.5277052765,0.8506594817,-0.7898402067,0.454304984,-0.1208846937,1.1023324147,-2.9216825143,-0.724352829,0.8184127422,-0.7907389258,-5.9860174189,0.3027532198,-0.4990444169,-0.4810921336,-4.3456782029,-0.1256123138,-2.9866390742,-2.4487467523,-1.6314721886,-0.0426870535,1.2133630235,-0.2794504517,-0.0580363371,-0.1521656719,-2.8174706014,-0.8601709397,1.372050256,-0.5974144668,-1.5574766506,-0.5978003768,-0.6754220952,1.8190950444,-0.3530347122,1.2638152904,-0.1578984672,1.7478867999,0.4569406736,-2.2454893496,0.5647714496,-0.2309277447,-0.1654430516,1.1147600149,0.5154911477,-0.0100057889,0.4177879677,-0.5337162314,-0.7170207541,-4.2101693212,-0.404630891,0.0272708169,1.5117113969,0.1835573769,0.419326287,0.0298765158,0.3991523499,2.3688051472,0.1205838581,-0.2207806498,-0.4137043514,-0.2198819046,-0.213909708,1.3917591037,-0.4598172098,-2.0951802122,-0.5832266101,0.5340117956,0.4465905099,-2.0272871911,0.7002348864,-0.3335085369,-0.3468638441,-0.7977472519,0.4741564138,-0.2292812632,0.9948849156,0.8717744532,-0.7917871569,1.5573166174,-0.2905049034,0.363202014,0.6498024989,0.2370487125,0.766214991,0.3758844511,-0.5855166114,-0.2812980661,-0.8610185307,-0.2241700967,0.8970980572,-1.805856619,-1.7265375028,-0.7169290634,-0.9252828423,0.4297756757,0.831819096,0.9630523936,-0.4496945099,1.0134452576,0.3540363483,1.20004981,-0.6566887023,-0.7493417299,-0.8044001104,0.093981965,-2.446346055,-1.115663082,-0.0262650211,0.1816193615,0.1556933614,-0.3916657037,-0.9990128473,-0.6225005696,-0.9693592054,1.0461761856,-1.3283602422,-0.5859170465,-0.0824699219,0.2027130428,-1.2652396744,0.0208184689,-0.1896510741,0.2718125661,-0.4962759267,0.3654305901,-0.1950018747,0.3480404277,-1.4384305349,0.3519099005,-0.5099394762,0.5988409399,0.0110580712,0.3536746049,-0.7467228246,1.2140719805,0.2005691551,-0.4040734042,-0.5527627285,-1.1845025232,-3.9545551889,4.4463649159,0.4693350399,0.6505592266,0.9075613199,-0.791418789,0.2728468901,-1.1040876244,0.9158560703,-2.2378877629,-5.1433364972,-0.7866244405,-0.7736224706,0.6281249156,-0.6585746952,-0.0338202001,1.3140282944,-0.5148584616,-2.2457693113,1.7126992885,0.7316722207,-1.4383818488,0.3350060621,-0.5786988851,0.3930466525,-2.8039642818,-0.9294581328,1.6888293591,0.4032469166,1.3572668005,0.5998357912,-4.5919612226,0.4082458947,-0.2351868064,-0.0718129672,1.35101616,-0.7777699305,0.6219233752,-1.6327122946,0.0326673975,0.7002248653,2.766208674,0.6747700754,0.767273922,0.5582507705,-0.9771135756,0.386836724,-0.7434045172,1.1383909564,-1.5684478537,2.2667916034,2.1983937231,-0.3871700214,-0.3751265644,1.468791628,0.9175176388,0.8199265545,-0.0190902394,-2.211671458,-0.0565417227,-0.1850591713,1.8231560139,1.117770522,-0.7992250945,-0.0914776599,1.4010363073,1.1165582659,-0.6456112378,1.0977815658,-0.2596634879,0.3994477697,0.5556469636,1.8223728978,0.121597152,1.6569246502,0.6818597576,0.3493990779,-1.6054003498,1.0468088171,-1.6769586983,0.6895935386,-0.0193932444,1.01316433,-0.1808503843,-0.7483097383,1.5220389629,-1.5494788405,-0.1577996024,0.0202758188,-0.5593343897,-0.2990634965,-1.0870558842,0.1595660633,0.3914315855,-0.4261702532,3.7444419654,0.8471353665,-2.3302944823,-1.2378644276,4.69079466,-2.3340346346,0.1836434909,-0.7247204214,-0.1174197592,1.4611794852,0.186548145,0.2081777027,1.2444820913,-6.4872188211,0.4980626952,-1.7955038786,-0.678370378,-0.2573687014,-1.1622970212,0.2879944408,0.2681477295,-0.7206161747,-0.3614068288,-1.0678383634,-3.2960105705,0.7023183036,4.2619575926,-0.7947922002,-0.2971985473,-1.0349463902,2.2009152654,-1.2801107554,1.4063237274,-1.3767393238,0.3061011937,-0.2461166321,5.3002481029,-1.0648036581,-0.5928766913,1.5768106711,-1.0007691334,4.0378573584,0.5349295951,-0.9273725403,2.8788366964,2.3533849316,1.8302908041,2.1255007598,1.8286283361,-0.2710641251,-1.4086501821,-2.6891031819,0.0224818732,-0.5424185189,-0.3715258143,-0.7352744344,0.4825508474,0.5583290173,-0.2696700327,0.2764428332,-0.3941652164,-0.2598309771,0.1663709053,-1.2411511368,2.073004965,1.0578654539,1.2117531327,0.4294450159,0.8592477291,1.4586731441,2.3465954996,-1.9340491499,2.169295908,-1.0905195636,1.4884715426,-0.243263595,-0.8945714633,-0.4160780882,1.5341483233,1.1725711537,0.9570643437,1.6594634877,1.576009902,0.6733200531,1.4886450213,-0.0381244629,0.7056514558,1.6578736896,-0.8226661478,-0.2254332366,1.4421520179,-2.0737355638,-1.29026643,-0.1012990971,-0.3982327386,-0.5063076376,3.0307790264,0.0130286359,-3.7600258722,-0.5628425575,-0.7450419409,-1.7695695314,0.5933599337,-1.5257084126,0.2700859823,1.1708984283,-1.5637487826,0.060673371,-1.2813084589,-0.1239852565,2.0364929999,-2.3012540444,-0.1623123179,-1.4200990632,0.2448107351,0.7211719383,-1.4765892303,-0.8006802554,-0.0439377993,-0.4182011092,0.2551669184,-0.4043888238,-0.4457144956,-0.8938967236,-3.2494051811,0.3279904994,-3.5333914065,0.6904968581,0.7305109349,-0.2282649204,-1.0002752143,0.4255434142,4.1913001965,-0.780814804,-2.1733500837,-0.0561905363,0.5228042436,-0.4890412513,-1.345222832,0.8804271964,-0.2038095259,-4.5912273264,2.7395462893,-2.3732312803,-1.1875090647,-0.513911464,-0.3815154186,-3.6316703798,-1.0820558167,-0.1115116599,-1.2488347969,-1.3722217735,3.8369803714,0.7573524106,0.8256188659,-3.7841678456,0.5723046437,0.6107177195,0.9951417374,8.231936947,-2.966484636,-0.7687787157,-0.2070421266,-1.0576518311,0.4742591205,0.1546262606,-1.8971282114,-1.537042101,-0.513322263,-0.3182600953,0.3853597441,-1.9544659679,-1.3793794118,1.4807560263,0.1107941774,3.0627227045,-1.1752586872,-0.348886293,0.1446222523,-0.4134029011,-0.573485053,0.7144085327,0.9640517782,2.3985738011,0.1876464994,-0.315648539,-0.4607538666,-3.3124525456,0.8693944822,0.7099457505,3.2007405812,-0.2602659811,0.9295134328,0.7975630989,0.903946523,-0.4403252942,-1.8348298908,-0.097084974,0.7442261649,4.5174528409,-2.1691874356,2.0386591666,-0.623404752,0.0115879945,-0.9919312107,-0.1039027106,0.5409579215,0.6628735584,-3.5634978026,4.76492791,-0.4242455997,-0.6778569505,-0.3318059129,-0.4794191678,0.0201019743,4.4062072654,2.7317749016,0.9767832632,-1.4654302381,0.6974320001,-1.3254090784,0.7183441052,4.9669942079,0.4108454524,0.4537917513,2.0583490318,0.3017832448,-0.5244209695,0.6323329215,-0.940860343,0.9253366798,-0.0463705365,4.5473119836,0.1819874679,-2.1051971205,-0.0810591357,-2.9569425695,-2.4935656349,0.9395661961,-3.3831342788,5.4024208573,-1.5049834585,0.3560088755,-0.4482118297,-0.0103449935,1.4503494745,-0.5991993978,5.5845854322,0.0168589632,1.0886029991,0.9389920567,0.3735223054,-0.7568379922,-3.133298077,-0.2147368724,0.4030749959,0.0729674669,0.2300795996,2.2215041876,-0.53965227,0.7842952825,0.0430941578,-1.1682093784,-0.2911269412,0.3459323379,0.704799266,0.0165839576,2.1166141809,-0.0884768576,-1.8355829947,-0.2533919552,0.1361064782,-1.0781323096,0.2935022837,1.0679506702,-0.5603083374,-0.4267233007,0.8457259218,-0.2479113736,0.7365669202,0.4228361683,-2.103102012,-0.052642378,1.669523415,0.7561961912,-2.5649420477,1.2792058395,-0.7827651568,2.1703325005,4.2122317019,-0.0283680698,0.9938224874,-0.8852312628,-0.0320007708,-0.5487687071,0.3785347146,-0.1107110367,0.4744140777,-0.6336808392,-1.0947176529,0.3342170894,0.5108878655,3.4227387882,1.1430224949,-2.575896983,1.1363614719,-3.0990788632,-1.2238983639,1.1146634453,0.3999636275,0.3062512566,-0.0591516677,-1.3786104614,0.3567253058,0.1635166031,0.330876035,2.0748833779,0.4378154787,1.5031444507,-0.1885535082,1.4601406614,0.7331812267,-0.3520863097,-0.032276603,0.5706603411,-0.8792688364,0.3020739278,-0.0751112101,0.1440950256,-0.0145940248,1.0497118704,0.4643670749,1.4909115714,0.6056058162,0.4917521947,0.0014980559,0.6581691486,0.05935805,1.3871347953,-1.4414296374,0.4558031922,0.3201724295,-0.2575817897,0.4207328005,-0.0650101583,-0.9692981624,3.25106834,0.5983793533,-0.1157604264,0.6911380851,0.5662999341,0.1716461583,0.101279397,-0.0165307585,-0.0572559739,0.7103514164,-2.8173074491,0.6614701748,0.6094056225,-0.392094397,0.0371248121,-2.5468187742,0.4845138846,0.8524122935,-0.8218654807,-1.4882037059,-0.3155787103,0.0437621661,-0.2345949035,-0.2212516635,-0.3972392709,0.0133210291,-0.1082039737,-1.340002134,-0.5270563664,0.1706150555,0.5047788152,0.4359097699,0.3279322895,0.0477152939,-0.9902179255,1.1576086965,0.4461506192,0.0859199562,2.084005259,-0.1528780952,-0.5962528389,0.1241280996,-0.2580703716,0.257708382,-0.795862536,0.0563962566,-2.3017959636,-0.3741020688,-1.9097496024,1.4469758619,1.4056353642,-1.3834066317,0.699028249,0.6638119902,1.5905574119,1.4674133041,-1.5611474244,1.1282556331,-1.4926107872,-0.7347998363,0.5570869623,-1.5504611375,-1.3427434725,-0.9456503334,-0.8812262764,0.0014960582,-0.3297654601,-0.315116537,-1.7721080234,-0.8682470315,0.8429728653,1.7867321746,-0.3731181136,1.3912009846,-0.0725951562,-0.6292714183,2.9895727716,-1.3773512356,0.1007677687,-0.3515344506,-2.9979441509,0.3907030495,0.0440883202,0.1389860822,1.5545195699,0.7019735003,-0.514731236,-1.3289679211,0.7011022351,-0.9510195471,-0.3329707595,1.4954173764,0.5620045305,0.1220563999,-0.1873442121,-4.4161874123,-0.0241794166,0.1805344874,0.6214404498,2.3906890109,0.0439840547,0.6611415002,-0.2477596477,0.6495145908,0.1051231126,1.9765252953,-0.7991596216,0.6922935886,-0.7738409164,0.4434154526,-1.1007560524,0.4556180859,0.4853403666,3.9825549869,-2.0272296659,0.0252586917,0.6285930269,-3.0704386085,0.8115674001,-0.071782497,-0.0842617369,-0.9407181881,0.7124965424,0.3874029261,-0.2011013792,1.7314793736,-0.2988120289,-0.090573631,-0.4395825491,-0.6999757429,-1.6668426808,0.6486729826,0.3941822049,2.5320806025,0.7562161996,-5.0436421578,-3.3755410041,1.064642556,1.9241643057,-0.0916031872,-0.8593654666,-0.130041303,-2.3739927637,-0.0540716951,-2.4603502857,0.9045265856,-2.5308358753,0.9418680794,-4.8589163591,-0.1700247067,-2.9415568281,-0.52485282,-0.440263135,-0.1747154835,0.0391417337,0.7465964407,-0.8885850031,-5.1292202032,0.8175780039,-1.2454477564,-0.5787762437,-0.7059448133,-1.7501489727,-0.5446395691,-0.4501955321,-0.9860628207,0.1919263209,-1.000948992,-0.1337498051,0.3734369111,-0.5512749256,1.2160670154,2.3762051642,-5.1076360306,0.5047773012,-1.2107460582,0.8082251392,0.93111543,0.323024409,-0.1678602149,-0.075167975,0.6068133021,-1.0143715363,-0.2696274811,-2.1148316365,-0.4733389661,-0.50927494,1.0999821768,1.0502479647,0.4513319957,0.0407106529,-1.096399156,-0.7757965712,0.7508372769,1.8488789327,0.7014905447,0.0410979257,-0.038712727,-1.7264916608,1.1750994611,-1.5324224186,1.5476386896,0.3487709434,0.3183118561,1.0250079789,0.1443769046,-0.0079858302,1.6727601503,-0.4336174108,-1.4221325849,-1.6831101917,0.2318811325,0.4297356861,-2.2518320556,-0.9515514604,0.7396585512,-0.3738244041,0.2122510079,-0.578895354,-0.0094923382,1.2012551371,0.7762383639,0.1657329183,-0.5962416092,-0.393309659,-0.3197101196,-0.5333575175,0.1242517043,0.034945607,-0.1210433113,-1.0598532595,0.1197326627,1.258069288,-0.9845043363,0.9021777736,-0.2008783704,1.9878981955,2.4388734764,1.1511802335,1.1151114178,1.3849988654,0.3200336638,7.0868790488,-0.402107608,-0.8536328716,-0.8204598572,0.2256426155,0.2729602874,0.222995984,0.072097737,1.359782738,-0.1764159109,-0.4685296027,-1.3957875736,0.1307119532,-1.0644780232,-0.0411171492,0.8459298245,0.8928128769,0.9356870739,-0.0685787911,0.1689939918,1.0237843458,-0.2212338582,-1.7752811458,1.3677219064,0.1938841961,1.6041965569,-0.0405315624,-1.2114208198,-1.29753245,1.0575821787,-1.9271332437,1.1158159267,1.4004579107,0.597315654,-1.4170544878,-0.1961761276,-1.6223607426,0.6305621534,-1.7767595845,-0.3233970185,-1.3452242147,0.7064265953,-1.5749933877,-2.1362864574,0.7788303762,-0.3881746807,-1.1680061312,-0.716042789,1.2421622349,-2.4258859937,-1.0789150889,-1.2901300932,-1.4591196343,-0.2130206078,-0.023669578,-1.1465508067,-0.7336231261,0.2059212953,0.3688721013,0.395198759,-1.0830536963,0.2799370433,-0.0337921267,-0.0892640304,-0.4153354984,0.3625926474,0.3570623452,-0.8877795547,1.3638182017,0.1486894983,1.5039710346,-0.9806743357,0.7322732215,-0.4034192673,1.3367454292,0.5481302602,-0.7509508403,3.7847889401,0.1791445659,-0.4794343929,1.1553385083,1.8578201433,0.926254547,-0.0799669455,-2.5934587171,-0.205373888,1.0030248139,0.6160716505,-0.3071486282,-2.0742556332,-2.229573294,0.0196139076,0.3716699053,0.9820526606,-0.5619281414,-0.3345483903,1.0647483298,0.3409824274,-2.4547433591,0.3934222777,0.5714723686,-0.0952888883,0.3394447716,-1.7281698931,1.0501750728,0.2968643093,1.8406734127,-0.9102982818,-0.8662692367,0.3268788242,-0.0050641077,-1.477414904,-1.1514466131,-0.0049593309,0.3804559095,-0.1599351978,1.1184081718,3.6902656409,0.0178820323,-0.2357228745,0.8013858895,-0.7403313683,-0.2049033675,0.2628087269,-0.4926136261,-0.2012998058,0.7160234827,-1.7442605219,0.29957234,0.1864591475,0.8417959204,0.5993056812,-1.584889702,-0.0577987909,0.3488264407,-0.4704577572,0.3282181193,0.2467777433,0.550142819,0.2462089871,0.3059958805,-4.4606399724,0.0215392336,-2.4025540092,0.4547133659,1.0073130583,0.0946422993,-1.0522370646,0.4088639874,0.1363824802,-2.7621306742,-0.5553717796,1.5315564705,-0.5204626776,0.1946251773,0.1717243553,-0.1976926336,0.4124238193,0.1200824097,0.0758074908,0.6354422821,0.7527826394,-0.1067397088,-0.6051692472,-0.0296228839,-1.7511457316,-2.1742147467,-1.7301397143,-1.4492352664,0.048360304,-0.5914059683,0.2556444024,-0.8438564187,2.9822964537,-0.370607829,-0.1514021516,1.3466027024,-0.0668730626,-1.0526040575,-1.011155945,-1.3003443817,-1.6111807342,-1.5143787625,1.1570886877,-0.0888782616,-0.4345923301,0.5406093329,0.0166640737,-0.2400070651,0.0420289451,-1.8326029997,-0.7839343752,0.3551677688,0.630316276,2.3325605957,2.1534359767,-1.01543245,-1.6669094131,-0.179941121,-0.2732480317,-0.5569983054,2.6815493871,-0.9439411007,1.5789208689,-0.7307849701,-2.2603059181,2.5683070438,-1.1415079712,0.8718647797,-0.6746531612,-1.1526808977,0.8816684857,0.0598692948,1.2724610709,1.4650209128,1.001903361,0.5303011306,1.1460547742,0.0845062524,1.4889089053,-1.6534478884,-0.3588647283,-0.5900196078,-1.4257078745,-0.4441995206,-1.8636104793,0.614653002,1.7051180354,0.2479631172,1.169562148,0.5850605961,1.2965949784,0.8048138415,2.2617644451,-1.2023104959,-1.8603713404,0.3583620294,-0.4562612535,-0.4805392659,-1.195307628,0.3025821234,-0.2915884481,-0.4985742822,0.6588920144,0.7532937274,2.6364949892,-0.0156003525,-1.6094140869,-0.6416714721,0.8303599689,2.3757373648,0.7875380376,-0.02126793,0.7917289169,-0.3103789444,0.5042926836,0.6144957896,2.671258026,-1.0491762522,1.1519962349,-0.7642762205,-0.8200965355,0.4853360763,4.3345403778,0.4748194905,-0.236622129,-0.7503643426,-3.9909079059,0.6599561905,-4.0378205277,-0.9734026798,-1.758621204,-0.4582205906,-0.9121455683,0.676219097,5.6903365642,0.6062663098,-0.5336826256,-0.1445000071,-0.9142123891,0.908993692,-2.2734123308,-0.763574475,3.861683147,-0.5105190963,-2.1143344234,2.4925743176,-1.7686781232,-3.4488333316,1.8381373255,7.0048629676,0.6698689659,1.1369978101,0.1405297558,1.491529536,-0.3683937243,0.2795031682,1.9704587982,-0.6035443564,0.4812454501,-0.9740635946,1.6976054627,-0.3202160492,0.051019401,-0.6399037946,-0.3547406856,-0.4388297597,3.1465057815,0.033875795,0.7270810544,0.716943635,1.1334980233,-0.4238864438,0.1024369818,1.0855007832,0.8989234294,-0.3609409891,1.5987683017,-0.5333342071,1.413987313,0.2600939451,-0.8922568402,0.0857787218,1.8602781315,0.4520527591,1.4755452731,-0.3700528907,0.7111090157,0.4726756046,1.1672167046,-0.8682290528,0.9433717873,0.1890715659,-0.9974990077,1.3343214071,0.3840839801,-0.2775967021,1.2903913292,-0.904167844,0.093568625,-1.5139970635,1.132040671,0.6573035598,-4.0568452458,0.2244825577,-1.0801333843,1.5709613485,-1.3403632108,1.8759520572,-0.2842884068,0.7295794893,1.4981080982,0.6497251295,0.257554161,-0.160846931,-0.9795645206,1.2301992479,0.5244201501,-1.1946126462,0.7661619264,0.2728833006,-3.2250072304,-0.3069128411,0.1670657552,-0.1798267865,-0.4584032329,-0.9205563645,0.0154340053,-0.2678712965,-0.4315795932,-0.5889291636,-1.0893453131,-3.0167976794,-0.8996910449,0.244147967,-0.9623981653,0.0936199081,-0.3886137968,-1.0379549598,-5.0777599638,0.4480178351,-1.8951135317,-0.6242167708,0.6635062802,-1.5642917452,1.1802318475,-2.470101568,0.0896181943,0.1037699664,1.0236795438,-0.5725753325,-1.2233006867,1.2747453289,0.3485180739,-0.2201760958,-2.3488504473,-2.2992324647,-0.7599389239,1.8440054986,-1.1416031481,0.8786841886,-0.6436434961,2.0398420494,-0.4156990156,0.1757605142,-5.2200518877,1.2627988179,-0.193216296,-0.1024421985,-0.8512768191,3.5673648113,-0.7744496294,0.2773240935,-1.2390615018,2.7346554142,-1.0981016931,1.7339430911,0.0941017661,-0.4655430364,0.6886150978,5.9341401583,-1.3654949362,-3.9919063137,-0.1410790111,0.3040111706,0.1476182969,3.6742907085,-0.277057584,-3.8095968151,-1.2767528691,-2.4056529267,1.1094492921,-0.7301963336,2.7145169131,-0.1088787971,0.116700678,4.6035222917,-0.2992429567,0.691475397,-0.1712700735,-0.3657062798,0.4731650265,0.6404296906,0.0053395266,0.0249357425,0.5034714025,0.4907444753,-0.1543369533,-1.2073443307,0.3764508185,0.8220932267,0.0626718138,1.1195458269,-0.8156072086,-0.3151745096,0.4636416662,-1.2141001792,0.2786558139,-0.307748025,1.9970373158,2.6424921066,-0.4591065327,-0.2807967845,0.1610908779,-0.430175668,0.0327320867,-0.5960763929,-0.0046179129,-0.679550339,-0.5363567924,-0.0740142431,0.9256759605,-0.6968808664,-0.5095786712,-0.3574924508,1.7068467501,0.06596575,2.1441149895,0.4843812022,1.8562826148,0.4086352579,-0.6022833349,2.7837543999,0.4165565311,-0.5564660266,1.0835791425,1.4454348397,0.5440470381,-0.2142225574,-0.0021994574,0.3458002061,0.5091151844,1.4396661361,0.5234537189,1.8780032738,-1.0529391723,-0.2662991045,-0.8197153861,0.1699228674,-1.0687282106,-4.2893626426,-0.1062724267,0.1982359861,4.8474426692,0.3541928309,0.8908587328,-0.4063603293,0.3105695518,1.389728698,0.7269222337,0.2850233967,0.7509189315,-0.362100624,-0.0000928078,-1.681466399,-0.0743237287,0.4329842733,-0.6219992932,1.6659182892,0.0339820928,-0.5862669858,0.3369956879,0.2082926987,0.536577586,1.3556972268,1.3240777037,-0.1153973181,0.2114971396,1.7147650428,-0.5362843374,-1.1759903007,-0.4260984807,-0.0380288247,-0.1349431117,-4.5712607904,-0.2018332153,0.7273946689,0.7987142313,0.6092957005,-1.3756018162,-0.9609446462,-0.3604273096,0.5326830765,0.5882559495,-0.4882581419,-1.3310909852,0.2971809411,-0.2223931955,-1.4691760928,-0.3043919151,-1.4435153384,0.8417751884,-0.081694738,-1.89393706,1.6649052153,0.0633643327,1.6808710767,0.37788751,1.3906211257,1.5292652867,2.2168410789,-1.4525145466,0.8778742007,-0.9872306436,0.6674925007,-1.2427257892,-1.8279897885,-1.1199168725,-0.3748286445,4.068043119,0.5480339931,0.5388099713,2.406420792,-1.4833115459,0.7722493535,1.0821986302,1.1220768959,0.2486196725,-0.7649733703,-0.5206251621,0.07638311,-1.5604183189,-0.4321938692,-0.3951057523,-0.5851856335,-1.12555455,-0.143625646,-1.1768896,1.1632121614,1.4091431396,-0.038716168,-0.8387288095,1.530273809,0.1900946301,1.3817923661,-0.6901033708,1.0642410085,0.3822642162,-0.9862644102,1.2201638103,0.1002569668,-0.1471231987,2.0258486452,-1.4564890726,-1.0725572945,0.0443093229,-0.1936233087,0.5750618013,-1.0430568956,-1.4839358038,-0.282736941,-0.1863034554,-0.6623520575,-1.4475621682,0.1037759549,1.5789418992,1.003523663,-1.1421409695,-0.8165516089,-1.084715245,-0.2256624261,-1.6813153047,-0.4874216325,0.2156878427,-0.1544953536,-0.9681064004,0.5728244374,1.618948286,-0.010171787,-0.6116787499,0.2747197076,-0.2653934297,-0.0962666162,-0.3989453274,0.9319438613,1.1679395064,-1.0526309805,-3.1860570056,-0.4789144232,0.0025308002,0.640146078,1.1459285919,-0.5028961345,0.5195566835,0.3121643377,0.2665706802,0.6483677062,-0.1108672826,-0.8374198358,0.7602387405,4.1959464425,-0.5294021106,0.4368099276,-0.2134284008,-0.7014646395,-2.2098373816,0.1289291258,-1.2468077571,0.6243841409,0.6501120789,-0.6713402706,0.8409091953,-0.9778987147,-0.681048869,0.9304516263,-0.185141816,0.4902220523,-0.2201705789,-0.4668738998,1.5451420437,0.6157110189,-1.5652434332,0.3698277177,0.3888199993,0.186037154,0.3166576919,-0.8086354636,1.471128815,-0.3369214664,-0.1416947197,-0.632886866,-0.8047236248,0.3585922028,-0.2493388846,1.2855546708,0.2618365545,-0.6741064513,-0.2050182639,-3.0321487501,2.199072968,0.1500040219,0.1123646062,0.4566159205,0.3838633554,1.4697491079,0.2378174498,-2.2420121138,-0.6892786336,-2.570295426,-1.4998541423,0.4465301868,0.3247481035,-0.4053355177,0.650820562,0.429938939,3.3266525379,-0.0447538151,0.4497588679,0.2473646971,-0.2204231648,-2.9952435037,-0.223140496,0.0245752937,-0.5542559879,-1.003516587,-0.1872093679,4.4601782926,-0.1465065921,-0.3638198009,-0.1552009785,-0.7487022669
