encog,BasicNetwork,java,3.4.0,1,1561667583166
[BASIC]
[BASIC:PARAMS]
[BASIC:NETWORK]
beginTraining=0
connectionLimit=0
contextTargetOffset=0,0,0,0,0
contextTargetSize=0,0,0,0,0
endTraining=4
hasContext=f
inputCount=21
layerCounts=4,49,67,49,22
layerFeedCounts=3,48,66,48,21
layerContextCount=0,0,0,0,0
layerIndex=0,4,53,120,169
output=0,0,0,1,0,0,0,0,0,0,0,0,0,0,0,0,0,0,0,0,0,0,0,0,0,0,0,0,0,0,0,0,0,0,0,0,0,0,0,0,0,0,0,0,0,0,0,0,0,0,0,0,1,0,0,0,0,0,0,0,0,0,0,0,0,0,0,0,0,0,0,0,0,0,0,0,0,0,0,0,0,0,0,0,0,0,0,0,0,0,0,0,0,0,0,0,0,0,0,0,0,0,0,0,0,0,0,0,0,0,0,0,0,0,0,0,0,0,0,1,0,0,0,0,0,0,0,0,0,0,0,0,0,0,0,0,0,0,0,0,0,0,0,0,0,0,0,0,0,0,0,0,0,0,0,0,0,0,0,0,0,0,0,0,0,0,0,0,1,0,0,0,0,0,0,0,0,0,0,0,0,0,0,0,0,0,0,0,0,0,1
outputCount=3
weightIndex=0,147,3363,6597,7653
weights=##0
##double#7653
   -1.0258108736,-0.1874090703,-0.8559522466,0.4080781794,0.4351471664,-0.0849290738,0.0006019165,0.5836455597,0.6949022466,-0.9616904679,0.9555551452,-0.5282066214,-0.4075140647,-0.3872890965,0.495369014,0.0170056432,-0.779549687,-0.0992049145,0.3365820987,-0.2819839108,-0.0387349731,0.5803387258,0.1326397787,-0.3581683788,0.7715184042,-0.3514722116,0.1164191844,-0.8502581059,0.0200324411,-0.6297039792,0.6245609461,-0.5709833599,0.5918359178,1.4456299079,-0.0238899043,-1.1040644281,-0.9588500731,0.3091039962,-0.5589602827,-0.5386445789,0.7646740458,0.4567865364,0.4645677968,-0.1779818094,1.1200687722,-0.9683900348,-0.573274372,0.5140251643,0.1955166957,0.8360478374,-0.4316210056,0.5923593717,0.308818938,0.0886053869,0.9903996318,-1.1566693736,-0.1671058979,0.2109495479,-0.0545380933,-0.2411782582,0.2510620149,-0.1505533774,-0.174441475,-0.0437166961,0.7494613702,0.6289716491,0.1309253443,-0.179072185,0.285057847,0.7242501129,0.3283673594,-0.1165756953,0.2049452125,0.180785005,0.1987983342,-0.5377659947,0.1045423274,0.4389720658,0.0828448095,-0.9952836575,1.2004144823,0.1461338766,-0.2854432596,-0.054236345,0.0995224139,0.4745255359,-0.1786778438,0.5641296752,0.3474846859,0.7692595456,0.9200968983,-0.7025192047,-0.5765308227,0.3712585706,0.4481701989,0.3211422361,-0.2154698145,-0.715521135,-0.1208561863,0.0018019419,0.299857412,-0.0408294209,-0.010122475,-0.0179718092,-0.080666092,0.0322963819,0.3520692426,-0.1535805935,-0.1021172706,0.0092215823,0.021917258,-0.3426206989,-0.1235091371,0.0259032491,0.0042330609,0.5352921741,-0.4550377014,-0.3837443719,0.7054352803,0.2935293116,-0.7133243911,-1.4024704551,-0.2654581321,0.1034102299,0.0105755494,0.3190125105,0.8521548841,-0.0274889662,-0.5417706609,-0.0136509476,-0.0008709471,0.0507329957,0.1414966842,0.0337784663,-0.0700259405,-0.4663750264,0.198626176,0.005142984,0.2515620018,0.0679474741,0.0848921811,-0.6987717873,0.0242897907,0.1500474359,-0.0442590522,-0.0021943153,0.5487726278,1.7638254935,1.916031104,-0.7672538961,-0.6078359379,-1.4306856514,-0.450788183,-0.055366932,-1.1681002974,0.8262429617,0.9063810819,0.005716553,1.817649378,-0.5860592142,-5.4593945848,2.0453478687,3.6112461507,-0.2923769148,-2.7138391334,-0.1610246661,0.8296436111,0.3850926484,3.0769640714,-0.1815191712,1.5538201264,0.8139848343,1.2199116673,-0.0520553367,0.300034947,-3.1150874357,0.2522010381,0.3132392166,-0.3355666001,1.3627286112,0.0307414354,4.2271852959,-1.3536587394,-1.4747069453,-1.6053329919,0.949948407,-3.0032994633,-0.9798750533,0.9140824268,1.3162789575,-0.4111797625,0.0546640099,-0.6386136444,0.9888800478,1.93157932,0.3495000558,-0.2025022674,0.7415558606,0.3788637335,-2.2921241487,-1.87605894,0.5181365259,0.6060308133,1.400576981,0.2437931167,0.0584718174,-1.2446693951,-0.4263637593,1.2110965443,1.4869823021,1.0246689539,-1.6661637628,0.9171616169,-0.519105258,0.9992313541,1.059790139,3.0862409618,1.5187412698,3.219485599,-0.7224816461,1.3882957687,2.9570462821,0.3078321267,2.7229599036,-0.8717430334,-0.2911811815,-0.4424023876,-0.8250318205,-0.4770892344,1.0080219765,0.4333586024,-0.2014930747,0.5988114839,2.6920491549,-0.6645640453,-1.361795313,1.8574723177,1.0317242084,1.6585213317,-2.1282827281,1.4951206829,3.0246393816,0.2147731279,2.5822968075,1.6016013386,-0.6139830731,-1.137300688,-0.7386017676,0.0458533833,1.2591449198,0.2806994702,-0.5936298195,0.848963984,-5.9602431338,-0.8165912927,-0.0617510584,-1.6073475267,0.4796226482,0.9302315151,0.0105920151,-0.7413086162,0.4623056766,0.42368275,-0.400966681,-0.0799191865,0.5733430383,-1.8442133084,-1.1291884885,-0.56522975,-2.913631183,-1.9862969882,-1.7250610897,0.9903651557,-0.070342077,-0.244625756,0.3881706177,0.9140145121,-0.0276666031,0.017275655,0.4118961269,0.3490649323,1.1387468819,-0.3459218621,-0.0771086638,0.2688864952,-2.248356887,-0.235137963,0.1118185683,3.4190397519,-0.2280823697,2.281096355,-1.3937120013,-1.1157290172,-5.0941234235,0.1901067887,0.7453782367,-0.7652816857,0.3516427556,1.1401878168,0.6291835772,-3.9298188193,-1.4800271378,-0.9617116723,0.7618482629,0.396726214,-1.5513426648,2.0720308056,-0.7957168669,0.6441689641,0.0620023162,-0.6454195415,-1.353828803,0.1183963837,0.421361921,0.9211094063,-3.8315506762,2.3675313118,-0.4450616873,1.7593848394,-0.112780633,-1.0991218895,-0.6400317684,0.153536406,0.2311757648,1.4596841554,0.6796304884,-1.9169090976,0.1368794319,1.0101925704,0.9150096315,1.8221331173,-0.7276990812,-6.9998011729,-3.7985400332,0.2533091531,1.0886507637,-2.3150129955,4.3046630691,-0.9660650287,5.614229489,-1.3624250657,-0.9323592226,3.0705775913,-1.1408349771,-4.4361990202,2.7994433531,1.754482856,0.1367968369,-2.1967129752,0.6500453806,-0.603230207,-1.3638408716,1.8398956439,-0.5479243432,4.1362526638,0.1028801227,1.7108705792,-0.8889125871,-1.3026167979,1.4073118737,-1.5067047695,1.8759767499,-0.2254477618,-0.2228280484,-0.078488348,-1.994598062,-0.6446218309,2.9548474125,0.0780152108,1.1673349701,-0.6765362065,-1.0530219828,-0.5028372534,-1.0357599777,-0.97296302,0.7377876996,1.5188796465,1.1261984757,0.8166240695,-0.1182840986,1.0245437845,-3.8380633665,0.7036475928,-1.3963264007,0.8104268155,3.6320123468,-0.9111687232,-2.9789534139,0.6022994304,-0.6553894331,0.3335660258,-0.1491265469,1.0690478201,-0.191392584,-0.8506483497,-0.9886509033,0.8051360953,1.058758157,0.8830148759,0.959950421,-2.6033867592,-0.1807690298,1.4064771321,-2.8331706523,-1.3813727176,-0.161224292,1.5500247981,-0.1039216898,-0.12777075,-3.0189884388,1.5632564718,-0.0801954446,0.5745706313,-0.8790534502,-0.3575507844,-1.1334038884,-1.8251196081,-2.9694222958,-1.2308987664,-1.509273683,1.0367158176,1.2317375825,1.0180006751,1.7348609086,0.5084237293,0.50001542,0.8779661578,0.2748770455,2.2945070754,1.3661403991,0.5964926246,-3.3498063073,3.007041738,-0.1491320256,-1.3735344775,-0.6402251603,4.0510546435,-0.31483136,2.2106402836,3.7476535295,-0.0514918887,1.0682258103,0.7570725324,-2.7621128301,2.0897445387,-0.307908317,-0.4332186773,1.1532790345,-2.4281522693,-0.3508614641,-2.3828101943,-0.0999550638,0.492151309,-1.0614677418,1.7627406978,-1.7212613779,-1.4084489664,-0.4889956847,-0.2527220259,0.8810088402,1.9444004664,2.653706217,2.2943429571,0.351320594,5.3996981369,-1.8737928354,6.8100131586,2.0506106791,-1.1495307265,0.6835440846,2.1618935607,-0.6112864651,15.7135603028,4.9110760367,1.7007000055,0.6392200209,1.7830219644,6.9975645993,0.7995909975,0.8170937686,7.4664561584,1.204305323,-0.8347406238,-1.4007214512,-1.4732076891,-0.1201840557,0.4056758117,-0.0178274369,-1.0259151486,-0.8493446196,-0.6848747874,-0.4120205715,-3.3752577027,2.5769873354,-0.3745795518,3.2903124382,-0.8464744929,-1.5492596464,1.1725984962,1.4186350281,0.7205864621,-0.1616570889,1.1373608786,-1.0730940716,-2.5193371853,1.0880529277,0.3086845009,-1.4194923839,3.930834683,1.180493411,0.2447548547,0.278296962,-0.3438499255,0.459427436,0.7552733589,-0.92429661,0.7028199463,0.6100247153,-1.3807176271,-4.4399823703,0.6752518319,0.9863742402,0.2479054315,0.7252101493,1.3464492742,-0.1392170051,-0.5544657817,-0.8033126413,0.2689183824,-0.8306119531,0.4459927585,2.5055149551,-0.6868167301,-2.1223023092,-1.1741040223,0.592314603,-0.1609599901,-1.0853410194,-0.944015789,0.4529996236,0.5234733757,-2.5323408372,-0.4205046045,-1.5101575337,0.5354944512,0.6794773562,-1.5754609532,-2.2020229533,-1.2020748304,-0.1744065997,-0.4014076091,0.0161827797,-0.4442473289,-0.6374679432,0.9461397971,0.7221379227,-0.1356970153,-0.8120724401,-0.2228368664,0.5171713245,0.9287201988,0.3553775329,-1.326059411,-0.7716146133,0.4067961251,-0.228590041,-1.1663831641,0.9566105335,-0.0630451641,-0.1342016851,1.8202317858,0.2575666403,-1.257063784,0.0458880048,-0.650240853,0.2304417557,0.3437364192,1.0052625399,0.8306421897,-0.2803451776,-1.0442783579,1.5772585462,-0.51331454,-0.8253446447,-0.0561433601,1.3553454268,-0.5240292997,-0.2095343437,-0.262159989,-0.3954517797,0.4260901077,1.8935773444,-0.0861145022,-0.8854961895,0.076881219,0.8964315866,-0.1615897873,1.0044771665,-0.339674313,0.8464918238,0.5805866159,-1.2826340121,-0.3643348131,0.6137163047,-0.2276526571,-0.1890581185,0.3488980985,-1.3377526792,0.8329635893,0.731152561,1.3915405631,0.2887252433,0.5354277647,-0.7905631166,-1.5974146609,0.1740882979,0.7928543642,2.6783635061,-0.7897104298,0.9752615749,-0.2189558616,0.0721439699,-0.6319513845,-0.15072973,0.7148504468,-0.2846961798,-0.7211707322,2.1195406365,-0.9565156819,1.2719990376,0.6326206557,-1.4022496544,0.6799752397,0.1272217982,0.6277978574,0.8815750422,4.0694076165,1.596003734,-0.0327978631,-3.8169823029,1.7311998495,1.9373000207,-1.4246779176,3.6492253137,-0.987632003,0.1170465938,0.0276833701,0.0795846557,0.27580691,0.6199400592,-1.439218137,-5.0036640147,0.7965974212,6.1422563864,1.2386041669,-2.0066642159,0.3389600991,0.9622525674,-0.9824927657,0.8353068662,-1.4350550789,-1.4589006733,0.2911534858,-0.0877208018,0.7374964548,4.4770609336,-0.4458635219,-0.9026351464,-2.7373567855,-0.4394573721,0.3562788382,1.2148792596,3.3485884031,0.9370670832,-1.1331830779,-0.5859396141,-0.1735799778,0.3884338534,0.3749856946,-3.3508650871,0.7221634103,-1.0073533314,0.4320216388,-3.0522243108,-0.5213360064,12.3872010503,-1.9374850606,1.6516908565,-1.2025719718,-0.4755798956,3.84904857,0.5874421351,0.1982404936,-0.4567520563,0.6055945882,4.0085331574,-0.3534252471,-2.3336012319,-0.745256363,-0.4438437397,-6.1688073662,0.968165352,-0.0151837082,-0.4841928244,-5.0010527468,-0.0749309948,-0.766086086,1.2962588447,-4.239960478,-2.4245929658,-4.4378056217,5.6549562605,0.9278099711,1.3397079916,-0.9426082442,-2.4950115033,-0.1224400782,1.5563290431,-2.7976764913,1.8821309783,0.785619404,-2.47331072,3.0490434683,-0.5573940383,0.8146039356,0.3590560539,-1.4819860362,0.6430135623,0.3173302099,-0.0674277403,-0.5281538902,-2.2097748707,3.1308032797,5.4047896176,-0.2403217057,-0.8501448548,0.5604663145,-0.1844886722,-1.5894149562,2.2098361579,1.2531152614,-1.392793026,0.6556090774,0.2324985211,-0.2835380308,-1.7474999529,7.3821492669,-0.3234816171,0.0508062793,0.7340994617,-1.068659787,0.1842298826,-0.6731369288,-0.1304797814,-0.9160010755,-0.6939237423,-1.3615749248,0.7393300104,0.6750013977,0.8036659941,0.3298665916,-1.5546850567,0.3749012312,0.5118666352,-0.9975229912,-0.5386291211,0.1748253464,-1.1136800207,0.7255597165,-1.3311505452,-0.7050090721,-0.736372287,3.1623948225,0.7568933107,1.0094468696,-0.840737451,-0.3611653759,0.168487093,-0.9439603161,0.651604369,-0.3025506462,0.6458471488,0.8333373152,-0.6765241911,-0.2522798177,-0.5736348365,0.6620967977,-0.1615011235,0.4546237595,-0.3993503872,-0.3110993503,-0.0583051672,-1.5437400856,0.2400619579,1.7709823827,0.1431548992,-0.0693364657,-0.0990753651,0.439037847,1.9553230525,-0.0759117361,-0.0799813929,-0.2578959831,-0.6781711793,0.9131396237,-0.387140166,0.4625330816,0.1864912471,0.2105177971,-1.5078023819,0.0589105483,0.5870531508,-0.4356710093,0.0168757459,0.6696269934,1.1335951009,-0.3565735546,0.3280463218,0.8605976243,-0.598630053,-2.3951292433,-1.8798356159,0.7878636297,0.7393580622,-1.6950753876,-0.1577695147,-0.2679997019,-1.5310344352,0.321987575,-1.2704012263,0.0716395408,0.0505866029,-0.58298775,1.7039903685,0.8069463581,0.2539482375,-0.0191116893,1.5337530164,1.5816569525,1.406643104,-0.837537131,0.1557001793,2.7553967195,1.2331893152,0.0253271307,1.4203911214,-0.7500244911,0.4053194396,0.9104314467,-1.0316308065,1.015348534,-0.2785898247,1.0607525203,-0.5936794263,-1.9719511103,2.9287979925,-0.4042317469,0.3345251939,0.440907241,0.1661917184,-0.5615302748,-1.5268697128,-1.304119808,1.5925401527,1.6670007152,-1.8496956712,3.0069563081,0.7150093649,-0.6841759951,0.0376872451,-0.1526391274,-0.6349532205,0.5813573795,0.7772419029,-0.4441554481,-0.7591068491,0.9007128743,0.3367219452,0.0195322351,-0.8625776946,-1.6195639045,1.1559198544,-1.298939984,-1.2691833197,-0.1355946882,-2.0563292861,2.359388063,-1.2203051662,0.9844065857,-0.7660429071,-3.91029435,2.0537891201,4.1673164145,-0.9241766187,-0.409734669,1.9826471045,-0.3314051907,1.2261675335,-2.5344443601,0.8500382433,0.6249452662,1.9632011214,-0.6445085681,-0.433368593,-0.6640365475,1.6080739999,-0.3956309581,-0.0159789796,0.1553813311,-2.3264283487,2.2005118717,0.9712732618,-0.6600638456,-1.9775606136,-1.0431612048,1.0998579771,0.7812351822,-5.1626242297,1.3511045822,2.6273718973,-0.2204754475,1.6686789331,-0.5294946544,4.0649770353,0.0894567935,-1.4961764496,-0.3616376583,-0.6100458785,0.0591479314,-0.5282515521,0.7726382021,0.0438905696,-0.8831413967,9.0589489687,-0.5700862472,2.7849371928,-3.4515773524,-0.0968205754,-0.0688485493,-3.8848097218,1.3817254062,-1.957449847,2.7500793347,0.6017030179,-0.5996699609,0.3980771947,3.6031329135,-0.0477039781,-0.3447951919,-0.2830895033,-0.0984384039,-1.316723707,-0.5866983626,-0.1992322969,0.2509939021,-0.7736164893,-2.7428000087,-1.0191087765,-0.8404590009,3.5646198464,0.2213985285,-0.57707882,-1.0947042749,0.4433644796,0.6459478893,-1.2202247117,4.0998994606,-0.3869138659,2.3822667218,-0.0524751961,1.2050995401,-1.3931071127,-0.5287572171,0.7478923921,1.4293126227,0.846220575,0.3839452359,1.3207594919,-0.4143721861,-0.5799841247,0.1988754182,-0.4680067725,0.7692254525,-0.7456462938,1.0987492375,-0.291956708,0.0044032025,1.7442116861,-2.5536678668,-1.6978882527,-0.2628248191,2.6668854021,-1.1809400032,0.4274082734,0.5191492007,0.5434544228,0.6890803366,-1.3458702584,-0.9302003314,-0.241135281,0.1091821947,1.4086322324,-1.7341612844,-1.0072358651,-0.7982488244,-2.1116959193,0.72252906,0.7065848988,0.7033901646,0.1319552958,3.0026185067,0.9018242295,-0.6049690162,-0.6862721234,2.1264341825,1.5041857055,-1.2672931983,-0.162942678,0.5539953022,0.4369679888,-0.8966620552,-0.9639801012,-0.6639336936,1.1150822467,1.6919669901,1.6787641558,-0.6668352823,1.2333749288,0.3218107126,-0.7069274426,-0.5169355458,0.1594275156,1.4136069993,0.3341527673,0.7887354391,-0.3480226623,-2.4862916183,0.498264634,-1.6759679441,-1.55375984,2.9856003481,0.8564318773,-1.4563087001,1.5487378327,0.1328375516,0.0132687643,-0.7422197573,-0.0951337532,-1.0632037677,0.5390669267,-0.1311346356,0.6738040035,-0.5112118187,-0.8533912459,-1.2090450747,0.6499701394,-0.167225251,-0.9832868365,0.4854996008,-1.5669394335,0.890179767,1.2554214892,0.33445027,-0.8148943683,1.7982621072,0.8324309186,0.6684309388,-0.5214771707,-0.390688992,-1.3601913887,0.0499833928,0.6886290848,-0.5847832321,0.7368282243,0.0310464504,1.1718842758,-0.0590901653,-0.0853031837,-0.9693047195,0.43522649,-1.2978617709,-0.1840998463,0.2521604311,-0.3944210134,-1.9678217694,-0.0770659374,1.0068473439,-0.0339250945,2.1311571827,1.4905424117,0.8008951816,-0.4680397849,1.5316193404,0.1225301017,-0.1007504686,-0.0396741694,1.0391195655,0.2760475849,2.1024334873,-0.1875210929,2.5398416254,0.1747119835,0.222667343,0.1124758731,0.9118523441,0.3007782615,0.7319440762,-0.0725087714,-3.1852047617,-2.0809792779,1.3434264353,-0.0343344548,0.1096046718,-0.7020063255,-1.0382430449,-0.1732187169,0.4610120404,-0.4704731839,-1.5285721528,0.1494896921,2.2051034893,-0.4531710275,1.5511039141,0.1191410613,-1.8110980763,0.3184058734,1.163283077,1.5726154568,-0.856066213,0.971619581,0.811475739,0.6153693324,1.9881634744,0.3314315926,1.3801904925,0.0620147891,-0.4800891408,-0.4232287932,-0.4215369942,-0.3416338823,-0.3041334083,-0.7234798727,-1.4483260326,0.2789729003,0.1765365272,-0.0884425225,0.0966877599,-1.2691390325,0.2841071865,-0.2897913272,1.4841824796,-0.3312974142,1.6915322554,-1.7465068479,0.8914621569,0.1565225014,-2.2147798565,-0.0010010775,-0.0990271594,-1.3255315091,-0.6868552616,0.7035479844,0.9937675247,-0.2416231002,-0.7638955073,-0.7183657771,0.813036332,0.9632175786,-1.6454936432,-3.5132864158,-0.9431605213,1.1406752561,-2.3396803457,12.2448897037,-0.5027009792,0.9224667341,2.1990484223,-1.7061064592,0.5777141988,-2.7211604409,2.7991372536,2.0709269564,-0.1965469672,0.6465940721,0.9596978366,-0.2319525597,-1.7479208645,-0.7460300459,0.6535658516,-9.1412297159,1.0927576195,-0.6582283435,-0.0430136508,0.9801148098,1.2536316504,0.612532116,-1.0389246395,-1.0016419319,1.293681047,-2.4697880593,-3.6709259446,1.5636508886,4.4306721547,-0.5113026304,-1.2111172021,-1.2950668841,-0.0201295795,-3.537598414,0.2126166491,4.0061599637,-2.9376153095,0.7544977065,-0.1753337671,-0.7334915121,0.2468558179,0.9781832968,-1.5180235219,0.516687818,-1.5105368472,0.8481206657,0.6533504055,0.1825556515,0.0469030437,1.7679081857,0.0405469438,-0.1908204682,2.0985828607,1.1453819536,0.7041833633,2.81716564,-2.2795099872,0.4279162195,0.9492482147,-0.5072765549,1.106257165,-0.1252931413,-4.6396750996,-1.2462499827,1.1848419364,-0.1087350722,-9.0881648148,4.0052484449,-1.6868962949,2.0435716242,1.1045500747,-0.273871815,0.5841005012,-0.5036247723,-0.2049724824,0.3034974764,0.7313136933,0.5766648176,0.306727711,-0.5158727153,0.6876395273,-0.9411643453,0.0095886728,-0.130862913,2.7091228177,0.6482004345,0.7353603833,-1.6872214371,1.3838339853,0.4316913255,-1.3689142348,-0.3979072513,1.66302723,0.9973790579,0.5966245196,0.3908166772,-1.3517389814,-0.4544465641,-0.2289087672,-1.1368266786,-1.4029640337,0.0114883842,0.2244890206,1.6803194301,-0.32568052,-0.3130743448,1.3786053896,0.9119790468,0.6747099269,3.7344871165,-0.1513766362,-0.8874329858,-2.7322671924,-2.7323903068,-10.0817610415,3.2214618788,0.923640289,-0.3565926291,-0.5764632993,-3.8299697847,0.1693116465,-1.9583140604,-0.6401904373,-0.6381931719,-5.1403846184,-0.8421324242,0.0908127789,1.8085775398,-0.0381482953,-1.5437584188,0.0266690548,1.1732757871,-6.5634493617,-0.6552909273,0.9923463303,-2.738963295,0.8293097097,3.9256148426,-1.6764709017,-0.2759373309,-0.4264212976,-0.3232635467,0.418316004,-1.66058533,-0.9869889505,0.6409736509,-2.0999240407,3.9501635437,0.3593287351,-1.1014489997,-0.2823763449,-0.5936925829,-1.5139645637,-0.7735134435,-0.8446705917,-0.3511275645,-1.8883810829,-0.7496951395,0.9729303079,1.9601793749,-1.5193332011,5.1092034623,-1.3258214798,-0.4263125545,2.9858191784,-0.0129417315,-5.1875158198,1.8067836345,-1.8211449371,-1.2955992158,-0.7945696934,0.4384558311,-1.5240729273,1.8646964862,-0.7358045272,-0.2194213643,-1.0828444137,-0.0623380321,0.3818527057,-0.306919933,-0.6282791188,0.5704749687,-2.3632138247,-1.2451747774,-0.2658794633,0.9795050867,0.0377522817,0.1707374417,-1.4436733776,1.5214316369,-1.1645452204,-1.1206310756,1.3430613275,0.0620718061,0.776394834,-2.4788297411,-1.1562934066,-1.1769358171,-0.59173259,0.9526854475,-2.4184737798,1.0966307692,0.6370331588,0.0464532907,2.9893016934,-1.5022024599,0.8896957033,0.7450672419,3.13587259,0.32385927,-0.2161307223,2.0685315148,-0.6096006819,-0.7666263768,1.4652772401,-1.8397183878,-0.1390876628,-1.1240992756,-0.3808334624,-1.1589886258,-0.5671659206,-0.7147751087,-0.1571508963,2.5134283286,-0.5787990661,0.2853448367,2.0399155109,-0.5026551174,-1.9340258087,0.9006165436,-1.8332225358,1.2039200443,0.5779728012,-0.8573906438,0.9072993361,-0.4676907661,0.8867375888,0.216985591,-2.1846189452,0.3998086509,1.1992747803,0.3304532116,0.9092681985,0.8980917916,0.6298087047,-0.909458558,0.7541169631,1.253954284,0.5251833061,0.4477435335,-0.3244293863,-0.0615905901,-0.9635364926,-1.5160015567,0.6519880994,-0.6178721215,-0.1636469717,-1.5336811783,0.421909735,0.3621159464,-0.3874813972,3.2898567553,0.1220525897,0.5903332081,0.0753792215,-0.5450620233,1.5428178604,-0.0814657553,-0.1599699249,-0.7501445216,-0.6454832365,0.3708384418,-0.8823873449,0.135161784,0.259718397,-0.0474028145,-0.2148322756,0.9138869284,-0.6911089511,-0.6007960047,-1.3033374441,-0.7935553156,-0.1560759263,-0.6471735299,0.6256533632,0.1020455051,0.0466110404,-0.8738649785,-0.3009655657,0.2321988856,0.057353085,0.2530909597,0.3428748762,-0.3940233926,0.0570685602,-0.3297789876,0.210988025,1.051351976,0.0545366134,0.5445817762,0.3020763902,0.3460950853,0.7329087632,0.0803056932,0.8744010119,0.188346927,0.8041166654,0.8218783235,0.2454878912,-0.1028861236,0.4860654125,-2.8176659423,0.4006391992,-0.4839233179,-0.3299443142,-0.0425224837,0.8104945333,-0.1720548533,0.3907480895,-0.7493066226,-1.2532614719,-1.0032412406,0.0115669598,-0.0509744426,-0.2246852777,0.1236246918,0.5281368438,-0.0747570656,-0.6069322165,-0.4734535591,0.1171796701,-1.2261544173,0.9154709524,0.4053869572,-0.3942843686,0.2205533626,0.4058667384,0.2183744564,-0.1202250482,-0.7075819271,-0.4790540155,-0.1280742049,0.7234389399,-0.3001410736,0.2155124891,0.706979746,-0.3955129403,0.5091130959,-0.2617131468,-0.9918123487,0.1632457045,1.9643021842,0.0145367223,0.3460649052,-1.1645850117,0.0666967154,-0.3002247873,-1.259792091,0.1187293458,0.9263701327,-0.9015636423,-0.3374278782,0.2973171474,-1.2126215902,0.2646102038,-0.3200034253,-0.3395150427,-0.074638823,-0.0121305644,0.3434467064,-0.8569805335,0.1327484946,1.1116423154,-0.2943975175,-0.9128249032,-1.869958576,-0.5682755287,1.0049865737,-2.8540255619,-0.9256483344,-0.1582708413,-1.8242455654,0.6597908564,1.5161735575,1.1490576222,-0.5459855771,0.1478518216,-0.9340920592,0.8312724868,-3.6618335914,-0.1725005281,-0.5634232008,-0.0114555917,1.2171721417,-1.1397401707,-0.5648978351,-0.0316411472,0.914165874,1.6960024799,-0.1078233081,1.0735233351,-0.1770584139,-2.8902840942,-0.0750276089,1.4774948701,-1.1038018237,0.0617591772,0.2711256558,-0.1452827838,0.4476063836,0.772781482,-1.1394568019,-0.6218966418,-0.1385597835,-0.5999633603,1.0882922104,1.9325121197,-0.0641604332,-1.2311835519,-1.0199206509,3.6708271386,0.4691980648,-0.0087748492,-0.8571388732,-0.8437138313,-0.1785168336,-2.4430749227,0.0949829187,-0.0242518339,0.3151072849,0.9927944753,-0.2221276174,0.3854321795,0.0681862408,0.8240983895,0.3593399844,0.1345479022,0.5960785981,-0.9588753523,-0.6200462743,0.8325484799,-1.7166636435,2.8767799767,0.5438713861,0.2316688626,1.4927067486,1.5599736897,1.1458003862,0.2250425976,-1.6369614643,6.0916617869,0.1971101992,1.0569637457,-0.2486233242,-0.6875118437,-1.048013182,-0.7607271281,0.8325342493,0.0748097993,-1.0830269139,-1.6886457966,0.0549309656,-1.5748402005,1.4856076513,-0.4894517618,-1.276314378,-1.7699408417,1.1923361742,0.1458840601,2.4671027897,-0.4524336886,0.0058666792,1.337286904,0.7456942505,-0.0147427255,0.0693566402,0.4008881965,0.0324054539,-0.379829167,-0.1543475851,1.373032764,-0.8789985357,-0.1588567602,0.1617517145,2.4690244401,0.893405116,0.2427329581,1.6889191421,-1.6394771322,-0.1032182184,0.1723061623,-0.1563676704,-0.8294454226,-0.3120000289,0.1405287178,1.6198509464,0.2609526201,-0.4372101267,0.1879976897,1.0925249459,0.3027597379,-0.8703073442,-0.3518063993,-0.4155922395,0.5278576178,-0.1250583924,-0.5110999443,-0.4314840171,2.1019395166,-1.1799951714,-0.8913414917,0.4522754326,0.9755109006,-0.3807838357,0.0012589294,1.1316806294,0.9116399136,-2.2071282818,1.6649522907,-0.2377809545,-0.6908026016,2.078147951,-0.1020950897,-0.6224580852,0.1819350414,-1.2177611146,0.7189892516,-0.9601537665,0.605958562,-1.0772763275,-0.473190811,1.1545377846,-0.853502909,-1.0560306935,1.1424803345,0.4019053725,-0.3924870585,-0.1535240916,0.2272516812,-1.8881943136,-0.1043389386,-0.1089915355,-0.2487775032,-1.6154632182,-0.4217929902,-0.6343339115,-1.2140791172,-0.2840586562,-1.4846406046,-0.1346027536,0.6046179544,0.6257230622,-0.4757274502,0.5821668379,0.3247020454,1.1930708058,0.5481788484,0.0962461836,0.0045956205,-0.2804089638,-0.3392362344,1.3872539607,0.3037287153,0.940584708,1.1664106336,0.3585191947,-1.0907487038,-0.5837239214,1.2056531942,-0.7185981962,0.3633126456,-0.6839698577,-0.6830315322,1.0818300344,0.514737281,-0.7060273993,-0.4926426489,-0.8840238337,-0.9371951403,-1.1384537554,0.5413772592,2.6330723531,1.1972473353,-3.2568088646,0.9445802324,0.5783397244,1.3687204096,-1.7233538396,-1.6416133628,-0.5059638282,-1.1961696399,0.4734357836,0.0414658338,-3.241085842,-2.5678291304,1.8029701508,1.5695170556,-0.9440084619,0.1756776127,-0.1651357451,-0.2504737508,-1.2104620471,-1.1252876924,-2.0927133472,1.4753352287,4.614357434,2.5642192555,0.0290472578,0.3879086558,0.2537006049,-1.0897719033,-1.669317628,0.0125051853,0.0745623751,0.6509911321,2.6852748787,2.2030809262,0.521018203,0.3140827032,-0.3948479884,-0.7537270299,0.1642026979,0.3574257396,1.6621038431,0.2965102102,-0.6161337046,-1.1234441021,0.7061740892,-4.124187089,0.1695228994,1.7947868952,-1.757918114,3.4288615865,0.8662414085,0.2175664312,-0.2406137789,-0.3599958369,-1.1200877228,0.4337278522,-0.1323662722,-1.1950302232,0.7150156467,0.216852825,-0.8377594055,-0.4530843782,-2.9851298288,1.4827604523,0.3992720944,0.4512773082,0.0419716732,1.0381264581,0.4229789553,0.0547572759,-0.035858026,0.8761931345,-1.5393583515,0.3072418082,1.0266521509,1.0747817893,-3.7509125063,-0.5912204643,-1.1557102946,3.2325484184,0.3774465374,-0.3681615525,-0.8389219238,1.1855109858,0.427088846,-1.4320851767,1.3516786654,-0.0410628511,0.1601609559,-2.1021338163,0.4034375232,0.9850749861,-1.5576517711,-0.9963841435,-0.9118518329,-0.82901736,0.321451184,1.42284898,-0.8303983833,2.1691530535,0.1564337386,-1.3252872477,-1.4791538741,0.9152358236,0.1191550755,-0.6024064718,-0.8294052322,-2.4936899216,-1.9190929674,-0.0897335303,-0.4993647145,0.3007998454,-0.056484365,-2.2460877109,0.2345572713,-0.4451055068,-0.9746971883,-2.0110688152,0.9243328346,0.2420298324,1.0076660933,-0.3237276873,-0.4011697145,-0.1211154994,-1.3356631287,-0.6383284645,-1.2717384634,-0.8652159159,-0.3256530708,-0.6022706729,2.1491859984,-0.2401795741,0.03220109,1.1035929734,-1.4853663541,-0.7635959885,2.9984806217,1.2853818749,0.1499027236,0.2633093297,-0.2144079127,-0.6208569689,-0.3166597846,2.1425178066,0.5050637515,0.2823612767,0.0623397498,0.5889107151,1.4795042779,-2.2920527938,-0.2498220622,-0.6303888998,-0.7472285744,-0.4425137567,-1.7822107674,0.1238115788,0.3844316744,0.1057015488,0.7733131875,0.3044303063,-0.0200618412,-1.4215805274,0.212642492,0.6198610946,-0.1554660627,1.0002646019,-0.8479393097,1.1967000075,0.9276397666,-0.297955994,0.8557149117,-1.6507985188,-0.1814782049,-0.6534112271,-0.1784708874,-0.3402414271,1.0468961214,-0.635901126,-0.3635368706,-1.9034886395,0.4664456943,2.4603247563,2.4410188261,4.7726618841,0.243058712,0.2084204617,-0.9538306248,0.9560151868,-0.4390479076,0.0152237052,-3.4678420769,3.0180196702,-0.7441285264,-0.3073004388,-0.4335123375,0.9948720243,1.2825424907,-0.5679730024,-0.4350960816,1.0703140769,1.5548046739,0.1756824745,11.4750675633,-5.0363131048,1.6549812669,-3.3150222117,-0.4679398375,-2.71230875,3.1879560591,1.0716538179,3.4099311857,-1.4640584603,-1.3932520006,0.9544680801,2.3575284524,-1.2214728069,-0.3359304552,-1.1730635737,1.1733310653,-0.7804514767,-1.5505494809,3.4478942868,1.2112207945,0.3390529964,-5.2748560717,-1.3358785697,-2.1407217785,-3.0433675067,-0.1689086131,-0.0375984901,0.5095385168,1.4876761522,-0.7755661963,0.5036811344,1.4407572355,-1.4373630128,-2.4083226312,1.3474470977,-0.2240298113,-0.2085787687,0.2660148089,-1.5314711533,1.846379773,1.8223916806,-1.7705818015,-0.0318272201,2.6140933817,0.2667631441,-1.0435294267,-1.40234773,3.1241495363,0.4139238822,-0.1419874672,-1.272996045,-3.5115282176,3.9479454058,1.0071013386,-2.5072325352,-0.858974507,-1.0987014044,1.3226971579,-0.5980855979,0.0530866895,1.6073674173,2.2814019356,-0.6595251986,-0.5363081529,2.2476073371,-0.0824580284,1.2021900081,-0.2110955481,0.2581566006,0.7154150651,0.5617673544,1.1521160295,-0.8121758416,0.0931238505,-0.9827409881,-0.6831526378,-4.5841261418,-1.0789696382,2.246333189,0.018459779,1.3107065373,-0.5277083201,0.400904561,0.5477644452,1.2132764203,-0.2163152607,0.2382619628,-0.109794299
   -2.4661022201,0.5819036381,0.8994281524,0.3353202172,-1.3623292316,-1.4504499223,1.2367165095,-1.1286736757,-2.1875914556,-0.8281278675,-0.4725783922,0.9478272223,-1.9770727114,-0.6360346364,0.7056908436,-1.1277847437,0.1998678461,1.6121631022,-0.6279107694,1.640345609,-0.7592182388,0.0728123035,0.7124533032,0.1511952004,-0.9872579975,-0.4665506487,0.047291902,-0.7061695492,0.0344750821,0.2854000913,-2.5525927877,0.3466598286,-0.1341928842,2.267270149,-0.9704555859,0.2845247962,0.6167401815,0.4294375538,1.8407341084,0.8099191862,1.0834392136,-0.3864229184,1.3654422752,2.3440133549,2.4489340222,0.266392105,-3.2034811394,-0.2532729231,0.0433632403,9.2606734943,-16.2839582953,0.277494052,1.1039907065,-5.7072792344,1.1651682397,-1.061225974,4.6621957291,2.402164955,-0.2897972053,2.2663348835,-0.4107676903,-5.0738915755,0.972934504,1.7344059488,-4.5626948882,-0.0086389146,3.3365247442,0.8180981683,10.2749603631,-4.9867032459,-0.097780483,1.5412647381,0.5905667831,-1.6124107314,-1.1293355585,1.8870662083,-2.1633279687,15.1913836528,-1.8519499759,-5.30967466,-0.5387457166,5.0132632554,-0.7876441035,1.9437702411,-1.8220875921,4.3605681346,3.1875425038,1.1478180127,0.4608903564,1.4744956272,1.5278952678,-2.1329031782,4.5207079239,0.5677531771,-0.9776121549,-4.4372545778,0.6322972946,4.3178152034,-1.4958619013,1.3468478012,-0.5361203479,-2.8434607424,-0.4711883652,0.0156242949,-1.2765905835,0.8145944671,-3.6406490005,-0.8446360969,0.9201403332,-0.8726333055,0.304939677,0.2143756838,-1.0626651659,0.8133857013,0.1022465845,0.1423302598,-0.9554524097,0.0738846922,1.4901711405,0.3611347695,-1.3875415684,-2.0154386984,-0.4869932195,-1.575350482,-0.6697690184,0.024801058,0.8838935776,0.0126040143,-0.1057390299,-0.7591501565,0.6388902672,1.3721983354,2.6078507946,-0.1965064867,1.0148398991,-1.3921430298,-0.0094901152,-0.8805447515,-1.9225104738,-0.4333949442,0.2459858059,1.4763244872,-2.5476951472,0.6229707942,0.0243332809,-1.3727663854,0.8690053223,-0.3978296609,-0.5127452295,-0.0338300536,-0.9052575964,0.1049537094,-0.6056259016,1.6481545666,-2.1630089984,1.943310515,2.1921661252,-0.0126636078,-0.9045121925,-0.7887138488,-1.4986643321,1.2588189197,-0.7895464695,-0.8156961525,-1.3230702483,0.4718311213,0.0160023061,-0.4898735585,-0.6738525023,-0.441817064,0.6512501516,-1.0424231173,0.6589208889,-0.7262684578,-0.05782572,-0.2812007481,0.7917891838,0.5367150466,-0.4224603487,-0.5099927172,-0.3128177705,0.3572602517,0.6784410647,0.1616645221,-1.1806528814,0.6062289415,-0.0992610248,-1.5247067329,-0.8257168889,0.3949045028,-0.494200507,-0.7360172306,-1.2075977552,-0.8193332788,0.1198111347,0.7274076682,0.0091708414,1.3333388249,1.2012794054,-0.5096982038,-0.5192975333,0.2439448394,-0.3510755226,-0.4093098229,0.0967947828,0.2717626986,0.3893139581,0.9284957827,0.7489745791,0.6685073335,-0.2395106561,-0.0801113983,-0.2570895392,-0.0486260265,-0.1817977651,-1.09125911,1.4283327689,-0.1480455188,-0.1432228767,-0.2000459436,-0.6552001748,-0.7978286133,0.9699563859,-0.7389237085,-0.2991535421,-1.1142843021,-0.4906105861,1.7028138293,0.077720934,-0.9473521917,-0.9295705801,-0.4960210756,-1.0642443029,-0.1162677122,-0.3712332931,0.7294709479,-0.7594082046,0.0297138276,-2.2771567454,0.1921540387,0.0560736594,1.2527193328,-0.4690361393,-1.9670507904,-0.2231967971,-2.935620882,-1.7463906818,-2.1195716237,0.3438327347,1.4199608721,0.1250821825,2.0889947525,0.2004144593,-0.0657360238,0.4890593447,2.5496655916,-1.2922116028,0.4730673607,-2.8683703147,0.8059051477,0.6778935618,0.2441603029,-0.8955600788,0.4230686026,-1.205735639,-0.0133578356,1.1869412391,-0.5254702516,-0.3552102358,0.5433909157,0.3071406422,0.0856526058,0.1814158992,-0.5749675417,-2.3458897716,0.3966118871,0.9906908841,-0.7623044187,-0.9356394053,0.0143750016,-1.4410501301,1.4443680249,1.1530754907,-0.5501777976,0.660391816,1.7053642728,-0.372935996,-0.9756321195,-0.7902859129,-0.0424099375,1.3583480482,-0.4059576094,-1.2261372731,-0.3686799088,1.0374447923,-0.5223128259,-0.9943336763,2.2432660695,2.4813556554,3.1183670601,0.5316264687,-0.7998237552,1.3335566616,0.5599166636,-0.9704747171,4.1664402716,-1.0293037871,-1.0157613291,-0.0067182737,-0.8127040154,-0.4756039523,-3.0758012737,-0.9817825781,-1.2168393782,0.2764558152,-0.051228973,-0.3747585226,0.6348459749,-0.729428034,-0.4305083758,-0.5679987976,0.4338527728,-2.4028712371,-1.8574192777,0.1444826561,0.6824310591,0.3765727921,2.5400920637,1.0559756656,3.6253062231,1.2520646508,-2.3029920029,-2.7990689465,0.3636325801,0.8164858036,-0.9939544299,-2.6031796366,-2.4748845219,0.4261687725,0.03798189,1.690199351,-1.1489446509,-1.0537889788,-0.2130101199,3.3132394281,-0.0340211665,0.4334445274,0.5977751084,-0.5097230434,5.642596197,-0.5731680809,0.1027603411,0.362545874,-0.0452143044,-1.8359371211,0.1451283449,1.230806091,0.1893739486,-0.6571134454,0.3624421014,-0.4130417283,1.760026609,1.1524877941,0.1002887795,0.598344139,0.0909072544,0.9183140209,-0.3092992447,-0.7542082689,-0.6552356471,0.1423104954,-0.4830665794,-0.0943160317,0.8455711731,-1.4431995314,-0.8667306918,0.4910221609,-0.4894646458,-0.1729566535,0.9761410475,0.1244088135,-0.8832011444,1.0851904283,-0.4563360855,-2.0937284238,-1.5850751219,1.1002447086,0.1038818541,-1.415406718,-0.6720673316,-1.9447744712,-1.772230919,-0.1477375385,0.6273453816,0.420104951,0.9911175733,0.2341179833,0.6481700781,1.461404884,1.1988053115,-0.9092107347,0.2137632112,-1.1059373107,2.3080236755,2.7053602614,-1.2453851051,-0.6923446066,-0.6459707168,-0.1286437264,1.423635503,-2.1177333235,-0.6615231706,0.4041640564,-0.165492656,1.4145997933,0.4070671149,-1.638549134,-1.4133402584,0.5639093405,-0.3948215673,-1.698235321,-1.4345943523,0.68186235,0.1618074356,0.7232182642,-0.7305810437,1.4862380226,0.002874588,-1.0006347601,-0.1208403236,0.586827205,-0.7365165532,-0.5828701084,0.5100813777,-0.1246015173,0.6692114205,-0.9189618876,0.6756897643,-0.6213239424,-2.1502286244,0.6053134725,-1.6967148942,1.3452222903,0.1119385093,-0.204225874,-0.9172838294,0.3058184817,0.6111929044,1.0760611522,0.2521865432,-0.9081866014,-0.4776386611,0.5807726629,0.5360883874,-1.2567710923,-1.2883543442,-1.9573628664,0.8914041899,-0.6511663908,-0.4628967381,0.6485968311,0.4648734408,0.1615110609,0.0847744193,0.9195327195,2.4551619766,-0.4092380816,-0.2142390749,-1.4269299537,-1.4738212879,-0.0644268067,4.2145728978,-0.880303019,-0.5234706446,0.0579602223,-1.1694940902,1.0653290588,0.8031515204,-0.5592954394,1.1030100281,-1.6665454407,-1.9375802361,-0.3193004882,-1.7140919854,1.764611293,-1.8518316694,-1.2399258133,0.1057614513,-1.2543528603,-2.4219002044,0.8791235509,0.5850360908,-1.5427205732,-1.1405564412,-1.6942371015,2.4373996785,0.5310202065,3.1192566984,1.1728179104,0.2048388011,-1.0419936733,-1.4241759453,-1.5921274626,-7.2930692487,1.5141208126,0.5850515158,1.0600140628,-0.2489116786,-0.5629199798,1.2449244182,-0.4160824794,23.0968170271,-0.1178978053,0.9402813882,-1.8064161143,1.4957217384,-0.0728466668,4.8861768532,0.0680925436,-0.9721877785,-0.7764382761,2.316812065,-1.8567826379,0.2795758402,-1.8839801136,0.1458707539,-2.5548578098,0.3909331612,1.121947054,-1.195009591,-2.1420787532,-0.0316513564,0.2992340237,1.0913916256,1.0668196269,-0.4768086714,-1.2593228703,2.3750323005,1.8711071673,3.0978861672,-1.5617261868,-0.6418021828,-1.1509609183,1.1670053921,-4.968306604,-0.2136996934,-0.5451796644,0.4600217819,-18.4870818684,0.6915458125,-0.3566369283,-1.3051190292,-0.9841573271,0.6816737806,-1.5190371284,-2.7354512797,0.4842993691,-0.0401689885,-0.7979887611,1.0096693198,-1.0736860826,-1.8382485992,21.5777991936,-2.2913048394,-0.8843990582,0.8770583537,-10.6036437725,1.1035736285,1.3597549369,-0.6979094068,0.9973156962,0.9497887673,-1.6360162128,-3.1320711551,27.5448279907,-1.0194523625,-0.0550741008,0.9698729254,-0.7650819384,1.0640406359,0.5601487612,-1.1770181395,0.5768885835,-0.4670813442,1.2362613902,-3.6316441196,0.0941613483,0.2661071525,0.3857572188,-0.5746907654,0.5145574577,-0.8325370927,-0.2991888245,-0.7832639022,-1.8545497131,0.0765760883,1.5792236099,0.4031407719,-0.6353894023,1.8608675688,-3.9027473313,-0.583525628,-0.8337440942,-1.0109359216,-0.0633691343,-1.3616781671,-0.9238757245,1.5683382086,0.8452231055,0.1713844807,-2.0610977468,0.4858359749,1.6464440677,-0.5238384626,-0.2604317177,0.3581332023,-0.1448689528,-0.8079292114,0.0105014966,1.2311869724,0.3631285723,-1.3835715253,0.421764234,0.0391337448,-0.4839467506,-0.0173866766,0.5755077624,1.2636105925,0.5421363921,-0.2798834752,-0.6006117804,0.4070578513,2.2759516745,-0.0053661639,-0.086629398,1.6453780558,-0.9142082837,-1.2200371878,1.5828461493,-0.2681658672,-0.6140011625,0.4934083816,1.3675098001,-0.7377594983,0.9364167332,1.1303336412,1.1431500449,-0.4709537456,0.2403423427,-0.0020386473,1.129196561,0.621374747,-5.4173745424,-0.3426770515,1.2600056716,0.6064492304,2.3073028455,1.3952070241,3.193585109,2.2245023971,26.0911048491,70.4528143267,-4.177657741,-0.3856613942,1.5715432367,-0.5082518471,-0.5071217225,0.4753301764,-7.6658672497,3.775473913,1.7139540311,1.604674765,-0.2445572251,11.486936999,-3.0078607844,-0.6398449944,-1.674850052,-1.6357167101,0.5679910034,-3.6979228397,3.8371725057,-0.9799912005,-0.9231340916,-1.1980040263,0.5497260032,0.8918992034,0.6675741475,-0.8126042708,1.2430301206,-0.0869474513,-0.3386347464,0.7430397639,4.1050044371,-2.4123023519,-0.9185373696,-0.1252846349,-2.0773675914,-1.3119440028,1.148152071,-0.8924546858,-1.2294409439,-1.5333862989,-0.1657092694,2.0500983052,-0.4978936531,-0.0428698485,-0.5061467018,0.0146604991,-1.2749700784,0.9389932023,5.0241941811,-0.3272692642,-0.8497050231,-0.0862269362,-0.0612223514,1.0664279297,-1.0330708736,0.9964144351,0.4531067104,-0.1751406043,0.7052587261,-1.1854592193,0.4189420927,0.205059254,0.0103900754,0.6831454402,-0.1234573846,-1.2475440731,0.3886672871,-0.4632588989,-0.8320290378,-0.0784977354,-0.1555410591,-0.8391981986,0.3124328754,-1.7778646878,0.5346843066,0.8429371718,-0.1966646792,-1.4388789892,0.7221411161,1.2754023702,0.295677548,-0.6727882649,-1.2128224084,-2.072909209,-0.0837499933,-0.0302992426,1.1910404273,-1.3843922098,1.1502839159,1.4972223144,-1.8940613515,0.1049706681,0.8112535265,-0.6606448807,2.348277046,1.1717054438,0.5688454934,-0.2579051215,-0.3150093506,-1.2804083112,0.6795015384,1.4477641339,-0.4083354777,-0.6514547662,0.0111296073,-0.047665978,-0.5254357559,0.0754956766,-0.3424163632,-0.5083207334,0.2212139192,0.6587347576,1.1816950102,0.633089774,-0.5778564004,-0.0568269647,0.7666354402,-1.3883595032,-0.5670139542,-2.3565140671,0.4728313795,0.698198164,0.9795672687,-0.4488890365,10.9098630367,0.8910400532,-1.1762129202,-0.175561104,1.882215214,1.0947167596,0.3284973163,-1.1374949801,-0.2191898174,-1.7172974051,3.9519656066,-0.551180023,0.2607321174,0.3154828331,-0.1493119714,-0.341327389,0.9250206696,-5.149975529,-0.8755537039,-0.504669017,-8.0298225648,2.7490837887,-0.8142117932,1.4782299935,0.6460487623,2.4579433315,-1.6518684893,-1.5284718374,0.4192622593,0.5224712102,1.0694244659,-1.1293572636,-0.6208414439,10.8858323809,0.6095098508,-0.6538789826,-2.3023231864,-4.6108895923,0.3675945977,-2.8663969971,-1.9031861956,-0.7321382814,1.6574711592,1.2724808663,-0.2016564463,-0.1397220201,-0.6788213313,-0.2494532945,3.2460439603,0.3141327038,-0.5274539523,1.3956556685,2.3365017318,1.6493724276,-0.1703675316,2.9533474189,-2.0276508068,-4.671041657,0.1346891517,1.7716122228,0.7755855393,-0.8896882742,0.4461164138,1.3854117794,-0.1157916411,-0.9329870764,-0.2205980499,0.4942172375,0.0263313201,-0.5355853761,-0.8181651806,-0.5392822273,-0.0813215398,0.1414797718,-0.227538077,-2.2630030062,-1.0421780292,0.2550449687,0.5781400944,-0.7332923702,0.4081107674,0.3371523765,-0.0562174106,1.1895078234,-1.5984606326,-0.7884187296,0.763513054,1.6991325164,1.0458669862,0.2341192735,1.2530732331,-0.881154848,0.4143297808,-0.0076820341,0.1663061959,0.4109699004,1.1380710296,-1.5636116275,-0.724274568,0.3025633446,1.6349423074,0.8619849197,-1.0927963007,-0.6158665017,-1.0109064406,0.3679888123,-0.1996852638,-0.2190391557,-0.3414803022,1.5706858483,1.5868876663,1.569154307,1.4040086875,-0.3382034754,1.0038302736,-1.7121210978,0.4555006048,-0.2410973506,-0.9987882057,-0.7220402361,1.869707846,-1.1599902426,0.578270238,-0.6369963002,-2.3454332884,2.8732304436,0.9438626496,-0.8297032163,-0.3792423122,0.1571987626,-0.8788829384,-0.4265697128,-0.7285321265,1.1345462671,-0.7986737315,1.0016336794,0.7655535786,-0.4636884687,-0.6689764684,-0.387303033,0.3140565747,0.1278749597,-0.5179354127,-0.2904599682,-0.6306921748,-0.2703579454,0.4688632271,-0.0509501785,-0.2891723194,0.2994646137,-1.4024700146,1.1770484877,-0.7184574842,0.134385902,-0.7850442463,0.9985513988,0.4981140416,-1.0280930669,1.0266831116,0.2579470795,-0.2900079544,-0.1399933158,0.6964462156,-0.304341553,-0.2886310659,-0.5279760802,1.6484637338,-0.4366043296,0.6652376671,1.5541001877,-1.0924456119,-1.4094229525,0.0104180731,-0.3736136453,-1.1174302095,-0.1223017148,-0.3304836451,0.0955521692,0.7180597389,0.2408142087,0.0760744632,0.7695153257,1.15644271,0.1650780364,1.0456873619,-0.285392758,-0.8087144529,-0.5057814513,0.2689799683,-0.1316109149,1.0514760825,-1.5535908175,-0.5469568325,-0.8195342661,0.6626611031,-1.4089428025,-2.2241600989,-0.4296815105,-0.4008500927,-0.840383613,-0.880291906,0.5463761997,0.553053643,-0.7865376154,-0.0955148975,0.6790824124,0.6013481372,0.0177118927,-0.0847938943,-0.5414376828,0.3762174982,-0.5544170912,0.3665125157,-0.6741887516,0.6790500558,-0.9017424468,0.8954821254,-0.0898722819,1.424144367,0.838233358,0.6717136912,-0.142641582,-0.043869435,0.2106978384,-0.2261633815,-0.0415029865,1.3167771268,0.3953505679,-0.637021978,0.7865300658,0.0032185784,-0.1841966679,-0.8378678701,-0.3104850458,-0.6511587387,-0.9799116302,1.6977025244,-0.0918861983,-0.9742910378,-1.0379295119,-0.3148315566,-0.4344695588,-0.531772718,0.0043666916,0.1661740598,0.3020185425,0.6027345275,-0.0500135671,-0.4929145219,0.2194388197,-0.1209623378,1.4005005085,-0.1998463023,0.7536694524,0.1288857729,-0.1011417468,0.0767436713,-0.0321138256,-0.5190064361,-1.0355769178,-0.1196025176,-0.0823092209,-0.2996276545,-0.6240126698,-1.178227724,-0.7547072857,0.9202068556,-0.4309835756,0.7719235324,0.1808203731,-0.5289235116,0.1295451628,1.164376869,0.0163554292,-0.4183810505,0.8947511971,-1.5957681724,-0.1595653977,-0.448596931,1.2532584181,0.0725223144,-0.0456493671,-0.8470463093,-0.5462994768,0.6673029079,3.8876264404,-1.4227484519,1.2988168167,-0.1148542248,-0.8015124186,-0.0695094691,-2.7054539091,-0.1470482877,0.0017630205,0.2996206612,0.2507391562,0.3743310147,0.24485438,-0.1379350648,0.7016483655,-0.8145573405,-2.5453000789,-0.3646392011,-0.0143968742,-1.2226449829,-0.6890968567,1.7605139223,-1.6502663904,0.2691614151,-0.4646956376,-0.0551569887,0.9279304305,1.6279623885,1.4864548669,0.4037416559,0.9437211783,-0.6853610059,1.0527673395,-0.5699331182,-0.5803627602,0.8323936217,1.4011425736,-0.6345744386,1.4984513451,0.5341006784,-1.303661755,-0.8881128625,0.9634381634,1.1831532788,-0.3753012768,0.6347177695,-0.2106180891,0.4130088441,0.40698932,-1.1775762979,-2.0926600498,0.0320573433,0.6867385279,-0.0554775448,-0.1750989941,-0.7618736925,-0.2285997555,-0.8417444044,0.7807167722,0.2057310347,-2.0531569185,1.0646578564,0.7879645304,0.4285269553,-0.2600740287,1.4235261505,-0.3473897058,2.1104314329,-1.0529669725,0.3335786331,-0.0370303242,0.83258285,0.6741449465,-0.0014138074,0.2018908222,-1.07285666,-0.9245818186,-0.7291706258,0.0742612955,0.2988381806,-1.8650875674,0.7010880419,0.5032864726,0.4594052316,0.2794397597,1.3613722913,0.8482310002,0.2631136282,1.013071761,0.8721059098,0.0752976474,-0.5048083385,2.3413834131,-0.1218387557,-0.7216131147,0.0620950163,-0.6548668117,-0.4301050391,1.2735832395,2.2885371158,-0.948897966,0.8087595587,-0.6394001909,-1.0345288397,-0.687980732,-1.0469566905,1.3483528665,0.1781918623,-1.1340541236,0.3175127673,0.2216676738,-0.2340668814,-0.5366207218,-0.7792836304,0.6218525241,0.5571502308,1.4176367645,2.5860682697,-0.0390435931,-0.3130255726,-0.4747204087,0.459934614,0.3501795857,-0.0895788873,-0.2433147415,1.4879039754,-5.4936753279,-0.7610087942,0.831676998,-1.2363769401,-0.6922039908,-0.469313774,1.9151351222,1.4735580171,0.4448495461,-0.1113844532,-0.4915825779,0.0375621596,0.7739312812,-0.9566038502,-1.4430999544,-0.6409973577,0.1868013772,1.8633802197,0.6937656526,1.0366896408,-0.5164475587,-1.2724588301,-1.4743542093,0.3126027084,-0.861071791,-0.8926265697,0.5967337194,2.9113967521,-1.5880152637,0.8821399353,-0.4211345636,0.6478363576,-2.5204705935,1.3127881658,-0.7278795032,1.9361706307,-0.1815072842,-0.7765040674,-2.0931330046,2.6921131502,0.0918191491,0.3555665717,0.138224111,-0.9927878924,0.2279925838,0.1335297222,0.4613257785,1.1536751445,0.125204371,1.4443936641,0.2600848884,0.9782785185,-0.2054143806,0.7104374734,0.6152902947,-3.3357354869,0.1867479565,0.3995848946,-0.6943737086,-7.2751618703,-0.6402893875,0.9729495342,0.0106306209,-0.8881113485,0.1870271316,1.6424130083,-1.5381296917,0.0754152603,0.395038691,-0.691333573,0.0689179123,1.7494102538,0.3433133747,1.5352429775,0.3847819367,-0.6694982347,-0.2595648361,-9.019381574,-7.9200327168,2.8813598914,1.0432847713,0.0807707126,1.8310798637,-1.1226124791,-1.2237521059,0.6172254668,-0.4428183871,-0.0636433609,-3.7298204907,0.0602249893,7.7742326546,2.1471948388,-0.1191580486,-0.2541899378,0.3231851511,-1.0742701403,0.1884507823,-1.4170538012,-3.9951006103,-0.487053759,-1.6093919445,0.8038100806,3.0836711183,-0.0755007109,0.7973991446,-0.2078497366,2.7302255547,1.0750618762,0.3053081835,-1.3221819026,0.27469438,0.1091199806,1.1059419836,-4.0704340521,-0.7624023172,-1.3583227057,-1.004734269,-0.5675165776,-0.75540483,0.8796691941,2.9053797036,-0.7534503129,-1.6568434969,2.7870264686,1.1554072523,-0.0427302356,-0.2458272096,-0.0439631956,0.2112884977,-0.4089557718,0.9302477465,-1.0571827101,-0.8679309174,-4.0926612186,-0.3001164303,-0.1311671258,-0.0307772912,-0.1485063447,-1.6337945522,-0.2697119853,1.6102790683,-1.1380697067,-0.1518831748,0.1874609454,-1.864257309,-1.3023617801,1.2822087131,-0.4670150477,-7.6024944655,0.5589727776,-0.4237683007,0.3635963693,-0.3550711503,-0.8164377687,-0.6964884932,-3.027284667,-1.6142085542,-0.2619224794,0.1659960828,-0.2795954798,0.6152637743,-0.3864724127,-0.4775957719,-0.8323229116,6.2160848828,-1.1884158369,-0.9009322876,-0.5977150433,0.2949556303,1.2092903359,-0.5350979053,-0.8587375519,-0.1982645061,2.1843601687,3.5061507556,0.4549117747,-0.0587166998,-0.8938631782,-0.3819568096,-1.8305058647,0.9859211106,4.132998778,1.4971648237,-1.9373534044,0.0417036668,0.1490612725,-0.8429938935,-0.7212943207,0.3330029633,-0.4365914538,0.3735344169,-0.5446288003,0.539788919,-1.7661626503,-0.3682775432,-2.2042348491,-0.9159856026,-2.4989917614,0.9011628636,-2.4698361867,-0.4588454116,-1.1423447731,0.7437027868,-0.737522345,-1.0093906018,-0.0805833646,-0.9336461866,-0.3828290429,0.0480580079,2.7870192072,0.4077290956,0.2911217382,0.8856176843,-1.9219660953,-1.7586740516,-0.5973001589,-0.6423147925,0.5028961448,1.2117855365,-0.6828077471,0.800759523,-3.6192202959,-0.8092874968,0.2647969824,0.6161772041,-0.6420835888,0.2321963285,0.8979535698,0.5469577042,0.3792885642,-0.9295860385,0.0418048725,-0.8011559192,-0.1328441496,-0.2456585499,0.2692465464,0.6704191296,0.6938189829,-0.2207863771,-0.6605143024,-0.786025204,-0.5833731203,3.8742433721,0.8120300416,0.4764061325,0.9520798822,2.0495024277,0.5369694166,-0.6523815358,-0.1499760374,0.6105333795,-0.2831263556,0.368700236,-0.0081782651,0.9098886353,0.4604175259,-1.1234979419,0.9710826585,0.3567243337,0.7389290541,0.3337807628,1.112183007,3.8132588352,-0.5456792144,-0.2046139648,-1.4273212186,-0.1821655706,0.6594149646,1.9428569152,0.0906347022,0.1627277936,0.4037747761,-0.467224714,0.7044508985,-1.8566236954,0.6582362026,0.830236734,-0.6101061514,1.7420564019,0.9962105234,0.470148819,0.3902041558,-0.573162937,-1.758489143,-0.9869008909,0.0778113607,-0.2843366511,0.2521035883,-1.0708586024,-0.4248462731,-0.3267876982,-0.8242861692,-1.0321571444,0.781057979,1.2391659814,0.4861466272,-1.6365909405,0.3221762258,-0.1860599737,-0.6263117209,-0.3053465534,-0.8497206454,-0.8494162997,0.9047812075,-1.6735335517,-0.9806046026,0.2737206007,0.2147786975,0.5115609364,1.0260546244,0.0164218888,1.1492420985,0.1767384471,0.9413458965,-0.6461402536,-0.2186669774,-2.9707612792,0.2566029656,-0.2184757731,3.8318134271,0.7358740642,-0.9409628499,0.323358198,0.6887187614,-1.0591972849,-0.6980562633,-6.7047711968,-0.8330076993,0.6193953076,1.3811814681,-0.0865335286,0.0738678241,-0.9065566222,0.106334947,1.0021125135,1.3088386134,0.9238303044,-0.3193871558,-1.6540591037,-0.7707948504,-0.2970772409,-0.0965199086,-0.4706469298,0.7341669891,-0.3956974111,0.6063568668,0.2832341216,-1.0307367464,-0.8852448003,0.3132799979,2.3871910533,-0.2635755245,-2.8558115983,0.6850772263,-2.1232246655,-0.8306611652,1.0008974551,-3.3262506905,-0.7663085461,7.6541333254,-0.690651135,1.8126665392,-0.4929603064,-1.5452238739,0.1322186183,0.5058932696,-0.1633713388,1.6379322357,-1.4758803745,-0.5397204408,-0.3353581321,-0.0384771301,0.6822128732,0.5610389047,0.1758780972,1.5349018904,-0.2547585817,-1.8891786409,-0.9617089833,-3.1828119493,0.1837765881,1.1494882506,0.1059813834,0.7327509982,-1.6819716985,0.7570379884,2.0773170826,-2.0018327034,0.5037622934,1.6498753276,0.7233835254,-1.7999326326,-1.2931609974,-0.8264134443,0.155224931,-0.0918962423,0.9346527352,0.6775092156,-0.0958352854,0.6098405166,-0.3270293615,-0.0263757011,1.2714346595,-2.383207614,-0.1077687491,0.5941461658,2.3262087173,-0.1114702323,2.3603870808,-0.5257704477,-1.0706613844,-0.3808107897,0.3601353723,-0.7874123796,2.0936141982,1.3128338224,-0.4149318869,2.1761647507,-3.6992075799,0.7570785165,0.890624517,-1.3794084087,2.1467564812,-0.2395629022,4.559920321,0.0767368636,1.1079995992,-3.1535250249,1.2248685673,-1.1695768949,-0.5391546437,0.328497949,1.1483868277,-0.1012919399,-0.9013706295,1.5012612061,0.497654511,-1.0833689208,1.0235432008,-1.4160265967,-0.1041502783,-0.8140610086,0.4421370174,1.0613735486,0.5783485654,0.3054504303,-0.0434236388,0.2419411299,-1.1937246524,0.2241568614,-4.3913400863,-0.1717253172,0.9311533948,-0.1300834669,-0.9867037011,2.778053753,-0.3929499447,-0.0102462837,0.625101046,-0.4760898293,0.6534840917,-1.2715098275,0.3322804336,1.1053149178,1.0690610991,-2.0589790201,0.4374448524,0.650591645,1.4884399962,0.7522295777,-0.4147037856,-1.5472085581,-0.4721184836,1.5496297043,-0.3934602718,-3.6353926603,1.4563625316,-0.0338970888,-0.3895187599,-0.7175422682,1.0798079535,-0.041257109,0.1698067044,1.2009157809,1.132351214,1.6836144213,-0.5740087637,2.2471606131,1.37413215,0.4948511439,-0.4134346851,0.2542221578,0.5641925937,-2.5637569341,0.6171836087,-0.8333026707,-0.5108421881,-0.9037769864,1.4494528678,0.8094250298,-0.4442364283,-1.372852868,-0.2570711329,-1.3015356043,1.9283168117,0.1057271361,-0.3010292628,-2.3264055843,-1.7559828727,0.6951237262,0.7981642673,-0.1455944353,1.3387329852,-0.6175015873,-0.380635333,0.7122589354,-1.6115655752,1.284376432,-1.0832591478,-0.1440791549,-0.9273116384,-0.0055556787,0.4433914899,-0.4021408507,-0.3449225434,2.5728327666,-1.5146023225,0.376529667,-0.1447536743,0.3041633951,1.1327828246,-0.0279021799,1.936289786,1.1259852189,1.271656583,-0.5221126065,0.0892044006,-0.2275616119,0.1633986338,-0.1853863522,0.0962048545,-0.3077354425,-0.7289993092,-0.3890447683,0.3400619214,-0.0597950895,-0.1327089429,1.3216942802,-0.9051371459,0.4470870554,-1.7944721316,-1.0463459786,0.135714934,-0.5715572478,-0.6485642469,-0.2065752975,0.1215468437,-2.6750695529,-0.5563943953,-0.1476215453,-0.2158261143,-1.058846351,-1.2523337646,-2.9664590178,3.8253075145,-1.4236030807,-1.0874268128,1.1837463265,-0.0479926858,-0.3736118961,-1.4467009015,-1.0389533572,-0.7902975195,0.9970820902,-3.980002789,0.5212563338,0.7015671733,0.6246114139,0.4879954056,-1.4475498546,-0.5174942055,-0.4897068196,0.9885284132,1.3797594089,1.1269722028,-3.9900500635,0.546324513,1.0399408457,-1.4229771643,-2.6245729455,0.840140379,4.3292318107,0.4284673658,1.3491897359,1.3998871341,2.1987177754,0.4130882724,-0.4515318374,0.0336774189,-1.4070380656,0.4588169203,-1.5804950308,-2.0966034876,-1.1922014826,-2.4097064539,2.898197344,-1.0000785034,-1.4101871714,-0.558422467,0.1857751063,0.5196315956,-0.492208447,-0.534569581,-0.5420234437,-2.0754309688,1.0528366769,-0.5653241206,0.6031540472,-2.5641680442,-0.1168310909,0.6773436886,-0.0701533015,0.934173701,1.2612695511,-0.7599173157,0.2706364389,0.2467957675,0.7094384765,-0.6681586234,-1.5468291466,-0.5203836058,1.4046425896,-1.2051944403,0.986686164,0.2398372046,1.1097447174,0.332442903,-0.1748920759,-0.1148126688,-0.5236004989,-0.6496557869,0.15273392,-0.8238704189,1.579492542,0.3642264899,-0.1613972155,-0.3147900746,-0.198366568,-0.1621292002,-0.1764472425,-0.0029593576,0.3950125506,-0.4845823547,-1.5533830264,-0.9365110691,-2.2581025622,-1.0929582953,0.7723482269,0.0388381754,0.8579745176,0.006349837,2.3122561105,-1.270061039,0.5559363576,-3.0961839827,-0.1337125821,-0.163502127,0.8613513946,-1.3367089116,-1.2053540332,-0.0125619746,-0.1681950301,0.8692875094,0.747618689,0.8366009634,0.7763478492,0.723680263,2.6136481157,1.3319643138,-0.2740430765,0.5573227657,-0.8779865716,-0.0915896962,-1.4007904144,0.4348113984,-1.1941873724,-0.896394619,-1.0127869982,-4.8733644857,-0.0436115367,0.0094912911,-0.5349897457,-0.0869599202,0.6671804956,-1.2144030997,0.2022233009,0.0211933495,1.243061928,-1.3392545933,-0.0003345441,-2.0810864177,0.653134529,-0.2090000926,1.2328320952,-0.3116356384,0.000346115,-1.7533372915,0.2334994334,2.220228152,0.678664602,-0.3845440624,-0.7939839848,-1.6601590477,-0.3298878207,0.4549140447,-0.392654526,-0.9688515106,-0.3515919993,1.1165056389,-0.2157343885,-0.9425541035,-1.5153042118,0.3643409475,0.604457037,1.6734492515,-0.5937620933,0.8574174906,3.205681822,1.3270132827,-0.4035745242,0.712794414,0.1585239716,0.4441589807,1.0978697809,2.0555420116,0.0027733098,0.8893659242,-2.4461309249,-1.5620085384,0.7601362601,0.6537975069,-0.546706194,1.2210194445,-2.3719812543,0.7150328302,0.5241581616,-4.1165535932,0.3655449868,-0.219926702,-0.5525165519,0.084976257,3.8920504629,0.955607788,1.6107103666,-0.9106554235,0.5699440128,-0.2190681089,-0.2879690845,-0.544033644,0.1783885402,0.2182794899,-0.2395288504,-1.9843395018,0.0174978813,0.4279361304,-1.2028295412,0.639705303,-1.3529555908,1.057433593,-0.5489780201,1.6623772471,0.0307400159,-0.0407317964,-0.5589899698,-0.1615125771,0.7831912909,-0.6434829479,-0.8305449678,0.5366246952,1.7183582738,-0.9474198967,-1.0710789965,0.5437156802,-0.8492043345,-0.2925334361,0.0292683765,-4.4719200922,-0.7570435474,-0.4524460488,0.7279053389,-0.9781093953,1.5620632783,-1.4189040212,0.2829693711,-1.3012693261,1.0505730287,0.8709327893,-1.2394143016,-0.3157047024,0.0666535869,1.7365418501,1.1872195357,0.9173330813,-0.1545266244,0.0789966936,1.1602990055,1.8954910208,-0.0972176383,-1.0196138855,1.0075723651,0.320347704,0.9882123812,1.407405844,1.1719874149,0.0086198938,-0.8301754191,0.3607864736,-0.1058103922,2.3354180633,-1.2000638165,-1.4065217228,0.0800399377,0.4669135188,0.3130121118,3.3896223865,1.7173164159,-0.1564858979,0.2765129855,-0.8324092373,0.6057025467,7.8261304356,-0.0684507071,1.3212416633,0.3333169025,-0.0157143916,4.3243956885,-0.7381740088,-0.1490192495,0.8189281476,0.101904703,1.3117670469,1.3659598659,1.047377013,1.5600905959,-2.3110587547,0.1827867856,4.438584354,2.8998410004,0.2281642014,-3.7380177172,-13.6075313962
   -2.2783809153,-1.2797515939,-0.5935993559,1.2923786039,0.217007292,-1.5314814257,0.1928733612,-0.9581765677,0.1259443778,-0.2298895847,-1.3234579435,1.2193862302,-1.182139931,-0.734548875,-0.0563276592,-0.7541642361,0.6997026367,-0.6827370983,0.0854239976,1.4675775441,0.696272606,-0.1812605462,0.0083677827,3.7305370831,1.8387005436,-0.2923151342,-0.2633056244,-0.1735286838,-0.6908130309,0.2158480436,-0.4315945186,0.0436501271,-1.1864377427,0.8119025542,0.32552542,1.4094429424,0.7336187765,0.250812157,-0.9811407004,0.90731121,1.2277741763,1.0432939051,0.8795530493,0.1262439496,0.9273800908,-0.0496144185,-0.3978478652,0.5573479628,-1.7281589873,-0.6558965046,-0.3846385404,0.8800953243,0.0727088632,0.6144843854,-0.5318861047,2.0442373849,0.4099941765,1.4847870135,2.8190310023,-0.5860180541,0.5584457637,-1.073487657,0.2106537872,0.0265201209,0.2117179247,0.5289654833,-0.9335868964,0.2694476976,0.5358139704,0.3602845238,0.3524565028,0.1483557004,-0.0822995192,-1.2120236312,0.5258759947,0.4659128813,-0.5119697561,0.082740833,-0.5909840591,-1.1255385321,-0.741947135,1.014347005,-0.6662365589,-0.7787819029,-0.7333236587,0.4821602811,0.3843088312,0.8698890852,1.0145668707,0.2813605409,0.3208916326,-0.265840244,-0.6584284796,-0.4451688904,-0.1991470421,0.6311577517,0.0170188516,-0.4445339641,-3.003677931,0.7239999768,-0.6391036387,0.5150257505,-2.1186314323,-0.9584612051,-1.0660367267,-1.1592814038,-1.7333686877,0.9406734445,-0.1516707215,-0.8789502628,2.1342711194,0.7409161987,-1.6783784086,-0.3949403772,0.02751735,1.6417365778,-0.8276638243,-1.0428431528,-0.0796247122,0.8090561139,-4.4482689911,-1.4542100614,-0.6663631665,0.3687422741,0.0050327556,-0.3703666653,0.0188457169,-0.2168414621,-0.1329233486,-0.2190839081,0.9467709933,-1.8230073706,2.0016130776,-0.8723769278,-0.0982747641,-0.2373369197,-0.8036912635,0.367877843,-5.530357822,-0.0212031695,-0.1053236912,-0.1509411322,-2.5681288626,0.4601680816,0.2297073691,-2.6394719935,-4.0560628884,1.3424768531,-0.8342956128,0.0995861581,-0.1097511514,0.7271226858,0.1757189427,-0.4110765364,-0.3731066345,0.4213673173,0.3806915348,1.6755315507,-0.5893052674,0.6501447932,1.112428821,-0.0284709647,0.7032410544,-0.9165531969,0.8466104577,0.8357625111,-0.9005095677,-0.6596303881,-1.530695934,0.4522100854,0.0531703527,-0.6897010679,-2.6043113801,-0.1042836507,0.2623876368,0.0515060728,-0.9842309249,-0.2366250481,0.6003739696,-0.2538703802,0.0334500639,-0.772111631,-1.3901021702,-0.7686933727,-1.6649152311,0.4376735359,-0.6076394159,-0.7588037196,-1.4151678366,0.2613721017,1.6544006406,0.1385194059,-0.6700947633,0.2846180566,0.1439693281,0.8873501675,0.3317863337,0.1297138465,0.4533852972,0.5718568356,-0.7964979501,-1.0417305512,0.3554226461,-0.0512154044,-0.0929288798,0.8903888723,-0.3310504348,1.781502782,0.1598650154,-1.8704847704,0.2973546991,-1.1274565616,1.2443082841,0.7837854598,-1.1982265179,0.8674243164,0.6098431535,1.0887704821,-0.2059054945,2.6317425035,0.1372039911,1.2104639695,-0.6395377411,0.9911669789,-0.3147699466,1.2745907093,-0.2151588853,-0.9184595527,-0.2214178849,-0.8501042271,-0.3237873011,1.6715834366,2.0322057369,1.4234810666,-0.9463364223,0.1161995157,1.4088716186,0.3669383762,-0.8177681191,-1.7424810138,0.751685641,1.4899429414,-0.199842478,-0.7694451066,-0.9567450185,-1.0475039824,-0.1282296469,-0.0805430577,-1.0634917764,2.6681343661,0.0719642008,0.6967924423,0.0052168279,0.3470066353,-0.1010715023,1.0358018111,-0.1290496471,-1.9078824943,-0.0939137144,-0.0405312534,1.1888341611,1.5148693303,-0.8811282498,0.5189430101,1.0660928876,0.3103746239,-1.4483561016,-1.0831686797,0.6269118063,1.8944330298,-0.5182819209,-0.2814334119,-0.6017764898,-1.3421933628,1.2254019891,0.024317966,0.3896949486,5.1575357054,0.2326329193,-0.5766607347,-0.1563268456,0.6416884603,-1.0506743402,-0.8980951199,0.2190077747,0.0945979305,-0.4659892414,0.0932268156,1.3596280024,1.6165353804,1.0068949374,0.7755186402,-0.6324290948,-1.6384277618,-0.5715019951,1.2204353227,1.3726892799,0.3157090654,2.2196548127,0.5664259783,2.8311189087,0.3323680798,-4.1106406215,-0.1820491543,1.0196294237,-0.3934303053,0.5367180272,0.897778091,0.1449147827,-0.4311989805,0.7601748398,-0.1377705471,0.9920082226,-0.6787787626,-0.4372902177,-1.2805383093,-0.2391697316,-1.1303329449,-0.6050269642,-0.2082653071,-4.14750027,0.6651663959,3.789235833,1.0832329504,-0.4955288194,0.1497680955,1.1688460182,-1.2810480577,-3.2210684314,0.5913504523,0.6057468542,0.3744053595,0.2458855636,-0.2067492462,-0.5563738553,-0.8940875777,-0.9406303104,0.226031914,1.1009972807,-0.4808424259,-0.8800419432,-0.1960795828,0.3281067089,-0.6189651818,-0.9757735785,-0.4881234076,0.9439259896,1.3841885665,-0.9961016994,-0.5823932749,-0.9849262679,-2.4814532751,0.1261208954,-0.6767618115,-0.3792987387,-2.4164719878,-0.0173041835,-1.7168443821,-0.1776730866,0.3711820494,4.2216501628,0.134337681,-0.0388812702,-0.2716306851,0.9765945499,-0.7407833521,1.7259983335,1.5678640093,0.3457691372,-2.4624991836,0.9292763671,-2.8968912857,0.2016019733,-2.7791831632,-1.1406794456,1.7830889037,0.3375314521,0.4503324986,0.7654990334,-0.5784746866,0.2131714711,1.9854153857,0.9461590327,1.9206742428,1.0233326241,-0.2282684579,-0.0218814641,-1.0914564896,-1.1473461592,0.0996319335,-1.4345239575,3.1854452656,0.7230815828,-0.6377230806,0.4730625575,0.5871888472,0.0954539743,-0.3005587251,-1.162284343,-1.9697598523,0.8496603292,-1.2020598089,0.8281275896,-0.8300892396,2.8154109563,-0.676334286,0.0734999297,-0.6029485397,-0.8985157587,-0.3082820604,-0.4825150206,-0.1051912397,-0.2863491155,-0.8630959876,1.9778889572,-2.0845994202,-1.2763611744,-1.1297535288,-0.3888649591,-0.9901894419,-1.3102901586,-2.141221666,-0.2962345675,1.0067355009,0.0552257801,-1.0632403721,0.8795160837,-0.8469316921,0.0943438937,0.8067208624,-0.500103865,-1.105468375,-0.3007545369,0.5092765543,0.5433240677,-0.4903941117,-0.0783356429,-1.651692598,0.1771635016,-1.0649520898,-3.2841380465,-1.5193117416,-0.1719393533,0.5435407863,-1.1838099315,0.429254179,-0.7994013721,-4.3628976809,-1.9121436019,-3.4496041526,-0.5067061852,0.0990265894,-1.0792787955,-1.5709709334,1.0039451958,0.9162765099,-0.0381255698,2.6600564886,-1.2464958239,-0.4960010647,0.8446269065,0.1549963483,-0.5582910712,1.2693118982,-0.8627379516,0.6228650683,0.1957241684,-2.4970798065,-0.3271361999,-3.138957362,-1.2223656709,-0.1648974672,1.2975753234,-1.0689839281,1.4172218278,-2.1308729767,-0.0523465644,0.0912257713,0.4229056324,2.4475590258,-0.2348681524,3.5801424745,0.3744393776,-1.6992000943,1.2512469737,1.200769918,-0.4033606447,1.0612361399,-1.9440018925,0.2245109398,0.1168237531,-0.0403149216,-0.6941048999,0.5391383,-3.7919070557,-1.0292905084,0.4148542444,-0.2076624462,2.7717926404,-0.660678224,-2.4270160135,0.7580032578,0.2393075337,-0.1860240438,0.6891992451,0.2659617418,1.548914197,0.8807001253,-0.7915459699,0.4560107472,-0.1191789305,1.1040381779,-2.9090748711,-0.7201714946,0.8201185054,-0.7890331626,-5.9891840274,0.304458983,-0.5346811935,-0.4793863704,-4.370403578,-0.127318077,-2.9510972225,-2.4470409891,-1.6321415591,-0.0409812903,1.2150687867,-0.2777446885,0.3041675592,-0.1504599087,-2.9179956322,-0.8584651765,1.3788038797,-0.59912023,-1.5367369856,-0.6279850318,-0.6771278584,1.8190743982,-0.1802572142,1.2648230146,-0.1596042304,1.7553697613,0.464423635,-2.3373764748,0.5572884882,-0.2234447833,0.0436727519,0.7671590265,0.4759572364,-0.0174887503,0.4252709291,-0.3066080719,-0.7245037155,-3.2842185489,-0.4121138524,-0.3293399029,1.0634273278,0.1377886066,0.4268092484,0.0373594772,0.4066353113,2.2526260297,0.1045280501,-0.2132976884,-0.40622139,-0.1077729224,-0.2064267466,1.3719660943,-0.4523342484,-1.5818668512,-0.5907095715,-0.0103304125,0.4540734713,-2.8243194535,0.7077178478,-0.3260255755,-0.3393808827,-0.9002170955,0.4816393752,-0.0075847907,1.002367877,0.969098897,-0.7992701183,1.4615155448,-0.632752382,0.3557190526,0.5998252778,0.3453834227,0.1925827347,0.3684014897,-0.6037213086,-0.2995027633,-0.6596173211,-0.2059653995,0.8788933601,-1.1709083945,-1.2903178984,-0.7364516704,-0.9070781451,0.4115709785,0.5904155898,0.9812570908,-0.1135851481,1.0316499548,0.8088294068,1.1818700913,-0.6384840051,-0.7675464271,-0.8226048076,0.0757772678,-2.2584001714,-1.0579425257,-0.0444697183,0.1634146643,-0.2490935765,-0.4098704009,-1.8962593087,-0.6407052668,-0.9511485002,1.0643808828,-1.2966513061,-0.6041217437,-0.1141015099,0.1845083456,-1.2834443716,0.0026137717,-0.2965482967,0.2536078689,-0.5346366506,0.3472258929,-0.0526892138,0.3662451249,-1.2641313276,0.8329129363,-0.491734779,0.6304256984,0.0326621234,0.3722423627,-0.7285181274,1.219088827,0.2055860016,-0.4900777788,-0.557779575,-1.1794856767,-3.755980247,4.0788210157,-0.0640659746,0.6455423801,0.9125781664,-0.3441611825,0.2678300436,-0.6148630203,0.9108392238,-2.1183695401,-4.6732579936,-0.791640055,-0.7686056241,0.6331417621,-0.6535578487,0.1378235301,1.3131410556,-0.5098416151,-2.2407524648,1.6945105543,0.7366890672,-1.5074432106,0.3400229086,-0.4604505632,0.388029806,-2.2861536913,-0.9244412863,1.6938348877,0.4082637631,1.362283647,0.6048526377,-4.6061389377,0.4132627412,0.1528117201,-0.0667961207,1.4761034885,-0.782786777,0.5410952651,-1.2895910814,0.027650551,1.3546210822,2.343612695,0.3912631562,0.7622570755,0.5587876208,-0.9765767253,0.4525009323,-0.7439413675,1.1389278067,-1.496073517,2.5957168764,1.6336833884,-0.3877068717,-0.3745897141,1.5573656359,0.9169807885,1.040669838,-0.0196270897,-2.1694899179,0.2405983308,-0.1855960216,1.8236928642,1.1183073723,-0.7986882442,0.2013316356,1.4130161984,1.1170951162,-0.6450743875,1.086824688,-0.2591266376,1.2070274989,0.5561838139,2.1707757432,0.1210603017,1.4851679273,0.6823966079,0.4989844254,-1.6048634995,1.0473456674,-1.676421848,0.3902216666,-0.0188563941,1.3643722848,-0.180313534,-0.7329481329,1.5215021126,-1.3847954551,-0.4548074976,0.0197389685,-0.576359624,-0.3664052677,-1.2291339026,0.159029213,0.4975680815,-0.3200337572,1.3309061297,0.7409988705,-2.2241579863,-1.1317279316,2.1492472218,-1.5995423952,0.0775069949,-0.6185839254,-0.2249066825,1.3550429892,0.3520809073,0.1020412067,1.0944561242,-5.2645391005,0.3919261992,-1.6893673826,-0.572233882,-0.1512322054,-1.0391881289,0.3941309368,0.3742842255,-0.6144796787,-0.4675433248,-0.9617018674,-2.144837102,0.8084547996,4.1273448167,-0.9009286962,-0.1910620514,-0.9288098942,2.2823950863,-1.1739742594,1.5124602234,-1.2706028278,-0.7956587014,-0.1399801361,2.1986556113,-0.9586671621,-0.7354207587,1.4706741751,-0.8946326374,2.4504378886,0.4287930991,-2.621440745,1.2738562785,2.5034993132,1.7241543081,2.1255007598,1.8286283361,-0.2710641251,-1.4086501821,-2.6891031819,0.0224818732,-0.5424185189,-0.3715258143,-0.7352744344,0.4825508474,0.5583290173,-0.2696700327,0.2764428332,-0.3941652164,-0.2598309771,0.1663709053,-1.2411511368,2.073004965,1.0578654539,1.2117531327,0.4294450159,0.8592477291,1.4586731441,2.3465954996,-1.9340491499,2.169295908,-1.0905195636,1.4884715426,-0.243263595,-0.8945714633,-0.4160780882,1.5341483233,1.1725711537,0.9570643437,1.6594634877,1.576009902,0.6733200531,1.4886450213,-0.0381244629,0.7056514558,1.6578736896,-0.8226661478,-0.2254332366,1.4421520179,-2.0737355638,-1.29026643,-0.1012990971,-0.3982327386,-0.5063076376,3.0341608577,0.0164104672,-3.4917887252,-0.5662243888,-0.7416601096,-1.7679725219,0.3724313185,-0.5216589063,0.266704151,1.1742802596,-0.4946302908,0.0572915397,-1.3897920022,-0.1273670878,2.2748020637,-1.7302797176,-0.1564068178,-1.4167172319,0.2481925664,0.7245537696,-0.9670727229,-0.7973574555,-0.040555968,-0.4148192779,0.2610724185,-0.4010069925,-1.1384941021,-0.8905148923,-2.9707199388,0.3246086681,-3.0946781717,0.6938786894,0.7160252871,-0.2248830891,-0.996893383,0.4289252455,3.5851336074,-0.7774329727,-1.8371953933,-0.052808705,0.9085134802,-0.4924230826,-2.0714133145,0.0755786751,-0.2071913572,-4.2403809479,2.0702410905,-1.6163154965,-1.190890896,-0.499384492,-0.3669884466,-3.5451421609,-1.0965827887,-0.0969846879,-1.2891059987,-1.5981072632,3.5315243588,0.7428254386,0.8401458379,-3.3679781337,0.5577776717,0.5421293511,0.9806147654,7.7769377559,-2.8472712289,-0.7833056877,-0.1925151546,-1.0431248591,0.4887860925,0.6110868758,-1.8456943948,-1.522515129,-0.498795291,-0.3663252973,0.3998867161,-1.7397816282,-1.3648524398,1.0941316094,0.0962672054,2.5008551482,-1.1607317152,0.0253598036,0.1591492243,-0.3988759291,-0.558958081,0.3351204692,0.9785787502,2.525075549,0.2021734714,-0.1774026127,-0.4752808386,-3.1860612922,0.8235487693,0.6954187785,3.1713246057,0.0464398928,0.7293563782,0.7830361269,0.8656200945,-0.4786517227,-0.6229146183,-0.0587585455,0.7058997365,2.167448005,-0.4551227264,0.7625746343,-0.5850783235,-0.026738434,-1.5065016375,-0.0655762821,0.0098568042,0.7011999869,-2.5947636868,0.9573620321,-0.3859191713,-0.716183379,-0.3701323414,-0.5177455963,1.0583288534,3.5627606403,2.6934484731,0.9384568347,-1.6172948801,0.6591055716,-0.9814094539,0.6800176767,1.4943499891,0.4491718809,-0.8483901728,2.0200226033,-0.4587955652,-0.562747398,0.594006493,-0.9791867715,-0.1488133152,-0.084696965,4.8688570886,0.1436610394,-0.8502535168,-0.0427327072,-2.2449051865,0.2652854927,0.9778926246,-2.3172729155,2.6766170421,0.0759299746,0.394335304,-0.4487779436,-0.0109111074,1.3436431448,-0.5986332839,5.5840193183,0.0138810887,0.933814526,0.9137162009,0.3740884193,-0.7574041061,-3.134884515,-0.2141707585,0.3738037524,0.0735335808,0.3041659644,1.7776428821,-0.5390861561,0.7837291686,0.0425280439,-1.1687754923,-0.2921200771,0.3452119026,0.7042331521,0.0160178437,2.1170616047,-0.0890429715,-1.7857019363,-0.2539580691,0.1584280206,-1.0775661957,0.2256314062,1.0673845563,-0.5610064051,-0.4272894146,0.8451598079,-0.2484774875,0.8233229508,0.4222700544,-2.1007679218,-0.0532084919,1.668737455,0.7567623051,-2.5657897972,1.2871273906,-0.7821990429,2.1711091877,4.2182760932,-0.0333286998,0.9943886013,-0.8850468223,-0.0318163303,-0.5408683891,0.3783502741,-0.1105265962,0.474207761,-0.6371734681,-1.0964860206,0.3340326489,0.511072306,3.4228726083,1.1428380544,-2.5756842074,1.1361770314,-3.0975182664,-1.1971679163,1.1144790048,0.400148068,0.3064356971,-0.0589672272,-1.3868988066,0.3565263987,0.1637010436,0.3310604755,2.075079357,0.4379999192,1.5001079967,-0.1883690677,1.457291981,0.7329967862,-0.3520567202,-0.0320921625,0.5711676,-0.8790843959,0.3022583683,-0.0749267696,0.3642129717,-0.0144095843,1.0488097278,0.4645515154,1.4775597943,0.6054213757,0.4919446902,0.0010764461,0.6579847081,0.0549678796,1.3869626272,-1.4458042366,0.4556187517,0.3152210024,-0.2625332168,0.3802529174,-0.0600587312,-0.9742495895,3.2436267294,0.5563368003,-0.1548594085,0.6960895122,0.561348507,0.140712977,0.1062308241,0.0356596257,-0.0523045468,0.7052137655,-2.7194707393,0.6664335699,0.6044541954,-0.3970458241,0.032173385,-2.5526545217,0.4795624575,0.8474608664,-0.8268169078,-1.4832581011,-0.3205301374,0.1654622847,-0.2395463306,-0.2897235232,-0.3922878438,0.0134675777,-0.1131554008,-1.3471214529,-0.5320077935,0.1656636284,0.4998273881,0.5431298616,0.3229808624,0.0482918797,-0.9951693526,1.1509985947,0.4511020463,0.0847421203,2.0821154952,-0.1479266681,-0.5887222858,0.033180546,-0.6475299273,0.2626598091,-0.8125161537,0.039742639,-2.2851423459,-0.3574484512,-1.92640322,1.4303200443,1.4378758871,-1.6886501214,0.7156818666,0.6471583726,1.5452641787,1.4840669217,-1.5186692583,1.1449092507,-1.4628685605,-0.3875285325,0.5737405799,-1.5671147551,-1.3593970901,-0.962303951,-0.8978798941,-0.0151575594,-0.3464190777,-0.3317701546,-1.7554544058,-0.8849006491,0.8577192537,1.770078557,-0.3583560206,1.4078546022,-0.0884362438,-0.6459250359,2.972849963,-1.3940048532,0.0841141511,-0.3681880682,-3.3774704964,0.3740494319,0.3826033791,0.1223324646,2.1750795227,0.7186271179,-0.5312734936,-1.3123245115,0.7177558527,-0.8791066691,-0.3171139619,1.3791524062,0.5786581481,0.1004169806,-0.2089836314,-2.9760667356,-0.0025399973,0.1588950681,0.4162368105,1.7960512066,0.2849250695,0.6827809195,-0.269399067,0.4944571951,0.1267625319,0.8755165135,-0.7775202023,0.2809071599,-0.2873850043,0.4650548719,-1.1223954717,0.4339786666,0.4637009473,2.5971446409,-1.7070410997,0.0036192724,0.6069536076,-2.7976261937,0.7899279808,-0.6026188999,-0.1059011562,-0.3339378654,0.7341359617,0.3297414112,-0.2227407985,1.4856391604,-0.3204514482,-0.1122130503,-0.4612219684,-0.6892237678,-1.6884821001,0.920449859,0.3725427856,1.7693818654,0.7778556189,-3.306003819,-2.738377666,1.0862819753,1.4561356837,-0.0675037986,-1.0521437354,-0.1084018837,-2.4169870165,-0.0970659479,-2.4330198455,0.9475208384,-2.5738301281,0.8988738266,-4.7969041295,-0.1145802778,-2.8985625753,-0.5678470728,2.5209392564,-0.1317212307,0.0820964009,0.7895906935,-0.6727312638,-3.4316196073,0.8070115352,-1.2884420092,-0.6217704965,-0.7489390661,-1.7762268716,-0.5876338219,-0.4931897849,-1.0290570735,0.1813598522,-1.0439432448,-0.1087550213,0.3304426583,-0.754883915,1.2590612682,2.3332109114,-5.1506302834,-2.6484534372,-1.253740311,0.7652308864,0.8881211772,0.2800978443,-0.2108544677,2.4380001376,0.5638190493,-0.7803605053,-0.2266332283,-2.1578258893,-0.4302893719,-0.4662806872,0.9751131357,1.040376202,0.5091175317,0.0837049057,-1.096399156,-0.7757965712,0.7508372769,1.8488789327,0.7014905447,0.0410979257,-0.038712727,-1.7264916608,1.1750994611,-1.5324224186,1.5476386896,0.3487709434,0.3183118561,1.0250079789,0.1443769046,-0.0079858302,1.6727601503,-0.4336174108,-1.4221325849,-1.6831101917,0.2318811325,0.4297356861,-2.2518320556,-0.9515514604,0.7396585512,-0.3738244041,0.2122510079,-0.578895354,-0.0094923382,1.2012551371,0.7762383639,0.1657329183,-0.5962416092,-0.393309659,-0.3197101196,-0.5333575175,0.1242517043,0.034945607,-0.1210433113,-1.0598532595,0.1197326627,1.258069288,-0.9845043363,0.9021777736,-0.2008783704,1.9878981955,2.4388734764,1.1511802335,1.1151114178,1.3384826306,0.273517429,1.351532257,-0.3555913732,-0.9001491064,-0.8625642026,-0.0085012405,0.1810749894,0.2695122188,0.0255815022,1.5958944634,-0.1298996761,0.1862453159,-1.3492713388,-0.0696356423,-0.8147406805,0.0053990856,0.7994135897,0.8462966421,0.8891708391,-0.1096353534,0.1277182504,0.977268111,-0.267750093,-1.7345314476,1.3212056716,0.2396014756,1.5576803221,0.5277636946,-1.164904585,-2.5182543217,1.0110659439,-1.9409885313,1.0692996919,1.3539416759,0.5507994192,-1.4792867158,-0.2426923624,-1.6829174752,0.5840459186,-1.5804074107,-0.2768807837,-1.3918200495,0.705459759,-1.5284771529,-1.3725236979,1.0756818828,-2.0023478843,-1.1214898964,-0.7780743954,1.1801306285,-1.319974452,-1.0168834825,-1.3521616996,-0.4854967854,-0.8070819503,-0.0936659157,-1.0845192003,-0.7956547325,0.2515243807,0.4309037077,0.6794785026,-1.0210220899,0.1654989491,-0.0960463187,-0.027232424,-0.4773671048,0.300561041,0.2950307388,-0.5589264915,0.6753632593,0.0866578919,1.4419394282,-0.9105140545,0.6702416151,0.0474416865,1.2747138228,0.8171431201,-0.6889192339,1.9884516905,0.1171129595,-0.5414641992,1.0933069019,1.7957885369,0.8642229406,-0.8030135672,-2.6554903235,0.1089959381,0.9409932075,0.5548633022,-0.2451170218,-1.2902743076,-1.6424583961,0.081645514,0.4337048797,1.0438628316,-0.499892102,-0.2725167839,1.0711468245,0.3473809221,-2.1633173334,0.387023783,0.5778708633,-0.3734493466,-0.0500670672,-1.5889879437,1.0437765781,0.303262804,1.7860096506,-0.9166967765,-0.5783607364,0.3204803295,0.6698704078,-1.4348351573,-1.1636756455,0.0014391638,0.3868544042,-0.1535367031,1.2026548736,3.867415022,0.024280527,-0.2293243798,0.1167876111,-0.7339328736,-0.838037893,0.2692072216,-0.1189764182,-0.2076983005,-0.1979912372,-1.7378620272,0.3820173924,0.1928576422,0.8481944151,0.6057041759,-1.843148299,-0.0514002962,0.6161169851,-0.4640592625,0.0896810127,0.2403792486,0.907628349,0.4870568911,0.2995973858,-4.1247564137,0.0091079713,-1.4833179605,0.4483148712,1.0051731934,0.0925024344,-1.2990881851,0.4110038523,0.1342426153,-2.7494013123,-0.4767491486,1.255906843,-0.5183228127,0.1924853124,0.3049216596,-0.1955527687,0.6564961507,0.1222222746,0.0734188977,0.6334790848,0.7549225043,-0.1088795737,-0.6073091121,-0.0317627488,-1.7487691065,-2.056383099,-1.7322795792,-1.4513751313,0.3475483886,-0.5935458332,0.2580232275,-0.8459962836,2.9846730788,-0.3684679641,-0.1490255265,1.3444628375,-0.0456568418,-1.0547439224,-1.0132958099,-1.3024842466,-1.4927403404,-1.5165186274,1.1559094083,-0.0910181265,-0.4380571908,0.5427491978,0.0145242088,-0.2379027009,0.04416881,-1.8099438245,-0.7817945103,0.3585083642,0.6324561409,2.3325605957,2.1534359767,-1.01543245,-1.6669094131,-0.179941121,-0.2732480317,-0.5569983054,2.6815493871,-0.9439411007,1.5789208689,-0.7307849701,-2.2603059181,2.5683070438,-1.1415079712,0.8718647797,-0.6746531612,-1.1526808977,0.8816684857,0.0598692948,1.2724610709,1.4650209128,1.001903361,0.5303011306,1.1460547742,0.0845062524,1.4889089053,-1.6534478884,-0.3588647283,-0.5900196078,-1.4257078745,-0.4441995206,-1.8636104793,0.614653002,1.7051180354,0.2479631172,1.169562148,0.5850605961,1.2965949784,0.8048138415,2.2617644451,-1.2023104959,-1.8603713404,0.3583620294,-0.4562612535,-0.4805392659,-1.195307628,0.3025821234,-0.2915884481,-0.4985742822,0.6919137003,0.7863154133,4.0542397765,-0.0486220384,-1.576392401,-0.9897066084,0.737425439,2.2038814482,0.7545163517,0.0117537559,1.5896243616,-0.3434006303,0.5532862206,0.5814741037,2.657143116,-0.6023784191,1.118974549,-0.7312545346,-0.7870748496,0.5183577622,4.8709300798,0.5400468173,-0.2036004431,-0.7173426567,-4.6797485697,0.6929778764,-3.5393126417,-0.9403809939,-1.466260056,-0.4912422765,-0.7669675682,0.7092407829,4.7456714412,0.6392879957,-0.5006609397,-0.1114783212,-0.9861097286,0.9420153779,-1.3026840918,-0.7305527891,4.0659179617,-0.5435407822,-1.8738208549,1.0863778896,-1.8016998091,-3.2049588638,2.5008748204,6.4768554579,0.63684728,1.1369978101,0.1405297558,1.491529536,-0.3683937243,0.2795031682,1.9704587982,-0.6035443564,0.4812454501,-0.9740635946,1.6976054627,-0.3202160492,0.051019401,-0.6399037946,-0.3547406856,-0.4388297597,3.1465057815,0.033875795,0.7270810544,0.716943635,1.1334980233,-0.4238864438,0.1024369818,1.0855007832,0.8989234294,-0.3609409891,1.5987683017,-0.5333342071,1.413987313,0.2600939451,-0.8922568402,0.0857787218,1.8602781315,0.4520527591,1.4755452731,-0.3700528907,0.7111090157,0.4726756046,1.1672167046,-0.8682290528,0.9433717873,0.1890715659,-0.9974990077,1.3343214071,0.3840839801,-0.2775967021,1.2903913292,-0.904167844,0.093568625,-1.5139970635,1.1338404422,0.659103331,-4.0515960761,0.2226827865,-1.0783336131,1.4966444194,-0.945220608,1.6095373978,-0.286088178,0.7313792605,1.4848457986,0.6479253583,0.2420109178,-0.1626467022,-0.7191088844,1.4427565335,0.5226203789,-1.192812875,0.7679616976,0.2746830718,-3.2085124215,-0.3327485406,0.1688655264,-0.1780270153,-0.4579599045,-0.9187565933,-0.1954070041,-0.2660715253,-0.3143477478,-0.5907289348,-1.139098508,-3.0149979082,-0.9524176828,0.2459477382,-0.9605983941,0.0954196793,-0.5514802654,-1.0361551886,-5.0758196681,0.4498176063,-2.0455284342,-0.626016542,0.665311138,-1.5225139599,1.1784320763,-2.4793510126,0.0495093566,0.1135654037,1.0218797726,-0.6098556651,-1.2605810193,1.1364411166,0.3857984065,-0.2574564283,-2.3861307798,-1.0802674417,-0.9005787972,1.8812858312,-1.1788834807,0.9832069261,-0.6063631635,0.3992919247,-0.378418683,0.0250858922,-4.7145859868,1.3006980651,-0.2304966286,-0.1397225311,-0.8885571517,1.0993524209,-0.8117299619,0.2400437609,-1.2763418344,2.7722499045,-1.1353820257,1.5595695869,0.0568214335,-0.5920567201,0.7258954304,5.8968598258,-1.4027752688,-4.6618715678,-0.1783593437,0.266730838,0.1103379643,3.7308718836,-0.3143379165,-3.7749922242,-1.3140332017,-0.4151446974,1.1467296247,-0.7674766661,2.4335519034,-0.0715984645,0.256052435,4.4623575245,-0.1586030834,0.7287557296,-0.1610689261,-0.3555051324,0.3113062791,0.6302285432,0.015540674,0.0618759309,0.5773703646,0.1655405527,-0.1645381007,-1.1971431833,0.257473395,0.8118920793,0.1225446657,1.1093446795,-0.6111847749,0.039901191,0.4534405188,-1.2038990318,0.2888569613,-0.2975468776,1.3889409291,2.652693254,-0.4489053853,-0.2705956371,0.1508919305,-0.4199745206,0.2640728202,-0.5858752455,-0.0260970452,-0.6897514864,-0.5705725911,-0.0638130957,0.9456723054,-0.686679719,-0.4993775238,-0.3472913034,1.7219537335,0.0761668974,2.1589383712,0.4945823496,1.8641320512,0.3984341105,-0.5712704328,2.5378651889,0.4063553837,-0.5683076992,1.1737326642,1.4041121622,0.5338458907,-0.2295462953,-0.0175231953,0.3216527493,0.5244389223,1.4243423982,-0.5308046082,1.8745645869,-1.0682495804,-0.2509753666,-0.835039124,0.183433763,-1.0534044727,-2.6368121511,-0.0909486888,0.1847734031,3.6997656357,0.3691841996,0.8755349949,-0.4216840672,0.2952458139,1.4568125243,0.7117406165,0.2696996588,0.7355951936,-0.3459752848,-0.0154165457,-2.0222463065,-0.0896474666,0.4813188025,-0.6066755553,1.1694744447,0.0186583549,-0.6891954084,0.32167195,0.1929689608,0.5212538481,1.3829342196,1.3087539658,-0.4146484604,0.1961734017,1.6949109968,-0.5209605995,-1.1913140386,0.4544568981,-0.0227050868,-0.1182811004,-4.0963479859,-0.1866547055,0.7427184068,0.7987142313,0.6092957005,-1.3756018162,-0.9609446462,-0.3604273096,0.5326830765,0.5882559495,-0.4882581419,-1.3310909852,0.2971809411,-0.2223931955,-1.4691760928,-0.3043919151,-1.4435153384,0.8417751884,-0.081694738,-1.89393706,1.6649052153,0.0633643327,1.6808710767,0.37788751,1.3906211257,1.5292652867,2.2168410789,-1.4525145466,0.8778742007,-0.9872306436,0.6674925007,-1.2427257892,-1.8279897885,-1.1199168725,-0.3748286445,4.068043119,0.5480339931,0.5388099713,2.406420792,-1.4833115459,0.7722493535,1.0821986302,1.1220768959,0.2486196725,-0.7649733703,-0.5206251621,0.07638311,-1.5604183189,-0.4321938692,-0.3951057523,-0.5851856335,-1.12555455,-0.143625646,-1.1768896,1.1632121614,1.4091431396,-0.038716168,-0.8387288095,1.530273809,0.1900946301,1.3817923661,-0.6901033708,1.0642410085,0.3822642162,-0.9862644102,1.2201638103,0.1002569668,-0.1471231987,2.0258486452,-1.4564890726,-1.0725572945,0.0443093229,-0.1936233087,0.5750618013,-1.0430568956,-1.4839358038,-0.282736941,-0.1863034554,-0.6623520575,-1.4475621682,0.1037759549,1.5789418992,1.003523663,-1.1421409695,-0.8165516089,-1.084715245,-0.2256624261,-1.6813153047,-0.4874216325,0.2156878427,-0.1544953536,-0.9681064004,0.5728244374,1.618948286,-0.010171787,-0.6116787499,0.2747197076,-0.2653934297,-0.0962666162,-0.3989453274,0.9319438613,1.1424837289,-1.078086758,-3.2622445763,-0.4534586457,-0.0229249773,0.5855746941,1.0179873162,-0.1866963049,0.545012461,0.2867085602,0.2750915247,0.6738234837,0.1263754194,-0.8119640583,0.5171291437,4.0329154465,-0.5039463331,0.4113541501,-0.2388841783,-0.726920417,-2.2121761667,0.1033960667,-1.2722635346,0.5989283634,0.6755678564,-0.6967960481,0.9770296342,-1.0033544922,-0.7818312765,0.9559074038,0.00724275,0.4647662748,-0.2091162872,-0.4923296773,1.5196862662,0.5902552414,-1.5534092429,0.3443719402,0.1907190825,0.1605813765,0.290297974,-0.7831796861,1.402057267,-0.5280843404,-0.1162389422,-0.6393640772,-1.0567136854,-0.1307165401,-0.2238831071,1.2821538807,0.2584357644,-0.3123867605,-0.2016174738,-3.0355495402,1.9900171848,-0.1136433815,-0.2640349849,0.4600167106,0.3804625653,1.6544319202,0.2412182399,-0.7854893293,-0.6858778435,-1.5736893629,-1.0186102938,0.4499309769,0.3213473134,-0.4087363078,0.6474197719,-0.2384259276,2.8884677915,-0.0481546052,0.4463580778,0.3857981257,-0.2238239549,-1.6732585608,-0.2265412861,0.6325049109,-0.5508551978,-0.5891131444,-0.190610158,2.617215262,-0.1499073822,-0.367220591,-0.1586017686,-0.100046684
