encog,BasicNetwork,java,3.4.0,1,1561986361173
[BASIC]
[BASIC:PARAMS]
[BASIC:NETWORK]
beginTraining=0
connectionLimit=0
contextTargetOffset=0,0,0,0,0
contextTargetSize=0,0,0,0,0
endTraining=4
hasContext=f
inputCount=21
layerCounts=4,49,67,49,22
layerFeedCounts=3,48,66,48,21
layerContextCount=0,0,0,0,0
layerIndex=0,4,53,120,169
output=0,0,0,1,0,0,0,0,0,0,0,0,0,0,0,0,0,0,0,0,0,0,0,0,0,0,0,0,0,0,0,0,0,0,0,0,0,0,0,0,0,0,0,0,0,0,0,0,0,0,0,0,1,0,0,0,0,0,0,0,0,0,0,0,0,0,0,0,0,0,0,0,0,0,0,0,0,0,0,0,0,0,0,0,0,0,0,0,0,0,0,0,0,0,0,0,0,0,0,0,0,0,0,0,0,0,0,0,0,0,0,0,0,0,0,0,0,0,0,1,0,0,0,0,0,0,0,0,0,0,0,0,0,0,0,0,0,0,0,0,0,0,0,0,0,0,0,0,0,0,0,0,0,0,0,0,0,0,0,0,0,0,0,0,0,0,0,0,1,0,0,0,0,0,0,0,0,0,0,0,0,0,0,0,0,0,0,0,0,0,1
outputCount=3
weightIndex=0,147,3363,6597,7653
weights=##0
##double#7653
   -1.1940987216,0.0738902631,-0.6529431305,0.6865238538,0.5796466913,0.3296762834,-0.2539660428,0.4255605826,0.6965618796,-1.0476068563,-0.0267948912,-0.2553806,-0.1985019868,-0.1527464497,0.1903922235,-0.480218664,-0.2180408952,-0.3859636045,-0.9379663215,-0.093668278,0.0029576257,0.3019646645,-0.1306921243,-0.367197321,-0.3202789909,-0.5376903778,-0.538994731,-0.6201075458,-0.7389288034,-0.5516850431,0.8657373204,0.0138902495,0.9458067886,-0.4049748721,0.0230461315,-0.797532299,-1.2164294687,0.098027431,0.7027571232,-0.7699996868,0.1416362394,0.8306838887,0.6008605527,-0.4340999267,1.1111569897,-0.647173723,-0.9655628293,0.2388093648,-0.0642316723,0.1160735385,-0.280627554,0.0427279757,0.0289115268,0.2300551267,0.2571979044,-0.5075801834,-0.2544211995,0.1268218155,-0.7100442264,-0.0817322334,0.0111565385,-0.0532538466,-0.0588397732,0.0691582754,-0.0687311831,-0.0615734064,-0.0360977603,0.0540886262,0.5297856115,0.6483672078,0.1620209865,0.0867620592,0.1675084764,0.0933894499,0.0688343869,-0.0405844134,0.0640703115,0.3946079084,0.1041545085,-0.8972361861,1.2947594941,-0.1799974453,-0.0314232411,0.0917463264,0.1749022405,0.3987394836,-0.2496878836,0.019438942,0.3525364341,0.1777042814,0.9664668857,-0.414386866,-0.639643169,0.3975308178,0.1612900424,0.0422099691,0.115512903,-0.8154731955,0.20578933,-0.0074094984,0.1283388571,-0.3129405776,-0.0913440127,-0.1112942376,-0.1471937887,0.0893804334,-0.0854503299,0.2997493452,0.4416467376,-0.4353956312,-0.3046529772,-0.3475143277,-0.0946633625,-0.1776127798,-0.0812214297,0.6374853687,0.0053952748,-0.2514727662,1.0377877007,0.3367037428,-0.7001574403,-1.3439011497,-0.4164976404,-0.2546131936,0.1210667071,0.1689442772,0.6630596208,0.0377676468,-0.5959128629,-0.6600203956,-0.076076488,0.273076541,0.0485671305,0.2736473494,-0.0744160338,-0.391264785,-0.1562345193,-0.210870742,-0.0669590738,0.5202379085,-0.3413985541,-0.7415069374,0.1016471271,0.1609563565,0.1064745475,0.0503686147,0.6023887208,0.1121097021,3.2816290421,0.2684258891,-0.9003495123,0.2339006445,-0.3284883103,0.2899078623,-1.0952691053,1.8604887316,1.4190927469,0.4359198084,-0.8079239125,-0.2187492319,-5.7633646925,1.8399291919,3.8923189281,-0.4552324243,-1.246791146,-0.6578560636,1.3274890277,-1.7722669729,2.4099402663,0.3177938178,1.8283992475,0.2458320736,1.662790692,0.1951161211,-0.1058717662,-0.5390772058,-0.6435045318,-1.662015775,-0.0789586058,1.4296209273,-0.6398155101,4.8113463806,-1.3679413316,-0.6029633554,-0.7228329533,-1.6523633431,0.6331534067,-3.1200148227,0.9020292898,2.456133237,0.0856333754,0.0986326873,-0.8778014144,1.1918573299,1.1699116163,-1.4099604819,-2.0842042333,0.1930774346,0.0866996185,-2.3004590597,-1.3792275425,-0.293227846,1.1932115277,1.9366758198,1.0335653844,0.5364293982,-0.2443505543,-2.1760115847,1.7079279418,1.1990631903,1.3658215293,-1.8355023264,0.7668397751,-1.0159366555,1.6133564841,0.3236698235,0.171216151,1.4378139931,0.5320702625,-2.2243638367,2.9455011418,1.1267066042,0.9571910137,0.270703927,-1.4410332124,-1.7734297288,-1.3828649841,1.0919385798,7.0780522549,-0.1639452926,2.8004819331,-1.9212716612,0.7193498868,2.571510752,-2.2088574732,-0.3897760559,1.8756168216,-2.7226363476,0.3807447713,-0.7061275791,2.0521709405,3.4263501465,-1.163374948,0.7912245751,0.3494308427,-1.592360309,-0.6739699889,-0.8517891264,0.4977481641,0.7679463594,0.4006647128,-0.8194126156,2.0581863995,-6.2598410939,-1.0239139825,-0.0306800753,-1.3920988808,-1.3810411113,2.167199872,0.2959594842,-0.0348247166,-3.1438284162,-1.6894164666,-1.8361544256,-3.8404168189,0.4666132959,-1.2903721987,-1.2497268914,-0.645531653,-7.4374929666,-2.0785251372,1.0261917789,2.7326299701,5.5047821014,1.1923760191,0.2676322148,1.0641172365,-0.4733415626,1.5841537608,0.245800482,0.4696033352,-0.4682628267,0.1395067591,-1.8239341745,-0.695946957,0.5389213225,3.1450076257,-0.9671920214,5.0937052834,-0.6054840592,1.6224154611,-2.8637010826,0.0957135908,-2.0314041268,-7.7750724066,-0.5994043127,-2.8699693323,-0.0545183974,1.2898142234,-0.1779957153,-3.1225529765,-1.3760465024,-3.7781795178,1.914415943,0.994421674,-1.9417940057,0.5032717662,-0.0630572786,1.4329369997,0.9772581231,-3.8865275443,-4.6197505121,2.4335609559,1.2091148266,1.406810879,-0.7755324626,-0.111846906,-1.2530886042,8.9812686245,-1.4504381036,-4.0195786451,2.7267682965,-0.3271107277,2.54914295,2.2464513723,1.8543261432,-2.5712906873,-0.1652496885,1.8744946153,-1.0613407652,-0.6256274563,0.3255934702,-8.0509549961,-11.4941922123,1.0604884456,1.0395215117,0.5898187323,4.752612045,-0.7748091633,5.1101767418,-0.1708633362,-2.2360968954,3.8777568838,-0.6075298969,-5.5621864846,1.4655474844,2.2208012466,-0.6703824556,1.5760801712,0.2649848776,0.8168231225,-0.9995252856,1.5963583219,0.5545130813,3.7868489848,0.5569931671,2.1333634739,-0.9496689701,2.2737989143,-2.3641819421,-1.7907781236,3.4547562334,2.6197428987,2.4070500812,0.6343680264,-2.0700952118,-0.2803062449,2.5905318265,-0.4957632478,2.5204800451,-1.9550515438,-0.9845581244,0.045585936,-0.8609379318,-1.8557051267,1.7359758164,0.6878408177,0.5778288499,0.6779394758,-1.756074799,1.9360196407,2.243088151,-0.2091270492,0.1276473553,2.2228284057,0.2377491572,-0.5981339663,-0.7017181183,-1.3368791161,-0.0300241465,-0.4646999538,-0.2153497349,-1.6264867632,0.1728620884,-1.9180834905,-2.4502560633,-0.1981264237,0.7415352526,-0.7456354797,0.3001428892,-2.0384452774,-0.5450846158,0.9906031928,-1.1310239743,-2.0630091405,-1.3390711845,3.7639295295,-2.6968870603,1.5729158673,-3.3833040248,-0.0235640517,-0.0175750273,-0.5869790623,-1.2869885966,0.0067648016,-1.8236080471,-2.0031800417,-1.4393946996,-0.0419802151,-4.9664050671,2.0905769291,0.5819099458,2.0996565122,2.0748355511,-1.7949813095,1.8561890187,0.883578437,2.1772892838,0.0082153775,1.3318796812,4.2083957977,-2.0157513818,2.6611287106,1.0397865257,-2.5624530288,-0.1463355147,7.1948632236,-1.5108626671,2.0888984161,4.4327096557,-0.9482340197,1.4364404462,2.5954582708,-2.4387825642,3.7224925646,0.0860796747,-1.7656278088,-0.6921256995,-0.4379598618,-1.426677606,-1.7652995405,1.0831627032,0.5563421997,-0.2063124307,1.5882545888,0.5714112185,-0.7015801633,0.3535633453,-0.0137598725,0.5918020004,3.1333190177,1.4804151756,-1.0848070461,-1.3347734838,3.5396319063,-4.4443645691,7.3193259509,3.2474155984,-2.3384492778,2.3286180719,0.310887288,-8.7466158921,13.6517509705,5.2816185425,5.6622338444,6.6549075022,0.5941034131,7.838580014,2.4510131658,0.1785815521,6.095719317,2.3932238743,0.4887538396,-1.171627178,-0.3775287207,-1.7398249672,0.5940234297,-1.1387829628,-0.0678085126,-0.2262897805,-0.7119073916,-0.798287172,-3.7318471709,2.0984237537,1.9770832481,1.297200157,0.2176567831,-1.3712007127,0.1870960613,0.3708778331,1.1068462015,-0.5493384227,1.5142059989,-0.6095787097,-2.9101935451,2.0417876521,-0.5500181329,-1.3167117539,2.2542648526,2.205300767,-0.4593737589,0.8783473326,-0.1355105707,-0.2320222558,-2.1447215221,-1.2630105886,0.4083704302,0.3811851353,-0.9690887705,-4.3499395539,1.6539872621,0.8389129117,0.6212794326,1.1330756027,1.1095097122,-0.3251363275,-1.1579575206,-0.4170755736,0.321509786,-1.3797271605,-0.699958268,4.4560773717,-0.9024994866,-4.0125357207,1.7701620532,0.2060548636,1.4600307231,-0.9154581382,-0.8884219624,1.2954237019,-0.3091214471,-2.5146954533,0.4531936718,-1.8964172731,0.7801719226,1.0876286852,-1.6123527312,-2.28133057,-0.815815091,0.0399628863,0.0302302065,0.589881785,0.1649944277,1.1294262776,1.0387708176,0.5826319018,-0.9704635522,7.9485536583,0.1059236026,2.2159762556,0.5794938484,0.8330523913,2.7790779322,-2.0481143158,-0.7850497183,-1.669976685,-0.7212224487,0.6224930739,1.2395391159,-1.5858306043,-1.3353933213,0.600170989,-3.5109092486,-0.9650178089,-0.3834515084,0.9092543261,-0.3344028935,0.525268042,-0.6253066956,-1.0391760647,-1.3042712753,0.3262773816,-0.1290965247,1.6389572648,-0.243569494,0.9384189481,-0.3223909773,-0.0432848212,-0.9156228124,0.2926125224,0.2802854985,1.9311020526,0.7359504564,-2.2958411468,-0.2714868617,2.0853115937,-2.1225873229,-2.4072834826,0.3964068288,-0.3953441921,0.0920917631,-1.153349754,-0.0302173535,-0.2850221141,-0.2099088038,-0.6811871256,1.9806115727,-0.2852084223,-0.1697314992,0.1140867246,1.7256580227,0.3584737268,4.7076001931,0.1122761055,-1.2671648035,-0.1600291617,-3.0929092354,-1.0169826663,-0.7376205052,0.4052903145,0.4446946534,0.3250561905,-0.1875466765,-2.3361795706,0.6997444412,0.381578504,-0.228843966,-8.0742908617,0.6066321161,-3.3101950401,1.1717683764,-6.3841694576,2.1867031206,1.7933012359,0.057822397,4.2368881318,-1.6615468646,-0.8884299588,0.5369444028,1.042671163,-1.9589595296,1.1301678575,-1.0230273706,2.6346089011,0.2656124101,-2.5001349846,-1.2115169725,-0.0553581602,3.3075402921,9.127216786,2.6307552281,-4.9092144499,0.0916624756,8.7004564261,0.5103141954,-3.1688969723,0.666048152,0.4092035379,-2.3031501296,1.8412550033,9.4185347815,-2.0289070065,2.5279764946,-0.6020721202,1.351706043,2.994921137,-1.9199051433,-1.391204071,-2.5569175094,0.1305180883,0.1465804149,-0.188179838,1.9178619599,1.6002082912,-2.5553804675,0.1309933346,-4.6260485994,0.9584093138,0.3009919178,-3.7517043182,5.7500515612,-0.2936623632,-0.1379538216,-4.4851893881,0.2516661614,14.4155987375,-1.3195073613,7.3395022693,2.2234780135,-0.5525981061,2.878675307,-3.5853050096,-0.4848155858,1.233613647,-0.0000031034,4.8306340296,-0.3446028681,-3.0309698876,0.2749442285,6.7122707038,-6.6313732521,1.6553897401,-0.7024129363,-1.7387743347,-2.0262689027,-0.8237895305,1.5116046196,3.5566511373,-4.901732851,-1.6948173715,-3.3046318696,4.6523472176,5.0199612746,-3.66604264,-0.6193278597,0.4489390159,-0.5809883926,2.6105384442,-2.0616400674,0.6897150825,-3.430958068,0.7456198882,4.0272387789,1.5879229319,2.0200405113,-3.3607106573,-2.1790991209,-0.5152590774,0.8391487205,-0.0866403595,0.0548225129,-3.1876487047,3.5363184391,9.2466658259,1.7509454999,6.4903706536,-0.1267580736,1.4000730598,-2.1108334109,6.0730726067,2.1854918576,-16.8804923788,-0.6780561194,3.1883111983,-0.9707624189,-4.6556406282,8.4246967141,-2.3285481827,-0.8939118333,1.4213238498,-0.5536995764,-0.1360812321,-0.4167539374,-0.5996767344,-3.4519887241,-0.8639178569,-0.9708693335,0.4405715096,0.8821001656,1.2744947291,-0.0923774596,-1.3946665993,0.7306495986,0.9335999629,-2.2415295922,0.2532373931,0.3700002168,-0.7618118105,0.2563627635,-0.8619535922,-1.5839126637,-1.2535924448,3.1336114733,0.6395918496,1.5515870163,-0.6175876867,-0.3362071926,0.7620314303,-0.8215913829,-0.1752062435,-0.6651635951,1.067757678,0.2550893473,-0.502055234,-1.3263539026,-0.7273063431,0.1899692711,1.5340960449,-0.2682785119,1.0401858863,5.0962809829,-0.1412270674,-0.7040196033,0.713238732,2.8021376055,-0.1460556782,0.8870842559,-1.4757555016,0.3738120674,2.4257904211,-1.1958819252,-0.9087087708,0.6853422648,-0.2089742263,0.4439426707,-0.0336977191,-0.5143574788,-0.8839334891,1.6783612103,-2.0950561477,-1.9604219852,1.0562501038,-1.0525646982,-2.9433376942,0.4630901038,1.2339166495,-0.8257705076,1.6485723627,-0.5031271678,0.5281740251,-0.0937679555,-4.0330636176,0.4511884271,0.4814020235,-2.3814961597,1.0678539491,-0.7022327699,-2.0134898888,0.5385312064,-2.4525868865,-0.5845458812,1.1990537015,-0.5543097172,-1.0237625519,-1.3276312476,0.6881172039,0.2013367957,0.5072608104,2.3727741585,0.5994269265,-0.1215344451,0.8234882546,1.8076035674,0.4613850391,-1.9638036125,0.5673537849,1.8586945116,0.1268624348,-0.116834638,0.2284958242,2.0341151052,-0.9673251898,1.9194829544,-0.1718439458,-1.0625049586,2.9587909174,-0.5669979842,-5.7269832292,-0.4914649211,-0.0746304063,2.5752385545,-6.7982371912,-0.8418210016,0.8232860623,0.549971895,-1.7292815569,3.650025322,-0.3893548634,-1.6125734636,-2.1010165894,-0.5868080938,0.4270369973,0.5919569522,-0.9992770102,0.5068280056,0.412719623,0.4828827788,4.7281357994,-0.4146367313,0.238298821,-1.4372520662,-0.5642486512,-2.4657546839,-0.8350143533,-1.7892717978,-1.1759230278,-0.5478877945,-0.8162107997,-1.0520146227,0.5679695185,-1.1948246663,0.2649832201,3.0131710647,-0.9135590084,-1.4254869553,3.8174032007,1.1532717798,2.0045920723,-3.4846034746,-2.1169071696,2.5201740433,5.0167375703,-0.6568870328,-0.4212145183,0.9469784262,-0.7615200986,-0.2609191036,1.9321934413,-0.6208173182,-0.8538367448,2.3198596643,1.9689612429,0.0140834621,1.2719229595,-0.1629134783,0.9132003789,3.1714938363,-3.8698750993,-1.2673991044,0.3063179388,-0.240637569,-0.959453698,0.2531186256,3.1266540097,-0.1500587259,-2.3676604324,-0.5596719781,-0.7037004794,-1.4699298096,-0.5204905823,1.4384765785,-0.8618332287,-1.4259617799,9.5858143032,0.5369430165,2.1426137263,-3.9979825705,-0.0844421107,1.8896093821,-5.260498275,-0.8601600818,-7.2588635098,2.2860914543,-0.2891100078,-1.2665535353,0.4104556594,3.961780602,-3.4577743636,-0.9792596639,-0.2218439937,-0.1108168686,3.0281211496,0.745649465,0.2339902946,3.2647916184,0.939991425,-2.0139753024,-1.2155560634,-1.4492186945,6.0675100917,0.2568263536,2.4309796618,-2.8734281522,-2.0246086671,-3.4217441651,-1.3201526134,2.766977635,-4.2551243969,0.9220983082,0.054379212,1.098245132,-1.8854126881,-0.2557331055,-0.6716614643,1.4065712938,-1.6291129357,0.8438270192,-0.6097087791,1.1359509913,-0.7834929627,1.2234033152,0.7501016401,6.1316686622,-1.3125006761,1.6802553523,0.4948036649,1.0859873399,1.8526357044,4.4202199645,-2.440055027,-0.7411638466,-3.1471748117,-0.1350193161,-1.7582689774,1.0010711892,-1.6152050525,0.7959347447,-0.4099663955,6.2698356081,0.3263562016,-1.3515783753,2.7122739275,-0.8418355331,-2.6591012702,-0.9051032325,-2.7126805193,1.4338753015,-1.8004949265,1.2743955419,16.7548521615,3.1957382906,0.9304447189,-0.7118234243,-0.3326530784,2.241808912,7.8144333751,-1.1035196768,-0.0560882699,1.6009168029,1.8050363822,-0.5926477677,-1.5935812774,-5.4002712614,-3.1008290862,2.338201984,0.5615291619,1.8178154016,0.5691360394,-1.7432612905,-3.7147216676,-1.7399911804,0.762542149,1.1465752847,-2.134095956,0.0074913802,-0.4942576562,-1.8400566244,-0.0398099895,-1.5297329502,2.4350160586,2.4653955174,-0.3389131677,-1.7394256398,1.5025028388,-0.5133974423,0.6562306203,-0.67197459,0.0511012407,-0.5169687738,2.4419861559,0.7009203166,0.0436267857,1.4808645015,-0.207156252,-0.5628100808,0.460138289,-4.5954179418,-1.1853786512,0.1391377626,-1.8247733625,0.2439447731,0.2854893924,-2.3158191224,-0.2686593744,1.132495219,2.8241603334,0.0221798985,-1.3678638425,-0.9139308509,-0.8139563948,0.8473908153,0.0423940909,-1.033729316,1.0036592502,-0.5140890103,1.6734550844,1.0922188314,0.0609318102,0.9352376808,-0.2110085039,-1.4805624537,0.2621351476,3.4608403901,0.1061004802,-1.3215867755,4.3463717332,-0.9055923057,0.659712797,4.2183328147,-4.7339979013,6.0214826978,-1.0173801806,0.9038293072,-0.8844799706,-0.5359837776,0.5634160619,1.1794793295,0.2662352595,1.4183057332,0.0483308489,0.8215379296,3.3261072496,-1.2606402718,0.5478867176,-4.0082417184,1.8059755034,1.6673151519,-0.5597583174,1.5196673552,0.5425912892,0.221933797,-1.3703876058,-0.9818948773,-0.9977092045,0.2489034476,-0.8518225816,-8.1955008012,-1.9896106055,-1.9230078938,-0.7015911899,1.3988058084,-0.0202764404,1.5555298088,0.2668685727,2.839323231,-0.3934448704,2.5875940923,1.6543352907,-1.2305876969,1.2460796419,1.246890854,1.7220614227,1.1923907059,0.0871940646,8.189850667,-0.9537336771,0.2961085169,-0.3494027301,-0.8569478387,5.0183886672,-1.7600341024,-0.7593166179,-0.5917970876,-0.5408490011,0.2608552838,10.666349344,-0.3387230846,-2.4609820634,0.7911765463,0.4964035164,-12.2942203775,0.1041134303,0.2165474453,-0.465255775,1.2540000341,-0.3747077032,-5.2090765699,-1.0546009068,3.5742045534,-3.6431826648,2.0157993301,0.9147924247,-8.9970236578,-1.2564305288,-1.3274825618,-0.1302291698,-2.4833129459,3.9290968065,-5.0814572599,-0.2188178816,-1.1480765785,1.3477524846,-1.3849268043,12.712376878,-0.2058979224,5.449826905,1.6812353612,-0.7707706524,1.9169535008,-1.6904220083,5.4036523875,0.7667534435,1.0394851002,-17.2213431976,-0.1107608179,-0.9095910581,14.9323720008,0.3898924044,0.5184644233,-13.0216830125,0.0335603691,0.3018762018,-4.1756854399,-2.2081883233,-2.4747929023,-0.6381813949,0.0447396829,-1.4242540256,4.0443967547,3.997154673,0.4695556347,3.8402452518,5.5873225043,-4.0335784939,15.0799719139,-1.0901508269,-0.7960993434,-2.1531474564,3.0023288434,6.5918407588,-1.7036366948,-0.177477318,-1.5745950784,-0.5285754549,-1.598284098,0.8285322579,2.9245273219,0.9815200547,-1.7154529044,0.9353253957,-2.349965421,1.4368675801,1.6683701183,-0.9661790441,1.2216346887,-0.5839434811,0.4361850602,1.6345881103,0.3364043905,1.8947187241,-1.4117401649,0.8304065549,0.0642433868,-1.3413176618,1.6988465624,1.3398904478,1.4885467415,-1.8830225857,1.7781536283,-0.4434003741,-0.9137362434,2.9205524677,-0.2486426235,-0.3667753189,1.6234409263,-0.0648614993,-0.5543444409,-1.3193871129,-1.4831322147,-0.3780713139,-0.3289471774,0.9643164667,2.9881454066,-0.3970569303,-0.3098980924,-0.7307835796,0.0345679061,-0.5460060543,1.3084980282,0.9164512315,-0.0096662064,-1.1692201615,2.0236857609,0.4012308291,-2.2641959443,-2.2631276718,0.4600004908,1.9132125602,0.8213949005,2.2226496311,-2.8429478491,-1.6797864053,0.4078638358,-0.5270712087,-0.1765839723,1.1051069499,0.301973227,2.3543081086,-0.4002527877,1.0263695081,2.0153779926,0.569584854,-0.0921967211,3.3743725787,1.3659560325,-1.5242055888,-1.0076985577,-0.6898765226,-4.5292604266,0.7125948294,6.128570474,-2.7319167092,-0.4657909363,-6.9749079505,1.2548582713,-0.9381952878,-2.5670117544,-1.0589612584,-6.503568645,-2.3837020864,1.528406303,0.8945836621,0.7471897703,0.0991956536,-0.8639910103,5.5496508423,-6.1369130865,-1.8328934682,2.5987944214,-2.0907444445,-2.0348215708,3.4945626981,-1.7150381587,-0.8304512971,0.7031534897,-0.665304822,0.9262767513,-2.6516815747,9.8168676547,6.4412387535,-3.3495881968,-0.4286904431,-0.5319938788,-2.2186777116,0.4683959462,-3.6176969672,-3.5349003794,2.72586041,-0.8557953106,0.6033217576,-0.2366053944,-1.6408913252,2.5598654487,-1.2511543326,-1.3476150837,1.9907127266,-5.1774689031,-0.1557088119,-0.2302056137,0.8777183336,-7.8690619187,16.5073275729,0.3672905774,3.0071171223,-6.392942386,-1.4229781283,-2.4152203238,2.7553565513,39.2405317008,0.5179248663,2.7351797706,1.1558975234,-0.5088073594,0.707723315,-3.1934562547,3.2616907055,-1.8940913885,-1.1966785243,-0.5821933614,-0.3877451803,-2.5434108611,-0.4052736471,-1.1620156143,0.3270949809,0.9823315859,-0.1880488405,2.2261716411,-1.2498888836,-0.2669375256,-1.9679970859,-0.8339084217,-0.8277219188,-0.4740716276,0.4714594101,-2.3492701512,0.8271340442,0.1356537557,-0.0801832316,-0.197787113,-1.4467045144,1.8827664738,0.3487840299,1.5131595975,1.5092765717,-0.5672268176,3.0051800554,1.0381734547,-5.211901686,0.1205222337,-0.7514464259,0.284739011,-1.1859762081,-1.5569506257,5.3085390268,-1.7162968433,-1.9959258434,-0.0465991936,0.0934996496,-0.2295851678,-3.253554066,-4.8394352067,-0.1568304573,0.6670223443,1.129913774,0.526675223,2.7886017203,0.2287589029,0.0782175603,-1.1212381973,0.3253061444,0.3310026042,1.6609378379,-0.8836015586,0.7054694843,0.850060882,1.9119047903,1.5659233284,-0.4730065592,0.4071126765,-0.5602446597,0.4253848982,-0.3201652732,0.9402105339,-1.5787057933,1.4907569143,1.6973648946,-0.1675070907,-0.4941900201,-1.4451410334,-0.749586658,1.7951411598,-2.1066618972,0.6388465919,3.2506520589,-0.5811778902,-0.7644864019,-0.7692251796,0.2694469265,0.2084672103,-0.1343153496,2.2757664774,-1.3860106852,-0.2929771814,-7.2853231922,-0.5901649234,0.3492244088,-1.4352083255,-0.622294634,2.0122213856,-3.5195014477,-0.6527566726,-1.1326508868,-0.4371937357,0.2017793076,0.6199892095,-0.7198053235,0.3895269099,-0.0661220371,0.8488969843,-0.6925296916,-0.2260433366,-0.1599272083,-0.123230507,0.5251599975,-1.6374860209,0.3861789485,-0.3283637914,-2.8574666119,-0.2293015792,-2.5313973972,1.723983591,0.4396053083,1.5081257113,0.4114937874,0.2561093996,0.5423052594,-0.9430095546,0.7976077815,0.0725979478,2.1198206528,0.330131677,0.6887903347,0.813961391,-0.1404586109,-0.2124631916,-2.1052315757,0.533727188,-0.8580676717,0.6681785298,-0.533622332,1.6243869213,-0.5003116297,0.8446044967,-1.1884610462,-0.0110515966,-0.6743216072,-0.6341765731,0.4195075468,-0.6159794965,0.7061354512,-0.0772848697,0.7935958295,-0.3652418666,-1.0015692561,-0.4632160688,-0.4122387763,0.1015553114,2.0348947586,0.3914380545,-1.3885377036,0.0579937521,0.6317691026,-0.4479334983,-0.4382524654,0.6412624425,-1.9328768127,1.4456312393,0.3706358036,0.0552421204,-1.0226714556,-0.9281614112,-0.6551557187,0.9413093119,-0.175930831,1.9467394333,2.4467725177,-0.2619729657,-0.4646051052,0.5096801818,-0.3533416906,-1.9848308063,-2.6549593588,0.821977752,0.3255232792,-0.4710092653,-0.9253092419,0.2911575651,1.3570756965,0.8241313683,-0.3713606489,-1.1534306837,0.5379465796,-0.4540743306,-0.2191383372,-1.6265266526,1.0502404016,2.4158853771,2.6981780743,-1.7267405442,-0.9982297546,0.3097691412,0.9768878166,-1.3676931345,-0.1117326934,-0.0113545979,-1.7660829439,-1.0842493151,1.9570210993,0.1732058234,0.1373059994,1.539447471,-1.1694814485,1.3063699938,-4.4261939682,-0.0662912535,-0.2802912417,0.3942105742,0.4182295353,-0.4904426896,0.3029645431,2.6443406865,0.5498054972,2.0603628567,-0.548096662,1.3380996981,0.0906137068,-2.786763289,-1.0906855365,-0.1941350092,-1.6167954002,0.4040566465,0.3598821124,-0.9018474116,0.7755900105,1.2040615735,-0.5816171815,-0.3077536182,-0.9903304496,-0.6797363107,1.8526525872,2.2968724965,-0.2874093195,-1.2602973784,-0.6572991256,2.9290403238,-0.1201007128,0.5558394185,-1.2217208142,-0.7652297404,0.1858435432,-4.1925836056,-0.1555676013,-0.2892561247,0.7711298632,0.8649091551,0.142272729,0.0029546132,-0.296174136,2.6274812394,2.5198681028,0.1068392352,0.2669804756,-0.4181066027,-0.2556858975,1.3560542173,-2.0810240203,2.8755893547,1.61509445,-0.1955081241,1.2739182588,1.9243340665,0.5987604758,-0.1684688309,7.1520451217,7.1243741896,-1.6589180346,-0.0431262624,0.2980651815,-0.410192761,1.833532205,-0.9506866252,1.1101982325,-0.6628755296,-1.5439115093,-2.3016689392,0.5213800801,-3.112563211,-0.5450939464,-0.8564535192,-0.2977492532,-1.4874466935,0.9606053063,1.3579832575,1.4798081832,1.2643183279,-1.8644946093,-0.1789594594,0.1397357917,2.8525608322,-2.2205515618,0.4031537714,0.7768602497,-0.1887115417,2.774171592,0.110907822,-0.5034854703,-0.3451035276,0.552879432,5.8735354616,2.4896796818,0.1022224295,1.3584403923,-2.5131406056,1.4494407665,-0.6500586902,-0.5171446084,0.1866037093,0.3080401268,-2.8151380406,0.5852875749,-1.1712542133,-2.1339226068,0.3987268012,0.913895078,-0.6758053869,1.3249505787,-2.3261300857,-0.259697342,1.6843905716,3.4276494205,1.3029571789,-1.3216940719,1.1233743918,84.0857570154,-0.173601611,-6.1068690028,1.2527086725,0.5977812891,-1.3787601759,-1.1165964729,-0.4518563934,-2.0245780488,0.3690733871,0.2734186325,-0.4744669173,-0.4856354743,-0.8238577551,-0.1893968357,-0.9958540612,-2.3737546294,0.4791842774,0.9869598642,0.1640218567,0.1236705009,0.186993893,0.0693890596,-1.0658331337,-0.843870458,1.3460389853,-1.8770762638,0.3263466897,-0.7297794166,-1.5510680169,0.8820502821,1.254022418,-0.4228691303,0.2813128957,-0.4848469765,0.9339436598,-0.2095567102,2.1240033628,0.0302470571,0.4634647804,-0.3000878927,0.2557416171,1.2876221257,-0.1640688771,0.5250120336,-0.6246186384,1.5766695939,0.611124311,1.3334787475,2.1464442262,-0.2819310889,0.4649457339,-0.1089202312,1.3778034651,0.9930805569,-0.6909691196,-0.4910001503,-0.0668048526,-0.3713936967,0.6753964682,0.3106571494,0.0614215749,-1.7861702768,-0.6121627346,0.4184808424,0.3297411234,-0.4936971746,0.6501384502,-1.918990085,0.0639148906,-1.0174273993,0.3290470345,-0.1222867287,-0.6686605781,-3.033026584,0.306203308,-1.251956491,-0.5621897982,-1.0834438759,1.5076092403,-3.3684900401,-1.4937085027,-0.4502861739,2.3045491179,-6.1844657667,-0.5273752328,2.0100738671,5.2458788456,-1.1762766039,-0.7484852893,0.1621960874,-0.3862037689,-3.0916700623,-2.5347341188,-1.4613363648,3.9313560353,0.0409451715,2.3091465124,2.2063186949,-1.7899810771,-0.8393027632,3.0261466529,0.7216477191,-0.0379852521,0.6681422113,2.8570971029,2.3325364887,1.1978088861,0.3814545207,1.2085581671,1.7045434756,-0.2571879094,0.0920852177,1.0597339804,1.8837919501,0.4658397127,0.8593691045,-0.7960524556,0.1425942279,-3.2795811112,1.1002420509,2.106756395,-0.8089841519,3.5535913354,2.347448421,-0.1097654013,3.338509532,-1.1272519973,0.0967701454,2.5842352081,-0.8991085917,-0.4622774318,0.2176718484,-0.1104790075,0.2191635549,-0.4015639959,-1.4987936525,1.37445011,0.7266039269,0.9154885629,-0.2456011571,0.0007951491,0.0952922779,2.9226870296,-0.2560001299,1.7999660853,-0.7152422298,1.5577629154,1.3424641599,1.0839994241,-3.3034760997,-1.4910317852,-0.099960137,2.0719996233,-0.1088022034,-2.8151476567,-0.3653248898,0.8644359404,-0.187396931,-0.2804335802,1.6965831886,0.2841723606,1.3263233655,2.2594220031,1.0963000996,3.7705580507,1.3512852129,-0.6843932926,-1.101113556,-5.5157418132,-3.2880120672,3.0861834423,-6.8606799161,3.0936178921,-0.8056835095,-1.6467268903,-2.2948701262,3.6599768859,1.247165412,-0.1600461937,-1.6851310704,-2.109699914,-1.0709399099,-1.9232986807,-0.7056157733,0.5576732259,0.8665301915,-3.2010956646,1.1975762859,-4.815056367,-2.2479389981,-1.8170103401,1.24540788,8.50742478,-0.4183803876,0.8727506748,-5.4670219129,5.4658925173,-1.6590320023,1.3510986155,-0.950663418,-3.1326187107,-3.4238468222,0.5651734948,2.4954678562,-0.5612546195,0.1770656855,-0.1294117881,1.0384725668,-1.3941270245,4.5094079977,2.1566477893,0.2470451548,0.8331134304,-4.4243346707,0.2068607942,-3.294857827,-0.4585252651,1.031113732,0.7814950393,3.6271391927,0.0999752229,2.910070699,-1.6516540981,-0.8803561718,-0.0023183366,-3.6497524715,6.23134095,-3.3496650955,-3.2632424304,3.0125294238,0.998896582,0.7138370962,0.9640228368,0.0477727143,-1.7137899197,-0.3751984009,14.3635651776,0.2020796382,0.4112423926,4.9461447121,1.1511627358,0.2980083597,20.9499765984,-0.261052547,-2.4435562321,-7.5165516298,4.8731021782,1.4940007757,0.4181484803,-9.0221582946,-1.268491349,-0.5711404325,-17.7480284659,2.8519020187,4.4491792166,3.2103233121,1.0607976582,-0.9121658297,0.8389545713,-1.5454793228,1.452281706,-7.6444097909,0.7874203687,-2.8620788572,-2.8082250686,-3.5871108186,0.3232336708,0.6250765255,2.4971848159,1.537160778,0.2820262099,-1.0656301912,-5.9957945396,-1.5103523885,0.3821230588,11.2184099418,2.2337652967,0.2164467591,-0.6017352396,1.7719578635,-8.2259390663,1.021424949,6.6108179524,-0.2224821529,-3.5287458441,-3.0540713388,-0.0391710453,1.0307101136,-1.7214034574,-0.9317729057,-1.4270502527,0.4353263867,-0.7287614185,0.9094886114,4.6316373734,-1.2268017201,-3.0162978458,0.3816838042,-1.0194066265,-6.6990934971,-4.2227392874,-1.5248080958,2.9098125255,1.4551558161,-0.3466367538,1.5966093032,-3.9198590486,-0.5813519899,-0.8186062788,-1.2720359316,-1.6730905212,-3.3027879591,0.0871772294,0.929505304,-1.7371615358,0.3708486561,5.4579187683,-2.0049454194,-0.0715257787,7.9464329694,5.4854665798,-4.5473755666,-0.4976562964,-3.7573185428,-0.5044681147,0.1119992118,-0.8262814029,-1.8164292898,3.60119093,-0.6737637308,1.0133253936,-0.3616327453,-1.2829513864,1.5766838369,2.8188415378,-0.3576206784,3.1535430265,5.6482380336,-0.9135118776,-0.2721866334,-0.1095525486,-1.0999596328,2.1914528861,-1.4526368202,0.2975094736,-0.7165244071,1.6775772088,-0.1105596394,-1.4137464422,-0.5602640221,-0.4623088922,1.4290270839,-3.8419918309,0.2205843086,1.0684613084,-0.3656524359,-0.6015021132,-0.3161440857,0.1893403266,-0.5126945881,0.854010395,0.1596405049,-0.4035997246,-0.3588138627
   -2.1309612462,0.7506103751,0.2813923432,1.1088216419,-0.8050944283,-1.8588754506,-0.2502920086,-2.6839082723,-0.9750311143,-0.6756599842,0.5416650933,1.1697764877,0.9922780253,-0.052572667,0.8885517439,-0.9088179382,1.6803307241,1.4674255623,-4.447628284,1.5997313775,-0.6907540044,-0.4225868361,2.6935264699,0.3386509629,-1.9165642554,0.7043014224,0.4109628513,-8.1483452677,-0.1770891523,1.2746629693,-3.3617420104,1.3102698159,1.3966083094,1.3794273419,-1.8659086288,0.0732058228,0.4051759471,2.4203529636,1.3375783428,-1.3031092837,1.0247292895,-0.174858684,5.3991400781,1.5870840585,3.7752750958,-0.9060927855,-0.5834417945,-4.9519326575,2.6657856149,7.1450908003,-12.453133766,-0.0232002779,3.3723916848,-5.2923244842,2.286671608,4.2125800468,0.291241546,7.2800939145,-0.275644163,1.5471948613,-0.1077737315,-5.3684693403,3.8116383721,2.9977282284,-5.9197321511,0.6394040896,2.4371020882,0.1841717806,10.4685592672,-11.0765421818,1.2040765163,-2.6512976731,2.6801893672,-3.5771374414,4.7241419578,3.2778143585,-5.9120823646,15.9698842668,-1.5488825347,3.3381884786,0.2096382178,6.1897843179,-4.6741787148,3.3979325824,-0.4692585715,3.3089934418,3.6453902085,1.4509944566,1.2308189405,3.0152396138,2.6069876759,-4.6330047217,4.4455300479,1.5878317467,2.9424535887,-4.7402485366,3.080491176,1.7897070503,-3.006676799,5.2241389417,0.4173322598,-1.825476298,1.7344046784,-0.2873696639,-0.1819749289,-0.7826086176,-2.1140891157,-2.3440514272,1.223134292,-0.6119286178,0.6745660735,-0.146626456,-1.1971253668,0.5194752845,-0.0590820486,-0.0394071161,-0.1520099158,1.3333900913,1.6123447138,-0.2219980683,-1.0660838745,0.0835032916,-0.4537833574,-1.2876362077,0.112675992,0.2643080921,1.0223287742,-0.1218596749,0.0287246593,-0.2087400876,0.0868761496,2.0265157919,0.8447689714,0.4226517422,0.7827725103,-1.1553806458,-0.462035138,-0.2437438657,-1.8869811653,-0.7621596292,0.1622099747,0.9903661388,-2.1642801992,-0.4715918741,0.5609943432,-1.4696134988,1.5569960895,-0.4156369492,-0.5591319167,-0.7733500501,-1.0891947259,2.7610522697,-0.0714181454,2.6668188962,-1.2464555179,1.7436518579,3.1375417811,0.1088731366,0.4181500408,0.1093480992,-1.6677341827,1.227785166,-0.6550827803,-0.9501598417,-1.2936708445,1.9288182359,-0.5030563511,0.247486276,-1.1509924924,-0.3747755265,0.7857138408,-0.2797236338,-5.2265792993,-0.7328262736,0.203217099,-0.4156644373,0.1389170752,0.673898475,-0.552106299,-0.5539273031,-1.3520549152,0.5257505321,0.8073451222,-0.4624025154,-0.6795524424,0.5108331548,-0.5197084998,-0.8356311148,-1.0970741844,-0.1022403986,-0.752196437,-0.1382616322,-1.5239637446,-0.8985245474,0.217967659,0.8512144325,0.3379639252,-0.1639829504,0.8372289901,-0.0722523576,0.0130541629,0.1921942413,-0.9480053241,-0.6141232447,0.0514164051,-0.1779150322,0.5325823497,-0.1261341597,2.1676853851,0.7108677742,-0.3523780566,0.5897125653,-0.1591018681,1.3885653256,0.0695115571,-1.5559766764,-0.2953795902,-2.3678675757,-1.2047085908,-0.3859624615,-0.4741068327,-0.6996172552,1.7178583353,-0.6689187194,-1.4997695709,-1.5010208055,-0.0687629242,1.8018159347,0.0422597865,-1.045508716,-1.5945651282,-0.6877730059,0.186165997,1.2871775894,1.0132179008,-0.0982077992,-0.8540466262,-0.0684426967,-2.1922002043,-0.8140189929,-1.133284184,-0.2403505458,-0.370879615,0.3496022622,1.9743161099,-0.5739645567,-1.9851863504,-0.1591525822,6.0628583383,1.1791323602,1.3496472323,6.0497781114,0.5856236211,-8.609322027,-0.2730913135,1.2083654317,-0.162038957,-3.4654904181,-3.473303224,-0.2655613149,0.688819433,-0.0963859901,-1.1316674178,-4.2100390389,-2.5782304931,-0.1281871828,1.8343875024,-2.1288351081,-0.8126992508,-0.4905381364,-0.2999302223,-0.2783202012,0.6320444546,-2.0185038831,-2.1748826831,-1.8495865827,-0.0528962728,1.5934716246,-0.8521612454,-0.2666460857,0.3488262062,0.9877713535,-0.9273589593,-0.8564722612,-4.225665054,0.5945376555,-0.0383162937,0.3630892097,-1.1096222702,2.6972908061,3.9423552788,-1.6773029929,-1.8508408727,-5.0298514889,0.8464166379,-1.0657773366,-0.6537873833,1.2047907314,1.8540549566,4.6631773459,-0.3659959349,3.1955896042,2.573616688,-1.3206995996,-0.6299284241,-2.1336774289,-2.3895390502,0.804842807,0.6704335261,-1.1532503084,4.5274632389,-0.0240294607,1.1638681004,-1.9468396207,1.3008095067,-4.8755212042,-0.2363409836,0.0651284789,-10.5010190691,-0.0661145551,1.581190451,0.3624382158,-1.9470002162,-1.7364831237,1.6404099107,0.4652727632,-0.0161076485,1.119636823,0.3277861797,5.0778435146,-1.359675701,1.5267581341,-2.0835037581,-1.9879318328,-1.7428244654,-0.1743971342,-1.4374549127,-2.7762073326,-0.3858717732,-0.965269913,0.9042380356,-0.3321013719,2.7841325461,-3.1417276319,2.2562497459,-1.1573697619,-0.2947005536,-5.9798179809,-2.2234971996,5.4498723391,-0.6566111202,1.1257932612,0.3930401659,-1.208572253,0.6571195491,-0.5831029957,1.601031677,-1.7155333114,2.6958487299,-1.1730778839,0.583820295,2.1148752558,-0.0016143404,0.8284782654,1.4894869769,0.2079504421,-0.2322298363,0.2666220656,-0.1851375291,-2.4528945899,1.9598102842,0.2451229065,4.3152468074,1.3147112333,3.4250030572,1.9552090772,-0.237167325,-2.3437284094,0.175950939,-4.6088290477,0.7601910731,0.1188307738,3.5716546745,-1.3258336577,0.6163774145,1.5258292549,-0.4963518941,0.3612346892,-2.4925780007,-3.734168873,1.2612320188,-1.3928346071,0.8070534125,0.5614729824,-0.6932679839,1.0494336075,0.1889935212,-0.3183209228,-0.5257589687,1.1511440462,-3.8148509126,-1.1244862677,0.9742698085,2.0320597655,1.130634717,0.6249535345,-0.6408720088,-1.4219664341,1.2300954456,1.5563415747,0.12355868,0.9508567533,2.0141338162,-0.0883255225,2.2435315745,1.4274536034,-2.3104614546,3.9301287849,0.4279578371,-2.3150197735,-4.2731598115,-2.4307768993,0.65145745,-0.731549224,3.4691462689,3.4584184152,4.7544146764,3.3114587842,-1.282683299,0.909179073,0.5285111708,-0.0945695515,-0.4409718761,-5.0466967527,1.9408490602,-0.1583152659,0.1546360866,-0.7066691722,-0.6796399766,-5.0838627147,0.1743834081,-2.3031658593,4.667962351,0.1702545435,0.3469032242,-0.8194856629,1.330046707,0.4281914506,2.3464088543,1.2850534792,-0.380556631,-0.6857439117,0.9816784021,0.7231667426,-1.1364971815,2.1904953064,-1.602028205,1.2187979032,-2.8049547516,-1.5894634022,0.4956431757,-0.0763996756,-0.0214903929,0.2677758731,-1.9561873691,-2.5250134273,0.0577330532,2.7580363983,-0.9112215213,0.2541190763,-0.0457945456,3.6502844227,1.2963148744,-0.3446530387,0.0855996138,0.2448095059,1.9977959338,0.8052605454,-0.5088573813,1.1254610158,-1.850047633,3.6548963746,-0.419023269,-1.969320471,1.980407062,-2.2698759458,-0.1760386989,0.2047197993,1.3254013587,-2.6047198361,1.1898787641,2.6347276741,0.2941998762,-1.071594304,-2.4502238928,0.2847368833,-0.2367005037,3.3022581522,0.9901553089,0.1086707267,-0.5609181738,-0.5029479125,-0.9899985158,-10.0309670283,1.7325392217,0.7680529696,2.840984589,-1.9693577449,-0.6421539193,1.422986129,-0.5990839332,23.2728389776,-0.8624486215,0.7241543689,-1.9085259705,0.1675059171,-0.6920617003,1.0649430864,1.1793030221,-0.7505269598,-0.5830489476,2.5753464844,-1.470830683,4.2642405413,-0.9294715415,-0.1144326769,-2.5059469757,-0.0689789879,1.2835441547,-1.2971194472,-2.0388321595,-0.2216903076,0.5958447433,1.1137411198,3.634703784,-0.0076693375,0.5742051056,2.505297566,3.6460139783,0.3835774591,1.2054801732,-0.5856527293,-1.2658612487,0.1471663612,-3.3008002621,0.6527252426,-0.6427510619,0.3580748322,-21.9821999644,-0.5454966116,2.114095388,-1.660725646,7.6521406405,1.774518447,1.3730958537,-3.277430958,0.3821895129,-0.6401803672,-0.3718820038,1.3592773605,-0.4210935732,-0.738497641,26.1733798825,-1.4799785643,-0.782289202,8.8277573111,-4.7688439318,0.1539457215,1.4321431368,-0.974401597,1.1928262077,0.9893429948,-1.5339063566,-5.7588225893,26.6737263685,-3.5543962406,1.2785458831,0.8677630692,-0.7018854958,1.9248915207,0.5279095817,-1.2465170898,0.1094319887,-0.287157281,0.9371804889,0.0808628834,-0.0498110406,-0.74048059,-1.5047397003,0.4034128754,0.4376337105,-1.6473231024,3.7164237797,-1.3462955613,3.2490416664,0.9838341496,2.1251717968,0.3492620498,-0.7055822478,-1.2251666598,-3.6326178485,0.3654010821,2.0069329093,-0.8945732711,0.4668883099,0.1211338358,1.0416107139,-0.7251630418,1.952112441,2.2213154067,-3.2378523138,0.7215125885,1.8117992796,-0.1848151815,0.2943075471,-1.4995977372,1.879076696,-1.3059082541,1.3103532911,-0.2492772737,-0.7916471916,-1.9556667025,3.3873261238,0.5854698154,-0.9707977104,-1.8058326685,-0.8542646878,-0.8173990361,0.1152350908,0.7288811739,-0.1713335023,-0.1388903356,2.5093124869,-0.354015054,-2.3391983368,1.3947265759,-1.5875937747,0.86833336,1.5974716326,-0.8141140541,-2.8111501087,1.6925742958,2.2888072879,-0.4756603921,1.4823649201,1.363413873,2.1709944106,-0.1771253977,5.8420732233,6.7737421268,-1.4433913824,3.0365000759,-1.1452196816,-0.582688469,1.2379361877,5.3334110806,4.0325983667,14.4941189644,0.6059436118,9.688543725,18.9535653814,63.3256038188,-4.2410450411,-0.3644357776,1.4850976272,2.1212336735,1.7340165894,0.4524386911,-9.985244717,2.9107828146,0.6225440515,1.0593297189,0.3913611389,10.6489000591,8.0630486369,24.5484784634,-5.5852741026,-0.5210253808,0.5189049083,0.842674229,1.4960154459,-0.9587740255,-0.0895948634,5.0473017901,-7.278973224,-3.525455665,7.5109264618,-1.1569938482,-4.8331908077,-4.1551104954,-0.1697897056,0.3777155831,-12.0006348873,1.4725475217,-5.8350416344,-13.9894861914,3.1868595503,16.2668226213,1.1269264544,-8.1725825888,-1.0822597702,6.9683055625,-0.5424456951,-0.8769410885,-0.4725343846,4.7576601578,-0.5273723184,15.7057857475,-1.248306339,8.0250993897,0.8010596554,-0.3060436476,-0.8531932064,0.9604934559,1.8623127053,0.7780769576,-2.5368784408,0.8500264786,0.6381708449,-0.3841368221,4.1443569879,-0.9954568193,2.4383236645,-0.0113980181,0.5818153134,-0.0245421794,1.4880898105,-1.4384153652,1.0784496501,-0.4024008383,-1.0225098097,-1.9494015985,0.945450356,-1.1113399633,0.5354124917,-1.2967097591,0.3876829308,1.0374959462,0.4541924499,-1.1661950504,0.8421991014,1.550195179,-0.5912964129,0.0333387077,-2.6266348075,-1.879181472,-1.3216806219,-0.293370144,1.001304131,-1.8932230123,0.9607983671,3.0657059947,-1.7952358045,0.0222633813,0.1505588443,-1.2872910871,1.0764094792,1.0089961825,0.5917418513,2.4225624167,0.0202033932,-1.0394286551,-0.0893237301,1.3416937095,-0.3085775694,-0.4609739943,-0.3782298555,4.3130179324,0.3379916606,-0.2293380848,0.9936661545,-0.6142849643,-0.0173356563,0.8492155295,-1.2155814672,0.2963468274,-0.7173277607,0.3925643237,0.5761546683,0.1820223247,-3.0353698382,-2.7204252796,-1.2694676645,-6.6092178065,5.63697594,-0.9977762268,10.7869654048,-3.3661334781,-1.8145282424,0.9989326914,-4.0102645619,1.0128275513,2.1923059111,-0.7102675284,0.5017930258,-0.0848883384,1.5610873707,0.0322198443,0.1614551267,3.5390167545,5.9583809601,-0.7464368666,-2.3898290013,-1.5767891824,-1.3419206936,-4.2979092496,-7.4217691488,2.8436159677,0.2222906561,4.9574148167,-2.6758110657,1.59112263,-4.4317445107,3.4077078384,1.0508819462,1.2716772667,5.1502748778,2.1685923457,1.7257689035,4.8274421693,-0.6151432445,-1.315931965,-2.8867452357,-8.2691269957,0.950994465,-2.6158167104,0.0909099599,-1.8684146723,6.2334447111,-1.5548743599,0.3051816691,-0.7760677499,-1.2622211986,-1.864982136,2.6223261592,-0.7689826246,-2.4733905323,2.3782787543,-0.6475448443,3.7482146978,-0.7537673989,0.4739196378,-2.6529420969,-10.5598183604,1.6402646751,2.3550120901,2.2796112298,0.4169850624,0.1569493659,0.0091106226,0.4111082617,-0.7933279402,0.7230946279,-0.0276486144,-0.5082573081,0.7950143866,-1.6459650649,-1.3949975049,-0.3720250338,-1.5356305932,1.1596749132,-0.5791590054,-1.7147915149,0.2403314514,-0.7524596683,0.0747438207,-0.113288042,0.5826936199,0.4338818776,4.694133267,0.8913997965,-0.1676122469,1.6353687804,-0.9330509728,2.3004346243,-0.260079027,-0.3960154558,1.1298725619,0.0876880971,0.0202735117,0.53764538,0.4034834177,-0.1925287331,-0.3963010172,-1.2331277315,0.3785170652,1.8304397072,0.0663902339,-1.335157663,0.3411092563,-2.1388427369,-0.9626109504,1.5718202496,0.1165496479,2.6612286389,1.2282055081,1.0803773923,1.4521678243,1.185530191,0.9923962873,-0.0667738084,-0.8300070819,-0.5377041561,-0.1102612188,0.8962216887,-0.5952020907,1.1148773039,0.1706095201,-0.647633098,-1.1507890248,-0.3718239104,1.6079557912,-0.3867371131,0.5885941853,-0.821783595,-0.6695821225,0.0277173117,2.1157816646,-0.7924470705,1.3688189256,-0.8983856354,1.6930387716,0.0795356036,0.7650533399,-1.0653674733,-2.67812733,1.3110700213,-2.1666228665,2.2794076171,0.192413931,-1.6288850746,0.3327260261,-0.1355702111,0.7009235017,1.7988981964,0.3722588062,0.1745042222,1.2810233298,-0.395082943,-0.5816782498,-1.0865678838,-0.8979375824,0.712088569,-0.6897178032,0.9607884138,0.5669456658,-1.9611653338,-0.2900204312,0.7548376507,0.5448830006,-0.6290569028,-0.0071402491,2.9678020941,-0.3677298,1.6565809289,0.9822784309,-1.5252222903,-3.2547367354,0.5635018949,-0.6941275201,-1.0263505112,-0.53508507,-0.9848339671,-1.5875130475,1.1819514707,-0.2988705984,-0.5270095083,1.8464333352,-0.0704904066,0.4356862118,1.1641069068,-1.0610137951,-0.0060661535,0.0512405154,-0.3341040032,1.7646473497,0.4564218436,-2.9738244632,-0.9018357255,-0.2164502946,1.4596224426,-0.3779514542,-4.3636367325,0.2107284356,2.1742253698,-0.3371969418,-0.1422879849,0.4201146006,-2.3083456478,-1.9199232493,-0.6746153879,0.5373618728,1.0736085134,-3.6003550111,1.391461491,-3.3241873041,-0.8717166793,-1.1764078372,1.4633384947,-0.2946593098,1.22989306,0.0201294019,-0.2797491017,-2.3091301998,-0.8027632302,-0.692637046,-0.3017930436,0.397278038,-2.2412511873,2.3043671976,0.7133264899,-0.2053775606,-1.5053811097,0.1075571261,-0.4524278865,1.7696630103,1.0715093489,-2.1730103167,0.242778805,0.3482161128,-0.3638395017,-0.0485103993,0.0033568082,-1.5052515155,-2.1182209361,0.0586739377,-0.7739666403,0.1183619141,-1.4283085,-1.1014656294,-0.860952811,0.6784041559,-0.335551727,-1.1468395461,-2.5979784208,-1.0127162691,-0.3395281512,0.4902069042,-0.9652558182,1.3012144423,-1.5349853264,-1.1979677258,1.671152611,1.3363273257,-6.2433817879,-1.7018705659,0.9772234614,0.1741598877,1.1002824994,-1.265736482,-0.9727889315,0.4784909557,1.2233343643,0.3835840531,-0.7189633861,-1.2895524833,-0.7310175217,1.1911684001,-0.9813857752,0.9306634923,-1.0952570871,1.9899231112,-1.1675146458,0.0658992026,-1.3427412142,1.4586972106,-0.1329164781,1.7418670009,-0.5054090068,-0.8071740999,0.7988448397,4.3114436885,-1.732526533,1.3666912868,-0.2340217126,-1.5869402961,0.4839279297,-2.4026086678,-0.0249670802,0.4341624423,0.5983331583,-1.6484103797,1.0735917899,0.4502951725,-0.8995853648,0.7848604996,-0.4962768302,-2.8258553437,-0.5407044086,-0.0482700626,-1.2307270846,-2.8753528181,1.9750619565,-0.9791571657,0.2699071634,-0.5813460806,-0.4997700626,0.5282073984,1.8848903507,0.9601699256,0.1983028634,0.6218319708,-3.4576783649,2.8106081815,-1.5457975669,-1.2196116486,0.9403671495,1.6016806585,-0.8400132311,1.0729048376,4.1631381587,0.4109725894,-0.886703905,1.1688769559,1.5465905424,0.5058808761,0.2700430521,-0.655761976,0.6985559112,0.1969350828,0.7947466854,-0.0166172966,3.647485833,0.8128601645,2.3799021427,0.3666471314,0.5221374169,-0.3068959645,-1.5784624955,-1.1497129586,1.001491418,-0.9280738255,0.9076420878,0.945693417,0.1387137278,-2.9964282324,1.4402643185,0.5786244295,0.2147670206,-0.6554469816,1.4525774664,-2.7725248001,0.8704474686,0.4101566974,-2.2760156434,-0.1709700289,-1.0379941656,-0.3997364284,0.1448717517,0.0092859075,0.1420197809,0.6659151047,0.5433629247,2.7074829586,2.0299200847,-0.0703588888,3.6432339732,-0.6684362941,0.1852238939,0.8560732541,1.0619692699,-3.8390483972,-0.6357835244,1.0168697012,-0.6228977688,-0.5060030797,-0.3799327695,-0.4978510431,-1.0476874117,0.607258007,2.0342634115,0.1268275161,1.5858096402,-0.8308677801,0.5158288646,-0.5309649634,-1.3199051622,3.2332663122,0.7307981929,-0.9921369948,0.1604969987,-1.464077007,-0.4701664607,-1.0980991357,0.0493381999,0.741428259,-1.9819482953,1.9769859298,2.9741985443,3.0947810129,-0.7325504646,-3.2810132519,1.4579691543,0.7772158323,-0.6062807769,0.575886956,-2.4013153038,-6.9505138409,-1.582909017,1.2547510757,-1.6595337275,1.0119227434,0.1954427127,1.5028703738,3.1776547297,0.9465147429,-0.5618471729,0.7512152329,0.2881261737,-0.1075199088,-0.4179570753,-1.6733699112,-1.6717101147,-1.4597668589,2.1761645514,-2.4146450308,1.6461386392,-0.0895637684,0.2032049654,-1.3060242754,1.387521582,-1.663521453,-2.5553709501,1.3623028145,4.0304932451,-1.2933664318,1.3049370184,-1.0840921105,1.457485475,-2.5221057647,1.7566016697,0.1636273904,2.0050156409,1.0900028996,-1.1995781451,-4.1213198171,2.1757305302,0.9963616952,1.4589929396,0.04573228,-1.5964586318,0.0308540112,-0.2895443555,0.7138707812,1.2525764592,0.1971377316,1.0213866276,0.6831589661,1.1621471265,-1.5796310434,2.1485207013,1.4227325336,-0.943125644,0.5828222072,-0.3474748164,-0.6963672129,-8.0696346381,-1.4479826985,0.2057187231,-1.6202974603,-0.7776564218,-7.2565841179,2.0924415522,1.5220150922,-17.682559674,-0.8778699259,0.1161086659,-0.7385243266,1.1103080327,2.1264711296,0.6829310779,-9.1571257712,3.3141561133,-0.8704366118,-8.1268153815,-5.9136347667,2.400475961,1.302623868,0.1598187066,0.4832763113,-7.5538265275,-1.143863979,-2.2524785902,1.1965267636,0.7478792838,-4.4188991757,0.3564965304,8.9804667218,3.1609738131,0.1650288238,-3.4865908228,-0.4851536689,-1.671754646,0.9958262379,-2.5824960401,-4.0477905756,-3.6090567303,-3.3004530279,-8.4684504249,3.8991806698,1.4591217231,-0.0100430943,0.5995925023,1.3148037403,1.6495135441,1.2506913779,2.4813601486,-2.5511761215,-10.2695052974,0.2984997447,-0.3314073237,9.4080585116,-1.5602711299,-1.9145481375,0.2399256613,-0.8508307174,1.2254810249,-1.9023919887,1.8620725481,-1.9915294646,2.7579760291,0.2680374455,0.8146016089,-0.5916390404,0.2254515014,1.7283083365,-0.7547676026,0.2550533627,-1.4029945409,0.1532675189,1.893680213,5.4387273588,0.214644705,0.3150345396,0.1973054861,-1.4981685655,-0.1220944492,1.9560908991,-0.7922578759,-0.5142618132,-0.0387748194,-0.4649244989,-1.796043513,-0.401184997,-0.8128268785,-11.7123121815,1.2414610705,-0.3179465966,0.7094082001,-0.0092593195,-0.4706259379,-0.215042352,-2.5853382442,-3.7575260257,-0.1650065689,-0.7488591555,-0.6254073106,1.2699096103,-0.8196811021,0.5903220028,-1.432144853,6.9259799636,5.2229403295,-1.2467441184,-1.4366485814,-0.6399104773,0.4883365816,1.4358373015,0.6262013874,0.5221747935,-0.888484995,1.0921610837,1.1305297556,-1.0408566014,-3.2178763325,0.2936611713,-1.765026113,1.6615390915,0.8763896575,1.3059854312,2.6430863118,-0.6339143141,-0.5265567084,-1.5186118744,0.63277073,-0.4979088676,-1.1122094347,-0.302083564,-1.2800538802,0.2860225961,1.7186854428,-1.3074812844,-0.1304793471,-0.2403676217,-0.0633433082,1.1656212256,-2.2366378757,-1.1344633925,-1.817962754,0.0680848059,-0.1130663125,-3.7973327063,5.7998845803,-1.6579015725,-0.4851350123,0.7236759888,4.9331756373,2.0610188387,0.1543867733,0.803093762,-0.6861183354,-0.6285238876,0.078317822,0.74163167,0.8323098722,1.580390112,-1.6531026147,0.0316420419,-4.6413692757,0.0930059052,0.3915321022,0.0108878461,-0.3554186842,0.2631303732,0.2926642118,-0.0050772139,-0.2260007938,-0.5453337143,-0.5211953635,-1.7380073579,1.365347634,1.2525332337,1.76743833,0.1410715562,0.9695538876,0.3845029809,-0.0552249444,-0.9694985045,0.0219162377,4.4535779416,1.4173193996,-0.9801779684,0.3467905242,0.1878220093,1.0928152009,-0.6527082523,1.3482157462,1.2158227375,0.3221630024,-0.4636463435,-0.61171147,0.3747710206,1.8253036561,-1.7101294958,0.3657933005,0.6350844324,0.1066598902,0.2222373902,-0.3237726778,2.1449629076,1.114462345,-0.8099033228,-1.4120953652,-0.1192309705,0.0111330053,4.5690982721,0.0277001021,0.120588314,2.1663811102,-0.6042806543,0.6415162984,-1.7938054315,1.5264403503,0.7673021339,0.9390139753,1.6791218018,0.8591728273,-1.9028205193,0.9627957222,-1.0851483369,-2.2704745429,-1.4988862908,0.014867301,-0.2213593267,0.3150381884,-1.0079240023,-0.0532556458,-0.0122134386,-2.6092890604,-0.9692236359,1.1831771229,1.1762313813,0.2737527193,-1.7103212928,0.3787505157,-0.6980453736,-0.5633771208,-0.2424119533,-0.9126552455,0.4641672708,-2.0340017413,-0.9671520188,-1.4435392027,0.2107860006,0.1518346378,0.07811928,0.3390625009,-0.0927958283,1.1115946581,-0.6307013523,0.8784112964,-1.9033181921,-0.799298064,-3.2042988686,-1.5436430882,0.3155664235,4.4994381474,0.3559865243,-1.609248514,0.9039892846,0.2040153919,0.5545306443,-0.1174251767,-8.6922962595,-0.2523766127,0.1985405842,-3.9922757783,-0.821245689,-0.3961285754,-1.3765530217,-0.3636614525,-0.6024275394,0.8922692421,0.3431992178,-0.9000182424,-1.4941886376,-0.8931223668,1.0584152371,-0.67763532,1.0359980719,1.3147980757,-0.7712960252,3.7842758542,-0.5092109922,-1.5007331459,-1.4658758869,-0.2673510887,2.5913636756,-4.5461521621,-0.5863499323,1.6557763216,-2.6442903237,-0.2500300786,1.1214141904,-2.8944158898,-0.2597874565,10.2210211474,-1.0068408406,4.9316956533,0.0876707802,-1.671818012,-0.3176962437,1.1788409112,-0.5999421267,2.051489198,-1.4388653313,0.4937670962,-1.3093630534,0.4114377319,0.2322980112,-0.639524491,0.6257929592,1.5124344794,0.1951562803,-1.7270389313,-2.7029868523,-4.3715598277,-0.252967092,0.7127445705,-0.3307622967,0.8574594665,-2.1318964654,0.3071231264,1.6274022206,-2.3320473317,-0.3400493788,0.9806594244,0.2734188817,-1.0148724981,-0.8432461354,1.7258823672,-5.0895646444,4.2205388861,0.4979090551,0.2275943536,-0.5457501474,-0.4923508459,1.013343945,0.1070828633,0.0919916069,-0.348079255,0.3421461129,0.8255325817,2.7559863921,-1.2996359572,3.7319175962,-0.3700562598,-2.7638230674,0.0691040723,-0.3860624421,-1.733610194,2.1621715456,1.3406316368,0.9951093391,-0.8288507,-0.3185821483,-1.2037843206,1.8368223314,-2.1256062231,-0.1946017775,0.7066349122,1.2769629179,1.022934678,0.5219266128,-0.7770433964,1.0751786805,-2.1157747093,-1.4853524581,-0.6176998654,1.8201922247,-0.6510096934,-1.8475684439,0.5550633917,-0.7644275511,-1.8295667352,-0.0216487041,-2.3622244111,0.0045016787,0.1321368058,1.8738946447,2.3179794466,0.1178864703,-0.6407473841,-0.9896214532,-0.7042566845,0.6888056855,0.764954387,-0.7304290642,-0.0555231316,0.8830176866,0.8161143475,0.9281965197,1.352506061,0.3532478697,-0.1822646276,0.1997713283,-0.0400254258,1.5996819061,-1.3262703859,1.0329425648,0.7355817788,1.8983418734,-2.3276061102,-0.8525749904,2.4518608075,3.43023252,0.0515674465,0.6880704094,-1.5891010763,-1.1727806148,1.059140548,-1.094122403,-2.7430095957,2.068184978,-0.7278532985,0.1551116134,-0.1729118949,1.6244383268,-0.3810394022,1.3227204811,1.9015779121,2.0735073965,2.7235362241,0.3080785579,1.4428415955,2.0747942812,-0.2876081595,-1.1140968163,1.7546454146,-0.3206376507,-1.2862740541,1.161813982,-0.1326405395,0.1898199431,-2.1189423123,0.4608009379,1.369796693,0.0340663315,-2.5811780368,-0.9577332641,-3.5373971713,-0.0591296086,-0.6882591762,-0.6835138042,-3.3958894514,-0.7060332319,-0.005538405,-0.0167674388,-0.2043453571,1.8097686663,0.8031773968,0.1377050678,0.6058977493,-1.4062883693,0.4109711197,-1.024508226,-0.5029304284,-0.603326092,0.0531952431,0.9250920986,-0.3433899289,-0.41469933,1.9122979921,-1.9092537487,0.3177787452,-0.2035045961,0.2454124733,1.0657993241,-0.5307849085,1.8775388642,1.0672342971,0.4082162101,-0.8045892422,2.266782643,-0.3224541585,0.4258607186,-0.1266354304,-1.8313296857,0.5730578795,-2.7826259449,-0.4477956901,0.2813109996,-0.1185460113,0.1308004937,1.3082889597,0.2952469708,-0.6414966832,-1.568078376,-0.9875950568,0.5081148559,2.2910956486,0.5140957637,0.6558133981,-1.2676515017,-0.7163863469,-0.4976434735,0.5009125711,0.0479779256,-1.61758573,-2.0156194095,-2.9931733729,2.2707653571,-0.1662203382,-0.062477135,0.7199422866,0.5109613156,-0.6355067052,-1.9105049414,-0.0633772498,-1.2541015594,0.1256533508,-0.0822012569,0.0574522939,1.1653712132,1.0884154538,0.9517994455,-5.1504216281,0.0445174334,-0.0259027797,1.4523324531,1.4606893415,1.7951078862,-1.8661410961,1.2144601964,-0.4780601553,-1.8867812042,-0.3265269788,0.8682760624,3.1654627445,0.8922714057,1.8129937758,1.863691174,-0.0490491666,1.1763739173,-13.7411522617,0.7969630638,-0.532679065,-0.0049871196,-1.9899456233,0.4130973962,-1.551155484,9.1505159224,1.558895837,0.6107978799,-1.8739912113,-1.1602639591,-0.0779927828,1.0653832833,1.054590441,-0.6437830095,1.3958080997,-2.2419652293,0.6643110569,-0.3015562315,0.4775607608,-4.8702771588,0.1469367982,0.5796824986,0.1936145876,0.4965602125,-0.5938691962,0.0124141998,0.0068685498,-0.0169721216,0.4456705874,-0.5669679424,-1.672501167,-0.7841514949,1.1408747005,-1.447875114,0.759443386,2.7938941001,0.8252038113,-0.7722206129,0.0888758132,-0.1413186017,-1.7993442377,-1.1580362239,-0.1110339691,-1.087638308,1.3157246529,0.4469671411,0.3801649587,1.2476578694,-1.770213469,-1.7247297257,0.0873206466,-0.2581286822,2.3168450727,1.4637457889,-1.8086346774,1.2204477771,-1.9970867264,-0.8291904062,2.94434411,0.6989734646,1.4999384444,-0.8186645465,1.9002064427,-1.2751794014,-0.1820427364,-2.3578707336,-0.7938478713,2.0211348175,2.6726396662,-1.9968442008,0.7717203553,-0.6726972638,0.4182273769,0.0798873442,-0.1238301784,1.4967362526,1.4364831384,1.3838155522,0.7844567559,3.3759875422,0.3860922127,1.2174580549,0.2691992585,0.6765650762,-2.3679146547,1.0949466876,-2.875080853,-1.5565299082,-1.3642238856,-5.5363053575,1.3195191199,0.6696265803,0.1251455435,0.573175369,-0.7215617427,-0.2557457106,-0.7375572024,2.2596864893,0.6099341216,-1.9993898825,-2.2170979413,-1.2004454335,-0.1190197526,-1.8761582736,2.0280977003,-2.0952503836,-0.6597891742,-2.1548673104,-0.1191116851,1.9082450067,0.4637858722,-0.7010667846,-1.8352039543,-1.1003675212,-0.0116535226,0.8075251632,-0.6359858874,-0.0151198223,0.0010191192,0.6574854382,0.13687673,-0.6902035284,-3.0067931462,0.5875170741,0.1240070909,1.1929993054,-1.0742120394,0.9823946924,2.9634938205,0.9744021642,-0.7561856427,0.7702186054,-0.3542186019,0.4579999088,0.7297210045,2.0565471712,0.3553844283,-1.2611845886,-1.8892589644,-0.1526770516,0.279686314,0.3011863884,-0.8993173125,0.652246088,-4.6916993081,-2.9542324855,-0.7801437771,-3.6607223361,0.7181561053,-1.0211452199,0.1045947084,-0.6424332622,2.5095270388,4.2866594282,-0.7545635789,-0.558044305,2.2422279923,0.9505525454,-0.0259762305,-2.8138014814,-1.351104215,-0.501828137,5.1233728196,-0.9869795512,-0.604922773,1.2481501004,-0.5886291101,0.0172846487,-3.129785956,0.4350129387,-0.6917051858,0.3652998216,0.0910867389,0.5316888579,0.0134306845,0.4109080772,0.5966177243,0.1963464861,-0.2081243135,1.1590453495,1.428897192,-0.1803533389,-3.136021868,1.1661363345,-2.0500903431,-0.9149540904,-0.4494794523,-5.2267373474,-0.6653982838,0.1199746055,1.3503259932,-0.355688741,1.0255948083,-0.1265773578,-1.9914104117,0.3763300938,0.7711673712,0.248512135,-1.5327123809,0.8945995345,-2.9405713076,1.483067542,0.983831774,1.6036831586,-0.7769472787,-0.5506010616,0.0751288099,1.1521272048,1.5573753215,-0.5616422723,2.9923596699,-3.168525324,2.3905721371,2.4925760396,-0.1428401713,-3.6075284163,0.2549947765,1.823903424,0.9793598034,0.8313255103,-2.0193963008,-0.3677228008,-1.0051302579,-0.6182566768,-0.7721580838,3.6406278805,0.8083921684,-1.2416560935,-0.8086572101,-0.7079416932,-0.4794676489,5.9645462387,-1.1536209027,3.1412781608,1.4184870981,-0.7744422465,2.8820695166,-2.5451025762,-1.2341894451,-0.266242048,-0.9832654926,3.7728273275,0.7037596386,2.9262319581,0.8883964122,-2.2729555449,1.2679569812,4.972414348,4.184680182,-0.4195791525,-3.0420739486,-12.4285395017
   -1.4094381337,-0.1945813983,-1.9164010956,0.104191282,0.7966647586,-0.4119063853,1.3409349377,-1.0517480795,-1.5418610233,-1.4072396726,-0.3152706216,0.206524358,-2.1657756764,0.2736384469,1.1487649489,0.2540230858,-0.1158849658,-0.7429297521,0.9001770425,0.4593902222,-0.3119147159,-1.1894478681,1.0463385215,2.3675627171,0.8305132217,-1.3005024561,-1.8971704669,-1.0892526314,-0.7659501338,-0.6998589978,-0.9460425044,1.051837449,-1.4360263655,1.4744554168,-1.2254831809,0.4012556205,-0.2745685454,-0.7573751649,-0.2543338963,1.8765434632,2.0220015031,-0.4525838247,0.6263741951,1.1344312715,1.5941182461,0.0203025791,1.9382264729,1.2596339782,-3.4621499825,1.2138970211,0.6235487815,0.1225840018,0.7694013162,-1.2543565265,-0.5960563106,-0.5603040982,0.1862188368,1.7091809714,3.4806110773,-1.4564524949,1.421059608,-1.2874958114,-0.6597806536,-1.2245583146,-0.6587165161,0.4652491127,-1.1622393793,0.4469820463,1.0952084112,0.9196789646,0.9118509436,-0.6436877412,1.354118902,-0.3415891904,1.4896224355,1.2858762586,0.4562376029,0.2154380738,0.2794503817,-1.7472735779,-1.6123815758,0.6128849955,-1.8355440942,-0.2416763682,-0.1739292179,1.3525947219,1.254743272,0.0786070115,1.3575522333,0.0588301494,0.244392167,-1.623226493,-1.5288629204,-0.1850351416,-0.0512958639,-0.1904119538,0.5980045826,-0.9822820873,1.6104617064,-0.146434464,-0.3184956959,2.0296336933,-2.2437210564,-1.0290691479,-1.9981072696,0.0133934967,-0.1083267233,0.1307794229,-1.2522786643,-0.17834232,1.6032419913,-0.3596917441,-1.5440285528,-1.49554832,1.5254961715,2.0618210107,-1.4832717671,0.05776479,1.0209832306,1.9096640567,-4.4090148181,-0.7549439338,0.4342447763,1.4693502169,1.0391585188,0.2502412775,-0.3124781406,0.6037664807,-1.4445976636,-1.3196918509,0.4288331762,-2.0087994278,2.4421403108,0.228231015,1.0023331787,0.8632710231,-1.4336548713,0.7384857858,-3.8012333573,0.0854047733,-2.2016445436,-1.251549075,-3.4491649505,0.2820934631,-0.4659005737,-2.9051389003,-3.957460804,0.2631996162,-1.9349035556,0.2055678541,-0.4157328474,0.8331043818,0.0697372467,-0.1050948404,-0.0790883305,0.5153856213,0.0747098388,1.9815132467,-0.6952869634,0.5441630972,1.418410517,-0.1344526607,1.0092227504,-1.2225348929,0.7525921537,0.9297808151,-1.1945278717,-0.9536486921,-1.824714238,0.7581917814,-0.2528113433,-0.9956827639,-2.9102930761,-0.5102653467,-0.0435940592,-0.0425122312,-1.2902126209,-0.1306433521,0.9063556656,-0.1598520762,-0.2605682401,-0.778093327,-1.6841204742,-1.0746750687,-1.9708969271,0.7436552319,-0.4016577199,-0.4528220236,-1.3211495326,0.5673537977,1.9603823366,0.3445011019,-0.3641130673,0.2905997526,-0.1940123679,0.8813684715,0.7377680297,0.4356955425,1.3824201511,0.4521092818,-0.6767503963,-1.0363929225,0.4751701999,-0.0251288864,-0.2502899747,-0.280343482,-0.211302881,1.6241311487,0.2237408644,-1.7507372166,0.2234209986,-1.0077090078,1.5163499129,0.8577191603,1.2739417282,0.8413580169,0.583776854,1.0627041826,0.7503781127,3.7681251091,0.0174564373,0.7497871443,-1.3253646975,0.0751196609,1.7901204877,0.5175136928,-0.0578004304,-0.7987119989,4.9526949118,-3.1341598796,-0.4925205361,1.6455171371,1.9124581831,1.3037335128,-0.8268670201,-0.6441544269,1.5286191724,-1.0399953085,-0.4544070242,-1.62273346,0.8714331948,2.1680173285,0.016507562,2.7648766811,-4.2828613501,-0.4694174633,-0.0084820931,0.0056898398,-1.7139921714,3.0867780665,-1.5688647453,0.3274046031,0.333812022,-0.6287051007,-0.0111831784,1.8387742531,-0.9320220891,0.0346109382,0.7090587276,0.4628872571,1.9918066031,-0.0134680196,-3.7741807362,1.7737288839,0.6087204456,-0.1469978181,-1.9057285436,-0.611907834,-0.042908096,1.0914605878,-1.3212543629,-0.5409169522,-1.225503151,-0.1092213488,0.4224295471,0.3275437348,1.1926673906,3.867210932,2.9996408957,-0.7599365055,-0.6136992876,-0.1612839817,-1.8536467822,-0.5379690127,2.1302614594,1.1099375092,-1.8615086577,0.7109379375,2.1626004444,1.9083047864,1.657410276,1.6402410628,0.0312425269,-1.3841457689,-1.1935291482,2.0234077647,-0.1319280643,0.2293680208,2.1472888821,0.8251453797,2.0742086726,0.1550890872,-1.6887305183,-0.473623991,1.0309704683,-0.5414945487,3.1849397444,0.9091191356,-0.2077499938,-0.4198579359,-1.1545752696,4.6544243605,0.5734130617,-0.6901198072,-0.4486312623,-1.2918793539,0.0375149481,-1.2899716566,-0.6163680088,-0.2196063517,-4.3714281859,0.739402572,1.6116768623,1.0718919058,-0.5979209616,0.1611091401,6.0311943573,-2.9240424124,-3.3444791603,0.5800094077,0.5944058096,0.3630643149,0.1094220288,0.1747742233,0.2842178313,-2.0082074992,-1.6718767124,0.2373729586,1.6551376075,-1.2310347552,0.9471110087,1.8712002533,-1.1769754986,-0.1973500989,-0.9644325339,0.3244014656,1.739083655,0.1839886268,-1.8772846529,-2.6529158719,0.1918159202,-2.1268145764,0.4632439821,-1.4719194769,0.6235797318,-2.2740102353,-0.8124618489,-1.987400797,-0.972830752,-0.4015154085,3.2297158806,-0.4899192483,0.5562763952,0.3235269803,1.5717522153,-1.9611632797,2.1855031889,2.3630216747,1.1409268026,-0.4343700014,1.7244340325,-3.2624518259,0.9967596387,-3.2759008424,-1.935837111,2.2816865002,-0.9693329982,1.2452639114,1.3606566988,0.2166829788,1.0083291365,1.2110859079,0.2993683388,2.3541441703,2.0445157193,-0.4381622553,-0.8170391295,-1.9325065649,-2.7593416363,-0.9307497189,-1.5999603335,2.2833611142,-0.5575503556,-1.432880746,0.4933906985,0.6574718632,-0.4354999467,1.6107237231,-0.8606844636,-2.6401787719,-0.2228328445,-1.0508416904,0.7578445736,-0.7336331033,4.6851058423,-0.746617302,-0.4966533496,-0.6732315557,-0.0434487291,0.0600447429,0.4161869631,0.0065076482,-0.1746502276,-0.7513970997,1.5922359822,-1.9966989923,-1.2060781584,-1.0594705128,-0.1318970092,-1.5379869056,-0.768242944,-2.1305659367,-0.8263849027,0.9364524849,0.3824421047,-0.2528898381,1.0150674821,-0.7352328042,0.1646269097,0.8770038784,0.1962254922,-0.410952937,-1.436944547,1.5363826357,0.3983408096,-0.5606771277,0.0630264304,-1.8943400082,-1.1079239907,-1.0244978219,-4.2539072129,0.841663372,-0.2422223693,-1.4030688718,-1.1453205274,3.2431934996,0.7573705409,-4.4623768887,0.338052679,-5.0022109201,-1.0407803975,0.0605371853,-1.519393263,-0.8440366771,0.9654557917,-2.6046923587,-0.0766149739,2.212239303,-1.869378029,-0.1168374357,0.8831163106,0.1934857524,-0.5198016671,0.9159339469,-1.2544811925,0.6613544724,0.2342135725,-2.7276395622,-0.4821163379,-1.4746739676,-1.1908297632,-0.3511516747,1.2590859193,-2.466772786,-0.4000027746,-3.4746423159,-0.0138571603,0.1297151754,0.4613950365,1.8273565855,0.0876901203,3.9187849301,0.8286569146,-1.6617814885,1.2127575696,1.0949619089,0.0007889094,2.9978626131,-2.9124490514,-1.0425245291,1.1652675086,-0.0788043257,0.2584616234,1.2917048233,-2.6004571169,-1.5522570317,-0.2749901023,0.1489831824,1.5818892324,0.9864087,-3.1795825368,1.5105697811,0.7746717311,-0.9385905671,-0.1061004649,-0.4866047815,4.0559597356,2.0040908869,-1.5441124932,1.2085772705,0.6333875928,1.8566047012,-3.3327696231,0.0947949684,1.5726850287,-0.0364666393,-5.6323518545,1.0570255063,-0.8339845144,0.2731801529,-3.6479132385,-0.8798846003,-1.5232506692,-2.2361252232,-0.8538302213,0.711585233,1.96763531,0.4748218348,-0.8954707188,0.4161066146,-1.1442826232,-0.0498986532,0.7313496904,-1.3516867533,-2.5033787599,-1.6754584113,-0.9636943817,0.4680470387,-0.1150387913,1.7497967601,-0.9121707537,2.9082015034,1.8025353771,-2.3428756462,0.4066967461,-1.9518804611,1.112467533,-0.0137901412,2.0281821049,-1.3556004924,1.7633826712,-0.8854253361,-2.0626154576,-2.4757262542,-1.7502255945,0.2457235524,0.427352109,-0.4229096584,1.5649209905,1.1754712193,1.5447470534,1.0963312229,1.2421805356,1.1248140537,0.9318903521,0.9945036474,0.9316849955,0.8230395229,0.8857774937,-1.3194548661,-1.9288213136,-0.5900386857,-0.3803606476,-1.5683370345,1.8458295899,1.0120861666,0.9987308594,-1.7358239253,0.2904527026,-0.4613389142,1.5529596191,1.1163943917,-2.1373818604,-0.0721758929,-0.2501551041,-0.3948726895,-0.0760299754,0.5411965775,-0.1570948602,-0.9697102524,-0.4301270347,-0.433560496,2.5254110368,1.5297375588,0.9170515948,1.012143956,-3.1383469702,-1.9366260343,-0.5930204124,-0.1785581796,-1.3864294935,1.2953148235,1.595812351,1.3457076875,-0.5218087773,1.5151043346,-1.8520772355,-0.6841641598,-0.7392225403,0.1591595351,-1.950465683,-1.5748190296,-0.358527451,-0.2057675293,-4.2379661641,-0.8216724587,-1.6937163954,-0.8702732294,-0.9549436763,1.3784386155,-2.5151826196,-1.1118000976,-0.6275000122,0.2678906129,-1.5975021043,-0.311443961,0.3483490941,-0.8832784076,2.7703937494,1.1332915599,0.3301241442,0.6803028576,-1.4573289948,1.4658175588,0.1568600017,-0.6657354978,-0.8680849157,0.5862811278,-0.4144603947,0.6874201762,0.1154566736,-1.0945568883,-0.9086985548,-1.2823839135,-3.8852284413,10.1083594311,1.5380211119,0.7356717081,0.912952282,-1.8612983932,0.3579593716,0.2542337752,1.0009685518,7.481683687,4.2500431787,-0.3509934989,-1.0180031085,0.3837442777,-0.9029553331,0.174173057,1.8728179766,-0.5999709431,-2.3308817928,1.6100109729,0.5430110095,0.2197600644,0.1802365459,-0.8286160848,0.478159134,-1.9514301543,0.0089603724,3.0889829613,0.1588662787,1.272154319,0.5147233097,-4.470786307,1.2784425785,-1.8311242147,-0.6070169011,0.562847551,-0.692657449,-0.1080815752,-0.0320655023,0.257221607,1.0876582219,3.1204621525,-0.3706400707,0.8523864035,2.5911299985,-1.5344710832,0.6994534618,-2.4855631889,1.2577078968,-0.8856906323,4.7057003937,1.3555945165,0.1701874862,1.1561760823,3.1271303662,1.4748751464,-0.6198022328,0.5382672682,-2.220626937,-0.1853464584,0.5213475622,1.2657985063,0.5604130144,-1.3565826021,0.472469085,0.8616803987,0.5592007583,-1.2029687454,0.826825368,-1.8041303361,1.8101159392,0.0512219598,4.6317149363,0.6789546596,4.6281679575,2.8301069454,-1.502766905,-2.1627578574,0.4894513095,-2.2343162059,-0.0246561564,-0.4772621762,1.8455579987,0.3470468841,-0.6225476007,2.0793964705,-0.8314793248,-0.8550724474,3.5403859219,-12.2964598234,1.7566568363,-2.4503812978,0.7169235709,1.2646997238,-1.218439394,2.3946142297,-0.2879575897,-0.5882531308,-3.0719911882,2.9248158232,-0.7964639516,0.9759126317,-1.5169895622,3.1446561356,2.253448626,1.1988044997,1.0004468435,1.007593353,-3.6092409833,0.5938441887,-1.809240789,-0.6921072884,-0.2711056118,-1.2565950256,-0.7187533967,-0.5241214113,-1.5128853155,-1.1945832162,-2.2229622857,1.3758525714,-0.0899508372,1.61945852,-0.0025230594,3.3504287975,-0.07641055,-0.8471232503,-1.2938476658,0.6140545866,-2.1690084646,0.7560136802,1.1300071274,-0.1421262279,-0.563385974,0.2601603043,2.3690798119,-0.1509550882,6.099063989,0.6119500416,-0.2579486765,1.3880404151,2.4369476285,2.6225599449,2.133693296,1.1346760771,2.2561088359,-1.1210135532,-1.8954001538,0.6706112485,-0.6150944286,-1.1655063307,0.0586778246,-0.3117986925,0.6863866844,0.5242822263,-0.5291373281,0.3997870426,-1.258038282,2.3038537441,-0.9214846968,1.279052706,0.2639131949,0.4178008737,1.2233972749,0.0624496963,0.6647208851,1.5526432406,-2.6276924308,2.2227087411,-1.3315620532,0.694714707,1.5764473076,-0.1006192043,1.2469182276,1.9125026687,1.8678134242,0.1631120847,0.8655112287,0.782057643,1.4693408753,2.1393335318,0.6935787601,1.5223699855,2.4518259486,-0.0287138888,0.5688560518,1.9243303906,-1.107158924,-0.5431357861,0.4992688867,2.5894693735,0.2876446214,3.0719634487,0.0010383532,-1.8136161,-4.103237041,-0.658922507,-2.0632249143,3.7663372535,-0.6293429053,0.282076265,1.1296216075,0.6355710015,0.0726636537,-2.8420174364,-0.1119949738,2.6756343638,-2.3244143619,0.8228403977,-1.4915645993,0.173345199,0.6497064022,0.3000815704,-1.0201001633,-0.055928082,-0.4301913919,-0.137612992,-0.4270318714,1.9997740473,-0.9058870063,-2.9572166656,0.3399807821,-0.2504736007,1.3314441048,0.209895414,-0.2997304565,-1.012265497,0.4135531315,2.4614922409,-3.2388846496,-2.3785939346,-2.4441471599,0.2312726411,-0.4770509686,-2.0872948589,-2.0239499311,1.3715629938,-4.8926158208,2.9375975178,-3.7852204338,-1.175518782,-0.7137122898,0.4695292743,-4.2375449331,-1.7810425906,-4.6083806819,-1.3985584908,-1.6541755625,2.9954679491,-0.0936922823,2.5999717972,-1.5321863711,-0.2787400492,1.2621089825,0.1440970445,7.7947254859,-2.0269726806,-6.156841283,0.6440025663,-0.2066071382,1.3253038134,-0.1034416647,-2.6846781232,-0.6859974081,0.3377224299,0.9711914953,1.3743424718,0.0652606078,-0.5283347189,-0.4087518257,-0.7402505155,0.5063981349,-3.4661525923,1.4154594247,0.9956669452,0.4376417918,0.2775596399,-1.3718857909,4.6318397213,2.4727880713,-0.9234788342,-0.9479064482,-1.3117985595,-3.9926429377,0.9470201009,1.7278312729,2.2946384314,3.5667625998,-4.9320061556,-0.053481594,0.539372511,-0.1808063589,1.903775906,-1.6429046189,1.2468724967,-1.1164715745,-0.7515376109,2.2613921825,-0.8829236873,0.2565897118,1.0820931586,-0.3634216459,0.723051796,0.4033546231,-0.688474724,2.8597938197,-2.1087491771,-0.4183380152,-0.0722869776,-0.2199002325,1.8253767467,3.1295156971,2.9912938369,1.2363021985,-1.399468243,0.3504404528,-2.3239076131,0.9778985741,0.9167899462,0.1513265171,-0.8917316312,6.8120414818,-0.9318066231,-0.2649020342,0.8918518568,-0.6813414077,-0.5175245027,-0.1930996029,4.1340228376,1.5615599563,-0.5944570441,-0.340578071,-1.6245896563,0.9291499431,1.8478491363,-2.6991440246,0.5582860428,-4.3802778029,0.0964899402,-1.2161922886,-1.2132979964,0.925851187,0.3687810611,5.7158449733,0.2331308816,0.2537208025,-0.4628809227,1.5764753083,-1.9597909951,-2.6621767251,0.9882161305,-0.2009119133,1.2759204698,-0.4044223137,0.3780362462,0.3283281889,-0.4186577204,-1.1598588451,-2.3711623813,0.571014092,-0.5901372408,-0.4981537369,-1.1863690453,0.4660598306,-1.2564573165,-1.2083209834,-1.4563449581,1.485663934,0.1248206933,0.5924059922,1.5575288673,-1.3309036793,-1.6296763036,-0.3572270811,-1.4508643765,1.7942908522,-0.3451442906,-0.6345329351,-1.0555953809,1.1972044033,1.9591491941,-1.5051054364,1.5049834159,0.2201878461,2.0629576503,3.9265386374,1.5497126083,2.1967754903,-0.9705097038,-1.1172792118,0.6051911818,-0.0161868444,0.6413080758,0.0908533625,0.6343690242,-2.4041479031,1.4194955304,-0.5743905755,3.2076809232,2.2283009359,-0.4401150211,2.0216399129,-3.4433891689,-0.2224177109,0.7879418863,-0.5853148135,-0.6790271844,-1.0444301087,-0.3831692982,-0.3567448117,-0.9217618379,-0.754402406,0.2750361347,-0.6474629623,0.477953457,-1.2738319492,1.5012285521,1.8184596677,-0.4253143974,-0.2282680941,-0.9719664829,-1.8645472774,-0.7832045132,-1.1603896511,1.5447560363,0.1777059973,0.4066662304,0.0790886339,0.8411638912,1.6908842572,1.346754275,0.8052130587,1.2434475896,1.5895135454,0.8119817043,-0.8163335227,1.5410816332,0.6707314001,-0.1686212798,-1.4310779047,-0.8880206738,-1.3634579795,3.5158129118,0.6606172085,0.6525135822,0.6021775752,0.6552325693,2.631533164,0.0123188871,0.5596891714,-0.1462164838,0.7800298569,-2.5238674701,1.5772265471,0.6983661324,-0.3031338871,0.126085322,-2.6686962743,0.5733617157,0.9413728034,-0.7329049708,-0.3251083772,-0.1713889001,-0.6548820822,-0.1456190334,-1.9283605203,-0.4861997808,0.2445775656,-1.4738899869,-1.6537410216,-0.4380958565,0.2595755654,0.5937393251,0.566720814,1.4313378404,-0.0495985485,-0.2870716942,0.8355380241,0.3571901093,-0.1252076485,-1.8078869275,-1.167073089,-4.7704712855,0.8603696145,0.7937507774,0.1687478721,-0.3455919485,-0.1163611718,-1.9577275987,0.9298590767,-1.825583455,0.5457112549,1.7222540547,-0.8134279032,0.8717856774,0.6024692918,2.0196572956,1.6401707325,-0.3097471339,1.3010130615,-2.7513003887,-2.2437846818,-0.118307359,-1.5690769911,-1.3613593261,-0.964266187,-1.2589062077,0.8883619982,-0.5025228885,-0.4878739654,-1.3085309277,-0.0131843307,2.5337037992,1.6139058097,-0.9273288032,1.563958413,-1.1719097077,-0.6680258846,3.1381140655,-1.3959670892,-0.0719896597,-0.524291879,-2.0458853121,1.2058668881,0.1791582169,0.734321372,1.9095610466,0.8747309287,-0.542571046,-0.8626917585,-1.0742687744,-1.6354010983,-3.8050337786,1.3724850043,0.7347619589,0.6845176726,-0.0918592867,-2.8419164851,1.9186866204,0.013060566,1.099068554,0.8981570052,0.2007072805,0.5656565748,-0.1525621718,0.4737142085,0.0096381872,-0.8878181758,-0.894644547,-0.3153179419,-1.8687234084,0.7295126029,-0.9902032901,0.5661708482,0.5958931289,2.3009303624,-1.2476193322,0.1207436171,0.7240779523,-3.2923322517,1.0069388648,0.4298792948,0.0520385679,0.0241086515,0.617011617,1.1408271693,0.7150212212,1.0881487403,-0.1882592666,0.0049112944,-0.3440976237,-0.5355134857,-1.5711354866,1.4580223636,0.606313118,1.5197503355,0.6607312742,-3.3871430164,-1.8578483113,2.9599058158,1.2240526021,-0.548357022,-0.6782241423,-0.2255262284,-4.6579116271,0.6126621931,-3.9102094307,1.5671266984,-1.6368855295,-1.0397444447,-4.6378792306,-0.8631831943,-3.6082907163,-0.5787845105,2.9286051066,-0.8414493717,-0.0917719639,0.0798625525,-0.3750119297,-2.341952312,0.0679565039,-0.5787138682,0.0879576445,-0.0392109251,-2.928034065,0.3006668921,0.2165383561,-0.3193289325,-0.1390290074,-0.3332879716,-1.4217805881,1.0401707993,-0.0618259121,0.5493331272,2.4449523584,-4.7858498011,1.1764020884,-0.54401217,1.4749590274,1.5978493182,-0.2059171483,-0.525819439,1.5669507126,0.4793155823,-1.7229701721,-0.9363613693,-1.6352468438,-0.2391695122,0.567189119,0.4976520571,-0.9105871219,-0.7974137679,-0.6260232353,-7.3935972747,-0.0376526689,0.427310478,6.4504733774,0.4633466424,-1.4785519789,-0.1035580677,-0.9883503985,0.4369555588,-1.0129830994,0.5550740128,-0.3893729589,-0.0338501085,0.2868640766,0.7157729787,-2.2552342973,0.8091918259,0.3045264915,-0.6839886826,-0.9449662894,-0.3062649698,1.1686393674,-1.5136881533,-0.2134075581,1.2778024535,-0.1481565793,-2.1690154333,0.1590554595,-0.3013232781,0.4631112348,1.3635341248,-0.7487238227,-2.2899507156,0.3448342433,0.4184337827,0.2047863848,-0.4143970814,0.9359728118,-0.685855371,-1.015779735,0.0956608116,0.5199253857,-1.5226482386,2.0501302153,0.759832464,2.2106266843,1.9642611391,0.2324106251,0.3769675155,0.9622103904,0.9964988263,2.1867641566,0.3960988896,-1.4631861639,-0.5791223137,-0.1537374589,0.3828100273,-0.4534691785,0.7485628995,0.0651611228,-0.8528810734,0.6171501758,-2.0722527361,-1.6316886905,-1.047732429,0.5867967805,1.522394987,1.5692780394,1.6121522364,-0.4453602146,1.1606993689,1.7002495083,0.4552313043,-0.7570473906,2.0782980652,0.8749829466,2.2806617194,-1.3410727455,-1.8878859823,0.4054057426,0.4888247159,-1.4012908231,1.7922810892,2.0769230732,1.2737808165,-2.3646135528,-0.5638617362,-1.81863547,-0.2360727061,-2.6569776302,-0.999862181,-2.3042397569,1.9577587629,-0.8681474527,-1.6406165221,0.1188912088,-0.5092525001,-1.8444712937,-3.4243322631,0.9644895541,-1.5533590317,-2.0647128884,-1.9715181623,1.1003914448,2.4352435973,0.5986859864,-0.8688781259,-1.0371580945,0.8263017451,0.6465447821,-0.711619431,-0.8053810155,2.0306008639,-0.6085309054,0.7997025143,-0.6930081792,0.0849199666,0.0793896644,-0.1375684746,0.3495132452,-0.1289831825,1.2262983538,-1.7327700429,0.3761280407,1.8361611402,1.1779128133,1.9475043178,-0.4732781595,0.5245965733,-1.00708583,-0.5771432894,0.8776658275,1.5801474625,0.6485818662,-0.5575359195,-3.3021400906,-2.5048181684,0.2541612521,0.8650414945,-0.0294759474,-1.1577986101,-0.9456927211,-2.9658506909,0.8755464248,0.0594456617,-1.3962056032,-0.0568757095,1.9103039155,0.0916655048,-1.8884565989,0.4940612248,1.0867492255,0.0086441304,1.9472205949,-1.2243297314,1.2994919954,1.2178554879,0.8634772156,-0.6609813592,0.9048022687,0.5761957468,-0.7914728192,-1.7405197112,-2.9347508497,-0.2562420098,0.1291732306,-0.4112178767,1.2722626895,3.1896326241,-0.2314348903,-0.4850397971,1.3092052643,-2.7300331166,-1.4201727437,0.0134918043,0.0510463646,0.0480171168,-2.3211282999,-3.7175297316,-1.8091631857,-0.0648235314,0.5924789978,0.3499887586,-0.5702008138,1.4943640366,-1.8980946155,1.6048968345,0.16404107,0.4960946659,1.6622811146,1.0927618494,0.6456286907,-2.3609423438,0.1722522074,-1.6145393899,0.7040302885,0.2664049934,-1.0462657656,-0.9737802526,0.5497720523,1.096405399,-2.2649267268,0.1938149931,-0.3740457629,0.6204453873,-0.7462828876,0.4282658755,0.9432154313,0.3232131629,1.2609904746,-0.3525279583,-0.0092507403,1.4186907043,-1.2476477737,-1.7460773121,-1.1705309488,-0.6812014646,-0.4468447098,-2.8710477792,-2.3901433313,-1.130024604,-1.5323140332,0.2229950069,-1.9847644836,2.4365493234,0.7703002359,0.0174907181,0.2616946375,-0.810410837,-2.1935121224,-2.1520640099,-2.4412524466,0.6365803168,-1.0752868274,1.0045096862,-1.0297863265,-0.0824319967,1.6815173978,0.6355009911,0.4052145154,0.78293701,-1.1153729386,0.3569736897,0.5576914905,1.7712243409,0.931241557,2.0543853839,-1.0811663716,0.4021303885,-0.7195401282,-2.5739223947,1.3504462595,4.0670863057,-0.8448905079,1.0827901637,-7.175223291,-2.1612553253,5.7684260309,-1.0424573784,1.7173025354,-0.7230888656,-2.9433660207,0.7826178929,-0.039181298,1.1734104781,1.6596406338,1.5202879452,0.4312505378,0.8589999722,3.6250601599,2.8753841049,-1.7674533586,-0.4579153211,-0.4213471958,-1.3266572817,-0.6019911515,-2.5367834678,0.4815134811,1.6060674426,0.1489125244,1.0705115552,-0.0618888111,0.1910915078,-1.0555147389,-1.5617167193,-1.5116608235,-1.7613207476,-1.4816623035,-0.116779639,-1.4617874815,0.3966146189,2.6063067207,1.3431107069,-0.3995236894,0.9732736497,0.9891425437,3.4423958181,-1.2563168061,-1.7868252536,-0.180884934,-0.2793669805,3.4163384851,0.5516892213,0.3689674884,4.7207998492,-0.5462277607,0.1708763861,0.3786469733,2.7195182175,-0.850839655,1.3049130896,-0.5284194447,-0.5842397597,0.7211928521,4.6268820329,0.6474304239,-0.0007733127,-0.5145155263,-4.3022399603,1.1713187211,-3.7724831364,-0.7395387097,-1.0166654566,-0.6940694069,-1.2379303205,-0.1552210298,4.5811345567,0.8421230856,-0.2978338093,0.0913488092,-1.708669574,0.7030786717,-2.234903935,-1.1411526471,4.3959870285,-0.7463679126,-1.4162563545,0.7074359509,-2.3623079277,-3.2909491148,2.6776051702,6.4320382236,0.4340201496,1.3653461294,0.3205062627,1.08690218,3.1125997987,-0.7425589809,2.0689012112,-1.0316036802,1.0011227302,-1.1540401015,1.7994954047,1.1146833194,-0.1289571059,0.3791593128,-0.5347171925,-0.3009440646,4.9240207068,-1.9437996904,0.3254741586,0.3153367392,0.7318911275,-1.3330566813,0.2824134887,1.2654772901,1.0788999363,0.3106198181,-1.0217466847,1.7956133607,2.0269460072,-1.03945966,-1.0722333471,-1.5989143769,0.2578685098,0.5718300554,1.0739383773,-0.1900763838,0.8910855226,-1.1794385126,1.899925576,-1.1926490073,1.5133701929,-1.7143375225,-1.1774755146,0.7426850791,0.2024713748,0.6910043775,3.1115179271,-0.8958111832,0.5346441836,-1.6939735704,0.5277720976,-0.0287396503,-3.2910650287,-1.7534191345,0.2678772696,-0.2169069394,0.2934386741,0.3090760895,0.4017548033,0.2166751334,3.857579742,1.3357683396,0.7393390186,0.5251962791,-0.6603223634,1.6314399645,1.9171320286,-1.880424833,0.0803497396,-0.4129288862,-2.4038227841,-0.8948116029,-0.5189774549,-0.8658699966,-0.9322835819,-1.618309877,-3.3133060766,-0.9636133472,0.3830881499,0.0971140465,-2.5764243637,-0.9677858173,-1.5829231042,-0.4416642198,-1.6484413754,-0.592423302,-0.3433246878,-0.9246453244,-5.7526444701,0.6562635225,-1.5643905357,0.0618264393,1.2780628533,-1.2739029807,1.3299683768,-3.0829597563,0.7001916065,-1.0908592426,1.7097227539,-0.8497407345,-0.4645685713,1.4021245833,0.2851416065,-0.9955776069,-3.5839866717,1.764574588,-0.7272591897,1.0852733832,0.3852987923,0.2797306437,-1.4023756115,3.3070039933,-1.174431131,1.1740551929,-0.8330654795,2.2177100663,0.5655158194,0.6562899169,-0.0925447037,-0.8580394954,-0.4165844096,1.0360562089,-0.4803293864,4.2014188273,-0.3343381376,-1.4776647736,0.8528338815,-4.9506987858,-0.0701170176,4.4748078884,-2.4285780068,-3.9889125151,0.6176531043,1.062743286,0.9063504123,-0.1350552146,-0.7129274768,-3.9506929674,0.3264606135,-0.4914930598,0.3507171767,-1.8386785206,3.7762170232,-0.3067016306,-0.1559364642,-1.1412122253,-1.2620990089,-0.0672567184,-0.5216107472,-1.4042418275,0.8408203992,-0.7433221738,0.4054075839,-0.8356664192,0.4235676292,-0.9562586493,0.6441985944,-2.0058798784,-0.4029833617,1.6206287744,0.3239623243,1.9180813746,-1.805663784,1.9541718942,0.9706820692,-1.6670357269,-0.1742797338,-0.7606835727,2.5642256266,1.8439565589,-1.2576420804,-1.0793323322,-0.8484790826,-1.2287112157,-0.7119665353,-1.3946119406,0.7955678497,0.1189852087,-0.1103449998,1.4088220637,0.1392405106,-1.1498164141,-1.3081142189,-1.1560279985,2.5474361788,0.9700542246,-1.0173684122,0.2338865743,2.4194072882,1.2071708056,0.7523663888,1.5401025647,-0.248860078,0.1832416848,1.8245167415,-2.2084885063,1.3425825858,0.9587644975,-0.2231180374,-1.6042417787,-0.2263257249,1.4212309444,-3.7370509328,2.5406605274,-1.1969167328,-0.0453805245,-1.3029005101,-1.2531799446,-0.8478096306,1.1667500048,0.1146461533,0.2764915178,3.519109387,-1.565262088,1.1026736815,-0.1945453806,0.5223845005,1.4131407529,0.1851372189,0.0641048167,0.5300003515,-0.4609246062,-0.5403434405,1.2962227936,-0.3614993556,0.73291475,-0.4010807132,4.6517134388,0.1958216471,-0.6978009093,0.5488106366,-0.0126258813,0.315659006,0.6581806532,-0.5333476644,-1.2362883418,-0.2784479877,1.0543261725,-0.3153657574,-0.9948734711,-0.2577894763,0.4020774727,0.9625776835,-3.0835058516,-2.4268729093,0.9483132489,0.6987142313,0.9092957005,-1.2756018162,-0.4609446462,-0.8604273096,0.2326830765,0.2882559495,-0.1882581419,-1.6310909852,0.3971809411,-0.3223931955,-1.7691760928,-0.4043919151,-1.7435153384,1.3417751884,-0.581694738,-1.39393706,1.9649052153,0.3633643327,1.9808710767,-0.12211249,1.6906211257,1.8292652867,2.5168410789,-0.9525145466,0.9778742007,-0.6872306436,0.9674925007,-1.5427257892,-2.1279897885,-0.8199168725,-0.6748286445,3.768043119,0.8480339931,0.8388099713,2.706420792,-1.7833115459,0.2722493535,0.5821986302,0.6220768959,-0.0513803275,-1.0649733703,-1.0206251621,-0.22361689,-1.2604183189,-0.5321938692,0.1048942477,-0.8851856335,-1.42555455,1.8092377512,-0.8365459462,2.5553129795,2.6615705588,-0.3791079971,-0.7368839593,1.8755316727,0.5304382839,1.0414487123,-0.349762445,1.6943608336,0.0419205624,-0.1086090892,0.8798201565,0.4360027527,2.471238491,3.011870872,-1.1161454188,-0.7322136407,0.3846529767,-0.5340955028,0.9161854977,-0.7027132418,-1.14359215,0.0591092262,2.0071882575,-4.8089254464,-1.107041768,-0.2310531831,1.2385982454,0.209986327,-1.4830276673,-0.4795149227,-0.7443715912,0.1146812277,-1.3409716509,-0.829018807,0.0841530008,-0.5978265253,0.7108026504,0.6409639982,1.2786046322,-0.3505154408,-0.7649224368,-0.7080758872,-0.4813426257,2.408404712,-2.5780534771,0.5916002075,1.8690249575,-0.6633617592,-2.5117374852,-1.5509518928,-0.244046678,0.8311865798,0.2094499796,-0.1764584972,0.1302874622,0.6831863335,0.2363199273,0.2590984849,-1.410857126,-1.2266890571,-0.1993345076,4.5204346318,-2.9950198942,0.7692468008,0.1190084724,-0.3690277663,-3.2918441435,1.203796185,-0.8575385358,1.0136533622,1.0671915146,0.4035865975,0.95812459,-0.5886294934,-0.7136659237,0.541182405,1.5634156217,0.6163429212,-0.0709315827,-0.1344370266,1.934411265,1.0049802402,-1.7767683706,0.5422103781,0.1306382028,-0.520303455,0.8913676577,-1.1979046849,0.6246944043,-0.2271015472,-0.8807372691,-0.1328439397,-0.7097076697,-0.4571180884,-0.6386081059,0.6475650134,-0.1178256163,0.0070181667,-2.0989319843,-2.3881912622,1.2831998786,1.945467552,-0.2473302112,0.8362780913,0.3283276853,2.3966226683,0.6174796206,-0.9038233247,-0.3096164628,-2.369600548,-0.875265603,1.0582845911,-0.0541998473,-0.7842834685,0.2718726112,-1.5642641059,1.5451570663,-0.4244159859,0.0700966971,1.2185952133,-0.3713925522,-1.7904828361,-1.8885793526,1.1491408142,-0.1745938171,3.8483317953,3.0897227263,2.6434327659,-0.5254545429,-0.7434819717,-0.5348631493,0.3827993127
