encog,BasicNetwork,java,3.4.0,1,1561693047732
[BASIC]
[BASIC:PARAMS]
[BASIC:NETWORK]
beginTraining=0
connectionLimit=0
contextTargetOffset=0,0,0,0,0
contextTargetSize=0,0,0,0,0
endTraining=4
hasContext=f
inputCount=21
layerCounts=4,49,67,49,22
layerFeedCounts=3,48,66,48,21
layerContextCount=0,0,0,0,0
layerIndex=0,4,53,120,169
output=0,0,0,1,0,0,0,0,0,0,0,0,0,0,0,0,0,0,0,0,0,0,0,0,0,0,0,0,0,0,0,0,0,0,0,0,0,0,0,0,0,0,0,0,0,0,0,0,0,0,0,0,1,0,0,0,0,0,0,0,0,0,0,0,0,0,0,0,0,0,0,0,0,0,0,0,0,0,0,0,0,0,0,0,0,0,0,0,0,0,0,0,0,0,0,0,0,0,0,0,0,0,0,0,0,0,0,0,0,0,0,0,0,0,0,0,0,0,0,1,0,0,0,0,0,0,0,0,0,0,0,0,0,0,0,0,0,0,0,0,0,0,0,0,0,0,0,0,0,0,0,0,0,0,0,0,0,0,0,0,0,0,0,0,0,0,0,0,1,0,0,0,0,0,0,0,0,0,0,0,0,0,0,0,0,0,0,0,0,0,1
outputCount=3
weightIndex=0,147,3363,6597,7653
weights=##0
##double#7653
   -1.147810264,-0.2804105001,-0.8453060857,0.7138168033,0.5200079071,-0.1627765486,0.3418213927,0.4927198114,0.7391442764,-0.8452683221,1.0023708479,-0.8377310059,-0.5718027534,-0.3818878845,0.4530475393,-0.1863189851,-0.7983939229,-0.0868390452,0.6197397831,-0.575168382,-0.0538315251,0.5749375138,0.1384200753,-0.3705337342,0.7333215052,-0.5008759307,0.0857224886,-0.8958105345,0.0221939207,-0.6516867558,0.6299621581,-0.4193306655,0.370350595,1.3730903122,-0.0184355957,-1.4309304501,-0.9658475642,0.5077528975,-0.5524948279,-0.6205605501,0.7569908284,0.4513853244,0.9082102112,-0.2015440701,1.1128680399,-1.2660806963,-0.5947731336,0.6017897605,0.1901154837,0.8392391862,-0.480652712,0.5890931373,0.3890711558,0.039630301,1.0275465074,-1.0939075156,-0.1386624182,0.1840403597,-0.0014220767,-0.1978635054,0.2305307919,-0.1463603792,-0.1757323825,0.0188524289,0.7510104529,0.6513973958,0.1334027376,-0.3929599489,0.3020873688,0.7220706234,0.3296582669,-0.119036347,0.2050962536,0.2107383458,0.1985859119,-0.4856883338,0.0826989163,0.4395994456,0.0196528875,-0.9961646219,1.2158394217,0.1442066652,-0.2533048991,-0.0683380667,0.0299168068,0.5897769652,-0.3046627297,0.5036850177,0.2353848564,0.7713662037,0.9213878058,-0.6993558083,-0.5712798556,0.2906487487,0.6019510673,0.3262246366,-0.1810404889,-0.7142302275,-0.1067832487,0.0541641174,0.3002328868,-0.064365695,-0.0075580729,0.0037777571,-0.067954204,0.0261497649,0.3757696394,-0.1610169484,-0.0610848226,-0.0103781769,0.0119521111,-0.3214157925,-0.117050368,0.0283846325,0.0140162662,0.5179384733,-0.2340647214,-0.2293346647,0.6684416936,0.2723244052,-0.7247801624,-1.3747534571,-0.2471211228,0.0449357869,0.0735211517,0.269710915,0.870502485,-0.0121227451,-0.5259887589,-0.0271378626,0.0017906673,0.0751085181,0.1807425347,0.014861379,0.0107312835,-0.4582398939,0.0902220998,-0.0205092387,0.2145052293,0.0467425677,0.1328989217,-0.6966674258,0.1182665144,0.0621560402,0.0001313021,0.0257731112,0.5275677214,1.7639295969,2.6067652919,-0.7564223202,-0.6077318345,-1.4342875923,-0.4508900864,-0.0474490755,-1.166262802,0.8261388583,0.8982319821,0.0054505162,6.892574723,-0.5710474791,-5.4592904814,2.0452437653,3.6111420473,-0.2924810182,-2.7094084258,-0.1609205627,0.8295395077,5.6116655482,4.3081019327,0.6850856578,1.552261102,0.8147790635,1.2255949415,-0.061172127,0.295962208,-3.3506516211,0.2435155419,0.31334332,-0.3356707035,1.359834233,0.0310788564,4.2282715704,-1.3465691419,-3.517812358,-9.3223435327,0.7880646235,-3.2326581037,-0.9797709499,0.9141865302,1.3161748541,-0.4112858659,0.0528240011,-0.6426746573,0.9887759444,1.9343476621,0.3493959524,-0.1992900224,0.741659964,0.3789678369,-2.2922304521,-1.8761630434,0.5182406293,0.5912987829,1.3969810092,0.2436774863,0.0583677139,-5.238120817,-0.4262596559,1.2109924409,1.4870864055,1.0247730574,-1.6624732913,0.9172657203,-0.5190011546,1.7129523185,1.6737329485,3.1413662485,1.5055104849,3.8620607541,-0.7095776564,1.5857150195,3.9676643537,0.3210629116,2.4782739833,-0.8585053205,-0.7062709454,-0.2030705794,-0.8382626054,-0.4630147723,1.0212527614,1.1133750696,-1.5989997748,0.585580699,2.7052799398,-1.7447335369,-1.3113750318,1.8704792262,0.3444844412,1.1099499784,-3.4232087853,0.2208646739,1.1962345191,-0.0804407377,1.8144746518,1.6139013436,-0.6007522882,-1.8790682734,-1.2170365983,-1.1516287151,1.4024743531,0.2571439881,-1.230140975,0.8314619506,-6.1669003452,-0.8298220776,-0.0749818433,-1.5941066424,-0.5320855592,1.5817337907,0.0049114313,-0.7280778313,-1.4132370402,0.4369135349,1.6522484708,-1.6624803115,2.141810882,-3.5858201234,-1.1159577036,-0.5784605349,-5.0675031171,-0.6316364318,-1.7080376345,1.0035959406,-0.321200933,-0.2578565409,0.4014014026,0.4680792478,-0.0374591378,3.1882932305,0.0425622596,0.3358341474,1.1243492579,0.1261442056,0.1668047921,0.2544443196,-2.2854373242,-0.2214112423,0.0982815786,2.3271226304,-0.2133973946,0.8951109323,-0.2830197932,-2.0151628287,-5.1731622484,0.1893316848,0.7598204123,-0.7508395101,1.1994647744,0.6212924996,0.6147414016,-3.9153766437,-0.2410833027,0.7675940168,0.7763078097,0.3827254094,-1.6656744889,3.3831470719,-1.7446889338,0.6297488893,0.4042705297,-0.5976203803,-0.9149365104,0.1328385593,0.283330952,1.8811337334,-3.8171061387,1.2675716127,-0.4592824494,4.0003589898,-0.1271576026,1.4544863328,-0.8145604713,0.1390942304,1.044870793,1.4699998083,-0.3736490507,-1.9665463306,0.1513216075,0.2044836999,0.9294518071,1.5584721461,-0.7421412568,-5.1363500076,-3.7841230765,0.2677513287,1.0742085881,-3.3880865431,4.2259832673,-0.3445896144,6.5335484783,-3.5767425894,-0.9468013982,3.0850197669,-3.3691437784,-4.4506411959,1.4503914967,1.7400406803,0.1223546613,-2.8819614697,0.1425979667,0.2472628952,-1.3745085608,1.9862401556,-0.5382959319,4.0471522176,0.2634279697,1.7682719856,-0.8416862514,-2.0522730092,1.3793874317,-1.7625923648,1.8653372875,-0.2147507725,-0.2121603592,-0.4468915859,-2.4966169823,-0.6552895201,2.9655151017,0.3931063754,0.695967894,-0.9476689088,0.573601194,-0.9271732129,-1.1456378427,-1.3753430283,0.7249711178,1.7970642187,1.3956458374,1.7415946176,-0.1076164094,0.3776734205,-4.9238329837,0.7053431373,-0.6730360084,0.3764640385,6.840287837,-0.9357998449,-4.0126814823,0.5915712268,-0.6660571223,0.3460556968,-0.1689556347,1.1234499874,-0.202066519,-0.8399806605,-2.9619758058,0.8158037845,1.0983485056,0.8722018549,1.0976539186,-1.8735169846,-0.1701013406,1.3958094429,-4.0533141825,-1.8776421328,1.8393649162,1.5609333675,-0.4426786118,-0.1384384392,-3.0083207496,3.7704305783,-0.0908611338,1.8790421554,-1.2324019427,-0.3682184736,-1.3282936752,-0.7756623255,-2.2908077964,-1.2347192188,-2.0971300574,-0.6925316771,1.5354323107,-0.3763734309,1.7352068652,0.7598114152,0.4609232277,0.1504645402,0.2368698764,2.290673383,0.7315208186,0.600313077,-3.4959920453,2.4113411061,-0.152952478,-1.3697140251,-0.763724853,4.0448504021,-0.2331242189,3.0764086911,2.9818692984,-0.7352764602,2.0389267726,0.7229157009,-1.4901127852,1.5689634838,-1.3343504729,-0.4293982249,-0.5321845869,-2.4252712837,-0.3311063984,-1.275679545,-0.0952823642,0.8722088623,-1.0624648525,1.8531067507,-1.7249861301,-1.4122694188,-1.3180701651,-0.2272492871,0.8808588388,1.9405804733,2.6575266694,2.8236855026,0.3551410464,5.2335832851,-1.8776174878,6.5354240466,1.6932609467,-1.1457102741,0.6797236322,2.4261253469,2.3583553253,15.7033533689,4.9116293008,2.289352795,0.6353995685,1.7868424168,7.4895982898,0.7957705451,-0.2860563079,7.4625750779,1.2004848706,-0.689943715,-2.8305853926,-1.4781960634,-0.1249105707,0.6903222974,-0.2749193491,-1.7745425708,-0.9760241692,-0.6801890176,-0.4085596935,-3.371859285,2.579381968,-0.511588618,3.2856078212,-0.8404368039,-1.5445331314,1.1769709931,1.8634751813,0.7158599471,-0.1569305739,2.2612423064,-1.1543430133,-2.515088298,4.3752129019,1.5440336096,-2.2338552331,5.4636874872,1.1785388783,0.7829157986,-0.2017580994,-0.3485764405,0.464153951,1.0938437477,-1.3894944334,1.19740253,1.7921044908,-1.4208598423,-7.3274877532,0.573597223,2.1288707184,0.2431985335,0.7204836343,1.3550851334,-0.1348590555,-0.5492791844,-0.8080171732,0.2736448974,-0.9251270754,0.4507192735,2.9077085283,-0.691543245,-3.0509287055,-1.1674173173,0.597041118,-0.1656865051,-2.4060979583,-0.9472902595,0.4576425485,0.5282229897,-2.5167941912,-0.4252311195,-1.5054310187,0.5290833515,0.6746403722,-1.6453596394,-2.2067494683,-1.2068013454,-0.4981175275,-0.6552285661,-0.1494426814,-0.4246340907,-0.9396865653,0.9301007087,1.2102109452,-0.3260406151,-0.8821617418,-0.2889519281,0.5027561302,0.9847673162,0.3817099648,-1.3082264789,-0.7778654737,0.3871828869,-0.2689136573,-1.2391014157,0.9762237717,-0.0826584023,-0.2862244722,2.4471088558,0.2413400353,-1.9920966433,-0.1264249913,-0.7290549889,0.0630384993,0.3297034966,1.4921144077,0.9860897803,-0.2617751109,-1.0638915961,1.9943968321,-0.6891263614,-0.9540186539,0.0861030696,1.3886608246,-0.7993900949,-0.2262242858,-0.2821294281,-0.3606342561,0.4457033459,1.779928623,-0.1016831923,-0.9173302828,0.102769788,0.8768183484,-0.0890478072,0.9848639283,-0.4382029262,0.865540782,0.3589981022,-1.4584178876,-0.3839480513,0.6333295429,-0.3347298332,-0.2842901961,-0.0037369138,-1.4079843355,0.8404115585,0.7507657992,1.3719273249,0.2614342893,0.5574185324,-1.3625280058,-1.5791542539,0.1937015361,-0.3474855989,6.3975111913,-0.9564130617,1.0047389084,-2.1595496707,0.0515974529,0.3312794967,-0.2139626783,0.6994799813,-0.3120211964,-0.7658484963,2.1398051021,0.7008667196,1.3019057304,0.6135605679,-1.4317269879,-0.5806985898,0.1811038291,0.6572751909,0.8520977087,5.7596779952,2.2392670196,-1.4408395391,-7.2167746408,-1.1843573465,3.0539356487,-1.6679204794,5.8759412198,-1.9064419584,-0.0587065623,1.5768312242,0.0501073222,1.1701486111,2.1628829112,-3.1609067502,-10.0427189217,0.8101521233,7.9823027248,1.2678069024,-3.6082210714,0.3705229693,0.9917299009,-1.0004217578,0.8310220438,-1.4471188889,-1.4505760473,0.2616761523,0.6481637318,0.7080191213,4.6164787458,-0.4117271221,-1.0835673613,-2.0960793344,-0.4689347056,0.3857561717,-0.165914733,3.8773651081,0.9308029669,-1.1630422955,-2.1965508126,-0.1441026443,0.3589565199,-0.8015009098,-3.3213877536,-0.2806943477,-0.9827045943,0.4614989723,-3.0098552648,0.2748283823,14.698532936,-1.9572219406,2.2865210877,-1.1818391296,0.5844303594,3.7285708332,0.608571082,-0.8329398598,-0.4672775748,0.6310827624,2.5659654367,-0.3732262149,-2.3138643519,-0.725519483,-0.3973543688,-6.6012091993,0.948428472,0.0045531718,0.4865489576,-8.4805797486,0.0084857223,-0.8209495716,0.8468828866,-3.7494555296,-1.7100321551,-4.4575425017,5.1273656562,0.2178847419,5.2048478954,-0.9228713642,-3.2075507527,-2.4790969318,1.5760659231,-7.2766601022,-1.1688020586,7.4429837648,-5.9528050065,2.8450935697,-0.5774787414,0.7948670556,0.3861644114,-1.4622491562,-0.4743065407,0.2976944304,-0.0476908603,-1.9561614765,-2.1900379907,3.1129066646,6.4709459069,-0.2618543246,-1.6749669743,0.5802031945,-0.2042255522,0.2617202639,1.3656991,1.2340729271,-2.0476185607,-1.4389817775,0.2127616411,-0.2638011508,0.4893846607,7.365004602,-0.3742900489,0.0310723273,0.7143625817,-1.078286324,0.5672590843,-0.6685703102,-0.1144240349,-1.1833661601,-0.6964909155,-1.5253227879,0.8780934191,0.6575792768,0.7801568909,0.3153715001,-1.6111571756,0.3928592829,0.5274207112,-1.0092295089,-0.5546848676,0.1383744216,-1.1344227695,0.741615463,-1.3472062917,-0.9190356202,-0.7470844182,3.1473012084,0.7967426987,0.7534011882,-0.8395925436,-0.2805079204,0.1769852158,-0.796607689,0.563101306,-0.2840920722,0.6297914023,0.8906504157,-0.8608319545,-0.1544691631,-0.2663857422,0.6742230912,0.5430045223,0.4905671772,-0.1440538012,-0.2939734427,-0.0422494207,-1.5665862421,0.176958025,1.7566673016,0.1591358423,-0.0853922122,-0.2630591719,0.4229821005,2.4756020215,-0.0659619765,-0.0888945849,-0.267303775,-0.6942269258,0.9291953702,-0.1829602419,0.2201126523,0.1734877092,0.1944467414,-1.5110131121,0.0749662948,0.5709974043,-0.4222955593,0.0328595288,0.3192492416,1.1496873085,-0.3405178081,0.2970045634,0.8132825036,-0.5020060573,-2.3586412302,-2.4879745015,0.72558399,0.3784582485,-1.2235945632,-0.2006997032,-0.3164729279,-1.4267680763,0.9736763983,-1.3529930998,0.1071595418,0.0140985898,-0.6194757631,1.8627476834,1.2073746313,0.2904362506,-0.0555997024,0.6757490431,2.0072586519,1.3857661526,-2.0434813275,0.8625145573,2.7572049779,3.1241926306,0.0912963792,3.2059452296,0.0079819197,2.1592446277,0.8739434336,-1.4873615612,0.7861225936,-2.216177228,0.8699163507,-1.1058697902,-1.9795290217,1.6121765558,-0.8880590007,0.3707937644,0.4773952541,-0.432151982,-0.5940123565,-1.5455321844,-1.2687308387,1.5560521396,3.085990698,-1.8861836843,3.9201468185,0.7585491669,-2.16087083,-0.0058401041,-0.1891271405,-0.5984652074,0.5166962901,-0.105765362,-0.9796899834,-0.8023629528,1.0638072059,0.3732099583,-0.016955778,-5.0121118618,-1.5830758914,1.3519240256,-1.2581164451,-1.2326953066,-0.4811925448,-2.7469595274,2.2692322742,-1.2454977448,0.4871291781,-0.327747038,-4.8491758703,3.0807391612,4.1929486602,-0.9470077841,0.0740512564,5.1255348503,-2.1428625217,1.2012761682,-2.5091301085,0.8752308219,0.6103018696,1.7928019158,-0.6697011467,-0.4081760144,-0.4947854939,1.9863302164,-0.5248499018,1.1594013119,0.9693720728,-2.6040089441,2.1861489388,0.6008802832,-1.7182817674,-2.1091388317,-1.0685109482,1.1250505557,0.9239851373,-6.1493705461,1.4536297592,3.124974472,-0.193501911,1.9414050172,-0.5513405261,3.9348523154,0.0694302893,-1.5213690282,0.9547316675,-0.7967166939,0.0892755255,-0.7983323478,0.7978307807,1.2313987905,-0.8579488182,12.3825642886,-0.5956106462,2.401082698,-3.4227516048,-0.0716279968,-0.0940411279,-3.4935514067,1.3685264662,-3.6793837468,2.7709175538,1.2965875141,-0.6248625395,0.4232697733,8.3943661562,-0.0728965567,-0.7410502704,-0.2924161998,-0.1236309825,-1.678272137,-0.153428853,-0.2908877407,0.2401926958,-0.9759856456,-4.3878439406,-0.7396476294,-1.7779013482,3.5748718306,1.1481145477,-0.5508917004,-1.7990326695,0.3773563195,0.6350777301,-1.1076931576,4.1107006669,-0.3652941245,2.077292306,-0.0632764024,1.2159007464,-1.0008306789,-1.9600429364,0.7385698172,1.1268496258,1.2665669706,0.1767882174,1.2873307571,-0.412727604,-0.4433193795,0.2286789128,-0.4934114933,0.7800266588,-0.6185714093,0.4886904877,-0.6008113045,0.0394260098,1.6996094455,-3.2797057996,-1.7068688789,-2.013565026,2.656575193,-1.1917412095,0.5102470238,0.4685874815,1.172873323,0.6782806023,-1.3350690521,-2.4190433789,-0.2303340747,1.0045116755,1.3880576515,-2.1783220105,-0.9379820352,-0.7874476181,-2.1224971256,0.0796260942,1.0929302241,0.7244846886,0.1420156284,3.0344444199,0.8910230232,-0.5941678099,-0.6906504243,2.1156305362,0.7792663109,-1.27826174,-0.1737438843,0.5539953022,0.4369679888,-0.8966620552,-0.9639801012,-0.6639336936,1.1150822467,1.6919669901,1.6787641558,-0.6668352823,1.2333749288,0.3218107126,-0.7069274426,-0.5169355458,0.1594275156,1.4136069993,0.3341527673,0.7887354391,-0.3480226623,-2.4862916183,0.498264634,-1.6759679441,-1.55375984,2.9856003481,0.8564318773,-1.4563087001,1.5487378327,0.1328375516,0.0132687643,-0.7422197573,-0.0951337532,-1.0632037677,0.5390669267,-0.1311346356,0.6738040035,-0.5112118187,-0.8533912459,-1.2090450747,0.6499701394,-0.167225251,-0.9832868365,0.4854996008,-1.5669394335,0.890179767,1.2554214892,0.33445027,-0.8148943683,1.7982621072,0.8324309186,0.6684309388,-0.5214771707,-0.390688992,-1.3601913887,0.0499833928,0.6886290848,-0.5847832321,0.7368282243,0.0310464504,1.1718842758,-0.0590901653,-0.0853031837,-0.9693047195,0.43522649,-1.2978617709,-0.1840998463,0.2521604311,-0.3944210134,-1.9678217694,-0.5783333046,1.3282322855,-0.0254642636,2.150477146,1.1774965061,0.7871262737,-0.3276866764,2.8584286833,0.1204558906,-0.1177577565,0.1669604705,1.3812165633,0.0664904101,2.1258520306,-0.2064829366,2.5205216621,0.1356361735,-0.8999531333,0.1317958364,0.8925323808,1.304576172,0.8313778031,-0.0245886624,-2.9281660009,-1.9150309508,1.8270174027,0.2399495953,0.125837187,0.1828296771,-1.439282194,-0.1379675094,0.4416920771,-0.3179599339,-1.1401248592,0.2531495693,1.8513328293,-0.4037066454,0.2938083589,0.1405584408,-1.6898282339,0.3322114089,1.1826030403,1.4597451444,-0.875093588,0.9511510162,0.8288862695,0.5960493691,1.7456751669,0.3121116293,1.7049430503,0.0813674884,-0.7437728027,-1.0785740548,-0.4408569575,-0.322313919,-0.0332361634,-1.3270185014,-1.499149119,0.2608289578,0.1617150421,-0.0691225592,0.0773677966,-1.7693203228,0.3026908933,-0.4614546185,1.5035024429,-0.3119774509,1.3507124333,-0.669832528,1.6187628458,0.1563907572,0.0416091897,-0.0008238348,1.0591820336,-2.8336894776,-0.6863418879,0.7415702673,0.8584670257,0.7988994012,-2.9426439328,-0.7171578033,0.8129804302,0.9633493228,-1.180723854,-2.4361041316,-0.9432922655,1.1408070003,-3.9494335024,11.9922542791,-0.4903602293,1.8063910165,1.679959182,-1.7384341303,0.5755715769,-2.5703254641,3.9441073563,0.9406859416,-0.4130177553,0.6467258163,0.4759485213,0.0867968354,-0.1682695031,-0.7814601578,0.6564589693,-7.92024968,2.1127491791,-1.1327614581,-0.044568623,0.9799830656,1.2495158605,0.8172261962,-1.0413717895,-1.003459304,1.2938127912,-3.7301969463,-3.6707942004,0.9644089694,4.4305404105,-0.5033665659,-0.8806843099,-1.2949351399,-0.0202613237,-4.3250820538,-0.1544234628,4.0101800066,-2.1032952021,1.9994857036,-0.1754655113,-0.7333597679,0.0040278828,0.9780515526,-0.9576819024,0.5165290719,-1.5106685914,1.0128597567,0.3877919064,-0.9326973356,0.0700470863,7.8749906962,0.0021411332,1.1471000163,2.9591700938,1.1222325454,0.7008749108,2.61324818,-8.2696630677,0.2675385818,0.9650319661,-0.5304205975,1.0831131224,-0.4102370582,-4.6820038325,-1.2231059401,1.1616978938,-0.4101094245,-11.8698226941,18.4204584278,-4.1353035318,4.3652080326,1.1679979649,-0.2970709491,0.5870664259,-0.6075822163,1.8763993545,0.3260452957,0.7081696507,1.8057537198,3.6076630042,-1.0494507153,1.5505883405,-0.8667692692,-0.8471156753,-0.1078231292,3.2762066226,0.6674727821,0.7585044259,-1.7103398534,0.9240120864,0.7634139889,-1.3555566777,-0.4210512939,1.2292837155,0.9742350153,1.0018695485,0.4135540148,-1.3199275099,-0.4784989012,-0.2520528098,-1.113682636,-2.7580364124,-0.8311032116,0.2008152171,1.6325899538,-0.9111269569,-0.2899303022,1.355461347,0.9368974623,0.6978539695,9.0293005964,-0.1283287011,-0.8642889432,-2.2240675716,-0.0665402806,-6.0700320817,3.1026341783,0.1478331595,-0.2758677016,0.3463198048,-0.9641153609,0.2881323378,-1.5363167428,-0.521369746,-0.2375191782,-0.7731147512,-0.9609601247,0.2144608972,1.9274052403,1.6184898594,-0.3309628824,-0.0921586457,1.2921034876,-4.2148269912,-0.2855743327,1.9544453727,-1.986766328,1.0998609887,3.2190713879,1.1240150173,-0.3943143608,0.0861857224,0.2828500812,0.6720649791,-1.5417576295,-0.9233686089,-1.1451429923,-1.9800749873,0.5610943051,0.2514836396,-0.0325150581,1.8379606794,0.9503772856,-1.6327252314,-0.892341144,0.0635447305,-0.2334424455,-1.3572445203,-0.2769419974,1.0917580085,1.4737302103,-1.4005055006,5.5351736749,-1.4446838688,-0.7071240999,0.6463648535,0.105885969,-5.3063435203,0.0686718625,-0.9404429715,-0.9676084295,-0.6758121937,0.3358482103,-1.6429006278,1.9835241867,3.6598688125,-0.3354436793,4.1024772934,-0.1795062158,0.2630250052,-0.1371313667,-2.5054189541,2.15659702,-2.3703877964,-1.3020156533,1.6107756898,-4.9077055796,-0.0102863317,0.1787079208,-1.928733721,1.3368796153,-2.8622919718,-3.5330891724,1.331834213,0.0692457777,0.7835688056,-2.4657220598,-0.5537018781,-1.1841097888,-0.5845586183,4.1839911525,-3.7979371202,0.1456048757,0.6300696096,0.4424236216,12.509100811,-1.1833633191,0.8824345325,3.375963414,3.5215470652,0.3166258724,-0.2089567506,0.6389682444,1.3533581734,-0.2329236508,0.9098266874,-3.133539598,3.4106100535,-1.1312051416,-2.8971260471,-3.3243675764,-0.5743398923,-0.7071388182,-0.1495691356,3.123752408,-0.5860180694,0.2925188084,3.7436713602,-0.4954811457,-2.3512201393,0.3710961281,-1.8404010518,1.2140845193,0.5851467729,-0.8645646155,6.1063414711,-0.3284536658,0.8942184616,0.65654037,-3.8655195746,0.3926346792,1.206448752,-0.1621513817,0.9020942268,0.7694708437,0.622634733,-0.9166325297,0.2282443032,1.3628178553,0.2856941211,0.4357166999,-0.5691857887,-0.0419870297,-1.1604326893,-2.0144464696,-0.0081124351,-0.6206546253,-0.2905910823,-2.2915297062,-0.3484062594,0.3481698611,-0.3817710737,3.3018835889,-0.8696914685,0.8241413099,0.0633523879,-0.5330351897,0.8438624403,-0.0910692241,-0.150925239,-0.5188405768,-0.6828897003,-1.2447683066,-0.8783603201,0.263427068,-0.1621131679,0.0495944802,-0.2298427068,0.925913762,-0.6344484959,-0.2610654332,-1.306065837,-0.1547148489,0.3305288742,-0.3820179246,-0.3310176347,-0.012761266,-0.2649609189,-0.8858918121,0.3234537962,-0.2516573667,0.0477195903,0.2410343447,0.3549017098,-0.6857413226,0.0690953938,-0.5871483357,0.1989611914,0.5780998882,0.0769258865,0.5566086098,0.2900495566,0.2189806009,0.0618537175,0.4189569373,1.4054557113,0.0916325509,0.7920898318,0.8339051571,0.1726500066,-0.1149481066,-0.1831776265,-2.6160679911,0.3886123656,-0.2094838071,0.247368611,0.0633128568,0.7656096844,0.1057753389,0.6871221552,-0.3123759154,-1.3782941762,-0.9624643578,-0.4867604784,-0.1280210088,-0.5645275965,-0.1221846071,0.4841926636,0.0703420238,-0.5620473676,0.6815340056,0.8063209908,-1.2710392662,0.9603558013,-0.2160212384,-0.0529886283,0.2596085294,0.7217617606,-0.3257778117,0.3543556079,-1.4187196934,-0.0004630994,-0.0474871502,0.5639659286,-0.2885637342,0.260397338,0.1549197733,-0.1430298232,0.1809345206,-1.069632893,-0.9583762549,-0.0528282985,1.9238405066,0.1629203604,0.3009462163,-1.2094698606,0.5172626147,0.0970650228,-1.2787720322,0.0738739291,0.9712549816,-1.3733933456,-0.2925430293,-0.6717315738,-1.0590549199,0.6707796176,-0.0313700748,-0.2946301938,-0.1195236719,0.1827308993,0.0185392478,-0.840377928,0.1781642785,1.2835580766,-0.3392823664,-0.8679400543,-1.7368816703,-0.6131572096,0.1775456531,-2.9814696644,-0.9705331833,-0.1582708413,-1.8242455654,0.6597908564,1.5161735575,1.1490576222,-0.5459855771,0.1478518216,-0.9340920592,0.8312724868,-3.6618335914,-0.1725005281,-0.5634232008,-0.0114555917,1.2171721417,-1.1397401707,-0.5648978351,-0.0316411472,0.914165874,1.6960024799,-0.1078233081,1.0735233351,-0.1770584139,-2.8902840942,-0.0750276089,1.4774948701,-1.1038018237,0.0617591772,0.2711256558,-0.1452827838,0.4476063836,0.772781482,-1.1394568019,-0.6218966418,-0.1385597835,-0.5999633603,1.0882922104,1.9325121197,-0.0641604332,-1.2311835519,-1.0199206509,3.6708271386,0.4691980648,-0.0087748492,-0.8571388732,-0.8437138313,-0.1785168336,-2.4430749227,0.0949829187,-0.0242518339,0.3151072849,0.9927944753,-0.2221276174,0.3854321795,0.0681862408,0.8240983895,0.3593399844,0.1345479022,0.5960785981,-0.9588753523,-0.6200462743,0.8325484799,-1.7166636435,2.8767799767,0.5438713861,0.2316688626,1.4927067486,1.5599736897,0.5004509949,0.4943244605,-0.1694583627,6.085900711,0.2956448586,1.0816503749,0.9513364247,-0.0628788897,-0.9885604276,-0.8393538718,0.3024453104,0.0956731326,-0.6519507816,-2.0634381477,0.0148043705,-1.5690791246,0.825896793,0.1519942333,-1.2820754539,-1.7641797658,0.9896974671,-0.0776414663,2.5925362381,0.2156663114,0.2621683425,0.8815158434,0.2631264064,0.1257134614,0.4070751042,-0.1043384549,0.3409434392,-0.3740680911,-0.4952325129,0.1673260205,-0.1450409463,-0.2140351389,-0.2007251038,1.4744577581,-0.6821350312,-0.204589912,1.7869404037,-1.6452382081,-1.4837387969,-0.134053659,0.5320261826,-0.0118131867,-0.306238953,0.1496746994,1.6256120223,0.1722842043,-0.8597418184,0.465943171,1.2294208843,0.3085208138,-0.8760684201,-0.0726291154,-0.2566402464,0.5807939059,0.498136109,-0.5656050455,-0.437245093,2.1077005925,-0.3439483603,-0.9169439053,-0.6530581451,0.9786491776,-0.3865449116,-0.0862443211,1.0361899846,1.9451139324,-2.2184987237,2.3276783407,-0.9479043159,1.12921796,2.3547557731,-0.0907246478,-2.0660313581,0.2079897115,-1.0068407734,0.4040292425,-0.9715262084,0.6173290039,-1.0659058856,-0.449841464,0.9526239734,-0.8648733509,-1.0446602516,0.9844980416,0.9656129099,0.1711148672,-0.1641065851,-0.3600767651,-2.7563260501,-0.184846822,-0.1167406084,-0.1844190593,-2.9601633414,-0.4274318785,-0.6229634696,-1.2724661243,-0.1625133354,-1.3575492515,-0.6815326804,0.5962718381,-0.195362013,-0.4932984825,1.044003384,0.3136631492,1.1817003639,0.5595559303,0.1076212177,0.7012638323,-0.2922264249,-0.3278657925,-1.0305781829,0.3150991572,-0.3247719201,1.1581305151,0.6004118391,-1.099334674,-0.5723534795,1.1942827523,-2.4291274939,0.1313406699,-0.673170771,-0.669771264,1.3572654824,0.5033668391,-0.6946569574,-0.5163817189,-0.8954255604,-1.7516317539,-1.1498593952,0.5300068173,2.125533319,1.482064278,-3.8433568446,0.9512952453,2.2440397276,1.2214112689,-1.878849334,-2.7159484301,-0.5130029291,-1.6711149652,0.3083367863,-0.1060617008,-5.3808694674,-2.5597944246,1.7968031704,1.5628020427,-1.3091930292,0.8006724929,-0.1584207322,-0.2571887637,-0.7342496232,-0.6415162263,-2.6907200117,4.0665370458,4.6479882714,4.2692137287,1.4403641873,0.3884032595,0.2971479342,-0.7817305443,-0.7130788061,0.0057901724,-0.4724549982,0.2033540635,3.4186285566,3.4046751728,2.2708192842,-0.5916811728,-1.3799984297,-0.8537990253,0.1590892831,0.3641407525,1.6801911957,1.9531550042,-0.7486069925,-1.1166946001,0.6994590763,-3.5081782391,0.1628078865,-1.0627885111,-1.7503358368,3.2924599234,0.5120865531,0.2108514183,-0.233898766,-1.0918891123,-0.8052660008,0.4067807194,-0.1020831235,0.529417364,0.7217306596,0.2101378121,0.7136845134,-0.4463739653,-2.1969532536,1.4893916325,0.4059871073,0.5727612955,0.1063649161,1.0378536014,0.4220400748,-0.1771002203,-0.0349184993,1.4000515234,-1.3244940105,0.3064933416,1.0288778529,1.0625951902,-3.7531571001,-0.5799672116,-1.1566460071,3.2334851369,0.3783854179,-0.3955749587,-0.793832922,1.1845721053,0.4280277265,-1.3440151572,1.3115370716,-0.0392299264,0.1695314598,-2.4017915484,0.3718498224,1.0302029065,-1.5547184889,-0.7994455817,-1.3160744801,-0.8882873998,0.3223900645,1.8914836679,-0.2075738726,2.4053942964,-0.0868641102,-1.3268319154,-2.1790543468,0.9140354307,0.1698765919,-0.6029567644,-0.8303441127,-2.4923734699,-1.9199686974,-0.0887522115,-0.5040801887,0.3017387259,0.2836497682,-2.2451488304,-0.8675476129,-0.4460521553,-0.7502786299,-2.0096052859,0.9252717151,0.2410909519,1.1738576297,-0.6190672106,-0.400612032,-0.1243059214,-1.3404666395,-0.639267345,-1.2707995829,-0.8633158215,-0.3265919513,-0.3656707164,2.1478725376,-0.2411184546,1.0123317734,2.0585333954,-0.7833754749,-0.7404995284,2.4231240091,1.2706366484,-0.2658953268,0.4442550523,-0.2375343255,-1.3793827827,-0.3445629375,1.043499253,1.1576658753,0.3012692519,-0.9046330529,0.565814255,1.4462203248,-0.6808747387,-0.2267256021,-0.6534853599,0.813443414,-1.0199357527,-1.8053094275,-0.8185269167,0.4682916549,-0.0972029275,0.7135165608,0.1235836111,-0.6453137765,-1.9502802987,0.2355920138,0.5967646345,-0.2800219834,1.2906577002,-0.9267395332,1.8430549303,1.0164285146,-2.1571575012,0.878760368,-1.0924865087,-0.1584937622,-0.630314767,0.8554616354,0.1037564156,1.2355131908,-0.6140185532,-0.3866333307,-1.7578872721,0.4433492342,0.9758576248,2.7376406823,4.9593965923,-0.1066343515,0.1853240016,-0.9307341647,1.9654361831,-0.5132733934,-0.0078451499,-3.4948824397,2.8678277639,-0.7210320663,-0.3303968989,-0.4099797928,1.0179774463,0.4339637134,-0.5449733844,-0.4119996215,1.0585580608,1.5173689649,0.0943245295,11.4652984793,-4.3393443372,1.9265669373,-3.1213093706,-0.2673127795,-2.7033056384,2.9137198032,0.6704076309,6.0941180408,-1.5182958744,-1.4059292663,0.9642371641,2.3672975364,-1.2532182203,0.5193151997,-1.1828326577,1.1831001493,-2.2777607053,-0.9536651368,1.9718034556,0.5715980884,0.4593895456,-5.4145710257,-1.2789236295,-2.1599281916,-3.104234816,1.0706466276,-0.033953597,0.5193076008,2.6032543775,-0.3661207023,0.5990533067,1.9447072643,-2.9771876248,-2.5094455246,1.1683918874,-0.1811844337,-0.2174439919,0.2562457249,-1.5220633325,1.8561835249,1.9907508532,-1.7887407785,-0.0220581361,2.6051564354,0.2765322281,-0.9787009783,-1.4149763667,3.1145783643,0.4257149705,-0.1322183832,-1.282765129,-3.3224664775,3.9980870125,1.0000658575,-2.5955705476,1.158397478,-1.1084704884,1.3324662419,-0.6078537377,0.0433176056,2.026805706,2.2715694689,-0.6692942826,-0.2282430905,0.8803521059,-0.1643030902,1.1213331968,0.1620723026,0.3378743632,0.5753963681,1.0070656758,1.1955412358,-0.7292722837,-1.0785470243,-0.4083669066,1.0861353887,-4.6027231956,-0.9997313809,2.3271900003,0.1040618612,0.602483446,-0.6085651314,0.4817613723,0.3299785639,1.4624037393,-0.2727973048,1.0238909906,-0.5463794806
   -0.778243268,-0.5833897063,0.717415582,0.2375690398,-3.1921403512,-1.478128932,1.3175733208,0.0115041798,0.2605214371,-0.6496202366,-0.4566248275,0.6347635691,-1.1170948578,-0.4192891979,-0.3467111025,-1.2086212084,0.1190110348,-3.114533165,0.1428272743,1.8110641422,-0.9335556266,0.1536691148,1.7220719277,0.2320520117,-1.3309057034,-0.54740746,-0.4860117476,-0.5776520182,0.1153318934,0.20454328,-0.3446303723,1.0856578225,-0.0920687941,2.2719738767,-0.6593840551,0.2036679849,0.6975969928,1.0690575401,1.7598772971,0.9486774389,0.4977954679,-0.4672797297,2.6239043881,2.6735656161,2.4192424139,0.2646283224,-2.9834802497,-0.2520539363,0.1711270865,10.0119955809,-16.2821945127,0.2792891366,1.1057566891,-5.7063215669,1.1634807797,-1.0630093982,4.6643127415,2.4039287376,-0.2880529587,2.2014495094,-0.4125314729,-5.0721277929,2.3905218511,1.7404083431,-4.5606478652,-0.3079782147,3.0328573927,0.738019742,10.2768746735,-4.9888414593,0.4844456944,1.7474225527,0.5885656893,-1.6106469488,-1.2051106084,2.1001135792,-2.0371593688,14.8954989378,-1.8535774254,-10.0495457004,-0.5405116992,5.006475077,-0.7894078861,1.9420064585,-1.8209350117,4.1658844525,3.1893044503,1.1459936753,0.462654139,1.4786741578,1.5296590504,-3.5822581359,4.5188811794,0.5676934672,-1.7955043594,-4.4354907952,0.630533512,4.2144468854,-1.4959972681,1.3486040158,-0.5343619333,-2.8474128559,-0.4729521478,0.0173880775,-1.2775419808,0.8128306845,-4.5002116043,-0.8464009115,0.9183765506,-0.8676792632,0.3099161556,0.2093737972,-1.0576915877,0.8215288559,0.0972730062,0.14728527,-0.9604365779,0.068911114,1.504007385,0.3561611913,-1.3826310846,-2.0204378378,-0.4820196413,-1.5803240602,-0.6747425966,0.0228585088,0.8887793772,0.0175775925,-0.1107126081,-0.754183446,0.6338688938,1.3672267571,2.6128349627,-0.1923490389,1.0234333203,-1.3971068401,-0.004507947,-0.8754991368,-1.9274482905,-0.428421366,0.2410122277,1.4813064553,-3.0630396466,0.617986626,-0.5984272244,-1.3677948071,0.873971211,-0.3928580826,-0.5070724415,-0.0288564754,-0.9002840182,0.0999801312,-0.6105994798,1.6406906333,-4.8757326855,1.9383369368,2.187437463,-0.017637186,-0.8994840276,-0.7837566385,-1.4936907538,1.2539766555,-0.7945200477,-0.8107225743,-1.3280242906,0.4653245404,0.0110287278,-0.4948471368,-0.6733624403,-0.4368434858,0.6462765734,-1.0374690618,1.0061573459,-0.7344521885,-0.0528521417,-0.2762271699,0.9119696957,0.3206224697,-0.3805726312,-0.514496591,-0.2846205827,0.2969599163,0.6106654832,-0.0091350866,-1.1760888187,0.594278383,-0.0889189167,-1.1918598296,-0.9338928751,0.3880798172,-0.4604328059,-0.7315133568,-1.219672796,-0.4533267143,0.1153072609,0.731911542,-0.1700024057,1.4423531853,1.338966368,-0.6709229886,-0.8697583116,-0.08292489,-0.3715638399,-0.4801680438,-0.1924502173,0.0355863703,0.5969391052,0.9329996565,0.7376825533,0.6221879771,-0.2587389887,0.1362855518,-0.2623969984,-0.2597153834,-0.1859064727,-1.2651823507,1.4242328617,-0.1525493926,-0.1362550324,-0.1536030519,-0.616047778,-0.8113966655,0.9744602597,-0.7673765223,-0.2946496683,-1.1300291167,-0.4953413527,2.124295342,0.1936589388,-0.9428483179,-0.9340744539,-0.6731724646,-1.0771811655,-0.11227423,-0.3669891484,0.9030966115,-0.7639120784,0.0342177014,-2.2838743878,0.1875229764,0.3035401078,1.2484957206,-0.4735400131,-1.9185946094,-0.1577633724,-3.5661474737,-1.8076124446,-2.6064841549,0.4565657542,1.3237976588,0.3717426948,2.0808328327,0.2586722336,-0.8382839537,-0.9476880911,1.8174503408,-1.3556705523,0.5561804427,-2.8071485519,0.7296753235,1.0631089832,0.1829385401,-0.834338316,0.2030251664,-1.2217133164,0.1526253923,0.5907508722,-0.2895740442,-0.4192825696,0.6814877947,-0.0793982095,-0.5261819384,0.2362810286,-0.6365947679,-2.2846680088,0.677447296,0.1224163446,-0.5065214446,-0.2934834544,0.3005150497,-0.8534799085,1.5354424593,1.5288793853,-0.6110153403,0.5991700532,1.1383818642,-0.2354885834,-0.9261140922,-0.8483449201,0.0188118253,1.730347859,-0.3447358466,-1.6130753144,-0.4299016716,0.2496894834,-0.0721048191,-0.9331119135,2.1820443067,1.407098101,2.7886036861,-1.6828651157,-0.6558959826,1.1670241996,0.4986949008,-0.9092529543,4.1960059918,-1.0905255499,-1.1487763073,-0.0625029275,-0.8739257782,-0.5184478,-5.3161376753,-4.2797062278,-1.2240004232,0.7401251091,-0.0438092745,-0.1199149336,0.3966506287,-0.7217369739,-0.165860217,-0.1380074789,-0.0236102626,-4.9473192616,-1.8610501856,-0.440579276,0.6895921041,2.2781523834,2.7269438244,1.0488146206,3.6324672681,0.8744255887,-1.5403202972,-2.9356823392,-0.6052470693,1.7575405898,-1.4553630768,-3.1948705186,-1.8958280529,0.8298546941,0.2312483961,4.2104846874,-1.1417836059,-1.6303301118,-1.8162934383,2.5943528379,0.1519721479,0.4118914293,0.9421664883,-0.516677853,8.1409553103,-0.5789590124,0.0955992961,0.370578061,-0.8738977927,-1.8716481219,0.1355726097,1.237967136,0.5608937546,-0.6499524004,-0.3627798861,-0.4202027733,3.5074693655,1.0303296597,0.1074498245,0.591183094,1.0969314878,0.9470393422,-0.3020307842,-0.7486688196,-0.570937847,0.1351494504,-0.4759055344,-0.0916140392,0.8384081281,-0.0344934136,-0.7963172169,0.4838611159,-0.739214715,-0.179533612,0.8666667745,0.1379579567,-0.5518261329,0.9811552966,1.0269359305,-2.3341912806,-1.468519191,1.4341716503,1.3108176005,-1.3890528957,0.1374227498,-1.9302181933,-4.2478848524,-0.1612866817,0.7822282821,0.1373237633,1.0046667165,0.2205688401,0.7912298864,1.3138218335,1.1148263424,-0.5403266927,-0.0640805803,-0.7021584584,2.3631312525,3.0754390331,-0.6929087108,-0.6344015055,-0.6363292662,-0.1421928696,0.8303919998,-1.6683737759,-1.2459015492,0.0531321467,-0.0299669035,1.1121564729,0.5143856359,-2.0336555443,-1.3560988252,0.5774584837,4.6836438794,-2.3436761192,-1.3836108468,0.6640251727,0.1482582924,1.3520717484,-0.7441301869,1.2073685567,-0.0246287387,-0.6412924822,-0.124216604,0.5732780618,-0.72296741,-0.3443974479,0.2200275219,0.6080052211,0.6357154652,-0.8079464749,0.6892389075,-0.6348730856,-1.1936238101,0.6210233154,-2.1821888204,1.4019760653,0.1254876525,0.6462029378,-0.038199376,0.3379014945,0.6116459538,1.433269558,0.2542705545,-0.5226621021,-0.4802239477,0.5792019329,0.5325349906,-1.2885610885,-1.5471377155,-2.3682035334,0.8923800345,-0.6515733216,-0.4633497875,0.6434598928,0.4612015445,0.1619641103,0.0843213699,1.0107012406,2.1153736759,-0.4088338863,-0.9688658408,-1.4730857663,-1.4770244898,0.4391826601,4.2168565502,-1.7099915678,-1.1779015453,-0.4153691538,-1.1699471396,-0.7782411133,0.9413031597,0.2816057327,0.7510296982,-1.665367814,-2.9928184119,-0.3176662794,-1.6272510431,1.7644575313,-1.85137862,-1.2443327608,0.0990430571,-1.2588361937,-2.4216555256,0.8786705015,0.5726705273,-1.5431736226,-1.5747528527,-1.6937840521,5.3117207951,0.5530473789,3.118803649,1.1732709598,-0.8191584033,-2.3315619552,-1.4484421734,-1.5791621638,-7.3413576302,1.514573862,0.5845984664,1.0624910798,-0.2484586292,-2.7212551409,1.2456612524,-0.41562943,22.8650771803,-0.1391085224,-6.8413805162,-1.5684016407,1.733736212,-0.2439994195,5.1833650905,0.3103558294,-1.2102022521,-1.0144527497,2.0787975914,-1.8799337139,0.4596534574,-1.64596564,-0.0847261702,-2.7928722834,0.1529186876,1.3599615276,-0.9569951174,-2.3800932268,-1.0977057877,-1.8014037312,0.9028893711,1.3048467963,-0.6112221503,-3.4364937069,8.3325631693,2.1091216409,6.4076905275,-0.7533864356,1.0778655816,-1.3889753919,0.8393451221,-3.0228643022,-0.4517141669,-0.783194138,0.6722527098,5.1324677778,0.9295602861,4.8839775606,-1.0671045556,-0.7461428535,0.443659307,-4.1317097565,-2.9557062781,0.7223138427,-0.2781834621,-1.0360032347,0.7716548462,-0.8378856093,-1.6002214298,17.3516024143,-3.7233753082,-1.1224135318,1.1150728273,-8.3577929949,1.0685125121,1.1217404633,-0.9359238804,1.0685804826,1.1878032409,-1.8740306864,-2.1107187538,27.7828424643,8.0978076578,0.1826492705,1.207887399,-0.0663424427,3.0443356043,-0.3818389163,-1.1384713672,-0.2477930374,0.4115150765,1.2712753562,-2.3406790822,0.0561923291,1.1786837538,-1.3445212126,-0.7381104744,1.797198022,-0.8022812739,-0.3366049103,-0.8218106745,-2.9150111618,0.0392964132,1.6177703822,0.3645939996,-1.6464376395,1.020290343,-3.2177150911,-0.7645174683,-0.4472517837,-1.9015213742,-0.6774934804,-1.3190630061,-0.5069976731,0.7797884649,-0.2344409223,0.1328377084,-0.6373595559,0.2744161889,1.6168582494,-0.1330243643,-0.3849244256,0.1302094028,-0.1061630002,-0.0358669728,0.0179157117,1.2697337447,0.3288444825,-0.6594900619,0.3830008212,0.0743878738,-0.5224935229,0.7110398627,0.5369609901,-0.215048042,-1.5734225327,-0.5758219078,-0.08048223,0.368511079,2.3144984468,0.1207722547,-0.683169291,1.6065828513,-0.9753004544,0.3650815074,1.6213929216,-0.3067126395,-0.0007779803,0.5292030253,-0.2491996648,-0.7007977424,0.9749635055,1.1332521548,1.1317118458,-0.4553156816,0.2432608563,2.0122940169,1.1262780474,0.6242932606,-2.9049656961,-0.3451528584,1.2570087501,0.2790796566,2.2555686926,3.5907794995,3.1964726876,2.2215838835,26.0881863355,70.3319154794,-5.0021661877,-0.3827428806,1.5686247231,-0.5035764717,2.2686740826,0.4724116628,-8.7671860673,5.0317468544,0.4936440195,1.6017369539,-0.2441988042,11.2918381382,-7.2443915557,-0.6369264808,-1.6777685656,-1.6384215875,0.570909517,-4.1980203833,4.511656121,-0.9769681717,0.390596388,-1.2628719454,3.4436564925,0.8945996643,0.6704926611,-0.8158287769,1.240111607,-0.3489834405,-0.335037055,0.7401212503,7.4460385179,-2.4152208655,-0.9508648941,-0.1223714893,-2.0754332872,-1.3148603164,1.1452335574,-0.8895361722,-6.4573065596,-1.5363020445,-0.1658326551,2.0473671873,-0.4951267364,-0.0399513349,-0.5090652154,0.3282581706,-1.2720515648,0.9244113773,5.0271126947,-0.3243507506,-0.7337986498,0.3282189877,-0.0449619855,1.0648296008,-1.0599526299,0.9980757975,0.3653930805,-0.1766818747,0.7070990072,-1.1832809352,0.4146232935,0.2010564505,0.0064115265,0.6817068556,-0.1167553265,-1.2459457442,0.3836534678,-0.7413932968,-0.8336273667,-0.0768994065,0.0206687518,-0.8354058987,0.3140845687,-1.6564624065,0.5171932266,0.7099259616,-0.1919976052,-1.442732313,0.8444735132,0.9946401735,0.2949568723,-0.671189936,-1.4101549064,-2.1261345964,0.0429744341,-0.1962782048,1.1895964044,-1.6595350642,1.1492019669,1.2202195909,-1.8958319793,0.1033723392,0.8108246717,-0.6613534376,2.3491424209,1.1710368225,0.5704438223,-0.2503280122,-0.3134110217,-1.4835417265,0.6779032095,1.4574765112,-0.4256546226,-0.6498564373,0.0095312784,-0.080856599,-0.5740517042,0.07747429,-0.3409476036,-0.5049121958,0.2196155903,0.6603330865,1.1799963811,0.6314304355,-0.5813538482,-0.0586523151,0.7650371113,-1.3927986125,-0.5190334674,-2.3595853789,0.4686142618,0.6952468041,0.9837778504,-0.4433647428,10.9137383949,0.8952571709,-1.2016035932,-0.1713439863,2.1359062275,1.0969715854,0.3242801986,-1.1332778623,-0.2149726997,-1.7131827611,3.9507083042,-0.5553971407,0.2649492351,0.2117143334,0.1613567169,-0.3701585307,0.9209476585,-5.1541904468,-0.8763193694,-0.5004518992,-8.0342454848,3.6272766535,-0.8123781556,1.4740128758,0.65026588,2.7169082864,-1.6561982899,-1.5350272623,0.4243485866,2.212445833,-0.071519914,-0.4269583138,-0.6301806453,10.8816152632,0.6052927331,-0.6496618649,-2.2958520991,-4.614991968,0.36337748,-2.8621798794,-1.9116976336,-0.7279211637,1.6512912118,1.2682637486,-0.2048592998,-0.1355049023,-0.6746042136,-0.2536704122,3.245771771,0.3105051891,-0.5245287414,1.3998727862,1.168323997,1.6451553099,-0.1661504139,2.9491303011,-2.0318679245,-4.6710633811,0.1306554661,1.7673951051,0.7755855393,-0.8896882742,0.4461164138,1.3854117794,-0.1157916411,-0.9329870764,-0.2205980499,0.4942172375,0.0263313201,-0.5355853761,-0.8181651806,-0.5392822273,-0.0813215398,0.1414797718,-0.227538077,-2.2630030062,-1.0421780292,0.2550449687,0.5781400944,-0.7332923702,0.4081107674,0.3371523765,-0.0562174106,1.1895078234,-1.5984606326,-0.7884187296,0.763513054,1.6991325164,1.0458669862,0.2341192735,1.2530732331,-0.881154848,0.4143297808,-0.0076820341,0.1663061959,0.4109699004,1.1380710296,-1.5636116275,-0.724274568,0.3025633446,1.6349423074,0.8619849197,-1.0927963007,-0.6158665017,-1.0109064406,0.3679888123,-0.1996852638,-0.2190391557,-0.3414803022,1.5706858483,1.5868876663,1.569154307,1.4040086875,-0.3382034754,1.0038302736,-1.7121210978,0.4555006048,-0.2410973506,-0.9987882057,-0.7220402361,1.869707846,-1.1599902426,0.578270238,-0.6369963002,-2.3454332884,2.8732304436,0.9438626496,-1.3922431907,-0.4136709587,0.5147629943,-0.9104350463,-0.3204275857,-0.6863143467,0.4859503429,-1.2282170019,1.0268033638,0.5488993338,-0.4486159635,-1.1843589308,0.0263775721,0.2826224498,0.1595784885,-0.4863833048,-0.7807347785,-0.9086618174,-0.3019100533,0.500415335,0.4469089034,-0.3183586739,-0.6363559136,0.265007436,1.2669917241,-0.9029642489,-0.0287921291,-0.8182357101,0.7010478845,1.0547218011,-1.8360608447,1.0582352195,-0.0030555209,0.4220952022,0.1141339574,2.0254173807,-0.2573820951,-1.3134094198,-0.5559321796,1.749555293,-0.467696134,0.6336855592,1.578995965,-1.1513009797,-1.0277800147,-0.2131701072,-0.3420615374,-0.787546184,-0.0907496069,-0.0445861488,0.2599679961,-0.5195611609,0.5695055417,0.1076265711,0.7379632178,0.9644319008,0.1438179858,1.0765802669,-0.254101142,-0.8183613168,-0.5373335592,0.3005320762,-0.3393051904,1.0199239746,-1.7432975943,-0.2865799295,-0.851086374,-0.3444005295,-0.9842490494,-1.6295520723,-0.4091359965,-0.433509744,1.1256443011,-0.4353664806,0.5550063943,0.5774117854,-1.3768382095,0.6958626365,1.2020337381,-0.4006549113,0.0372642927,-0.1053759688,-0.5619831968,0.2109631482,-0.7611499043,0.3870580297,-0.6947342656,0.6492172915,-0.517929359,0.1183412029,0.6046291137,2.0020799249,1.4758749968,-0.0018433854,-0.121635552,0.2000323984,0.2279401393,-0.1300989291,-0.0620485005,1.4827419913,0.241184808,-0.6087730036,0.0188012917,0.1014428339,-0.1623722754,-0.8783172712,0.3557349107,-0.6261541488,-0.9593661162,1.4651611734,-0.1124131283,-0.8988924753,-1.0080455692,-0.3353770706,-0.7858900709,-0.552318232,0.0515109562,-0.1145883093,0.3270473176,-0.4288018873,-0.0705590811,-0.4723690079,0.4942255978,0.0565720833,1.4098897462,-0.2179475176,-0.2020724328,0.1494312869,-0.1216872608,0.1056911364,-0.011847979,1.2586008606,-1.0151574209,-0.0990570036,0.0819936715,-0.1278103495,-0.6965793036,-1.1811436593,-0.7544370804,0.9223211829,1.2611052455,0.7211086658,0.1837733049,-0.4537771593,0.1323770398,1.1061759302,0.0159407863,-0.4210053559,0.8976671324,-1.5928522371,-0.1424905755,-0.9320791448,1.2503424828,0.0754382497,-0.0492213505,-0.9038341165,-0.5433791415,0.4418970269,3.8839471041,-1.6094342816,1.3390271969,-0.117836126,-0.8876177565,-0.2474049064,-2.704220995,-0.1441323524,-0.4818837621,0.3617882255,0.2534078039,0.0577180333,0.2418553098,-0.0719805364,0.6987305613,-0.5529060079,-2.5482202142,-0.3675551364,-0.0156405249,-1.4256085493,-0.6873421943,1.7575463825,-1.6473504551,0.7334527684,-0.4617797023,-0.0581067269,0.9250144952,1.656668287,1.4861844407,0.4066575912,0.940805243,-0.5373763083,1.2129393703,-0.5634467458,-0.5774468249,0.8381292624,1.3982266383,-0.6316585033,1.5001042789,0.5311847431,-1.2924051463,-0.8910184968,0.9605222281,1.2409955188,0.5057981148,0.65023934,-0.2078434613,1.3654502182,2.8746460136,-3.4106689835,-6.1071509623,0.0292827155,0.845842744,-0.0582714683,-0.4192735632,-0.7619029731,-0.2258251277,-0.8445216722,0.7779421444,0.1716145788,-5.9004653084,1.0674324842,0.7851899026,0.5366405738,2.2594875407,1.425189,-0.2282883731,2.5639005261,-2.9515816072,-0.5461228892,0.4413748033,2.4373373574,1.8137093846,-0.000365461,0.1991161944,-2.5516553699,-0.9595225895,-1.8655616694,0.8529296987,0.3015050966,-2.9352122385,0.7038653097,1.1119268064,0.4621745695,0.2822143875,1.3586029534,0.9095855406,0.2546464479,1.0161246506,0.869331282,-0.0950453247,-0.5075829663,4.8068504634,-0.1218419533,-1.4433030314,0.0618840234,-0.6576414395,-0.4273304113,4.5970680912,5.0094245706,-0.9516533914,0.8059849309,-2.4254231749,-1.0317542119,-0.6907553598,-0.9948337482,1.3511274943,0.1545687149,-1.0998536376,0.3202873951,0.3430806267,-0.2703678801,-0.5654400394,-0.8067850914,0.6639736565,0.5811425569,1.5245183672,2.2056034371,-0.0156203518,-0.4651761659,-0.5045588988,0.2606134738,0.1483902257,-0.1084008028,-0.3889215607,1.5154054364,-5.2850733359,-0.388543612,0.804175537,-1.2088754791,0.074912435,-0.6683553365,1.9423252491,1.0289302943,0.6242850529,0.0372702004,-1.1030526895,-0.413716036,0.5473566447,-0.9165371215,-1.4705963713,-0.6134958967,-0.2940349884,1.9492518267,0.876976754,0.2474735891,-0.5371490299,-1.6443352053,-1.4916758758,0.432367326,-0.8921904904,-0.9201280307,0.6501603605,2.9353596751,-1.6416385786,0.8406833293,-0.3936331026,0.5883301458,-2.4929691325,1.0065872604,-0.755379367,2.0501990588,-0.682147292,-0.7490026064,-2.1206344656,2.6597077165,-0.2203144284,0.3887343838,0.164069529,-1.0168052619,0.2004911228,0.1610311832,0.2592357537,1.1260978464,0.5113538165,1.4325218074,0.2325834274,0.5008977342,0.2666780195,0.7106503001,0.6180014789,-3.2122807068,0.1841401462,0.3974480331,-0.6945846037,-7.2788775331,-0.6428079539,0.9814485451,-0.0266168707,-0.8849103816,0.18938811,1.6197213098,-1.5408408759,0.0915283508,0.2738638289,-0.6886223888,0.0662067281,0.8699133106,0.426743271,1.5325428812,0.548633517,-0.6371886428,-0.2532114257,-9.0406473739,-7.9170763586,2.5653992299,0.514948618,0.0829360978,1.8283686795,-0.9823169959,-1.1457709646,0.6144342198,-0.1288924549,-0.1132792988,-2.9253226612,0.0578185261,7.7718856954,2.1499060231,-0.1164468644,-0.0748041431,0.3201573827,-1.0774666587,0.1907370771,-1.4197649854,-4.0040828253,-0.4897649432,-1.5526141071,0.8089426218,3.0779974369,-0.0639497057,0.7946879604,-0.2051385524,2.7805898041,0.8058094165,0.3016935147,-1.3249541578,0.285643255,0.1118311648,1.1032307994,-4.0599781326,-0.759691133,-1.3473089369,-1.001611853,-0.5648053934,-0.798768321,0.8363057031,4.8930905731,-0.7100868219,-1.7002069879,3.6224649279,1.9815676373,1.7794014696,-0.2024637186,-0.0873266866,0.7805172696,-0.3655922808,1.0293815433,-1.0138192191,-0.4927881536,-5.924547594,-0.2567549063,-0.1745306168,-0.0741407822,-0.1918698357,-1.7038633679,-0.8547485277,1.5669155773,-1.1814331977,-0.105270176,0.1440974544,-2.7117394666,-1.3457252711,1.278766769,-0.4236515567,-9.0319827252,0.5156092866,-0.4671317917,0.3202328783,-0.3984346413,-0.8598012597,0.1679209162,-3.070648158,-2.7204892182,-0.3052859704,-0.896263081,-0.2362319888,0.9806959204,-0.1848280592,-0.4342322809,-0.7889594206,7.2958147654,-1.1450583587,-0.8575687966,-0.6032869225,0.2893837511,1.9222092507,-0.5295260261,-0.8643094311,-0.4329615639,3.1885968107,4.0282075968,0.4604836539,-0.064288579,-1.0604672086,-0.3763849304,-2.6138147708,0.9914929898,5.0592917603,1.3767473012,-1.9317815252,0.0361317876,0.1434893933,-0.8485657727,-0.7419404695,0.3297311557,-0.442163333,0.3679625377,-0.5413549927,0.5342170398,-2.6481556719,-0.3738494224,-3.1910803955,-0.9104137234,-3.2949958964,0.8955909844,-2.6484959937,-0.4644172908,-1.1479166523,0.7381309076,-2.5974390679,-1.014962481,0.1751209116,-0.9392180658,-0.3174947999,0.0536298871,2.7712300991,0.668763324,0.2966936174,0.9800459534,-2.6484587312,-3.1709310735,-0.5917282797,-0.6467938866,0.4984170507,1.6809621511,-0.678328653,0.7962804288,-3.9404965114,-0.8678250656,0.761474737,0.6206562982,-0.6465626829,1.0582657375,0.9024326639,0.6249895855,0.3837676583,-0.8053297727,0.4912961852,-0.7966836251,-0.1373232437,-0.250137644,0.2647674523,1.0579193917,0.6893398888,-0.2252654712,-0.6649933965,-0.3764757805,-0.5878522144,3.302827872,0.8075509475,0.9857961949,0.9565589763,2.023053652,0.5324903225,-0.786397419,-0.1544551315,0.6060542854,-0.2876054497,0.967747465,-0.0126573592,0.78281209,0.4559384318,-1.2287092541,0.9755617526,0.3534869858,0.3615724777,0.3382598569,0.8407936322,3.3277619643,-0.898999707,-0.2001348707,-1.4273212186,-0.1821655706,0.6594149646,1.9428569152,0.0906347022,0.1627277936,0.4037747761,-0.467224714,0.7044508985,-1.8566236954,0.6582362026,0.830236734,-0.6101061514,1.7420564019,0.9962105234,0.470148819,0.3902041558,-0.573162937,-1.758489143,-0.9869008909,0.0778113607,-0.2843366511,0.2521035883,-1.0708586024,-0.4248462731,-0.3267876982,-0.8242861692,-1.0321571444,0.781057979,1.2391659814,0.4861466272,-1.6365909405,0.3221762258,-0.1860599737,-0.6263117209,-0.3053465534,-0.8497206454,-0.8494162997,0.9047812075,-1.6735335517,-0.9806046026,0.2737206007,0.2147786975,0.5115609364,1.0260546244,0.0164218888,1.1492420985,0.1767384471,0.9413458965,-0.6327799418,-0.2053066656,-3.0428522198,0.2432426538,-0.2051154613,4.0660894431,0.6851200244,-1.0464568999,0.3099978862,0.7020790732,-1.1419333744,-0.7114165751,-6.938041631,-0.8463680111,0.910909193,1.4776510388,-0.1007965092,0.0872281359,-0.8931963104,0.1196952588,1.0740108324,1.3249010274,0.9371906162,-0.306026844,-1.6488097692,-0.7574345386,-0.511836265,-0.0831595968,-0.3274085214,0.7208066773,-0.7256534702,0.6197171786,0.416538761,-1.0173764346,-0.8718844885,0.3266403097,2.4763682689,-0.2502152127,-2.871719507,0.6984375381,-2.083431085,-0.844021477,1.0492893908,-3.0441198161,-0.7796688579,7.6546720338,-0.643416938,2.3408290383,-0.5063206182,-1.5358424813,0.1416000109,0.8600992359,-0.1727527314,1.6473136283,-1.4665095595,1.0408564806,-0.072353366,-0.0478585227,0.6915942658,0.5513456696,0.1664967046,2.1361802289,-0.2641399743,-1.8798824752,-1.0646337912,-3.1912806375,0.1931579807,1.1588696432,0.115362776,0.7410264407,-1.6725903059,0.766419381,2.0866984752,-2.0103013916,0.513143686,1.4791947958,0.732764918,-1.7781315284,-1.30254239,-0.8164724252,0.1646063236,-0.0820798834,0.9440341278,0.6868906082,-0.0864538928,3.0451230261,-0.3176479689,-0.779863855,1.2808160521,-2.3747411258,-0.1171501417,0.6035275584,1.9689883375,-0.1208516249,2.3510056882,-0.3565068267,-1.0800598824,-0.3901921823,0.3279736168,-0.8195741351,2.067157493,1.3449955779,-0.4470936424,1.6054646365,-4.2709494568,1.3940454466,0.9227862725,-1.4115701642,2.387011946,-0.2074011467,6.1009152324,0.1088986191,0.5726714302,-4.0787731254,1.2570303229,-1.2017386504,-0.5713163992,0.2963361935,1.9075319128,-0.1411284831,-0.933532385,1.4690994506,0.5298162665,-1.1155306763,1.3461779705,-1.4481883522,-0.057559939,-0.7818992531,0.6819856624,1.0292117931,0.6356307238,0.2732886748,-0.0755853943,0.2097793744,-1.8555014116,0.1919951059,-5.8628818739,-0.2038870727,0.8989898701,-0.0979217114,-1.0149058497,3.1485214983,-0.3607881892,0.6088256648,-0.0125011528,-0.4412315567,0.6856458472,-1.2764264536,0.3273638075,1.2715867518,1.0739777252,-2.0638956462,0.7927813481,0.8124483631,1.2277141567,0.7571462038,-0.4196204117,-1.547631513,-0.4672018575,1.9410108418,-0.3885436457,-4.1696400794,1.5691309659,-0.0289804627,-0.394435386,-0.7224588943,1.0748913274,-0.2403265835,0.1713581985,1.1959991548,1.1274345879,1.6885358874,-0.5789253898,2.5516594269,1.3692155239,0.7436472441,-0.408518059,0.337165102,0.5592759676,-2.4154862617,0.6122669826,-0.8382192968,-0.5157588142,-0.9391723074,1.4445362417,1.2216171705,-0.4491530544,-2.9008933233,-0.2521545068,-1.6581880179,2.4489762218,0.1106437622,0.0500692556,-2.6048607224,-3.3396315437,0.7000403523,0.790211093,-0.1535476096,1.3461015022,-0.609548413,-0.3885885073,0.7044078606,-1.6421040371,0.8577314642,-1.0753059735,-0.1520323292,-0.2827636569,0.0023974956,0.3886591357,-0.3941876764,0.1199574343,1.5284684493,-1.5066491482,0.3685764927,-0.1527068486,0.2962102208,1.1248296503,-0.0358553542,1.9283366117,1.1180320446,1.2796097573,-0.5300657808,0.0971575749,-0.2355147862,0.1712255867,-0.1774331779,0.0840992618,-0.3156886168,-0.7333007128,-0.3969979426,0.3321087471,-0.0677482638,-0.1406621172,1.3137411059,-1.137035163,0.4391338811,-1.7974113633,-1.0383928043,0.1277617597,-0.5636040735,-0.6406110726,-0.1572499113,0.129497818,-2.682777614,-0.548441221,-0.1271545682,-0.1953591372,-0.411458942,-1.2728007417,-2.9459920407,1.0140070396,-0.8500058085,-3.0864036569,1.1632793494,-0.0275257087,0.1489947386,-1.4671678786,-0.3170961691,-0.8107644966,0.4602747203,-2.4621668718,0.5007893567,0.7220341504,0.645078391,0.5084623827,-2.364391605,-0.4949137182,-0.4692398425,1.0089953903,1.3632699274,1.1474391799,-5.1692411327,0.5667914901,-0.8098026086,-1.4434441414,0.4362101339,0.8606073561,5.5920568543,0.4489343429,1.369656713,1.4203541112,-0.0021667447,0.4335552495,-0.453545219,0.054144396,-2.9285843396,0.4383499432,-1.5509829839,-2.2937084867,-1.2126684597,-2.90753181,4.0167984293,-3.6258966555,-1.4306541485,-0.5566189307,0.1875786426,0.5204177955,-0.4940119833,-0.5327660447,-0.5399984485,-1.5140070544,0.366443596,-0.5671276569,0.6049575835,-1.6038954042,-0.1186346272,0.8891595568,-0.0719568378,1.3014228523,1.6818238076,-0.761720852,0.2724399752,0.2485993038,0.7112420128,-0.6665672046,-1.5450256103,-0.5185800695,1.4064461259,-1.2069979766,0.9884897003,0.2380724674,1.1115482537,0.8566302923,-0.1766956122,-0.1112688618,-0.5217969625,-0.740181923,0.1545374563,-0.8220668826,1.5812960783,0.3660300263,-0.1595936792,-0.1905233214,-0.1965630317,-1.2330277923,-0.1782507788,-0.0011589893,0.3932090142,-0.486385891,-1.6183075014,-0.9383082055,-3.0350371301,-1.0947618316,0.7869575182,0.0534474667,0.8486117839,-0.0082594543,2.3268654018,-1.2668708287,0.4474501976,-3.0794596856,-0.1483218734,-0.1488928357,0.857572375,-1.3513182029,-1.5799303775,-0.0271712659,-0.1787913713,1.1794319038,0.7329960988,0.8512102547,0.7909571405,0.7382895543,2.6206398664,1.3359799114,-0.2594337852,0.571932057,-0.881908389,-0.0769804049,-1.462352207,0.4494206897,-1.2702519502,-0.9110039103,-0.9933114708,-4.8587551944,0.0316736108,0.0241005824,-0.5203804544,-0.0723506289,0.5658957179,-1.1997938084,0.0273957204,0.0358026408,1.2484899287,-1.3538638846,0.0337156667,-2.0864697635,0.6385252377,-0.2223934129,1.2408786905,-0.3344966746,-0.0142631763,-1.7856399071,0.2011968178,3.1213396841,0.7109672176,-0.4168466781,-0.7060254214,-1.3622071841,1.3712852455,0.4872166603,-0.4249571416,-1.3441327183,-0.3192893837,1.4008105983,-0.1834317729,-1.6185240903,-2.5104642352,0.3966435631,0.5721544214,1.6411466359,-0.6260647089,1.0971468333,3.0854741167,1.2947106671,-0.4358771398,0.9481051799,0.126221356,0.1535615014,1.0655671653,1.4017702369,0.0350759254,0.9725737405,-2.4784335405,-1.5294857746,0.7278336445,0.6214948913,-0.5790088096,1.7081718689,-2.4042838699,0.8218360732,0.491855546,-4.0252629601,0.3978476024,0.1792782822,-0.8432261804,0.1172788726,2.8982574707,1.2206285777,2.7640807262,-0.8783528079,0.5735255378,-0.2154865839,-0.2915660095,-0.547615169,0.1819700652,0.2218095703,-0.8296951925,-1.9879210268,0.0139163563,0.4315176554,-0.9898368308,0.636123778,-1.3565811513,1.053852068,-0.5525384475,0.9441504214,0.0271584909,-0.0371502714,-0.5554084448,-0.1579310521,0.8962288679,-0.6399528675,-0.8269634428,0.5402062202,1.7148281934,-0.9438383717,-1.0746583215,0.5472972052,-0.8617814712,-0.2961149611,0.0327984569,-4.4683385672,-0.0797362701,-0.4488645238,0.7314868639,-0.9745278703,1.5656448033,-1.4153224962,0.1825838824,-1.2976878011,0.1178540297,0.8673512643,-1.2358349766,-0.3192306429,0.0630720619,1.7260799935,1.1836380107,0.9180808689,-0.1581081494,0.0820805516,1.1633828635,1.7823577952,-0.1003014963,-1.0165300275,0.4558513553,-0.8038043309,0.9912962392,1.404321986,1.1750712729,0.4318450996,-0.8332592771,0.3638703316,-0.1088942502,2.3385019213,-0.3113633256,-1.4096055808,0.0831237957,0.4699973768,0.3160959698,3.3927040446,1.7204002739,-0.1534020399,0.2795968435,-0.8354930953,0.6087864047,7.8238517114,-0.0653668491,0.8985103837,0.3302330445,0.0741088612,4.3274795465,-0.7350901508,-0.1459353915,0.8220120056,0.104988561,1.4753354366,1.3690437239,1.9646846672,1.5631744539,-2.3079748967,0.1797029276,4.441668212,2.9135115041,0.2250803434,-3.7411015752,-12.0456979871
   -2.2814647733,-1.2828354519,-0.5935993559,1.2923786039,0.217007292,-1.5314814257,0.1928733612,-0.9581765677,0.1259443778,-0.2298895847,-1.3234579435,1.2193862302,-1.182139931,-0.734548875,-0.0563276592,-0.7541642361,0.6997026367,-0.6827370983,0.0854239976,1.4675775441,0.696272606,-0.1812605462,0.0083677827,3.7305370831,1.8387005436,-0.2923151342,-0.2633056244,-0.1735286838,-0.6908130309,0.2158480436,-0.4315945186,0.0436501271,-1.1864377427,0.8119025542,0.32552542,1.4094429424,0.7336187765,0.250812157,-0.9811407004,0.90731121,1.2277741763,1.0432939051,0.8795530493,0.1262439496,0.9273800908,-0.0496144185,-0.3978478652,0.5573479628,-1.7281589873,-0.6558965046,-0.3846385404,0.878769658,0.0713831969,0.615798425,-0.5305604384,2.0429117186,0.3677817046,1.5774981577,2.8099350642,-0.5846923878,0.5571200974,-1.0978770814,0.2119794535,0.0040073239,0.213043591,0.5334439711,-0.911363825,0.2707733639,0.5344883041,0.3589588575,0.3511308365,0.1469517643,-0.0836964962,-1.2133492975,0.5245503284,0.4673168983,-0.5132954224,0.0132300678,-0.5923097254,-1.1058946823,-0.7406214687,0.9950600062,-0.6675622252,-0.7862235411,-0.734649325,0.4808346148,0.3829831649,0.884286538,1.0132412044,0.255865547,0.3195659663,-0.2964322715,-0.6571028133,-0.4474280813,-0.1978034783,0.632483418,0.009549477,-0.4432082978,-3.0090295162,0.7253256431,-0.5977499425,0.5563794467,-2.3740878565,-0.9998149013,-1.0246830305,-1.6671565605,-1.0689669274,1.0446159189,-0.1930244177,-0.8375965666,1.775951632,0.6995625025,-1.279277942,-0.4362940734,-0.3302009046,0.9843729829,-0.8690175205,-1.0014894566,-0.038271016,0.8504098101,-4.4154071962,-1.366163359,-0.6250094703,0.4100959703,-0.1190471031,-0.3290129691,0.9461823526,-0.1754877659,-0.2071808746,-0.2604376043,1.0179630855,-1.7816536744,2.0366069705,-0.8310232316,-0.0569210679,-0.1959832235,-0.4088576804,0.4092315392,-5.4645477442,0.0201505267,-0.2789517907,-0.1922948284,-2.1496807364,0.7522858874,0.1883536729,-2.4978540315,-3.8887739735,1.3144245513,-0.875649309,0.0995861581,-0.1097511514,0.7271226858,0.1757189427,-0.4110765364,-0.3731066345,0.4213673173,0.3806915348,1.6755315507,-0.5893052674,0.6501447932,1.112428821,-0.0284709647,0.7032410544,-0.9165531969,0.8466104577,0.8357625111,-0.9005095677,-0.6596303881,-1.530695934,0.4522100854,0.0531703527,-0.6897010679,-2.6043113801,-0.1042836507,0.2623876368,0.0515060728,-0.9842309249,-0.2366250481,0.6003739696,-0.2538703802,0.0334500639,-0.772111631,-1.3901021702,-0.7686933727,-1.6649152311,0.4376735359,-0.6076394159,-0.7588037196,-1.4151678366,0.2613721017,1.6544006406,0.1385194059,-0.6700947633,0.2846180566,0.1439693281,0.8873501675,0.3317863337,0.1297138465,0.4533852972,0.5718568356,-0.7964979501,-1.0417305512,0.3554226461,-0.0512154044,-0.0929288798,0.8903888723,-0.3310504348,1.781502782,0.1598650154,-1.8704847704,0.2973546991,-1.1274565616,1.2443082841,0.7837854598,-1.1982265179,0.8674243164,0.6098431535,1.0887704821,-0.2059054945,2.6317425035,0.1372039911,1.2104639695,-0.6395377411,0.9911669789,-0.3147699466,1.2745907093,-0.2151588853,-0.9184595527,-0.2214178849,-0.8501042271,-0.3237873011,1.6715834366,2.0322057369,1.4234810666,-0.9463364223,0.1161995157,1.4088716186,0.3669383762,-0.8177681191,-1.7424810138,0.751685641,1.4899429414,-0.199842478,-0.7694451066,-0.9567450185,-1.0475039824,-0.1282296469,-0.0822360201,-1.0651847388,2.6881262795,0.0736571632,0.6950994799,-0.0057107478,0.2706423807,-0.3621536276,1.0374947735,-0.1307426095,-1.9822062739,-0.092220752,-0.0502480261,1.1905271235,1.3270536372,-0.8840497157,0.5206447726,1.0643999252,0.3086816615,-1.450049064,-1.1355202928,0.6227998062,1.8927400674,-0.5199748833,-0.2797278479,-0.6034694522,-1.3575653102,1.2237090267,-0.0298080092,0.391387911,4.913010527,0.2309399569,-0.5712053487,-0.158019808,0.6399954979,-1.0523673026,-0.9253289414,0.2173148123,0.0559836863,-0.4676822038,0.1435095916,1.3613209648,1.6163866141,0.8354700477,0.7772116026,-0.6334263917,-1.1772096466,-0.817282763,1.2221282851,1.3744861985,0.317505984,2.1822017907,0.5646290597,2.8329158273,0.2787226329,-4.0612897486,-0.0217781193,1.0178325051,-0.3916333867,0.5149704368,0.8959811724,0.333486313,-0.4329958991,0.8934914387,-0.0707961217,0.990211304,-0.676981844,-0.4354932991,-1.2787413907,-0.2764394678,-1.1286838106,-0.6032300456,-0.2064683885,-4.1491448212,0.6669633145,3.8883348574,1.085029869,-0.6789633987,0.1479711769,1.3893322731,-1.2792511391,-3.2227957742,0.5931473709,0.6075437728,0.3762022781,0.349277942,-0.2049523276,-0.5612903525,-0.8922906591,-1.0348264863,0.2242349954,1.1072205275,-0.3884559955,-0.8818388618,-0.1320347044,0.1822074401,-0.6324861514,-0.9775704971,-0.4936637351,0.9383856621,2.8573496033,-0.9905613719,-0.5879336025,-0.9904715234,-2.6188578243,0.1161078986,-0.671221484,-0.3848390662,-2.4069995554,-0.011763856,-2.7020216259,-0.1721327591,0.4299530983,4.2357119801,0.1398780085,-0.0444215977,-0.2771710126,0.9710542224,-0.7463212396,1.720460446,1.5623236818,0.3402288097,-2.4569612961,0.9237360396,-2.7766430719,0.1960616458,-2.7888029965,-1.1351391181,1.7769519643,0.3319911246,0.4447948111,0.7599587059,-0.5840150141,0.2076311436,1.8632785989,0.9406187052,1.9591723952,1.0177922966,-0.4860508585,-0.0163411366,-1.0969968171,-0.9570309496,0.105172261,-1.429000783,3.1469430043,0.7286047573,-0.6321827531,0.4791995838,0.5933258735,0.7350356924,-0.3066957514,-1.1561473167,-1.9497199547,1.1404855212,-0.9051515673,0.8219905633,-0.8239522133,2.5740551052,-0.6824713123,-0.2930424517,-0.609085566,-0.8369856125,-0.1646468849,-0.4886520469,-0.0990542134,-0.2802120892,-0.8569589613,1.9483689762,-2.0889821636,-1.2702241481,-1.1236165025,-0.2515019596,-0.9840524156,-1.3161278405,-2.1350846397,0.0450936145,1.0005984746,0.4136832457,-1.0571033458,0.8844388225,-0.8407946658,0.10048092,0.8128578887,-0.3860605514,-1.0993313487,-0.1265143096,0.5154135806,0.5479383578,-0.496531138,0.0113869987,-1.657579279,0.1710264753,-1.3575049801,-3.7918532383,-1.3044124405,-0.1780763796,0.5206728935,-1.2066778243,0.7840638879,-0.7765334793,-4.3857655737,-2.2187074351,-3.5959468324,-0.5985878236,0.1218944822,-1.1021466883,-1.7885914368,1.0268130886,0.8793173041,-0.015257677,2.8036485326,-1.4049605968,-0.4731300039,0.8217590137,0.1321284555,-0.581158964,1.1073785923,-0.8591427322,0.5999971755,0.1728562756,-2.5045784294,-0.3500040927,-3.6164903944,-1.2452335637,-0.3895409417,1.3204432162,-1.0093622365,1.394353935,-2.1593718179,-0.0752144572,0.0683578785,0.4000377396,2.6584032873,-0.2577360452,3.9005008466,0.3515714848,-2.8976869479,1.2741148665,1.4108873472,-0.7524912247,1.0841040327,-1.7082256323,0.3331147317,-1.1739626631,-0.0174470288,-0.6958106631,0.5374325368,-3.8870981858,-1.0275847452,0.4131484812,-0.211571742,2.9140327689,-0.8324037804,-2.4253102503,0.7562974946,0.2434654415,-0.1843182806,0.4660798688,0.267667505,1.529642291,0.84934946,-0.7898402067,0.454304984,-0.1208846937,1.1023324147,-2.9284951064,-0.724363629,0.8184127422,-0.7907389258,-5.9860132189,0.3027532198,-0.4990351369,-0.4810921336,-4.3457823469,-0.1256123138,-2.9866478742,-2.4487467523,-1.6314763886,-0.0426870535,1.2133630235,-0.2794504517,-0.0622369096,-0.1521656719,-2.8147627247,-0.8601709397,1.372101755,-0.5974144668,-1.5574788506,-0.5977915768,-0.6754220952,1.8190796444,-0.3596848045,1.2638128504,-0.1578984672,1.7491608902,0.4582147639,-2.2787632404,0.5634973593,-0.2296536544,-0.190447827,1.1516990054,0.515805893,-0.0112798792,0.419062058,-0.5318915725,-0.7182948444,-4.2610920494,-0.4059049813,0.1482773078,1.5249572508,0.1825194405,0.4206003773,0.0311506061,0.4004264402,2.3421680948,0.1134033042,-0.2195065595,-0.4124302611,-0.2197798352,-0.2126356177,1.4071199527,-0.4585431195,-2.1339473639,-0.5845007004,0.5895295787,0.4478646002,-1.779258141,0.7015089767,-0.3322344466,-0.3455897538,-0.8433852617,0.4754305041,-0.2428371682,0.9961590059,0.7386074839,-0.7930612472,1.4177054862,-0.246054755,0.3619279237,0.6526349701,0.2070435,0.7794673377,0.3746103608,-0.5858071346,-0.2815885893,-0.837493898,-0.2238795735,0.8968075341,-2.2756924999,-2.1464363773,-0.6575345223,-0.9249923191,0.4294851525,1.2403289421,0.9633429168,-0.5004609303,1.0137357808,0.4462522744,1.1997162555,-0.6563981791,-0.7496322531,-0.8046906336,0.0936914418,-2.5864399733,-1.1152215623,-0.0265555443,0.1813288383,0.215498084,-0.3919562269,-0.9245776165,-0.6227910928,-0.9690686822,1.0464667088,-1.3281814777,-0.5862075697,-0.0832888267,0.2024225196,-1.2655301976,0.0205279457,-0.0442432849,0.2715220429,-0.4963964381,0.3651400669,-0.4073897755,0.3483309509,-1.8003223889,0.2879829217,-0.509648953,0.5990175044,0.0113039657,0.3538687694,-0.7464323014,1.214014526,0.2005117006,-0.4040633153,-0.552705274,-1.1845599777,-3.9713365963,4.4462393843,0.4981753812,0.6506166811,0.9075038654,-0.9216362288,0.2729043446,-1.0957084192,0.9159135248,-2.2455816011,-5.2092039002,-0.786566986,-0.7736799251,0.6280674611,-0.6586321497,-0.0342439103,1.3139470957,-0.5149159161,-2.2458267658,1.7127804872,0.7316147662,-1.4423425569,0.3349486076,-0.5787327781,0.393104107,-2.8638243274,-0.9295155873,1.6887719046,0.4031894621,1.357209346,0.5997783367,-4.5920302648,0.4081884402,-0.2867066847,-0.0718704217,1.3509207934,-0.777712476,0.6218637207,-1.6324645433,0.032724852,0.754185979,2.766217714,0.695082384,0.7673313765,0.5582589363,-0.9771054098,0.2737079481,-0.743412683,1.1383991222,-1.5685753238,2.3595688679,2.3261933829,-0.3871781872,-0.3751183986,1.4295785416,0.917509473,0.7331829064,-0.0190984052,-2.308652951,-0.0613009265,-0.1850673371,1.8231641797,1.1177786878,-0.7992169287,-0.0913657482,1.3365912027,1.1165664317,-0.645603072,1.1007773717,-0.2596553221,0.4146787541,0.5556551294,1.8225275385,0.1215889862,1.6627980435,0.6818679234,0.3481330747,-1.605392184,1.0468169829,-1.6769505325,0.6452462725,-0.0193850786,0.9625221603,-0.1808422185,-0.7494873034,1.5220307971,-1.5187096276,-0.0776264992,0.020267653,-0.5729129565,-0.3052561623,-1.0938600689,0.1595578975,0.3903607531,-0.4272410856,4.3453485878,0.8482061989,-2.3313653147,-1.23893526,4.690942623,-2.3132374577,0.1847143233,-0.7257912538,-0.1163489268,1.4622503176,0.1889034426,0.2092485351,1.3506563931,-6.4611470867,0.4991335276,-1.796574711,-0.6794412104,-0.2584395338,-1.1625721698,0.2869236084,0.2670768971,-0.7216870071,-0.3603359964,-1.0689091958,-3.2096831506,0.7012474712,4.2765040366,-0.7937213678,-0.2982693797,-1.0360172226,2.1998315954,-1.2811815878,1.405252895,-1.3778101562,0.3877473155,-0.2471874645,5.3773752083,-1.0658744905,-0.4867023895,1.5778815035,-1.0018399658,3.8839122646,0.5360004275,-0.1779990064,2.9344674785,2.2472106299,1.8313616365,2.1255007598,1.8286283361,-0.2710641251,-1.4086501821,-2.6891031819,0.0224818732,-0.5424185189,-0.3715258143,-0.7352744344,0.4825508474,0.5583290173,-0.2696700327,0.2764428332,-0.3941652164,-0.2598309771,0.1663709053,-1.2411511368,2.073004965,1.0578654539,1.2117531327,0.4294450159,0.8592477291,1.4586731441,2.3465954996,-1.9340491499,2.169295908,-1.0905195636,1.4884715426,-0.243263595,-0.8945714633,-0.4160780882,1.5341483233,1.1725711537,0.9570643437,1.6594634877,1.576009902,0.6733200531,1.4886450213,-0.0381244629,0.7056514558,1.6578736896,-0.8226661478,-0.2254332366,1.4421520179,-2.0737355638,-1.29026643,-0.1012990971,-0.3982327386,-0.5063076376,3.0307682264,0.0130178359,-3.7622419079,-0.5628317575,-0.7450527409,-1.7695803314,0.5836613076,-1.5232659657,0.2700967823,1.1708876283,-1.5577874213,0.060684171,-1.2412980714,-0.1239744565,2.0370643605,-2.3318479281,-0.1623015179,-1.4201098632,0.2447999351,0.7211611383,-1.4609699811,-0.8006910554,-0.0439485993,-0.4182119092,0.2551777184,-0.4043996238,-0.4334369622,-0.8939075236,-3.3299420761,0.3280012994,-3.5311933449,0.6904860581,0.731930849,-0.2282757204,-1.0002860143,0.4255326142,4.2261155291,-0.780825604,-2.1754587588,-0.0562013363,0.4921831586,-0.4890304513,-1.3452019329,0.9246539397,-0.2037987259,-4.5912143264,2.7388900816,-2.4273662911,-1.1874982647,-0.5193033642,-0.3869073188,-3.7206636344,-1.0766639166,-0.1169035601,-1.2177688506,-1.3712741902,3.9391275551,0.7627443108,0.8202269657,-3.8877225333,0.5776965439,0.5627644102,1.0005336376,8.3081306476,-3.0350109269,-0.7633868155,-0.2124340268,-1.0630437312,0.4688672203,0.100602101,-1.9021784796,-1.5424340011,-0.5187141632,-0.3149690548,0.3799678439,-1.97562687,-1.3847713119,1.4384637382,0.1161860776,3.1468721253,-1.1806505873,-0.3484995133,0.1392303521,-0.4187948013,-0.5788769532,0.6350554468,0.958659878,2.4969205792,0.1822545992,-0.4066949243,-0.4553619664,-3.4711724539,0.8466829056,0.7153376507,3.1964978507,-0.2467783632,0.8201754535,0.8029549991,0.9050006909,-0.4392711263,-2.0076663938,-0.0981391419,0.7452803329,4.5719174805,-2.3320883173,2.219868932,-0.6244589199,0.0126421624,-1.0080084065,-0.1049568785,0.5490551664,0.6618193905,-3.7972080401,5.1436770698,-0.4252997677,-0.6768027826,-0.330751745,-0.4783649999,0.0927747028,4.720366326,2.7328290695,0.9778374311,-1.4641299377,0.698486168,-1.330227482,0.7193982731,5.0423145696,0.4097912845,0.4537783065,2.0594031997,0.3028473291,-0.5233668016,0.6333870894,-0.9398061751,1.2261170197,-0.0453163686,4.5309683373,0.1830416358,-2.1050155951,-0.0821133036,-2.9569642052,-2.4935734429,0.9385120282,-3.2857961576,5.597127246,-1.503246386,0.3549547076,-0.4482098297,-0.0103429935,1.4521175199,-0.5992013978,5.5845874322,0.0169127312,1.0935545698,0.9389940567,0.3735203054,-0.7568359922,-3.133300277,-0.2147388724,0.4030771959,0.0729654669,0.2300815996,2.2361817358,-0.53965427,0.7842972825,0.0430961578,-1.1682073784,-0.2911247412,0.3459343379,0.704801266,0.0165859576,2.1166121809,-0.0884748576,-1.8355851947,-0.2533899552,0.1361044782,-1.0781343096,0.2935044837,1.0679526702,-0.5603061374,-0.4267213007,0.8457279218,-0.2479093736,0.7267815721,0.4228381683,-2.1030116507,-0.052640378,1.669525615,0.7561941912,-2.5649400477,1.2792036395,-0.7827671568,2.1703303005,4.2122297019,-0.0283702698,0.9938204874,-0.8852186628,-0.0319881708,-0.548799405,0.3785221146,-0.1106984367,0.4744290777,-0.6336447732,-1.0947196529,0.3342044894,0.5109004655,3.4227303882,1.1430098949,-2.575914183,1.1363488719,-3.0990830632,-1.2239565638,1.1146508453,0.3999762275,0.3062638566,-0.0591390677,-1.3785721955,0.3567403058,0.1635292031,0.330888635,2.0748683779,0.4378280787,1.5031424507,-0.1885409082,1.4601342614,0.7331686267,-0.3520713097,-0.032264003,0.5706731411,-0.8792562364,0.3020865278,-0.0750986101,0.1440886256,-0.0145814248,1.0497140704,0.4643796749,1.4909907768,0.6055932162,0.4917647947,0.0014876559,0.6581565486,0.059337282,1.3871243953,-1.4414504054,0.4557905922,0.3201724295,-0.2575817897,0.4207328005,-0.0650101583,-0.9692981624,3.25106834,0.5983771533,-0.1157604264,0.6911380851,0.5662999341,0.1726568031,0.101279397,-0.0163032925,-0.0572559739,0.7205237956,-2.8173162491,0.6614701748,0.6094056225,-0.392094397,0.0371248121,-2.5468187742,0.4845138846,0.8524122935,-0.8218654807,-1.4882037059,-0.3155787103,0.0417909843,-0.2345949035,-0.2244815595,-0.3972392709,0.0133210291,-0.1082039737,-1.340002134,-0.5270563664,0.1706150555,0.5047788152,0.4286615861,0.3279322895,0.0477397633,-0.9902179255,1.1576086965,0.4461506192,0.0859199562,2.084005259,-0.1528780952,-0.5962528389,0.1244167396,-0.2581986545,0.257708382,-0.795716568,0.0565422246,-2.3019419316,-0.3742480368,-1.9096036344,1.4471218299,1.4056591642,-1.3871228678,0.698882281,0.6639579582,1.5917442775,1.4672673361,-1.5611342884,1.1281096651,-1.4932788143,-0.5880092314,0.5569409943,-1.5503151695,-1.3425975045,-0.9455043654,-0.8810803084,0.0016420262,-0.3296194921,-0.314970569,-1.7722539914,-0.8681010635,0.8427057926,1.7868781426,-0.3733851864,1.3910550166,-0.0724535882,-0.6291254503,2.9897187396,-1.3772052676,0.1009137367,-0.3513884826,-2.9939328311,0.3908490175,0.0608869384,0.1391320502,1.6368775947,0.7018275323,-0.514605068,-1.3291138891,0.7009562671,-1.0164546002,-0.3331123275,1.4832634907,0.5618585625,0.1227272095,-0.1866734025,-4.5943197794,-0.0248502262,0.181205297,0.6716961894,2.4089673845,0.0440643184,0.6604706906,-0.2470888381,0.6494535087,0.104452303,1.9984691804,-0.7998304312,0.724360049,-0.7061016467,0.442744643,-1.1000852428,0.4562888955,0.4860111762,4.0693408989,-2.0274668857,0.0259295013,0.6292638365,-3.0706523358,0.8122382097,-0.0002177999,-0.0835909273,-1.0700968473,0.7118257328,0.3904239349,-0.2004305696,1.7315654544,-0.2981412193,-0.0899028214,-0.4389117395,-0.6854413852,-1.6661718712,0.5455549246,0.3948530145,2.5378573691,0.75554539,-5.0432652061,-3.2620300541,1.0639717464,1.9260256097,-0.061794256,-0.8867675352,-0.1307121126,-2.3532077582,-0.0332866896,-2.330641594,0.8837415801,-2.5100508698,0.9626530849,-4.8966779995,-0.0457901753,-2.9623418336,-0.5040678145,-0.6993048588,-0.195500489,0.0184169011,0.7258114352,-0.9123291243,-5.0385624214,0.9389901576,-1.2246627509,-0.5579912382,-0.6851598078,-1.8798601983,-0.5238545636,-0.4294105266,-0.9652778152,0.3133384745,-0.9801639865,-0.0040132459,0.3942219166,-0.4027143669,1.1952820099,2.3969901697,-5.0868510251,-0.1093625057,-1.1899610527,0.8290101447,0.9519004355,0.3437262107,-0.1470752094,-0.1062783921,0.6275983076,-0.2295449294,-0.2904124866,-2.094046631,-0.4941412759,-0.5300599455,1.9617196031,1.1715327717,-0.0007877405,0.0199256474,-1.096399156,-0.7757965712,0.7508372769,1.8488789327,0.7014905447,0.0410979257,-0.038712727,-1.7264916608,1.1750994611,-1.5324224186,1.5476386896,0.3487709434,0.3183118561,1.0250079789,0.1443769046,-0.0079858302,1.6727601503,-0.4336174108,-1.4221325849,-1.6831101917,0.2318811325,0.4297356861,-2.2518320556,-0.9515514604,0.7396585512,-0.3738244041,0.2122510079,-0.578895354,-0.0094923382,1.2012551371,0.7762383639,0.1657329183,-0.5962416092,-0.393309659,-0.3197101196,-0.5333575175,0.1242517043,0.034945607,-0.1210433113,-1.0598532595,0.1197326627,1.258069288,-0.9845043363,0.9021777736,-0.2008783704,1.9878981955,2.4388734764,1.1511802335,1.1151114178,1.4022097002,0.3372444986,7.5213592163,-0.4193184428,-0.8364220369,-0.8065308551,0.1949689296,0.2323426797,0.2057851492,0.0893085718,1.4780921501,-0.1936267457,-0.5709540015,-1.4129984084,0.1601139945,-1.1839236471,-0.058327984,0.8631406593,0.9100237117,0.9528979087,-0.05662716,0.1807436543,1.0409951806,-0.2040230234,-1.7867512256,1.3849327412,0.1784279353,1.6214073917,-0.0778009175,-1.2286316546,-1.2552578827,1.0747930135,-1.9674977273,1.1330267615,1.4176687455,0.6145264888,-1.3854120439,-0.1789652928,-1.5979054076,0.6477729882,-1.8117753494,-0.3406078533,-1.3278367742,0.7952574134,-1.5922042225,-2.2417128591,0.6626328917,-0.3901961468,-1.185216966,-0.7152044161,1.2430006078,-2.4291535118,-1.0797534618,-1.2892917203,-1.4638215535,-0.22810811,-0.0235651325,-1.1473891796,-0.7327847532,0.2058170499,0.3680337284,0.3952789512,-1.0838920692,0.3921978681,-0.0329515537,-0.0901024033,-0.4144971255,0.3634310203,0.3579007181,-0.8266596758,1.3639180471,0.1495278712,1.5048094075,-0.9807785811,0.7331115944,-0.4618614454,1.3375838021,0.5485926358,-0.7517892132,3.7688002445,0.1799829388,-0.4785960199,1.1561768812,1.8586585162,0.9270929199,-0.0379313615,-2.5926203442,-0.2256627381,1.0038631868,0.6169002555,-0.3079870011,-2.0715581931,-2.1772997029,0.0187755347,0.3708315324,0.9812284557,-0.5627665143,-0.3353867632,1.0642803917,0.3405144893,-2.4441577422,0.3938902158,0.5710044304,-0.0406160004,0.3616657174,-1.7316258089,1.0506430109,0.2963963712,1.7641451251,-0.9098303437,-0.8473787188,0.3273467623,-0.0543575426,-1.4190501505,-1.150987475,-0.005427269,0.3799879714,-0.1604031359,1.1159969234,3.559379927,0.0174140942,-0.2361908126,0.8409624425,-0.7407993064,-0.125148006,0.2623407888,-0.4304556587,-0.2008318677,0.7357937592,-1.74472846,0.2815574872,0.1859912094,0.8413279823,0.5988377431,-1.5790219611,-0.058266729,0.3407666028,-0.4709256953,0.3563746946,0.2472456814,0.4661794076,0.0346348788,0.3064638186,-4.5254185267,0.0219675317,-2.4227306744,0.455181304,1.0077006983,0.0950299393,-1.0521956126,0.4084763474,0.1367701202,-2.7626991472,-0.5833174245,1.5317293905,-0.5208503176,0.1950128173,0.1681297653,-0.1980802736,0.4122694786,0.1196947697,0.0757643708,0.6358409221,0.7523949994,-0.1063520688,-0.6047816072,-0.0292352439,-1.7511004116,-2.1744126582,-1.7297520743,-1.4488476264,0.0475997614,-0.5910183283,0.2556875224,-0.8434687787,2.9823395737,-0.370995469,-0.1513590316,1.3469903424,-0.0668549441,-1.0522164175,-1.010768305,-1.2999567417,-1.6113848942,-1.5139911225,1.1575785837,-0.0884906216,-0.4346728501,0.5402216929,0.0170517137,-0.2403925051,0.0416413051,-1.8333987137,-0.7843220152,0.3552294568,0.629928636,2.3325605957,2.1534359767,-1.01543245,-1.6669094131,-0.179941121,-0.2732480317,-0.5569983054,2.6815493871,-0.9439411007,1.5789208689,-0.7307849701,-2.2603059181,2.5683070438,-1.1415079712,0.8718647797,-0.6746531612,-1.1526808977,0.8816684857,0.0598692948,1.2724610709,1.4650209128,1.001903361,0.5303011306,1.1460547742,0.0845062524,1.4889089053,-1.6534478884,-0.3588647283,-0.5900196078,-1.4257078745,-0.4441995206,-1.8636104793,0.614653002,1.7051180354,0.2479631172,1.169562148,0.5850605961,1.2965949784,0.8048138415,2.2617644451,-1.2023104959,-1.8603713404,0.3583620294,-0.4562612535,-0.4805392659,-1.195307628,0.3025821234,-0.2915884481,-0.4985742822,0.6590872999,0.7534890129,2.8895567109,-0.015795638,-1.6092188014,-0.7975761657,1.0645546973,2.3180977473,0.7873427521,-0.0210726445,0.6432599705,-0.3105742299,0.5123536797,0.6143005041,2.6599750064,-0.9679629677,1.1518009494,-0.764080935,-0.81990125,0.4855313618,4.5711669985,0.4747394853,-0.2364268435,-0.7501690571,-3.6735155245,0.660151476,-4.0020417949,-0.9732073943,-1.7733695541,-0.4584158761,-0.8669994337,0.6764143825,5.7209802545,0.6064615953,-0.5334873401,-0.1443047216,-0.9014115877,0.9091889775,-2.6348260937,-0.7633791895,3.861146729,-0.5107143818,-2.1431204396,2.6533527283,-1.7688734087,-3.4496289059,1.2318517549,7.0090810454,0.6696736804,1.1369978101,0.1405297558,1.491529536,-0.3683937243,0.2795031682,1.9704587982,-0.6035443564,0.4812454501,-0.9740635946,1.6976054627,-0.3202160492,0.051019401,-0.6399037946,-0.3547406856,-0.4388297597,3.1465057815,0.033875795,0.7270810544,0.716943635,1.1334980233,-0.4238864438,0.1024369818,1.0855007832,0.8989234294,-0.3609409891,1.5987683017,-0.5333342071,1.413987313,0.2600939451,-0.8922568402,0.0857787218,1.8602781315,0.4520527591,1.4755452731,-0.3700528907,0.7111090157,0.4726756046,1.1672167046,-0.8682290528,0.9433717873,0.1890715659,-0.9974990077,1.3343214071,0.3840839801,-0.2775967021,1.2903913292,-0.904167844,0.093568625,-1.5139970635,1.132051671,0.6573145598,-4.0572986282,0.2244715577,-1.0801223843,1.571010467,-1.3769861013,1.8863521609,-0.2842994068,0.7295904893,1.4992360824,0.6497141295,0.2624622492,-0.160857931,-0.9796627286,1.2307791529,0.5244091501,-1.1946016462,0.7661729264,0.2728943006,-3.2270860356,-0.3068941922,0.1670767552,-0.1798157865,-0.4584056329,-0.9205453645,0.0209327736,-0.2678602965,-0.4410149698,-0.5889401636,-1.0890806783,-3.0167866794,-0.8996930449,0.244158967,-0.9623871653,0.0936309081,-0.4028045178,-1.0379439598,-5.0687699134,0.4480288351,-1.8951091317,-0.6242277708,0.6635172802,-1.5641299554,1.1802208475,-2.470097368,0.0927814712,0.0868983367,1.0236685438,-0.5766619324,-1.2273872866,1.2820844738,0.3526046738,-0.2242626956,-2.3529370471,-2.9795295046,-0.7544608439,1.8480920985,-1.145689748,0.8735723488,-0.6395568962,1.9524445901,-0.4116124157,0.1876834622,-5.1164569513,1.263681465,-0.1973028959,-0.1065287984,-0.855363419,3.4452342807,-0.7785362292,0.2732374936,-1.2431481017,2.7355457459,-1.102188293,1.7408766867,0.0900151662,-0.4600748054,0.6927016977,5.9300535585,-1.3695815361,-3.2514775412,-0.145165611,0.2999245707,0.143531697,3.1251199373,-0.2811441838,-3.8142465875,-1.280839469,-2.6667805815,1.113535892,-0.7342829334,2.7370308624,-0.1047921972,0.111232447,4.6095817454,-0.3047210367,0.6955619969,-0.1721818036,-0.3666180099,0.5886222931,0.6413414207,0.0044277965,0.0251389259,0.4922603215,0.5076063846,-0.1534252232,-1.2082560608,0.3746870413,0.8230049568,0.0319463732,1.120457557,-0.9142418913,-0.36271611,0.4645533963,-1.2150119093,0.2777440838,-0.3086597551,2.2135783092,2.6415803765,-0.4600182628,-0.2817085146,0.162002608,-0.4310873981,0.0188559049,-0.596988123,-0.0113141183,-0.6786386089,-0.5311175787,-0.0749259732,0.9235699383,-0.6977925965,-0.5104904013,-0.3584041809,1.7029014434,0.0650540199,2.1412026642,0.4834694721,1.8553580846,0.409546988,-0.7338453199,2.7974602987,0.4174682612,-0.5551974293,1.0894719917,1.4250580497,0.5449587682,-0.2133532076,-0.0013301076,0.3290047044,0.5082458346,1.440535486,0.4956810047,1.8942278506,-1.0520698225,-0.2671684543,-0.8188460363,0.1690122775,-1.0695975604,-4.2308504775,-0.1071417765,0.199167384,4.8939327155,0.3532660731,0.8917280826,-0.4054909795,0.3114389016,1.4299616646,0.7278114236,0.2858927465,0.7517882813,-0.3630980859,0.000776542,-1.6598663008,-0.0734543789,0.222849753,-0.622868643,1.7416873646,0.0348514426,-0.5688846722,0.3378650377,0.2091620485,0.5374469358,1.2930850314,1.3249470535,-0.3022766622,0.2123664894,1.722550679,-0.5371536872,-1.1751209509,-0.432429739,-0.0388981745,-0.1358250616,-4.7675609423,-0.2027025652,0.7265253191,0.7987142313,0.6092957005,-1.3756018162,-0.9609446462,-0.3604273096,0.5326830765,0.5882559495,-0.4882581419,-1.3310909852,0.2971809411,-0.2223931955,-1.4691760928,-0.3043919151,-1.4435153384,0.8417751884,-0.081694738,-1.89393706,1.6649052153,0.0633643327,1.6808710767,0.37788751,1.3906211257,1.5292652867,2.2168410789,-1.4525145466,0.8778742007,-0.9872306436,0.6674925007,-1.2427257892,-1.8279897885,-1.1199168725,-0.3748286445,4.068043119,0.5480339931,0.5388099713,2.406420792,-1.4833115459,0.7722493535,1.0821986302,1.1220768959,0.2486196725,-0.7649733703,-0.5206251621,0.07638311,-1.5604183189,-0.4321938692,-0.3951057523,-0.5851856335,-1.12555455,-0.143625646,-1.1768896,1.1632121614,1.4091431396,-0.038716168,-0.8387288095,1.530273809,0.1900946301,1.3817923661,-0.6901033708,1.0642410085,0.3822642162,-0.9862644102,1.2201638103,0.1002569668,-0.1471231987,2.0258486452,-1.4564890726,-1.0725572945,0.0443093229,-0.1936233087,0.5750618013,-1.0430568956,-1.4839358038,-0.282736941,-0.1863034554,-0.6623520575,-1.4475621682,0.1037759549,1.5789418992,1.003523663,-1.1421409695,-0.8165516089,-1.084715245,-0.2256624261,-1.6813153047,-0.4874216325,0.2156878427,-0.1544953536,-0.9681064004,0.5728244374,1.618948286,-0.010171787,-0.6116787499,0.2747197076,-0.2653934297,-0.0962666162,-0.3989453274,0.9319438613,1.1706888499,-1.049881637,-3.1630627126,-0.4816637667,0.0052801437,0.6451453861,1.1377255033,-0.4987142147,0.51680734,0.3149136812,0.2857390925,0.6456183627,-0.1466222287,-0.8401691793,0.7882757298,4.1961373538,-0.5321514541,0.4395592711,-0.2106790573,-0.698715296,-2.2105129654,0.1316784694,-1.2440584136,0.6271334844,0.6473627354,-0.6685909271,0.8603444029,-0.9751493712,-0.6634694259,0.9277022828,-0.251093391,0.4929713958,-0.2184496081,-0.4641245563,1.5478913872,0.6184603624,-1.5105525672,0.3725770612,0.408944611,0.1887864975,0.3189985067,-0.8113848071,1.5284221301,-0.3286537001,-0.1444440632,-0.6478523649,-0.7590596956,0.4074221667,-0.2520882281,1.293926549,0.2702084327,-0.6993667724,-0.2133901421,-3.0237768719,2.2660626727,0.0500631392,0.1431513014,0.4482440423,0.3922352336,1.488632922,0.2294455716,-2.3417377677,-0.6976505118,-2.6383234837,-1.5668649862,0.4381583086,0.3331199817,-0.3969636395,0.6591924402,0.6160921362,3.3851722481,-0.0363819369,0.4581307461,0.2614055154,-0.2120512866,-3.0365209902,-0.2147686178,-0.1420178926,-0.5626278661,-1.05334497,-0.1788374897,4.5029954943,-0.1381347139,-0.3554479227,-0.1468291003,-0.7982318328
