encog,BasicNetwork,java,3.4.0,1,1561677331952
[BASIC]
[BASIC:PARAMS]
[BASIC:NETWORK]
beginTraining=0
connectionLimit=0
contextTargetOffset=0,0,0,0,0
contextTargetSize=0,0,0,0,0
endTraining=4
hasContext=f
inputCount=21
layerCounts=4,49,67,49,22
layerFeedCounts=3,48,66,48,21
layerContextCount=0,0,0,0,0
layerIndex=0,4,53,120,169
output=0,0,0,1,0,0,0,0,0,0,0,0,0,0,0,0,0,0,0,0,0,0,0,0,0,0,0,0,0,0,0,0,0,0,0,0,0,0,0,0,0,0,0,0,0,0,0,0,0,0,0,0,1,0,0,0,0,0,0,0,0,0,0,0,0,0,0,0,0,0,0,0,0,0,0,0,0,0,0,0,0,0,0,0,0,0,0,0,0,0,0,0,0,0,0,0,0,0,0,0,0,0,0,0,0,0,0,0,0,0,0,0,0,0,0,0,0,0,0,1,0,0,0,0,0,0,0,0,0,0,0,0,0,0,0,0,0,0,0,0,0,0,0,0,0,0,0,0,0,0,0,0,0,0,0,0,0,0,0,0,0,0,0,0,0,0,0,0,1,0,0,0,0,0,0,0,0,0,0,0,0,0,0,0,0,0,0,0,0,0,1
outputCount=3
weightIndex=0,147,3363,6597,7653
weights=##0
##double#7653
   -1.0343030691,-0.2819612359,-0.84559923,0.7120530058,0.4974591982,-0.1330989224,0.3162578742,0.5019166164,0.6945998078,-0.850372376,0.986415566,-0.7979981229,-0.5457012929,-0.382125028,0.39917201,-0.1815603229,-0.7969605329,-0.0911686662,0.5049011355,-0.5197228563,-0.0532597486,0.5751746573,0.1382784426,-0.3691739863,0.7086711363,-0.472071453,0.0896022614,-0.8965287411,0.0214886937,-0.6575793832,0.6297250146,-0.4343934768,0.3803650193,1.4181359293,-0.0317308243,-1.3013459732,-0.9659246488,0.2914837575,-0.5527640204,-0.5933003603,0.7574930756,0.451622468,0.7464057205,-0.1782597684,1.1165228467,-1.2199700368,-0.5856353616,0.5840145632,0.1903526272,0.8382103909,-0.4770513311,0.5893540051,0.3791919558,0.0532551443,1.0267287563,-1.144244191,-0.1222564469,0.2084351825,-0.0238165531,-0.1993402612,0.2217500912,-0.1287174632,-0.1758422321,0.0145550221,0.7499326958,0.6462420279,0.1335220117,-0.3425174971,0.2893963783,0.7217438224,0.3297681165,-0.1186380411,0.2052272296,0.2098271867,0.1987692517,-0.4856789338,0.0925248981,0.4398099656,0.0300980799,-0.9963945102,1.2124690666,0.1387541483,-0.2525438084,-0.0891990871,0.0339138897,0.5181668927,-0.2227227768,0.5048280977,0.2512594393,0.7710634619,0.9214976554,-0.7009596381,-0.5715660895,0.3236080601,0.5661131745,0.323699147,-0.2030659228,-0.7141203779,-0.112396444,0.0390238836,0.3023968837,-0.0524984725,-0.0091911294,0.0085813709,-0.0800466996,0.0282119488,0.3579312768,-0.1608631677,-0.0745861541,-0.0022704267,0.0143730584,-0.3262910703,-0.1147025012,0.0436101742,0.0415644836,0.5123470113,-0.4090234975,-0.3213572715,0.7130084556,0.277199683,-0.7064796224,-1.3784618074,-0.2438122813,0.0642799653,0.0552031963,0.2799038926,0.8595154518,-0.0147666679,-0.5294279906,-0.0251469022,0.0046778988,0.0610598694,0.1753768006,0.0100952622,-0.0455325766,-0.4726028617,0.1747654628,-0.0221184888,0.2208266119,0.0516178455,0.127129023,-0.7001362066,0.092263497,0.0807225124,0.0002999898,0.0245827445,0.5324429992,1.7639318849,2.6014493768,-0.7566455219,-0.6077295465,-1.4327427852,-0.4508923744,-0.0477440034,-1.1665399248,0.8261365703,0.8988710541,0.0054391882,6.1874223043,-0.5714066825,-5.4592881934,2.0452414773,3.6111397593,-0.2924833062,-2.7096142367,-0.1609182747,0.8295372197,4.8643523774,4.0834365588,-0.084985142,1.552526095,0.8146262577,1.2254174266,-0.0609162105,0.295964496,-3.2887124548,0.2439650759,0.313345608,-0.3356729915,1.36005989,0.0310833444,4.2282370344,-1.3472535203,-3.4391097072,-8.1415450292,0.7874817165,-3.1660153485,-0.9797686619,0.9141888182,1.3161725661,-0.4112861539,0.0527818971,-0.6426723693,0.9887736564,1.9345852871,0.3493936644,-0.1995732517,0.741662252,0.3789701249,-2.2922327401,-1.8761653314,0.5182429173,0.5915403696,1.3977054275,0.2436751983,0.0583654259,-5.2374747027,-0.4262573679,1.2109901529,1.4870886935,1.0247753454,-1.6632109096,0.9172680083,-0.5189988666,1.1957376801,1.5352177423,2.8368169835,1.5147129651,3.7369113776,-0.7183876883,1.4718993716,3.6716197621,0.3118604314,2.4069538374,-0.8677105287,-0.743752676,0.1355580881,-0.8290601252,-0.4723104561,1.0120502812,1.3442162918,-1.3349686361,0.5947831792,2.6960774596,-1.5877168447,-1.5298202294,1.8616573551,0.4910287204,1.2154014534,-3.2030608566,-0.1294856347,1.413430228,-0.2570169915,2.166600335,1.6074487998,-0.6099547684,-1.5540365039,-1.791829165,-0.2592584662,1.4204857666,0.2702285073,-1.5485607744,0.840140399,-6.3219435077,-0.8206195974,-0.0657793631,-1.6033131,-0.158791269,1.5795856031,0.0109217073,-0.7372803115,-1.1548045791,0.4277110547,1.2530060335,-0.0840136412,1.6660787268,-3.5121540364,-1.1251601838,-0.5692580547,-5.3346402335,-0.7770817622,-1.7173233884,0.9943934604,-0.3855449369,-0.2486540607,0.3921989224,0.4699090898,-0.0291152716,3.2927793643,0.0580293343,0.3450366276,1.12371079,0.1724090905,0.5941197774,0.2538112196,-2.3023690918,-0.2209213232,0.0976504786,3.2389117979,-0.2128573147,1.0859920684,-0.6973409453,-1.5995927626,-5.4538610053,0.1875904707,0.7604535123,-0.7502064101,1.0990683152,0.6894662236,0.6141083016,-3.9147435437,-0.6018480413,0.2663593869,0.7769017948,0.3817788204,-2.1319944404,3.677667343,-0.903957079,0.629092845,0.9856152888,-1.2353638994,-0.8685965042,0.1334716593,0.6424781405,1.0214085649,-3.8164730387,1.8688451936,-0.4589882064,3.002993267,-0.1279263985,0.5127979083,-0.8152776608,0.1384611304,1.0563314641,1.4747267375,0.0572197399,-1.9253731531,0.1519547075,0.1562732331,0.9300849071,1.5300588031,-0.7427743568,-5.9688527819,-3.7834919766,0.2683844287,1.0735754881,-2.7537146588,4.865246841,-0.930726085,6.4301883691,-1.9697936484,-0.9474344982,3.0856528669,-1.9858060657,-4.4512742958,1.6071606594,1.7394075804,0.1217215613,-2.9078046602,0.0869277174,0.3161564057,-1.3582412693,1.807771018,-0.5541538712,4.129819666,0.1296563098,1.6835306533,-0.8401562054,-1.6067925736,1.4278904853,-1.8231628816,1.8815886329,-0.2309977179,-0.2284276507,-0.4458349851,-2.4158206363,-0.6390222286,2.9492478102,0.474362228,0.9845544411,-0.8847044821,-0.1997615147,-0.5355124281,-1.1174458763,-0.9529181358,0.7419763614,1.741955788,0.8588057471,0.8225238967,-0.1238837009,0.4827922877,-4.8234056782,0.7061844822,-0.7048753236,0.7480989404,5.983622233,-0.9166734182,-3.5758715051,0.6082296274,-0.6497898308,0.3254124699,-0.222390331,1.0885183282,-0.1857929817,-0.856247952,-2.4660476257,0.799536493,1.1149386674,0.8886144782,1.3863601776,-2.0102952328,-0.1863686321,1.4120767344,-3.6640663296,-1.4053940769,1.7623819114,1.5443468628,-0.4897296122,-0.1221711477,-3.0245880411,3.9514181577,-0.0745958423,1.5476825768,-0.8949222337,-0.3519511821,-0.8429638324,-0.7332306853,-2.5638114706,-1.2356039761,-1.8251704035,-0.4253687543,1.7081493726,-0.0235308321,1.7367829675,0.7915799894,0.4785622069,0.3065829578,0.2284530471,2.2897886257,1.3685634728,0.6011978343,-3.4622956178,2.2668229022,-0.1538372353,-1.3688292678,-0.6147591899,4.0530893566,-0.2505494065,2.9500309525,3.1108634551,-0.5195249674,1.0366083242,0.7229550272,-1.3023594819,1.5230724208,-1.2410543624,-0.4285134676,-0.4780285216,-2.34295284,-0.167182646,-1.3125146132,-0.0993069846,0.5220422964,-1.0637687409,1.9467234721,-1.7262662575,-1.4131541761,-1.321499577,-0.2360232958,0.8819587448,1.9396837831,2.6584114267,2.7146997659,0.3560258037,4.9775570711,-1.8785000451,6.8121725827,2.0476438731,-1.1448255168,0.6788388749,2.1465628121,2.0412720231,15.7052310947,4.9133928572,2.287841956,0.6345148112,1.7877271741,6.9915601166,0.7948857878,-0.0102620253,7.4616584184,1.1996001133,-0.6899568061,-2.687133839,-1.4781054474,-0.1248265547,0.4141428986,-0.2746522336,-1.6979188908,-0.8909455704,-0.6802505056,-0.4087885469,-3.3719309528,2.5792583414,-0.4540305874,3.2856918372,-0.8405208199,-1.5446171474,1.1769083751,1.6778094322,0.7159439631,-0.1570145899,1.9117243643,-1.1132587699,-2.5152603175,3.5747983789,1.2976496409,-2.1558450517,4.9493138924,1.1787005951,0.7810227538,-0.198437914,-0.3484924245,0.464069935,1.0664946649,-1.2136610808,1.1409085758,1.6003430042,-1.4207727328,-6.6620596836,0.6783887222,1.8712220612,0.2432825495,0.7205676503,1.3549888256,-0.1349486014,-0.5493698004,-0.8079649252,0.2735608814,-0.9251292754,0.4506352575,2.7507875576,-0.691459229,-2.9422450552,-1.1677937817,0.596957102,-0.1656024891,-2.2368760948,-0.9473455974,0.4575837005,0.5281389737,-2.5166974792,-0.4251471035,-1.5055150347,0.5291746609,0.6747299181,-1.6327599109,-2.2066654523,-1.2067173294,-0.443296047,-0.5569048311,-0.0522311317,-0.4261230539,-0.8481169987,0.9314432603,1.089959545,-0.3000282594,-0.8248077353,-0.289144115,0.5029117055,0.9387085874,0.3797380916,-1.3091844942,-0.7778158161,0.3886718501,-0.2677677572,-1.1639240227,0.9747348085,-0.0811694391,-0.3037173616,2.2733625492,0.242082399,-1.9332842087,-0.1287065432,-0.5265772664,0.1031783601,0.3324174241,1.3619635538,0.9471983687,-0.2618467573,-1.0624026329,1.7000916208,-0.5673313021,-0.8380236486,-0.045702595,1.3879849699,-0.7355666359,-0.1950282832,-0.2808478685,-0.3620672899,0.4442143827,1.8547241387,-0.1059709401,-0.9079293629,0.0972547065,0.8783073116,0.0339452239,0.9863528915,-0.3883732307,0.8650419571,0.3998688644,-1.4588546365,-0.3824590881,0.6318405797,-0.3161544769,-0.1988074853,0.0443680949,-1.3938054785,0.8844290248,0.749276836,1.3734162881,0.2622389225,0.5550728669,-1.1327903261,-1.5800734756,0.1922125729,0.3406503277,5.0759593005,-0.800942809,0.9979097677,-1.308562134,0.0568423035,0.0218146244,0.1413175387,0.7044569455,-0.3125133459,-0.7421518788,2.2824409837,0.2470793915,1.2951094628,0.6136107984,-1.4248978472,0.3122881977,0.1469326659,0.6504460502,0.8589268494,4.8055814613,2.2479640949,-1.4158815594,-5.6119090576,-0.5862385691,2.7393789262,-1.1972710362,5.7163065746,-1.7289166642,0.0576363346,-0.1643464221,0.0569364629,1.0716589078,1.5029093076,-2.2872772855,-7.6268882364,0.8100416286,6.9054908906,1.2611440531,-2.7944628147,0.3631315114,0.9849007602,-0.9978955526,0.8308966804,-1.4457938165,-1.4507482654,0.268505293,0.4730529198,0.714848262,4.8130072709,-0.4215866828,-0.8722031764,-2.0663392892,-0.4621055649,0.378927031,-0.2569681999,3.3379355732,0.9319408257,-1.1562219145,-1.4116843237,-0.150931785,0.3657856606,-0.8047118995,-3.3282168943,-0.3459263622,-0.989541303,0.4546698316,-3.0755590422,0.4846450871,13.2779411319,-1.9604132721,1.6139619606,-1.1788522606,-0.3265635308,3.7164195192,0.6107334799,0.2074621605,-0.4472963958,0.7311355501,3.3668746747,-0.376342705,-2.3106730204,-0.7223281515,-0.4210684529,-6.1912869723,0.9452371405,0.0077445033,0.1733754571,-6.7686263866,-0.0209903237,-0.794057057,0.9743768394,-3.8698145008,-1.4114876732,-4.4607338332,5.2536302614,-0.4310166725,4.5856248874,-0.9196800327,-1.2577595904,-1.5709032086,1.5792572546,-4.5811123213,-0.8703735043,4.4740940488,-4.4753081437,2.9867584757,-0.5803863305,0.7916757241,0.3792574006,-1.4590578247,0.2658219261,0.2953848823,-0.0444995288,-1.0893236292,-2.1868466592,3.1094267353,6.05349347,-0.2633238463,-0.8388048696,0.583394526,-0.2074168837,-0.5446498497,2.0583877982,1.2439837516,-1.4102561486,-0.4896569406,0.2095703096,-0.2606098193,-0.9385794309,7.3595015365,-0.3706446231,0.0278809958,0.7111712502,-1.0760876913,0.5125626966,-0.6687137885,-0.115946569,-1.1366010136,-0.6963295493,-1.3388149831,0.8983755726,0.6591648858,0.7827519273,0.3161529012,-1.6225958196,0.3888613809,0.526009814,-1.0030726098,-0.5531623335,0.1398384985,-1.0691759997,0.7400929289,-1.3456837576,-0.77289755,-0.7107476582,3.1488879192,0.8709616525,0.8088468599,-0.8445271342,-0.2847585055,0.1763716396,-0.7955302123,0.4621315285,-0.2868008188,0.6313139364,0.8652383746,-0.959588619,-0.1510945478,-0.1780766236,0.671101286,0.2852806006,0.4775228613,-0.1444037371,-0.2956031191,-0.0437719548,-1.5597386532,0.1780354311,1.758134678,0.157642974,-0.0838696781,-0.135579393,0.4245046346,2.0887998164,-0.0668634387,-0.089366389,-0.2662630252,-0.6927043917,0.9276728361,-0.3102834907,0.2973175972,0.1744937023,0.1961594167,-1.5121266536,0.0734437607,0.5725199384,-0.4235011441,0.0313391947,0.2622853432,1.1481669743,-0.3420403422,0.3352474286,1.0565634825,-0.5440946548,-2.3625616867,-2.1846182885,0.7423643229,0.3323199174,-1.4949298954,-0.1585717244,-0.3044313597,-1.5141102216,0.8982271307,-1.1125113839,0.1045050272,0.0180190463,-0.6155553066,1.467885789,1.0908438729,0.2865157941,-0.0516792459,1.5479617933,1.9680071891,1.3861690946,-1.8510868952,0.4088358502,2.7228065819,2.5441941483,0.0750224596,2.5996104481,-0.305468077,0.4587210878,0.8778638901,-1.5191973393,0.7105588786,-1.4223035544,0.92770167,-0.5999636791,-2.2316041781,2.2615839607,-0.7313593803,0.3685233424,0.4734747976,-0.3184265983,-0.5900285972,-1.5495889583,-1.2728003996,1.5599725961,2.7912562371,-1.8822632278,3.876959519,0.7497008083,-1.2659050492,0.0031657151,-0.185206684,-0.6023856639,0.8870700411,0.1428094428,-0.5804083152,-0.7986704533,0.8955229797,0.3692895018,-0.0130353215,-3.5102224491,-1.5869963479,1.197569428,-1.265624476,-1.2366157631,-0.4685968049,-2.4821769544,2.2988663862,-1.2354155371,0.7276815531,-0.3888037258,-4.7904629376,2.9546781279,4.1731730574,-0.9230905497,-0.4331623224,3.684702084,-1.0394233147,1.2111833044,-2.5117263773,0.8651486142,0.6173549684,1.7009271924,-0.659618939,-0.4182582221,-0.4489213911,1.8556825407,-0.3878327633,1.1013218204,0.7569966541,-2.0945170438,2.1867493777,0.9260256747,-1.4254997576,-1.935299581,-1.0582765037,1.114968348,0.9900352588,-6.0856755414,1.8925252873,2.9585688749,-0.201191802,1.8466162676,-0.5425144216,4.0667067976,0.0748422509,-1.5112868205,0.4609944561,-0.7127641887,0.0747507755,-0.6141802032,0.787748573,0.4807033919,-0.8680310258,10.980770254,-0.5862121706,2.3444977747,-3.4346786175,-0.0817102045,-0.0839589202,-3.7482559839,1.3873667679,-2.8241183024,2.7660125877,1.1924567311,-0.6147803318,0.4131875656,6.7285136535,-0.062814349,-0.2664602921,-0.2925731424,-0.1135487748,-1.7682394,-0.1294799427,-0.2500417909,0.2479889678,-1.0054379373,-4.2623926966,-0.8361543894,-1.8078036245,3.5676906088,0.7884685545,-0.5625929233,-1.4612191172,0.3689046932,0.6428935141,-0.9927585461,4.1029043949,-0.3840899957,2.4113093523,-0.0554801304,1.2081044744,-1.3305690889,-1.9513204269,0.7366959202,1.0122373432,1.4614955156,0.2487557153,1.3393557187,-0.4111479498,-0.1212169606,0.3504234447,-0.4734741085,0.7722303868,-1.0768923381,0.7965523196,-0.6120261409,-0.0532425675,1.7033749178,-3.2792438457,-1.6968168657,-2.1255387105,2.6638281413,-1.1839449375,0.8548818708,0.5116474837,1.1674678345,0.6860768743,-1.3428653241,-2.1606351322,-0.2381303467,1.0527573137,1.3908351503,-2.0951911485,-0.9621847164,-0.7952438901,-2.1147008536,0.3325628175,0.8933470573,0.7105915604,0.1347494084,2.8223870451,0.8988192952,-0.6019640819,-0.6892809517,2.1234292482,0.9507129741,-1.2704630279,-0.1659476123,0.5539953022,0.4369679888,-0.8966620552,-0.9639801012,-0.6639336936,1.1150822467,1.6919669901,1.6787641558,-0.6668352823,1.2333749288,0.3218107126,-0.7069274426,-0.5169355458,0.1594275156,1.4136069993,0.3341527673,0.7887354391,-0.3480226623,-2.4862916183,0.498264634,-1.6759679441,-1.55375984,2.9856003481,0.8564318773,-1.4563087001,1.5487378327,0.1328375516,0.0132687643,-0.7422197573,-0.0951337532,-1.0632037677,0.5390669267,-0.1311346356,0.6738040035,-0.5112118187,-0.8533912459,-1.2090450747,0.6499701394,-0.167225251,-0.9832868365,0.4854996008,-1.5669394335,0.890179767,1.2554214892,0.33445027,-0.8148943683,1.7982621072,0.8324309186,0.6684309388,-0.5214771707,-0.390688992,-1.3601913887,0.0499833928,0.6886290848,-0.5847832321,0.7368282243,0.0310464504,1.1718842758,-0.0590901653,-0.0853031837,-0.9693047195,0.43522649,-1.2978617709,-0.1840998463,0.2521604311,-0.3944210134,-1.9678217694,-0.4839998465,1.325014572,-0.0276296144,2.1473351433,1.2528437896,0.788463441,-0.3340922484,2.7436030661,0.1206633737,-0.1154928249,-0.0420175699,1.3730723547,0.2699877449,2.121892408,-0.2033450699,2.5236636648,0.1342691141,0.0735137221,0.1286538337,0.8956743835,1.1468509368,0.5347557797,-0.0777717736,-2.909942701,-1.9316601173,1.7840279904,0.1018820664,0.1250775293,-0.1942887614,-1.4552381663,-0.1102144844,0.4448340798,-0.4216876406,-1.5104163201,0.2504946901,2.2391417125,-0.4212808863,0.8904885918,0.1391559762,-1.698889425,0.3302383516,1.1794610376,1.5371561261,-0.8719579213,0.9549235967,0.8265291798,0.5991913718,1.8262828309,0.315253632,1.4484849077,0.0781927497,-0.6307684325,-0.7442305109,-0.4377149548,-0.3254559217,-0.0631311778,-0.7840848661,-1.483070353,0.2604042091,0.1389066882,-0.0722645619,0.0805097993,-1.7658564242,0.2997727834,-0.6407098413,1.5003604402,-0.3151194536,1.7176726191,-1.0411966158,1.4913522238,0.1564274596,-0.0681303109,-0.0008605372,0.6614009663,-2.6071174875,-0.6863829902,0.7232355957,0.9373676592,0.646507607,-2.5911426752,-0.7171971052,0.8129437278,0.9633126204,-1.1849316993,-2.8314042462,-0.9432555631,1.1407702979,-3.8495511865,12.1271081911,-0.490600335,1.7850688251,1.6086894077,-1.8100557604,0.5758655433,-2.6548024171,3.8630243402,0.9723106177,-0.3569326575,0.6466891139,0.5230367682,0.2275303237,-0.5436607022,-0.8393938142,0.6572361391,-7.924310006,2.0544931445,-1.1143261532,-0.0445267518,0.980019768,1.2497856646,0.7624732739,-1.041411501,-1.0034226016,1.2937760888,-3.2283795372,-3.6708309028,0.965491013,4.4305771128,-0.5035416147,-0.9618668098,-1.2949718423,-0.0202246213,-3.9890812407,-0.3210472502,4.0101008977,-2.1029745577,1.8887916278,-0.1754288089,-0.7333964703,0.0135537107,0.978088255,-1.0357112027,0.5165657742,-1.510631889,1.0092423079,0.5973281944,-1.1310109218,0.0685841762,4.8581985861,0.0038843265,0.8734430759,2.934510412,1.1236954556,0.6962200213,2.0063153901,-4.965888414,0.3742046238,0.9641135378,-0.5289576874,1.0845760326,-0.2988993006,-4.6835345851,-1.2245688502,1.1631608039,-0.4273404529,-11.8128770576,12.8860149351,-5.0132946912,3.606050262,1.5768134927,-0.2955632694,0.5877796851,-0.6062085853,1.8521324035,0.3245845856,0.7096325608,1.9183053576,1.6860038281,-0.7881121381,0.2403625606,-0.8679599893,-0.425713297,-0.1091951662,3.1162192274,0.6667426468,0.7570415158,-1.7089612165,0.9251307589,0.515332198,-1.3562885748,-0.4195883838,1.1848810313,0.9756979254,1.569062001,0.4124782139,-1.3222291189,-0.4770859021,-0.2505898997,-1.1151455461,-2.4384285517,-1.1839376197,0.202390818,1.6327090327,-0.7445595228,-0.2913932123,1.3569242571,0.9356092696,0.6963910594,6.4398326122,-0.1297916113,-0.8657518533,-1.4638939776,-0.5548745591,-6.1983541057,3.1732585497,0.3971260843,0.1408549673,0.7240223573,-1.1326208941,0.2175171756,-1.9499376721,-0.5919849082,-0.0065172186,-1.1023957814,-0.8903357533,0.1392579462,1.8567808689,1.2111981619,-0.3136871339,-0.0215342743,1.2214791162,-4.8020688396,-0.5760945824,2.6136711987,-2.4232431763,0.5027264403,2.5809016775,0.722222636,-0.3240477048,-0.215575795,0.1767120151,0.2689269242,-1.6123820009,-0.5331413486,-0.8701786041,-2.0533584753,0.672106608,0.3150420091,-0.0680003763,1.6016039512,1.3407525909,-1.562097692,-0.8217167726,-0.7926630656,-0.3030390726,-1.6605668852,-0.4567466001,1.0211336371,1.8864310906,-1.471129872,5.5020485043,-1.374024809,0.0640190527,1.0905654702,0.0352615976,-5.2357191489,0.1210664875,-0.617573285,-1.0368694248,-0.7464365651,0.6114873779,-1.5722762564,1.9128998153,2.1963260174,-0.2653695141,3.8147477609,-0.1088434583,0.3336493766,-0.1388526787,-1.7150708509,2.1206420611,-2.3697832845,-1.5137695427,1.2576971395,-3.8454286262,-0.0057680493,0.1780844889,-1.9335612554,1.3318284307,-1.0119567532,-2.4035883672,1.3324841329,0.0686412658,0.7829642937,-2.4660064639,-0.6148824663,-1.1835052769,-0.5851631302,3.7752775469,-3.1035215252,1.0329713284,0.6306860015,0.1934218365,9.7229640024,-1.3662387976,0.8830390444,2.3812648425,3.1455421413,0.3172325843,-0.2095612625,1.1228490051,1.0455481534,-0.4169624943,1.0470527796,-2.0542304613,2.5795582196,-1.1305984297,-2.1709715289,-1.6810988618,-0.5737353804,-0.7077880517,-0.1501736475,3.0994176785,-0.5854488174,0.2919142965,3.0351238062,-0.4960856576,-1.936525281,0.3791576991,-1.8397943399,1.2114072356,0.584542261,-0.8639601036,5.6528644357,-0.3857718351,0.8935842937,0.625693361,-2.41392669,0.3932391911,1.2058442401,-0.1613152764,0.9026987387,0.6799902633,0.6232392449,-0.9160280178,0.738872645,1.3492909829,0.5150381318,0.4485936019,-0.2338865108,-0.0583966139,-1.2306003267,-1.5719224554,0.2365226077,-0.6236062279,-0.2115880353,-1.675628179,0.0179015055,0.3633128437,-0.3889186204,3.2890066869,-0.5298323366,0.5729780773,0.0762292899,-0.5459120917,1.5098292975,-0.0484685839,-0.1624135944,-0.6325944701,-0.6407304714,-0.5221865704,-0.7993583159,0.3062473526,0.1047903942,-0.1691891502,-0.2140120596,0.91303686,-0.3338875053,-0.5184200421,-1.28394666,-0.5760788142,-0.0661212072,-0.4050605058,0.190343521,0.0319710906,0.0123218144,-0.8730149101,0.4645705088,-0.0641001757,0.0496555369,0.2539112468,0.3420248078,-0.2499899182,0.0562184918,-0.5118882966,0.2118380934,0.8308492386,0.0552851253,0.5437317078,0.3029264586,0.2515047976,0.0071120172,0.2586005037,0.9024803994,0.0838338476,0.8049667338,0.8210282551,0.0407962861,-0.1020712046,-0.1210221749,-2.8022071405,0.4014892676,-0.2068763052,0.3339479275,0.0296691875,0.7957362848,-0.0265845846,1.108801167,-0.3129708756,-1.2983790049,-0.9923277232,-0.3264378974,-0.0841686116,-0.5358858525,0.2668575104,0.514142678,0.0479812575,-0.592173968,0.3225945421,0.6811881254,-1.2409126658,0.9302292009,-0.1704599426,-0.0594853073,0.2340960266,0.399797403,-0.2983807024,0.27126765,-1.3654667129,-0.1562440507,-0.0142721521,0.4148650589,-0.2992105424,0.2302707376,0.1389869006,-0.0954083993,0.1335200205,-0.6565725808,-0.991543403,-0.1070941805,1.9503664547,0.0145648295,0.3286497912,-1.1793432602,0.1575024173,0.0365864439,-1.3115579573,0.1039915599,0.9411283812,-1.0259815066,-0.3226696297,-0.6730279972,-1.1419480579,0.5784102253,-0.1105847282,-0.3247567942,-0.0893970715,0.0484618722,0.0097898794,-0.8551988189,0.1473346083,1.2456007859,-0.309155766,-0.8980666547,-1.6116173078,-0.5830306092,-0.0290518125,-2.8692557858,-0.9404065829,-0.1582708413,-1.8242455654,0.6597908564,1.5161735575,1.1490576222,-0.5459855771,0.1478518216,-0.9340920592,0.8312724868,-3.6618335914,-0.1725005281,-0.5634232008,-0.0114555917,1.2171721417,-1.1397401707,-0.5648978351,-0.0316411472,0.914165874,1.6960024799,-0.1078233081,1.0735233351,-0.1770584139,-2.8902840942,-0.0750276089,1.4774948701,-1.1038018237,0.0617591772,0.2711256558,-0.1452827838,0.4476063836,0.772781482,-1.1394568019,-0.6218966418,-0.1385597835,-0.5999633603,1.0882922104,1.9325121197,-0.0641604332,-1.2311835519,-1.0199206509,3.6708271386,0.4691980648,-0.0087748492,-0.8571388732,-0.8437138313,-0.1785168336,-2.4430749227,0.0949829187,-0.0242518339,0.3151072849,0.9927944753,-0.2221276174,0.3854321795,0.0681862408,0.8240983895,0.3593399844,0.1345479022,0.5960785981,-0.9588753523,-0.6200462743,0.8325484799,-1.7166636435,2.8767799767,0.5438713861,0.2316688626,1.4927067486,1.5599736897,0.3492479506,0.4733120044,0.0704510263,6.0857271829,0.0729760456,1.0625407838,0.7526337173,-0.3094563731,-1.0004708905,-1.1921906386,0.2304413193,0.1647452891,-0.5829435835,-1.7356327969,0.0623683775,-1.5689055966,0.8867190033,-0.0042613509,-1.282248982,-1.7640062377,1.0781094339,-0.0660987813,3.1476638264,0.0727297696,0.2443254066,0.7576775275,0.3598266094,0.3344876815,0.3465538059,-0.0082861343,0.2279299453,-0.373894563,-0.285992558,1.1754557315,-0.1877757872,-0.0670041547,-0.1722016788,1.4165392503,-0.6432138812,-0.0479788655,1.7385808314,-1.6454117362,-0.574200577,-0.0736328635,0.3966121642,-0.2078494442,-0.3060654249,-0.0764921121,1.6257855504,0.2417711386,-0.4570981017,-0.0055156957,1.0774603154,0.3086943419,-0.8762419482,0.0230764546,-0.0757685164,0.2543977128,0.4385367775,-0.5912243372,-0.4374186211,2.1078741206,-0.4179824455,-0.9073001903,-0.8022563937,0.9737838694,-0.3867184397,-0.2096190045,0.9674318954,1.5096119495,-2.2098150469,1.9477985599,-0.974734327,1.290315455,2.2210623138,-0.0994083246,-1.8259112851,0.1990257976,-0.6800851497,0.4081837915,-0.9628405316,0.6086453271,-1.0745895624,-0.4588567667,0.8824059567,-0.8561896741,-1.0533439284,0.9434029524,1.5342005301,-0.0292935559,-0.1561997274,-0.1537954072,-3.0548024104,-0.1954666371,-0.1087674037,-0.2435334932,-2.0936981223,-0.4097477898,-0.6316471464,-1.3655662675,0.1202969917,-1.3586039223,-0.4434271836,0.605727106,0.118708554,-0.4785478349,0.5247513925,0.3209305949,1.1903840407,0.5508656135,0.0989207967,0.4513331579,-0.2831041705,-0.3365494693,-0.6889878831,0.3064154804,0.3944396668,1.1638461543,0.4357000232,-1.0737569645,-0.5810371563,1.2029664291,-2.1348662484,0.4201309783,-0.6812877326,-0.6775667552,1.1071954245,0.5120505159,-0.7033406342,-0.5070865606,-0.8867105988,-1.6738851279,-1.1411236946,0.5386904941,2.1209852386,0.7286421131,-3.3052295025,0.9555176709,0.9449396244,0.9796219287,-1.6615224975,-1.9942663081,-0.5172123801,-1.2789192145,0.5313282326,-0.3469642443,-4.8568876906,-2.5567497496,1.7921048253,1.5585796171,-1.1956876785,0.5099852698,-0.1541983066,-0.2614111893,-0.9222746632,-1.1238895005,-2.0891522165,2.6922832263,4.4054411855,3.5147461356,1.0470332063,0.3961442167,0.3298504372,-1.0503381279,-1.4074989784,0.0015677468,-0.3572214423,0.2596428593,2.8394985371,2.7828074362,2.512361599,-0.6199392794,-1.1585203175,-1.0193054595,0.1723281517,0.3683631781,1.6515777865,0.9663270756,-0.5085347853,-1.1124906482,0.6952366507,-3.2156435004,0.1585854609,0.1836037412,-1.7471610575,3.2796153149,-0.0691109686,0.2066289927,-0.2296763404,-0.9211752429,-0.3680212571,0.4261599877,-0.1320511129,0.1512312869,0.7259530852,0.2059153865,0.288958489,-0.4421469398,-2.1615698889,1.4936513614,0.4102095329,0.5130086475,0.0338140771,1.0376662454,0.4218245415,-0.1576584381,-0.0345969971,1.3106201248,-1.3080314562,0.306956043,1.0289189438,1.0632912942,-3.7535845543,-0.5803110788,-1.1568615404,3.2337006702,0.3786009512,-0.3948248684,-0.7938529041,1.184356572,0.4282432598,-1.4310833883,1.3525370935,-0.0389240445,0.1685344332,-2.2752910236,0.4116516002,1.0267392439,-1.5551101758,-0.8055025538,-1.2041725747,-0.842271322,0.3226055978,1.6263541153,-0.2318837151,2.33577422,0.0180596913,-1.3267694333,-1.825111428,0.9126059887,0.1640569792,-0.6031698977,-0.830559646,-2.492225947,-1.9195931906,-0.0885763906,-0.5042530595,0.3019542592,0.1940325655,-2.2449332971,-0.6903447961,-0.4462599206,-0.904666987,-2.0099518889,0.9254872484,0.2408754186,1.1720151919,-0.6188289747,-0.4003312737,-0.1241959306,-1.3413599838,-0.6394828783,-1.2705840496,-0.8636927321,-0.3268074846,-0.499739967,2.1476687087,-0.2413339879,0.7040887369,1.0729163347,-1.3402059892,-0.7453276521,2.5738327034,1.2683644323,0.2475919192,0.9930076624,-0.2326928399,-1.0990934785,-0.3395962771,1.2385029407,0.5261246091,0.2948410384,-1.2087190569,0.5706423787,1.4506971454,-1.1347288661,-0.2315537258,-0.6486572362,0.5154578836,-0.7385597355,-1.8004791039,0.1458221212,0.8478899799,-0.1010757897,0.7782224276,0.3243346945,-0.681834306,-1.7534575272,0.230905518,0.6015927582,-0.2688819042,1.1962795852,-0.935317464,3.4412251085,0.9865349825,-2.0352797626,0.8739234443,-1.0229050046,-0.1633196858,-0.6351428907,0.6129052117,0.04001239,1.5246533825,-0.6182118825,-0.381805207,-1.8683338759,0.4481773579,1.3455532588,2.6896879316,4.8429821057,-0.0561371667,0.1901521253,-0.9355622884,1.3612948875,0.1415744144,-0.0030148263,-3.4899686131,2.9355071952,-0.72586019,-0.3255687752,-0.4151483614,1.0131449227,0.8778559745,-0.5498247999,-0.4168277452,1.0646483186,0.1929443137,0.0970685382,11.4651743131,-4.6797400282,1.925474132,-3.2015264155,0.0211847581,-2.7039869453,2.9127663745,0.8859993487,5.6509384481,-1.5177930367,-1.4058667655,0.9643613302,2.3674217026,-1.2449061983,1.1338658985,-1.1829568239,1.1832243155,-1.7891656618,-0.9973846813,2.9308159745,0.6396222849,0.4596673507,-5.420893974,-1.2725866048,-2.1528558881,-3.0994442643,0.9549369569,-0.0338742594,0.519431767,2.5603501794,-0.4751845473,0.5732850869,2.3787531211,-3.0602838582,-2.5881883579,1.3953112353,-0.1877315387,-0.2175492521,0.2561215587,-1.5217934405,1.8565229256,1.933370407,-1.7829948302,-0.0219339699,2.8198772312,0.2766563943,-0.6911949583,-1.4090154386,3.114503968,0.4196847176,-0.132094217,-1.2828892952,-3.3477688855,3.9595852779,0.9830587705,-2.5951685956,0.7111949087,-1.1085946546,1.3325904081,-0.6083955105,0.0431934394,2.1014010886,2.2714453027,-0.6694184488,-0.3590450149,1.2694179741,-0.1459297606,1.1387002323,0.276675713,0.3206382785,0.5999588297,1.2296611785,1.1904071097,-0.7507774007,-0.5770076558,-0.3204023104,1.0682333515,-4.6020938104,-1.0165340845,2.3098229648,0.1348057226,0.5434913384,-0.5911980959,0.4643943368,0.4268171107,1.304285386,-0.1480041376,0.6666662411,-0.5226088711
   -1.1090101015,-0.2552519409,0.8333362879,0.2805089986,-3.1127972268,-1.4759171177,1.3002062853,-0.0948693522,-0.3297329887,-0.7626137459,-0.5263776148,0.8997137625,-1.0514177254,-0.6921191577,-0.200272239,-1.1912498369,0.1363780703,-2.9429658578,-0.0891654116,1.608453416,-0.8248470392,0.1363020793,1.609923859,0.2146849762,-1.1967416861,-0.5300404245,-0.7731985119,-0.6135682584,0.0979648579,0.2219103155,-0.7426558863,1.0197284458,-0.0938388195,2.2742077207,-1.0047868143,0.2210350204,0.6802299573,0.9969042803,1.7772443326,0.9438092902,0.7029791974,-0.4499126942,2.5170953725,2.6467616283,2.4192773119,0.2646468523,-2.8909337172,-0.2520724662,0.1710560118,10.0118398415,-16.2822130426,0.279280695,1.1057381592,-5.7063300085,1.1634993096,-1.0629908683,4.6642964116,2.4039102077,-0.2880714886,2.201443983,-0.412512943,-5.0721463228,2.1824479203,1.7404211847,-4.5606663951,-0.3078618236,3.0880591269,0.738015102,10.2768352137,-4.9888229294,0.7675179253,1.8633038449,0.5885842192,-1.6106654787,-1.1304049692,2.0370107333,-2.0371988287,14.8953397293,-1.8535588955,-9.6864207006,-0.5404931693,5.006474637,-0.7893893562,1.9420249884,-1.8210100796,4.1658681225,3.1892859204,1.1460122052,0.4626356091,1.4786556279,1.5296405205,-3.5822427213,4.5188997093,0.5677097971,-1.615276604,-4.4355093251,0.6305520419,4.2268103098,-1.4960019081,1.3485854859,-0.5343804632,-2.8474066143,-0.4729336179,0.0173695476,-1.2775234509,0.8128492144,-4.493555089,-0.8463823816,0.9183950805,-0.8656678844,0.3118852943,0.2074188265,-1.0556997449,0.8254012301,0.0952811635,0.1492988488,-0.9624284206,0.0669192712,1.5050968839,0.3541693485,-1.3806861572,-2.0223959766,-0.4800277985,-1.582315903,-0.6767344394,0.0231338346,0.888738359,0.0195694353,-0.1127044509,-0.7522067392,0.6318824191,1.3652349143,2.6148268055,-0.1902609085,1.0230178221,-1.3991084508,-0.0025161042,-0.8735055341,-1.9294455012,-0.4264295232,0.2390203849,1.4833004981,-3.0654980649,0.6159947832,-0.2443697116,-1.3658029643,0.8759403498,-0.3908662399,-0.5053809684,-0.0268646326,-0.8982921754,0.0979882884,-0.6125913226,1.6368128629,-5.910117085,1.936345094,2.1876467808,-0.0196290288,-0.8974985209,-0.7817452598,-1.491698911,1.2519652768,-0.7965118905,-0.8087307315,-1.3300356693,0.4617479362,0.009036885,-0.4968389795,-0.673135087,-0.434851643,0.6442847306,-1.0354037175,0.8582891175,-0.7365077648,-0.0508602989,-0.2742353271,1.0676583843,0.3848663353,-0.4127229345,-0.5136989837,-0.3655180299,0.3168024171,0.6222345467,-0.0379262845,-1.1768800261,0.5943426382,-0.0934217273,-1.1743660541,-0.8394355268,0.3903096748,-0.468922926,-0.7323109641,-1.2180679675,-0.4417931419,0.1161048682,0.7311139347,-0.1411562613,1.4931715102,1.2499210659,-0.6598134549,-0.8116042042,-0.0319930026,-0.3156614637,-0.4292100287,-0.1030437288,0.2643208852,0.384266137,0.9322020492,0.8328015881,0.7556394281,-0.2442515363,0.0374315201,-0.2619939892,-0.2870058996,-0.1847591355,-1.226564278,1.425674311,-0.1517517853,-0.1395145714,-0.1979965512,-0.6516128427,-0.8047731502,0.9736626524,-0.7467066876,-0.2954472756,-1.1237393214,-0.4943602545,1.9861462928,0.1921525314,-0.9436459252,-0.9332768466,-0.5940051332,-1.0749623545,-0.1128153291,-0.3683644415,0.8959042068,-0.7631144711,0.0334200941,-2.2828774886,0.1883205837,0.0810550237,1.2492459279,-0.4727424058,-1.9337276885,-0.302428486,-3.2024813764,-1.7908727827,-2.6534849475,0.4024533531,1.3867173969,0.4429815628,2.1034886046,0.2525156274,-0.3352928693,-0.8737257536,2.1419424284,-1.3384116131,0.5254563328,-2.8238882138,0.8010855769,0.9931809849,0.199678202,-0.8510779779,0.4512218956,-1.3742383336,0.1390664236,0.6701069515,-0.3456199573,-0.2836759088,0.755119693,-0.0012413222,-0.5260095753,0.1351852996,-0.6209494852,-2.3014076707,0.6923116591,0.028021539,-0.5777786118,-0.2374724791,0.2275537911,-0.9439981968,1.4614777885,1.3350165567,-0.5946809655,0.6159097151,1.6908312963,-0.286511079,-0.9329984365,-0.8328399688,0.0020721634,1.6719709619,-0.3614755085,-1.4387693127,-0.4131620097,0.3272129377,-0.2897631201,-0.9498515754,2.1987839686,1.5571415905,2.9595513881,-1.3380267667,-0.7335155802,1.3533651394,0.5154345627,-0.9259926162,4.1892580957,-1.073785888,-1.0362425643,-0.0483849171,-0.8571861163,-0.5775682851,-4.4230070939,-3.6351405371,-1.2222803021,0.8773410209,-0.0461359317,-0.1816493184,0.4345569456,-0.7240115909,0.0349830102,0.207275589,-0.1983472005,-3.1451349447,-1.8604586876,-0.350777847,0.687871983,0.80617304,2.6973088016,1.0505347417,3.630747147,1.4181319361,-1.5093273256,-2.417303623,-1.0864338528,1.6766583671,-1.5265903386,-2.8021249787,-1.8842834931,0.7900408281,0.1670781187,3.3294677775,-1.143503727,-0.9293865202,-1.6381135498,3.0789964393,-0.0252603904,0.4241307081,0.8624489828,-0.5151396542,7.7925679039,-0.5787419499,0.0973194172,0.3696476408,-0.8830612837,-1.8424927281,0.139585113,1.2362470149,0.3200688595,-0.6516725215,-0.1942874758,-0.4184826522,3.2241275632,1.4026032623,0.1057297034,0.5929032151,0.9956800908,1.2601077329,-0.3038065419,-0.7488759201,-0.0897579664,0.1368695715,-0.4776256555,-0.0997500672,0.8401282492,-0.109906297,-0.8002236874,0.485581237,-0.7853940187,0.0859083094,0.8498913291,0.1245759432,-0.6198700485,1.0713976519,1.0219089594,-2.3176947084,-1.5474948024,1.4241737237,0.9458689047,-1.3438436926,-0.1909762474,-1.9426937678,-3.4440845955,-0.1479046682,0.7737982445,0.0994627045,0.991284703,0.2339508536,0.7062142323,1.3712357197,1.1962331512,-0.4873918138,0.0766645204,-0.6292191847,2.4571345772,2.9994828001,-0.6444685928,-0.6959996382,-0.6488855195,-0.1288108561,0.8665511873,-1.7820118021,-1.0338699915,0.2264042503,-0.0989148321,1.1983505957,0.4326755348,-2.0324206175,-1.3854955135,0.5640764702,2.070763615,-2.145215366,-1.3834063567,0.667944217,0.1616403059,1.1887658357,-0.7307481734,1.1259491362,-0.0251730975,-0.5651408406,0.0369548463,0.5866600753,-0.7363494235,-0.2337832565,0.1917777449,0.6182484454,0.6538199707,-1.1890295922,0.675856894,-0.6214910721,-1.1884168629,0.6058336419,-2.2394299196,1.341890008,0.112105639,0.5047132829,-0.2311054336,0.3097675995,0.6102965924,1.4007873249,0.4517338677,-0.5733802423,-0.4793189113,0.5806770226,0.5353209324,-1.2866880394,-1.2856337165,-2.3696357039,0.891045971,-0.6502239601,-0.4620004261,0.6447698587,0.4688658912,0.1606147489,0.0856707313,0.5972505908,2.0750216856,-0.4075119248,-1.1053950342,-1.5775713163,-1.7116058244,-0.0670551346,4.2154176305,-1.5371422801,-1.4745065729,0.0560786379,-1.1685977782,-0.2008066698,0.9057731333,0.2424026882,0.7558544078,-1.6668135731,-2.9575384088,-0.3190453081,-1.6266402593,1.7631044161,-1.8527279814,-1.2418040148,0.101730499,-1.2560525328,-2.4230135689,0.8800198629,0.5907340614,-1.5418242612,-1.7464513923,-1.6951334135,4.9062915699,0.5283680993,3.1201530104,1.1719215984,-0.844575996,-1.0736314322,-1.4273624201,-1.5777152973,-7.3418538422,1.5132245006,0.5859478278,1.0608552012,-0.2498079907,-1.2583523104,1.244311891,-0.4169787914,22.9445492399,-0.0945708384,-5.5138418404,-1.643638099,1.6584997537,-0.1717721606,5.1807195536,0.072821027,-1.1349657938,-0.9392162914,2.1540340497,-1.8537541959,0.3939940146,-1.7212020983,-0.0147265298,-2.7176358251,0.2281551459,1.2847250693,-1.0322315757,-2.3048567685,-0.4927762864,-1.4995452121,0.9781258293,1.2295976422,-0.6236902216,-2.6684848925,6.9754089317,2.0338851826,6.4194314499,-0.7735835031,1.0157941315,-1.3137389336,0.8181032922,-2.3409137343,-0.3764777087,-0.7079576797,0.5985503173,4.1348889984,0.8543238278,3.7162660622,-1.1423410139,-0.8213793118,0.5188957653,-4.1260149405,-2.8797225003,0.6470773844,-0.2029470038,-0.9607667764,0.8468913045,-0.9129232157,-1.6754705839,17.3387079255,-2.8954090372,-1.0471770735,1.039836369,-8.3605836832,1.0861455664,1.1969769216,-0.8606874221,1.0271425316,1.1125667826,-1.7987942281,-2.1537878499,27.707606006,7.8869507647,0.1074001164,1.1326509407,0.6163918763,2.0139969135,-0.1010554445,-1.1624045594,-0.03518853,0.4303818649,0.4454219958,-2.7039034749,0.0790804522,0.3093844909,-0.3876677397,-0.7750672368,1.2087484027,-0.8231088116,-0.3125482534,-0.7978774823,-1.9769573994,0.3620236338,1.59383719,0.3885271918,-1.3586222316,1.0107139126,-3.1978320796,-0.5651391661,-0.3573063834,-1.6758746893,-0.5714122896,-1.3454916767,-0.6074490196,0.3226624312,0.1370601339,0.1567709006,-0.9115752226,-0.0637721034,1.6440108115,-0.1903075507,-0.2521400557,0.1393353197,-0.1302476427,0.0348344371,0.0066447195,1.2458005525,0.3483155606,-0.812680185,0.4171299915,0.05125865,-0.4985603307,0.6087827203,0.5608941823,0.5071776789,-1.7114256891,-0.1173509877,-0.3299836479,0.3924442712,2.2905652546,0.0338233273,-0.6555103564,1.6294395088,-0.9421416105,-0.12359394,1.5974597294,-0.2827794473,-0.0214999347,0.5052950348,0.6119453435,-0.7236007414,0.9510303133,1.1329195437,1.1313894427,-0.4555448496,0.2429282452,2.0123182169,1.1266106585,0.6239606495,-3.3714581396,-0.3448256153,1.2572751852,0.2826683685,2.2555843326,3.5847189817,3.1963533196,2.2219164946,26.0885189466,70.3318192764,-5.0275123965,-0.3830754917,1.5689573342,-0.5038944748,2.2686349339,0.4727442739,-8.4148624429,5.0317216864,0.4936346519,1.602071765,-0.2445234073,11.4808550218,-7.2447959161,-0.6372590918,-1.6774359545,-1.6387607274,0.5705769059,-3.8598387075,3.9990406834,-0.9773193507,0.0485758087,-1.217508207,2.9360372529,0.8942616852,0.67016005,-0.8155118439,1.2404442181,-0.3489181045,-0.3353386901,0.7404538614,7.4465382188,-2.4148882544,-0.9509800621,-0.1226987324,-2.0757371223,-1.3145277053,1.1455661685,-0.8898687833,-4.0405951156,-1.5359694334,-0.1655010121,2.0477107984,-0.4953834034,-0.040283946,-0.5087326043,0.3265154296,-1.2723841759,0.9242577773,5.0267800836,-0.3246833617,-0.7592071718,0.2076272463,-0.0446420704,1.0657638428,-1.0463097273,0.9971377539,0.4527993984,-0.1747788778,0.705885232,-1.1835041752,0.4128521676,0.200573988,0.0075343693,0.6826524672,-0.12266793,-1.2468799862,0.3830801857,-0.7405157167,-0.8326931247,-0.0778336485,0.0188873369,-0.8347257978,0.3131968914,-1.6567333681,0.5019244172,0.8326446453,-0.1922031111,-1.4423404859,0.780977887,1.0738510693,0.2946589916,-0.672124178,-1.4008031175,-2.1263213155,-0.0289421349,-0.2341712693,1.1906220508,-1.5399156384,1.1501765433,1.2202376069,-1.8949394352,0.1043065812,0.8107842413,-0.6626426014,2.3485356057,1.1711543169,0.5695095803,-0.2490270619,-0.3143452637,-1.4598624299,0.6788374515,1.4561496065,-0.4256940626,-0.6507906793,0.0104655204,-0.0431325912,-0.5546432199,0.07594343,-0.3416857755,-0.5050449737,0.2205498323,0.6593988445,1.1808213976,0.6323902152,-0.5812443778,-0.0575366024,0.7659713533,-1.3903691531,-0.5188509161,-2.3572511563,0.4710437212,0.6959643298,0.981348391,-0.4440230857,10.9113777547,0.8928277115,-1.2009394823,-0.1737734457,2.0790576141,1.0971602802,0.326709658,-1.1357073217,-0.2174021591,-1.7156100205,3.95047343,-0.5529676813,0.2625197757,0.0884359295,0.1517430332,-0.3646032749,0.9232797867,-5.1517609874,-0.8761308601,-0.5028813586,-8.0318064975,3.3186514698,-0.8117108192,1.4764423352,0.6478364206,2.7304070387,-1.6538210785,-1.5343711594,0.4237152258,1.7285910797,-0.16199741,-0.4761449022,-0.6294662284,10.8840447226,0.6077221925,-0.6520913243,-2.2984410785,-4.6143566219,0.3658069394,-2.8646093388,-1.9090969502,-0.7303506231,1.6535717304,1.270693208,-0.2024276405,-0.1379343617,-0.677033673,-0.2512409528,3.2444115505,0.3111779745,-0.5268991496,1.3974433268,1.4727757767,1.6475847693,-0.1685798733,2.9515597605,-2.0294384651,-4.6717187496,0.1330849255,1.7698245645,0.7755855393,-0.8896882742,0.4461164138,1.3854117794,-0.1157916411,-0.9329870764,-0.2205980499,0.4942172375,0.0263313201,-0.5355853761,-0.8181651806,-0.5392822273,-0.0813215398,0.1414797718,-0.227538077,-2.2630030062,-1.0421780292,0.2550449687,0.5781400944,-0.7332923702,0.4081107674,0.3371523765,-0.0562174106,1.1895078234,-1.5984606326,-0.7884187296,0.763513054,1.6991325164,1.0458669862,0.2341192735,1.2530732331,-0.881154848,0.4143297808,-0.0076820341,0.1663061959,0.4109699004,1.1380710296,-1.5636116275,-0.724274568,0.3025633446,1.6349423074,0.8619849197,-1.0927963007,-0.6158665017,-1.0109064406,0.3679888123,-0.1996852638,-0.2190391557,-0.3414803022,1.5706858483,1.5868876663,1.569154307,1.4040086875,-0.3382034754,1.0038302736,-1.7121210978,0.4555006048,-0.2410973506,-0.9987882057,-0.7220402361,1.869707846,-1.1599902426,0.578270238,-0.6369963002,-2.3454332884,2.8732304436,0.9438626496,-1.1800580327,-0.0975110281,0.3337248193,-0.8991029019,-0.3970072381,-0.7098686168,0.6362576766,-0.7704018283,1.0157895991,0.515034082,-0.4570799286,-1.0379994651,0.0007682516,0.2939204723,0.1481192643,-0.4977154492,-0.5791564979,-0.8787264003,-0.2905779089,0.4890831906,0.5376820971,-0.2516969744,-0.5264373224,-0.4595443053,1.236090156,-0.9767464157,0.001068734,-0.703715126,0.6319784478,1.0235616562,-1.6521603925,1.0469030751,0.1140669678,0.1442736037,-0.1851208076,1.024546491,-0.2513099156,-1.113462246,-0.5415497158,1.8839289926,-0.456674487,0.6450177036,1.5691224958,-1.0511351917,-1.1872208344,-0.1607133075,-0.3533936818,-0.7859219412,-0.1020817513,-0.0608683749,-0.0070275359,-0.3663398657,0.0832038739,0.0962944267,0.7492953622,1.085285662,0.1978765414,1.0674778327,-0.2656276255,-0.8407478057,-0.5260014148,0.2891999318,-0.1269734123,1.031256119,-1.5550874526,-0.3029518973,-0.8397542296,0.3975480051,-1.0095691107,-2.1594919924,-0.4123841184,-0.4204388112,0.78742276,-0.4530020379,0.7196016709,0.5600684534,-1.3777003734,0.0606269305,0.7140448858,0.1263265039,0.0337458585,-0.1021085761,-0.5587350749,0.3082740459,-0.7792139725,0.3838099078,-0.6914861437,0.2518609661,-0.3659128251,0.3490252361,0.6209898344,1.8041845544,1.4363576165,0.3641473974,-0.1251383511,0.0503112768,0.0875674171,-0.011192525,-0.0588003786,1.464771284,0.273177799,-0.6433787441,0.7226121899,0.0082841891,0.0099377176,-0.8425966211,0.4865815134,-0.6337581342,-0.9626142381,1.6844546609,-0.1091779684,-0.9719912514,-1.0190944894,-0.3321289487,-0.6103802082,-0.5490701101,-0.0950550438,0.0205154695,0.3179639049,0.5939858463,-0.0673109592,-0.4756171298,0.4778206051,0.1030084484,1.3961351344,-0.216535702,0.3186355622,0.146183165,-0.1184391389,0.0981013621,-0.0149168826,0.6516680977,-1.0182576652,-0.1023051255,0.0719656054,-0.1293243402,-0.6207172108,-1.1761708131,-0.7507936862,0.9192995952,0.632589692,0.7298689756,0.1788067947,-0.5327922924,0.1274233466,1.0876423377,0.0190960128,-0.4164006374,0.8926942862,-1.5978250833,-0.1528468731,-0.9296474508,1.255315329,0.0704654035,-0.0680137838,-0.9144276308,-0.5483563877,0.4178261408,3.8871526001,-1.5158324377,1.3611699609,-0.1129549953,-0.8870791909,-0.2584341077,-2.7018655978,-0.1491051986,-0.5146418085,0.371806806,0.2485508732,0.0604477525,0.246842324,-0.0808469326,0.7037034075,-0.634527992,-2.543247368,-0.3625822902,-0.0198163977,-1.2455876831,-0.6916582991,1.7625258287,-1.6523233013,0.3700296782,-0.4667525485,-0.0542827238,0.9299873414,1.64698075,1.4817432959,0.401684745,0.9457780892,-0.5361021629,1.1189388592,-0.5713683516,-0.5824196711,0.8401358797,1.4031994845,-0.6366313495,1.5060194842,0.5361575894,-1.2923206147,-0.8860488185,0.9654950743,1.2409037773,0.1307947801,0.65020106,-0.2078491496,0.8546017326,2.6297286013,-3.0661632776,-5.7779236981,0.0292884038,0.8457878649,-0.05826578,-0.3450906904,-0.7619214249,-0.225830816,-0.8445159839,0.7779478327,0.1716273071,-5.3770620448,1.0674267959,0.7851955909,0.3940719699,2.0291383411,1.4252521992,-0.2954821831,2.5596488553,-2.7642182944,-0.5163226834,0.3389103573,2.1610270065,1.7220400824,0.001398854,0.1991218827,-2.5496602117,-0.9117596437,-1.818438781,0.9467798465,0.3014885666,-2.9950386349,0.7038596214,1.1531456019,0.4621741711,0.2822086992,1.3586033518,0.8961522528,0.2567165882,1.0161015587,0.8693369703,-0.0027397796,-0.507577278,4.6516963895,-0.1218476416,-1.2883920441,0.0618907853,-0.6576357512,-0.4273360996,4.0820641831,4.8279284574,-0.9516477031,0.8059906192,-2.400403496,-1.0317599002,-0.6907496715,-0.99485484,1.351121806,0.1545591385,-1.0998593259,0.3202817068,0.195187711,-0.3945829879,-0.5578429079,-0.803379295,0.6041166115,0.5729914201,1.4186391619,2.1979296047,-0.0179993021,-0.4650815317,-0.5058456526,0.2639418587,0.161552101,-0.106892097,-0.4448547881,1.51199964,-5.4712529769,-0.5537933445,0.8075813334,-1.2122812755,-0.1285455155,-0.6304767522,1.9391841525,1.1423811653,0.8075268052,0.0392085486,-1.0169433255,-0.4138423896,0.6597776693,-0.8675849784,-1.4671948587,-0.6169016931,-0.2730692541,1.8366700291,0.8193347254,0.6236187464,-0.5369306622,-1.4652515922,-1.4898471634,0.4446437246,-0.8890261907,-0.9167222343,0.6569730014,2.9310575333,-1.6394935402,0.8494935685,-0.397038899,0.5875071991,-2.4963749289,1.3155718208,-0.7519877386,1.9703141778,-0.5255165194,-0.7524084028,-2.1172286692,2.666533069,-0.054788923,0.3764511199,0.1610614332,-1.0155598646,0.2038969192,0.1576253868,0.2674833937,1.1295080428,0.5988526016,1.434438852,0.2359892238,0.658888933,-0.0477857278,0.7107054709,0.6178221599,-3.2469036196,0.1842287612,0.3972189432,-0.6923683116,-7.2786161901,-0.6426574029,0.9820128603,-0.0250397604,-0.8840418407,0.1892137189,1.6365365202,-1.5406615569,0.0907987369,0.3175733229,-0.6888017078,0.0663860471,1.1124352321,0.3373008949,1.5327150722,0.4509964512,-0.6530109803,-0.2488650694,-9.0337967673,-7.9169116776,2.566402005,0.6326825686,0.0828908828,1.8285479985,-1.0237316948,-1.1725322149,0.6147021568,-0.110395617,-0.1015564604,-2.9198662547,0.0591388014,7.7715492234,2.149726704,-0.1166261834,-0.2251412695,0.3203834057,-1.0772817077,0.19106916,-1.4195856664,-4.0045667197,-0.4895856242,-1.6176054501,0.8087930708,3.0785528018,-0.0655615557,0.7948672794,-0.2053178714,2.8582582575,0.8713494097,0.3019640817,-1.3247726388,0.2824541683,0.1116518458,1.1034101184,-4.0604042923,-0.759870452,-1.3518115885,-1.001756645,-0.5649847124,-0.790690886,0.8443831381,4.5795319379,-0.7181642569,-1.692129553,3.928408241,1.6504729354,0.9160133968,-0.2105411536,-0.0792492516,0.7557689583,-0.3736697158,1.2109677903,-1.0218966541,-0.6143796891,-5.7441736224,-0.2648323412,-0.1664531818,-0.0660633472,-0.1837924007,-1.4723183586,-0.8548299558,1.5749930123,-1.1733557627,-0.1145516986,0.1521748894,-2.6855879517,-1.3376478361,1.2059036306,-0.4317289917,-9.2500178999,0.5236867216,-0.4590543568,0.3283103133,-0.3903572063,-0.8517238247,-0.3869008503,-3.062570723,-2.2894065856,-0.2972085354,-0.5759548475,-0.2443094238,1.1128095844,-0.2113798565,-0.4423097159,-0.7970368555,7.3891285513,-1.1531357936,-0.8656462316,-0.6034743671,0.2891963065,1.8007235869,-0.5293385815,-0.8644968756,-0.4316109235,2.9712764182,3.9871740494,0.4606710985,-0.0644760236,-0.8914525497,-0.3761974858,-2.5925876369,0.9916804344,4.8275698518,1.4869055095,-1.9315940807,0.035944343,0.1433019487,-0.8487532173,-0.7333110369,0.3293473106,-0.4423507776,0.3677750931,-0.5409711476,0.5340295952,-2.6173212822,-0.374036867,-3.0609094193,-0.9102262788,-3.0086452464,0.8954035398,-2.6323219769,-0.4646047354,-1.1481040969,0.737943463,-2.4663293602,-1.0151499256,0.178671971,-0.9394055104,-0.3137135947,0.0538173317,2.771102473,0.5326048552,0.296881062,0.896932997,-2.4901243163,-2.8445666456,-0.5915408351,-0.6463501966,0.4988607407,1.7819156249,-0.678772343,0.7967241189,-3.9262368785,-0.9139675904,0.6240073444,0.6202126082,-0.6461189929,1.0852505636,0.9019889739,0.6410135457,0.3833239683,-0.6753178447,0.5781569739,-0.7971251151,-0.1368795537,-0.249693954,0.2652111423,1.1717248761,0.6897835788,-0.2248217812,-0.6645497065,-0.3782806576,-0.5874085244,3.4317681185,0.8079946375,0.9853742438,0.9561152863,1.958369513,0.5329340125,-0.7080522922,-0.1540114415,0.6064979754,-0.2871617597,0.8016417769,-0.0122136692,0.8429696721,0.4563821218,-1.4811701433,0.9751180626,0.3537079615,0.4410570424,0.3378161669,0.882510187,3.4367107072,-0.8447823356,-0.2005785607,-1.4273212186,-0.1821655706,0.6594149646,1.9428569152,0.0906347022,0.1627277936,0.4037747761,-0.467224714,0.7044508985,-1.8566236954,0.6582362026,0.830236734,-0.6101061514,1.7420564019,0.9962105234,0.470148819,0.3902041558,-0.573162937,-1.758489143,-0.9869008909,0.0778113607,-0.2843366511,0.2521035883,-1.0708586024,-0.4248462731,-0.3267876982,-0.8242861692,-1.0321571444,0.781057979,1.2391659814,0.4861466272,-1.6365909405,0.3221762258,-0.1860599737,-0.6263117209,-0.3053465534,-0.8497206454,-0.8494162997,0.9047812075,-1.6735335517,-0.9806046026,0.2737206007,0.2147786975,0.5115609364,1.0260546244,0.0164218888,1.1492420985,0.1767384471,0.9413458965,-0.6449309881,-0.2174577119,-3.0506489093,0.2553937001,-0.2172665076,3.9944536681,0.7007549777,-0.8935284654,0.3221489325,0.6899280269,-0.9177207118,-0.6992655288,-6.8974551699,-0.8342169648,0.862494674,1.4175352429,-0.0876049308,0.0750770896,-0.9053473567,0.1075442125,1.0453769033,1.3099139037,0.9250395699,-0.3181778903,-1.651063452,-0.7695855849,-0.3282194278,-0.0953106431,-0.5038763345,0.7329577236,-0.5343904088,0.6075661323,0.3866993947,-1.0295274809,-0.8840355348,0.3144892634,2.5168588163,-0.262366259,-2.9375391355,0.6862864918,-2.0802925602,-0.8318704307,1.0425948618,-3.107599058,-0.7675178116,7.6519992022,-0.7954373316,2.0297046197,-0.4941695719,-1.5356483843,0.1417941079,0.5128072377,-0.1729468284,1.6475077253,-1.4663154625,1.4406090351,-0.1243477856,-0.0480526197,0.6917883628,0.5511559726,0.1663026076,1.5017066363,-0.2643340713,-1.8794998608,-0.8110769973,-3.192034145,0.1933520777,1.1590637402,0.115556873,0.7418389011,-1.6723962089,0.766613478,2.0868925722,-2.0110548991,0.513337783,1.4427033692,0.732959015,-1.7784670889,-1.302736487,-0.8162685602,0.1648004206,-0.0821918359,0.9442282248,0.6870847052,-0.0862597958,2.3339706423,-0.3174538719,-0.3950803973,1.2810101491,-2.3739854183,-0.1173442387,0.6037216554,2.3017036523,-0.1210457219,2.3508115911,-0.4803289812,-1.0802561795,-0.3903862793,0.3287365696,-0.8188111823,2.1367541275,1.3442326251,-0.4463306896,1.920865459,-4.313668692,1.5104115932,0.9220233197,-1.4108072114,2.4019201287,-0.2081640995,6.1506689437,0.1081356663,0.5082395604,-4.1990739862,1.2562673701,-1.2009756976,-0.5705534464,0.2970991463,1.698399297,-0.1286061007,-0.9327694322,1.4698624034,0.5290533137,-1.1147677235,1.4230982692,-1.4474253994,0.0006609673,-0.7826622059,0.5460466865,1.0299747459,0.62346463,0.2740516276,-0.0748224415,0.2105423272,-1.8733206932,0.1927580587,-5.8312550164,-0.2031241199,0.8997528229,-0.0986846642,-1.0141756685,3.1267586671,-0.361551142,0.6452299071,-0.0630956396,-0.4419793379,0.6848828944,-1.2765558102,0.3272344509,1.2182341326,1.0741070818,-2.0640250028,0.8013733679,0.7281541689,1.3484392597,0.7572755604,-0.4197497683,-1.5468723729,-0.4670725009,1.9265962692,-0.3884142891,-4.1374518882,1.4468538533,-0.0288511061,-0.3945647426,-0.7225882509,1.0747619708,-0.2650215957,0.1712076334,1.1958697982,1.1273052313,1.688665244,-0.5790547464,2.4512913482,1.3690861673,0.7903038491,-0.4083887024,0.3219855578,0.559146611,-2.4076984162,0.612137626,-0.8383486534,-0.5158881708,-1.0407394404,1.4444068851,1.2232993781,-0.449282411,-2.958698847,-0.2520251502,-1.6376156339,2.4171191079,0.1107731188,-0.0328282272,-2.5821811099,-3.3050857113,0.7001697089,0.7975981575,-0.1461605451,1.3391783745,-0.6169354775,-0.3812014428,0.7110815047,-1.6259952975,0.8731703205,-1.082693038,-0.1446452647,-0.5219118409,-0.0049895689,0.407090233,-0.4015747409,0.0522244522,2.0242516131,-1.5140362127,0.3759635572,-0.1453197841,0.3035972853,1.1322167148,-0.0284682897,1.9357236762,1.1254191091,1.2722226928,-0.5226787163,0.0897705104,-0.2281277217,0.1640434211,-0.1848202424,0.0931594148,-0.3083015523,-0.7256481115,-0.3896108781,0.3394958116,-0.0603611993,-0.1332750527,1.3211281704,-1.1270842922,0.4465209456,-1.7905706233,-1.0457798688,0.1351488242,-0.570991138,-0.6479981371,-0.1737448389,0.1221129535,-2.6749353319,-0.5558282855,-0.1439103296,-0.2121148986,-1.3159606406,-1.2560449803,-2.9627478021,1.2181418941,-1.1415065198,-2.3236791177,1.1800351108,-0.0442814701,-0.3244766858,-1.4504121172,-0.2423465148,-0.7940087352,0.5468318827,-3.0587206417,0.5175451181,0.705278389,0.6283226296,0.4917066213,-1.7719756766,-0.5123935213,-0.4859956039,0.9922396289,1.3761316781,1.1306834185,-4.3204834539,0.5500357287,-0.5932910771,-1.42668838,-0.3910354334,0.8438515947,4.458042061,0.4321785815,1.3529009516,1.4035983498,0.6510736065,0.4167994881,-0.8525184405,0.0373886346,-1.9770476831,0.4551057046,-1.5616023371,-1.2128087629,-1.1959126983,-2.7000421664,3.0667428723,-1.7879781773,-1.4138983871,-0.5574911076,0.1867064657,0.5188714016,-0.4931398064,-0.5336382216,-0.5408593455,-1.4778611711,0.280280329,-0.56625548,0.6040854066,-1.7323364233,-0.1177624503,1.039584995,-0.0710846609,1.3021703988,1.6032131713,-0.7608486751,0.2715677983,0.2477271269,0.7103698359,-0.6674493115,-1.5458977872,-0.5194522464,1.405573949,-1.2061257997,0.9876175234,0.2389426444,1.1106760768,0.8409514979,-0.1758234353,-0.1121109188,-0.5226691395,-0.7378927127,0.1536652794,-0.8229390595,1.5804239014,0.3651578493,-0.1604658561,-0.1755123152,-0.1974352086,-1.1084378933,-0.1773786019,-0.0020311662,0.3940811912,-0.4855137141,-1.6713014942,-0.9374402285,-2.9990859748,-1.0938896547,0.7866838758,0.0531738243,0.8459778399,-0.0079858119,2.3265917594,-1.2674195342,0.4487848707,-3.0797432959,-0.148048231,-0.1491664781,0.8581745845,-1.3510445605,-1.5795349641,-0.0268976235,-0.1789699526,1.1698368591,0.7332697411,0.8509366123,0.7906834981,0.7380159119,2.6164767248,1.3353657339,-0.2597074276,0.5716584146,-0.8813017795,-0.0772540473,-1.4597657978,0.4491470473,-1.2706087061,-0.9107302679,-1.0009238167,-4.8590288368,0.0308425282,0.02382694,-0.5206540968,-0.0726242713,0.5653261366,-1.2000674508,0.0397660526,0.0355289984,1.2481509072,-1.3535902422,0.03302494,-2.0867836817,0.6387988801,-0.2219982237,1.238812298,-0.3334487056,-0.0139895339,-1.7892349643,0.1976017606,3.0363361438,0.7145622748,-0.4204417352,-0.884316079,-1.3160816963,1.372572034,0.4908117175,-0.4285521988,-1.2237760278,-0.3156943265,1.3583992287,-0.1798367157,-1.4645138269,-2.4261210131,0.4002386203,0.5685593642,1.6375515787,-0.6296597661,1.2357609408,3.0818790596,1.2911156099,-0.439472197,0.9404109845,0.1226262988,0.2633153213,1.0619721081,1.3761944871,0.0386709826,0.794283083,-2.4820285977,-1.497595995,0.7242385873,0.6178998341,-0.5826038668,1.6098473959,-2.4078789271,0.8873680558,0.4882604888,-4.0484807184,0.4014426596,0.5499304977,-1.0279144331,0.1208739298,2.9709889293,1.2234351206,2.7255866767,-0.8747577507,0.5786039356,-0.2104081861,-0.2966290073,-0.5526935668,0.1870484631,0.2268879681,-0.2145895947,-1.9929994246,0.0088379585,0.4365960532,-0.7075742019,0.6310453802,-1.3616287492,1.0487736702,-0.5575840453,1.5260802808,0.0220800931,-0.0320718736,-0.550330047,-0.1528526543,0.9296165535,-0.6348744697,-0.821885045,0.545284618,1.7097497955,-0.9387599739,-1.0797389193,0.552375603,-0.8654731725,-0.3011933589,0.0378768547,-4.4632601694,-0.3008975475,-0.443786126,0.7365652617,-0.9694494725,1.5707232011,-1.4102440984,0.156476329,-1.2926094033,0.2129564868,0.8622728665,-1.2307543788,-0.3243619852,0.0579936641,1.740709171,1.1785596129,0.9244242599,-0.1631865472,0.0870834696,1.1683857815,1.3707000711,-0.1053044143,-1.0115271095,0.6161148453,-0.8219189683,0.9962991572,1.399319068,1.1800741909,0.4823443252,-0.8382621951,0.3688732496,-0.1138971682,2.3435048393,-0.3276258534,-1.4146084988,0.0881267137,0.4750002948,0.3210988878,3.3977091626,1.7254031919,-0.1483991219,0.2845997615,-0.8404960133,0.6137893227,7.818561092,-0.0603639311,0.6150938484,0.3252301265,0.0665135846,4.3324824645,-0.7300872328,-0.1409324735,0.8270149236,0.109991479,1.4301869288,1.3740466419,2.4895527614,1.5681773719,-2.3029719787,0.1747000096,4.44667113,2.9070403327,0.2200774254,-3.7461044932,-12.4968797063
   -2.2864676913,-1.2878383699,-0.5935993559,1.2923786039,0.217007292,-1.5314814257,0.1928733612,-0.9581765677,0.1259443778,-0.2298895847,-1.3234579435,1.2193862302,-1.182139931,-0.734548875,-0.0563276592,-0.7541642361,0.6997026367,-0.6827370983,0.0854239976,1.4675775441,0.696272606,-0.1812605462,0.0083677827,3.7305370831,1.8387005436,-0.2923151342,-0.2633056244,-0.1735286838,-0.6908130309,0.2158480436,-0.4315945186,0.0436501271,-1.1864377427,0.8119025542,0.32552542,1.4094429424,0.7336187765,0.250812157,-0.9811407004,0.90731121,1.2277741763,1.0432939051,0.8795530493,0.1262439496,0.9273800908,-0.0496144185,-0.3978478652,0.5573479628,-1.7281589873,-0.6558965046,-0.3846385404,0.878807058,0.0714205969,0.615758825,-0.5305978384,2.0429491186,0.3681494848,1.5775076377,2.8099558322,-0.5847297878,0.5571574974,-1.0896274204,0.2119420535,0.003992994,0.213006191,0.5332267711,-0.9329094128,0.2707359639,0.5345257041,0.3589962575,0.3511682365,0.1469781643,-0.0836700962,-1.2133118975,0.5245877284,0.4672904983,-0.5132580224,0.0142770975,-0.5922723254,-1.0993402861,-0.7406588687,0.9959413261,-0.6675248252,-0.7861235331,-0.734611925,0.4808720148,0.3830205649,0.88427501,1.0132786044,0.2555601487,0.3196033663,-0.2956460397,-0.6571402133,-0.4473818813,-0.1978408783,0.632446018,0.0326552712,-0.4432456978,-3.0088717162,0.7252882431,-0.6024650704,0.5516643188,-2.2182639859,-0.9950997734,-1.0293981584,-1.6668215393,-1.1658594914,1.0362536961,-0.1883092898,-0.8423116945,1.8290197956,0.7042776304,-1.3237815889,-0.4315789455,-0.3174054855,1.0310220286,-0.8643023926,-1.0062045845,-0.0429861439,0.8456946822,-4.404863475,-1.3690927553,-0.6297245982,0.4053808424,-0.1198820982,-0.333728097,0.8653254421,-0.1802028938,-0.2005373711,-0.2557224764,1.0685662752,-1.7863688023,2.0093661434,-0.8357383595,-0.0616361958,-0.2006983514,-0.409060963,0.4045164113,-5.4387599914,0.0154353988,-0.3600631738,-0.1875797005,-2.1782454623,0.5309320558,0.1930688008,-2.49772355,-3.9965805898,1.3167852767,-0.8709341811,0.0995861581,-0.1097511514,0.7271226858,0.1757189427,-0.4110765364,-0.3731066345,0.4213673173,0.3806915348,1.6755315507,-0.5893052674,0.6501447932,1.112428821,-0.0284709647,0.7032410544,-0.9165531969,0.8466104577,0.8357625111,-0.9005095677,-0.6596303881,-1.530695934,0.4522100854,0.0531703527,-0.6897010679,-2.6043113801,-0.1042836507,0.2623876368,0.0515060728,-0.9842309249,-0.2366250481,0.6003739696,-0.2538703802,0.0334500639,-0.772111631,-1.3901021702,-0.7686933727,-1.6649152311,0.4376735359,-0.6076394159,-0.7588037196,-1.4151678366,0.2613721017,1.6544006406,0.1385194059,-0.6700947633,0.2846180566,0.1439693281,0.8873501675,0.3317863337,0.1297138465,0.4533852972,0.5718568356,-0.7964979501,-1.0417305512,0.3554226461,-0.0512154044,-0.0929288798,0.8903888723,-0.3310504348,1.781502782,0.1598650154,-1.8704847704,0.2973546991,-1.1274565616,1.2443082841,0.7837854598,-1.1982265179,0.8674243164,0.6098431535,1.0887704821,-0.2059054945,2.6317425035,0.1372039911,1.2104639695,-0.6395377411,0.9911669789,-0.3147699466,1.2745907093,-0.2151588853,-0.9184595527,-0.2214178849,-0.8501042271,-0.3237873011,1.6715834366,2.0322057369,1.4234810666,-0.9463364223,0.1161995157,1.4088716186,0.3669383762,-0.8177681191,-1.7424810138,0.751685641,1.4899429414,-0.199842478,-0.7694451066,-0.9567450185,-1.0475039824,-0.1282296469,-0.0784324168,-1.0613811355,2.6881027369,0.0698535599,0.6989030832,-0.0106997947,0.301447853,-0.3329553151,1.0336911702,-0.1269390062,-1.9815747542,-0.0960243553,-0.0491840315,1.1867235202,1.380535201,-0.9124853673,0.5168367692,1.0682035285,0.3124852648,-1.4462454607,-1.1316946377,0.6267017953,1.8965436707,-0.51617128,-0.2835358512,-0.5996658489,-1.3633912224,1.22751263,-0.0293728427,0.3875843077,4.9156109183,0.2347435602,-0.5709374788,-0.1542162047,0.6437991012,-1.0485636993,-0.9240906674,0.2211184156,0.0591419894,-0.4638786005,0.1202512318,1.3575173615,1.6200418606,0.8492623089,0.7734079993,-0.634991065,-1.2426599479,-0.8056358656,1.2183246818,1.3745517689,0.3175715544,2.1240443228,0.5645634893,2.8329813977,0.2818363957,-4.0519228279,0.0076400628,1.0177669347,-0.3915678163,0.5180614841,0.895915602,0.2760221653,-0.4330614695,0.886184081,-0.0620083558,0.9901457336,-0.6769162736,-0.4354277287,-1.2786758203,-0.2765595737,-1.1286204401,-0.6031644752,-0.2064028181,-4.1492081917,0.6670288849,3.8878573213,1.0850954394,-0.6932964988,0.1479056065,1.3780743952,-1.2791855687,-3.2227456037,0.5932129413,0.6076093432,0.3762678485,0.2714162253,-0.2048867572,-0.5762444679,-0.8922250887,-1.0134261953,0.224169425,1.1070911217,-0.3885427096,-0.8819044322,-0.1337836641,0.1927476654,-0.6350459116,-0.9776360675,-0.4939197299,0.9381296673,2.5111007562,-0.9903053771,-0.5881895973,-0.9907275182,-2.6515094977,0.1156951763,-0.6709654892,-0.385095061,-2.4067315926,-0.0115078612,-2.6356692446,-0.1718767643,0.388693908,4.2334769883,0.1401340033,-0.0446775925,-0.2774270074,0.9707982276,-0.7465772344,1.7202044512,1.562067687,0.3399728149,-2.4567053013,0.9234800448,-2.8654520864,0.195805651,-2.7890643594,-1.1348831233,1.7767707978,0.3317351298,0.4445388163,0.7597027111,-0.5842710089,0.2073751488,1.7399839758,0.9403627104,1.9394262539,1.0175363018,-0.4872941354,-0.0160851418,-1.0972528119,-0.8927750732,0.1054282558,-1.4287469882,3.1747538366,0.7288585521,-0.6319267583,0.478501778,0.5926280677,0.7127336065,-0.3059979456,-1.1568451225,-1.9155020627,1.1317842818,-0.9305980932,0.8226883691,-0.8246500191,2.5791991643,-0.6817735065,-0.2658216041,-0.6083877602,-0.9070797283,-0.2686253759,-0.4879542411,-0.0997520192,-0.280909895,-0.8576567671,1.9483256866,-2.0901199647,-1.2709219539,-1.1243143083,-0.2515103196,-0.9847502214,-1.3155624007,-2.1357824455,0.0302760597,1.0012962804,0.2169835043,-1.0578011516,0.8840049628,-0.8414924716,0.0997831142,0.8121600829,-0.2683784794,-1.1000291545,-0.2985680302,0.5147157748,0.5476383541,-0.4958333322,0.0110116599,-1.6570267752,0.1717242811,-1.3851640615,-3.7917218178,-1.2095829796,-0.1773785738,0.5217281695,-1.2056225483,0.7634340985,-0.7775887553,-4.3847102977,-1.8938882537,-3.5236805849,-0.6192673607,0.1208392062,-1.1010914123,-1.6982409982,1.0257578126,0.875453168,-0.016312953,2.8710190397,-1.2601576396,-0.4741852799,0.8228142897,0.1331837315,-0.580103688,1.0981281701,-0.8564615333,0.6010524515,0.1739115516,-2.5042648497,-0.3489488167,-3.4953396673,-1.2441782877,-0.3557085368,1.3193879402,-1.0123353149,1.395409211,-2.1589499011,-0.0741591812,0.0694131545,0.4010930156,2.6307456244,-0.2566807692,3.8296379328,0.3526267608,-2.7232559136,1.2730595905,1.3468125179,-0.7872004472,1.0830487567,-1.7126878019,0.3136039587,-0.9737321453,-0.0185023048,-0.6959412,0.5373019999,-3.8917132418,-1.0274542083,0.4130179442,-0.2112688619,2.9136190129,-0.8105186713,-2.4251797134,0.7561669577,0.2431481505,-0.1841877437,0.4503389945,0.2677980419,1.5222528719,0.8512749621,-0.7897096698,0.4541744471,-0.1210152306,1.1022018778,-2.9115762504,-0.724044138,0.8182822053,-0.7908694627,-5.9860523789,0.3026226829,-0.4986700569,-0.4812226705,-4.346412593,-0.1254817769,-2.986036724,-2.4488772892,-1.6316822925,-0.0428175904,1.2132324866,-0.2795809886,-0.0558174334,-0.1522962088,-2.8234301996,-0.8603014766,1.372353938,-0.5972839299,-1.5574953306,-0.5968149532,-0.6752915583,1.8206254282,-0.344126865,1.2634940996,-0.1577679303,1.7503333173,0.459387191,-2.2274546018,0.5623249322,-0.2284812273,-0.0901070002,1.0222733226,0.5841492641,-0.0124523063,0.4202344851,-0.5247210298,-0.7194672715,-3.9568550632,-0.4070774084,-0.1543054735,1.5095390462,0.1807993129,0.4217728044,0.0323230332,0.4015988673,2.331201635,0.1104224456,-0.2183341324,-0.411257834,-0.209339306,-0.2114631906,1.4035038625,-0.4573706924,-2.0039155402,-0.5856731275,0.4864855087,0.4490370273,-2.5632471456,0.7026814038,-0.3310620195,-0.3444173267,-0.7716047243,0.4766029312,-0.2053815009,0.997331433,0.9409369007,-0.7942336743,1.6226758768,-0.463897841,0.3607554966,0.6137660083,0.2334737961,0.6616673821,0.3734379337,-0.5867543126,-0.2825357673,-0.8875552553,-0.2229323955,0.8958603561,-1.7827724513,-1.6324083503,-0.7560970661,-0.9240451411,0.4285379745,0.745849697,0.9642900948,-0.3751277694,1.0146829588,0.3658831369,1.1988077088,-0.6554510011,-0.7505794311,-0.8056378116,0.0927442638,-2.3507713294,-1.1184798494,-0.0275027223,0.1803816603,0.1518736367,-0.3929034049,-1.2427926346,-0.6237382708,-0.9681215042,1.0474138868,-1.3262258396,-0.5871547477,-0.0839999308,0.2014753416,-1.2664773756,0.0195807677,-0.3157343602,0.2705748649,-0.4994733865,0.3641928889,-0.1707696051,0.3492781289,-1.2600374212,0.7375971873,-0.508701775,0.6009536305,0.0127610675,0.3553357603,-0.7454851234,1.2154859064,0.201983081,-0.4040072423,-0.5541766544,-1.1830885973,-3.9452178075,4.446318026,0.3445071709,0.6491453007,0.9089752458,-0.6221525183,0.2714329642,-1.1214938395,0.9144421444,-2.2174653635,-5.023688199,-0.7880361664,-0.7722085447,0.6295388415,-0.6571607693,-0.0335140683,1.3145843438,-0.5134445357,-2.2443553854,1.712379153,0.7330861466,-1.4073608107,0.336419988,-0.5524242295,0.3916327266,-2.7380475972,-0.9280442069,1.6902571891,0.4046608425,1.3586807264,0.6012497171,-4.5925233641,0.4096598206,-0.116528193,-0.0703990413,1.351103741,-0.7791838564,0.6220696248,-1.6326971346,0.0312534716,0.6623725192,2.766173034,0.5734928585,0.7658599961,0.555496477,-0.9798678691,0.4840005578,-0.7406502237,1.1356366629,-1.5638406052,2.1903762696,2.1637450508,-0.3844157279,-0.3778808579,1.5271899757,0.9202719323,0.8797522954,-0.0163359459,-2.1674226499,-0.0326814765,-0.1823048778,1.8204017204,1.1150162285,-0.801979388,-0.0630443123,1.4289425014,1.1138039724,-0.6483655313,1.0844980317,-0.2624177814,0.4236836151,0.5528926701,1.8182752784,0.1243514455,1.6246359791,0.6791054641,0.4373368657,-1.6081546433,1.0440545236,-1.6797129918,0.8113986616,-0.0221475379,1.0620776751,-0.1836046778,-0.736276994,1.5247932564,-1.5597036863,-0.2565208334,0.0230301123,-0.5692647781,-0.2536184391,-0.9839731118,0.1623203568,0.4167210895,-0.4008807492,2.7429669499,0.8218458625,-2.3050049782,-1.2125749236,4.3377979113,-2.3859522146,0.1583539869,-0.6994309174,-0.1427092633,1.4358899812,0.1395695276,0.1828881987,1.1871337915,-7.692756057,0.4727731912,-1.7702143746,-0.653080874,-0.2320791974,-1.1364890762,0.3132839448,0.2934372335,-0.6953266707,-0.3866963329,-1.0425488594,-3.0010884955,0.7276078076,2.9846720414,-0.8200817042,-0.2719090433,-1.0096568862,2.256196546,-1.2548212514,1.4316132314,-1.3514498198,-0.746319012,-0.2208271281,3.1464252424,-1.0395141541,-0.6501339661,1.5515211671,-0.9754796293,3.6589457957,0.5096400911,-1.0171353637,1.310439454,2.4107332315,1.8050013001,2.1255007598,1.8286283361,-0.2710641251,-1.4086501821,-2.6891031819,0.0224818732,-0.5424185189,-0.3715258143,-0.7352744344,0.4825508474,0.5583290173,-0.2696700327,0.2764428332,-0.3941652164,-0.2598309771,0.1663709053,-1.2411511368,2.073004965,1.0578654539,1.2117531327,0.4294450159,0.8592477291,1.4586731441,2.3465954996,-1.9340491499,2.169295908,-1.0905195636,1.4884715426,-0.243263595,-0.8945714633,-0.4160780882,1.5341483233,1.1725711537,0.9570643437,1.6594634877,1.576009902,0.6733200531,1.4886450213,-0.0381244629,0.7056514558,1.6578736896,-0.8226661478,-0.2254332366,1.4421520179,-2.0737355638,-1.29026643,-0.1012990971,-0.3982327386,-0.5063076376,3.0306840445,0.012933654,-3.7585561777,-0.5627475756,-0.7451369229,-1.7696377042,0.6848070131,-1.6036117812,0.2701809642,1.1708034464,-1.5637897967,0.0607683529,-1.3276086697,-0.1238902746,2.0144468215,-2.4068194019,-0.1673342274,-1.4201940451,0.2447157532,0.7210769564,-1.3510055664,-0.8007752373,-0.0440327812,-0.4182960911,0.2501450089,-0.4044838057,-0.5823610667,-0.8939917055,-3.2231242013,0.3280854813,-3.5552438226,0.6904018762,0.7320086431,-0.2283599023,-1.0003701962,0.4254484323,4.0183410491,-0.7809097859,-2.0773661621,-0.0562855182,0.5796734789,-0.4889462694,-1.4815307622,0.8366902923,-0.203714544,-4.5910873773,2.7524636522,-2.3034465924,-1.1874140828,-0.5158549056,-0.3834588602,-3.5436288152,-1.0801123751,-0.1134551015,-1.3123372337,-1.4350159107,3.73461772,0.7592958522,0.8236754243,-3.7018427535,0.5742480853,0.6894835289,0.997085179,8.121619376,-2.9154344257,-0.7668352741,-0.2089855682,-1.0595952727,0.4723156789,0.3936931722,-1.8986184215,-1.5389855426,-0.5152657046,-0.31365099,0.3834163025,-1.9154591337,-1.3813228534,1.4601384455,0.112737619,2.9953637031,-1.1772021288,-0.3439657243,0.1426788107,-0.4153463427,-0.5754284946,0.8293860717,0.9621083366,2.3816648146,0.1857030578,-0.2292305548,-0.458810425,-3.2046758832,0.8713845272,0.7118891921,3.2107497405,-0.1759217303,0.9504157626,0.7995065405,0.9011346238,-0.4431371934,-1.729700947,-0.0942730748,0.7414142658,4.5107053086,-2.0782298573,1.9280190301,-0.6205928528,0.0087760953,-1.0542223922,-0.1010908114,0.5506807696,0.6656854576,-3.4530683716,4.5476473813,-0.4214337005,-0.6806688497,-0.3346178121,-0.482231067,-0.1478049733,4.0901405304,2.7289630024,0.973971364,-1.5130277876,0.6946201009,-1.2809715358,0.715532206,4.9556675713,0.4136573516,0.5270752228,2.0555371326,0.3003314747,-0.5272328687,0.6295210223,-0.9436722422,0.8829705967,-0.0491824357,4.4915834625,0.1791755687,-2.105426982,-0.0782472365,-2.921637186,-2.493858657,0.9423780953,-3.3993303854,5.3014891272,-1.498076335,0.3588207747,-0.4482118297,-0.0103449935,1.4147197311,-0.5991993978,5.5845854322,0.0168327632,1.0177822299,0.9389920567,0.3735223054,-0.7568379922,-3.133296077,-0.2147368724,0.4030478279,0.0729674669,0.2431442016,2.0780581014,-0.53965227,0.7842952825,0.0430941578,-1.1682093784,-0.2911333412,0.3459323379,0.704799266,0.0165839576,2.1166141809,-0.0884768576,-1.8355655947,-0.2533919552,0.1360947102,-1.0781323096,0.2934958837,1.0679506702,-0.5603147374,-0.4267233007,0.8457259218,-0.2479113736,0.7415453566,0.4228361683,-2.1165505911,-0.052642378,1.669521415,0.7561961912,-2.5649420477,1.2792254395,-0.7827651568,2.1703345005,4.2122317019,-0.0283660698,0.9938224874,-0.8851586203,-0.0319281283,-0.5487157455,0.3784620721,-0.1106383941,0.4744569673,-0.6338264147,-1.0946400823,0.3341444469,0.510960508,3.4226570177,1.1429498524,-2.5759674256,1.1362888294,-3.0991612738,-1.2237999063,1.1145908028,0.40003627,0.3063238991,-0.0590790252,-1.3787302167,0.3567735634,0.1635892456,0.3309486775,2.0748351203,0.4378881212,1.5032505973,-0.1884808657,1.4602742562,0.7331085842,-0.3520270121,-0.0322039605,0.5707305437,-0.8791961939,0.3021465703,-0.0750385676,0.1441935401,-0.0145213823,1.0497964809,0.4644397174,1.4904950047,0.6055331737,0.4918248372,0.0014134453,0.6580965061,0.0593105364,1.3870621528,-1.441480319,0.4557305497,0.3201766295,-0.2575775897,0.4207440405,-0.0650143583,-0.9692939624,3.25107254,0.5984120512,-0.1157924344,0.6911338851,0.5663041341,0.1664818627,0.101275197,-0.0173835953,-0.0572601739,0.6987364322,-2.8128354357,0.6614659748,0.6094098225,-0.392090197,0.0371290121,-2.5468145742,0.4845180846,0.8524164935,-0.8218612807,-1.4882079059,-0.3155745103,0.0437832109,-0.2345907035,-0.204537321,-0.3972434709,0.0133388691,-0.1081997737,-1.339997934,-0.5270521664,0.1706192555,0.5047830152,0.4490729524,0.3279364895,0.0479203662,-0.9902137255,1.1576128965,0.4461464192,0.0859241562,2.084001059,-0.1528822952,-0.5962570389,0.1194724655,-0.2580017638,0.257704182,-0.7978728928,0.0543858998,-2.2997856068,-0.372091712,-1.9117599592,1.4449655051,1.4056507671,-1.3721983178,0.7010386058,0.6618016334,1.590079829,1.4694236609,-1.5612883102,1.1302659899,-1.4883526826,-0.7196876175,0.5590973191,-1.5524714943,-1.3447538293,-0.9476606902,-0.8832366332,-0.0005142986,-0.3317758169,-0.3171268938,-1.7700976666,-0.8702573883,0.8432193279,1.7847218178,-0.3728716511,1.3932113414,-0.074595745,-0.6312817751,2.9875238848,-1.3793615924,0.0987574119,-0.3535448074,-2.999230555,0.3886926927,-0.0543581651,0.1369757254,1.4971847266,0.7039838571,-0.5166141684,-1.3269629323,0.7031125919,-0.9511561025,-0.3310105557,1.420386016,0.5640148873,0.1213972074,-0.1880034046,-4.2417713892,-0.0235202241,0.1798752949,0.6209715372,2.3742055085,0.0560432172,0.6618006927,-0.2484188402,0.6454898887,0.1057823051,1.9381536263,-0.7985004291,0.6837543806,-0.7572056614,0.4440746451,-1.1014152449,0.4549588934,0.4846811741,3.81468599,-2.0106777326,0.0245994992,0.6279338344,-3.0707837623,0.8109082076,-0.1323144958,-0.0849209294,-0.807649998,0.7131557349,0.4029948286,-0.2017605717,1.7188291995,-0.2994712214,-0.0912328235,-0.4402417416,-0.7539165862,-1.6675018733,0.6924774333,0.3935230124,2.5295778518,0.7568753921,-5.0431018555,-3.4115042217,1.0653017485,1.8937014413,-0.1752719369,-0.8121256628,-0.1293821105,-2.3983058242,-0.0783847556,-2.5239087675,0.9288396461,-2.5551489358,0.9175550189,-4.8318638428,-0.2089340127,-2.9172437676,-0.5491658805,-0.0066236603,-0.150402423,0.0634125686,0.7709095012,-0.6937123482,-5.3653719793,0.7498475241,-1.2697608169,-0.6030893042,-0.7302578738,-1.6841685205,-0.5689526296,-0.4745085926,-1.0103758812,0.1241958411,-1.0252620525,-0.1996084404,0.3491238506,-0.8457316036,1.2403800759,2.3518921037,-5.1319490911,0.423370457,-1.2350591187,0.7839120787,0.9068023695,0.2987767557,-0.1921732754,0.1318275798,0.5825002416,-1.3262628861,-0.2453144206,-2.139144697,-0.4489705642,-0.4849618795,0.8409597253,0.9832121909,0.5411440754,0.0650237134,-1.096399156,-0.7757965712,0.7508372769,1.8488789327,0.7014905447,0.0410979257,-0.038712727,-1.7264916608,1.1750994611,-1.5324224186,1.5476386896,0.3487709434,0.3183118561,1.0250079789,0.1443769046,-0.0079858302,1.6727601503,-0.4336174108,-1.4221325849,-1.6831101917,0.2318811325,0.4297356861,-2.2518320556,-0.9515514604,0.7396585512,-0.3738244041,0.2122510079,-0.578895354,-0.0094923382,1.2012551371,0.7762383639,0.1657329183,-0.5962416092,-0.393309659,-0.3197101196,-0.5333575175,0.1242517043,0.034945607,-0.1210433113,-1.0598532595,0.1197326627,1.258069288,-0.9845043363,0.9021777736,-0.2008783704,1.9878981955,2.4388734764,1.1511802335,1.1151114178,1.360570802,0.2956056004,5.9637739504,-0.3776795446,-0.878060935,-0.8410036432,0.2072453453,0.3051257436,0.2474240474,0.0476696736,1.035694898,-0.1519878475,-0.3026799791,-1.3713595102,0.0457535263,-0.8769929161,-0.0166890858,0.8215017611,0.8683848135,0.9112590105,-0.08814031,0.1492722406,0.9993562824,-0.2456619216,-1.756011178,1.343293843,0.2175608502,1.5797684935,0.3074637259,-1.1869927564,-1.4309117475,1.0331541153,-1.920252341,1.0913878633,1.3760298473,0.5728875906,-1.4527658323,-0.220604191,-1.6507190649,0.60613409,-1.5798707297,-0.2989689551,-1.3697318781,0.703206042,-1.5505653243,-1.8537076516,1.0373030252,-0.3678505617,-1.1435780678,-0.7262468159,1.231958208,-2.3793262811,-1.068711062,-1.3003341201,-1.4436227844,-0.2142970484,-0.0201469392,-1.1363467798,-0.743827153,0.2023808166,0.3790761282,0.4330970897,-1.0728496694,0.0873416037,-0.0440212195,-0.0790600035,-0.4255395253,0.3523886205,0.3468583183,-1.0151964003,1.3672677146,0.1384854714,1.4937670077,-0.984211576,0.7220691946,-0.2781024102,1.3265414023,0.5589480828,-0.7407468134,3.7730425279,0.168940539,-0.4896406197,1.1451344814,1.8476161164,0.9160505201,-0.3685618651,-2.603662744,0.2318559566,0.992820787,0.6058783597,-0.2969446013,-1.8933236987,-2.3337684082,0.0298179345,0.3818793002,0.9921558461,-0.5517241145,-0.3243443634,1.0715900671,0.3478241647,-2.4983364903,0.3865805404,0.5783141059,-0.158373735,0.3896692689,-1.7395702792,1.0433333355,0.3037060466,1.8356910584,-0.9171400191,-0.9087350487,0.3200370869,0.3851478466,-1.3639797701,-1.1564921383,0.0018824064,0.3872976468,-0.1530934605,1.1277909461,3.8271184583,0.0247237696,-0.2288811372,0.5673645117,-0.733489631,-0.332691182,0.2696504642,-0.1970189147,-0.2081415431,0.5026664308,-1.7374187846,0.4395761509,0.1933008848,0.8486376577,0.6061474185,-1.6352423652,-0.0509570536,0.4574228746,-0.4636160199,0.258402885,0.239936006,0.4642390274,0.5253315201,0.2991541432,-4.249367264,0.0164841211,-2.081766659,0.4478716286,1.0067104157,0.0940396567,-1.0527807838,0.40946663,0.1357798376,-2.7611799278,-0.549695452,1.5314593939,-0.519860035,0.1940225347,0.1724322799,-0.197089991,0.4124479715,0.1206850523,0.0749939335,0.6348545221,0.753385282,-0.1073423514,-0.6057718898,-0.0302255265,-1.7503387743,-2.162006484,-1.7307423569,-1.449837909,0.0386428219,-0.5920086109,0.2564557597,-0.8444590613,2.983103411,-0.3700051864,-0.1505951943,1.3460000598,-0.0688484214,-1.0532067001,-1.0117585876,-1.3009470243,-1.6114398293,-1.5149814051,1.1569113473,-0.0894809042,-0.4353168627,0.5412119755,0.0160614311,-0.2394066225,0.0426315877,-1.8075558744,-0.7833317326,0.355863319,0.6309189186,2.3325605957,2.1534359767,-1.01543245,-1.6669094131,-0.179941121,-0.2732480317,-0.5569983054,2.6815493871,-0.9439411007,1.5789208689,-0.7307849701,-2.2603059181,2.5683070438,-1.1415079712,0.8718647797,-0.6746531612,-1.1526808977,0.8816684857,0.0598692948,1.2724610709,1.4650209128,1.001903361,0.5303011306,1.1460547742,0.0845062524,1.4889089053,-1.6534478884,-0.3588647283,-0.5900196078,-1.4257078745,-0.4441995206,-1.8636104793,0.614653002,1.7051180354,0.2479631172,1.169562148,0.5850605961,1.2965949784,0.8048138415,2.2617644451,-1.2023104959,-1.8603713404,0.3583620294,-0.4562612535,-0.4805392659,-1.195307628,0.3025821234,-0.2915884481,-0.4985742822,0.6544233369,0.7488250499,2.8521679522,-0.011131675,-1.6138827644,-0.6836325949,0.7903092452,2.403654303,0.7920067151,-0.0257366075,0.9578136552,-0.3059102669,0.5106040262,0.6189644671,2.4202066791,-1.0100087619,1.1564649124,-0.768744898,-0.824565213,0.4808673988,4.4114189086,0.4725108203,-0.2410908065,-0.7548330201,-4.0325078762,0.655487513,-3.844461577,-0.9778713573,-1.7855487791,-0.4537519131,-0.8995741022,0.6717504195,5.7544492829,0.6017976323,-0.5381513031,-0.1489686846,-0.7950670287,0.9045250145,-2.3345108095,-0.7680431525,3.7898214242,-0.5060504188,-2.0555657997,2.2395889122,-1.7642094457,-3.5241707638,1.9579580186,7.0069492361,0.6743376434,1.1369978101,0.1405297558,1.491529536,-0.3683937243,0.2795031682,1.9704587982,-0.6035443564,0.4812454501,-0.9740635946,1.6976054627,-0.3202160492,0.051019401,-0.6399037946,-0.3547406856,-0.4388297597,3.1465057815,0.033875795,0.7270810544,0.716943635,1.1334980233,-0.4238864438,0.1024369818,1.0855007832,0.8989234294,-0.3609409891,1.5987683017,-0.5333342071,1.413987313,0.2600939451,-0.8922568402,0.0857787218,1.8602781315,0.4520527591,1.4755452731,-0.3700528907,0.7111090157,0.4726756046,1.1672167046,-0.8682290528,0.9433717873,0.1890715659,-0.9974990077,1.3343214071,0.3840839801,-0.2775967021,1.2903913292,-0.904167844,0.093568625,-1.5139970635,1.132024303,0.6572871918,-4.0567829418,0.2244989257,-1.0801497523,1.5688900327,-1.3252756072,1.8571823955,-0.2842720388,0.7295631213,1.4919760807,0.6497414975,0.2583074684,-0.160830563,-0.9370414666,1.2288475068,0.5244365181,-1.1946290142,0.7661455584,0.2728669326,-3.2080423782,-0.307745774,0.1670493872,-0.1798431545,-0.4584052329,-0.9205727325,0.0013737806,-0.2678876645,-0.4339784565,-0.5889127956,-1.0894564084,-3.0168140474,-0.8996820049,0.244131599,-0.9624145333,0.0936035401,-0.3997903372,-1.0379713278,-5.0955822603,0.4480014671,-1.8951139717,-0.6242004028,0.6634899122,-1.5644706343,1.1802482155,-2.470108408,0.0834062683,0.1089638894,1.0236959118,-0.5687556795,-1.2194810337,1.1707474079,0.3446984209,-0.2163564428,-2.3450307943,-2.1153694719,-0.8650157467,1.8401858456,-1.1377834951,0.9479172124,-0.6474631491,3.0776496273,-0.4195186686,0.0607164222,-5.2231884678,1.2595715172,-0.189396643,-0.0986225455,-0.8474571661,3.5535743918,-0.7706299764,0.2811437465,-1.2352418488,2.7313901881,-1.0942820401,1.595102922,0.0979214191,-0.5580772473,0.6847954448,5.9379598113,-1.3616752832,-4.8554877387,-0.1372593581,0.3078308236,0.1514379499,3.6950407375,-0.273237931,-3.817658915,-1.2729332161,-1.8992125479,1.1056296391,-0.7263766806,2.4720075487,-0.1126984501,0.220834846,4.4976090331,-0.1941661339,0.687655744,-0.1697140441,-0.3641502504,0.4204526898,0.6388736612,0.0068955559,0.0240363614,0.5285339769,0.4692624037,-0.1558929827,-1.2057883013,0.3731300676,0.8205371973,0.0669767565,1.1179897975,-0.7519670845,-0.0674334507,0.4620856368,-1.2125441498,0.2802118433,-0.3061919956,1.8271877257,2.644048136,-0.4575505033,-0.2792407551,0.1595348485,-0.4286196386,0.0285625327,-0.5945203635,0.0411091467,-0.6811063684,-0.5353774175,-0.0724582137,0.9282842258,-0.695324837,-0.5080226418,-0.3559364214,1.7150171387,0.0675217794,2.147465098,0.4859372316,1.8578670441,0.4070792285,-0.5958103935,2.7042977889,0.4150005017,-0.5588251219,1.0807144468,1.4740932317,0.5424910087,-0.2171838273,-0.0051607273,0.3512080039,0.5120764543,1.4367048662,0.5330665121,1.8136892601,-1.0559004422,-0.2633378346,-0.822676656,0.1728949852,-1.0657669407,-4.0815496668,-0.1033111568,0.195497521,4.8298380262,0.356927096,0.8878974629,-0.4093215992,0.3076082819,1.3504761742,0.7239636919,0.2820621268,0.7479576616,-0.359272951,-0.0030540777,-1.7041547973,-0.0772849986,0.4509041192,-0.6190380233,1.5966691018,0.0310208229,-0.6106735178,0.334034418,0.2053314288,0.5336163161,1.4187586816,1.3211164338,-0.169848739,0.2085358697,1.710253892,-0.5333230675,-1.1789515706,-0.4228175473,-0.0350675548,-0.1318824192,-4.521222846,-0.1988719455,0.7303559388,0.7987142313,0.6092957005,-1.3756018162,-0.9609446462,-0.3604273096,0.5326830765,0.5882559495,-0.4882581419,-1.3310909852,0.2971809411,-0.2223931955,-1.4691760928,-0.3043919151,-1.4435153384,0.8417751884,-0.081694738,-1.89393706,1.6649052153,0.0633643327,1.6808710767,0.37788751,1.3906211257,1.5292652867,2.2168410789,-1.4525145466,0.8778742007,-0.9872306436,0.6674925007,-1.2427257892,-1.8279897885,-1.1199168725,-0.3748286445,4.068043119,0.5480339931,0.5388099713,2.406420792,-1.4833115459,0.7722493535,1.0821986302,1.1220768959,0.2486196725,-0.7649733703,-0.5206251621,0.07638311,-1.5604183189,-0.4321938692,-0.3951057523,-0.5851856335,-1.12555455,-0.143625646,-1.1768896,1.1632121614,1.4091431396,-0.038716168,-0.8387288095,1.530273809,0.1900946301,1.3817923661,-0.6901033708,1.0642410085,0.3822642162,-0.9862644102,1.2201638103,0.1002569668,-0.1471231987,2.0258486452,-1.4564890726,-1.0725572945,0.0443093229,-0.1936233087,0.5750618013,-1.0430568956,-1.4839358038,-0.282736941,-0.1863034554,-0.6623520575,-1.4475621682,0.1037759549,1.5789418992,1.003523663,-1.1421409695,-0.8165516089,-1.084715245,-0.2256624261,-1.6813153047,-0.4874216325,0.2156878427,-0.1544953536,-0.9681064004,0.5728244374,1.618948286,-0.010171787,-0.6116787499,0.2747197076,-0.2653934297,-0.0962666162,-0.3989453274,0.9319438613,1.1627866269,-1.05778386,-3.223815751,-0.4737615437,-0.0026220793,0.6340089199,1.1405830934,-0.4869007838,0.524709563,0.3070114582,0.2462881684,0.6535205857,-0.0492383872,-0.8322669563,0.7326861312,4.1919318539,-0.5242492311,0.4316570481,-0.2185812803,-0.706617519,-2.2086365839,0.1237762464,-1.2519606366,0.6192312614,0.6552649584,-0.6764931501,0.8358988839,-0.9830515942,-0.6925465705,0.9356045058,-0.1354679706,0.4850691728,-0.2128167229,-0.4720267793,1.5399891642,0.6105581394,-1.6257041361,0.3646748382,0.364649658,0.1808842745,0.3109917734,-0.8034825841,1.4334021943,-0.3470755889,-0.1365418402,-0.6322539453,-0.8868167339,0.3040929783,-0.2441860051,1.2696508644,0.2459327481,-0.6622280978,-0.1891144575,-3.0480525565,2.0448954983,0.1733955208,0.2367975757,0.4725197269,0.367959549,1.4666354819,0.2537212562,-1.8975500221,-0.6733748272,-2.2893365982,-1.1553647292,0.4624339932,0.3088442971,-0.4212393241,0.6349167556,0.1418240025,3.0081420861,-0.0606576215,0.4338550615,0.2502145323,-0.2363269712,-2.5225856214,-0.2390443024,0.1542185783,-0.5383521815,-0.8121259859,-0.2031131743,4.0706400154,-0.1624103985,-0.3797236073,-0.1711047849,-0.619647938
