encog,BasicNetwork,java,3.4.0,1,1561309942491
[BASIC]
[BASIC:PARAMS]
[BASIC:NETWORK]
beginTraining=0
connectionLimit=0
contextTargetOffset=0,0,0,0,0
contextTargetSize=0,0,0,0,0
endTraining=4
hasContext=f
inputCount=21
layerCounts=4,49,67,49,22
layerFeedCounts=3,48,66,48,21
layerContextCount=0,0,0,0,0
layerIndex=0,4,53,120,169
output=0,0,0,1,0,0,0,0,0,0,0,0,0,0,0,0,0,0,0,0,0,0,0,0,0,0,0,0,0,0,0,0,0,0,0,0,0,0,0,0,0,0,0,0,0,0,0,0,0,0,0,0,1,0,0,0,0,0,0,0,0,0,0,0,0,0,0,0,0,0,0,0,0,0,0,0,0,0,0,0,0,0,0,0,0,0,0,0,0,0,0,0,0,0,0,0,0,0,0,0,0,0,0,0,0,0,0,0,0,0,0,0,0,0,0,0,0,0,0,1,0,0,0,0,0,0,0,0,0,0,0,0,0,0,0,0,0,0,0,0,0,0,0,0,0,0,0,0,0,0,0,0,0,0,0,0,0,0,0,0,0,0,0,0,0,0,0,0,1,0,0,0,0,0,0,0,0,0,0,0,0,0,0,0,0,0,0,0,0,0,1
outputCount=3
weightIndex=0,147,3363,6597,7653
weights=##0
##double#7653
   -0.9161678394,0.3757514624,-0.7654517022,0.929807804,-0.2212415007,-0.8977365874,-0.0708754261,0.1418875923,0.5883224819,-0.9929270456,0.9097093405,-0.5218956697,0.4497836189,-0.2775322762,0.1711501516,-0.1683287296,-0.6681723515,-0.0580232042,0.2868643918,-0.3989751773,-0.0481827924,0.4705819055,0.1366103502,-0.5703657916,-0.1958690846,-0.3552622346,0.0085471175,-0.8357948142,0.1313585461,-0.6616165379,0.7155284025,-0.4702065701,0.7173031589,1.4402780385,0.5679308377,-0.8588374377,-1.067649678,0.1981120932,-0.4624777946,0.0067243224,0.6556868251,0.6825120228,0.4658070965,-0.2948669082,1.2002019496,-0.4056905933,-0.9403890216,0.515510811,0.0857598754,0.8638916258,-0.4822246308,0.6208121134,0.2101589334,0.4327858373,0.9815384672,-1.0439181677,-0.32836212,0.1825374812,-0.5722311983,-0.2659215107,0.0623014164,-0.2705307837,-0.1470229209,0.3496102077,0.8613079971,0.6531305236,0.133916964,0.1234075102,0.5768123498,0.780841754,0.3009488053,-0.243985083,0.2318915175,0.2003336962,0.2256896386,-0.4398817088,-0.2991413313,0.4651692597,0.4313658403,-0.967967663,1.252550055,-0.2115853802,-0.5813146603,-0.0056948165,0.0907637217,0.4617358369,-0.2303219651,0.6803981092,0.6071816209,0.7408406224,0.8926805442,-0.6713129858,-0.5497900159,0.4711147194,0.5276005796,0.4131129027,-0.4323892817,-0.7429396891,-0.2664834255,0.0031038446,0.1565438601,0.0198195388,0.0393568191,0.0083918808,-0.2462772581,0.0157534022,0.3541304819,0.0301820139,-0.2337775637,-0.028151889,-0.1589906161,-0.46287816,-0.0141647803,0.0255664126,-0.0882798293,0.5516190508,-0.414935772,-0.4529696234,0.9970630614,0.4137867727,-0.6874883469,-1.43254454,-0.2910617578,0.070149137,0.1114766962,0.1691459883,0.7323742949,0.0299634571,-0.6610435818,-0.2390567017,0.0929231613,0.0352063251,0.1457516068,0.2525926022,-0.0274955696,-0.3492153329,0.0806557625,0.1233254458,0.3816653877,0.2732305567,-0.0499915629,-0.7825356142,0.1989964698,0.1683555264,-0.0196073887,0.0334192417,0.6690300889,1.0356793858,1.9857112803,0.0758788775,-0.662254793,-1.4718568511,-0.3963693279,0.2923516047,-1.0019395261,0.8806574168,0.976659528,0.0592596738,-0.8672962156,-0.6353565334,-5.6323139372,1.4533272208,3.6649963529,-0.2233139546,-1.6891659204,-0.2154435212,0.8840624662,-0.6650846562,3.0270233663,-0.1198294108,1.4084037378,0.7609637402,1.2188911853,-0.0347954568,-0.3609665804,-1.1187285431,0.2038094617,0.2588225615,-0.281147745,1.0299533696,-0.4144485074,4.1158355038,-1.177648732,-0.1715559667,-0.3989320119,-0.7239722373,0.5302513791,-1.0335982581,0.8596635717,1.3707329886,-0.3567501074,-0.0743753765,-0.6486095222,1.0426429936,0.7558802243,0.4039189109,-0.6883324449,0.5863370055,0.3244480777,-2.3139050745,-1.8216400849,0.4637176708,0.6835887105,0.3504153847,0.9670253161,0.1128410859,0.6563998272,-0.4807826144,1.2655153994,1.432563447,0.9711236475,-1.846392545,-0.2433930562,-0.5735241131,0.6312286256,0.6679696409,1.480555171,1.304040556,1.952067118,-0.6700953218,2.8176344195,2.2858982464,0.5009749879,0.6029801902,-0.6570465196,-1.4171955276,-0.035510013,-1.0397281343,-0.5427432383,1.2227226903,0.6444336962,-1.5486540383,0.3841107701,2.9067498687,-0.8210206023,-0.4788096615,2.1001888641,0.7223203842,2.3645558248,-0.3708906624,2.2642527811,2.9833940468,0.2748024569,0.4621324942,0.4313606805,-0.3992823593,-1.2305109595,-0.4771733986,0.0401644494,0.4333370425,0.0654255961,-0.0359663515,0.6346733644,-5.9438908666,-1.0312944465,-0.2764517722,-1.3926186121,-0.639751959,0.5844382373,-0.0392828005,-0.5266047344,-0.2558331026,0.6389919733,-0.4496174772,-0.2945027637,0.1315071617,-1.3094454416,-0.9144877747,-0.7799304638,-7.3970205045,-1.1306077522,-1.5818610505,1.2050546295,0.2574265317,-0.4593264698,0.6028713315,0.7771686757,-0.0270307325,1.0644892189,0.5012517867,0.1343642185,0.6607831241,-0.020694512,-0.0040328817,-0.0535572626,0.966317811,0.0856167055,-0.018113512,4.3592630407,0.0945441064,1.1098333007,-1.3570422203,0.1454460139,-5.3379419241,-0.1059675778,1.0678219945,-0.4428379279,0.6297683915,0.8050786887,0.3067398194,-3.6073750615,-0.9060064909,-1.6805091301,1.0842920207,0.0734021459,-1.2660312961,0.0185362315,-0.0797710254,0.2665240154,-0.4489784701,-1.5045334897,-1.6768117613,0.4408401415,0.4969094623,0.8200765538,-3.5091778799,0.3728886287,-0.7683530695,1.3232899586,-0.4352265908,-0.5112759318,-1.0175205677,-0.1689073518,0.5541470847,1.7821189042,0.778870991,-2.0865551526,0.4593231897,2.1730078142,1.2374533893,1.1664724181,-1.050142839,-6.9665485541,-3.4990837196,0.5757529109,0.7662070059,-0.328893225,4.0327195051,-0.9606468081,5.9281084466,0.4244448158,-1.2548029804,3.3930213491,-0.9111231702,-4.4414173007,1.0759886349,1.7380145755,-0.1856469209,0.3412006635,-0.5728847578,0.3347288026,-1.4570091141,0.0217179365,-0.465005127,3.3868932302,0.7128678728,0.0100025934,-0.1484751648,-1.0076959446,-0.4400938001,-0.3865243363,1.7861924317,-0.5494197937,-0.1308051835,0.0117189377,-1.5956023743,-0.7377900734,3.048015655,-0.8100530484,1.6861133084,-0.598191555,-0.2308819023,-1.11487325,-0.5079494537,0.0036010188,0.7702607163,1.2135908392,-0.2780727985,0.2101951446,-0.0251158561,-0.6661194425,1.6072204154,0.1399727137,-0.218027925,1.7653445773,1.5684482268,-0.9762721079,-0.1454399668,0.5104468161,-0.7485576756,0.3324434498,0.0509816419,-0.6636644805,-0.3095821601,-0.7428092959,-1.5589747553,1.2895521035,1.6143497458,0.7910738827,0.0554685854,-2.3444862349,-0.0876007873,1.3133088896,-0.6493309879,-1.322359267,-0.1779901868,2.4190455239,-0.9419577381,-0.2209389925,-2.9258201963,0.63377133,-0.1792752713,0.18386832,-0.8310860444,-0.4507190269,-1.3070609023,-1.9329694414,-2.7288485733,-1.1316187892,-0.3974438947,0.9422659324,1.3194603751,-0.2095028323,1.6351558516,0.05922778,0.5727416143,0.9410945269,0.3636511415,2.3937963806,0.614815814,0.4971994474,-0.0310723111,3.4851938049,-0.0498520484,-1.4728144547,-1.3165664094,4.2364515361,-0.4146497048,2.0066595185,2.4231450205,-0.355190089,1.7560458765,1.008374475,-1.3154167817,2.9317109812,-0.2095314506,-0.5324986545,0.8347131853,-0.9919790722,-0.5886234419,-2.9165866019,-0.0064758709,0.4944103114,-0.9864242812,1.8791051156,-1.6214107865,-1.3091689892,0.6985780395,-0.3223925544,0.9073380766,1.8173207747,2.5536136587,2.1893948213,0.2520428168,4.3002889965,-1.7754377011,6.8482196533,2.5245664374,-1.2488107037,0.7828240618,1.3306962121,-0.7765324384,15.7325503413,4.8122432867,1.7660285576,0.7384999981,1.6837419872,7.1373152009,0.898832785,1.3361191321,7.1867030721,1.3035853002,-1.1404688175,-0.9182935051,-1.0282568505,-0.0017500934,-0.8414273143,-0.1372535899,-0.5062304983,-0.662901211,-0.8013088995,-0.5304613949,-3.5052694164,1.7576314414,-0.2333120379,3.2189226255,-0.9478328447,-1.6677149688,1.0416471679,0.6393057475,0.8390204244,-0.2800910512,0.9369374868,-0.6367061726,-2.6285554182,0.7976774033,-0.1139758495,-1.0480164598,3.6015900547,0.9422310214,-0.4084989777,0.6118341706,-0.2253390672,0.3409934737,0.5686119168,-0.7699516958,0.6110882474,0.0157334366,-1.2385054907,-3.8406115604,0.7898533575,0.4934027475,0.3770426448,0.8436441116,1.2267706287,-0.2557510005,-0.775680462,-0.685243992,0.1464556054,-0.8213875452,0.3375690743,2.3113819418,-0.2865536191,-1.9585949572,-1.374098457,0.4738806407,-0.0425260278,-0.8429418368,-1.2141702194,0.6888006019,0.7872852324,-2.7070692005,-0.3020706422,-1.628591496,0.6589707433,0.7979223826,-1.688034316,-2.0619610094,-1.0836408681,-0.3727844208,-0.104641881,-0.101858576,-0.5505056907,-0.4921398514,1.0513729917,0.7949824734,0.1132711915,-0.7059759307,-0.1231415489,0.6310159397,0.8308215953,0.2467731691,-1.3932282487,-0.5949162424,0.5144644449,-0.1699517171,-0.9028403557,0.8503521717,0.0432131977,0.024586634,1.5530381181,0.3773528739,-1.1078175516,-0.0754255598,-0.8090086482,0.4179014188,0.4049015932,0.854818484,0.7668858898,-0.4257127657,-0.9380199961,0.6101877151,-0.6537650814,-0.7525872559,-0.1171599197,1.1663184139,0.1723825949,-0.3154532584,-0.3431016262,-0.5094874846,0.3198317459,2.0002891803,0.0315240319,-0.6747190865,-0.0455418828,1.0031726483,-0.3093306216,1.1136899027,-0.3864286006,0.7840175886,0.3217536795,-1.3464583293,-0.2580764513,0.5074579429,-0.2752619283,-0.0434598343,0.2629309946,-1.2487113268,0.7508997563,0.6248941992,1.4977989249,0.3032572755,0.3092170627,-0.6683838939,-1.1152400146,0.0678299361,0.0147422708,0.2929953418,-0.8856418381,0.8658149867,-0.534084651,0.182090639,0.4053064097,-2.2376285839,0.8229060852,-0.0789503682,-0.4929817796,0.6155147359,-1.0552565355,1.162535083,0.7477294091,-1.2928030662,0.986971423,1.2463339499,0.5183512692,0.9910216304,-1.2197103212,-0.3687496923,0.0735660736,1.4128999222,1.5143495083,0.6760472627,-1.6965748108,0.5323161206,0.0126524322,-2.0273166709,-0.2905439566,0.1890312439,1.080737764,2.3382678311,-1.1189867557,-4.3109729522,0.5521913478,9.5508860073,1.1293839021,-2.2025720239,0.2294557341,0.8528059792,-0.8802766317,1.7613033467,0.0420054424,-1.5667751142,0.400654746,0.0023182518,0.847513331,4.3341696213,-0.5964930296,-0.9278500329,-2.4932320532,-0.3300107839,0.24683225,0.1783360358,2.5379012598,0.7143712031,-1.0237334161,0.1391511904,-0.283026566,0.4978804416,0.5807609842,-3.4594009315,2.7955477131,-0.7541868354,0.3225750506,-3.3081028834,-0.4227823211,13.0840048263,-1.9800465384,0.9063686257,-1.1641279862,-0.7509064744,2.0874287379,0.6328082421,0.2449702802,-0.5156198458,-0.6249358272,4.6815408039,-0.39597331,-2.3879425421,-0.7026948852,-0.4407583658,-6.1086620167,0.9256038742,0.0273777696,-0.0152802587,-3.3996886258,-0.1385556117,-0.8086575534,0.6272245937,-4.2799109389,-2.310601975,-4.4727389965,5.4218042025,2.0986170174,1.2800459265,-0.9000467664,-2.8424582769,0.0745260228,1.5912415161,-2.7721934339,-0.0400707834,-1.1350009056,0.2140733662,2.5864546467,-0.6009024865,0.7720424578,0.3938866877,-1.4417384594,1.1362330649,0.1396065354,-0.0248662625,-1.0481410157,-2.1674812784,1.9712340489,5.5209312691,0.0913896593,-0.9420488703,0.6030277923,-0.22705015,-1.2638860852,2.5387806241,0.379761405,0.5229130488,-1.4153004766,0.1899370433,-0.240976553,-1.3271939213,6.5561465288,-0.6138356952,-0.2406220629,0.6915379839,-0.7762453348,0.0121413929,-0.2295736771,-0.2896570372,-3.4033486151,-0.5891628112,-0.849055134,0.1651885249,0.6345838386,0.9644750319,0.0473633749,-1.5285188882,0.3641665708,0.5071180221,-1.0108352545,-0.3794518653,0.0005349484,-1.0512336699,0.5663824607,-1.1719732894,-1.2999625696,-1.3807901664,2.407085243,0.5359328083,1.6120806281,-0.9276051838,0.1863608847,0.6155577561,-1.1970076542,-0.1941229203,-0.4621661591,0.8050244046,0.0516744203,-0.6109997807,0.1156606696,-0.5432789083,0.5037917904,-0.5721819564,0.2819272378,-0.3981961451,-0.3325145261,-0.217482423,-1.3787969353,0.3997078528,1.6780368608,0.163964019,0.241086044,-0.3543555103,0.5987747237,1.5086046392,-0.241824654,-0.5935802168,-0.3053248605,-0.5189939235,0.7539623679,-0.3122087347,0.272207603,-0.0408032595,0.3981877511,-1.5522454286,-0.1002667075,0.7462304066,-0.5919148427,-0.1422587375,0.1928000885,1.1440168512,-0.5157508104,0.9468308579,-0.0677018971,-0.6918436564,-2.3942152794,-1.4119092229,0.7872352057,0.8046299325,-1.2674930719,-0.1603043669,-0.2689777675,-1.4195170358,0.4260502002,-1.2608825244,0.0312258051,-0.0338212562,-0.5839017139,1.7364878567,-1.0118633467,0.2548622014,-0.0200256532,0.4999430624,1.0607325341,1.054194215,-0.0305198144,0.6181758009,1.6772879715,1.1495024833,0.0778990676,0.6564061621,0.1389932633,0.2410258971,0.9095174828,0.10232584,1.6431981638,-0.1846246076,1.424745105,-0.6050921863,-0.5294442824,2.7910545452,-0.3167284199,0.3347408136,0.4418212049,0.2510009958,-0.5765988534,-1.5507975838,-1.1609074738,1.4704082579,0.0331843993,-1.8333439357,1.7840863314,0.7153556878,-0.4347707802,-0.2865682219,-0.1535530913,-0.6340392566,1.1875770463,0.6035710594,-0.4448956324,-0.7550840754,0.9506788079,0.3376359091,0.0186182712,-0.1687367588,-1.3762193039,0.5414531456,-1.5913502358,-1.2682693558,-1.8678131064,0.2922333514,2.3597556841,-1.2119924282,0.0174505892,-0.7988924707,-0.525805021,0.9594417971,4.1424442633,-0.9342502111,-0.4569343039,1.6811691774,-0.3255341994,1.2344067241,-2.5943619565,0.8422623009,0.6266481745,4.981254035,-0.6361958301,-0.441681331,-0.9269087834,0.8976322564,-0.2641712376,-0.8352229324,0.3141510935,-0.9921921145,2.1889540993,1.0810931701,-0.1458163112,-0.5448887498,-1.040281136,1.0915452391,1.2847468316,-4.6236379825,-0.5510799221,0.2811711653,-0.2199463663,-0.9142450588,-0.521206567,3.7307827592,0.0978155325,-1.4878637116,-0.4214131369,-0.6175708064,0.0535169545,-0.4997531976,0.7566656473,-0.050987442,-0.3339397981,7.087773149,-0.5484570001,3.0715263778,-3.5210806668,-0.1051333134,-0.0605358113,-4.8678056875,1.3785562819,-0.9300128278,2.4452133899,0.6081815037,-0.5913572229,0.3897644567,2.4376489429,0.1563190812,-1.0850940071,-0.333807022,-0.0901256659,-0.6538604298,-0.0780362033,-0.4154707404,0.245259729,1.1985448663,-2.7372873047,-1.2859170224,-1.3457440921,3.3810194433,0.3693919668,-0.5717395075,-0.5058311272,0.4398409656,0.6373152123,-1.4939878952,4.1055383297,-0.3713829966,1.0268410497,-0.0582093692,1.2108337132,-0.4697486693,-0.465243877,0.699579445,1.5899108056,-0.1296476566,0.1639572443,0.8268534864,-0.1928719357,-0.0861255141,0.6145399036,-0.5598643583,0.7749596256,-0.5935186992,1.9323487994,0.211689889,0.7509009594,1.7398957533,-1.6824633602,-1.5844098023,-0.3138402956,2.6599702946,-1.1866741763,0.4346279066,0.5247681978,0.5488179231,0.6835112755,-1.3402719573,-0.5792576324,-0.2354793399,-0.581605369,1.2627812168,-0.9657806963,-1.0154739289,-0.7925146513,-2.1174300924,0.9979092096,0.8832389055,0.4943575147,0.093316723,3.0157441385,0.8960900564,-0.5992348431,-0.7878673169,2.1375171073,1.6479867262,-1.2538559958,-0.1686768511,0.8539953022,0.1369679888,-1.0966620552,-0.6639801012,-0.6639336936,0.9150822467,1.7919669901,1.4787641558,-0.9668352823,1.0333749288,0.0218107126,-0.5069274426,-0.6169355458,0.4594275156,1.1136069993,0.0341527673,0.5887354391,-0.1480226623,-2.1862916183,0.198264634,-1.6759679441,-1.85375984,2.6856003481,1.1564318773,-1.6563087001,1.8487378327,-0.1671624484,0.3132687643,-0.5422197573,-0.2951337532,-0.7632037677,0.2390669267,0.0688653644,0.9738040035,-0.8112118187,-0.5533912459,-0.9090450747,0.6499701394,0.132774749,-0.6832868365,0.7854996008,-1.2669394335,0.590179767,0.9554214892,0.13445027,-0.6148943683,1.5982621072,1.1324309186,0.3684309388,-0.2214771707,-0.290688992,-1.0601913887,0.1499833928,0.3886290848,-0.2847832321,0.7368282243,0.0310464504,0.8718842758,-0.3590901653,-0.0853031837,-0.6693047195,0.13522649,-0.9978617709,0.0159001537,0.1521604311,-0.4944210134,-1.6678217694,-0.3366811687,0.3874905221,0.0532292864,2.0629808142,1.3770744813,0.1201992287,-1.2330544857,0.0819241164,0.1898868482,-0.0323921645,0.0842710492,0.8006941838,0.2048648337,2.0342665206,0.7472707303,2.6080179939,0.504196177,-0.768064085,0.0442995046,0.9800287126,-0.090075822,0.7888431487,-0.0182351459,-1.5000357822,0.508413069,0.718609519,0.0289199604,0.1911941605,-1.1854099021,-0.2316841213,-0.2392529395,0.5291884089,-0.4300945751,-2.6672319036,0.126748222,1.2110849878,-0.5238636534,1.0725658243,0.0522410582,-1.5130440642,0.2502483558,1.0951067085,1.4303960451,-0.7863626674,0.9341650335,0.743352657,0.683465987,0.5029912107,0.3995372872,-0.7218695602,0.0004208634,-0.2219145979,-0.3120062539,-0.3533606257,-0.4098102508,-0.5339790137,-0.7308847191,-0.6015962576,0.345168634,0.0519600619,-0.156618891,0.1648641284,-0.4620123791,0.2157467164,-0.1157912796,0.2945184575,-0.3994737827,0.0951973482,-0.435192803,0.3529659635,0.2459836925,-0.5913675529,-0.03409521,0.1787169931,-2.559307033,-0.7746526757,0.6203328979,0.9856706004,-1.6488761165,-0.4883808574,-0.6310085218,0.1169632661,0.8737585874,0.110629791,-0.4874452457,-0.8536993302,1.051214065,-2.5537974728,10.2249441579,-0.6707320057,1.1859876396,0.7893521478,-1.079295017,0.8311802431,-2.0926426988,3.2748866549,0.0908439349,-0.1064084679,0.557132881,-0.0065931855,-0.2392096946,-2.1260800713,0.5574785639,0.8128416716,-8.7790354254,1.167985521,-1.4003375972,0.0446109272,1.0695760009,1.165714576,0.5148567865,-1.1986544516,-0.9685395647,1.2042165713,-0.8031010052,-2.916166033,1.5163369101,2.9034400832,-0.6919444966,-0.3919980873,-1.3845280752,0.0693316116,-2.7208163435,0.2188678545,4.0499917382,-2.8567919183,0.1301901352,-0.085872576,-0.8229527032,1.0574791181,1.0739916283,-1.1418240959,0.4777715375,-1.4210756561,1.0063881285,0.0119197724,0.4676091259,0.247438013,0.4015198987,-0.193291355,0.1615615109,1.3953530358,0.9412200563,-0.5010646488,2.8669189015,-2.579097333,0.3523180613,0.9846754414,-0.4818124938,0.9071833297,1.5911696823,0.6900910219,-1.0457150134,0.9843069671,0.3499876193,-0.0468288659,1.6484441825,0.9989344218,0.2622332541,0.706824108,-0.6137337657,0.8056427977,-0.1178657065,-0.4122965873,0.5038392189,0.530778724,0.4874347887,1.0019142135,0.5432559802,0.5271878364,-0.7435401083,-0.134004846,0.0682994533,0.19514256,1.503495818,0.9358953526,-1.7486342999,1.1892032274,0.2096631099,-1.4279364153,-0.5976107764,0.7900294403,0.7968440886,-0.2103616742,0.5913516465,-1.1195063634,-0.5344157061,-0.4294437365,-0.9362917093,-2.2971755374,0.3292493113,0.2337733476,1.5633948252,0.6278880033,-0.1125393755,1.1780704203,1.1114635797,0.8752480642,3.3040016277,-0.3148292151,-0.6868980165,-0.01060958,-0.3275283879,-2.9510770358,3.2455042448,2.356362186,-0.3809327465,0.8097475196,-6.2311172226,0.1461891988,-1.8524936925,-0.5938516573,0.2337715838,-5.9459171944,-0.8180926982,-0.0068679009,1.7845351738,-0.0355991876,-0.5833104989,0.0507114208,1.1492334211,-2.1491271104,0.8945244905,1.6945907001,-3.1052351998,-0.0114658246,2.6512803596,-3.361645001,-0.3185567321,-0.236609233,0.9727878906,0.5189596451,-1.684627696,-2.2989136574,-1.1000160142,-1.757629008,0.3475212075,0.3833433335,-2.295197893,-0.2521685329,-1.7033719854,-1.489903244,-0.7494710775,-0.3433070308,-0.5097746869,-1.8032844157,-0.7142153549,1.1131577576,0.2570246594,-1.7030082487,4.7950247429,-1.1267359692,0.8239691935,1.9016357359,-0.0369840975,-5.1634734538,-3.1005498842,0.1950422408,-1.2858879224,-0.818561235,-0.6169122423,-1.5000305613,1.8406541202,-0.7736400346,-0.2307273827,1.3893234209,-0.2523626081,0.4058950717,-0.4393710509,-2.2861497361,0.4791523458,-2.0159213416,-0.9299611562,-0.6114124829,-0.9373668632,-0.1799311017,-0.1832937817,-1.1607669863,-0.4067619099,-0.4281965792,-1.1867436441,1.3288055974,0.0321667735,0.8157388059,-0.3778996197,-0.852549622,-0.829643334,-0.9390250731,0.7680290979,-0.5207376567,0.775869667,-0.0733716158,-0.5676706434,-0.1453395519,-1.5865977087,0.9590821219,-0.0255445644,1.3085100037,0.2839429992,-0.5634232055,1.7070907168,-0.3932192902,-0.9531167462,0.4488923529,-0.7533596388,-0.1533738882,-0.7723608469,-0.5835671082,0.5877739504,-0.2198734375,-1.0889962053,-0.1329135681,-0.2032820893,-0.2195474597,-0.062142141,-0.1695349743,-0.8587842891,-0.3402785204,0.772340779,-1.0151958633,0.5752340634,0.2306803181,-0.5100981607,-0.8865082681,-0.6793392395,0.8617718609,0.5382495034,-0.9323546969,0.747101134,0.8519822972,0.6879934591,1.2786441858,0.9047592295,0.6760504797,-0.5621660749,0.6791137916,0.4382176853,0.7939936367,0.6110756463,-0.8211009662,-0.224644849,-0.9957799007,0.0204786988,1.1333551834,-0.7799738005,-0.0040112805,-1.5383523419,0.1814704854,0.5276775652,-0.7673142753,3.1265246426,-0.2272821992,0.2074068556,0.2387113343,-0.7083941361,1.151111937,-0.128611486,-0.3543396759,-1.9969153853,-0.5170300831,0.319315408,-0.6499193722,-0.2657475652,-0.1474114274,-0.1353793517,-0.0537007017,0.7505548157,0.2229474834,-0.6958603488,-1.5033124477,-0.6409229387,0.4159516749,1.619034881,0.7870881765,0.3380123037,0.2101953835,-0.7105328657,-0.2806857388,0.0651293704,-0.0359473113,0.4172731592,0.070272248,-0.9390882224,-0.1788686705,-0.7215178381,0.376100945,0.4238192313,0.0840096339,0.3812496635,0.465408503,0.4540187992,0.5279075612,0.1851525744,0.6322780979,0.2444517603,0.9674487782,0.6585462107,0.3891565057,0.0566888646,0.3612775792,-2.5347071544,0.563971312,-0.1410008675,-0.1893389101,0.0262175836,0.9225490766,0.3231760497,0.388833396,-1.7647392629,-0.2303438796,-1.0568161475,0.1036845246,-0.1217891768,-0.3510253679,0.2015641702,0.6401978115,-0.0108511421,-0.722790446,-0.705376748,0.1819977583,-1.114099874,0.8034164091,0.8928750574,-0.3695841774,0.0799383412,0.4222362142,0.4154300623,0.1926014139,0.212518236,-0.0930224307,0.0958892083,0.8659299177,-0.2108345537,0.1034579458,0.3086903733,-0.3958344767,0.1842602996,0.2510250718,-0.8796294019,0.9469983723,2.0793603271,-0.5377912517,0.4605219426,-1.0525304684,0.0216408895,-0.40388574,-1.3571152229,0.1399447222,1.0208453964,-0.5910815881,-0.4494430856,0.4534069569,-1.0609949714,0.178793264,-0.240763661,-0.451569586,0.0374157203,0.0053247332,0.4717420789,-0.9726708697,0.0324835813,1.1858565013,-0.1823429742,-1.0248794465,-2.2630689366,-0.456496209,0.6885258875,-1.0400491316,-0.8135937911,-0.3582708413,-1.6242455654,0.8597908564,1.3161735575,0.9490576222,-0.3459855771,0.3478518216,-0.7340920592,1.0312724868,-3.8618335914,0.0274994719,-0.7634232008,-0.1114555917,1.0171721417,-0.9397401707,-0.3648978351,0.1683588528,1.114165874,1.4960024799,0.0921766919,1.0735233351,0.0229415861,-2.6902840942,-0.2750276089,1.2774948701,-1.0038018237,0.2617591772,0.0711256558,-0.3452827838,0.2476063836,0.572781482,-0.9394568019,-0.8218966418,-0.1385597835,-0.7999633603,1.2882922104,1.7325121197,-0.1641604332,-1.4311835519,-1.2199206509,3.4708271386,0.2691980648,0.1912251508,-0.6571388732,-0.8437138313,-0.3785168336,-2.2430749227,-0.1050170813,0.1757481661,0.2151072849,1.1927944753,-0.4221276174,0.3854321795,0.2681862408,0.6240983895,0.5593399844,-0.0654520978,0.7960785981,-0.7588753523,-0.8200462743,0.6325484799,-1.5166636435,2.6767799767,0.3438713861,0.4316688626,1.4927067486,1.3599736897,0.9217635279,-0.5886181289,-1.7608386138,6.0958492774,-1.1387307298,1.0555135176,-0.238590857,-0.1032027257,-1.5379563077,0.0237020841,1.6074192688,-0.0011247247,-1.0586872912,-1.6842800508,0.2990861721,-1.5797718509,1.0287303794,0.1148526261,-1.2721268875,-1.7741283322,0.176611522,0.7948676195,2.4630434834,-1.270937312,0.1901217265,1.2727525273,0.7116646459,0.0488762266,-1.2473807366,-0.268210125,-0.3387578066,-0.3840166575,0.2171994918,1.2530377823,-1.4685865942,-1.4313971856,-0.422876089,2.6828628859,0.9539169585,0.8188298168,1.6932271701,-1.6352896417,-0.0744883956,-0.2417693264,-0.5198961413,-0.7885060974,-0.3165573686,0.2520919294,1.6156568559,1.2437764983,-0.5574773924,0.6076099539,1.0500289348,0.2985722474,-0.8661198537,-0.6567053543,0.2857320523,-0.2673693606,0.1782992664,0.3313081057,-0.4272965266,2.0977520261,-0.8314987121,-0.887830989,0.3093753507,1.2693656702,-0.3765963452,-0.0336042955,-0.8566665846,0.05614555,-2.1895284207,-0.0062170888,-0.1190591935,-0.405736746,2.1570874266,-0.1256571624,-0.3375957517,0.1635281887,-1.9905026338,0.3590805708,-0.9425999802,0.5919875499,-1.0948761885,-0.5253715447,-0.1284959942,-0.8359030479,-1.0736305545,0.5938675714,-0.4880744352,-0.0689319407,-0.1137255377,-0.7746258,0.6464230579,0.323909014,-0.1712965663,-0.1384437532,0.3617450611,-0.4011246852,-0.6519337726,0.3610749448,-0.5389288303,-0.1645223341,-0.0624242498,0.4856717029,-0.1507914759,-0.436984479,0.2101183401,0.3422999065,1.2106706669,0.4930475712,-0.2281318412,-0.442950294,-0.0484824824,-0.3800245644,0.8060471561,0.276632298,0.7340371185,1.0884045428,0.5166189625,-0.2401298407,-0.6013237825,1.2232530553,0.1479140266,-0.2764585821,-0.6988285636,-0.7024927918,1.336540768,0.5323371421,-0.7236272604,-0.4232148138,-0.8660898533,0.2228797444,-1.2472933231,0.5589771203,3.0914550349,0.5545646529,-2.6915881902,1.0825981978,1.5892910334,1.2289764848,-0.618791395,1.125668306,-0.6579363211,-1.3086511784,0.3683315756,1.018303909,-3.0119423286,-2.4243941684,1.4843023476,1.4315088582,-0.7738111494,-0.5837608538,-0.0271177797,-0.3884917162,-1.175076195,-1.535794609,-1.7992646392,0.9437290071,4.7928665033,1.5981163696,0.8554543618,0.1615239836,-0.7003012133,-1.7344396165,-0.1329548,-0.1255127801,0.5664592835,3.1799490227,2.6213222578,0.9745429969,0.1868885754,0.1790670702,-0.0435873156,1.0824671534,0.3085688355,0.495443705,1.7922946078,0.0193286603,-0.6745664852,-0.9826165994,0.5663543334,-3.0530831757,0.0314905576,1.734987585,-1.6463180462,2.2472198296,0.5234115047,0.0795484658,-0.1025958135,-0.9281304132,-1.0916247915,0.5327836681,-0.119682601,-0.6261584422,0.8530336121,0.0788348596,-0.7991502293,-0.4648510565,-1.9593911139,1.2941928116,0.5372900598,0.1484416841,-0.0428742507,1.0503230171,0.4360337564,0.023332876,-0.0490334311,0.6752757453,-1.2396332031,0.2945591741,1.0084030691,1.0445693558,-3.7632473754,-0.5793767112,-1.144680806,2.8305854747,0.3638033311,-0.3675379097,-0.6994783443,1.1985657869,0.4140340449,-1.4430861678,1.327380658,-0.0543236883,-0.1298987453,-1.9675191827,0.7621702531,1.0791742104,-1.5501046617,-0.9200004975,-0.1392740359,-0.8194275467,0.3083963829,1.3729718508,-1.2722158383,1.2386674023,-0.8613299128,-1.3127808067,-1.5057158208,0.9292570256,0.2441765295,-0.5767192214,-0.8163504311,-2.6031059338,-1.9305647577,-0.3368447783,-0.367969588,0.2877372764,-0.1863424112,-2.259142512,0.1051315978,-0.4354208972,-1.0740045883,-2.0126639106,0.9112780335,0.2550846335,-0.4219990891,-0.5192725424,-0.4135776616,-0.1330792761,-1.3261242856,-0.6252736634,-1.2847932645,-0.8546618235,-0.3125982697,-0.6721095858,2.0716291357,-0.227124773,-0.0956102305,1.054193431,-1.4696295821,-0.8760372522,2.077313138,1.3978153253,0.3027682205,0.4965405636,-0.1074889476,-0.3112320517,-0.3036023245,1.588512443,0.3937606413,0.1701314237,-0.0189859135,0.701303583,1.4022333108,-2.1700850491,-0.3622633259,-0.5179476361,-0.230737693,-0.2314903204,-1.6647396425,0.0649661814,0.7010000355,0.4809066481,0.4323540709,0.5009350206,0.0617738866,-1.213401936,0.4069319953,0.7323023583,-0.1654396109,0.8142628005,-0.7839596043,1.385954179,0.8161012056,0.2827812903,0.7431990901,-1.7601075444,-0.2939858447,-0.7658524908,-0.0629603261,-0.1364633997,1.1320017694,-0.7503135773,-0.2509834549,-1.852130315,0.5787183251,2.7051928585,2.0388380464,1.3812768437,0.2166940881,0.3208617254,-1.0662718885,0.7741686811,-2.0203199213,-0.2362729695,-3.3530346713,3.6001446702,-0.8565697901,-0.1948591751,-0.5460981994,0.8824351606,1.3716533678,-0.3971440749,-0.5475373453,1.3499550373,0.6168022262,0.0292895706,11.4625348742,-0.1505861167,1.7651559251,-1.227951523,0.2975678441,-2.6994008743,0.7750515583,2.2825308271,-0.2716218385,-1.1458521607,-1.4207029467,0.8459211965,2.5805010454,-1.1825116111,-1.1733282335,-1.1855962628,1.1858637544,-0.6546832389,-2.0710531086,3.3676780913,0.9551495809,-0.0957480495,-0.1559425644,-1.0942865975,-3.0379468425,-4.0623061676,-1.1553458005,-0.0486969837,0.5220712059,0.8600410877,0.362314995,-0.1191898579,-0.2593062568,-0.2966897309,1.2555677878,1.0664583739,-0.4096423883,-0.220548217,0.2534821198,-1.5193618294,1.6397151575,2.3799039921,-1.7633949457,-0.019176523,0.7454551096,0.2792958332,0.0894062749,-1.2353539185,-1.1854269167,0.4830496787,-0.1294547781,-1.2855287341,-1.9969684793,2.6823089962,0.3547149318,-2.4947918455,0.0514937382,-1.1112340935,1.335229847,-0.7898662688,-0.1161592046,1.9607061909,1.5723182093,-0.6720578877,-0.4515404319,1.9804253912,-0.1235934121,1.1610500624,-0.6248457576,0.3001593597,0.3181733221,0.7354253124,1.1918517797,-0.7710422622,0.2207775432,-1.1156599005,0.9000922236,-4.0570870924,-0.7867152985,2.4872448793,-0.9687312894,-0.3455070771,-0.5688482657,0.4420445066,-0.3371138201,0.8156558225,-0.191631012,-0.4526256637,-1.1948252123
   -2.4657726661,1.0041541185,0.7952596832,-0.050516001,-1.0577986083,-1.5139657039,1.2778564551,-1.4588339884,-2.0739726743,-0.6671504454,0.2913787906,0.9183719234,0.1155948214,-0.6659215821,1.1997138593,-1.004243488,0.1587279005,1.4351891559,-0.5668048614,1.161518226,-0.9496188391,0.1158483203,1.1951059838,0.192335146,-1.479786306,-0.5076905943,0.1584126092,-0.6261923166,0.0756150277,0.2442601457,-2.1802178744,0.9768239255,-0.0904232227,2.469330781,-0.9928352515,0.2433848506,0.6578801271,0.3886446154,1.7995941628,-0.7053312259,0.6863150306,-0.427562864,-0.0446559247,2.5660449196,1.8446340916,0.1694072295,-0.3194328219,-0.1567838138,1.3366128711,5.9370901434,-15.2251005773,0.3728812644,1.2871068111,-4.8283764209,1.0694412222,-1.1580748005,3.3637611448,2.4991498304,-0.1826304536,2.0537042698,-0.5077525658,-4.9769067,1.0791102538,0.8104616088,-4.1713124561,0.6657520406,5.0349740609,0.8725988459,9.3525046123,-5.0713535797,0.376314608,-1.7744235469,0.488355823,-1.5154258559,-1.0452695469,2.351593245,-1.3441033104,13.4985688812,-1.948861369,1.8223978875,-0.6275438532,5.020987476,-0.884628979,1.8467853656,-1.9356894231,4.2277232459,3.5976162325,1.0497599933,0.5578730318,1.4367037471,1.6871011984,-3.0452478037,3.8520495682,1.0431087357,-0.1019898434,-4.3402697023,0.5353124191,2.7833258523,-0.9927276556,1.3413192535,-0.4411035377,-2.6449001357,-0.5681732407,0.1126091704,-1.2392349409,0.7198836392,-0.7241868779,-0.8806098094,0.8231554577,-0.0747096947,0.1738615608,0.3096048982,-0.9751987735,0.2441293828,-0.0237457699,0.1150515503,-0.970766446,-0.0135817002,1.4101289947,0.273992309,-1.3806761539,-1.8272653634,-0.3985525463,-1.6628146745,-0.7572354108,-0.0393081963,0.9693830084,0.1000704067,-0.1932054223,-0.8602439905,0.1264150358,1.4222854114,2.695317187,0.3810155045,0.7549524497,-1.3871942134,0.0808735765,-0.1669967013,-1.8897321155,-0.3439125622,0.1585194135,1.5096789128,-2.2757625399,0.4484717401,0.7858758416,-1.2476834172,0.8471726148,-0.3099072798,-0.5155322492,0.0541472882,-0.817791204,0.0112360117,-0.6901019346,1.2607466528,-1.0245457489,1.8558441225,2.309779258,-0.1001300003,-0.8023905631,-0.9732406672,-1.7336075163,1.2559472074,-0.8770128619,-0.7282297601,-1.3483224633,0.6078408952,-0.4444834379,-0.5888540634,-0.657621681,-0.3543506716,0.5637837592,-0.9569482252,1.2395113926,-0.5200127401,-0.018762168,-0.1937343557,0.7411488228,0.4290737863,-0.6931293953,-0.5782497797,-0.1856737522,0.6634363463,0.2015175312,0.1770935116,-1.1367275558,0.6745979118,-0.2731298845,-0.2265549654,-0.983717186,0.3287891287,-0.7121929324,-0.6677601682,-1.1112498705,-0.7347595057,0.0515540722,0.7956647307,-0.411462242,0.3522399627,1.2249739862,0.1371580364,0.3045128914,0.4751845358,0.120404325,-0.4362771219,0.0876880329,-0.0272560194,0.3231819247,0.9967528451,0.0276603115,0.5988341564,-0.4142726899,0.4261740033,-0.3256518401,-0.110902384,-0.4625886492,-0.6974198207,1.3603365184,-0.2163025813,-0.077934847,-0.1076287718,-0.4300959151,-0.8631872972,1.0351433516,-0.3996946518,-0.230624565,-0.8551133296,-0.5568393668,1.6352495867,0.700360158,-0.8790951292,-0.9978276426,-0.5216680899,-1.078716285,0.3886181599,-0.306446485,-0.0480458663,-0.8276652671,0.0979708901,-2.3036643974,0.1238201417,-0.0715785526,-0.1166919699,-0.5372932018,-1.2832498833,-0.1406462622,-2.5035125814,-1.9737509512,-1.8844730705,0.548450401,0.8721394558,0.278860942,2.3130399066,0.4278921279,0.1953833703,0.0224040758,1.8126140045,-1.5195813346,0.3423716307,-2.6409881973,1.1053702815,0.5617289663,0.0168000335,-0.6681998094,0.7190522132,-1.4098809626,0.2893700528,0.7503589767,-2.0960815215,-0.9260072093,0.010652231,0.8371287912,0.2263271173,0.6595004277,-0.7794637398,-2.1185295022,0.3975113128,1.4549961599,-0.4528635811,-0.8395507124,-0.1534600621,-0.6845826808,1.2055063879,1.0204941441,-0.777538067,0.4330315466,1.911208355,-0.1508728996,-0.950266746,-0.9965393477,0.1849868618,0.3824189276,0.024219255,-1.0084083314,-0.5917310078,1.1183764271,-0.4549178162,-0.7669734069,2.0159058001,1.3945365245,2.6754734436,0.2401184973,-0.684055159,-0.1431780648,0.3325563942,-0.7431144477,3.6470358441,-1.2566163845,-1.2720091561,0.6732310016,-1.0400642848,0.5326772398,0.0871050315,0.8519078721,-1.3284637018,0.5499895765,0.0604192039,0.4144410379,-1.1972021748,-0.6177962933,-0.6826797174,-0.4972258368,0.4539814139,-0.4114225461,-1.9689610693,-0.5707352945,0.7940487827,0.4061054671,0.5030670207,0.944351342,3.7369305467,0.2972197469,-0.8901235021,-2.6982236384,-0.9463632991,-0.8239249273,-0.78817436,-1.3769196163,-2.3452885506,0.1801444692,-0.5506208593,0.8582768593,-1.0373203273,0.3156928376,-0.7328966616,3.4496564484,-0.4253979994,0.3218646087,0.5501874641,-0.6217848264,4.8161981603,-0.6847924045,-0.0088639825,0.4708620295,0.1783999307,-1.787099384,0.0334621666,1.3301713958,-0.5829381691,-0.5454891218,-0.027277978,-0.524194371,2.3419866948,1.0637967573,0.2119131031,0.4867198154,-0.5211063281,0.1262858062,-0.547483264,-0.6425395205,-1.0582073854,0.0306861718,-0.3714422558,-0.0098878943,0.7339557567,-0.4559272886,-0.5909801464,0.3793978373,0.643161951,0.0350646477,0.7624245138,0.1178634961,-0.9406101656,1.1580767945,-0.9058655871,0.3645406672,-1.5829339265,-0.4314905425,0.0196633683,-1.3719586932,-0.6840475713,-1.9513188667,-1.032917261,-0.1411922211,0.6481378782,-0.6007793531,0.9845722559,0.2406633007,0.2818569844,0.0663568183,1.2151153667,1.7526037085,0.6228102397,1.0396024276,1.0742998703,2.4247037572,0.3419600749,-0.5255341253,-0.6525221077,-0.122098409,1.2258494551,-0.9288880289,0.2090562752,2.0311164876,-0.1530957282,0.7328075342,0.4007481804,-1.5555776128,-1.4204108264,0.5573640231,-0.3911637313,-1.2573727416,-1.3727254039,0.5866394683,0.168322583,0.3590229363,-0.6752545266,1.7858679301,-0.0984477963,-1.0515578527,-0.2713934357,0.5933725224,-0.7430618706,-0.3580771707,-1.1670596455,-0.9574643767,0.6784397751,-0.4749116843,0.6691444469,-0.614778625,-1.9114094425,0.5988323987,0.5447467558,1.6779779193,0.1053931919,0.7240170443,0.0559440294,0.5024541889,0.606975242,1.0300789925,0.2610759581,-0.3207308013,-0.0672381901,0.7197632268,0.5443900556,-1.1316869733,-1.4371329452,-1.9697985532,0.8871220909,-0.3482910354,-0.4586790757,0.6510955864,-0.1909244507,0.1572933985,0.0889920817,0.066314016,1.8183475782,0.0370918371,-0.0548867221,-0.9012842737,0.0766854513,-0.0585024689,4.2199528498,0.929040102,0.1657209746,0.054111434,-1.1652764278,0.992809173,0.2221294259,-0.5617928607,1.3053909174,-1.6712638416,-0.6065902417,-0.3264999882,-2.0632773551,1.7571195714,-1.8560493318,-1.2344259082,0.1113211124,-1.2823993783,-2.4179383655,0.8837203842,0.5824795504,-1.5447119918,-0.3089993564,-1.6998107623,0.4280391348,0.4353800372,3.1234743608,1.168600248,0.019379142,-0.8359937835,-0.6800268504,-1.5876022747,-6.9101084771,1.5099031502,0.5892691782,1.0390612063,-0.3732144899,-1.2505783677,1.2166595595,-0.4203001418,11.2795776998,-0.2873634128,0.6406410238,-1.6960293869,1.5721602314,-0.183911199,0.9554056872,0.6093182453,-1.0821976819,-0.8819455312,2.2347659326,-1.8178515751,0.3889117834,-1.7735933862,-0.1333718091,-2.6652467372,0.3005359177,1.1092599815,-1.0846228636,-2.2524654806,-0.009193724,1.035058582,0.9810197738,1.2149712703,-0.2663077787,0.4419804403,-2.0111930768,1.9025414784,0.1705468172,1.3964143896,-0.5359168451,-1.2613476457,1.882646166,-2.127533953,-0.1990456775,-0.4302522783,0.5705714158,-9.416675413,0.8019325398,1.5712023804,-1.2147239857,-0.8737705997,0.5728338399,1.1122925062,-2.7405888772,0.5946904964,-0.1505557159,-1.361432251,-1.6531704597,-0.9904100792,-1.4178066518,21.7392017685,-1.9519914072,-0.9947857856,0.9874450811,-5.0834094053,0.7283387711,1.3695944711,-0.8084679545,1.1173441141,1.0601754947,-1.7464029402,-3.0212957017,25.8304218219,0.5891821389,1.0660492995,1.0802596528,-1.3924446931,0.6499203116,0.6060618286,-0.8340673325,0.0733562298,-0.8101182159,1.134183109,-1.1071535062,-0.2487894587,-0.5623726777,-0.1538400884,1.0103190368,0.8696187631,-0.4884841072,-0.6421396315,-1.1261900773,-2.2955800408,1.1868315295,1.9221744169,0.0601899649,-0.787277593,1.1698665021,-2.0688125643,-0.043119555,1.1473552469,-0.6915758912,0.6698856898,-1.0161137755,1.437831596,1.7971033093,1.2314328552,-0.1715663263,-1.5723975941,0.3438496633,0.7272564958,-0.3878125614,0.0913101672,0.2689987685,0.1980818542,0.7244857656,0.5653278341,1.5741377794,0.0201874453,-1.7104424736,-0.1239138867,0.3824724355,-0.8268975576,-0.099217709,0.2325569554,0.9632088625,0.7379099679,0.525881594,-0.8745825148,0.0641070443,2.6189024815,-0.3889092866,-0.5242965707,1.3024237928,-1.2571538037,0.6226956562,1.9257969563,-0.6111166742,-0.2710512755,1.0371948316,-0.5385797577,-0.3948086913,1.2793675402,1.0733587884,0.9871099171,-0.3247083681,0.3833674899,-0.2655801427,0.9864552098,0.5643998942,-0.9195301718,-0.4857923151,1.1161366571,0.0145646213,1.8899021553,-0.2084566784,3.2123248389,2.2814772499,26.1480797019,70.5991517972,-4.1974900784,-0.242636247,1.4285180895,-0.936852061,-0.4879566566,0.3323050292,-4.8190373036,0.3077138447,0.5007445209,1.6865439513,-0.336727909,12.9132847837,-1.0114477405,-0.4968804501,-1.8178751992,-0.4071958306,0.4618800651,-3.597456447,1.3524604832,-0.8369744949,-0.8562476299,-1.0542328796,-1.1046280932,1.034917909,0.8105992947,-0.9563241511,1.1000049734,-0.1434727626,-0.147990175,0.6000146167,0.6726856666,-2.5553274991,-0.5018920729,0.0177405123,-2.2810546334,-1.25496915,1.0051269238,-0.7494295386,-1.1955665759,-1.3564437298,-0.114018123,1.907073158,-0.3529858114,0.1001552987,-0.649171849,-0.4298852748,-1.1319449312,0.9925730572,4.8922193283,-0.184244117,-0.3971679307,-0.0650445745,0.0296114134,1.04853796,-1.1179377319,1.0143397137,0.4979927536,0.0575441532,0.7232647504,-1.1680168215,0.414530376,-0.2629237803,-0.008701883,0.6652038598,-0.0983796209,-1.2296541034,0.4136858366,-0.3618027433,-0.8499190075,-0.0606077657,0.1021435391,-0.8569182058,0.3305637836,-2.1068198372,0.6715897499,0.8722036976,-0.08366311,-1.1996036728,0.8232416064,1.5664865849,0.2794577394,-0.6548982952,-1.1468721081,-2.0819688459,-0.1227242339,-0.0253190295,1.174123813,-2.1335960393,1.1327340874,1.2151808871,-1.9117178066,0.0870806984,0.8300770873,-0.6448914068,2.4208279089,1.1816616446,0.5867398631,-0.229115437,-0.32864057,-1.1109745587,0.6616017367,1.4911148459,-0.3752468458,-0.6335647965,-0.0067603624,-0.0272481173,-0.4196261391,0.0938020085,-0.3244962335,-0.5173755941,0.2033239495,0.6766247273,1.1631279765,0.5225998448,-0.5049855164,-0.0091430953,0.7487454705,-1.4412477517,-0.8059734567,-2.6390019195,0.4287256906,0.5983053418,0.9871206454,-0.5776180001,10.9565059534,0.9277112208,-1.1865427252,-0.2710366745,0.4830974618,1.0295960887,0.3005133235,-1.2450512433,-0.1750841285,-1.0444312174,2.1885871189,-0.5952857119,0.3048378063,0.0650926989,0.8659089878,-0.4011328283,0.8809375496,-5.192549308,-0.7245341019,-0.5854183682,-7.9361589616,3.9113652768,-0.9137886729,1.4441102175,0.6901544512,2.4853571262,-1.1618638153,-1.7091566526,0.42337639,0.6441717105,2.2051807417,2.3613666002,-0.6199905718,10.841726692,0.5654041619,-0.610800737,-2.2582865446,-7.1349451511,0.3234127008,-2.8216071795,-2.0107078758,-0.6880325925,1.6353311336,1.2215835565,-0.2060546024,0.1499411814,-0.6347156424,-0.2935589834,3.2890922683,-0.356166269,-0.5082884722,1.4397613574,-1.1979779237,1.6052667387,-0.1262618427,3.4023461582,-2.0717564957,-4.8236201562,0.1169426874,1.7275065339,0.6378513464,-0.1048147322,0.6365999623,0.1675705574,-0.610853907,-0.2238464487,0.375679843,1.0029852781,0.2961465219,0.6822609188,-0.6385866873,-0.6179566771,-1.279821216,-1.0483004442,-0.3210576529,-1.0451673193,0.1759990334,0.3303151095,-0.6397011276,0.4845488518,0.2001804457,0.2426991858,0.1816606033,1.0169022609,-1.7273807408,-0.298137729,0.7395158934,0.0620541106,0.7899068512,-0.1781241853,1.3234327122,0.336686374,0.4518032148,-0.0651923453,0.2527067165,0.6195782038,-0.5725630812,-1.2288233232,-0.5873370204,0.3327875035,1.329362814,-0.3558563023,0.1117689575,0.5973626576,-0.424653064,-0.8505350897,0.9831051944,-0.0125694308,0.9025773123,0.6529645452,1.2607186746,1.5814656854,1.5908042581,0.8796377466,-0.2140109484,-0.9949203744,0.0074578554,0.8041371152,-1.1064612685,-0.8216813785,0.651866624,0.0578509794,0.1157562545,-0.7103292624,-2.0174530157,2.7641835534,-0.2739785724,-0.0560658151,-0.6455304898,0.0159885958,-0.7985014007,-0.4516211833,-0.808913563,1.152262653,-0.5019729215,0.9300488136,0.6022380374,-0.5613462699,-0.658640516,-0.4576863963,0.3944273124,0.0312924502,-0.5983147504,-0.1877112799,-0.8463564714,-0.1899764077,0.3884816894,-0.2730847867,0.1618152587,0.1713261833,-0.9561101777,0.548830571,0.1323653816,-0.527522821,-1.0638357544,1.0198574491,1.0398168769,-0.9486177734,0.9463015739,-0.0872265551,0.4018828902,0.0758399838,0.2314471907,0.022197076,-0.4904079844,-0.4475623377,1.7527847142,-0.3562247919,0.7456192048,1.351579546,-1.1736659722,-0.9379342359,0.0407994611,-0.453988583,-0.78587254,-0.2026832525,-0.806202929,0.1290659491,0.6518792834,-0.2463246938,-0.0043070745,0.8498968634,0.3869789917,0.0842147307,0.9657825205,-0.3658004957,-0.8257223968,-0.4253999136,0.1885984306,-0.0523336374,1.1318576202,-1.5021086134,-0.5040866967,-0.7391527284,0.356991552,-1.4612557678,-1.2864422523,-0.4040772767,-0.2491485502,-0.8682791623,-0.7640311185,0.7795691127,0.5234021507,-0.85512395,-0.1029409185,0.2432174392,0.6437928243,0.0548079948,0.1526999484,-0.5531698103,0.383678405,0.3860509237,0.3921167495,-0.6997929855,0.7914057995,-0.6485437985,0.8754748312,-0.293959415,1.4629682883,0.3939253053,0.6810777758,-0.3972732081,-0.0103354461,0.3024913052,-0.2123698232,-0.0671072203,0.7687086196,0.4116601011,-0.0890042428,0.7233391958,-0.0007547524,-1.5532693425,-0.8080757856,0.3017132473,-0.627139232,-0.9543073964,1.6643831619,-0.1316033935,-0.8039385984,-1.0181228031,-0.3428345651,-0.2295063154,-0.8759969272,-0.2688397234,0.2522186934,0.2444734758,0.4182418764,-0.0756178009,-0.4673102881,-0.3683514183,0.3967497275,1.3694431581,-0.4149644021,0.2048333212,0.1544900067,-0.1267459806,0.105363246,0.1186969953,-0.7445098903,-0.9590308347,-0.0939982838,-0.0689283121,-0.0969091135,-0.9979274634,-1.3778109097,-0.1001659296,1.1170560287,-0.2425550957,0.8475783503,0.3755515166,-0.3266480598,0.3646756543,1.0166165285,-0.1803181972,-0.6180027044,1.0937436446,-1.3961849867,0.0697558826,-0.7516752273,1.0536752324,0.2721055001,0.3426037189,-1.0864401666,-0.3689267895,0.7595861225,3.7553741209,-1.119738073,1.6742222595,-0.0324523488,0.2499146769,0.1826265427,-2.9072251278,0.052534898,0.6231663913,0.6510580184,0.3217574518,0.6699889199,0.0452731942,-0.904417624,0.5020651798,-0.9492732017,-2.7448705993,-0.5642223868,0.1822643989,-0.9839860375,-0.7660984087,1.5704858578,-1.4507633991,0.3417541302,-0.1515675682,-0.2521429291,0.7294105914,1.2905820012,1.4738831474,0.6033248416,0.7441379926,-2.4719291274,0.7690089058,-1.0869580603,-0.3788867164,0.3507857941,1.2015593879,-0.4349912529,1.2964037692,-0.0324477561,0.0708850693,-0.7941159908,0.7638549777,0.1222525362,-0.0885512956,0.990782915,-0.2324264802,0.8421020319,0.427925403,-0.4622553387,-1.5145621464,0.0539248064,0.677652787,-0.0339863984,0.5214150165,-0.7847735414,-0.2504059466,-0.8086764305,0.8025317633,0.225725805,-1.042616604,1.0428494653,0.8097729215,0.2603473705,-0.4955785733,1.436307399,-0.54652205,0.579556044,-0.6412032151,0.3533466115,0.077660726,0.7897847427,0.6813741647,-0.022985251,0.2236992133,-1.5492915453,-0.2337383637,-0.7780598775,0.1078900046,0.2772271584,-1.2604069467,0.6792610828,1.3390159499,0.4375968405,0.2576313686,1.365174259,0.9133103251,0.2251140769,0.9913241036,0.8939262689,-0.0232179338,-0.5447834544,1.0194628047,-0.0543007261,-0.3907077536,0.0110765422,-0.6330584206,-0.4519134302,0.4326653532,0.6487676915,-0.660738135,0.8306130777,-0.5766978534,-1.0563372308,-0.6661723409,-1.0714102315,1.3266881374,-0.0827434894,-0.9236537298,0.2957043762,-0.2864775732,-0.8343981715,-0.5739908164,-0.7043330766,0.1138165455,0.4815161294,0.6192573474,2.7482696392,-0.1131166031,-0.3846935438,-0.4651588024,0.4416665294,0.419461628,-0.0149294397,0.284665808,1.4129534216,-5.5631345067,-1.2703937903,0.9066275518,-1.3113274939,-0.0474430135,-0.211681863,1.8151032637,1.8844782811,0.6894502014,-0.2138664278,-0.0321532859,-0.0016864788,0.7221488657,-0.7917792144,-1.3681474006,-0.7159479115,0.2340480233,2.4854796664,0.7115864701,1.5735659856,-0.4376899323,-0.3913162526,-1.3993675176,0.872175403,-0.7857830955,-0.8176760159,0.5224196756,2.8348233127,-1.3507796194,0.9568134945,-0.4960851174,0.6914707586,-2.5954003793,1.1663157411,-0.6529897574,1.5096677205,-0.0249397144,-0.8514546212,-2.0181824508,2.4715092504,0.1170054002,0.3874870731,0.0202444513,-0.8681857607,0.3029431376,0.0585791684,0.5194328997,1.2286469926,-0.2420629146,1.1300403653,0.3350354422,0.7097184014,-0.4122283021,0.6562088332,0.6077406564,-3.6068949085,0.1918878973,0.3829994966,-1.0626529404,-6.338221706,-0.6329908213,1.0078907202,0.0924628875,-0.8927266073,0.179563742,1.6333407457,-1.5323088924,0.0705783919,0.1965769749,-0.6988832113,0.0764675506,0.7313214678,0.4906373628,1.2154009945,-0.6579792158,0.0984829573,-0.1583606814,-7.2330225146,-6.9447748944,2.6205529181,0.4599544089,0.0732037769,1.838629502,-0.8363757946,-0.7764908984,0.6873760645,0.7738885239,-0.0671125934,-2.7516452932,0.0433869754,6.9273828191,2.1395310542,-0.1267076869,-0.5328212146,0.3297938522,-0.9137686226,0.1821134506,-1.4095041629,-3.2490274598,0.0196374451,-1.396600293,0.7953498821,3.1523413783,-0.5585714575,0.8049487829,-0.2153993749,2.1058175371,1.0648702562,0.3959210531,-1.313082287,0.3648421986,0.1015703423,1.1134916219,-2.9691861105,-0.7686141604,-1.6449204114,-1.0981586192,-0.5750662159,-0.6004006412,1.0346680149,1.7998407947,-0.9084491337,-1.6774677202,2.911781749,0.5279520829,0.3662079083,-0.4008260304,0.1110356252,0.842658882,-0.5639545926,0.5665337693,-1.2121815309,-0.3428589281,-3.3550451095,-0.4551286271,0.023831695,0.1242215296,0.0064924761,-1.0441304012,-0.3129096592,1.7652778891,-0.9830708859,-0.5263212586,0.3424597662,-2.0212166297,-1.1473629593,1.2958859736,-0.6220138685,-7.0753952385,0.7145734298,-0.2671412484,0.5185951901,-0.2000723295,-0.6614389479,-0.0745799755,-2.8722858462,-1.8003611343,-0.1069236586,0.3494574979,-0.4345943006,1.4434434247,-0.1767779723,-0.6325945927,-0.3524144689,7.3391391397,-1.2701816615,-1.0559311084,0.2202548582,1.1129255318,0.8362472642,-1.3530678068,-0.867386495,1.4189728901,0.3274205223,2.2957474517,-0.3630581268,0.7592532017,-0.596222787,-1.1999267111,-1.0688182259,0.1679512091,1.1858197324,1.2253879533,-1.6287044613,0.8596735683,0.967031174,-0.025023992,-1.0131286999,1.1511975004,0.3813784477,1.1915043184,-0.1864675122,1.3577588205,-0.6044083528,0.4496923583,-1.3102736795,-1.7339555041,-1.2331993027,1.7191327651,-0.5837446454,0.3591244899,-0.3243748716,1.5616726883,-1.4066541949,-0.1914207003,0.1478036583,-0.1156762851,-0.5958691869,-0.7699118936,3.2754844239,0.748847651,-0.5268481633,0.1722334599,-1.8616832976,-0.6790657334,-1.4152700604,-0.5504762605,0.5948579709,1.6551299631,-0.7747695732,0.3947261767,-3.8515365319,-0.8571039893,0.0582132999,0.524215378,-0.5501217627,-0.4021277991,0.8059917437,1.3806951754,0.2873267381,-0.8679900011,-0.7166871016,-0.8481177453,-0.0408823235,-0.1536967238,0.3612083725,0.5280133482,0.7862295237,-0.128824551,-0.5685524763,-0.7900941427,-0.4914112942,3.0919962475,0.9039918677,-0.5829225259,0.8601180561,1.584453251,0.6289416126,-0.5510734883,-0.0580142113,0.7024952056,-0.1911645295,0.0496610505,0.083786729,0.1771633096,0.552379352,-1.4329465447,0.8791208324,0.840790378,0.3203896594,0.2418189367,1.0798387509,2.5317487117,-0.5185386702,-0.2965757909,-1.4273212186,-0.1821655706,0.6594149646,1.9428569152,0.0906347022,0.1627277936,0.4037747761,-0.467224714,0.7044508985,-1.8566236954,0.6582362026,0.830236734,-0.6101061514,1.7420564019,0.9962105234,0.470148819,0.3902041558,-0.573162937,-1.758489143,-0.9869008909,0.0778113607,-0.2843366511,0.2521035883,-1.0708586024,-0.4248462731,-0.3267876982,-0.8242861692,-1.0321571444,0.781057979,1.2391659814,0.4861466272,-1.6365909405,0.3221762258,-0.1860599737,-0.6263117209,-0.3053465534,-0.8497206454,-0.8494162997,0.9047812075,-1.6735335517,-0.9806046026,0.2737206007,0.2147786975,0.5115609364,1.0260546244,0.0164218888,1.1492420985,0.1767384471,0.9413458965,-0.7697714845,-0.3521025859,-2.147343797,0.3900385741,-0.1315546861,3.567716065,1.0356518981,-1.5730847604,0.4567938065,0.5552831529,-1.4255386498,-0.5646206548,-7.7645264348,-0.6995720908,0.5352507146,1.2946387616,0.0454262609,-0.0595677844,-1.0399922307,-0.0271006615,-0.7180360738,1.2274667548,0.7903946959,-0.4528227643,-1.5572651509,-0.9042304589,0.2709576476,-0.2299555171,-0.7165265674,0.8676025976,-0.6604356382,0.4729760444,-0.237519655,-1.1641723549,-1.0186804088,0.1798443894,2.1319949669,-0.3970091469,-2.5906681611,0.5516416178,-2.7013857398,-0.6972255567,0.8760868182,-2.7661418979,-0.6328729376,8.0387050398,0.1411629527,1.7953919736,-0.3595246979,-1.622226617,0.0552158752,1.4353214851,-0.0863685957,1.6738315281,-0.9633695757,1.1164394881,-0.272649087,0.038525613,0.6052101301,0.937529652,0.2528808403,0.352786627,-0.1777558386,-1.2539366292,-0.7894464893,-2.9337684818,0.106773845,1.0724855075,0.0289786403,0.731041552,-1.7589744416,0.6800352453,2.0003143395,-1.8676363176,0.4267595503,1.2585492667,0.6463807823,-1.3877061687,-1.2161582543,-0.9025504055,-0.2591458356,-0.5048164096,0.8576499921,0.6005064725,-0.1728380285,-0.8645343175,-0.4040321045,-0.1045880669,1.1944319164,-0.1970508628,-0.030766006,0.4535434016,2.4449236608,-0.0344674892,2.5989068928,-0.7393431246,-1.4698156409,-0.3038080466,1.0281671177,-0.1193763927,1.418077645,0.6447978355,-0.6191202207,-0.0864867412,-0.2475384477,-0.1302105727,0.2225885301,-0.7113724218,-1.1815198405,-0.9075988891,1.3097157143,-0.5912991233,0.7918219212,-1.2210416088,0.5521448792,-0.501540908,0.1288813432,0.9965339359,0.7243742409,0.9632198664,-0.2333346426,2.169297193,0.446540782,-0.4153329339,0.1437288843,-0.7479906098,-1.0160381397,-1.4820969955,1.0084090802,1.0675085983,0.3656818461,0.9734864172,0.6246123481,0.9099771168,-0.5214809158,0.8921886068,-1.8448648359,0.4963106697,0.8604071205,-0.7981194538,-0.282876358,1.0665150488,-1.0609859316,-0.3946095367,0.000475122,-0.3167606206,-0.0145518952,-1.397520918,0.2062693431,0.8372458256,1.1950721896,-1.5009306885,-0.5867815586,0.4719700266,0.6570433067,0.8782406682,-0.5407148761,-0.9153286411,-0.3461073931,1.1011498971,-0.2674491813,-3.4222842469,2.0761454054,0.0906026454,-0.5155298504,-0.8435533587,0.953796863,0.4465350347,0.0360621907,1.0749046904,1.0063401235,1.6392533162,-0.7000198542,0.8920374954,1.2481210595,0.7742243936,-0.2874235946,1.4542631212,0.4381815032,-2.4733530655,0.4911725182,-0.9593137612,-0.6368532786,-1.2574664229,1.3234417773,1.0815947407,-0.5702475188,-1.467799775,-0.1310600424,-2.0569162005,0.8072816208,0.2317382266,-0.5608734009,-2.7093558796,-1.0750820153,0.8211348167,0.7453610032,-0.1983976994,1.3451950908,-0.5646983232,0.0822121629,0.7256505065,-1.1647380593,0.266032175,-1.0304558837,-0.196882419,-0.7517451786,0.0472475854,-0.1273805403,-0.3493375866,-0.6001491812,2.1356623787,-1.4617990584,0.3237264029,-0.1975569384,0.251360131,1.0619356918,-0.080705444,1.8834865219,1.0731819548,1.2017359492,-0.5749158706,0.1479300558,-0.280364876,0.0412534789,-0.1325830881,0.4820662974,-0.3607891946,-1.9549417334,-0.4418480324,0.2872586573,-0.1125983536,0.1252276892,1.2688910161,0.4062185547,0.3942837913,-1.2664710129,-0.9935427145,0.1901732879,-0.8972900917,-0.5957609828,-0.1513496178,-0.0621637842,-1.6136442474,-0.5035911312,-0.093713054,-0.161917623,-2.3269628837,-1.3062422559,-3.4833294648,2.2839891214,-0.8357500082,-0.9595871765,1.1298378352,0.0059158055,-0.6156111566,-1.5006093928,-0.7727576524,-0.8442060108,-0.2842421979,-0.0918382172,0.4673478425,0.7554756646,0.6785199052,0.5419038969,0.0798865983,-0.4605280767,-0.4357983283,1.0424369045,1.4062820623,1.1808806941,-1.1505576225,0.6002330043,-0.3447090895,-1.4768856556,-0.1430827878,0.8940488703,3.1857668915,0.4823758571,1.4030982272,1.4537956254,0.360846382,0.4669967637,-2.1600043968,0.0875859102,-0.5081961637,0.404908429,-0.5645810854,0.2937202426,-1.2461099739,-2.8780662593,2.4849286018,-0.7636914339,-1.4640956627,-0.6690769815,0.0751205918,0.6358782014,-0.3815539325,-0.5533272975,-0.3918410507,-2.1532122315,1.0424876766,-0.4546696061,0.4924995327,-2.7844475017,-0.0061765764,1.1342869544,0.040501213,0.4734753666,0.1729536949,-0.6492628012,0.1599819244,0.136141253,0.598783962,-0.5868835304,-1.6568140743,-0.6310381203,1.2939880751,-1.1687036374,0.8760316495,0.739559702,0.9990902029,-0.7487719113,-0.0642375614,0.3923844327,-1.0415638281,-0.8361521718,0.0420794055,-0.9345249334,1.4688380275,0.304830748,-0.27205173,-0.1647966584,-0.3090210825,-1.2480010201,-0.065792728,-0.2568406517,0.4853223982,-0.3739278402,-1.5107164893,-0.5222304437,-1.4216937611,-0.9823037808,0.6855899087,-0.0479201428,0.8100291316,0.0931081552,2.0780019569,-1.8124956696,0.613808948,-3.0260209486,-0.0469542639,-0.2502604452,0.4629815269,-1.2499505934,-0.9470215869,0.0741963436,0.4073947889,1.2401924397,0.8343670879,0.7498426452,0.689589531,0.6369219448,1.2140829139,1.2452416643,-0.3608013947,0.4705644475,-0.5239427782,-0.1783480144,-0.6887752405,0.3480530802,-1.1190281503,-0.8096363008,-1.0394787213,-4.8232405634,-0.081514407,-0.0772670271,-0.6217480639,-0.1737182384,-0.0893684553,-1.3016166631,0.5703373977,-0.0655649687,0.9297038139,-1.2524962751,-0.328753971,-1.5910420756,0.7398928472,-0.607924863,0.9767616196,-0.3633171091,0.0871044332,-2.1656766564,-0.1788399314,2.0140397268,1.0910039668,-0.6368705534,-0.3960889106,0.2218124933,-0.2008876888,0.8672534095,-0.8049938908,-0.5763544464,0.0607473655,0.9798364566,0.1966049763,-1.0369834982,-1.5824170523,0.7766829524,0.1921176722,1.2611098867,-1.0061014581,0.8993684218,2.7933446572,0.9146739179,-0.815913889,0.9190048049,-0.2538153932,0.3438203038,0.6855304161,0.8513557581,0.4151126746,0.3140180126,-2.8878729564,-0.968400743,0.3477968953,0.2414581421,-0.9590455588,0.5765006338,-2.7843206192,0.3122904676,0.1118187968,-2.6189325412,0.7778843516,-0.0953225319,-0.3439547572,0.4973156218,3.9532195104,0.8883133377,1.6089804194,-0.4983160587,0.621786143,-0.1672259787,-0.3385236007,-0.5958757742,-0.0160304098,0.5103312489,0.2050544134,-2.0364787463,-0.0343442489,0.4797782606,-2.6160235104,0.5878631728,-1.4049002684,1.0055914628,-0.5991056511,-0.3917966941,-0.0211021143,0.0111103338,-0.5071478396,-0.1096704469,1.1671874484,-0.593324594,-0.7787028376,0.5884668254,1.7025706542,-0.8955777665,-0.9501211267,0.5955578104,-0.7256023224,-0.3443755663,-0.298675283,-4.3926727611,-0.6946077283,-0.4006039186,0.7797474691,-0.9262672651,1.1944387216,-1.3687511415,-0.9535139199,-1.2494271959,-0.0136155754,0.8190906591,-1.3393231963,-0.0614502934,0.0148114567,1.6211336056,1.1353796055,0.7908953662,-0.2063687546,0.1283198416,0.7408746557,0.5425797585,0.3222067115,-0.947960201,2.1046067447,0.7409109753,1.1564921657,1.8268301938,0.7525630651,-1.1514746408,-0.4107510693,0.0989529278,0.3136139576,1.5954583608,-1.3639405963,-0.987097373,-0.3393844121,0.047489169,-0.106412238,2.8231818368,1.2962818203,-0.5759102477,-0.1429113643,-0.1187094327,0.1862781969,8.3698030286,-0.4878750569,0.2467566043,0.7527412523,-0.5677109678,3.7238005603,-1.0445563833,-0.5684435993,0.3995037978,-0.3175196468,3.1172622326,0.9426056991,1.3084100123,1.1406662461,-2.3063692635,0.6022111354,4.7643825725,2.3578953821,0.6475885512,-2.4520276633,-12.117743671
   -1.7994923906,-0.8603272441,-1.0148118309,0.8711661289,-0.0108218741,-1.1102689507,-0.1083391138,-0.6743125102,0.5805922295,-0.6726422183,-0.9022454685,0.7981737552,-0.9591623023,-0.3133364,0.0379594273,-0.3329517611,0.5107620467,-0.9779652487,0.322671364,1.0463650691,0.275060131,-0.6024730212,0.4594792604,3.8944011406,1.4174880686,-0.7135276092,-0.7227759463,-0.5947411588,-0.5735656645,-0.2053644314,-0.3143471522,0.4648626021,-1.0225736852,0.3906900792,-0.2590406766,0.9882304674,0.3124063015,-0.170400318,-0.8256354871,0.926098735,1.3181913568,0.6220814301,0.8292661072,0.5474564246,0.9294499274,0.3548803682,0.0233646098,0.6286628393,-1.1309116209,-0.1964261827,0.0365739346,1.0368752979,0.2294888368,-0.0376963595,-0.6886660783,0.5356709719,0.3474745505,1.3023636537,2.5823410998,-0.7427980277,0.7152257373,-1.2239104002,0.0538738136,-0.4480615346,0.0549379511,-0.3145124364,-0.7365894842,0.112667724,0.692593944,0.5170644974,0.5092364764,0.0763584627,0.4097098167,-1.0552436576,0.6826559683,0.453224101,-0.3551897825,0.1717507194,-0.4342040855,-1.097843315,-0.8987271086,1.1324734322,-0.5094565853,-0.8514891733,-0.5765436851,0.6389402547,0.5410888048,0.7920100227,1.6840802335,0.3771930669,0.4776716062,-0.4442678064,-0.8152084532,0.5359881717,0.5342490848,0.4743777781,0.5203343369,-0.4864767765,0.1842898953,0.5672200032,-0.0587353406,0.4015191379,-0.8689805096,-0.8449545925,-0.6369169965,-0.0907251523,-0.07497466,0.2693031272,-0.0381641089,-0.9924568754,2.0248353451,0.8544228113,-1.3008813739,-0.2814337646,0.7866886034,1.800401342,-0.7141572117,-1.1563497654,-0.1931313248,0.6955495013,-3.866041041,-1.5690584892,-0.7798697791,0.2552356615,0.6105215439,-0.4838732779,-0.4905597165,-0.3303480747,-0.6416544984,-0.1055772955,0.6038211688,-1.3741939485,1.7104977402,-0.9858835404,-0.2117813767,-0.3508435323,-0.7228633315,0.2543712304,-5.0118196492,-0.1347097821,-1.6863294352,-0.0374345196,-2.2751160847,0.7093767332,0.3432139817,-2.9225297607,-3.5739114534,0.6807897486,-0.7207890002,0.0995861581,-0.1097511514,0.7271226858,0.1757189427,-0.4110765364,-0.3731066345,0.4213673173,0.3806915348,1.6755315507,-0.5893052674,0.6501447932,1.112428821,-0.0284709647,0.7032410544,-0.9165531969,0.8466104577,0.8357625111,-0.9005095677,-0.6596303881,-1.530695934,0.4522100854,0.0531703527,-0.6897010679,-2.6043113801,-0.2042836507,0.2623876368,0.0515060728,-0.9842309249,-0.2366250481,0.6003739696,-0.2538703802,0.0334500639,-0.772111631,-1.3901021702,-0.7686933727,-1.6649152311,0.4376735359,-0.6076394159,-0.7588037196,-1.4151678366,0.2613721017,1.6544006406,0.0385194059,-0.6700947633,0.2846180566,0.1439693281,0.9873501675,0.2317863337,0.1297138465,0.4533852972,0.5718568356,-0.7964979501,-1.0417305512,0.3554226461,-0.0512154044,-0.0929288798,0.8903888723,-0.3310504348,1.781502782,0.1598650154,-1.8704847704,0.2973546991,-1.1274565616,1.2443082841,0.7837854598,-1.1982265179,0.8674243164,0.6098431535,1.0887704821,-0.2059054945,2.6317425035,0.1372039911,1.2104639695,-0.6395377411,0.9911669789,-0.3147699466,1.2745907093,-0.2151588853,-0.9184595527,-0.2214178849,-0.8501042271,-0.3237873011,1.6715834366,2.0322057369,1.4234810666,-0.9463364223,0.1161995157,1.4088716186,0.3669383762,-0.8177681191,-1.7424810138,0.751685641,1.4899429414,-0.199842478,-0.7694451066,-0.9567450185,-1.0475039824,-0.1282296469,-0.338561161,-1.3215098797,2.3961419516,0.3299823041,-0.3353495791,0.1102761475,0.3835427508,0.5337711602,1.2938199144,-0.3870677504,-0.3270935404,0.1641043889,-0.1735260716,1.4468522644,0.5813339493,-0.8232834227,0.7748333653,0.8080747843,0.0523565206,-1.7063742049,-1.1568621726,0.5020462427,1.6364149265,-0.7763000242,-0.0508310674,-0.8597945931,-1.317310773,0.9673838858,0.2992804888,0.6477130519,4.7171993224,-0.025385184,-0.6174902625,-0.4143449489,0.383670357,-1.3086924435,-1.0829293114,-0.0390103286,0.0248028719,-0.7240073447,0.058900306,1.6176461057,1.2155095733,0.8433268707,1.0335367435,-0.7565054083,-1.6268722479,-0.7021483098,1.478453426,1.632579513,0.4438226572,2.5961110046,0.4383123865,2.2133191716,-0.0199099551,-3.8459661884,-0.1995727783,0.8915158319,-0.2653167135,0.3866763645,0.7696644992,-0.0849105016,-0.5593125723,-0.1099350387,-0.0621737254,0.8638946308,-0.5506651708,-0.3091766259,-1.1524247175,-0.1094544436,-1.0184157185,-0.4769133724,-0.0801517153,-4.2552752219,0.7932799877,3.0621527176,1.2113465422,-0.4024593544,0.0216545037,0.8784447901,-1.1608453055,-3.0929101599,0.7194640441,0.733860446,0.5025189513,0.030460463,-0.0829860243,-0.3189747247,-0.7659739859,-1.5127183557,0.0979183222,1.6825846051,-0.3011021345,-1.008155535,-0.047106135,0.2522391835,-0.4420784753,-1.1038871703,-0.5582625176,0.8737868796,0.8988320452,-0.9259625894,-1.4517223281,-1.0758871012,-3.2601377952,0.0618013212,-0.6066227015,-0.4494378487,-2.2205553356,0.0528349265,-0.4979284117,-0.1075339766,-0.2313934276,4.4203171325,0.204476791,-0.1090203802,-0.3417697951,0.9064554399,-1.076632541,1.6558570235,1.4977248993,0.2756300272,-2.3804318963,0.8591372571,-2.3764846281,0.1314628633,-2.8691663154,-1.0705403356,1.6931057515,0.2694191777,0.0952317464,0.6953599234,-0.6486137966,0.1430323611,2.0763474833,0.8760199227,2.5937834548,0.9531935141,-0.6927049417,0.0482576459,-1.1276431824,-1.5838673341,0.1697710435,-1.2670346381,2.5145632463,0.7910913974,-0.5675839706,0.5558099086,0.6699361983,-0.5323939566,-0.3833060762,-1.0216047071,-1.6318662589,0.6998328662,-1.4140524424,0.7453802385,-0.7473418885,4.1083247116,-0.7590816371,-0.0626860071,-0.6856958908,-0.0104465697,-0.0551775251,-0.5652623717,-0.0224438886,-0.2036017644,-0.7803486365,1.568754417,-1.9698807379,-1.1936138233,-1.0470061777,-0.3473277977,-0.9074420908,-1.3930196085,-2.0584743149,-0.4634002443,0.9239881498,0.3997311946,-0.9815662028,0.9593397046,-0.764184341,0.1770912448,0.8894682135,-0.2397782474,-0.9336591549,-0.6486410271,0.5920239054,0.2346589648,-0.5731414628,0.2846282618,-1.6564791489,0.0944161505,-0.9253125665,-1.5722071022,-0.2535257952,-0.2546867044,0.5124981487,-1.2146393016,1.025741425,-0.768572002,-3.8607156801,-2.0891744381,-3.5087866921,-1.1585322984,0.1298559595,-1.1101081656,-0.8008538025,1.0347745659,-0.288303703,-0.0072961997,1.723481493,-1.1097764697,-0.4651125522,0.8137975364,0.1241669782,-0.5891204413,0.9699339686,-0.8554951968,0.5920356982,0.1648947983,-1.846535068,-0.35796557,-1.9599299819,-1.253195041,-0.7884595393,1.3284046935,-0.9198109539,1.3278066709,-2.3303485302,-0.0831759345,0.0603964012,0.3920762623,1.65052968,-0.2817655563,3.1272533617,0.3436100075,-1.2439979212,1.2820763438,1.5259865292,-0.7943765218,1.09206551,-1.4686985475,0.3661159683,0.3480955361,-0.0094855515,-0.6180460303,0.6172151878,-2.0259872529,-1.1073673962,0.4910554543,-0.6743332757,1.1509339441,-0.0629141738,-2.5050929013,0.8360801456,-0.0786254278,-0.2641009316,0.3220504367,0.187884854,2.1557389201,2.4155195116,-0.8696228577,0.534087635,-0.0411020427,1.1821150657,-2.2132546849,-0.5796946671,0.8981953932,-0.7109562748,-6.050477769,0.3825358708,-1.3485702001,-0.4013094826,-4.1985446328,-0.2053949648,-1.9734614645,-2.3715003565,-1.5215501116,0.0370955975,1.2931456745,-0.1996678007,-0.5163025985,-0.0723830209,-0.9976105637,-0.7803882887,0.9403254119,-0.6771971178,-1.9866333594,-0.9732230427,-0.7552047462,1.0630721382,0.4435481182,1.7066886313,-0.2376811182,1.7538251105,0.4628721842,-2.0945449783,0.558839939,-0.2249808341,0.2936771227,0.4619498592,0.7847988114,-0.0159372995,0.4237194783,-0.3090339449,-0.7229522647,-3.1198616263,-0.4105624016,-0.851045613,1.1245732329,0.1020335345,0.4252577976,0.0358080264,0.4050838605,2.436995549,0.1025173427,-0.2148491392,-0.4077728408,-0.1963294336,-0.2079781974,1.5071089881,-0.4538856992,-0.4809425796,-0.5891581207,-0.096670795,0.4525220205,-2.9080132274,0.706166397,-0.3275770263,-0.3409323335,-0.3981103064,0.4800879244,-0.1278831389,1.0008164262,1.2607164945,-0.7977186675,1.2674851,0.0166418937,0.3572705034,0.6192120191,-0.3244851949,0.0113528545,0.3699529405,-0.5597395338,-0.2555450864,-0.4125691733,-0.2499230764,0.6600629775,0.4247461841,-1.1419088821,-0.6842002755,-0.951035822,0.4555286554,0.1956625763,0.9372994139,0.091071374,0.9876922779,0.2907415694,1.5537305229,-0.682441682,-0.7235887502,-0.7786471307,0.1197349447,-2.4298295185,-0.8921481403,-0.0005120414,0.2073723412,0.1385910161,-0.365912724,-1.3501280575,-0.5967475899,-0.9951972049,1.0204232059,-1.1806074465,-0.5601804348,-0.2285621831,0.2284660225,-1.2394866947,0.0465714486,-0.0138210839,0.2975655458,0.5686839526,0.3911835698,-0.2307505198,0.322287448,-2.091431205,0.5987771713,-0.5356924559,0.9023338294,-0.0012676997,0.3283209983,-0.7724758043,1.1313208446,0.1178341872,-1.4628579076,-0.4700277606,-1.2847494591,-3.1968380857,3.4130648104,-0.0678276117,0.7332941945,0.824826352,0.3397073781,0.355581858,0.1424194308,0.9985910382,-0.6362665984,-3.7146739662,-0.7038882406,-0.8563574385,0.5453899477,-0.7413096631,0.1718053114,1.3888297029,-0.5975934295,-2.3285042792,1.2828903137,0.6489372528,-2.0043986566,0.2522710942,-0.7304766605,0.4757816204,-1.2378645196,-1.0121621243,1.7581104751,0.3205119487,1.2745318326,0.5171008233,-4.5961560158,0.4754989588,-0.9250260255,-0.1545479351,0.7544737768,-0.6950349626,0.2454664949,-0.4920912555,0.1154023654,1.2720210781,0.5297004463,0.4243754583,0.8500088899,0.2468159171,-1.2743131101,0.6663310829,-0.4462049827,1.4274983215,-1.3624106499,2.6089667619,1.5962368897,-0.0899704869,-0.6723260989,0.6190373948,1.2147171733,0.2101534644,0.2781092951,-2.0518735409,1.1766800207,0.1119689209,1.5259564794,0.8205709875,-1.096424629,0.1851025324,1.1233208854,0.8193587314,-0.9428107723,1.1266250024,-0.5568630224,1.50080143,0.2584474291,2.5895313691,0.4187966865,1.4519579482,0.3846602231,0.2098084706,-1.9025998843,0.7496092826,-1.9741582328,-0.7255752205,-0.3166480823,1.4806054996,-0.4780499188,-0.3922111278,1.8192384974,-1.07499389,-1.0315542223,0.3174753533,-0.5705336976,0.0857664836,-1.8724943931,0.4567655978,0.5360671946,-0.2815346441,0.8716929268,0.7024997574,-1.3779224486,-1.2718629043,1.6911869216,0.1398247174,0.0390078818,-0.5800848123,-0.0296145227,1.3165438761,0.9483373251,0.0635420936,1.4114634035,0.165240999,0.3534270861,-1.6508682695,-0.5337347689,-0.1127330923,-1.7105722341,0.4326300499,0.4127833386,-0.5759805656,-0.3019967765,-0.9232027543,-1.1574415059,0.8469539127,0.7338982397,-0.9394278093,-1.203936861,-0.8897381402,-0.0911804331,-1.1354751463,1.5509593365,-1.2321037147,-0.1857362999,-0.101481023,0.0891448839,-0.920168049,-0.8116692697,1.432175062,-1.0873879011,1.22045071,0.390293986,0.7544531509,-0.1374610881,2.3226353323,1.685655195,2.1255007598,1.8286283361,-0.2710641251,-1.4086501821,-2.6891031819,0.0224818732,-0.5424185189,-0.3715258143,-0.7352744344,0.4825508474,0.5583290173,-0.2696700327,0.2764428332,-0.3941652164,-0.2598309771,0.1663709053,-1.2411511368,2.073004965,1.0578654539,1.2117531327,0.4294450159,0.8592477291,1.4586731441,2.3465954996,-1.9340491499,2.169295908,-1.0905195636,1.4884715426,-0.243263595,-0.8945714633,-0.4160780882,1.5341483233,1.1725711537,0.9570643437,1.6594634877,1.576009902,0.6733200531,1.4886450213,-0.0381244629,0.7056514558,1.6578736896,-0.8226661478,-0.2254332366,1.4421520179,-2.0737355638,-1.29026643,-0.1012990971,-0.3982327386,-0.5063076376,3.1352274456,0.1351779445,-2.1522600261,-0.6849918661,-0.7966938462,-1.4300893102,-0.5501709964,-0.164306705,0.1479366737,1.2930477368,-0.1666456033,-0.0614759376,-2.1266885085,-0.2461345651,2.7051104074,-0.0624299676,-0.199192879,-1.2979497546,0.3669600437,0.8433212469,0.3014027881,-0.6782296673,0.0782115093,-0.2960518006,0.6028879178,-0.2822395152,-0.98832746,-0.771747415,-4.6385241478,0.2058411908,-0.6346090222,0.8125778585,-0.1663655212,-0.1061156118,-0.8781259057,0.5476927228,2.466880584,-0.6586654954,-1.5761513706,0.0659587723,0.4873873984,-0.6111905599,-2.1472754199,-0.9252538451,-0.3259588345,-3.4767904317,1.8541555362,-1.6436938237,-1.3096583733,-0.3130624601,-0.1857276433,-3.0432709386,-1.277843592,-0.1482268272,-2.0097318203,-1.8442703848,2.2355485727,0.5615646353,1.0214066412,-1.8929540668,0.3765168684,0.5003151538,0.7993539621,7.6558058926,-1.384511428,-0.964566491,-0.0112543513,-0.8618640558,0.6700468958,0.5483734047,-1.5435756267,-1.3412543257,-0.3175344877,0.8278518086,0.5811475194,-1.5403243736,-1.1835916365,0.1472001109,-0.0849935979,1.7009140979,-0.98017727,0.4366339803,0.3404100276,-0.2176151258,-0.3776972777,-0.8773490282,1.1652668437,2.3329663671,0.3834342747,-0.0908947278,-0.6565416419,-3.1483037052,0.9381463074,0.5141579752,2.7010951317,0.829627112,0.1190655965,0.6017753236,0.9385150633,-0.4060396526,-0.8223078299,-0.1313706156,1.2303957746,0.5180703384,0.5913381138,0.6861931707,-0.6576903936,0.0458736361,-1.2982027538,-0.1381883522,-0.2868676038,0.6285879168,-0.2965522123,1.1976862331,-0.6589357518,-0.6435713089,-0.2975202713,-0.4451335262,2.0503371115,2.972723756,2.7660605432,1.0110689048,-1.6187093803,0.7317176417,-1.3528858764,0.7526297468,1.1944165748,0.3765598108,-1.0398682804,2.1054387269,-1.1446829095,-0.4901353279,0.6666185631,-0.9065747014,-0.307634551,-0.1554723111,3.8407023731,0.2162731095,-0.505926362,-0.1153447773,-1.6834984925,0.5776264015,0.9052805545,-2.1713900416,1.184241837,-0.0790690308,0.3217232339,-0.6890342883,-0.2350845403,1.3220167751,-0.374459851,5.1814667035,-0.0148612321,0.3108489287,0.4952605476,0.5982618522,-0.981577539,-2.8619047608,0.0100026744,-0.2537617865,0.2977070137,0.6676253115,1.3043678412,-0.3149127232,0.5595557357,-0.181645389,-1.3929489252,-0.4860770859,0.3815264154,0.4800597192,-0.2081555892,1.3648399726,-0.3132164044,-0.900485138,-0.478131502,0.5074504779,-0.8533927628,0.6530815117,0.8432057554,-0.5407569385,-0.6514628475,0.620986375,-0.4726509204,0.8451951547,0.1669660818,-1.3640486037,-0.2773819248,1.8630663683,0.980935738,-2.4921573064,1.0685805089,-0.55802561,1.9531020121,3.9283943956,1.0064716962,1.2185620342,-1.103813968,-0.2505834761,-0.0665045539,0.5971174199,-0.2253876599,0.2575468983,0.7277066933,-1.8585775874,0.5527997947,0.2923051602,2.6157187203,1.3616052002,-0.6168519056,1.3549441772,-2.8594873239,-0.4722139856,0.9612461506,0.1813809222,0.0876685513,-0.277734373,-1.2498650339,0.509950924,-0.0550661022,0.1122933297,1.1285195272,0.2192327734,1.4011757858,-0.4071362135,0.9482979647,0.951763932,-0.4768310049,-0.7978469544,-0.3052707472,-1.0978515417,0.0834912225,-0.2936939154,0.6794310617,-0.2331767301,-0.1844864409,0.2457843696,0.9399507749,0.8241885215,0.1779539073,0.4517296662,0.8767518539,1.5960370172,1.1352859686,-1.1975064411,0.6743858975,0.3666937183,-0.2110629409,-0.0358380286,-0.1115290071,-1.3205005951,2.8821283802,0.9936294942,0.1913896179,0.6446192363,0.6128187829,0.0862272597,0.0547605482,0.2075306164,-0.1037748227,0.444841633,-2.0399256555,0.8302110149,0.6559244713,-0.3455755482,0.0836436609,-2.6192602108,0.5310351733,0.8989311423,-0.7753466319,-0.3581493518,-0.2690598615,0.0577159323,-0.1880760547,-0.0745415337,-0.4437581197,-0.2522651906,-0.0614777985,-1.1321403896,-0.4805375176,0.2171339043,0.551297664,0.6064513074,0.3744511383,0.6383430175,-0.9436990767,0.863834305,0.3996317704,-0.0829757849,0.8406074805,-0.199396944,-0.7327451251,-0.3189686838,-0.5042235902,0.2111895332,-1.2504911463,-0.0649014207,-1.8080303806,-0.2528043915,-1.8770432061,1.2642860507,1.3426608306,-0.4878663601,0.8203259263,0.5425143129,1.362993584,1.5887109814,-1.395613505,1.2495533104,-1.2825405243,0.5922566725,0.6783846396,-1.6717588148,-1.4640411498,-1.0669480107,-1.3102729917,-0.1198016191,-0.4510631374,-0.4364142143,-1.5889704019,-0.9895447088,1.1936898612,1.6654344973,-0.3954887387,1.5124986619,-0.1795609327,-0.9021710725,2.8682723589,-1.4986489129,-0.0205299086,-0.4728321279,-2.0899188374,0.2694053722,0.565382246,0.0176884049,1.775478955,0.8232711776,-0.495753631,-1.0175233604,0.8223999124,-0.8032597699,0.1523598956,0.5644561091,0.6833022078,0.1485384539,-0.1608326141,-2.67648257,-0.0506910146,0.0894385368,0.5618972342,1.3354173746,0.2384551764,0.6346299022,-0.2212480497,0.1908692831,0.0786115146,-0.0373293028,-0.8256712196,1.0818812255,0.1431536406,0.4169038546,-1.0742444544,0.4821296839,0.5118519646,2.46023959,-1.4503811634,0.0517702897,0.6551046249,-3.0418281368,0.8380789981,-0.8490304021,-0.0577501389,0.0486656776,0.6859849444,0.5301250478,-0.1749689506,1.2594927086,-0.2723004309,-0.064062033,-0.4130709511,-0.4654933658,-1.6391164,1.3207232371,0.4206938029,1.7398311844,0.7297046016,-3.2949620933,-2.1724014709,1.038130958,0.4703411661,-0.2643919164,-0.8944677063,-0.156552901,-2.3738566102,-0.0539355417,-2.4873259282,0.9043904322,-2.1392101618,0.9042044122,-4.3108395632,-0.4028671489,-2.9416929815,-0.5247166665,2.2990726956,-0.1748516369,-0.3739911361,0.7464602873,-0.6834332105,-2.0231428324,0.7473638175,-1.245311603,-0.5786400903,-0.7058086599,-2.2619423457,-0.5985034156,-0.4500593787,-0.9859266673,0.2942767508,-1.0008128386,-0.0490354609,0.3735730645,-0.8145294327,1.215930862,2.5255848597,-4.6616206775,-0.2817207295,-1.2106099048,0.8083612926,0.9312515834,0.2045763249,-0.1677240614,2.8529308992,0.6069494555,-1.2084577044,-0.2697636345,-2.1143513582,-0.4500086815,-0.5094110934,1.0021607595,0.9807328843,0.4608655054,0.0405744995,-0.996399156,-0.6757965712,0.6508372769,1.7488789327,0.8014905447,0.1410979257,0.061287273,-1.8264916608,1.0750994611,-1.4324224186,1.6476386896,0.2487709434,0.2183118561,0.9250079789,0.2443769046,0.0920141698,1.5727601503,-0.3336174108,-1.3221325849,-1.5831101917,0.3318811325,0.5297356861,-2.1518320556,-0.8515514604,0.6396585512,-0.2738244041,0.1122510079,-0.478895354,-0.1094923382,1.1012551371,0.8762383639,0.2657329183,-0.6962416092,-0.293309659,-0.2197101196,-0.4333575175,0.2242517043,0.134945607,-0.2210433113,-0.9598532595,0.2197326627,1.158069288,-0.8845043363,0.8021777736,-0.3008783704,2.0878981955,2.3388734764,1.2511802335,1.0151114178,0.9167125882,-0.1485510257,1.2460363569,0.0664770815,-0.2411381819,-0.237944121,0.0025283644,-0.7328431925,0.6915806735,-0.3964869525,0.0433829035,0.2921687786,-0.2194820679,-0.9272028841,-2.6480109033,-0.8859917629,0.4274675402,0.377345135,0.4242281874,0.4671023844,0.5606030637,0.0255670839,0.5551996563,-0.6898185477,-1.7848095785,0.8991372169,0.9896763098,1.1356118674,-0.297907357,-0.7428361303,0.932389638,0.5292025691,-2.3042378436,0.6472312372,0.9318732212,0.1287309645,-1.1133778781,-0.7998702558,-1.4592225099,0.1619774639,-1.0732083354,0.145187671,-1.3106329998,1.1006192112,-1.1064086982,-1.8647495531,0.9735597944,-0.6608117499,-0.6994214417,-0.9523648431,1.0057877577,-1.8060705117,-0.8425406117,-1.7677259762,-0.4945928608,-0.7325989955,0.8578586955,-0.9101763295,-0.9699976033,0.1143248275,0.6052465785,-0.0250530956,-0.8466792191,-1.1816503071,-0.1733954416,0.1471104468,-0.6517099756,0.1262181702,0.120687868,-0.2719574169,0.7098354045,-0.0876849789,1.2675965574,-1.5957418571,0.4958987443,-0.4147223692,1.100370952,0.562592905,-0.5145763631,0.4394125548,-0.0554314938,-0.6144891513,0.9189640311,1.6214456661,0.6898800698,-0.5028229396,-2.8301098551,-0.0536208411,0.7666503367,0.5299426509,-0.070774151,-1.3802937882,-0.8142813243,0.2559883848,0.1201305332,0.8989848297,-0.4951977975,-0.0981739131,1.1321473686,0.4240735853,-1.6147574866,0.3103311198,0.4858697053,-0.2057538384,1.3437986792,-0.7143745401,0.9670839149,0.3799554672,0.8184748358,-0.9933894397,-0.4983309232,0.2437876663,0.1534727918,-1.1911235049,-1.2362342791,0.078131827,0.4635470674,-0.0768440399,1.0361628698,2.9905004779,0.1009731902,-0.1526317166,0.2137995615,-0.6572402104,-0.0077252899,0.3458998848,-0.4342609703,-0.2843909637,-0.3828419496,-1.5919380372,-0.9080362666,0.2695503054,0.9248870783,0.6823968391,-1.1227322492,0.3753927104,-0.189527159,-0.3873665993,-0.0944574966,0.1636865854,1.0258965089,0.8119676263,0.2229047226,-2.988557648,0.0442431209,-2.1516275052,0.371622208,1.0463418664,0.1336711074,-1.2145856663,0.3698351793,0.922715628,-2.8040698369,0.3063203057,-0.1456870023,-0.5594914857,0.2336539854,0.016881091,-0.2367214417,-0.3432485136,0.0810536016,0.1508055021,1.2472373157,0.6387349682,-0.0677109007,-0.5661404391,0.0094059242,-1.4240740558,-0.1381690811,-1.6911109062,-1.4102064583,-0.6361808553,-0.5523771602,-0.1756536058,-0.8048276106,1.9247748636,-0.4096366371,-0.6225444828,1.3856315105,0.3699912797,-1.0135752494,-0.9721271369,-1.2613155736,-0.538422414,-1.489560434,1.531308322,-0.0498494535,-0.3645291696,0.5015805248,0.0308440614,-0.1786102976,0.003000137,-1.4273966307,-0.8237110746,0.2036704721,0.5912874679,1.7307031039,1.3588822275,-1.1208429738,-0.8723556639,0.0218587414,-0.0873870132,-0.732224044,2.7406512454,-0.1493873515,0.7843671197,-0.5140861862,-1.4657521689,3.3619257654,-0.346954222,1.0371657348,-1.4291617845,-0.8741271485,0.0871147365,-0.7346844544,0.4779073217,1.9715746621,0.5132437531,-0.2642526186,0.351501025,-0.1027304882,0.6943551561,-1.3283282981,-1.1534184775,-0.3917584616,-0.6311541253,-0.2570001387,-1.8479693768,0.4161209887,0.9105642862,-0.546590632,0.3750083988,0.4734408877,0.5199353704,0.7529538435,1.4672106959,-0.4158718316,-1.0658175912,-0.1638428379,-0.3569208614,0.3140144833,-1.1678212478,1.0971923475,-0.1954955164,0.295979467,0.6421301124,0.744406635,3.2684944064,-0.0067132601,-1.4270605817,-1.302937351,0.8677906284,3.5154072055,0.79642513,-0.0301550224,1.3174909919,-0.301491852,0.0450779272,0.623382882,2.5198784017,-0.1484804759,1.1608833273,-0.7731633129,-0.8289836279,0.4764489839,4.6987075623,0.4521340742,-0.2455092214,-0.759251435,-4.808635284,0.6510690981,-3.2426090543,-0.9822897722,-1.5657173132,-0.4493334982,-0.5015920839,0.6503412431,3.8276781606,0.5973792174,-0.542569718,-0.1533870995,-1.6213376666,0.8831186997,-2.3012283407,-0.7724615674,3.8805754072,-0.5016320039,-1.052806711,0.7011567668,-1.7597910308,-2.1680834216,2.3818813531,6.0670959542,0.6787560583,0.7310420638,-0.2654259906,1.7475920487,0.0375620221,-0.1566267276,1.51709355,-0.7284027057,0.2657171009,-0.5681078482,1.2916497163,0.328642398,0.4569751474,-1.0459898034,0.0512150608,-0.9011734684,2.9707162536,0.4398315414,0.321125308,0.3109878886,0.7275422769,-0.8090870502,-0.3035187645,0.6795450368,0.492967683,-0.2539667297,1.1928125553,-0.1843992529,1.0080315666,0.4362022944,-0.4863010938,0.049199647,1.4543223852,0.0460970127,1.0695895267,-0.7760086371,0.3051532693,-0.5932179048,0.7612609582,-1.3931099582,0.5374160409,-0.8733153172,-0.5915432613,1.3286173324,0.6783816744,0.1283590443,1.1801311863,-0.4636660876,-0.1221548142,-1.1080413171,1.186666625,0.845807723,-3.9566013623,0.0359783945,-0.9574594717,0.9190807285,-0.4847256603,0.8219080212,-0.47279257,0.9180836525,0.7319259696,0.4612209663,0.1746119301,-0.3493510942,0.0538150278,0.5895169804,0.3359367549,-1.006108483,0.9546660896,0.4613874638,-3.2264519901,-0.1892746722,0.3555699184,0.0086773767,-0.1777645374,-0.7320522013,-1.2151295977,-0.0793671333,0.066204092,-0.7774333268,-1.5109904753,-2.583046793,-1.1723365815,0.4326521302,-0.7738940021,0.2821240713,-1.0135141625,-0.8494507966,-4.7315762029,0.6365219983,-1.8515961718,-0.812720934,0.6344768761,-1.263834219,0.9917276843,-2.395756885,0.5017634252,0.4218938147,0.8351753806,-0.1862979259,-0.8370232801,1.5561041357,-0.0377593327,-0.2388202886,-2.2690442701,-0.0376018431,-0.8082811726,1.457728092,-0.7553257415,0.583919952,-1.0299209027,2.1265376135,-0.8019764222,0.1307002092,-1.9094244271,0.8687695366,0.1930611106,0.2838352081,-0.4649994125,-0.3999746771,-0.7207265666,0.6636015001,-0.8527840952,2.9923101542,-0.7118242865,1.5587528257,0.4803791727,-1.4909963954,0.3023376912,5.9909803083,-0.9792175296,-3.836511753,0.2451983955,0.6902885772,0.5338957035,-0.0979219035,-0.2233491397,-3.8447875132,-0.8904754625,-0.5718320359,0.7231718855,-0.673757803,2.8647386055,-0.4951562037,0.7583303093,0.3773724416,-0.1187558016,0.3051979904,-0.0294995702,-0.2209187481,0.7128391822,0.4956421589,0.0024433684,-0.2162490136,0.4372097381,-0.0045809956,-0.299124485,-1.0625567991,0.2614103244,0.677305695,0.1148178086,0.9747582952,-0.93098825,0.9639727585,0.3936110911,-1.0693126475,0.4234433456,-0.1629604933,1.6577387387,2.7872796383,-0.314319001,-0.1360092528,0.0927116067,-0.2853881363,0.5101615177,-0.4512888612,-0.1423434836,-0.8243378707,-0.0075528628,0.0708365966,1.0895821564,-0.5520933347,-0.3647911395,-0.2127049191,1.9022011854,0.2107532817,2.0724128936,0.6291687339,1.9254608798,0.2638477262,-0.2138666959,0.8332503909,0.2717689994,-0.57226322,1.0368226931,0.9691962538,0.3992595064,-0.4479922613,-0.2453682872,-1.0212120944,0.7522840142,1.449194325,0.3277724081,0.9691287074,-1.4182478701,-0.0231302747,-1.0628842159,0.4054848346,-0.8255593808,0.1655091303,0.1368964031,0.4607612998,3.0885252462,0.5970292915,0.647689903,-0.6495291591,0.067400722,0.0605868947,0.4769298305,0.0418545669,0.5077501017,-0.2819747588,-0.2432616376,-0.9737603788,-0.3174925585,0.6991887236,-0.3788304634,0.770659333,-0.1596851377,-0.3129659646,0.0938268581,-0.0348761311,0.2934087562,0.6717141039,1.0738917139,0.929783247,-0.0316716902,0.9547194623,-0.2931155076,-1.2276129361,-0.4569183407,0.2051400051,-0.0688395182,-2.3113455425,-0.1203809913,0.9705634987,0.6987142313,0.5092957005,-1.2756018162,-0.8609446462,-0.4604273096,0.4326830765,0.6882559495,-0.5882581419,-1.2310909852,0.1971809411,-0.1223931955,-1.3691760928,-0.6043919151,-1.3435153384,0.9417751884,-0.381694738,-1.79393706,1.5649052153,-0.0366356673,1.5808710767,0.27788751,1.2906211257,1.4292652867,2.1168410789,-1.3525145466,0.7778742007,-1.0872306436,0.5674925007,-1.3427257892,-1.7279897885,-1.2199168725,-0.4748286445,4.168043119,0.4480339931,0.4388099713,2.306420792,-1.3833115459,0.6722493535,0.9821986302,1.0220768959,0.3486196725,-0.6649733703,-0.6206251621,0.17638311,-1.4604183189,-0.5321938692,-0.0951057523,-0.6851856335,-1.02555455,-0.143625646,-1.1768896,1.1632121614,1.4091431396,-0.038716168,-0.8387288095,1.530273809,0.1900946301,1.3817923661,-0.6901033708,1.0642410085,0.3822642162,-0.9862644102,1.2201638103,0.1002569668,-0.1471231987,2.0258486452,-1.4564890726,-1.0725572945,0.0443093229,-0.1936233087,0.5750618013,-1.0430568956,-1.4839358038,-0.282736941,-0.1863034554,-0.6623520575,-1.4475621682,0.1037759549,1.5789418992,1.003523663,-1.1421409695,-0.8165516089,-1.084715245,-0.2256624261,-1.6813153047,-0.4874216325,0.2156878427,-0.1544953536,-0.9681064004,0.5728244374,1.618948286,-0.010171787,-0.6116787499,0.2747197076,-0.2653934297,-0.0962666162,-0.3989453274,0.9319438613,1.1879944266,-1.0325760603,-1.90955501,-0.4989693434,0.1251698231,0.4941705671,-0.1762300502,-0.1582393089,0.4995017633,0.3322192579,0.2513736754,0.628312786,0.3260208917,-0.857474756,0.0775915318,4.5924783426,-0.5494570308,0.4568648478,-0.1933734806,-0.6814097193,-2.4716593182,0.1489067644,-1.2267528369,0.6444390611,0.4501204488,-0.6512853504,1.0587307504,-0.9578437945,-0.3626988481,0.9103967061,-0.3051288153,0.5102835725,-0.3143834698,-0.4468189796,1.5651969639,0.6357659391,-1.4073105859,0.3898826379,0.3040632964,0.2060920742,0.2506645953,-0.8286903838,1.1939021054,-0.7831749258,-0.1617496399,-0.8482852744,-0.6175418583,0.0457132712,-0.2693938048,1.0834674652,0.0666363874,-0.6149147502,-0.0098180968,-2.5743796813,1.5527003864,1.2424756851,-0.5337433795,0.6518160876,0.1886631883,1.7299777207,0.4330176169,-0.8138581242,-0.4940784665,-2.0413903225,-1.5082478471,0.641730354,0.1295479364,-0.6005356848,0.4556203949,-1.5246413714,2.6932596715,-0.2399539822,0.2545587008,0.3253564086,-0.4156233319,-1.053555904,-0.4183406631,0.4433200776,-0.3590558208,-0.218256714,-0.383712408,1.9215859162,-0.3417067592,-0.559019968,-0.3504011456,0.043277303
