encog,BasicNetwork,java,3.4.0,1,1561312305793
[BASIC]
[BASIC:PARAMS]
[BASIC:NETWORK]
beginTraining=0
connectionLimit=0
contextTargetOffset=0,0,0,0,0
contextTargetSize=0,0,0,0,0
endTraining=4
hasContext=f
inputCount=21
layerCounts=4,49,67,49,22
layerFeedCounts=3,48,66,48,21
layerContextCount=0,0,0,0,0
layerIndex=0,4,53,120,169
output=0,0,0,1,0,0,0,0,0,0,0,0,0,0,0,0,0,0,0,0,0,0,0,0,0,0,0,0,0,0,0,0,0,0,0,0,0,0,0,0,0,0,0,0,0,0,0,0,0,0,0,0,1,0,0,0,0,0,0,0,0,0,0,0,0,0,0,0,0,0,0,0,0,0,0,0,0,0,0,0,0,0,0,0,0,0,0,0,0,0,0,0,0,0,0,0,0,0,0,0,0,0,0,0,0,0,0,0,0,0,0,0,0,0,0,0,0,0,0,1,0,0,0,0,0,0,0,0,0,0,0,0,0,0,0,0,0,0,0,0,0,0,0,0,0,0,0,0,0,0,0,0,0,0,0,0,0,0,0,0,0,0,0,0,0,0,0,0,1,0,0,0,0,0,0,0,0,0,0,0,0,0,0,0,0,0,0,0,0,0,1
outputCount=3
weightIndex=0,147,3363,6597,7653
weights=##0
##double#7653
   -0.9164551613,0.3663715592,-0.7662048228,0.9655021764,-0.2202327701,-0.8976342514,-0.074282963,0.1277421175,0.5885222979,-0.9932645874,0.9119694767,-0.5209684283,0.4521078332,-0.2782853968,0.176717298,-0.1682599216,-0.6720052631,-0.0585242302,0.2872961747,-0.3984829329,-0.0479074384,0.4713350261,0.1362278404,-0.5700840376,-0.1964087795,-0.3556139444,0.0082053537,-0.836145556,0.1306161614,-0.6619380518,0.7148594796,-0.4829493051,0.7398668549,1.4434551804,0.5644479712,-0.8601844125,-1.067376662,0.1988652138,-0.4631902874,0.0250853334,0.6563065631,0.6830270383,0.4661986664,-0.2928024942,1.2008454021,-0.3944735665,-0.9391380991,0.5001351771,0.086512996,0.8639004658,-0.4852055066,0.6208141134,0.2062547953,0.4327900373,0.9815296272,-1.0440532935,-0.3288360562,0.1825354812,-0.5722313983,-0.273405934,0.0620860305,-0.2834020146,-0.1470209209,0.3496255437,0.8613101971,0.6531325236,0.133927804,0.1234035102,0.5767887399,0.780821874,0.3009468053,-0.243978443,0.2318895175,0.2056565183,0.2257348284,-0.4398638688,-0.2991435313,0.4651670597,0.4463765842,-0.967965663,1.2526238447,-0.2117402602,-0.5867557269,-0.0057812184,0.0972991259,0.4644574301,-0.2303239651,0.6803959092,0.6071838209,0.7408428224,0.8926763442,-0.673502384,-0.5497878159,0.4711127194,0.538137505,0.4177946172,-0.4376644763,-0.7429416891,-0.2520613837,0.0014720897,0.1558686014,0.0202703563,0.0393736759,-0.0018622298,-0.2392208062,0.0189689498,0.3544459078,0.0298982779,-0.2312238012,-0.0282312767,-0.1599397618,-0.4635534187,-0.0140448936,0.0230332108,-0.0872075577,0.5541398268,-0.423448254,-0.4478689223,0.9962084672,0.4144620314,-0.6898774821,-1.4312892226,-0.2905085607,0.0690239404,0.1092219965,0.1707321907,0.7324413749,0.0271587162,-0.6620490446,-0.226552606,0.0884256765,0.0345645264,0.1348081933,0.2300005642,-0.0241046598,-0.3485400742,0.0805961625,0.1220871012,0.3779173927,0.2510238619,-0.0479984931,-0.7828750497,0.1858228443,0.1693538193,-0.0179060631,0.0310063112,0.6697053476,1.0387259134,1.9857002803,0.0758898775,-0.662243793,-1.4718989932,-0.3963803279,0.2923406047,-1.0106193876,0.8806486168,0.976648528,0.0600368935,-0.8312946875,-0.6353433334,-5.6243058796,1.8908805659,3.6656362058,-0.2241352841,-1.6892170884,-0.2154325212,0.8840514662,-0.6650736562,3.0270337263,-0.1199275807,1.4546207773,0.7609789402,1.2188801853,-0.0348375989,-0.3619493718,-1.1319890226,0.2038204617,0.2588313615,-0.281158745,1.0299447696,-0.4144129654,4.1146825226,-1.1396240746,-0.1700068574,-0.398927474,-0.7239612373,0.7050442896,-1.0340381775,0.8596745717,1.3706736126,-0.3567697074,-0.0720397181,-0.6482998384,1.0432745029,0.7527956573,0.4039079109,-0.6883412449,0.5863480055,0.3244590777,-2.3421581463,-1.8216510849,0.4637286708,0.7232129623,0.3503732426,0.9670363161,0.1128139179,0.6564086272,-0.4807716144,1.2655043994,1.432574447,0.9711346475,-1.770946232,-0.002307256,-0.5735131131,0.6109942631,0.6679674409,1.558297526,1.304042756,1.952067118,-0.6700953218,2.8176322195,2.3883690881,0.5179473066,0.6029779902,-0.6570445196,-1.4200008671,-0.035507813,-1.0397281343,-0.497728452,1.2227204903,0.6444314962,-1.5725340518,0.3841129701,2.9067476687,-0.8210184023,-0.4788042935,2.1001886641,0.733613784,2.3645580248,-0.3708906624,2.2614317435,2.9812682327,0.2748024569,0.4621249262,0.4313411445,-0.3992845593,-1.2305109595,-0.4414008719,0.0401666494,0.5162584737,0.0654277961,0.0062273994,0.6346525964,-5.9697911924,-1.0312898065,-0.2764495722,-1.39263611,-0.639754159,0.5844382373,-0.0392774325,-0.5266101024,-0.2558406706,0.6384603618,-0.4496152772,-0.2945005637,0.1314863937,-1.3137713444,-0.9144899747,-0.7799282638,-7.427261303,-1.1169900843,-1.6361506926,1.2050592695,0.2574287317,-0.4593242698,0.6028691315,0.7089697983,-0.0270285325,1.0648918589,0.5012517867,0.1343664185,0.6607831241,-0.020694512,-0.0040328817,-0.0535572626,0.966317811,0.0856167055,-0.018113512,4.3592630407,0.0945441064,1.1098333007,-1.3570422203,0.1454460139,-5.3379419241,-0.1059675778,1.0678219945,-0.4428379279,0.6297683915,0.8050786887,0.3067398194,-3.6073750615,-0.9060064909,-1.6805091301,1.0842920207,0.0734021459,-1.2660312961,0.0185362315,-0.0797710254,0.2665240154,-0.4489784701,-1.5045334897,-1.6768117613,0.4408401415,0.4969094623,0.8200765538,-3.5091778799,0.3728886287,-0.7683530695,1.3232899586,-0.4352265908,-0.5112759318,-1.0175205677,-0.1689073518,0.5541470847,1.7821189042,0.778870991,-2.0865551526,0.4593231897,2.1730078142,1.2374533893,1.1664724181,-1.050142839,-6.9665485541,-3.4990837196,0.5757529109,0.7662070059,-0.328893225,4.0327195051,-0.9606468081,5.9281084466,0.4244448158,-1.2548029804,3.3930213491,-0.9111231702,-4.4414173007,1.0759886349,1.7380145755,-0.1856469209,0.2868632168,-0.5708486654,0.331540398,-1.4590452065,0.0689593994,-0.4500467441,3.3889401226,0.7814276346,0.3050267335,-0.1464390723,-1.005346271,-0.3093719284,-0.3889023476,1.7832290751,-0.4131083033,-0.1286564728,0.0142748345,-1.6172189896,-0.7398261658,3.0500517474,-0.8121661942,1.6781245295,-0.6116174628,-0.167678821,-1.2788351648,-0.5291509384,-0.0208471035,0.8024010226,1.253166025,-0.2793935372,0.3728468048,-0.0230797637,-0.5387314112,1.6957467098,0.1466997786,-0.2749608704,1.7633084848,1.6114819097,-0.9836440173,-0.1488620917,0.5084107237,-0.750593768,0.3844948197,-0.0489834344,-0.6618844105,-0.29753818,-0.7491438444,-1.5919501854,1.143177418,1.656545583,0.7898780695,0.0501521417,-2.4237193744,-0.0855646949,1.3112727972,-0.6752258334,-1.3216006891,-0.1807814768,2.2463491636,-0.9538541303,-0.2229750849,-2.9237841039,0.5308424151,-0.178832076,0.0047414028,-0.8280573161,-0.4527551193,-1.0827081806,-1.9334467041,-2.6154910594,-1.1311415265,-0.3649543847,0.9384705993,1.3189831124,-0.2875091241,1.6350351774,0.0587226636,0.5735151809,0.5472085143,0.3639522416,2.3942780433,0.9017580715,0.4967353847,-0.0315517738,3.4850208008,-0.0493747857,-1.4732917174,-1.3160380011,4.0761631363,-0.4149626748,1.9918435837,2.4457585153,-0.3452939819,1.8654011642,0.943832503,-0.9032633515,2.9824574284,-0.2070984296,-0.5329759172,0.8349299849,-0.9637235437,-0.5891450185,-2.8953434827,-0.0059986082,0.6055421619,-0.9859602185,1.5552151828,-1.6203837118,-1.3086917265,-0.0955833864,-0.3518837455,0.9075188595,1.8265179557,2.5539005771,2.1934748707,0.2515633541,4.5019775626,-1.7773839434,6.9736082424,2.53228439,-1.2492879664,0.7833013245,1.3851892224,-0.842546011,15.7383737887,4.8113113717,1.7688863418,0.7389772608,1.6832647245,7.0988639628,0.8993401014,1.3360262258,7.1854893164,1.3040625629,-1.1241639966,-0.9174063957,-1.0287947446,-0.0026372028,-0.8374676913,-0.1363664805,-0.5053387889,-0.8314864988,-0.8015880448,-0.5295742855,-3.4948576769,1.79368665,-0.2328815847,3.2598442534,-0.9342556435,-1.6668328993,1.0425554854,0.6397950156,0.838133315,-0.2792039418,0.9360138334,-0.6367986899,-2.6341983319,0.8236434712,-0.1145242073,-1.0490502981,3.6020421004,0.9263503333,-0.3919829165,0.6109424612,-0.2262916966,0.3418805831,0.5694057702,-0.7774329977,0.5869450863,0.0046359048,-1.2388625527,-4.0518328438,0.7889883281,0.5058460657,0.3760739213,0.8427570022,1.2283127356,-0.2570600028,-0.7746831887,-0.6857693722,0.1498952633,-0.8301667837,0.3341946503,2.3099660041,-0.2807625377,-1.958783881,-1.3471608093,0.4747677501,-0.0434131372,-0.8359166622,-1.2018708424,0.6878342924,0.6435379501,-2.7079684779,-0.3029577516,-1.6277043866,0.6579886366,0.7970352732,-1.7278860954,-2.1113551185,-1.0845279775,-0.3477427699,-0.104695049,-0.0623922184,-0.5504525227,-0.4698441586,1.0512922557,0.7949293054,0.082813412,-0.7058267208,-0.1232013169,0.630028368,0.8111320767,0.2468263371,-1.4270136165,-0.6312862946,0.5130956549,-0.1709333296,-0.9288459941,0.8504053397,0.0431600297,0.024633002,1.5489822051,0.3762887686,-1.1078353516,-0.0753192158,-0.8435224703,0.4320085309,0.3779618411,0.8531131269,0.7673425055,-0.4143231192,-0.9380731641,0.618854465,-0.6542089898,-0.7684469466,-0.1482482731,1.1663356139,0.2143384746,-0.3153409544,-0.3867595323,-0.5093674126,0.3198849139,1.9998974165,0.0315100639,-0.6971092839,-0.0436610999,1.0026741804,-0.31234014,1.1107383283,-0.3516378252,0.7860281985,0.3243508938,-1.3445821922,-0.2581296193,0.5075111109,-0.2179207691,-0.0265144472,0.2631552426,-1.2454651315,0.7509489243,0.6249473672,1.4977457569,0.2676635161,0.3946996923,-0.6684958319,-1.1156257903,0.0678831041,0.0255525147,0.2931417498,-0.885713504,0.8656685787,-0.534159123,0.182237047,0.4054528177,-2.2288450618,0.8230339252,-0.0788039602,-0.4929227076,0.6809532945,-1.0553963435,1.162400643,0.7534158968,-1.2926566582,0.987117831,1.330383782,0.5182048612,0.9911680384,-1.2198567292,-0.3687872283,0.0737222496,1.4128072822,1.5142390683,0.6762100387,-1.6966819186,0.5335335171,0.0127927,-2.0322618746,-0.2906052286,0.1891776519,1.0812697044,2.3386333367,-1.1189609477,-4.3128459485,0.5520449398,9.5509888812,1.1292374941,-2.3782895987,0.2293093261,0.8526595712,-0.8744178478,1.7611995829,0.0422056782,-1.5682256957,0.400779418,0.0030865018,0.847430219,4.3319237964,-0.5965371656,-0.930621969,-2.4932010852,-0.3298643759,0.246685842,0.2425516004,2.4797762898,0.7141905673,-1.0235870081,0.1390683184,-0.283172974,0.4980268496,0.5806265442,-3.4598882886,2.7956941211,-0.7540404274,0.3224286426,-3.3409351244,-0.4284996807,12.7109625796,-1.9743291788,0.9073626654,-1.1677702124,-0.756623834,2.0926615213,0.6256735874,0.2392529206,0.0181572231,-0.6192184676,4.7886364298,-0.3902693654,-2.1206989682,-0.7084122448,-0.4464757254,-6.0098543028,0.9313212338,0.02166041,-0.0127231217,-3.6329873962,-0.1432281867,-0.8029401938,1.1202798397,-4.2555601619,-2.2733107151,-4.4715619,5.3722701173,2.2605458799,1.2850858787,-0.905764126,-2.7201698223,-0.0182508574,1.5918051677,-2.7776203979,-0.0343534238,-1.0145282991,0.2197907258,3.1237356964,-0.5941180126,0.7777598174,0.3949080934,-1.4456616514,0.9839883016,0.1331770321,-0.0305836221,-0.9719048781,-2.1730519044,2.5117834683,5.4895128624,-0.3368717224,-0.766765938,0.5973104327,-0.2213327904,-1.3088785485,2.5351411099,0.9481323451,0.5157284407,-1.4072395141,0.1956544029,-0.2466939126,-1.6641627921,7.0686858678,-0.3645523704,-0.2477926565,0.6972553435,-0.7784521198,0.0099891019,-0.2274159371,-0.2875047462,-3.3836767036,-0.5913151022,-0.851209706,0.2738324263,0.6314300773,0.9623227408,0.0914085309,-1.5309390012,0.362550274,0.5246648116,-1.0154407961,-0.3816041564,-0.0016173427,-1.0565219193,0.5685347518,-1.1741255805,-1.2978048295,-1.3819877943,2.8665714991,0.5327222605,1.6140799238,-0.9297574749,-0.140461572,0.5127125693,-1.1933347034,-0.1919706292,-0.4590012217,0.8028721135,0.0489087566,-0.609235713,0.068788606,-0.5404174822,0.5041923262,-0.5758209559,0.2912457256,-0.3458241311,-0.3217978791,-0.2153301319,-1.3833693949,0.3975629297,1.6818103378,0.1661163101,0.1008371319,-0.363476108,0.5964429849,1.6225007123,-0.2367223398,-0.5947427783,-0.3406165967,-0.5211462146,0.756114659,-0.330913689,0.4720693939,-0.0386455195,0.3920680911,-1.5501898802,-0.0981144164,0.7440781155,-0.5897522626,-0.1401435491,0.4949190805,1.1518598503,-0.5135985193,0.9114735617,-0.0675592103,-0.6931673808,-2.3943579661,-1.5028690755,0.7871937395,0.8047726193,-1.3104291944,-0.1599617499,-0.2688350807,-1.5724860846,0.4190733134,-1.2608351511,0.07264974,-0.0127934267,-0.5837590271,1.7366305435,-0.9511961279,0.2547195146,-0.0198829664,0.4998441152,1.3971297506,1.2548435892,-0.0306625012,0.6153509043,1.8703811151,1.1497028194,-0.1034405446,0.7149191972,0.1333317474,0.3848416782,0.9096601696,0.0668637266,1.7198469656,-0.1854802165,1.4779734286,-0.605241635,-0.5177837851,2.7701736789,-0.2562350882,0.3345838849,0.4416785181,0.2335884683,-0.5749967863,-1.5522966022,-1.2667240961,1.4709350258,-0.0302912386,-1.8437915428,1.7894965912,0.7155245293,-0.448507307,-0.2131048838,-0.1534104045,-0.6341819434,1.2136711121,0.7797596247,-0.4449386738,-0.7544902531,0.9501687734,0.3374932223,0.018760958,-0.1685194194,-1.4892636121,0.6325158894,-1.5906963685,-1.2684120426,-1.8586485842,0.2931588938,2.3601038757,-1.2129179706,0.0477725031,-0.7985159709,-0.5248794786,1.0345232552,4.1370957004,-0.9333246687,-0.424739995,1.6796590088,-0.3264020646,1.2335784349,-2.5877806961,0.8426659837,0.6268291021,4.8960011159,-0.6371213725,-0.4407557886,-0.9272209877,0.8991197951,-0.3524855243,-0.8374687878,0.3148166363,-0.9965271932,2.2496336054,1.1001257282,-0.1458328819,-0.5461837711,-1.0406969455,1.0924707815,1.298323736,-5.0362642952,-0.5507924748,0.4485160444,-0.2208719087,-0.6922335749,-0.5219752362,3.7425080374,0.0968899901,-1.488789254,-0.4181328732,-0.6167063545,0.0536311009,-0.500596178,0.7634135789,-0.0529554659,-0.5324567003,7.3899975663,-0.548522999,2.4469427466,-3.4307967691,-0.104207771,-0.0614613537,-5.2927023399,1.3778040747,-0.9285858245,2.6600663046,0.6083053798,-0.5922827653,0.3906899991,2.5176070558,0.0420238206,-1.0843784698,-0.3329026172,-0.0910512083,-0.6279416076,-0.0782422513,-0.4378467346,0.245465777,1.1694544647,-2.7373481127,-1.2861230704,-1.2494951785,3.5199430335,0.3691934868,-0.5717969475,-0.4776162204,0.4400646136,0.6400494202,-1.4617838628,4.1054099857,-0.3714439326,1.0273423351,-0.0580033212,1.2106276652,-0.4693770834,-0.4644640053,0.7173252909,1.5680064864,-0.1294653826,0.1636664283,0.8269999831,-0.208233187,-0.0861771221,0.6146832076,-0.5021678589,0.7747535776,-0.5935688352,1.9290293488,0.2093688695,0.820850346,1.7402267712,-1.6018446936,-1.5843026663,-0.2409253695,2.661210077,-1.1864681283,0.4344993169,0.5245651178,0.5477073114,0.6835722115,-1.3403927333,-0.5732725967,-0.2356763239,-0.5795069264,1.2628555528,-0.9661819622,-1.0042324198,-0.7927206993,-2.1172240444,0.9612858917,0.8112611005,0.4979317949,0.1079567803,3.0160798113,0.8962961044,-0.5994408911,-0.7213523565,2.1346603553,1.6470118198,-1.2567316128,-0.1684708031,0.8539953022,0.1369679888,-1.0966620552,-0.6639801012,-0.6639336936,0.9150822467,1.7919669901,1.4787641558,-0.9668352823,1.0333749288,0.0218107126,-0.5069274426,-0.6169355458,0.4594275156,1.1136069993,0.0341527673,0.5887354391,-0.1480226623,-2.1862916183,0.198264634,-1.6759679441,-1.85375984,2.6856003481,1.1564318773,-1.6563087001,1.8487378327,-0.1671624484,0.3132687643,-0.5422197573,-0.2951337532,-0.7632037677,0.2390669267,0.0688653644,0.9738040035,-0.8112118187,-0.5533912459,-0.9090450747,0.6499701394,0.132774749,-0.6832868365,0.7854996008,-1.2669394335,0.590179767,0.9554214892,0.13445027,-0.6148943683,1.5982621072,1.1324309186,0.3684309388,-0.2214771707,-0.290688992,-1.0601913887,0.1499833928,0.3886290848,-0.2847832321,0.7368282243,0.0310464504,0.8718842758,-0.3590901653,-0.0853031837,-0.6693047195,0.13522649,-0.9978617709,0.0159001537,0.1521604311,-0.4944210134,-1.6678217694,-0.3338593607,0.3874200082,0.0570982633,2.0630513281,1.3865559508,0.1201455228,-1.2331249996,0.150971561,0.1889673761,-0.0324670785,0.0842169033,0.8230801951,0.2049163397,2.0343370346,0.69407956,2.60794748,0.5041256631,-0.7571391727,0.0443700185,0.9799581987,-0.090058382,0.7888429487,-0.0182645539,-1.4914135141,0.508447767,0.7186301849,0.0065863866,0.0422484732,-1.190666681,-0.2316801213,-0.2392416995,0.529117895,-0.4301007751,-2.6672255676,0.1297817123,1.2167991903,-0.5237931395,1.1247038419,0.0523115722,-1.5662484813,0.2503210697,1.0951772224,1.4302518321,-0.787737662,0.9341446655,0.7433807549,0.683463987,0.5043533542,0.3995262472,-0.719979575,-0.0060514655,-0.2205952958,-0.307325012,-0.3534311396,-0.4097397369,-0.4876660353,-0.7324589729,-0.6013956838,0.3461351147,0.0520261759,-0.1565483771,0.1647936145,-0.4369415354,0.2158377915,-0.1157759036,0.2944501435,-0.3994032688,0.8583674618,-0.4328035897,0.3310721095,0.2435944792,-0.59186374,-0.0317059966,0.1811062064,-3.6510141048,-0.7748603879,0.6227968217,1.0211484873,-1.6502246165,-0.4902380995,-0.6315879237,0.764829073,0.8761456008,0.1130136363,-0.504732722,-0.8560885435,1.0536032783,-2.5613035874,12.4663154747,-0.6075182663,1.1643333437,0.8263336288,-1.0630057546,0.8389059491,-2.2933478804,3.3715485789,0.0879003016,-0.1088074493,0.5595220943,-0.0004817406,-0.5406764136,-2.1251670737,0.5361420393,0.8104524583,-11.4100898028,1.1655963077,-1.4097505867,0.0440315253,1.0671867876,1.1681562667,0.5241584313,-1.1930244787,-0.9709326646,1.2066090692,-0.7938270297,-3.6675345454,1.5739378665,4.0259175863,-0.6948658456,-0.3951625644,-1.3821388619,0.0669423983,-2.7322519078,0.2210893104,4.1214689468,-2.8174147878,0.1306037593,-0.0882617893,-0.8205634899,1.0543974912,1.0652874978,-1.1402492167,0.4783509395,-1.4234648694,1.0121744813,0.010919394,0.4695583667,0.2484383914,0.4031741236,-0.1664695404,0.1605606727,1.3951727081,0.9421485596,-0.5020650272,2.8638801219,-2.5757774339,0.3548708784,0.9861078214,-0.6345001507,0.9058887253,1.5897301403,0.6524584804,-1.044714635,0.9833065887,0.3509879977,-0.0440999656,1.6564629546,0.9980596308,0.2629249381,0.710244379,-0.6152558769,0.7007254855,-0.1221288502,-0.4147509627,0.504911436,0.5297783456,0.5514644314,1.001852531,0.5300143889,0.5284169223,-0.742113096,-0.1407434127,0.0698386492,0.1976589599,1.5015201052,0.936895731,-1.8438142294,1.1831005525,0.2083055692,-1.4260085955,-0.598776017,0.7908892352,0.7958437102,-0.2167169132,0.5923520249,-1.1184002512,-0.6169879358,-0.4304441149,-0.9352913309,-2.2745725351,0.3209028625,0.234766158,1.5622228094,0.6288883817,-0.1115389971,1.1770700419,1.1124432541,0.8762452746,3.333348263,-0.3177626193,-0.6858976381,-0.0366467336,-0.3315420146,-3.2480866215,3.2495178715,2.3588864214,-0.3845804062,0.8057338929,-6.2373088574,0.1416645812,-1.8566373659,-0.5994508437,0.2393812073,-5.9389150873,-0.8140790715,-0.0108319189,1.7805215471,-0.0396128143,-0.6117933875,0.0547250475,1.1452197944,-2.2760377511,0.8889877941,1.6848738732,-3.0833653954,-0.0615956383,2.6187425735,-3.2144358538,-0.2681967882,-0.469120284,1.0935748016,0.5245367394,-1.6886413227,-2.3481807137,-0.9043779978,-1.7584383509,0.3897596045,0.3873569602,-2.2595137151,-0.2481440199,-1.708974096,-1.4858888494,-0.7454574508,-0.471279573,-0.5091443279,-1.8197598433,-0.7230011124,1.1130202967,0.2008471573,-1.6679366245,5.0503701522,-1.1423719334,0.7564380068,1.562442949,-0.0409977242,-5.1594598271,-2.7814046394,0.1683725927,-1.2326653506,-0.8225748547,-0.7469045862,-1.4960169346,1.8366404935,-0.7676286413,-0.2001540174,1.3827923299,-0.2563695898,0.4099086984,-0.3797060822,-2.2868962689,0.5262755268,-2.0151748088,-0.9314294564,-0.6127109659,-0.9381133961,-0.1657088561,-0.1843570336,-1.1612267664,-0.4043181644,-0.4641755864,-1.1860101111,1.3294721497,0.0278955698,0.7643509687,-0.3960804087,-0.8383194501,-0.8288968012,-0.9397716059,0.7699992972,-0.5203151896,0.7878220828,-0.0631319231,-0.5676520765,-0.1556241107,-1.594352787,0.9407374559,-0.0301386618,1.2881710089,0.3086378056,-0.5641697383,1.699881375,-0.3233813741,-0.9555066484,0.4195088599,-0.752613106,-0.2040061684,-0.7716143141,-0.5867297708,0.5885313332,-0.2191269047,-1.074475474,-0.1564796479,-0.2194200113,-0.220156679,-0.0627745601,-0.1095148974,-0.8565578838,-0.3550994627,0.8268470191,-1.0254732699,0.5884610883,0.2299337853,-0.5093516279,-0.883446025,-0.6738427602,0.8409521935,0.5360307323,-0.9335884759,0.7478476668,0.8512357644,0.6850438107,1.2770107071,0.9021424652,0.6745590776,-0.5614195421,0.6791889936,0.4370055616,0.7849010392,0.61228777,-0.815380075,-0.2253067143,-0.9969920244,-0.0030788468,1.1773592439,-0.7811252737,-0.0230558123,-1.5386336356,0.1827075276,0.5269172519,-0.7922521222,3.1253125188,-0.2284988848,0.2158748848,0.239923458,-0.7096062598,1.1517797412,-0.0991371384,-0.3450040778,-1.950480699,-0.5140700654,0.3191534521,-0.6370128706,-0.2644186568,-0.1315906145,-0.1353841853,-0.0504308904,0.7493426919,0.2051087705,-0.7337638328,-1.3782546869,-0.6728172828,0.4200026762,1.4735240633,0.7885220288,0.3402585023,0.2113168443,-0.709320742,-0.2936982178,0.0650997643,-0.0373762852,0.4176126541,0.1610049454,-0.9219486927,-0.1536089842,-0.7379718245,0.3757969613,0.4261162167,0.0618359262,0.3800375397,0.4666206267,0.4397805549,0.536872685,0.2076245244,0.6846590976,0.2768501021,0.9686609019,0.657334087,0.3895120556,0.0599623311,0.3620674388,-2.5426704722,0.5651834357,-0.1413509139,-0.1900214133,0.02073251,0.9232315798,0.3081662403,0.3891226986,-1.765426454,-0.2645448159,-1.0613134047,0.1030020214,-0.1038068527,-0.369910606,0.2035959764,0.6393279615,-0.063724713,-0.7215596896,-0.7047210479,0.2075900839,-1.1134173708,0.8027339059,0.8934940485,-0.3586039898,0.0846164597,0.4152776892,0.4205747908,0.2091108917,0.1953098723,-0.1140313596,0.09881777,0.8521951305,-0.201051464,0.1027754426,0.2954080942,-0.4131526532,0.1538036032,0.2500967177,-0.8794972367,0.9477092248,2.0785077498,-0.5392837066,0.4597887595,-1.0518479652,0.0020746801,-0.4051937933,-1.3581612087,0.1255498687,0.8602360565,-0.6451413889,-0.4501487567,0.4661555381,-1.0604257163,0.1316999336,-0.2516861864,-0.4522520892,0.0380982235,0.0328464868,0.4727998568,-0.9692880982,0.0281353835,1.1891564284,-0.181660471,-1.0255619497,-2.2618901013,-0.4556372681,0.720270804,-0.9877732348,-0.8129112879,-0.3582708413,-1.6242455654,0.8597908564,1.3161735575,0.9490576222,-0.3459855771,0.3478518216,-0.7340920592,1.0312724868,-3.8618335914,0.0274994719,-0.7634232008,-0.1114555917,1.0171721417,-0.9397401707,-0.3648978351,0.1683588528,1.114165874,1.4960024799,0.0921766919,1.0735233351,0.0229415861,-2.6902840942,-0.2750276089,1.2774948701,-1.0038018237,0.2617591772,0.0711256558,-0.3452827838,0.2476063836,0.572781482,-0.9394568019,-0.8218966418,-0.1385597835,-0.7999633603,1.2882922104,1.7325121197,-0.1641604332,-1.4311835519,-1.2199206509,3.4708271386,0.2691980648,0.1912251508,-0.6571388732,-0.8437138313,-0.3785168336,-2.2430749227,-0.1050170813,0.1757481661,0.2151072849,1.1927944753,-0.4221276174,0.3854321795,0.2681862408,0.6240983895,0.5593399844,-0.0654520978,0.7960785981,-0.7588753523,-0.8200462743,0.6325484799,-1.5166636435,2.6767799767,0.3438713861,0.4316688626,1.4927067486,1.3599736897,0.919209279,-0.5887708307,-1.9044470975,6.0960019791,-1.1398800769,1.0553332478,-0.2387435588,-0.1013401826,-1.5381112094,0.0235427823,1.6085063103,0.0232803519,-1.0586022832,-1.6838701944,0.3121837336,-1.5799245526,1.0285776776,0.1172123857,-1.2719741858,-1.7742810339,0.1767172388,0.5943537356,2.4612770406,-1.2708073382,0.256225866,1.2785081007,0.7733226612,0.0482602403,-1.245340915,-0.2685980031,-0.3387197026,-0.3841693592,0.1530659959,1.2528956303,-1.470009101,-1.2850799231,-0.4226126644,2.6956268356,0.9540784602,0.8190076866,1.6933678229,-1.63513694,-0.0581875653,-0.1981032888,-0.5198157173,-0.7873622053,-0.3165305894,0.2521846639,1.6155041542,1.2514001097,-0.5507094139,0.6031260552,1.0461725723,0.2984195457,-0.865967152,-0.6595580897,0.2855959428,-0.2674782246,0.1780719887,0.3316073943,-0.4271438249,2.0975993244,-0.8315469281,-0.8870016344,0.3085054839,1.2684695266,-0.3764436435,-0.0815305509,-0.8574888552,-0.1224769575,-2.1887061501,-0.0042847001,-0.1199938942,-0.4065590166,2.1633545649,-0.1243361497,-0.336381015,0.1630079171,-1.9894928584,0.3598761214,-0.9417508765,0.5882189563,-1.0956984591,-0.5261838953,-0.1556755429,-0.8350807773,-1.0744528251,0.5949005784,-0.5130991969,-0.0906890614,-0.1236142914,-0.7612065612,0.6480109275,0.2357514497,-0.1730074605,-0.1880322508,0.3684765186,-0.4009265592,-0.6527560432,0.3626314854,-0.5352939973,-0.2963431611,-0.0630298063,0.4864939735,-0.1474396783,-0.4418245647,0.232920952,0.3431241771,1.2114929375,0.5050288806,-0.1274463517,-0.4421509096,-0.0484753936,-0.3739272286,0.803679844,0.2800855455,0.7418768966,1.0476256085,0.4646338002,-0.2437837724,-0.6021460531,1.2240753259,0.1590835298,-0.2652017826,-0.6369153317,-0.7024479506,1.3780416874,0.5331594127,-0.724449531,-0.4403068134,-0.8653536519,0.2085379777,-1.2481484349,0.5597993909,3.2288206114,0.5561966269,-3.0326861646,1.0809662238,1.5695057202,1.2339755357,-0.6171515745,1.0361127388,-0.646190166,-1.3056879808,0.3695709012,0.9319925789,-3.0120955284,-2.4314130604,1.492597397,1.4331310642,-0.7721791754,-0.8769488449,-0.0287497537,-0.3868597422,-1.1755351362,-1.44615114,-1.9984041658,0.9369651172,4.8176468883,1.9163385503,0.8212296815,0.130982407,-0.7069754415,-1.5565497104,-0.1393158732,-0.1238808061,0.5662492578,3.4508240733,2.8199296296,0.9925293027,0.1852610014,0.1511765907,-0.0450038534,0.8700193178,0.3002496517,0.493811731,1.6602356672,0.1569042764,-0.813803631,-0.9832830371,0.5682772442,-3.6091624908,0.033136908,1.8903673616,-1.6801506176,2.230491105,0.6605094267,0.0811804398,-0.1042277875,-0.8684072008,-1.1889562051,0.4435684193,-0.1222094268,-0.6233114788,0.8514016381,0.0804668336,-0.7158371325,-0.4621063269,-1.8831508405,1.4083331204,0.5356580858,0.2927723209,-0.0427171688,1.0499445752,0.4358766745,0.0250764557,-0.0488763491,0.6754376672,-1.1739603982,0.2945007421,1.008560151,1.0450823478,-3.7629514026,-0.5795622411,-1.1429332023,2.9152966077,0.3637835949,-0.3711163488,-0.6993078223,1.1984087049,0.4141911269,-1.4432432498,1.3266266255,-0.0541681664,-0.082436574,-1.9676897047,0.762327335,1.0991892368,-1.5530314876,-0.9205325316,-0.1387617603,-0.8195762286,0.3085534649,1.3730818668,-1.1912722261,1.1815146781,-0.568812121,-1.3128238147,-1.4993970407,0.9290999437,0.2338161973,-0.577499749,-0.8165075131,-2.601896608,-1.9346567669,-0.4267319207,-0.3688157479,0.2878965583,-0.0809884887,-2.25898543,0.1049387989,-0.4325524044,-1.0741616702,-2.0258524862,0.9114351154,0.2549275515,-0.3240039064,-0.3296014295,-0.4137347435,-0.1338145024,-1.3262813675,-0.6254307454,-1.2846361825,-0.8548189054,-0.3127553516,-0.952119181,2.0769426523,-0.227281855,-0.115997254,1.054282375,-1.4700258914,-0.8761261962,2.0770259373,1.3979042693,0.3028571645,0.5366839808,-0.1029348584,-0.3111431077,-0.3035745565,1.5846231105,0.3936459274,0.1699162179,-0.0188247436,0.7014409228,1.4026016304,-2.1701480571,-0.3623522699,-0.5178586921,-0.230795197,-0.2316957273,-1.6647457785,0.0619405102,0.7009858675,0.4809036801,0.4324565388,0.5419952178,0.0617988546,-1.213517378,0.3151311955,0.7323913023,-0.1651840413,0.8138401497,-0.7838738283,1.4868073488,0.8160122616,0.2826313165,0.7431869221,-1.7636880592,-0.2940769887,-0.7659414348,-0.0629796621,-0.1364316317,1.1322015752,-0.7504960471,-0.2509934629,-1.9122282152,0.578975902,2.7051383865,2.0385450198,1.3812742437,0.2590158773,0.3209506694,-1.0663608325,0.7741260152,-2.0238008463,-0.2363358415,-3.3530009433,3.6000497323,-0.8566587341,-0.1947702311,-0.5460810634,0.8823418166,1.3719049397,-0.3970524909,-0.5476262893,1.2848432826,0.6168497222,0.0219937368,11.4624873782,-0.1430067123,1.7652012211,-1.227915995,-0.0704404625,-2.6994306183,0.7751022863,2.282037755,-0.3166171328,-1.1459120247,-1.4085075508,0.8924872969,2.570106788,-1.6173865094,-1.1731749996,-1.1856437588,1.1859112504,-0.6547307349,-2.0691190868,3.362411292,0.848122476,-0.0958119135,-0.1579029484,-1.0691054858,-3.0389994236,-4.4489112395,-1.1551911246,-0.0486845757,0.5221187019,0.8598433382,-0.4177898463,0.3698050185,-0.288458563,-0.5379692689,1.2633197958,1.0660586203,-0.9089287601,-0.220603921,0.2534346238,-1.5194421311,1.661205079,1.6516684333,-1.7635349255,-0.019212867,0.6593624798,0.2793433292,0.0858427408,-1.4064636175,-1.1839600209,0.4562275282,-0.1294072821,-1.2855762301,-1.9969686553,2.6915409017,0.3539517378,-2.4947802535,0.0514701782,-1.1112815895,1.335277343,-0.7899137648,-0.1161817966,1.9537296738,1.9801154062,-0.6721053837,-0.4512965423,1.9809151385,-0.1240877213,1.1605603152,-0.6227374293,0.300649107,0.3184362656,0.7348281175,1.1924594541,-0.7705525149,0.1896400366,-1.1237435352,0.902622138,-4.0599231761,-0.7795519309,2.5412279099,-0.9252588997,-0.3472265076,-0.569338013,0.4425342539,-0.3376035674,0.9105115685,-0.1872283819,-0.38966845,-1.194877934
   -2.4652873189,1.0046070841,0.8305369507,-0.0309696824,-1.0582883556,-1.5145700299,1.2783462024,-1.4580048963,-2.0754956923,-0.6628585674,0.284061713,0.9170368621,0.1145346459,-0.6668799813,1.1993252801,-1.0050707189,0.1582381532,1.423550645,-0.5670141211,1.3160762266,-0.9488280315,0.1146993164,1.1987927522,0.1928248933,-1.4814603355,-0.5081803416,0.157801724,-0.5334129706,0.076104775,0.2437703984,-2.1794923706,0.9774463554,-0.09091077,2.3545524075,-0.9933079908,0.2428951033,0.6583698744,0.3881503062,1.7991044155,-0.6968262709,0.750466094,-0.4280526113,-0.03752937,2.559041584,1.8649395918,0.1764105651,-0.322950785,-0.1636606274,1.3296095355,6.1024542638,-15.820338278,0.3689676186,1.2765700306,-5.6466271307,1.0766385874,-1.1510714649,4.2314831857,2.4921464949,-0.1896337892,2.0049628065,-0.5007492302,-4.9839100356,1.0824671171,0.814492412,-4.3424928149,0.6582190006,5.038659814,0.8670555257,10.4066958711,-5.0712235058,0.368363721,-1.7572612372,0.4976407554,-1.5224291915,-1.0499790874,2.35130156,-1.5084869545,14.8056146083,-1.9418580334,1.9273085119,-0.6262298483,5.021094548,-0.8776256434,1.8537887012,-1.8984609472,4.2268782359,3.5904983739,1.0574714834,0.5508696962,1.435935157,1.6740264675,-3.1997844774,4.360373854,0.9436145227,-0.0578752995,-4.3472730379,0.5423157547,2.7873886929,-1.0194501045,1.3536298865,-0.4467680324,-2.643139556,-0.5611699051,0.1056058348,-1.2394047809,0.7245742174,-0.7273743173,-0.8883086083,0.8301587933,-0.0705587641,0.172003108,0.2774019591,-0.9733403207,0.2461532427,-0.0265467413,0.1131930975,-0.9738706809,-0.015440153,1.4087271323,0.2719030712,-1.3840028378,-1.8321013711,-0.3980857061,-1.6646731273,-0.7590938636,-0.0411666491,0.9645429117,0.1019288595,-0.1950638751,-0.8598393179,0.1217655578,1.4204269586,2.6971756398,0.370683842,0.731680867,-1.3818810932,0.0747245363,-0.0929630892,-1.8786517395,-0.3447584448,0.1566609607,1.5096144482,-2.3694837512,0.4914023214,0.7884929137,-1.2458249643,0.8498451769,-0.3080488269,-0.5023567207,0.0553343987,-0.8159327512,0.016571206,-0.6930162937,1.6069758521,-1.0226473664,1.8539856697,2.3123929685,-0.1019884531,-0.8093740773,-0.973564733,-1.5530635338,1.3016682605,-0.8788713148,-0.7263713073,-1.3505458651,0.5941741928,-0.4477100275,-0.5907163179,-0.6560631846,-0.3524922188,0.5619253064,-0.9534702737,1.1466916978,-0.5228885841,-0.0206789934,-0.1918759029,0.7411573249,0.4265766191,-0.6932039073,-0.5757526124,-0.2384616734,0.6628776365,0.199020364,0.1333089718,-1.129856029,0.6721007445,-0.2734197683,-0.2256551359,-0.981084937,0.3292967345,-0.69060422,-0.6702573354,-1.1137470378,-0.7351415214,0.0540512395,0.7931675634,-0.411303298,0.3521890587,1.2492293568,0.1371267324,0.3045319234,0.4738298588,0.1336263749,-0.4461254437,0.1269364949,-0.0352492674,0.32530209,0.9942556779,0.0268008592,0.5726813128,-0.4209956758,0.4261730353,-0.3231471048,-0.0864135628,-0.3974780573,-0.6643189338,1.3628711244,-0.213805414,-0.078000447,-0.1100007213,-0.4323950244,-0.8630450492,1.0351848876,-0.4555727982,-0.233280141,-0.8599538202,-0.5558916238,1.6370687598,0.7034530355,-0.8815922965,-0.9953304753,-0.5168844876,-1.078926269,0.3888405759,-0.306300805,-0.0474848727,-0.8251680998,0.0954737228,-2.3237188906,0.1263843755,-0.0422442064,-0.1188849046,-0.5347960345,-1.2099180424,-0.1406545982,-2.6676041401,-1.9737426152,-2.0378483785,0.548442065,0.8721311198,0.3222426535,2.3131268015,0.4278837919,0.1953848023,0.0370948861,1.8126169725,-1.5195930626,0.3383269663,-2.6410183813,1.1053330476,0.5645817293,0.0168083695,-0.6682081454,0.7190605492,-1.4099168666,0.2092411413,0.74482579,-2.0960486236,-0.9258978104,0.0093808268,0.8361835894,0.2549879524,0.6604163623,-0.7801775964,-2.1185378382,0.3969374805,1.4552597938,-0.4528406131,-0.9182486228,-0.1534517261,-0.8197085784,1.2088639155,1.0209828207,-0.777529731,0.4330398826,1.911203515,-0.1505677139,-0.95024941,-0.9964279106,0.1849419959,0.5239537547,-0.1185262112,-1.0087219183,-0.5948807417,1.1198390774,-0.4861594963,-0.7669817429,2.0159141361,1.6095995623,2.881649541,0.2380040566,-0.6062079126,-0.1431697288,0.3325647302,-0.7431227837,4.0227169624,-1.2566535205,-1.26745379,0.6732280336,-1.0400559488,0.5322975022,0.0871050315,0.8511495542,-1.3284637018,0.5513257893,0.0604170039,0.4144410379,-1.2718924057,-0.6178082613,-0.6826797174,-0.4972302368,0.4519554889,-0.4114225461,-1.9689730373,-0.6197402044,0.7940553827,0.4061120671,0.5030716607,0.944351342,3.7369305467,0.2972197469,-0.8901386381,-2.6982356064,-0.8926995966,-0.8239249273,-0.78817656,-1.3711839939,-2.3386323837,0.1648060231,-0.5507118563,0.8582694913,-1.0373203273,0.3155892616,-0.7541053424,3.4498021174,-0.5105815923,0.3218646087,0.5499722944,-0.6217848264,4.8215839411,-0.6847924045,-0.0088639825,0.4730896228,0.1783999307,-1.787103784,0.0334621666,1.3422116599,-0.5829340091,-0.5454891218,-0.0203281524,-0.524401538,2.3385266853,1.0545016431,0.2119131031,0.4867198154,-0.520926149,0.1278809757,-0.547485264,-0.6425592184,-1.0582073854,0.0306861718,-0.3714422558,-0.0205101091,0.7339284908,-0.4559230886,-0.5909845464,0.3793978373,0.6305843384,0.0353501357,0.7622049378,0.1175780081,-0.9420144217,1.1584320285,-0.9055822991,0.3493036557,-1.583569664,-0.4312050545,0.0203405112,-1.3722086132,-0.6843817972,-1.9520548207,-1.0924574939,-0.1409067331,0.6484233662,-0.6264051936,0.9842867679,0.2409487887,0.2815714964,0.0661468103,1.214091604,1.7525595725,0.6225099818,1.0394722881,1.0104201282,2.3807389636,0.3428285066,-0.5261253303,-0.6528443657,-0.121812921,1.2265981168,-0.9198392697,0.2094260051,2.0243649766,-0.1534509621,0.7270284748,0.4004283225,-1.5598151565,-1.4207035163,0.5570785351,-0.3904939083,-1.2570926216,-1.3724506519,0.5863172104,0.168636041,0.3595243654,-0.7009163243,1.7910698661,-0.0988350142,-1.0753072766,-0.2430679565,0.5936580104,-0.7433473586,-0.3730771068,-1.1674123906,-0.9577888347,0.67695949,-0.4752012062,0.6688589589,-0.614493137,-1.9895886037,0.5983865806,0.5447351478,1.6783178172,0.1051077039,0.6990301911,0.0573513958,0.501904203,0.6055678756,1.0283801874,0.2620100218,-0.3193234349,-0.0967963249,0.6626009791,0.545797422,-1.1316312053,-1.3737146266,-1.9711668476,0.8857147245,-0.3811358122,-0.4572717093,0.6525007528,-0.1912203076,0.1558860321,0.0903994481,0.0650759616,1.8173523827,-0.0510682042,-0.0547281244,-0.9021560334,0.0767492513,-0.0740551567,4.2110157005,0.929084102,0.1652166607,0.0527148036,-1.1638690614,0.992857573,0.1984352447,-0.5603586543,1.3028440408,-1.672671208,-0.6175500085,-0.3280508092,-2.0629110534,1.755712205,-1.8574566982,-1.2345901162,0.1127348148,-1.2811232199,-2.4272155772,0.8847507797,0.5824773504,-1.5372560122,-0.3086477464,-1.6998709303,0.4254043648,0.4045838991,3.1248817272,1.1671928816,0.0526421889,-0.9023317181,-0.687613031,-1.587066861,-6.9109696627,1.5084957838,0.5906765446,1.0393141781,-0.3736168999,-1.1427367092,1.2180700939,-0.4217075082,21.756008072,-0.289358653,0.6421521777,-1.6940341467,1.5740698301,-0.1859064393,0.953410447,0.6073261731,-1.0844124021,-0.8839407714,2.2300521563,-1.8158761494,0.3897801729,-1.771598146,-0.1354491467,-2.6672419774,0.2985406775,1.1107091136,-1.0826276234,-2.2544607208,-0.0071984838,1.0370582223,0.979059994,1.2169643106,-0.2638463402,0.4016587075,-3.5798407961,1.8993856532,0.165964497,1.3979509979,-0.5321010804,-1.2633428859,1.8759823674,-4.7302299237,-0.2010409177,-0.4282570381,0.572566656,-22.6247085764,0.8039277801,1.5110092996,-1.2127287455,-0.8717753595,0.5701009892,1.1102424345,-2.7427600417,0.5966835367,-0.1525509561,-1.2620157336,-0.2723472784,-0.988405071,-1.4158189796,21.7417738425,-1.9505446126,-0.9967810258,0.9894403213,-4.3764966424,0.7263543334,1.3715941113,-0.8103612464,1.1193437543,1.0621707349,-1.7483981804,-3.0194912192,27.6043831533,0.0358524128,1.0640540593,1.082254893,-1.3924446931,0.6499203116,0.6060618286,-0.8340673325,0.0733562298,-0.8101182159,1.134183109,-1.1071535062,-0.2487894587,-0.5623726777,-0.1538400884,1.0103190368,0.8696187631,-0.4884841072,-0.6421396315,-1.1261900773,-2.2955800408,1.1868315295,1.9221744169,0.0601899649,-0.787277593,1.1698665021,-2.0688125643,-0.043119555,1.1473552469,-0.6915758912,0.6698856898,-1.0161137755,1.437831596,1.7971033093,1.2314328552,-0.1715663263,-1.5723975941,0.3438496633,0.7272564958,-0.3878125614,0.0913101672,0.2689987685,0.1980818542,0.7244857656,0.5653278341,1.5741377794,0.0201874453,-1.7104424736,-0.1239138867,0.3824724355,-0.8268975576,-0.099217709,0.2325569554,0.9632088625,0.7379099679,0.525881594,-0.8745825148,0.0641070443,2.6189024815,-0.3889092866,-0.5242965707,1.3024237928,-1.2571538037,0.6226956562,1.9257969563,-0.6111166742,-0.2710512755,1.0371948316,-0.5385797577,-0.3948086913,1.2793675402,1.0733587884,0.9871099171,-0.3247083681,0.3833674899,-0.2655801427,0.9864552098,0.5643998942,-0.9195301718,-0.4857923151,1.1161366571,0.0145646213,1.8899021553,-0.2084566784,3.2123248389,2.2814772499,26.1480797019,70.5991517972,-4.1974900784,-0.242636247,1.4285180895,-0.936852061,-0.4879566566,0.3323050292,-4.8190373036,0.3077138447,0.5007445209,1.6865439513,-0.336727909,11.6314346499,-1.0114477405,-0.4968804501,-1.8178751992,-0.4071958306,0.4618800651,-3.597456447,1.3524604832,-0.8369744949,-0.8562476299,-1.0542328796,-1.1046280932,1.034917909,0.8105992947,-0.9563241511,1.1000049734,-0.1434727626,-0.147990175,0.6000146167,0.6726856666,-2.5553274991,-0.5018920729,0.0177405123,-2.2810546334,-1.25496915,1.0051269238,-0.7494295386,-1.1955665759,-1.3564437298,-0.114018123,1.907073158,-0.3529858114,0.1001552987,-0.649171849,-0.4298852748,-1.1319449312,0.9925730572,4.8922193283,-0.184244117,-0.4255498701,-0.0650449745,-0.1068577244,1.04853836,-1.1179289319,1.0143415137,0.4979923536,0.0174739217,0.7232555504,-1.1680326215,0.414529976,-0.2697150626,-0.008710483,0.6652042598,-0.1010054393,-1.2296545034,0.4136854366,-0.3603210034,-0.8499186075,-0.0606081657,0.1021346991,-0.8568350358,0.3311881619,-2.1068238372,0.671527748,0.8640624846,-0.2107925167,-1.2708390536,0.8232729462,1.5664979849,0.2794855074,-0.6548986952,-1.1470015421,-2.0393953237,-0.1227388019,0.0003400425,1.174124213,-2.0942544109,1.1327344874,1.2368037446,-1.9117174066,0.0870810984,0.8299506104,-0.64568657,2.4208735428,1.1816113847,0.5867394631,-0.2194506427,-0.3239945583,-0.9895354202,0.6615987687,1.4612291375,-0.3822625845,-0.6335651965,-0.0067599624,0.0403701803,-0.4638519697,0.0937334066,-0.3244988335,-0.5174016921,0.2033243495,0.6766243273,1.1634009745,0.5766665973,-0.5049755484,-0.0091434953,0.7487458705,-1.413247956,-0.8105718168,-2.6298720435,0.4333240507,0.6727567444,0.9923022392,-0.5822163601,10.9488841166,0.9267839459,-1.1911410853,-0.1450861503,0.4877513656,1.0341944487,0.2947681293,-1.216153274,-0.1796824886,-1.0490295775,2.1839919269,-0.5906873518,0.3002394462,0.0697745867,0.875089981,-0.4150914217,0.8855359096,-5.1878941722,-0.724392437,-0.583631006,-7.9519543996,3.6247593434,-0.9117531537,1.4482707078,0.6855560911,2.487466862,-1.1593532305,-1.7168794181,0.42797475,0.6487700705,2.1991468412,2.5782620367,-0.638768779,10.846325052,0.570002522,-0.6146806089,-2.2628849047,-7.1387558684,0.3282013847,-2.8224733963,-2.1633925533,-0.6926309526,1.6300012579,1.2307134324,-0.201402586,0.1481042429,-0.6393140024,-0.2889606233,3.2842314321,-0.3607840924,-0.5000216742,1.4351629973,-1.1901593553,1.6098650988,-0.1308602028,3.2501443626,-2.0671581357,-4.6485699832,0.1123443274,1.732104894,0.6557688781,-0.1174953988,0.3272560968,0.180251224,-0.680224228,-0.2361709346,0.363251846,0.9877215907,0.3511009324,0.6695802522,-0.6444560456,-0.6185623354,-1.274943189,-1.0459428835,-0.0882727654,-1.057839578,0.163226655,0.1853490053,-0.627020461,0.4718681852,0.1964024882,0.2537442683,0.2285703553,1.0219226978,-1.7392769623,-0.301010377,0.8450743294,0.1256289683,0.8338485904,-0.1623434198,1.3131630055,0.3240057074,0.5171456731,-0.0661095405,0.2532237857,0.6038102706,-0.3218036142,-1.5469726763,-0.7626864163,0.2780166029,1.3216973158,-0.3431756357,0.1048700526,0.5851262259,-0.6259336797,-0.8376503097,0.9915374617,-0.023244348,0.8769505801,0.7325735511,1.2532309645,1.5914475736,1.5874925442,0.86695708,-0.2013302818,-1.1245857084,0.0912932889,0.9231212613,-0.8417035948,-0.8118323594,0.6645472906,0.0451703128,0.2255451863,-0.9060012812,-2.0205073656,2.772687635,-0.2612979058,-0.1196504869,-0.6455260898,0.0157971883,-0.7985058007,-0.4947762269,-0.808909163,1.152267053,-0.5301146364,0.9222080755,0.6022424374,-0.5613374699,-0.658607618,-0.4576907963,0.3944337124,0.047384654,-0.5983125504,-0.1877090799,-0.8463706394,-0.1899808077,0.3884860894,-0.2730891867,0.1615964833,0.1593835176,-0.9561123777,0.548795371,0.1324027816,-0.5188013779,-1.079219801,1.0202369583,1.0396913009,-0.9486199734,0.9463059739,-0.0872177551,0.4018799222,0.0758280158,0.2317975011,0.022192676,-0.4778384082,-0.4475645377,1.7527045884,-0.3562291919,0.7456148048,1.351579546,-1.1736615722,-0.9379408359,0.0407950611,-0.453990783,-0.7859253999,-0.2026788525,-0.8069075403,0.1290461491,0.6519055814,-0.2626960186,-0.0043026745,0.8498924634,0.3976527662,0.0598178923,0.965584249,-0.3657960957,-0.8257727328,-0.4254043136,0.1886028306,-0.0523292374,1.1318532202,-1.5021128134,-0.5040886967,-0.7391571284,0.4708542058,-1.4627320194,-1.2868000517,-0.4026010251,-0.2635049249,-0.868215637,-0.7653855736,0.7746887304,0.5180363632,-0.8559911417,-0.1089995671,0.180792558,0.6416688212,0.046833271,0.0965262818,-0.5641017909,0.376771216,0.0380067124,0.3935930011,-0.7012692371,0.7922245389,-0.6497427014,0.914667855,-0.3150755214,1.4603891446,0.3946217171,0.6849895049,-0.2734700641,-0.015158527,0.3091711312,-0.2109556746,-0.0685834719,0.7695059301,0.4113724248,-0.1037638752,0.7152584525,0.0007070912,-1.4269542507,-0.806609102,0.3198651918,-0.6256166507,-0.9528311448,1.6688140946,-0.1207769657,-0.8304177755,-1.0135174484,-0.342683071,-0.2563300247,-0.6293917882,0.0257725476,0.1916402299,0.2938147523,0.3376023235,-0.0770940525,-0.4658340365,-0.3135418681,0.3681373421,1.3690730811,-0.3713164421,0.2067868024,0.1559662583,-0.1282222322,0.1051967333,0.1514375933,-0.734684354,-0.9533455231,-0.0925220322,0.0730108876,-0.0945884033,-1.0015975553,-1.3801316199,-0.1002801005,1.1195393609,-0.2401948783,0.8474824176,0.3801526278,-0.3237019373,0.36791227,1.0136425518,-0.1836594902,-0.6202768947,1.096555453,-1.3938642765,0.0720765927,-0.7564627263,1.0513545222,0.2744262103,0.3406569786,-1.0891132896,-0.353239927,0.7571780724,3.7535888954,-1.3167562672,1.586239287,-0.0355499685,0.2356367239,0.181046233,-2.9083745242,0.0548556082,0.6415997593,0.6369525372,0.3241460439,0.6663453735,0.0429524841,-1.2787170219,0.4997444696,-0.9609658809,-2.7471923831,-0.566543097,0.1862747234,-0.9807026829,-0.7624689963,1.5679845101,-1.4484008625,0.345671946,-0.2182450291,-0.2529669844,0.7264124485,1.2975738442,1.4879732672,0.6056455518,0.7418172824,-2.4687895396,0.7698140094,-1.0891759421,-0.3781320963,0.347602377,1.1992386777,-0.4326705427,1.2943475422,0.0379697771,0.0798058186,-0.7918214166,0.7615342675,0.1225627068,-0.0884880236,0.990814683,-0.2324897522,0.8423167519,0.428099115,-0.4621920667,-1.516953421,0.0539312064,0.677716059,-0.0332898118,0.5214174165,-0.7848270454,-0.2504714186,-0.8102764451,0.8025884353,0.225782477,-1.0542019596,1.0427861933,0.8098361935,0.2602840985,-0.4957524472,1.4447484382,-0.5468938706,0.579406532,-0.6406042871,0.331397382,0.0707470105,0.7898392147,0.6813589647,-0.0232964648,0.2237624853,-1.5492617373,-0.2499819249,-0.7779814695,0.1315743744,0.2771638864,-1.2649176703,0.6792163788,1.3590654523,0.4375335685,0.2575680966,1.3716729483,0.9133455011,0.2253101127,0.9912195596,0.8939775729,-0.0232245338,-0.5080810698,1.0193384818,-0.0543312621,-0.3894941031,0.0143394019,-0.6329951486,-0.4519767022,0.4299992879,0.657622623,-0.6608342029,0.8306084777,-0.5767611254,-1.0564005028,-0.6661090689,-1.0713774955,1.3265200574,-0.0827348894,-0.9236024258,0.2956411042,-0.2864731732,-0.8343981715,-0.5738763425,-0.7043330766,0.1153982925,0.4815161294,0.6192573474,2.7884490203,-0.1131044732,-0.3846935438,-0.4651588024,0.4416577294,0.419461628,-0.0149294397,0.2800721143,1.4129534216,-5.5631345067,-1.2454147229,0.9066275518,-1.3113274939,-0.0474430135,-0.211681863,1.8184461875,1.95264651,0.6894502014,-0.2138664278,-0.0534513036,-0.0002585809,0.7220821019,-0.7917792144,-1.3681496006,-0.7159479115,0.2340480233,2.4900743007,0.7115864701,1.5878670147,-0.4376899323,-0.3911559551,-1.3993675176,0.8450363956,-0.7857830955,-0.8176760159,0.5224196756,2.8348233127,-1.3507796194,0.9568134945,-0.4960851174,0.6918981697,-2.5954145473,1.1992247046,-0.6529409174,1.4907473487,-0.0275944304,-0.8514546212,-2.0181824508,2.5063721857,0.1065030082,0.3874870731,0.0341686589,-0.8681857607,0.3029431376,0.0585791684,0.5291531401,1.2286469926,-0.2421998743,1.1300403653,0.3350354422,0.7097142014,-0.4139229731,0.6581699326,0.6094353274,-3.5698968178,0.1916276214,0.3813048256,-1.0382644127,-6.9595405149,-0.6346854923,1.0062442813,0.0916689354,-0.8910426723,0.181258413,1.6332296315,-1.5323240924,0.0704141839,-0.023083032,-0.6971885403,0.0747728796,0.7330161388,0.4938543052,1.3268936368,-0.6410418492,0.1018980677,-0.1926176191,-8.0903622034,-7.6267683666,3.0099364828,0.4602541808,0.0750268645,1.836934831,-0.8384618869,-0.731669043,0.6873850645,0.892890672,-0.0654179224,-2.9831315807,0.0537232519,7.4517287116,2.1412257252,-0.1250130159,-0.4357627221,0.3281362152,-0.9137442226,0.1825761997,-1.4111988339,-3.6957422048,-0.3083766495,-1.3964325001,0.7978851626,3.0888634803,-0.5579952878,0.8032541119,-0.2137047039,2.1468258759,1.0643829483,0.3975264402,-1.3139656611,0.3680012648,0.1032650133,1.1117969509,-3.533965124,-0.7685506625,-1.6451466594,-1.0998532902,-0.5733715449,-0.60265543,1.0324185941,1.886972334,-0.9061997129,-1.6795247442,2.9111926456,0.5424249521,0.3588407776,-0.3985766096,0.1087862044,0.8410176493,-0.5617051718,0.5665047957,-1.2099321101,-0.3054612565,-3.2409352294,-0.4528658303,0.0215822742,0.1219721088,0.0042430553,-1.070532534,-0.31515688,1.7630284683,-0.9853203067,-0.5276699336,0.3402103454,-2.0237223122,-1.1496123801,1.2989877818,-0.6197644477,-7.073185723,0.7117224176,-0.27014972,0.5163457693,-0.2023217503,-0.6636883687,-0.072071793,-2.874535267,-1.8445576636,-0.1091730794,0.3170731087,-0.4323448798,1.4541951547,-0.1759827162,-0.6303451719,-0.6418757702,7.3412524727,-1.0078980429,-1.0536816876,0.2202548582,1.1129255318,0.8362472642,-1.3530678068,-0.867386495,1.4189728901,0.3274205223,2.2957474517,-0.3630581268,0.7592532017,-0.596222787,-1.1999267111,-1.0688182259,0.1679512091,1.1858197324,1.2253879533,-1.6287044613,0.8596735683,0.967031174,-0.025023992,-1.0131286999,1.1511975004,0.3813784477,1.1915043184,-0.1864675122,1.3577588205,-0.6044083528,0.4496923583,-1.3102736795,-1.7339555041,-1.2331993027,1.7191327651,-0.5837446454,0.3591244899,-0.3243748716,1.5616726883,-1.4066541949,-0.1914207003,0.1478036583,-0.1156762851,-0.5958691869,-0.7699118936,3.2754844239,0.748847651,-0.5268481633,0.1722334599,-1.8616832976,-0.6790657334,-1.4152700604,-0.5504407945,0.5948283065,1.6553677402,-0.7747399088,0.501952888,-4.1122041969,-0.8056359956,0.0581814679,0.5242450424,-0.5501514271,-0.3041794553,0.8060214081,1.398194914,0.2873564025,-0.8804743745,-0.7215406486,-0.8480880809,-0.0409119879,-0.1537263882,0.3611787081,0.6499833182,0.7861998593,-0.1288542154,-0.5685821407,-0.8584386259,-0.4914409586,3.2716114678,0.9039622033,-0.5828180018,0.8601477205,1.5845279671,0.6288949784,-0.551266719,-0.0580438757,0.7024655412,-0.1911941939,0.0497076847,0.0837570646,0.1752581529,0.5523496876,-1.3107052984,0.8791504968,0.8297328423,0.3203599951,0.2418486011,1.0806217828,2.5743528415,-0.5185378718,-0.2965461265,-1.4273212186,-0.1821655706,0.6594149646,1.9428569152,0.0906347022,0.1627277936,0.4037747761,-0.467224714,0.7044508985,-1.8566236954,0.6582362026,0.830236734,-0.6101061514,1.7420564019,0.9962105234,0.470148819,0.3902041558,-0.573162937,-1.758489143,-0.9869008909,0.0778113607,-0.2843366511,0.2521035883,-1.0708586024,-0.4248462731,-0.3267876982,-0.8242861692,-1.0321571444,0.781057979,1.2391659814,0.4861466272,-1.6365909405,0.3221762258,-0.1860599737,-0.6263117209,-0.3053465534,-0.8497206454,-0.8494162997,0.9047812075,-1.6735335517,-0.9806046026,0.2737206007,0.2147786975,0.5115609364,1.0260546244,0.0164218888,1.1492420985,0.1767384471,0.9413458965,-0.7777587327,-0.3512159981,-2.1867818285,0.3891519863,-0.1328829469,3.5947921457,1.0330139415,-1.5671344084,0.4559072187,0.5561697407,-1.4266127459,-0.5655072426,-7.6321015487,-0.7004586786,0.5750382558,1.4207327515,0.0445396731,-0.0586811966,-1.0391056429,-0.0262140737,-0.7178796888,1.2283491565,0.7912812837,-0.4519361765,-1.5574128396,-0.9033438711,0.2153268282,-0.2290689293,-0.7167288653,0.8667160098,-0.6610557569,0.4738100461,-0.2360211945,-1.1632857671,-1.017793821,0.1807309772,2.1321995705,-0.3961267452,-2.5906111211,0.5525282056,-2.7003975831,-0.6981121445,0.8495297739,-2.7654985152,-0.6337595254,7.9174462292,0.2195367367,1.7875749587,-0.3604112857,-1.6206449123,0.0567975799,1.4182679667,-0.0879503004,1.661782885,-0.9565053906,1.1156694116,-0.2717516385,0.0369439083,0.6067918348,0.9301937457,0.2512991356,0.3536429691,-0.1793375433,-1.2580770744,-0.8121246215,-2.9353501865,0.1083555497,1.0740672122,0.030560345,0.6127712596,-1.7573927369,0.68161695,2.0018960442,-1.8600549488,0.428341255,1.1965940043,0.647962487,-1.3885340302,-1.217739959,-0.903386363,-0.2575641309,-0.5032347049,0.8592316968,0.6020881772,-0.1712563238,-0.8662541927,-0.4024503999,-0.1000828857,1.1960136211,-0.2169987251,-0.0323477107,0.4514271286,2.4454952237,-0.0360491939,2.5996054541,-0.5889249035,-1.4654661479,-0.3053897513,1.0250833078,-0.1224644441,1.4211614548,0.6478858869,-0.6160364108,-0.0894224665,-0.2564423798,-0.1278640945,0.2256765815,-0.7144604732,-1.0982574329,-0.9045108377,1.3127986545,-0.5882110719,0.7949057311,-1.2252983724,0.5552329306,-0.5046289594,0.1257932918,0.9934458845,0.7274464748,0.9601360565,-0.236422694,2.1662091416,0.4486924901,-0.4184209853,0.1470069512,-0.7510786612,-1.0139911304,-1.4790089441,1.0113745944,1.2292593228,0.3938202518,0.9703983658,0.6215242967,0.9068890654,-0.5239169325,0.8891047969,-1.8066523794,0.4932226183,0.8634680988,-0.7950314024,-0.2849233672,1.0634428149,-1.0578978802,-0.39802397,0.0035631735,-0.3202336542,-0.0114638438,-1.397520918,0.2062693431,0.8372842746,1.1950721896,-1.5009328885,-0.5960435347,0.4719372906,0.6499104113,0.8782406682,-0.5407148761,-0.9272205813,-0.3461073931,1.0984158663,-0.2674491813,-3.4222842469,2.0807932336,0.0906026454,-0.5155298504,-0.8435533587,0.953796863,0.4456279763,0.0360621907,1.0749046904,1.0063401235,1.6392687162,-0.7000198542,0.8921307305,1.2481210595,0.7742243936,-0.2874235946,1.4542653212,0.4381815032,-2.4733530655,0.4911725182,-0.9593137612,-0.6368532786,-1.2574664229,1.3234417773,1.0815793407,-0.5702475188,-1.4705326106,-0.1310600424,-2.0569162005,0.8074678669,0.2317382266,-0.5608734009,-2.7162753528,-1.0750908153,0.8211348167,0.7448229632,-0.1989357394,1.3471365007,-0.5641602832,0.0827480029,0.7239562951,-1.1652949073,0.266745099,-1.0299178437,-0.197420459,-0.750515804,0.0477856254,-0.1455429043,-0.3487995466,-0.6098901895,2.1386851848,-1.4612610184,0.3231883629,-0.1980949784,0.250822091,1.0606586219,-0.081243484,1.8829484819,1.0726439148,1.2028192457,-0.5754539106,0.1079821657,-0.280902916,0.0417915189,-0.1320450481,0.4826043374,-0.360955625,-1.9554797734,-0.4423860724,0.2867206173,-0.1131363936,0.1247131863,1.2683529761,0.4061538571,0.3937457513,-1.2669186129,-0.9930046745,0.1967268766,-0.8978281317,-0.5952229428,-0.1517255979,-0.0472707568,-1.6138158592,-0.5030530912,-0.0806027313,-0.1488073003,-2.3138525609,-1.3193525786,-3.4593308605,2.2706259179,-0.6161632007,-0.9464768537,1.1167275125,0.0190261282,-0.6287214793,-1.5137197155,-0.7596473297,-0.8573163335,-0.2711318751,-0.0788669137,0.4542375198,0.7685859873,0.6916302279,0.5550142196,0.0667762755,-0.447417754,-0.4226880056,1.0555472272,1.419392385,1.1939910168,-1.3771679033,0.613343327,-0.3578194123,-1.4899959783,0.0973147257,0.907159193,3.1725610377,0.4954861798,1.4162085499,1.4669059481,0.3477360593,0.4801070864,-2.1731147195,0.1006962329,-0.6126836043,0.3917981063,-1.2864556022,0.3068305653,-1.2592202966,-2.5942883719,2.0382419937,-0.7768017567,-1.4772059854,-0.6708301221,0.0733674512,0.6312199808,-0.3798007919,-0.6200758425,-0.3851188491,-2.155362903,1.0445337366,-0.4529164655,0.4907463921,-2.7933317883,-0.0044234358,1.1376109103,0.0422543536,0.4686574347,0.2072858038,-0.6475096606,0.1582287838,0.1343881124,0.5970308214,-0.5597729193,-1.6587933006,-0.6327912609,1.2922349345,-1.2362941014,0.8742785089,0.7405588364,0.9973370623,-0.7475855049,-0.0624844208,0.3932310476,-1.0355960281,-0.8379033124,0.0403262649,-0.936278074,1.4670848869,0.2936970079,-0.2738048706,-0.1869812629,-0.3107742231,-1.1966628721,-0.0640395874,-0.2582727252,0.4928827956,-0.3721746996,-1.4832290064,-0.4863229833,-1.4187613176,-0.9805506402,0.695151526,-0.0383585255,1.0143612546,0.0835465379,2.1520684821,-1.8231372685,0.6189528526,-3.0374587908,-0.0565158812,-0.2406988279,0.501211294,-1.2595122107,-0.9886455681,0.0646347263,0.4264222986,1.2467421875,0.8248054707,0.7594042625,0.6991511483,0.6464835621,1.3964359309,1.2540253567,-0.3512397774,0.4801260648,-0.518985488,-0.1687863971,-0.709923133,0.3576146975,-1.1285508725,-0.8191979181,-1.0489636513,-4.8246973328,-0.0356317207,-0.0677054098,-0.6121864466,-0.1641566211,-0.0488031433,-1.2917865127,0.562279879,-0.0560033514,0.9739345398,-1.2620578924,-0.1820639445,-1.6527153981,0.7303312299,-0.5657996932,0.9650889333,-0.3738621146,0.0775428159,-2.172842423,-0.186005698,2.0531996103,1.0981697334,-0.6308365325,-0.3482765049,0.0904564304,-0.1712743945,0.8744191761,-0.8121596574,-0.5715944705,0.0679131321,1.0082780075,0.2037707429,-1.0309494774,-1.5331778012,0.783846079,0.1849519056,1.2539441201,-1.0132672247,0.9177049421,2.7861788906,0.9075081513,-0.8230796556,0.7057937966,-0.2609811598,0.3220305474,0.6783646495,0.8570576913,0.4222784412,0.2456271673,-2.8731419856,-0.9084508556,0.3406311287,0.2342923755,-0.9662113254,0.5812015634,-2.7914863858,0.212190766,0.1046530302,-2.8993506313,0.7850501182,-0.3791424731,-0.3511178838,0.5044813884,3.9402737708,0.8943242455,1.6020770053,-0.4911502921,0.621855311,-0.1671568107,-0.3386484346,-0.5959449422,-0.0165291819,0.5102316624,0.20370123,-2.0362948,-0.0344134169,0.4798474286,-2.6477607599,0.5877940048,-1.4048971004,1.0055222948,-0.5996044231,-0.3873931804,-0.0211712823,0.0111795018,-0.5070786716,-0.1096012789,1.1671226804,-0.5928258219,-0.7786336696,0.5885359934,1.7480106831,-0.8955085985,-0.9501902947,0.5956269784,-0.7256714904,-0.3444447343,-0.298744451,-4.42567818,-0.6945385603,-0.4005347506,0.7798166371,-0.9261980971,1.1710401589,-1.3682523695,-0.9530329939,-1.2493580279,-0.0320338647,0.8190214911,-1.3382974226,-0.0609515214,0.0147422887,1.6212091736,1.1353082375,0.8356411798,-0.2064379226,-0.1245270709,0.7450075808,0.7600804543,0.3180737864,-1.1296623957,2.2384034847,0.8024790171,0.8949411067,1.8226972687,0.7566959902,-1.1928148403,-0.4148839944,0.0877459948,0.3094810325,1.7503204262,-1.6447548295,-0.9912302982,-0.335251487,0.0516220941,-0.1022793129,2.8821864282,1.3010807912,-0.5717773226,-0.1387784392,-0.4195516668,0.190411122,8.3764002815,-0.4837421318,0.2420904873,0.7486083272,-0.571880803,3.909838723,-1.1499853901,-0.5643106742,0.4036367229,-0.3133867217,3.2028210367,0.9478085059,1.6083611125,1.1447991712,-2.5485178752,0.5980782103,4.7225428059,2.4224972866,0.6434556261,-3.0479703001,-13.0947218505
   -1.770920734,-0.8644601692,-1.0148118309,0.8711661289,-0.0108218741,-1.1102689507,-0.1083391138,-0.6743125102,0.5805922295,-0.6726422183,-0.9022454685,0.7981737552,-0.9591623023,-0.3133364,0.0379594273,-0.3329517611,0.5107620467,-0.9779652487,0.322671364,1.0463650691,0.275060131,-0.6024730212,0.4594792604,3.8944011406,1.4174880686,-0.7135276092,-0.7227759463,-0.5947411588,-0.5735656645,-0.2053644314,-0.3143471522,0.4648626021,-1.0225736852,0.3906900792,-0.2590406766,0.9882304674,0.3124063015,-0.170400318,-0.8256354871,0.926098735,1.3181913568,0.6220814301,0.8292661072,0.5474564246,0.9294499274,0.3548803682,0.0233646098,0.6286628393,-1.1309116209,-0.1964261827,0.0365739346,1.0368752979,0.2294888368,-0.0376963595,-0.6886660783,0.5356709719,0.3474745505,1.3023636537,2.5823410998,-0.7427980277,0.7152257373,-1.2239104002,0.0538738136,-0.4480615346,0.0549379511,-0.3145124364,-0.7365894842,0.112667724,0.692593944,0.5170644974,0.5092364764,0.0763584627,0.4097098167,-1.0552436576,0.6826559683,0.453224101,-0.3551897825,0.1717507194,-0.4342040855,-1.097843315,-0.8987271086,1.1324734322,-0.5094565853,-0.8514891733,-0.5765436851,0.6389402547,0.5410888048,0.7920100227,1.6840802335,0.3771930669,0.4776716062,-0.4442678064,-0.8152084532,0.5359881717,0.5342490848,0.4743777781,0.5203343369,-0.4864767765,0.1842898953,0.5672200032,-0.4871055835,0.4122612928,-0.9141802681,-0.8556967474,-0.7261584269,-0.0901287949,-0.211225283,0.3321340478,-0.0489062638,-0.9817147205,2.0568011567,0.8436806564,-1.2570118914,-0.2921759195,0.8476894467,1.8823742107,-0.7248993666,-1.1456076105,-0.1823891699,0.7062916562,-3.9913230575,-1.5583163343,-0.7691276242,0.2659778164,0.5708600077,-0.473131123,-0.528669988,-0.3196059198,-0.6441385042,-0.1163194504,0.6217750722,-1.5654266223,1.8476180635,-0.9751413855,-0.2010392218,-0.3401013774,-0.8071690929,0.2651133853,-5.0543760655,-0.1239676272,-1.7094526782,-0.0481766745,-2.3414816694,0.708271792,0.3324718268,-2.9690663078,-3.655932583,0.6771094281,-0.7315311551,0.0995861581,-0.1097511514,0.7271226858,0.1757189427,-0.4110765364,-0.3731066345,0.4213673173,0.3806915348,1.6755315507,-0.5893052674,0.6501447932,1.112428821,-0.0284709647,0.7032410544,-0.9165531969,0.8466104577,0.8357625111,-0.9005095677,-0.6596303881,-1.530695934,0.4522100854,0.0531703527,-0.6897010679,-2.6043113801,-0.2042836507,0.2623876368,0.0515060728,-0.9842309249,-0.2366250481,0.6003739696,-0.2538703802,0.0334500639,-0.772111631,-1.3901021702,-0.7686933727,-1.6649152311,0.4376735359,-0.6076394159,-0.7588037196,-1.4151678366,0.2613721017,1.6544006406,0.0385194059,-0.6700947633,0.2846180566,0.1439693281,0.9873501675,0.2317863337,0.1297138465,0.4533852972,0.5718568356,-0.7964979501,-1.0417305512,0.3554226461,-0.0512154044,-0.0929288798,0.8903888723,-0.3310504348,1.781502782,0.1598650154,-1.8704847704,0.2973546991,-1.1274565616,1.2443082841,0.7837854598,-1.1982265179,0.8674243164,0.6098431535,1.0887704821,-0.2059054945,2.6317425035,0.1372039911,1.2104639695,-0.6395377411,0.9911669789,-0.3147699466,1.2745907093,-0.2151588853,-0.9184595527,-0.2214178849,-0.8501042271,-0.3237873011,1.6715834366,2.0322057369,1.4234810666,-0.9463364223,0.1161995157,1.4088716186,0.3669383762,-0.8177681191,-1.7424810138,0.751685641,1.4899429414,-0.199842478,-0.7694451066,-0.9567450185,-1.0475039824,-0.1282296469,-0.3396784375,-1.3226271562,2.4219700326,0.3310995806,-0.2403365189,-0.0069079327,0.3846909073,0.5326538838,1.2949371909,-0.3881850269,-0.325976264,0.1652216654,-0.0760699613,1.4479695409,0.768514846,-0.4803204979,0.7759502017,0.8069575078,0.0512392441,-1.7074914814,-1.1557448962,0.5009289663,1.63529765,-0.7774173007,-0.2399395583,-0.8609118696,-1.3184567294,0.9662666093,0.3003973253,0.6488303284,4.7587852981,-0.0265024605,-0.6128959833,-0.4154622254,0.3825530805,-1.30980972,-1.0818124749,-0.040127605,0.0260993395,-0.7251246212,-0.0622646385,1.6187633822,1.2143748568,0.8422100342,1.03465402,-0.7062113669,-1.6051971244,-0.7010290333,1.4795707025,1.497913892,0.4402575887,2.6069828933,0.441877455,2.0422994565,-0.0153916489,-3.8445622388,-0.2403864297,0.8950809004,-0.268881782,0.3885229779,0.7732295677,-0.0861397522,-0.5557475038,-0.1103211845,-0.0543807027,0.8674596993,-0.5542302393,-0.3127416944,-1.155989786,-0.1002228863,-1.018675993,-0.4804784409,-0.0837167838,-4.2594651389,0.7897149192,3.0893465523,1.2077814737,-0.3988942859,0.0252195722,0.8831002657,-1.1577722779,-3.0967851181,0.7158989756,0.7302953775,0.4989538828,-0.0180945985,-0.0834745168,-0.3182147203,-0.7695390544,-1.5047178012,0.1014833907,1.6833124901,-0.3013222825,-1.0045904665,-0.0451823368,0.2235934928,-0.4482606801,-1.1003221018,-0.5582537176,0.8737956796,0.8833244513,-0.9259713894,-1.4519710839,-1.0779320086,-3.2601289952,0.0266296801,-0.6066315015,-0.4494290487,-2.2256529819,0.0528261265,-0.5024399891,-0.1075427766,-0.2502100697,4.4202931536,0.204467991,-0.1090115802,-0.3417609951,0.9064642399,-1.0879122544,1.6558680235,1.4977336993,0.2756388272,-2.3800653464,0.8591460571,-2.3765066281,0.1314716633,-2.8691751154,-1.0705491356,1.6930969515,0.2692150318,0.0952405464,0.6953687234,-0.6486049966,0.1430411611,2.0763540833,0.8760287227,2.5938437988,0.9532023141,-0.6576085278,0.0482488459,-1.1271738277,-1.5838519341,0.1697622435,-1.2815268603,2.5150486184,0.7925526163,-0.5675927706,0.5547279268,0.6688542165,-0.5276321802,-0.3822240944,-1.169242327,-1.7442563604,0.6988729236,-1.4140482424,0.7464622203,-0.7484238703,4.165678163,-0.7579996553,-0.0626488711,-0.684613909,-0.0104751697,-0.0700878277,-0.5641803899,-0.0235258704,-0.2046837462,-0.7814306183,1.5716302974,-1.9918200802,-1.1946958051,-1.0480881595,-0.3473475977,-0.9085240726,-1.3919376267,-2.0595562967,-0.4623182625,0.9250701316,0.4008131764,-0.9815860028,0.9582577228,-0.7652663228,0.176009263,0.8883862317,-0.2397584474,-0.9994154594,-0.6471904192,0.5909419236,0.2346237648,-0.572059481,0.2846480618,-1.6788422023,0.0954981323,-0.9252949665,-1.6076539841,-0.2138703154,-0.2536047226,0.4965704016,-1.2307608634,0.8827918872,-0.7524504402,-3.8679456189,-2.2005146595,-3.7347973709,-0.9386703783,0.1459775213,-1.1262297274,-0.7812221646,1.0508961277,-0.3419807892,0.0088253621,1.8871834068,-1.2166095132,-0.4491691115,0.7976759746,0.1080454164,-0.6052420031,0.996036211,-0.8579186581,0.5759141364,0.1487732365,-2.0861934061,-0.3740871318,-2.1535334368,-1.2693166028,-0.7725160986,1.3445262553,-1.1839972173,1.4073863363,-2.4559369402,-0.0992974963,0.0442748394,0.3759547005,1.8764392572,-0.2841890176,3.4350986202,0.3274884457,-1.4667648682,1.2981979056,1.6079500381,-0.7967384339,1.1081870718,-1.673051605,0.3894899113,0.4403209287,0.0066360103,-0.6127521878,0.6214218179,-2.2513751369,-1.1115740263,0.3933570124,-0.3533889782,1.161914071,-0.0629074208,-2.5092995314,0.8402867757,-0.082832058,-0.2683075617,0.3743442262,0.1836782239,2.1561460234,2.5572589155,-0.8738294878,0.5382942651,-0.0368954126,1.1863216958,-2.3482560174,-0.575488037,0.9024020233,-0.7067496447,-6.3006532972,0.3867425009,-1.2341272369,-0.3971028525,-4.2623902928,-0.2096015949,-1.9844562806,-2.3664507559,-1.52215076,0.0413022276,1.2973523046,-0.1954611706,-0.3579895843,-0.0681763908,-1.1819807892,-0.7761816586,0.8869762499,-0.6814037479,-1.9600533812,-0.9690164125,-0.7594113763,1.0805659758,0.4441365304,1.7071100089,-0.2418877483,1.7538293105,0.4628831842,-2.1069887112,0.558828939,-0.2249808341,0.2615347091,0.4619498592,0.7847988114,-0.0159482995,0.4237304783,-0.3088823859,-0.7229632647,-3.1141890231,-0.4105734016,-0.8538354447,1.0601457611,0.1020225345,0.4252687976,0.0358190264,0.4050948605,2.4372839497,0.1025283427,-0.2148381392,-0.4077618408,-0.1951441455,-0.2079671974,1.5089565304,-0.4538746992,-0.4809535796,-0.5891691207,-0.096696995,0.4525330205,-2.9079914274,0.706177397,-0.3275660263,-0.3409213335,-0.3961805324,0.4800989244,-0.1230183649,1.0008274262,1.2540187012,-0.7977296675,1.2674763,0.0167472937,0.3572595034,0.6163014389,-0.3155989675,0.0113528545,0.3699419405,-0.5597821997,-0.2555636544,-0.419489935,-0.2499045084,0.6640405852,0.4318481823,-1.1419046821,-0.6871396201,-0.951017254,0.4555100874,0.1885307819,0.9373179819,0.0883878641,0.9877108459,0.2855683126,1.5508378701,-0.682423114,-0.7236073182,-0.7786656987,0.1197163767,-2.4393763953,-0.8921667083,-0.0005306094,0.2073537732,0.1316089164,-0.365931292,-1.3529777209,-0.5967661579,-0.9950898091,1.0204417739,-1.1805110507,-0.5601826348,-0.2300539189,0.2284474545,-1.2395052627,0.0465528806,-0.0096848835,0.2975469778,0.5687198566,0.3911650018,-0.2054394994,0.322306016,-2.0913905415,0.5570120034,-0.5356738879,0.8998437201,-0.0108257328,0.3283229983,-0.7724572363,1.1313250446,0.1178361872,-1.4628415396,-0.4700297606,-1.2847494591,-3.1969937643,3.4130000424,-0.0678486437,0.7332921945,0.824828352,0.3394803799,0.355579858,0.130542131,0.9985890382,-0.6313688948,-3.7147368722,-0.7038902406,-0.8563554385,0.5453919477,-0.7413076631,0.1718075114,1.3888297029,-0.5975914295,-2.3285022792,1.288085087,0.6489392528,-2.0043986566,0.2522730942,-0.7304908285,0.4757796204,-1.2378623196,-1.0121601243,1.7581146751,0.3205139487,1.2745338326,0.5171028233,-4.5961560158,0.4754989588,-0.9250260255,-0.1545459351,0.7545269035,-0.6950369626,0.2434904224,-0.4920912555,0.1154003654,1.2720168781,0.5295404702,0.4243404269,0.8500068899,0.2640368998,-1.2658340581,0.6830115021,-0.4546840347,1.2023385124,-1.287056419,2.6207458796,1.6057505636,-0.0984495389,-0.6638470469,1.1543589007,1.2062381213,0.385421165,0.2696302431,-2.2014697308,1.1831288532,0.103718723,1.5344355314,0.8290500395,-1.087945577,0.2246014515,1.1330963575,0.8278377834,-0.9343317203,1.1202947619,-0.5483839704,1.504401571,0.2669264811,2.5922311858,0.4103176345,1.3932873423,0.3931392751,0.2182671049,-1.8941208323,0.7580883346,-1.9656791808,-0.3990577453,-0.3080640918,1.4817426081,-0.4695708668,-0.5226061136,1.8107594454,-1.1003363338,-1.0330101092,0.3089963013,-0.665828781,0.0767516546,-1.940822321,0.4482865458,0.5353269879,-0.2822748508,0.8717074659,0.7032399641,-1.3756605086,-1.3258114258,1.6904687959,0.1395896236,0.0397480885,-0.580825019,-0.0293107889,1.3172840828,0.9445238435,0.0642823003,1.4128541843,0.165240999,0.3541672928,-1.6516084762,-0.5344749756,-0.113473299,-1.7165359919,0.4318898432,0.4120431319,-0.5767207723,-0.3294327888,-0.923942961,-1.1566239749,0.846213706,0.7344304214,-0.9386876026,-1.2032139903,-0.8909908838,-0.0919416719,-1.136215353,1.5502191298,-1.2328439214,-0.1775974581,-0.1022212297,0.0891475239,-0.9209082557,-0.8027391325,1.4329152687,-1.0870108634,1.2197892563,0.3910341927,0.7544061158,-0.1894779723,2.3059836923,1.6863954017,2.1255007598,1.8286283361,-0.2710641251,-1.4086501821,-2.6891031819,0.0224818732,-0.5424185189,-0.3715258143,-0.7352744344,0.4825508474,0.5583290173,-0.2696700327,0.2764428332,-0.3941652164,-0.2598309771,0.1663709053,-1.2411511368,2.073004965,1.0578654539,1.2117531327,0.4294450159,0.8592477291,1.4586731441,2.3465954996,-1.9340491499,2.169295908,-1.0905195636,1.4884715426,-0.243263595,-0.8945714633,-0.4160780882,1.5341483233,1.1725711537,0.9570643437,1.6594634877,1.576009902,0.6733200531,1.4886450213,-0.0381244629,0.7056514558,1.6578736896,-0.8226661478,-0.2254332366,1.4421520179,-2.0737355638,-1.29026643,-0.1012990971,-0.3982327386,-0.5063076376,3.1555288187,0.1365960232,-2.3638115001,-0.6864099448,-0.7943418854,-1.5975112064,-0.456864551,-0.1297187364,0.146518595,1.2944658156,-0.1682126916,-0.0628940163,-2.1826328841,-0.2475526438,2.8635504719,-0.1009448234,-0.2006109578,-1.2965316759,0.3683781224,0.8447393256,0.1526384154,-0.6768115885,0.079629588,-0.2946337219,0.4018659024,-0.2808214365,-0.9670393456,-0.7703293363,-4.6104234723,0.2044231121,-0.6346777342,0.8114597635,-0.1314894199,-0.1046975331,-0.876707827,0.5491108015,2.3768021345,-0.6572474167,-1.5766084862,0.067376851,0.6084919421,-0.6126086386,-2.1539159232,-0.9238357663,-0.3273769132,-3.5254071695,1.8526614508,-1.62744323,-1.311076452,-0.3170593655,-0.1883144005,-3.1088851885,-1.2752568348,-0.030036224,-2.0425568367,-1.8841105312,2.2347673963,0.5641513925,1.018819884,-1.9897238018,0.3791036256,0.5379907987,0.8019407193,7.7545018952,-1.4207478995,-0.9619797338,-0.0138411085,-0.864450813,0.6674601386,0.5548123929,-1.4250628906,-1.3438410829,-0.3201212449,0.7938734289,0.5785607622,-1.5212234752,-1.1861783937,0.1382273044,-0.0824068407,1.70104462,-0.9821532371,0.4399057741,0.3378232704,-0.220201883,-0.3802840349,-0.7930517107,1.1614837159,2.3156687491,0.3808475175,-0.1385487994,-0.6539548847,-3.2047037273,0.9913934619,0.5167447324,2.722703896,0.8292174376,0.1172513194,0.6043620808,0.9443017145,-0.4000387572,-0.8223024619,-0.137371511,1.2303937746,0.5180681384,0.6126102,0.643952055,-0.663691289,0.0518745315,-1.3125330564,-0.1441892476,-0.2868676038,0.6225870214,-0.2965500123,1.2718507027,-0.6649366472,-0.6375704135,-0.2915193759,-0.4391326308,2.0445878561,2.972725756,2.7720614386,1.0170698002,-1.6187071803,0.7377185371,-1.4139738686,0.7586306422,1.1884156794,0.3705589154,-0.8367584068,2.0992910572,-1.1554357722,-0.4841344325,0.6726194585,-0.900573806,-0.3074024712,-0.1554461111,3.9275965623,0.2222740049,-0.4686740107,-0.1213456727,-1.6682250852,0.5776308015,0.8992796591,-2.1964402158,1.253933964,-0.1486714877,0.3157223385,-0.687063849,-0.2445283334,1.4097509563,-0.3650160579,5.4255514782,0.038526404,0.3108176438,0.4982089678,0.6077056453,-0.9910213321,-2.91319202,0.0194464675,-0.1598263063,0.3071508068,0.5682771645,1.408368787,-0.3054689301,0.5501119426,-0.1910891821,-1.4023927183,-0.4493387567,0.3681899467,0.4706159261,-0.2175993823,1.38293076,-0.3226601975,-1.2257489262,-0.4875752951,0.5168942709,-0.8439489697,0.6612789001,0.8337619623,-0.5541430927,-0.6609066406,0.6115425819,-0.4820947135,0.831563416,0.1734837257,-1.5141035039,-0.2868257179,1.7593175114,0.9903795311,-2.4720032639,1.2694652969,-0.5485818169,2.1591217894,4.1225549322,1.0159154893,1.2280058273,-1.1073108755,-0.2540803836,-0.0630076464,0.6006143274,-0.2218907524,0.2540521908,0.7241234134,-1.8550199965,0.5562967022,0.2888082527,2.835726804,1.3651021077,-0.6133419002,1.3584410847,-2.8559904164,-0.4188535918,0.9647430581,0.1778840147,0.0841716438,-0.2812312805,-1.2463681264,0.5064540165,-0.0585630097,0.1087964222,1.1320164347,0.2157358659,1.4046726933,-0.410633121,0.9517948722,0.9552608395,-0.4733340974,-0.794336949,-0.3087676547,-1.1013484492,0.079994315,-0.2971908229,0.6756765297,-0.2366736376,-0.1809895334,0.2422874621,0.9689936496,0.827685429,0.1761725164,0.4482327587,0.8802487614,1.5925401097,1.1387828761,-1.0919621528,0.677882805,0.3665727759,-0.2111814433,-0.0249709821,-0.1114105047,-1.320895816,2.8795017087,0.9940427256,0.1902494423,0.6447377387,0.6127002805,0.0917711906,0.0548790506,0.20224942,-0.1036563203,0.4293017607,-2.0944388009,0.8303295173,0.6558059689,-0.3456940506,0.0835251585,-2.6246268174,0.530914231,0.8988126399,-0.7754651343,-0.3668652607,-0.2691783639,0.0570929925,-0.1881945571,-0.0756701535,-0.4436396173,-0.2535042424,-0.0618016273,-1.1318944852,-0.48065602,0.2170154019,0.5511791616,0.6086321294,0.3743326359,0.67181827,-0.9438175791,0.8616437723,0.3997502728,-0.082649485,0.842885631,-0.1992784416,-0.7282302669,-0.3185206037,-0.5550217024,0.2113080356,-1.2574382309,-0.0658548847,-1.8207396784,-0.2518509275,-1.8760897422,1.2629954859,1.3364940649,-0.5561444614,0.8212793903,0.5415608489,1.358399386,1.5896644454,-1.3947738446,1.2505067744,-1.0998942484,0.5280431562,0.6793381036,-1.6727122788,-1.4649946138,-1.0679014747,-1.3093789252,-0.1207550831,-0.4520166014,-0.4373676783,-1.5813893229,-0.9904981728,1.2075853726,1.6644810333,-0.3925553765,1.5134521259,-0.1786467762,-0.7934623278,2.8673188949,-1.4996023769,-0.0214833726,-0.4737855919,-2.0924645516,0.2684519082,0.53704394,0.0167349409,1.7602271944,0.8242246416,-0.5213608841,-1.0184788244,0.8233533764,-0.6983594753,-0.0946289073,0.5652136185,0.6842556718,0.1485619019,-0.1608387101,-2.7032507192,-0.0506849186,0.0822445266,0.5511442207,1.3317138884,0.2365177858,0.6346359982,-0.2212541457,0.1906994903,0.0786176106,-0.0287084925,-0.8256651236,1.0819839342,0.1426729586,0.4169099506,-1.0742505504,0.4821235879,0.5118458686,2.4745319722,-1.5476707051,0.0517641937,0.6550985289,-3.0701577238,0.8380729021,-0.8405760353,-0.0577562349,0.0486010356,0.6859910404,0.5300604058,-0.1745958772,1.2594670126,-0.2723065269,-0.064068129,-0.4130770471,-0.4657896764,-1.6399218073,1.3224827367,0.4206877069,1.746542495,0.7297106976,-3.311954995,-2.0926474619,1.038137054,0.4787909948,-0.279041779,-0.9091375641,-0.156546805,-2.3719732202,-0.0520521516,-2.4840978865,0.9025070421,-2.1410935518,0.8931082917,-4.535436369,-0.3958878461,-2.9435763716,-0.5228332765,2.3385590706,-0.176735027,-0.3420640272,0.7445768972,-0.6853166006,-2.3151585789,0.7433252907,-1.2434282129,-0.5767567002,-0.7039252698,-2.263511825,-0.5966200256,-0.4481759886,-0.9840432772,0.2992590264,-0.9989294485,-0.0509711557,0.3754564546,-0.8185723595,1.2140474719,2.5227230065,-4.7913349541,-0.2845830451,-1.2087265147,0.8102446827,0.9331349735,0.0393881506,-0.1658406714,2.7558131166,0.6088328456,-1.209914768,-0.2716470246,-2.1115672443,-0.4459701547,-0.5112944835,1.0043570589,0.9766899575,0.4104092037,0.0386911094,-0.996399156,-0.6757965712,0.6508372769,1.7488789327,0.8014905447,0.1410979257,0.061287273,-1.8264916608,1.0750994611,-1.4324224186,1.6476386896,0.2487709434,0.2183118561,0.9250079789,0.2443769046,0.0920141698,1.5727601503,-0.3336174108,-1.3221325849,-1.5831101917,0.3318811325,0.5297356861,-2.1518320556,-0.8515514604,0.6396585512,-0.2738244041,0.1122510079,-0.478895354,-0.1094923382,1.1012551371,0.8762383639,0.2657329183,-0.6962416092,-0.293309659,-0.2197101196,-0.4333575175,0.2242517043,0.134945607,-0.2210433113,-0.9598532595,0.2197326627,1.158069288,-0.8845043363,0.8021777736,-0.3008783704,2.0878981955,2.3388734764,1.2511802335,1.0151114178,0.9183822774,-0.1468299946,1.2712908119,0.0647560504,-0.2693791277,-0.2706254742,-0.0105228787,-0.7764845378,0.6898596424,-0.3947659214,0.0696846507,0.2904477475,-0.1575922452,-0.9289239152,-2.724475585,-0.9115657244,0.4257465092,0.3790661661,0.4259492185,0.4688234155,0.5525845963,0.0082245251,0.5569206874,-0.6880975166,-1.8586910001,0.900858248,0.7690318748,1.1373328985,-0.2913139692,-0.7445571614,0.9311639896,0.5871640821,-2.5054398247,0.6489522683,0.9335942523,0.1304519956,-1.1941901624,-0.7936809536,-1.4604586359,0.163698495,-1.1301619092,0.1434666399,-1.3050796136,1.1070490589,-1.1081297293,-1.8595760239,1.0579278544,-0.7829273072,-0.7011424728,-0.9523857432,1.0058192807,-1.8033752177,-0.8425721347,-1.5919965173,-0.3717684724,-0.5982652214,0.7789149986,-0.9102078525,-0.9699660803,0.2234590207,0.6052150555,-0.0320664673,-0.8467107421,-0.6224364883,-0.3018598224,0.1470789238,-0.6516784526,0.1262496932,0.120719391,-0.2749381519,0.6479138023,-0.0876534559,1.2676280804,-1.6371307012,0.4959302673,-0.218929565,1.100402475,0.5625679512,-0.5146078861,0.4413200226,-0.057392209,-0.4776866468,0.9189955541,1.6214771891,0.6899115928,-0.505159328,-2.830294398,0.0722534082,0.7666818597,0.5530765537,-0.070805674,-1.4583686135,-0.7518116612,0.2559568618,0.4321664782,1.0020463047,-0.3273957117,-0.0982054361,1.1579410228,0.4374823875,-1.7370739939,0.2969223176,0.4878324591,-0.1886269635,1.3052513003,-0.9074356113,0.9536751127,0.3933642694,1.2744901325,-1.0067982419,-0.4958259121,0.2303788641,0.1859805406,-1.3313645179,-1.246537384,0.0915406292,0.4769558696,-0.0634352377,1.045445651,3.6548578301,0.1143819924,-0.1392229144,0.2996652737,-0.6438314082,-0.0122291555,0.359308687,-0.4348418234,-0.2977997659,-0.4101863392,-1.5976826555,-0.90288829,0.2829591076,0.9382958805,0.6958056413,-1.2698168334,0.0673747353,-0.2566459677,-0.3739577971,-0.056644814,0.1502777832,1.0138190019,0.8397596965,0.2094959204,-3.1032025342,0.03425764,-2.2475631112,0.3582134058,1.0454250825,0.1327543235,-1.4357362839,0.3707519632,0.8897052147,-2.8035078299,0.3167419226,-0.149040778,-0.5585747018,0.2327372015,0.1546997366,-0.2358046578,-0.3854416943,0.0819703855,0.1542773919,1.1747121474,0.6397101423,-0.0686276846,-0.567057223,0.0084891403,-1.6402403341,-0.1338616743,-1.6920276901,-1.4111232422,-0.6361404809,-0.5532939441,-0.1829977101,-0.8057443945,1.9309083839,-0.4087198532,-0.6202770496,1.3847147266,0.3690576068,-1.0144920333,-0.9730439208,-1.2622323575,-0.5380191584,-1.4856230461,1.361623733,-0.0507662374,-0.3839969455,0.5024973087,0.0538916441,-0.1781560573,0.0039169209,-1.4215089575,-0.8225502739,0.2041320098,0.5922042518,1.7158995045,1.3581315287,-1.1192680915,-0.8716049651,0.0292918006,-0.1918596905,-0.5802979421,2.7406778896,-0.1486366527,0.7836164209,-0.5117919165,-1.4650014701,3.3628731252,-0.3462035232,1.0365700137,-1.4651570263,-0.8733764497,0.0863640377,-0.7354351532,0.4771566229,1.9723253608,0.5053887306,-0.2650033174,0.3507503262,-0.162953544,0.6936044573,-1.4439626787,-1.1541691763,-0.4538993904,-0.6304034265,-0.3093201424,-1.9877992938,0.415357354,0.9098135874,-0.5473413308,0.3742577,0.4789234622,0.5120803479,0.7081451224,1.4664599971,-0.5924787385,-1.0650668924,-0.3735792427,-0.3647758839,0.3147651821,-1.203576438,1.0979063714,-0.2728665724,0.2967301658,0.6440711902,0.7428917865,3.3243800032,-0.0051984116,-1.5416365345,-1.3277444633,0.7965603373,3.4924434129,0.7979399785,-0.0316698709,1.3119623983,-0.2999770035,0.0314796974,0.6248977305,2.5395548933,-0.1096655642,1.1623981758,-0.7746781614,-0.8304984764,0.4749341354,4.8023404817,0.466675327,-0.2470240699,-0.7607662835,-4.9443960614,0.6495542496,-3.2598127708,-0.9838046207,-1.5697692357,-0.4478186497,-0.3955821454,0.6516217312,4.0765204074,0.5958643689,-0.5440845665,-0.154901948,-1.6462173773,0.8972556114,-2.3178300055,-0.7739764159,3.9251594922,-0.5001171554,-1.1388645357,0.7679802971,-1.7582761823,-2.1855388492,2.594325053,6.0346973325,0.6802709068,0.7332077,-0.2632603544,1.7454399405,0.0353963859,-0.1587923638,1.5813321696,-0.7262370695,0.2678827371,-0.5702734844,1.2938153525,0.2069724978,0.4548095112,-1.0438241672,0.0490494246,-0.7017942503,3.0630743072,0.4376659052,0.3232909442,0.3131535248,0.7297079131,-0.7985270576,-0.3013531283,0.681710673,0.4951333192,-0.252225923,1.1949781915,-0.1866065941,1.0101972028,0.4340366582,-0.48846673,0.0470340108,1.4564880214,0.0482626489,1.0717551629,-0.7738430009,0.3073189055,-0.5954046779,0.7634265944,-1.4138495056,0.5395816771,-0.872644467,-0.5937088975,1.3264516962,0.6805473106,0.1261934081,1.273948125,-0.5092790217,0.2341182102,-1.1102069533,1.188560019,0.8427067044,-4.0433315724,0.0390794131,-0.9711015585,0.9607938815,-0.4787943975,0.8482266598,-0.4696915514,0.9149826339,0.7366772133,0.4643219849,0.1774816133,-0.3462500756,0.0423981936,0.6683226778,0.3390311735,-1.0092095016,0.951565071,0.4582864452,-3.2413816515,-0.1923778908,0.3524688998,0.0055763581,-0.226427574,-0.7351532199,-1.2058669703,-0.0824681519,0.0654281543,-0.7743323082,-1.6195000495,-2.6718807308,-1.1880695387,0.4295511116,-0.7769950207,0.2790230527,-1.1072872259,-0.8525518152,-4.8329358872,0.6334209797,-1.939227237,-0.8096199154,0.7115194947,-1.2801390296,0.9948287029,-2.4098251787,0.4504370089,0.4223976926,0.8382763992,-0.1905942891,-0.8413196433,1.5588111434,-0.0334629695,-0.3047485804,-2.3076318318,0.12436412,-0.8125386917,1.4620244552,-0.7596221047,0.5862898722,-1.0256245395,2.1261539259,-0.797680059,0.1155912102,-1.9085891669,0.8730658998,0.1887647474,0.2795388449,-0.4692957757,-0.4411060828,-0.7249998801,0.6593051369,-0.8570804584,2.9936628011,-0.7161206497,1.5512989197,0.4760828095,-1.4900353491,0.3066340544,5.9877940527,-0.9835138928,-3.839577428,0.2409020323,0.685992214,0.5295993403,0.0494950702,-0.2276224533,-3.8474210873,-0.8947718257,-0.5639113112,0.7274682487,-0.6755515198,2.8603865141,-0.4908598405,0.5367123279,0.2444722495,-0.147934102,0.3094943536,-0.0282464471,-0.2219623894,0.7189762319,0.4966858002,0.0029234418,-0.2204269469,0.4392150436,-0.0112883632,-0.2980808437,-1.0636004403,0.2592788754,0.6783493363,0.1139510646,0.9758019365,-0.9386482165,0.96813498,0.3948622318,-1.0703562888,0.4223997043,-0.1640041346,1.6318659947,2.786235997,-0.3153626423,-0.1370528941,0.092383462,-0.2864317776,0.5084267237,-0.4523325025,-0.1454759625,-0.8232942294,-0.0098240062,0.0696502473,1.0846538169,-0.553136976,-0.3658347808,-0.2137485604,1.8833211608,0.2097096404,2.0700380851,0.6281250926,1.9227188182,0.2648913675,-0.19691491,0.8320088182,0.2728126407,-0.6219349742,1.0345153143,0.991127489,0.4003031477,-0.4631229654,-0.2494443264,-1.0302175222,0.7563600534,1.4503368883,0.3374492643,0.9691326274,-1.4186693811,-0.0190542355,-1.0669602551,0.4129031274,-0.8214833416,0.1912119095,0.1409724423,0.4936122662,3.1583254662,0.6011053308,0.6436138638,-0.6536051983,0.0633246828,0.0737757348,0.4769907265,0.0377785277,0.5036740625,-0.3025978959,-0.2473376768,-1.0167114836,-0.3215685977,0.7087780596,-0.3747544242,0.7903634707,-0.2049695332,-0.3197183592,0.0897508189,-0.0389521703,0.289332717,0.6778412202,1.0740060758,0.9687847815,-0.0357477294,0.9570313069,-0.2890394684,-1.2280441672,-0.4561747403,0.2092160443,-0.0794537859,-2.4248109671,-0.1190388709,0.9746395379,0.6987142313,0.5092957005,-1.2756018162,-0.8609446462,-0.4604273096,0.4326830765,0.6882559495,-0.5882581419,-1.2310909852,0.1971809411,-0.1223931955,-1.3691760928,-0.6043919151,-1.3435153384,0.9417751884,-0.381694738,-1.79393706,1.5649052153,-0.0366356673,1.5808710767,0.27788751,1.2906211257,1.4292652867,2.1168410789,-1.3525145466,0.7778742007,-1.0872306436,0.5674925007,-1.3427257892,-1.7279897885,-1.2199168725,-0.4748286445,4.168043119,0.4480339931,0.4388099713,2.306420792,-1.3833115459,0.6722493535,0.9821986302,1.0220768959,0.3486196725,-0.6649733703,-0.6206251621,0.17638311,-1.4604183189,-0.5321938692,-0.0951057523,-0.6851856335,-1.02555455,-0.143625646,-1.1768896,1.1632121614,1.4091431396,-0.038716168,-0.8387288095,1.530273809,0.1900946301,1.3817923661,-0.6901033708,1.0642410085,0.3822642162,-0.9862644102,1.2201638103,0.1002569668,-0.1471231987,2.0258486452,-1.4564890726,-1.0725572945,0.0443093229,-0.1936233087,0.5750618013,-1.0430568956,-1.4839358038,-0.282736941,-0.1863034554,-0.6623520575,-1.4475621682,0.1037759549,1.5789418992,1.003523663,-1.1421409695,-0.8165516089,-1.084715245,-0.2256624261,-1.6813153047,-0.4874216325,0.2156878427,-0.1544953536,-0.9681064004,0.5728244374,1.618948286,-0.010171787,-0.6116787499,0.2747197076,-0.2653934297,-0.0962666162,-0.3989453274,0.9319438613,1.1879944266,-1.0325760603,-1.9097559877,-0.4989693434,0.1251698231,0.4941683671,-0.1762300502,-0.1582437089,0.4995017633,0.3322192579,0.2469502573,0.628312786,0.3260164917,-0.857474756,0.0718354629,4.6212652445,-0.5494570308,0.4568648478,-0.1933734806,-0.6814097193,-2.4798801767,0.1489067644,-1.2267528369,0.6444390611,0.4524884897,-0.6512853504,1.0587307504,-0.9578437945,-0.3626988481,0.9103967061,-0.3051288153,0.5102769725,-0.3143834698,-0.4468189796,1.5651969639,0.6357659391,-1.4073454198,0.3898826379,0.2974096393,0.2060920742,0.2506623953,-0.8286903838,1.1939087054,-0.7831749258,-0.1617496399,-0.8482830744,-0.6258893134,0.0457132712,-0.2693938048,1.0894382741,0.0671557496,-0.5940058394,-0.010337459,-2.6363642729,1.5304169652,1.2474285837,-0.5332175773,0.6512967254,0.1891825505,1.7311488695,0.4324982547,-0.8215455135,-0.4945978287,-2.0095314646,-1.4765826506,0.6412109918,0.1300672986,-0.6000163226,0.4561397571,-1.4798566569,2.693430434,-0.23943462,0.255078063,0.336421942,-0.4151039697,-1.0785138113,-0.4178213009,0.4426681023,-0.359575183,-0.2163959221,-0.3826832173,1.91647062,-0.341187397,-0.5585006058,-0.3498817834,0.1314054427
