encog,BasicNetwork,java,3.4.0,1,1561692175322
[BASIC]
[BASIC:PARAMS]
[BASIC:NETWORK]
beginTraining=0
connectionLimit=0
contextTargetOffset=0,0,0,0,0
contextTargetSize=0,0,0,0,0
endTraining=4
hasContext=f
inputCount=21
layerCounts=4,49,67,49,22
layerFeedCounts=3,48,66,48,21
layerContextCount=0,0,0,0,0
layerIndex=0,4,53,120,169
output=0,0,0,1,0,0,0,0,0,0,0,0,0,0,0,0,0,0,0,0,0,0,0,0,0,0,0,0,0,0,0,0,0,0,0,0,0,0,0,0,0,0,0,0,0,0,0,0,0,0,0,0,1,0,0,0,0,0,0,0,0,0,0,0,0,0,0,0,0,0,0,0,0,0,0,0,0,0,0,0,0,0,0,0,0,0,0,0,0,0,0,0,0,0,0,0,0,0,0,0,0,0,0,0,0,0,0,0,0,0,0,0,0,0,0,0,0,0,0,1,0,0,0,0,0,0,0,0,0,0,0,0,0,0,0,0,0,0,0,0,0,0,0,0,0,0,0,0,0,0,0,0,0,0,0,0,0,0,0,0,0,0,0,0,0,0,0,0,1,0,0,0,0,0,0,0,0,0,0,0,0,0,0,0,0,0,0,0,0,0,1
outputCount=3
weightIndex=0,147,3363,6597,7653
weights=##0
##double#7653
   -1.1451274275,-0.2804151401,-0.8452951999,0.7137981042,0.5191007979,-0.1605783273,0.3418233927,0.4928083402,0.7367305715,-0.8404999481,1.0019345791,-0.8375019489,-0.5717305758,-0.3818810445,0.4508189846,-0.1863035851,-0.7983765229,-0.0868500452,0.6192608132,-0.5746804619,-0.0538337251,0.5749306738,0.1384247153,-0.37054242,0.7332743372,-0.5009035887,0.0857220486,-0.8958078945,0.0221943607,-0.6517862527,0.6299689981,-0.4192998655,0.3703134974,1.3730595122,-0.0183711918,-1.4304474462,-0.96587165,0.5049840919,-0.5524879879,-0.6205783975,0.7569861884,0.4513784844,0.9079144502,-0.2011465854,1.1128741999,-1.266499344,-0.5944928536,0.6000336758,0.1901086437,0.8392056022,-0.480600648,0.5890955373,0.3886869322,0.0396135031,1.0276047266,-1.0941852921,-0.1380790359,0.1845303859,-0.0022505436,-0.1978730213,0.2315267891,-0.145893811,-0.1757383825,0.0180822699,0.7510060529,0.6513189043,0.1334009376,-0.3910306885,0.3008833423,0.7220487434,0.3296642669,-0.119024379,0.2051022536,0.2107127698,0.1985807439,-0.4856823338,0.0829822776,0.4396220136,0.0201419022,-0.9961726219,1.2157524863,0.1443827871,-0.2530385985,-0.0692655305,0.0300048023,0.5855315221,-0.303910225,0.5036790177,0.2365907125,0.7713618037,0.9213938058,-0.6993815843,-0.5712862556,0.293569439,0.6001927046,0.3261987886,-0.1815124604,-0.7142242275,-0.1069447026,0.0541028205,0.3001475572,-0.0640336891,-0.0075316952,0.0041759109,-0.0681488564,0.0261429801,0.3747449851,-0.1612340036,-0.0616506719,-0.0104249225,0.0126007214,-0.3215395621,-0.1167442301,0.0288419421,0.0149541679,0.5180886393,-0.24066384,-0.2314011339,0.672319077,0.2724481748,-0.7247591224,-1.3747244171,-0.2473419133,0.0455965874,0.0728536661,0.269541453,0.8699833918,-0.0122985055,-0.5260731605,-0.0269018514,0.0021501546,0.0750200605,0.1800762862,0.0148104197,0.0104171746,-0.458900635,0.0911744424,-0.0208336677,0.2145382693,0.0468663373,0.1324225564,-0.6968262817,0.1155536496,0.0627018185,-0.0003681964,0.025469971,0.527691491,1.7639289569,2.6065589022,-0.7564409692,-0.6077324745,-1.4341573796,-0.4508894464,-0.0474869968,-1.166264802,0.8261394983,0.8983226014,0.0054511562,6.8926984546,-0.5710587191,-5.4592911214,2.0452444053,3.6111426873,-0.2924803782,-2.7094617471,-0.1609212027,0.8295401477,5.5650234198,4.285817913,0.6839907158,1.552263102,0.8147656235,1.2255482202,-0.0611512781,0.295961568,-3.3492024166,0.2435930632,0.31334268,-0.3356700635,1.359836233,0.0310782164,4.2282695704,-1.3466753377,-3.517783254,-9.2499814615,0.7881078315,-3.2310854218,-0.9797715899,0.9141858902,1.3161754941,-0.4112852259,0.0528198011,-0.6426752973,0.9887765844,1.9343496621,0.3493965924,-0.1993433437,0.741659324,0.3789671969,-2.2922298121,-1.8761624034,0.5182399893,0.5913174319,1.3970894049,0.2436781263,0.0583683539,-5.238087919,-0.4262602959,1.2109930809,1.4870857655,1.0247724174,-1.662581687,0.9172650803,-0.5190017946,1.6959671683,1.6779558205,3.05254898,1.5050492878,3.9166484231,-0.7090683993,1.5822966201,3.9729414138,0.3215241087,2.4782027205,-0.8580441234,-0.6888427302,-0.0956156421,-0.8387238025,-0.4625535752,1.0217139585,1.1678477219,-1.5755796468,0.5851195019,2.7057411369,-1.7207894771,-1.3155886573,1.8709558021,0.344615005,1.0841259934,-3.4132086264,0.1572274879,1.2419629494,-0.1110131448,1.8155981243,1.610999942,-0.6002910911,-1.8778888571,-1.2639533416,-0.9588753944,1.3812407664,0.25687484,-1.2541286065,0.8309075225,-6.1688418445,-0.8302832747,-0.0754430404,-1.5936454453,-0.5013623346,1.5815803175,0.0040538285,-0.7276166342,-1.3862464703,0.437374732,1.6454771967,-1.429467226,2.1448927626,-3.5976141704,-1.1154965065,-0.578921732,-5.0674707339,-0.6541716786,-1.7075764374,1.0040571377,-0.3226544306,-0.258317738,0.4018625997,0.4666576274,-0.0380190813,3.232348232,0.0421031006,0.3353729503,1.1248169914,0.1223027492,0.1649300946,0.254912053,-2.2866812241,-0.2218932641,0.098749312,2.3826826618,-0.213865128,0.8941550886,-0.2890433299,-2.0117144782,-5.1818114533,0.1898119088,0.7593526789,-0.7513072435,1.2126639609,0.6284220023,0.615209135,-3.9158443771,-0.2390131818,0.720506309,0.7758509549,0.383130849,-1.7028744587,3.3919546183,-1.7498668738,0.6302166227,0.3854813376,-0.6828275899,-0.9140584569,0.1323708259,0.2853394287,1.8800850991,-3.8175738721,1.2734343978,-0.4587352195,3.986229443,-0.1268596858,1.4327569299,-0.8140947379,0.1395619638,1.045257088,1.4698529911,-0.378942649,-1.9657577,0.1508538741,0.1856360982,0.9289840737,1.5580797499,-0.7416735234,-5.203568633,-3.78459081,0.2672835953,1.0746763215,-3.3853463785,4.2388892222,-0.3443322314,6.4909677355,-3.5462578413,-0.9463336648,3.0845520335,-3.3227831245,-4.4501734624,1.414860284,1.7405084138,0.1228223947,-2.8812034024,0.1721015899,0.254111946,-1.3742999138,1.9889924008,-0.5384591053,4.0455591313,0.2642994278,1.7660137929,-0.8394821461,-2.0474610537,1.3862468055,-1.7634489643,1.8655459346,-0.2149594195,-0.2123690062,-0.4469340727,-2.4970914471,-0.6550808731,2.9653064547,0.3956450702,0.6977977225,-0.9430005321,0.5725315966,-0.9258092356,-1.1432862454,-1.3644394889,0.7252481074,1.7990919746,1.3937937605,1.7416875623,-0.1078250564,0.3754157254,-4.9238996702,0.7052049297,-0.6757967056,0.3766729977,6.8357733424,-0.9353628385,-4.0066214288,0.5917756738,-0.6658484753,0.3458075168,-0.1867322394,1.1230321554,-0.2018578719,-0.8401893075,-2.9479006645,0.8155951375,1.0984935636,0.8724105019,1.1001634526,-1.8712204112,-0.1703099876,1.3960180899,-4.0375304405,-1.8599056709,1.8378542124,1.5606988674,-0.4445054822,-0.1382297922,-3.0085293966,3.7709138471,-0.0906524868,1.8660589688,-1.2320467337,-0.3680098266,-1.207061472,-0.7386840073,-2.2908208018,-1.2343033794,-2.0592881144,-0.6859872786,1.5345593709,-0.3461253315,1.7350306515,0.7551995752,0.4609039743,0.1604468264,0.2373019911,2.2910892224,0.7329870892,0.5998972376,-3.4963248178,2.4235265019,-0.1525366386,-1.3701298645,-0.7638893933,4.044807433,-0.2336197218,3.0823101924,2.9947119656,-0.7102158275,1.9146747761,0.7234964337,-1.4675835785,1.5749694857,-1.2595641549,-0.4298140643,-0.5325346849,-2.4057384601,-0.3311219775,-1.2977961301,-0.0948207483,0.8333826617,-1.0620708172,1.8532310316,-1.7245800236,-1.4118535794,-1.3187570512,-0.2279591064,0.8803950229,1.9409865798,2.65711083,2.7920139534,0.354725207,5.2110542319,-1.8772016484,6.5368802886,2.045727912,-1.1461261135,0.6801394716,2.4021363762,2.3579635322,15.7030799743,4.9112330655,2.2896110236,0.6358154079,1.7864265774,7.4866124772,0.7961863845,-0.2859490325,7.4629931172,1.20090071,-0.6899714541,-2.8132194682,-1.4781938634,-0.1249083707,0.6869876849,-0.2748746914,-1.7745337708,-0.9626752578,-0.6801912176,-0.4085672615,-3.371861485,2.579374319,-0.4873003792,3.2856100212,-0.8404390039,-1.5445353314,1.1769687931,1.8564562854,0.7158621471,-0.1569327739,2.2381912405,-1.1534164782,-2.515092698,4.3445543841,1.5330239561,-2.2222366744,5.4625519422,1.1785596463,0.7814245531,-0.1987415154,-0.3485742405,0.464151751,1.0938393477,-1.3838320572,1.19740253,1.7834402918,-1.4208618423,-7.3092938134,0.573623359,2.122339305,0.2432007335,0.7204858343,1.3550829334,-0.1348612555,-0.5492813844,-0.8080149732,0.2736426974,-0.9251250754,0.4507170735,2.9047660825,-0.691541045,-3.0472848268,-1.1674261173,0.597038918,-0.1656843051,-2.4057454378,-0.9472856195,0.4576403485,0.5282207897,-2.5167961912,-0.4252289195,-1.5054332187,0.5290855515,0.6746425722,-1.6454691881,-2.2067472683,-1.2067991454,-0.4967744909,-0.6577134995,-0.1443524074,-0.4246318907,-0.9363948687,0.9300980687,1.2084131816,-0.3231133362,-0.876909149,-0.2889652097,0.5027700342,0.9848152906,0.3816215248,-1.3082264789,-0.7778719153,0.3871806869,-0.2687894154,-1.2274344499,0.9762259717,-0.0826606023,-0.287281566,2.4422392586,0.2413466353,-1.9918855621,-0.1264183913,-0.7106834068,0.0631130113,0.329810693,1.4919582472,0.9860853803,-0.2617859109,-1.0638937961,1.9868156577,-0.6849347865,-0.9348083547,0.0878428092,1.3886714662,-0.7954190247,-0.2256542225,-0.2821137182,-0.3606278145,0.4457055459,1.779940591,-0.1022490487,-0.9173194828,0.102767588,0.8768161484,-0.0887855636,0.9848617283,-0.437820228,0.865540782,0.3631356608,-1.4585403434,-0.3839502513,0.6333317429,-0.3347435612,-0.2839937382,-0.0034918711,-1.4079843355,0.841761938,0.7507679992,1.3719251249,0.2614245213,0.5574185324,-1.3507254607,-1.5791516139,0.1937037361,-0.3472226905,6.3384262117,-0.9563580658,1.0047011006,-2.1343422298,0.0516442226,0.3312772967,-0.2139648783,0.699522351,-0.3120032521,-0.7648053482,2.1398186808,0.6765480359,1.3018633607,0.6135886077,-1.4316891801,-0.5196174453,0.2027198632,0.6572373831,0.8521355165,5.7145105889,2.2392648196,-1.4407971693,-7.147083514,-1.1464966871,3.0332276018,-1.6533379804,5.8484731604,-1.8824861276,-0.0560620637,1.5751363014,0.05014513,1.1761938905,2.1245899005,-3.0974983392,-9.9296158736,0.8101187155,7.9344097364,1.2677690946,-3.6071052878,0.3704805996,0.9916920931,-1.0003793881,0.8310198438,-1.4470721192,-1.4506138551,0.2617139601,0.6481517638,0.7080569291,4.6164789458,-0.4117694918,-1.0835675613,-2.0943209917,-0.4688968978,0.3857183639,-0.1702474444,3.8773476911,0.9308407747,-1.1629999258,-2.1696243244,-0.1441404521,0.3589943277,-0.8015365175,-3.3214255614,-0.2807180197,-0.9827424021,0.4614611645,-3.0125729089,0.2993400063,14.6360992503,-1.9580301299,2.2910090774,-1.1810309403,0.5356474501,3.7006966083,0.6092235707,-0.8307630466,-0.4609138988,0.6158957886,2.582654751,-0.3740322042,-2.3130561626,-0.7247112937,-0.3986700271,-6.5867238272,0.9476202827,0.0053613611,0.4766925666,-8.4518534154,0.0543021366,-0.8209797785,0.8501054176,-3.7485213426,-1.7112471982,-4.458350691,5.0418863047,0.1275258374,5.2000720625,-0.9220631749,-3.0598604514,-2.4333849689,1.5768741124,-7.247266637,-1.1699379605,7.2774201058,-5.7944336472,2.8720515428,-0.5782869307,0.7940588663,0.3858978941,-1.4614409669,-0.4434211679,0.2920275747,-0.046882671,-1.9601361049,-2.1892298014,3.1116481157,6.4396458095,-0.262629784,-1.6249865604,0.5810113838,-0.2050337415,0.1418027848,1.3679608314,1.2324200687,-1.9404485233,-1.3804428087,0.2119534518,-0.2629929615,0.4139021191,7.3635437323,-0.3752037721,0.030264138,0.7135543924,-1.0782318063,0.5675318444,-0.6685787518,-0.1144669339,-1.178018447,-0.6964824739,-1.5240349245,0.8783897017,0.6576243759,0.780242375,0.31538143,-1.6113578831,0.3927661499,0.5273778121,-1.0087809103,-0.5546419686,0.1383953207,-1.1313189437,0.741572564,-1.3471633927,-0.9116118591,-0.7390274179,3.1473441075,0.7975566785,0.7574997344,-0.839584102,-0.2805052804,0.1769805758,-0.7968868845,0.5618364653,-0.2841743073,0.6298343013,0.8895965788,-0.8660248951,-0.1544416332,-0.2614972833,0.6741156072,0.5315505772,0.4901000743,-0.1441673221,-0.2940163418,-0.0422923197,-1.5659538238,0.1769921241,1.7567297367,0.1590929432,-0.0853493132,-0.2546722567,0.4230249995,2.4595463543,-0.0660288116,-0.088937484,-0.2672696759,-0.6941840268,0.9291524712,-0.1959984162,0.2239846615,0.1735042083,0.1944918405,-1.5110538112,0.0749233958,0.5710403033,-0.4223340584,0.0328166298,0.3157342699,1.1496444094,-0.3405607071,0.296965377,0.824548408,-0.5055244374,-2.3587143366,-2.4877421924,0.7259152999,0.3796245786,-1.2342136767,-0.1976678073,-0.3161877307,-1.4354089588,0.9740843842,-1.346467995,0.1070698353,0.0141716962,-0.6194026567,1.8593157035,1.2071652778,0.2903631442,-0.055526596,0.7120088358,2.0031469065,1.3859210431,-2.0436227334,0.837244123,2.7568756108,3.0878231227,0.0908363919,3.1932185129,-0.0110912253,2.1506112623,0.87401654,-1.485417578,0.7794566636,-2.1908728781,0.8512510595,-1.0969683703,-1.9998604501,1.6225881046,-0.8879836901,0.3707457059,0.4773221477,-0.4320908756,-0.5926896269,-1.5465308144,-1.2688145451,1.556125246,3.086043918,-1.8861105779,3.9183766051,0.7584758605,-2.1229743798,-0.0057667976,-0.1890540341,-0.5985383138,0.5042460792,-0.1021972838,-0.9733194587,-0.8023100544,1.0442352664,0.3731368519,-0.0168826716,-5.0004560151,-1.5831489978,1.3383681538,-1.2571020893,-1.232768413,-0.4791293376,-2.7124740815,2.2733571498,-1.2439790966,0.4979826255,-0.3330684624,-4.8253048349,3.0625826088,4.1917463542,-0.9462771863,0.0713790692,4.9871816564,-2.1077960727,1.2027702531,-2.5083761347,0.8737121737,0.6130481205,1.7734068218,-0.6681824985,-0.4096946626,-0.4799373032,1.9710204902,-0.5236040276,1.1611416842,0.9572397583,-2.5646719105,2.1855905355,0.6277971452,-1.7042915816,-2.1091476647,-1.0669971401,1.1235319075,0.925244027,-6.1378242888,1.5018926818,3.1035239235,-0.1934688195,1.9327386965,-0.5499873781,3.951783402,0.0704836527,-1.51985038,0.9541701092,-0.7848983084,0.0868460278,-0.7821555004,0.7963121325,1.1667184004,-0.8594674663,12.28642961,-0.5945337846,2.4003026591,-3.4241931057,-0.073146645,-0.0925224797,-3.5126890202,1.3691154376,-3.601776544,2.7695486842,1.2585657013,-0.6233438913,0.4217511251,8.3808671737,-0.0713779085,-0.7200381293,-0.292534708,-0.1221123343,-1.689584181,-0.1507435424,-0.2904607289,0.2403386238,-0.9860148175,-4.3876220388,-0.7380038703,-1.7854968378,3.5747866386,1.1458613768,-0.5508562524,-1.7990877102,0.3775012155,0.6352236581,-1.1039360023,4.1105547389,-0.3656502845,2.0937867732,-0.0631304744,1.2157548184,-1.0195702913,-1.9588882797,0.7386040332,1.121530851,1.2794142282,0.1906818767,1.2878175183,-0.412622172,-0.4186128605,0.2267172227,-0.4932169893,0.7798807308,-0.6405132963,0.4920900486,-0.6002856238,0.0395651053,1.6994920535,-3.2649292288,-1.7066554549,-2.0137114731,2.656705921,-1.1915952815,0.5103402865,0.4733926021,1.172891571,0.6784265303,-1.3352149801,-2.4155651474,-0.2304800027,0.9960225574,1.3881540835,-2.1780415385,-0.9439123199,-0.7875935461,-2.1223511976,0.0872233834,1.0934488099,0.7244166326,0.1419282364,3.0332411715,0.8911689512,-0.5943137379,-0.6900724889,2.1157764642,0.7850477931,-1.278115812,-0.1735979563,0.5539953022,0.4369679888,-0.8966620552,-0.9639801012,-0.6639336936,1.1150822467,1.6919669901,1.6787641558,-0.6668352823,1.2333749288,0.3218107126,-0.7069274426,-0.5169355458,0.1594275156,1.4136069993,0.3341527673,0.7887354391,-0.3480226623,-2.4862916183,0.498264634,-1.6759679441,-1.55375984,2.9856003481,0.8564318773,-1.4563087001,1.5487378327,0.1328375516,0.0132687643,-0.7422197573,-0.0951337532,-1.0632037677,0.5390669267,-0.1311346356,0.6738040035,-0.5112118187,-0.8533912459,-1.2090450747,0.6499701394,-0.167225251,-0.9832868365,0.4854996008,-1.5669394335,0.890179767,1.2554214892,0.33445027,-0.8148943683,1.7982621072,0.8324309186,0.6684309388,-0.5214771707,-0.390688992,-1.3601913887,0.0499833928,0.6886290848,-0.5847832321,0.7368282243,0.0310464504,1.1718842758,-0.0590901653,-0.0853031837,-0.9693047195,0.43522649,-1.2978617709,-0.1840998463,0.2521604311,-0.3944210134,-1.9678217694,-0.5838765448,1.3143680575,-0.0255145838,2.1504459218,1.1744823673,0.7871300441,-0.3277731808,2.819513671,0.120598458,-0.1177265323,0.166958204,1.3811013528,0.0666915996,2.1257985424,-0.2064517124,2.5205528863,0.135411576,-0.8738541161,0.1317646122,0.892563605,1.3046719116,0.825670877,-0.0342820593,-2.9282606962,-1.9082969748,1.8320717019,0.2112334322,0.1258827605,0.1792868243,-1.4446033356,-0.1374435345,0.4417233013,-0.3209812361,-1.149380548,0.2534334759,1.8654467043,-0.4037906696,0.3027810072,0.14053775,-1.6901840382,0.3322174064,1.1825718161,1.4598159686,-0.8750601638,0.9512577444,0.8288664853,0.5960805933,1.7463151828,0.3121428535,1.7005328873,0.0813318642,-0.7437343372,-1.0548071652,-0.4408257333,-0.3223451432,-0.046288145,-1.3267149856,-1.4988435618,0.260822166,0.1593993158,-0.0691537834,0.0773990208,-1.7695463064,0.3026596691,-0.4614862937,1.5034712187,-0.3120086751,1.3568793105,-0.6788689829,1.6088780321,0.1563839572,0.0398227516,-0.0008170348,1.0407455114,-2.8190893905,-0.6863350879,0.7415748673,0.8584967316,0.7840707713,-2.9038355458,-0.7171294231,0.8129872302,0.9633561228,-1.1836023321,-2.4421132145,-0.9432990655,1.1408138003,-3.9392423873,11.9922225875,-0.4903802693,1.8044919611,1.6799796967,-1.7485721509,0.5755128293,-2.570351762,3.9478122111,0.9324642875,-0.4130135553,0.6467326163,0.4826578799,0.0989768245,-0.1868058776,-0.7779648748,0.6564576394,-7.92024924,2.1127098642,-1.1134948886,-0.044580591,0.9799762656,1.2490884373,0.8172219962,-1.0414517591,-1.003466104,1.2938195912,-3.7193250028,-3.6707874004,0.9643934027,4.4305336105,-0.5033275821,-0.8889840429,-1.2949283399,-0.0202681237,-4.2785223582,-0.1942103514,4.0101824066,-2.1032842021,1.9740089783,-0.1754723113,-0.7333529679,0.0040957075,0.9780447526,-0.9465786289,0.5165222719,-1.5106753914,1.012047522,0.4247261753,-0.932726669,0.0700560393,7.8371357879,0.0023314373,1.1466797303,2.9590697814,1.1222235925,0.7012478411,2.6136237235,-8.2696246178,0.2665132388,0.9650945244,-0.5304295505,1.0831041695,-0.4107400588,-4.6145867823,-1.2230969871,1.1616889408,-0.4232295646,-11.8640432311,18.403831584,-4.249820425,4.2204492016,1.2078896475,-0.2969618285,0.5872611202,-0.607488299,1.8757058211,0.3260542487,0.7081606977,1.8262078821,3.6054479499,-1.0032505805,1.4394992959,-0.8667435328,-0.838611499,-0.1078141763,3.2519146459,0.6672978326,0.7585133789,-1.7103488064,0.9240448933,0.6165102931,-1.3551456137,-0.4210602469,1.2291491896,0.9742260623,1.0295321658,0.4135629678,-1.3199125368,-0.4785078541,-0.2520617628,-1.113673683,-2.8535970831,-0.8853261622,0.2007825506,1.6328089753,-0.9095729168,-0.2899213492,1.355452394,0.9368891089,0.6978629225,9.0057310035,-0.1283197482,-0.8642799902,-2.2201254938,-0.0752580632,-6.1083299567,3.1030365546,0.1612542203,-0.2810224055,0.3947769771,-0.9625969065,0.2877299616,-1.5491861529,-0.5217721222,-0.261942092,-0.8085530684,-0.9605577484,0.2139309779,1.927002864,1.6118657815,-0.290974696,-0.0917562694,1.2917011113,-4.2542847095,-0.2994593903,2.0994577075,-1.9206917045,1.0905832613,3.198316981,1.1167203202,-0.3939119845,0.1027487495,0.2773380548,0.6530481304,-1.5421600058,-0.9211683394,-1.1184680552,-1.9805521466,0.5535836704,0.251531526,-0.0318189906,1.8275927684,0.959574632,-1.6323196871,-0.8919387677,0.0574885061,-0.2338406218,-1.3575575663,-0.2853725468,1.0913556322,1.5036167602,-1.4009078769,5.5384264244,-1.4442658829,-0.6559160278,0.6693883856,0.1054835927,-5.305941144,0.0691941953,-0.8860718671,-0.9680242153,-0.67621457,0.363398042,-1.6424982515,1.9831218104,3.6624674467,-0.335043303,4.1458517529,-0.1791038395,0.2634273815,-0.13695083,-2.4995103697,2.1507020945,-2.3703141378,-1.2716949009,1.578472704,-4.8311609693,-0.0102088142,0.1786342622,-1.928624797,1.3367695237,-2.7621139365,-3.4957230795,1.3319080715,0.0691721192,0.7834951471,-2.4657793504,-0.6156696593,-1.1840361302,-0.5846322769,4.1811448412,-3.7887554449,0.1605246947,0.6301432682,0.4450511809,12.3913638596,-1.2167780102,0.8825081911,3.3346324063,3.4453010296,0.316699531,-0.2090304092,0.6416689843,1.3179976815,-0.2331247366,0.9100808042,-3.0369211957,3.4263530472,-1.131131483,-2.8554892324,-3.2997400614,-0.5742662337,-0.7072124767,-0.1496427942,3.1236295383,-0.5859444109,0.2924451498,3.6674816601,-0.4955548043,-2.3048940014,0.3711962846,-1.8403273932,1.2139889629,0.5850731143,-0.8644909569,6.097995013,-0.3285226844,0.8941448031,0.6560602057,-3.8346248941,0.3927083378,1.2063750934,-0.1620359638,0.9021678854,0.7695032271,0.6227083916,-0.9165588711,0.2283893689,1.3706167239,0.2932771351,0.4359546999,-0.563260298,-0.0422802215,-1.1437315226,-2.002706346,0.006064392,-0.620631553,-0.2861771195,-2.2903630586,-0.3463101622,0.3484154291,-0.3817702174,3.3016455889,-0.8647355241,0.8181058991,0.0635903879,-0.5332731897,0.8507119342,-0.0905368292,-0.151161039,-0.5252643435,-0.669307527,-1.2365684653,-0.8769969211,0.2700847099,-0.1612860915,0.0416374342,-0.2294796636,0.925675762,-0.6344238829,-0.2782477556,-1.300898714,-0.1702442525,0.321052438,-0.3804958361,-0.3112624475,-0.0156567518,-0.2580345365,-0.8856538121,0.316635203,-0.2479712101,0.0480753977,0.2412723448,0.3546637098,-0.6580936056,0.0688573938,-0.5802736045,0.1991991914,0.5873807143,0.0770648027,0.5563706098,0.2902875566,0.2198273097,0.0615195754,0.4193795286,1.3895590542,0.0912953714,0.7923278318,0.8336671571,0.1704666469,-0.1147101066,-0.196055469,-2.6292661487,0.3888503656,-0.2068040512,0.2535167909,0.0644734961,0.7662793775,0.1021338451,0.70352946,-0.3118719168,-1.3746068617,-0.9631470509,-0.4852994469,-0.1277210676,-0.5621138639,-0.1204828496,0.4848623567,0.0688194983,-0.5627170607,0.6716939982,0.8040277601,-1.2703695731,0.9596861082,-0.2099342554,-0.054437374,0.2590612079,0.7172294361,-0.3179652904,0.3528330231,-1.4121382428,-0.009028937,-0.0464576579,0.5554221559,-0.2884223662,0.2597276449,0.1550715384,-0.1472423769,0.1794502663,-1.0685009774,-0.9587201801,-0.0526341926,1.9244493657,0.1580502976,0.3016190294,-1.2088001675,0.4945371781,0.0962858766,-1.2756644368,0.0745436222,0.9705852885,-1.3688326279,-0.2932127224,-0.6738787849,-1.0604673893,0.6675589179,-0.033479432,-0.2952998869,-0.1188539788,0.1810376956,0.0184627081,-0.8410743971,0.1774901854,1.2829379172,-0.3386126733,-0.8686097474,-1.7373007547,-0.6124875165,0.1674818873,-2.9809059593,-0.9698634902,-0.1582708413,-1.8242455654,0.6597908564,1.5161735575,1.1490576222,-0.5459855771,0.1478518216,-0.9340920592,0.8312724868,-3.6618335914,-0.1725005281,-0.5634232008,-0.0114555917,1.2171721417,-1.1397401707,-0.5648978351,-0.0316411472,0.914165874,1.6960024799,-0.1078233081,1.0735233351,-0.1770584139,-2.8902840942,-0.0750276089,1.4774948701,-1.1038018237,0.0617591772,0.2711256558,-0.1452827838,0.4476063836,0.772781482,-1.1394568019,-0.6218966418,-0.1385597835,-0.5999633603,1.0882922104,1.9325121197,-0.0641604332,-1.2311835519,-1.0199206509,3.6708271386,0.4691980648,-0.0087748492,-0.8571388732,-0.8437138313,-0.1785168336,-2.4430749227,0.0949829187,-0.0242518339,0.3151072849,0.9927944753,-0.2221276174,0.3854321795,0.0681862408,0.8240983895,0.3593399844,0.1345479022,0.5960785981,-0.9588753523,-0.6200462743,0.8325484799,-1.7166636435,2.8767799767,0.5438713861,0.2316688626,1.4927067486,1.5599736897,0.4971562139,0.4895036912,-0.1556700467,6.0873620934,0.2685008711,1.0783241912,0.9248198312,-0.0651626164,-0.990037649,-0.8650126165,0.2953112376,0.1122358768,-0.6462307441,-2.0573809869,0.0195485625,-1.5705405071,0.8304944578,0.1377653255,-1.2806140715,-1.7656411482,0.9939838549,-0.0824419915,2.5562387983,0.2154389299,0.261668988,0.8732565014,0.2727051373,0.1297956749,0.4052535115,-0.1071796911,0.3438192659,-0.3755294735,-0.494305987,0.1651642105,-0.1489608578,-0.20736549,-0.2146253882,1.4716536665,-0.6813094808,-0.2031299588,1.7874035713,-1.6437768257,-1.4587139732,-0.1335845486,0.527947795,-0.0142447185,-0.3077003354,0.1463170468,1.6241506399,0.1911417979,-0.8368909373,0.4336440469,1.2321645603,0.3070594314,-0.8746070377,-0.0713868078,-0.2520870542,0.6002947736,0.5081138437,-0.5661960458,-0.4357837106,2.1062392101,-0.3420686088,-0.9153630721,-0.6640559536,0.980039414,-0.3850835292,-0.0892579718,1.0338384404,1.9436710687,-2.218377916,2.3079019466,-0.9476532353,1.1349912159,2.3283966746,-0.0908454555,-2.0650357365,0.2079214018,-1.005565973,0.3703441827,-0.9714054007,0.6172081962,-1.0660266933,-0.4498971737,0.9508014504,-0.8647525432,-1.0447810593,0.9785257444,0.968516735,0.1757071081,-0.1640543672,-0.3627147878,-2.737061038,-0.2212756086,-0.1166218007,-0.1939303108,-2.9532552623,-0.4271828868,-0.6230842773,-1.2753584397,-0.1506821951,-1.3575790703,-0.682717649,0.5956920948,-0.2026553686,-0.4926717835,1.0503151265,0.3134054837,1.1818211716,0.5594331226,0.1074960101,0.6967572267,-0.2920970172,-0.3279866002,-1.0341312667,0.3149783495,-0.3364234692,1.1577105597,0.5934220981,-1.098147818,-0.5724742872,1.19440356,-2.4157507334,0.1470122848,-0.6732423707,-0.6697938819,1.3758690307,0.5034876468,-0.6947777651,-0.5162523112,-0.8953003527,-1.7588779119,-1.1497385876,0.530127625,2.1240408306,1.4745773663,-3.8119338857,0.9515527849,2.2308792921,1.2326289398,-1.8676906626,-2.7133006066,-0.5132604686,-1.6711688713,0.2995099782,-0.1275935987,-5.3485624663,-2.5596148166,1.7965393892,1.5625445031,-1.3111814131,0.7658316601,-0.1581631926,-0.2574463033,-0.732478314,-0.6430314184,-2.6814247833,4.0643802088,4.6487610687,4.2387869663,1.4172768817,0.388394032,0.3016896727,-0.772996855,-0.7285865822,0.0055326328,-0.4606296501,0.1930391839,3.3976503025,3.3834789273,2.28146013,-0.6021574501,-1.3816846865,-0.8593086664,0.1596170616,0.3643982921,1.6784975938,1.9437552377,-0.6684580064,-1.1164350605,0.6992015367,-3.5050498095,0.1625503469,-1.0053792616,-1.7500782972,3.2646402727,0.5068136782,0.2105938787,-0.2336412264,-1.0911339863,-0.8030812599,0.407372034,-0.1027079135,0.5272850659,0.7219881992,0.2098802725,0.7077582185,-0.4461164257,-2.1909547912,1.4896491721,0.4062446469,0.5684103113,0.1054364014,1.0378558014,0.4220422748,-0.1769282038,-0.0349184993,1.3981904555,-1.3244790505,0.3064933416,1.0288734529,1.0625951902,-3.7531857001,-0.5799650116,-1.1566438071,3.2334829369,0.3783832179,-0.3955771587,-0.793832922,1.1845743053,0.4280255265,-1.3445044062,1.3126936636,-0.0392321264,0.1695314598,-2.3941224004,0.3720314674,1.0301985065,-1.5547184889,-0.7997188473,-1.3151593418,-0.8881285598,0.3223878645,1.879089697,-0.2075058277,2.4024022011,-0.0763897855,-1.3268121154,-2.1731729022,0.9140459907,0.1698699919,-0.6029545644,-0.8303419127,-2.4923756699,-1.9199708974,-0.0887544115,-0.5040801887,0.3017365259,0.2835124878,-2.2451510304,-0.8651258873,-0.4460499553,-0.7528272878,-2.0096096859,0.9252695151,0.2410931519,1.1738754697,-0.6190694106,-0.400614232,-0.1243081214,-1.3404600395,-0.639265145,-1.2708017829,-0.8633136215,-0.3265897513,-0.3662276171,2.1478747376,-0.2411162546,1.004209294,2.0542591141,-0.7829860445,-0.7406281081,2.4368578102,1.2706510119,-0.2306378928,0.4791688444,-0.2374057457,-1.3793957971,-0.3444311898,1.04358356,1.151148674,0.3011124623,-0.9039737252,0.5659428347,1.4463369366,-0.7039844237,-0.2268541818,-0.6533567802,0.8120269932,-1.021548292,-1.8051808478,-0.7464037764,0.4970077804,-0.1042503749,0.7191896957,0.1256117066,-0.6311816235,-1.9582397927,0.2354754021,0.5968932142,-0.2766705305,1.2731047294,-0.9266945533,1.8943817804,1.0134277696,-2.1613919724,0.8786317882,-1.081073937,-0.1586223419,-0.6304433467,0.8587858593,0.1004370162,1.2728660027,-0.6141525009,-0.386504751,-1.7560423434,0.4434778139,0.9918907188,2.7373749653,4.9586434126,-0.1064378671,0.1854525813,-0.9308627444,1.9595697651,-0.5119298874,-0.0077165702,-3.494746052,2.8508658981,-0.721160646,-0.3302683192,-0.4101115405,1.0178488666,0.4374706691,-0.5451019641,-0.4121282012,1.0588491954,1.5009547711,0.0949877232,11.4652918793,-4.3393645653,1.926432034,-3.1198687256,-0.244976084,-2.7033066064,2.9135547793,0.6875659828,6.1079027881,-1.5182576895,-1.4059314663,0.9642437641,2.3673041364,-1.2529736476,0.5479466897,-1.1828392577,1.1831067493,-2.2584257801,-0.9537496601,1.9718472725,0.5843027457,0.4596690125,-5.4146187217,-1.2790764189,-2.1599272236,-3.1042112076,1.0706014766,-0.033958525,0.5193142008,2.6032242575,-0.3665282426,0.5989256686,1.9617225033,-3.0054972412,-2.51488992,1.177466606,-0.1814108217,-0.2174533199,0.2562391249,-1.5220518045,1.8561983019,1.9865278887,-1.7887398105,-0.0220515361,2.6051479065,0.2765388281,-0.9784161668,-1.414689632,3.1145759643,0.4254008679,-0.1322117832,-1.282771729,-3.3252326057,3.9980972141,1.0000648895,-2.5955681476,1.1301544356,-1.1084770884,1.3324728419,-0.6078576977,0.0433110056,2.0267916964,2.2715628689,-0.6693008826,-0.2321697316,0.9163471353,-0.1637971609,1.1218053165,0.1737869578,0.3374088435,0.575739435,1.0042684954,1.1953710505,-0.730166357,-1.0585918012,-0.4071458953,1.0819074016,-4.6028131431,-1.0001854606,2.3267178806,0.1047205135,0.5968674961,-0.6080930117,0.4812892526,0.332128314,1.461924849,-0.2676117026,1.0189173397,-0.5446043091
   -0.7770629934,-0.5611513255,0.7209414555,0.2333157369,-3.1862943451,-1.4786419682,1.3171012011,0.0058151208,0.2243013017,-0.6529779323,-0.4677534645,0.6388580544,-1.1143584317,-0.4173857643,-0.3453127614,-1.2081534887,0.1194831545,-3.1210585812,0.141902294,1.80666236,-0.9302296063,0.1531969951,1.7279455578,0.231579892,-1.329882269,-0.5469353403,-0.4922045199,-0.5783841162,0.1148597737,0.2050153997,-0.3718425614,1.0928919565,-0.1049693307,2.2745607103,-0.6764424792,0.2041401046,0.6971248731,1.0646652027,1.7603494168,0.9501624954,0.5385785169,-0.46680761,2.6234068542,2.6735443872,2.4192523439,0.2646382523,-2.9834590209,-0.2520638662,0.1711317265,10.0120002209,-16.2822044426,0.279280695,1.1057467592,-5.7063300085,1.1634907096,-1.0629994683,4.6643028116,2.4039188077,-0.2880628886,2.201457951,-0.412521543,-5.0721377228,2.3717757915,1.7404167847,-4.5606577951,-0.3078979536,3.0123042091,0.738015102,10.2768647436,-4.9888315294,0.5054022974,1.749901577,0.5885756192,-1.6106568787,-1.2051110484,2.099795435,-2.0371692987,14.8953045236,-1.8535674955,-10.0111049898,-0.5405017693,5.006470437,-0.7893979562,1.9420163884,-1.8209449417,4.1658745225,3.1892945204,1.1460036052,0.4626442091,1.4786642279,1.5296491205,-3.5822449213,4.5188911093,0.5677033971,-1.7955063594,-4.4355007251,0.6305434419,4.2213363386,-1.4960019081,1.3485940859,-0.5343718632,-2.8474044143,-0.4729422179,0.0173781476,-1.2775320509,0.8128406144,-4.4999470983,-0.8463909816,0.9183864805,-0.8675340357,0.310061383,0.2092285698,-1.0575463602,0.8215884024,0.0971277788,0.1474304975,-0.9605818053,0.0687658865,1.5040990544,0.3560159638,-1.3824903381,-2.0205830653,-0.4818744138,-1.5804692877,-0.6748878241,0.0228602688,0.8887888572,0.01772282,-0.1108578356,-0.7540382185,0.6337236664,1.3670815296,2.6129801902,-0.1922038115,1.0234587816,-1.3972520675,-0.0043627195,-0.8753539094,-1.9275935179,-0.4282761385,0.2408670002,1.4814516828,-3.0630634636,0.6178413985,-0.5801508058,-1.3676495796,0.8741164385,-0.3927128552,-0.5069431579,-0.0287112479,-0.9001387907,0.0998349037,-0.6107447073,1.6406310868,-4.8817249458,1.9381917093,2.187460671,-0.0177824135,-0.8993388002,-0.7836114111,-1.4935455263,1.2538314281,-0.7946652752,-0.8105773468,-1.328169518,0.4652649939,0.0108835003,-0.4949923642,-0.6733475923,-0.4366982583,0.6461313459,-1.0373238344,0.9567620277,-0.734597416,-0.0527069142,-0.2760819424,0.9188234554,0.3208412029,-0.3870302301,-0.514482759,-0.2845438964,0.2993719016,0.6107522421,-0.0125034938,-1.1761026507,0.594004551,-0.0889261487,-1.1906995617,-0.9202919166,0.3881675932,-0.4605630219,-0.7315271888,-1.2198128204,-0.4499175118,0.1153210929,0.73189771,-0.1691072472,1.4427919887,1.3375166353,-0.6706444567,-0.868844427,-0.0822184813,-0.3698545311,-0.4794598365,-0.1900487381,0.0452424554,0.59640872,0.9329858245,0.7430247999,0.6304061742,-0.2583596031,0.136747293,-0.2623853664,-0.2640432306,-0.1858784727,-1.2627114849,1.4243247737,-0.1525355606,-0.1363820804,-0.1544321575,-0.6165936455,-0.8112854956,0.9744464277,-0.7668349314,-0.2946635003,-1.1298943058,-0.4953275207,2.1172264338,0.1936689484,-0.9428621499,-0.9340606219,-0.6675018952,-1.0771802045,-0.112283862,-0.3671043903,0.9024934979,-0.7638982464,0.0342038694,-2.2838517558,0.1875368084,0.2960068692,1.2485095526,-0.4735261811,-1.9371924576,-0.169036893,-3.5256207333,-1.8065910964,-2.6160113136,0.45276762,1.3379188346,0.387989522,2.0831756307,0.2581786435,-0.8341331938,-0.9510067687,1.8324697554,-1.3546182628,0.5544234869,-2.8081699001,0.7296208954,1.0378064797,0.1839598883,-0.8353596642,0.2179322027,-1.2261575504,0.1504678886,0.5933215367,-0.2904269351,-0.3827275445,0.7244892875,-0.0782292701,-0.5264784619,0.2413011468,-0.6358559277,-2.285689357,0.6719906702,0.1198089975,-0.5067010051,-0.282657265,0.2966874238,-0.8486090286,1.5323280148,1.5178806598,-0.6100768106,0.6001914014,1.175746674,-0.2366860705,-0.9274184502,-0.8474155663,0.0177904771,1.7282994352,-0.3457571948,-1.5869926145,-0.4288803234,0.2490777938,-0.0734021959,-0.9341332617,2.1830656549,1.4430166857,2.7831232175,-1.6735012629,-0.6593149026,1.19789492,0.499716249,-0.9102743025,4.1965969632,-1.0895042017,-1.1449782027,-0.0614839793,-0.87290443,-0.5016760348,-5.1959819366,-4.2168363699,-1.2241726167,0.7108092093,-0.0435480536,-0.1241453236,0.3958495305,-0.7216083219,-0.1655895103,-0.1331919145,-0.0198806171,-4.8323930124,-1.8611788375,-0.453585539,0.6897642976,2.245440144,2.7692545705,1.0486424271,3.6326394616,0.9109455628,-1.5403428784,-2.9388967824,-0.7268524702,1.7838881156,-1.4573827748,-3.2144062971,-1.893223078,0.8781941117,0.2283376101,4.068849218,-1.1416114124,-1.5887079845,-1.8143331822,2.6023050284,0.0568209916,0.4131696749,0.9411518119,-0.5168590865,8.1347023352,-0.579089049,0.0954271026,0.3724161975,-0.8708686468,-1.8716689197,0.1357270184,1.2381393295,0.5605540703,-0.6497802069,-0.3749031587,-0.4203749668,3.4810399478,1.1124238995,0.107622018,0.5910109005,1.1119312594,0.9507809379,-0.3017315188,-0.7484129141,-0.4398135559,0.1349772569,-0.4757333409,-0.0937620238,0.8382359347,-0.0787324762,-0.7963657501,0.4836889224,-0.7413217529,-0.1725404905,0.8669731246,0.1380366744,-0.5547280061,0.9887255119,1.02602078,-2.3281767905,-1.4717692556,1.4339825728,1.2917383945,-1.3884886336,0.1281622216,-1.9301496356,-4.2469885556,-0.1613653994,0.7820521102,0.1358780315,1.0047454342,0.2204901224,0.7835207159,1.3139085381,1.1160706838,-0.5403091362,-0.0584642134,-0.70181682,2.3639507322,3.0748745927,-0.6927827276,-0.6341811859,-0.6363919028,-0.1422715873,0.8303909336,-1.6623982769,-1.2348949044,0.0651809567,-0.0308399972,1.1109060848,0.5135663582,-2.0296674286,-1.3566155096,0.5775372014,4.6793173899,-2.3435617059,-1.3837537112,0.6642191234,0.1481795747,1.3352586884,-0.7442089046,1.2052059175,-0.0242226156,-0.6402837088,-0.1197174931,0.5731993441,-0.7228886923,-0.3356228948,0.2182631237,0.6048933253,0.6360556586,-0.8085069095,0.6893176252,-0.6349518033,-1.1934755589,0.6210783474,-2.1823180493,1.4028937339,0.1255663702,0.6458377537,-0.1004544065,0.3182063014,0.611606838,1.3936259043,0.2549107733,-0.5420174808,-0.4805305821,0.5793859498,0.5325758602,-1.2881659313,-1.4968903255,-2.368298693,0.8923409186,-0.6515342057,-0.4633106717,0.6435212091,0.4419125328,0.1619249945,0.0843604857,0.9551770074,2.1881976218,-0.4088199704,-0.9688959166,-1.5608631328,-1.5123919175,0.3390127158,4.2167659526,-1.7100040591,-1.2513644118,-0.4153788697,-1.1699080238,-0.7227417455,0.963929584,0.281354906,0.7504535145,-1.6654562116,-2.9720478771,-0.317712517,-1.6261411713,1.7644166616,-1.8514177358,-1.2433040853,0.099075333,-1.258792156,-2.4216963953,0.8787096173,0.5727656868,-1.5431345068,-1.6088770209,-1.6938231679,5.3115797607,0.5216704334,3.1188427648,1.173231844,-0.8291980935,-2.2494945056,-1.431999874,-1.5790670043,-7.3414785326,1.5145347462,0.5846375822,1.0622470195,-0.2484977451,-2.6609385422,1.2456221365,-0.4156685458,22.8712321734,-0.1338370234,-6.8378012157,-1.5739616655,1.7281761872,-0.2385053558,5.1804177487,0.2063085197,-1.2046422273,-1.008892725,2.0843576162,-1.8756513578,0.4542873671,-1.6515256648,-0.0792085226,-2.7873122586,0.1584787124,1.3544015028,-0.9625551422,-2.374533202,-1.0821459545,-1.741474486,0.9084493958,1.2992867715,-0.6129134917,-3.3459465371,8.1839136218,2.1035616161,6.4096815559,-0.7527289643,1.0722969161,-1.3834153671,0.8400458726,-3.017667033,-0.4461541422,-0.7776341132,0.666692685,5.0261243039,0.9240002613,4.7697531734,-1.0726645804,-0.7517028783,0.4492193318,-4.1315310276,-2.9499568249,0.7167538179,-0.2726234373,-1.0304432099,0.777214871,-0.8434405497,-1.6057814546,17.3495424429,-3.6830626109,-1.116853507,1.1095128025,-8.3580737252,1.070194129,1.1273004881,-0.9303638556,1.0652420158,1.1822432161,-1.8684706616,-2.1143729352,27.7772824396,8.0488676833,0.1770892457,1.2023273742,-0.0654671785,2.9694254708,-0.3769066691,-1.138797554,-0.2475659807,0.3912340045,1.2791944662,-2.3380975785,0.0564843799,1.1810024676,-1.3278619417,-0.734490127,1.7911413268,-0.8026496047,-0.3362787235,-0.8214844877,-2.8813061778,0.0551054859,1.6174441954,0.3649201864,-1.6540193619,1.0213054586,-3.2152287911,-0.7538233862,-0.4447105002,-1.8537200147,-0.664301752,-1.3194487769,-0.5112161441,0.7719123458,-0.2108012478,0.1331638952,-0.6452888086,0.2764346499,1.6156572377,-0.090500422,-0.3854802962,0.1468948777,-0.1065114911,-0.0314282957,0.0172079075,1.2694075579,0.3289380689,-0.6611187013,0.3835927834,0.0740710549,-0.5221673361,0.7053972089,0.5372871769,-0.2224324648,-1.6263992657,-0.5749967899,-0.0895887956,0.3688372658,2.31417226,0.1225413228,-0.6724675285,1.6068994701,-0.9741626227,0.3948094257,1.6210667348,-0.3063864527,0.0016174666,0.5288768384,-0.2070956249,-0.7011217293,0.9746373187,1.1332477548,1.1317074458,-0.4553200816,0.2432564563,2.0122962169,1.1262824474,0.6242888606,-2.9049919632,-0.3451484584,1.2570131501,0.2790706166,2.2555686926,3.5907718506,3.1964682876,2.2215882835,26.0881907355,70.3319002624,-5.0021397587,-0.3827472806,1.5686291231,-0.5035808717,2.2686740826,0.4724160628,-8.712317355,5.0317468544,0.4936592365,1.6017413539,-0.2442032042,11.2318333848,-7.2444076716,-0.6369308808,-1.6777641656,-1.6384259875,0.570905117,-4.197112698,4.5099008197,-0.9769725717,0.3904609113,-1.2633321962,3.4436606925,0.8945920963,0.6704882611,-0.815816647,1.240116007,-0.3489812405,-0.335041455,0.7401256503,7.4460967975,-2.4152164655,-0.9508670941,-0.1223758893,-2.0754376872,-1.3148559164,1.1452379574,-0.8895405722,-6.4568548704,-1.5362976445,-0.1658282551,2.0473715873,-0.4951311364,-0.0399557349,-0.5090608154,0.3282537706,-1.2720559648,0.9244069773,5.0271082947,-0.3243551506,-0.7338108578,0.3222914115,-0.0449599855,1.0648316008,-1.0589517713,0.9980737975,0.3717780991,-0.1766701067,0.7070926072,-1.1832829352,0.4146168935,0.2010500505,0.0064201265,0.6817088556,-0.1167573265,-1.2459477442,0.3836514678,-0.7412928411,-0.8336253667,-0.0769014065,0.0207057857,-0.8353704587,0.3140825687,-1.6564847444,0.5130946346,0.7130115213,-0.1919927652,-1.442732313,0.8444227253,0.9955451815,0.2949444643,-0.671191936,-1.4087553705,-2.1261485644,0.0416045628,-0.20124553,1.1895984044,-1.6452415267,1.1492039669,1.2202217909,-1.8958299793,0.1033743392,0.8108539757,-0.6613534376,2.3491404209,1.1710346225,0.5704418223,-0.2495971001,-0.3134130217,-1.4833388363,0.6779052095,1.4574270833,-0.4256526226,-0.6498584373,0.0095332784,-0.0742914072,-0.5722428827,0.07746569,-0.3409496036,-0.5049460617,0.2196175903,0.6603310865,1.1800049811,0.6314324355,-0.5813893938,-0.0586481151,0.7650391113,-1.3927315389,-0.5189829237,-2.3595183053,0.4686813354,0.6952236793,0.9837107768,-0.443343618,10.9136713213,0.8951900973,-1.2016247179,-0.1714110599,2.1209171777,1.0969969101,0.3243472722,-1.1333449359,-0.2150397733,-1.7132498347,3.9507358289,-0.5553300671,0.2648821615,0.210882181,0.1613643978,-0.370089064,0.9210147321,-5.1541233732,-0.8762859006,-0.5005189728,-8.0341784113,3.6271417461,-0.8124012804,1.4740799494,0.6501988064,2.71699956,-1.6561312163,-1.535048387,0.4243697114,2.2122146785,-0.0676545698,-0.4268530724,-0.6302037701,10.8816823368,0.6053598067,-0.6497289385,-2.2959235727,-4.6150150927,0.3634445536,-2.862246953,-1.91162616,-0.7279882373,1.6513582854,1.2683308222,-0.2047922263,-0.1355719759,-0.6746712872,-0.2536033386,3.2457278273,0.3104820644,-0.524595815,1.3998057126,1.1684105895,1.6452223835,-0.1662174875,2.9491973747,-2.0318008509,-4.6710402564,0.1307225397,1.7674621787,0.7755855393,-0.8896882742,0.4461164138,1.3854117794,-0.1157916411,-0.9329870764,-0.2205980499,0.4942172375,0.0263313201,-0.5355853761,-0.8181651806,-0.5392822273,-0.0813215398,0.1414797718,-0.227538077,-2.2630030062,-1.0421780292,0.2550449687,0.5781400944,-0.7332923702,0.4081107674,0.3371523765,-0.0562174106,1.1895078234,-1.5984606326,-0.7884187296,0.763513054,1.6991325164,1.0458669862,0.2341192735,1.2530732331,-0.881154848,0.4143297808,-0.0076820341,0.1663061959,0.4109699004,1.1380710296,-1.5636116275,-0.724274568,0.3025633446,1.6349423074,0.8619849197,-1.0927963007,-0.6158665017,-1.0109064406,0.3679888123,-0.1996852638,-0.2190391557,-0.3414803022,1.5706858483,1.5868876663,1.569154307,1.4040086875,-0.3382034754,1.0038302736,-1.7121210978,0.4555006048,-0.2410973506,-0.9987882057,-0.7220402361,1.869707846,-1.1599902426,0.578270238,-0.6369963002,-2.3454332884,2.8732304436,0.9438626496,-1.3861510372,-0.4137450502,0.4890223932,-0.9101983539,-0.331619181,-0.6884720267,0.5015604158,-1.2048100218,1.0268754196,0.559372889,-0.448366541,-1.1837893054,0.0234736405,0.2828591422,0.1593417961,-0.4866199972,-0.7661085328,-0.9144389755,-0.3016733609,0.5001786426,0.4469118889,-0.3162501262,-0.6296403903,0.2476961833,1.2665456736,-0.9105792655,-0.0241363324,-0.7828197903,0.7008421435,1.0409246746,-1.8224916923,1.0579985271,0.0038527567,0.4217509454,0.1058340578,2.0031034388,-0.2614731011,-1.3017902645,-0.5556812793,1.7806143693,-0.4674648096,0.6339222516,1.5787888426,-1.149616823,-1.0305833341,-0.2155091818,-0.3422982298,-0.7757947493,-0.0909862993,-0.0440020628,0.2561207976,-0.5095669134,0.5402078787,0.1073898787,0.7381999102,0.9754557411,0.1502373273,1.0772585277,-0.2543260663,-0.819425164,-0.5370968668,0.3002953838,-0.3417467811,1.020160667,-1.7362141112,-0.2872226281,-0.8508496816,-0.2967988583,-0.9845108675,-1.6650902766,-0.4085602829,-0.4327848185,1.1070786296,-0.4413793709,0.5690042826,0.5772773214,-1.3783504373,0.6978013453,1.167559995,-0.3959812119,0.0378402063,-0.1059516825,-0.5625589104,0.2259467015,-0.7681396042,0.3876337433,-0.6953099792,0.6367728158,-0.5102033239,0.1098992227,0.605499324,2.0022961669,1.4764041287,0.0050116906,-0.1210726383,0.1972580141,0.2244664883,-0.1259524218,-0.0626242141,1.4856802131,0.2470861847,-0.6152754484,0.007173633,0.0701337545,-0.1625583359,-0.8769268068,0.3692731585,-0.6259163313,-0.9587904026,1.466524529,-0.1129888419,-0.9037825577,-1.0079985024,-0.3359527842,-0.7906921901,-0.5528939456,0.0242773045,-0.113651104,0.3273958276,-0.4136038349,-0.0711347947,-0.4717932943,0.5146638542,0.0598726348,1.4085057144,-0.2195456057,-0.2282016797,0.1500070005,-0.1222629744,0.1059178974,-0.0112497723,1.2330855436,-1.0145795072,-0.09848129,0.081965057,-0.1278103495,-0.6964680956,-1.1810708193,-0.7544480804,0.9222319749,1.2609681391,0.7215944987,0.1837004649,-0.4538059993,0.1323041998,1.1062773029,0.0160866663,-0.4209347159,0.8975942924,-1.5929250771,-0.1425961515,-0.9315942006,1.2504153228,0.0753654097,-0.0519198712,-0.903863699,-0.5434519815,0.4415803192,3.8839341041,-1.6094298816,1.339001313,-0.117765486,-0.8876465533,-0.2499793215,-2.704220755,-0.1442051924,-0.4823435281,0.3617877855,0.2533371639,0.0578336222,0.2419281498,-0.07181263,0.6988034013,-0.5550181626,-2.5481473742,-0.3674822964,-0.0156935649,-1.4255767813,-0.6874128343,1.7576192225,-1.6474232951,0.7333821284,-0.4618525423,-0.0573624873,0.9250873352,1.656656238,1.4861314007,0.4065847512,0.940878083,-0.5369958665,1.2129770482,-0.5635371858,-0.5775196649,0.8381336624,1.3982994783,-0.6317313433,1.5001177189,0.5312575831,-1.292542687,-0.8909456568,0.9605950681,1.2409772029,0.505302093,0.6502612379,-0.2078434613,1.3652239111,2.8741971262,-3.3853430436,-6.0621890568,0.0292827155,0.845838344,-0.0582714683,-0.4191368018,-0.7619029731,-0.2258251277,-0.8445216722,0.7779421444,0.1716194188,-5.8132475532,1.0674324842,0.7851899026,0.5143380563,2.2426638202,1.4251932,-0.2337699431,2.563847942,-2.9463274033,-0.5458690778,0.4007182284,2.4356271189,1.8101195284,-0.000360093,0.1991161944,-2.5516904678,-0.9595199495,-1.865542397,0.8532355637,0.3015002566,-2.9352058385,0.7038653097,1.125078283,0.4621745695,0.2822143875,1.3586029534,0.9095468726,0.2546548895,1.0161178106,0.869331282,-0.0838321233,-0.5075829663,4.7702674873,-0.1218419533,-1.4121449287,0.0618790954,-0.6576414395,-0.4273304113,4.5469191839,4.95858021,-0.9516533914,0.8059849309,-2.4254291704,-1.0317542119,-0.6907553598,-0.9948385882,1.3511274943,0.15446467,-1.0998536376,0.3202873951,0.3357229948,-0.2718429364,-0.5652981738,-0.8067319474,0.6652281964,0.5802892925,1.5130768045,2.2053838987,-0.0156734958,-0.4651907659,-0.5047313327,0.2606099138,0.1484394033,-0.1083532268,-0.3983245236,1.5153522924,-5.3005698279,-0.3952306141,0.804228681,-1.2089286231,0.0710244917,-0.6683055605,1.9422721051,1.029137448,0.6414144585,0.0373313124,-1.1022220777,-0.413720772,0.5492546185,-0.9132451707,-1.4705432273,-0.6135490407,-0.2940369804,1.9348048578,0.8762740302,0.2539483781,-0.5371058539,-1.6247362787,-1.4916392998,0.4384107866,-0.8921373464,-0.9200748867,0.6501303845,2.9353065311,-1.6414989988,0.841048683,-0.3936862466,0.5882710002,-2.4930222765,1.0163945631,-0.755326223,2.0589720677,-0.6560120143,-0.7490557504,-2.1205813216,2.6605342303,-0.220019087,0.3884408907,0.164016385,-1.0167554859,0.2005442668,0.1609780392,0.2592571937,1.1261509904,0.504607721,1.4325384074,0.2326365714,0.5084004377,0.2500743533,0.7106158281,0.6179604069,-3.2181484535,0.1841812182,0.3973959611,-0.6945844037,-7.2788408611,-0.6427483139,0.9814817851,-0.0265232627,-0.8849363176,0.189347038,1.622570612,-1.5407998039,0.0915413508,0.2740351415,-0.6886634608,0.0662478001,0.8832168741,0.4263179734,1.5325839532,0.548549677,-0.6371800428,-0.2509799788,-9.0403558821,-7.9171022946,2.565364194,0.5223236451,0.0828950258,1.8284097515,-0.9823695319,-1.1476663177,0.6144601558,-0.1192919223,-0.1132746988,-2.9245566914,0.0577957581,7.7719223674,2.1498649511,-0.1164879364,-0.0885740764,0.3202072547,-1.0774277867,0.1907209091,-1.4197239134,-4.0040417533,-0.4897238712,-1.5550178888,0.8089015498,3.0779695649,-0.0640044417,0.7947290324,-0.2051796244,2.7843064145,0.8060845403,0.3017433867,-1.3249130858,0.2848721906,0.1117900928,1.1032718714,-4.0600170046,-0.759732205,-1.3473434089,-1.001646325,-0.5648464654,-0.7991577874,0.8359162367,4.9035153945,-0.7096973555,-1.7005964543,3.617248706,1.9750156043,1.7513814875,-0.2020742522,-0.087716153,0.7697835433,-0.3652028144,1.0215616805,-1.0134297527,-0.5053357249,-5.8862723172,-0.2563654399,-0.1749200832,-0.0745302486,-0.1922593021,-1.6630042321,-0.855797842,1.5665261109,-1.1818226641,-0.1049108776,0.143707988,-2.7030442181,-1.3461147375,1.2708799017,-0.4232620903,-9.0215993425,0.5152198202,-0.4675212581,0.3198434119,-0.3988241077,-0.8601907261,0.1688529032,-3.0710376244,-2.6907416019,-0.3056754368,-0.8855889645,-0.2358425224,0.9873252172,-0.1875016541,-0.4338428145,-0.7885699542,7.2950462403,-1.1446688923,-0.8571793302,-0.6033248405,0.2893458331,1.9186946179,-0.5294881081,-0.8643473491,-0.4329775908,3.1804749195,4.029234233,0.4605215719,-0.064326497,-1.051033806,-0.3763470124,-2.6222174826,0.9915309078,5.0468916513,1.382534391,-1.9317436072,0.0360938696,0.1434514753,-0.8486036907,-0.7419352534,0.3296856697,-0.442201251,0.3679246197,-0.5413095067,0.5341791218,-2.6481921895,-0.3738873404,-3.1890262527,-0.9103758054,-3.2940329017,0.8955530664,-2.6501001603,-0.4644552088,-1.1479545703,0.7380929896,-2.5871966825,-1.015000399,0.1750149874,-0.9392559838,-0.3173776868,0.0536678051,2.7711943811,0.6531928207,0.2967315354,0.9765012382,-2.6384795242,-3.1695799261,-0.5916903617,-0.6467775679,0.4984333694,1.6657521045,-0.6783449717,0.7962967476,-3.9425306004,-0.8874811183,0.7293932641,0.6206399795,-0.6465463642,1.0667517812,0.9024163452,0.6314624496,0.3837513396,-0.7893710577,0.5194257056,-0.7966999438,-0.137306925,-0.2501213253,0.264783771,1.075698071,0.6893562075,-0.2252491525,-0.6649770778,-0.3767124785,-0.5878358957,3.3005606698,0.8075672662,0.9994038374,0.9565426576,2.0164053,0.5325066412,-0.7862185962,-0.1544388128,0.6060706041,-0.287589131,0.9851531391,-0.0126410405,0.7729813199,0.4559547505,-1.2511997977,0.9755454339,0.3534903686,0.367156561,0.3382435382,0.8396652735,3.3413041195,-0.933445599,-0.2001511894,-1.4273212186,-0.1821655706,0.6594149646,1.9428569152,0.0906347022,0.1627277936,0.4037747761,-0.467224714,0.7044508985,-1.8566236954,0.6582362026,0.830236734,-0.6101061514,1.7420564019,0.9962105234,0.470148819,0.3902041558,-0.573162937,-1.758489143,-0.9869008909,0.0778113607,-0.2843366511,0.2521035883,-1.0708586024,-0.4248462731,-0.3267876982,-0.8242861692,-1.0321571444,0.781057979,1.2391659814,0.4861466272,-1.6365909405,0.3221762258,-0.1860599737,-0.6263117209,-0.3053465534,-0.8497206454,-0.8494162997,0.9047812075,-1.6735335517,-0.9806046026,0.2737206007,0.2147786975,0.5115609364,1.0260546244,0.0164218888,1.1492420985,0.1767384471,0.9413458965,-0.6330925487,-0.2056192725,-3.040172565,0.2435552607,-0.2054280682,4.0654735392,0.6823837768,-1.0412196217,0.3103104931,0.7017664663,-1.1300679587,-0.7111039682,-6.9455822458,-0.8460554042,0.91180913,1.4622063562,-0.1004674943,0.086915529,-0.8935089173,0.1193826519,1.072824996,1.3247324479,0.9368780093,-0.3063394509,-1.6496178023,-0.7577471455,-0.5090747293,-0.0834722037,-0.3376035813,0.7211192842,-0.719891374,0.6194045717,0.4043443626,-1.0176890415,-0.8721970954,0.3263277028,2.4778397305,-0.2505278196,-2.8757949044,0.6981249312,-2.0817011971,-0.8437088701,1.0492067812,-3.0479359091,-0.779356251,7.6543179323,-0.655313101,2.3342163756,-0.5060080113,-1.5357428343,0.1416996579,0.8558549341,-0.1728523784,1.6474132753,-1.4664099124,1.0424643085,-0.0725743102,-0.0479581697,0.6916939128,0.5512482226,0.1663970576,2.0979078526,-0.2642396213,-1.8799394162,-1.0392738823,-3.1913890846,0.1932576277,1.1589692902,0.115462423,0.7411370877,-1.6724906589,0.766519028,2.0867981222,-2.0104098386,0.513243333,1.4783589469,0.732864565,-1.7779849917,-1.302642037,-0.8163683782,0.1647059707,-0.0821449687,0.9441337748,0.6869902552,-0.0863542458,2.9908378267,-0.3175483219,-0.7625285711,1.2809156991,-2.3746304787,-0.1172497887,0.6036272054,1.9965270641,-0.1209512719,2.3509060411,-0.3571131875,-1.0801617295,-0.3902918293,0.3279875384,-0.8195602135,2.060963821,1.3449816563,-0.4470797208,1.6741019542,-4.3065262298,1.41605299,0.9227723509,-1.4115562426,2.4245702761,-0.2074150683,6.1431431129,0.1088846975,0.5960490601,-4.0759180062,1.2570164013,-1.2017247288,-0.5713024776,0.2963501151,1.8712567913,-0.1410393917,-0.9335184634,1.4691133722,0.5298023449,-1.1155167547,1.3776789429,-1.4481744306,-0.0532608887,-0.7819131747,0.6710787735,1.0292257147,0.6299063692,0.2733025964,-0.0755714727,0.209793296,-1.8582512338,0.1920090275,-5.8787564021,-0.2038731511,0.8990037917,-0.097935633,-1.0148941281,3.1456698621,-0.3608021108,0.6395412157,-0.0065398353,-0.4412476783,0.6856319256,-1.2765934774,0.3271967837,1.271654028,1.074144749,-2.0640626699,0.7927901481,0.8164116731,1.233907124,0.7573132276,-0.4197874355,-1.5468765202,-0.4670348337,1.9341151706,-0.3883766219,-4.1694975118,1.5684302228,-0.0288134389,-0.3946024098,-0.7226259181,1.0747243036,-0.2406076482,0.1711667173,1.195832131,1.1272675641,1.6887029112,-0.5790924136,2.5241440962,1.3690485001,0.7487543996,-0.4083510352,0.3337233259,0.5591089438,-2.4154817306,0.6120999588,-0.8383863206,-0.515925838,-0.937833531,1.4443692179,1.1999635919,-0.4493200782,-2.9012128961,-0.251987483,-1.6533511627,2.4478703883,0.110810786,0.0500547565,-2.6042802994,-3.3380334403,0.7002073761,0.7906974672,-0.1530612354,1.3456590205,-0.6100347872,-0.3881021331,0.7047297829,-1.6415081741,0.857233428,-1.0757923477,-0.151545955,-0.2978201287,0.0019111214,0.389478632,-0.3946740506,0.1188793028,1.5657639481,-1.5071355224,0.3690628669,-0.1522204744,0.296696595,1.1253160245,-0.03536898,1.9288229859,1.1185184188,1.2791233831,-0.5295794066,0.0966712007,-0.235028412,0.1707486925,-0.1779195521,0.0844551569,-0.3152022426,-0.7328143386,-0.3965115684,0.3325951213,-0.0672618896,-0.140175743,1.3142274801,-1.1364537081,0.4396202553,-1.796946477,-1.0388791785,0.1282481339,-0.5640904477,-0.6410974468,-0.1579445369,0.1290114438,-2.6822912397,-0.5489275952,-0.1269237329,-0.1951283019,-0.4110637504,-1.273031577,-2.9457612054,0.9951803075,-0.8543376584,-3.0765243897,1.1630485141,-0.0272948734,0.1476535944,-1.4673987139,-0.3212591377,-0.8109953319,0.454874158,-2.4695513386,0.5005585214,0.7222649857,0.6453092263,0.508693218,-2.3621975806,-0.4946941565,-0.4690090072,1.0092262256,1.3629832066,1.1476700152,-5.169506344,0.5670223254,-0.8156425171,-1.4436749767,0.4375519838,0.8608381914,5.5902920137,0.4491651782,1.3698875483,1.4205849465,-0.0036665408,0.4337860848,-0.4704631361,0.0543752313,-2.9281892007,0.4381191079,-1.5503306094,-2.2937089462,-1.212899295,-2.9062954146,3.9963805617,-3.61660397,-1.4308849838,-0.5564973947,0.1877001786,0.5201886883,-0.4941335193,-0.5326445087,-0.5398769125,-1.5141238544,0.3612174265,-0.5672491929,0.6050791195,-1.6042304047,-0.1187561632,0.8897422485,-0.0720783738,1.3012686827,1.68161139,-0.761842388,0.2725615112,0.2487208398,0.7113635488,-0.6664456686,-1.5449040743,-0.5184585335,1.4065676619,-1.2071195126,0.9886112363,0.2379509314,1.1116697897,0.8560673165,-0.1768171482,-0.1111426858,-0.5216754265,-0.7402766466,0.1546589923,-0.8219453466,1.5814176143,0.3661515623,-0.1594721432,-0.1907438876,-0.1964414957,-1.2315304998,-0.1783723148,-0.0010374533,0.3930874782,-0.486507427,-1.6187047814,-0.9384297415,-3.0316974428,-1.0948833676,0.7869257502,0.0534156987,0.8485760625,-0.0082276863,2.3268336338,-1.2669069967,0.4474421896,-3.0794914536,-0.1482901054,-0.1489246037,0.857608543,-1.3512864349,-1.5799682175,-0.0271394979,-0.1787923633,1.1780329917,0.7330278668,0.8511784867,0.7909253725,0.7382577863,2.6206036984,1.3359437434,-0.2594655532,0.571900289,-0.881872221,-0.0770121729,-1.4601745665,0.4493889217,-1.2702455502,-0.9109721423,-0.9933476388,-4.8587869624,0.0316494108,0.0240688144,-0.5204122224,-0.0723823969,0.5658759179,-1.1998255764,0.0274615163,0.0357708728,1.2484522887,-1.3538321166,0.0336838987,-2.0865109338,0.6385570057,-0.2223232769,1.2408397202,-0.3343222398,-0.0142314083,-1.786742817,0.2000939079,3.117124126,0.7120701275,-0.417949588,-0.7253167715,-1.376079952,1.3741457349,0.4883195702,-0.4260600515,-1.3279211723,-0.3181864738,1.4136635874,-0.182328863,-1.6184840836,-2.511639989,0.397746473,0.5710515115,1.640043726,-0.6271676188,1.1106510168,3.0843712069,1.2936077572,-0.4369800497,0.9482241243,0.1251184461,0.1598984432,1.0644642554,1.4108242579,0.0361788353,0.9532823905,-2.4795364504,-1.5129253764,0.7267307346,0.6203919814,-0.5801117195,1.6977213595,-2.4053867798,0.8214218619,0.4907526361,-4.0238126388,0.3989505123,0.2487475516,-0.8590275838,0.1183817825,2.898301566,1.2225442966,2.7646956084,-0.877249898,0.5749578745,-0.2140542472,-0.2929939462,-0.5490475057,0.183402402,0.223241907,-0.7680432562,-1.9893533635,0.0124840196,0.4329499921,-1.003624868,0.6346914413,-1.3580024881,1.0524197313,-0.5539577842,0.933471167,0.0257261542,-0.0357179347,-0.5539761081,-0.1564987154,0.9015737039,-0.6385205308,-0.8255311061,0.5416385569,1.7133958566,-0.942406035,-1.0760906582,0.5487295419,-0.8628790892,-0.2975472978,0.0342307936,-4.4669062305,-0.0869965483,-0.4474321871,0.7329192006,-0.9730955336,1.56707714,-1.4138901595,0.1856109579,-1.2962554644,0.1376112079,0.8659189276,-1.2344026399,-0.3206704596,0.0616397252,1.730593138,1.182205674,0.9198444981,-0.1595404861,0.0804814008,1.1617837127,1.7068608882,-0.0987023455,-1.0181291783,0.4323723213,-0.8067924223,0.9896970884,1.4059211368,1.1734721221,0.414907124,-0.8316601263,0.3622711808,-0.1072950994,2.3369027705,-0.2801502674,-1.40800643,0.0815246449,0.468398226,0.314496819,3.3911048937,1.7188011231,-0.1550011907,0.2779976927,-0.8338939445,0.6071872539,7.8254486623,-0.0669659999,0.9099926961,0.3318321953,0.0833770659,4.3258803957,-0.7366893016,-0.1475345423,0.8204128548,0.1033894102,1.4520862287,1.3674445731,1.987336475,1.5615753031,-2.3095740475,0.1813020784,4.4400690611,2.915103175,0.2266794942,-3.7395024244,-12.0520800923
   -2.2798656225,-1.2812363011,-0.5935993559,1.2923786039,0.217007292,-1.5314814257,0.1928733612,-0.9581765677,0.1259443778,-0.2298895847,-1.3234579435,1.2193862302,-1.182139931,-0.734548875,-0.0563276592,-0.7541642361,0.6997026367,-0.6827370983,0.0854239976,1.4675775441,0.696272606,-0.1812605462,0.0083677827,3.7305370831,1.8387005436,-0.2923151342,-0.2633056244,-0.1735286838,-0.6908130309,0.2158480436,-0.4315945186,0.0436501271,-1.1864377427,0.8119025542,0.32552542,1.4094429424,0.7336187765,0.250812157,-0.9811407004,0.90731121,1.2277741763,1.0432939051,0.8795530493,0.1262439496,0.9273800908,-0.0496144185,-0.3978478652,0.5573479628,-1.7281589873,-0.6558965046,-0.3846385404,0.878769658,0.0713831969,0.615798425,-0.5305604384,2.0429117186,0.3677839046,1.5774981577,2.8099350642,-0.5846923878,0.5571200974,-1.0978224447,0.2119794535,0.0040073239,0.213043591,0.5334417711,-0.9114161715,0.2707733639,0.5344883041,0.3589588575,0.3511308365,0.1469517643,-0.0836964962,-1.2133492975,0.5245503284,0.4673168983,-0.5132954224,0.0132226998,-0.5923097254,-1.1057489092,-0.7406214687,0.9950697742,-0.6675622252,-0.7862213411,-0.734649325,0.4808346148,0.3829831649,0.884286538,1.0132412044,0.2558690311,0.3195659663,-0.2964154426,-0.6571028133,-0.4474280813,-0.1978034783,0.632483418,0.0098402262,-0.4432082978,-3.0090273162,0.7253256431,-0.5979533432,0.556176046,-2.3733851446,-0.9996115006,-1.0248864312,-1.6672276179,-1.0725156111,1.0444839847,-0.1928210169,-0.8377999673,1.790023546,0.6997659032,-1.2913686864,-0.4360906726,-0.3242552759,0.9858442774,-0.8688141198,-1.0016928574,-0.0384744168,0.8502064094,-4.4118531173,-1.3663445655,-0.625212871,0.4098925695,-0.1202460829,-0.3292163699,0.9424097032,-0.1756911667,-0.207138368,-0.2602342035,1.0179885706,-1.7818570752,2.0366058647,-0.8312266323,-0.0571244687,-0.1961866243,-0.4182485989,0.4090281384,-5.4460160629,0.0199471259,-0.2790656264,-0.1920914276,-2.1499682708,0.7398348239,0.1885570737,-2.4978447915,-3.9090952835,1.3145633594,-0.8754459083,0.0995861581,-0.1097511514,0.7271226858,0.1757189427,-0.4110765364,-0.3731066345,0.4213673173,0.3806915348,1.6755315507,-0.5893052674,0.6501447932,1.112428821,-0.0284709647,0.7032410544,-0.9165531969,0.8466104577,0.8357625111,-0.9005095677,-0.6596303881,-1.530695934,0.4522100854,0.0531703527,-0.6897010679,-2.6043113801,-0.1042836507,0.2623876368,0.0515060728,-0.9842309249,-0.2366250481,0.6003739696,-0.2538703802,0.0334500639,-0.772111631,-1.3901021702,-0.7686933727,-1.6649152311,0.4376735359,-0.6076394159,-0.7588037196,-1.4151678366,0.2613721017,1.6544006406,0.1385194059,-0.6700947633,0.2846180566,0.1439693281,0.8873501675,0.3317863337,0.1297138465,0.4533852972,0.5718568356,-0.7964979501,-1.0417305512,0.3554226461,-0.0512154044,-0.0929288798,0.8903888723,-0.3310504348,1.781502782,0.1598650154,-1.8704847704,0.2973546991,-1.1274565616,1.2443082841,0.7837854598,-1.1982265179,0.8674243164,0.6098431535,1.0887704821,-0.2059054945,2.6317425035,0.1372039911,1.2104639695,-0.6395377411,0.9911669789,-0.3147699466,1.2745907093,-0.2151588853,-0.9184595527,-0.2214178849,-0.8501042271,-0.3237873011,1.6715834366,2.0322057369,1.4234810666,-0.9463364223,0.1161995157,1.4088716186,0.3669383762,-0.8177681191,-1.7424810138,0.751685641,1.4899429414,-0.199842478,-0.7694451066,-0.9567450185,-1.0475039824,-0.1282296469,-0.0821579353,-1.065106654,2.6878881198,0.0735790784,0.6951775647,-0.0057344838,0.272139094,-0.3622021316,1.0374166887,-0.1306645247,-1.9821305271,-0.0922988368,-0.0502294581,1.1904490387,1.3276735454,-0.8841843915,0.5205666878,1.06447801,0.3087597463,-1.4499709792,-1.135468848,0.622884491,1.8928181522,-0.5198967985,-0.2798059327,-0.6033913674,-1.3575982081,1.2237871115,-0.0298243772,0.3913098262,4.9132157888,0.2310180417,-0.5711060559,-0.1579417232,0.6400735827,-1.0522892178,-0.9252862755,0.2173928971,0.0563328661,-0.467604119,0.1432990692,1.36124288,1.6164646989,0.8354955837,0.7771335178,-0.6334991085,-1.1777870666,-0.8175079409,1.2220502003,1.3745126969,0.3175324824,2.1815173826,0.5646025613,2.8329423257,0.2813961054,-4.0585827228,-0.0194242947,1.0178060067,-0.3916068883,0.5149510617,0.895954674,0.3287733138,-0.4330223975,0.8925335553,-0.070716866,0.9901848056,-0.6769553456,-0.4354668007,-1.2787148923,-0.2764350678,-1.1286595121,-0.6032035472,-0.2064418901,-4.1491691197,0.6669898129,3.888308359,1.0850563674,-0.6847722003,0.1479446785,1.3893223432,-1.2792246407,-3.2227683077,0.5931738693,0.6075702712,0.3762287765,0.3452608274,-0.2049258292,-0.5615613547,-0.8922641607,-1.0336737527,0.224208497,1.1072271275,-0.3884983133,-0.8818653602,-0.1330040184,0.1822553514,-0.6325549386,-0.9775969955,-0.4936302287,0.9384191685,2.8580589357,-0.9905948783,-0.5879000961,-0.9904380171,-2.6185119369,0.1161270762,-0.6712549904,-0.3848055598,-2.4070330617,-0.0117973624,-2.6872105995,-0.1721662655,0.4298417249,4.235643254,0.1398445021,-0.0443880913,-0.2771375062,0.9710877288,-0.7462877333,1.7204939524,1.5623571882,0.3402623161,-2.4569948024,0.923769546,-2.7765711601,0.1960951522,-2.7887694902,-1.1351726245,1.7769854706,0.332024631,0.4448283174,0.7599922123,-0.5839815077,0.20766465,1.8595510776,0.9406522116,1.9607168568,1.017825803,-0.4860359225,-0.016374643,-1.0969633108,-0.9615097493,0.1051387546,-1.4290342893,3.143279006,0.728571251,-0.6322162595,0.4791898158,0.5933161055,0.734773568,-0.3066859834,-1.1561570847,-1.9435173939,1.1425500943,-0.9015413238,0.8220003313,-0.8239619813,2.5740155247,-0.6824615443,-0.2944217558,-0.609075798,-0.8445945375,-0.1788192134,-0.4886422789,-0.0990639814,-0.2802218572,-0.8569687293,1.9483731762,-2.0889843636,-1.2702339161,-1.1236262705,-0.2515061596,-0.9840621836,-1.3161202725,-2.1350944077,0.0450556878,1.0006082426,0.3917467986,-1.0571131138,0.8844366225,-0.8408044338,0.100471152,0.8128481207,-0.3751420223,-1.0993411167,-0.1332525201,0.5154038126,0.5479361578,-0.49652137,0.0113726688,-1.657577079,0.1710362433,-1.3533104764,-3.7918532383,-1.3063036341,-0.1780666116,0.5206238049,-1.2067269129,0.7745809502,-0.7764843907,-4.3858146623,-2.1775378094,-3.5843964576,-0.5996403919,0.1219435708,-1.1021957769,-1.7850990687,1.0268621772,0.8882631753,-0.0152085884,2.8187048113,-1.3810927953,-0.4730809153,0.8217099251,0.1320793669,-0.5812080526,1.1073600932,-0.8591002135,0.5999480869,0.172807187,-2.5045706995,-0.3500531813,-3.5807395423,-1.2452826523,-0.3869422879,1.3204923048,-1.0085117853,1.3943048464,-2.1593850808,-0.0752635458,0.0683087899,0.399988651,2.6462172719,-0.2577851338,3.8789030699,0.3515223962,-2.8976872108,1.2741639551,1.4080978345,-0.7581057702,1.0841531213,-1.7081965056,0.332314007,-1.1729131587,-0.0173979402,-0.6958106631,0.5374325368,-3.8880514581,-1.0275847452,0.4131484812,-0.211560942,2.9139493161,-0.8323925404,-2.4253102503,0.7562974946,0.2434546415,-0.1843182806,0.4619399125,0.267667505,1.5295849718,0.8493836708,-0.7898402067,0.454304984,-0.1208846937,1.1023324147,-2.9284579064,-0.724352829,0.8184127422,-0.7907389258,-5.9860174189,0.3027532198,-0.4990444169,-0.4810921336,-4.3457613389,-0.1256123138,-2.9866390742,-2.4487467523,-1.6314721886,-0.0426870535,1.2133630235,-0.2794504517,-0.061489857,-0.1521656719,-2.8148001007,-0.8601709397,1.372063256,-0.5974144668,-1.5574766506,-0.5977959768,-0.6754220952,1.8190862444,-0.3596672045,1.2638152904,-0.1578984672,1.7488370559,0.4578909296,-2.2738703939,0.5638211936,-0.2299774887,-0.1916148145,1.1557852853,0.5158453499,-0.0109560449,0.4187382237,-0.5319581491,-0.7179710101,-4.2598546743,-0.405581147,0.1446992723,1.5201757502,0.1828618428,0.420276543,0.0308267718,0.4001026059,2.3428147978,0.1134394034,-0.2198303938,-0.4127540954,-0.2197270278,-0.212959452,1.4061918871,-0.4588669538,-2.134380455,-0.5841768661,0.5832212704,0.4475407659,-1.7829933283,0.7011851424,-0.3325582809,-0.3459135881,-0.8428693753,0.4751066698,-0.2418936472,0.9958351716,0.7394008351,-0.7927374129,1.4232886734,-0.24804189,0.362251758,0.652719462,0.2077474762,0.7792655288,0.3749341951,-0.5854584434,-0.2812398981,-0.8558208987,-0.2242282647,0.8971562252,-2.1661362247,-2.0787193863,-0.6580381655,-0.9253410103,0.4298338437,1.1672688675,0.9629942256,-0.4969256641,1.0133870896,0.4180572481,1.200105778,-0.6567468703,-0.7492835619,-0.8043419424,0.094040133,-2.5589804901,-1.115459978,-0.0262068531,0.1816775295,0.2053579375,-0.3916075357,-0.9616343859,-0.6224424016,-0.9694173734,1.0461180176,-1.3284470102,-0.5858588785,-0.0824371219,0.2027712108,-1.2651815064,0.0208766369,-0.0840351224,0.2718707341,-0.4961984227,0.3654887581,-0.3743021195,0.3479822597,-1.7230988016,0.3139955151,-0.5099976442,0.5987541719,0.0109911032,0.3536010369,-0.7467809926,1.2140411805,0.2005383551,-0.4040756042,-0.5527319285,-1.1845333232,-3.9628134173,4.4463649159,0.4984065097,0.6505900266,0.9075305199,-0.9084469659,0.2728776901,-1.0953430077,0.9158868703,-2.2449592828,-5.1947388053,-0.7865936405,-0.7736532706,0.6280941156,-0.6586054952,-0.034094155,1.3139842944,-0.5148892616,-2.2458001113,1.7127366885,0.7316414207,-1.4424753136,0.3349752621,-0.5788080132,0.3930774525,-2.8609460892,-0.9294889328,1.6887985591,0.4032161166,1.3572360005,0.5998049912,-4.5919426546,0.4082150947,-0.2787252741,-0.0718437672,1.350966792,-0.7777391305,0.6218925752,-1.6327122946,0.0326981975,0.7533127728,2.766208674,0.6932547436,0.767304722,0.5582993705,-0.9770649756,0.2967889608,-0.7434531172,1.1384395564,-1.5685074937,2.3311635469,2.3000242275,-0.3872186214,-0.3750779644,1.4396964491,0.9174690388,0.7494141785,-0.0191388394,-2.29231679,-0.0589309419,-0.1851077713,1.8232046139,1.117819122,-0.7991764945,-0.091240816,1.3585002767,1.1166068659,-0.6455626378,1.1002045264,-0.2596148879,0.4025940982,0.5556955636,1.8225904661,0.121548552,1.6622251217,0.6819083576,0.3492411899,-1.6053517498,1.0468574171,-1.6769100983,0.6535670237,-0.0193446444,0.968578392,-0.1808017843,-0.7492140989,1.5219903629,-1.530629081,-0.0968681389,0.0202272188,-0.5702235044,-0.3029101115,-1.0938684212,0.1595174633,0.3904147199,-0.4271871188,4.3122507902,0.8481522321,-2.3313113478,-1.2388812932,4.6907342526,-2.3177970148,0.1846603565,-0.725737287,-0.1164028937,1.4621963508,0.1894326937,0.2091945683,1.3460508418,-6.4540545655,0.4990795608,-1.7965207442,-0.6793872436,-0.258385567,-1.1625930252,0.2869775752,0.2671308639,-0.7216330403,-0.3603899633,-1.068855229,-3.2581198407,0.701301438,4.2726588717,-0.7937753346,-0.2982154129,-1.0359632558,2.1998820318,-1.281127621,1.4053068618,-1.3777561894,0.3844181522,-0.2471334977,5.3736895933,-1.0658205237,-0.4913079408,1.5778275367,-1.0017859989,3.9393829231,0.5359464607,-0.2161056702,2.9230141043,2.2518161811,1.8313076697,2.1255007598,1.8286283361,-0.2710641251,-1.4086501821,-2.6891031819,0.0224818732,-0.5424185189,-0.3715258143,-0.7352744344,0.4825508474,0.5583290173,-0.2696700327,0.2764428332,-0.3941652164,-0.2598309771,0.1663709053,-1.2411511368,2.073004965,1.0578654539,1.2117531327,0.4294450159,0.8592477291,1.4586731441,2.3465954996,-1.9340491499,2.169295908,-1.0905195636,1.4884715426,-0.243263595,-0.8945714633,-0.4160780882,1.5341483233,1.1725711537,0.9570643437,1.6594634877,1.576009902,0.6733200531,1.4886450213,-0.0381244629,0.7056514558,1.6578736896,-0.8226661478,-0.2254332366,1.4421520179,-2.0737355638,-1.29026643,-0.1012990971,-0.3982327386,-0.5063076376,3.0307768264,0.0130264359,-3.7600300722,-0.5628403575,-0.7450441409,-1.7695717314,0.5895242219,-1.5233807997,0.2700881823,1.1708962283,-1.5624804729,0.060675571,-1.2550049516,-0.1239830565,2.0379242717,-2.309385362,-0.1623101179,-1.4201012632,0.2448085351,0.7211697383,-1.4707503033,-0.8006824554,-0.0439399993,-0.4182033092,0.2551691184,-0.4043910238,-0.434770642,-0.8938989236,-3.2978765369,0.3279926994,-3.5322764473,0.6904946581,0.73062001,-0.2282671204,-1.0002774143,0.4255412142,4.216280124,-0.780817004,-2.1780171007,-0.0561927363,0.5128557777,-0.4890390513,-1.345220632,0.9142329954,-0.2038073259,-4.5912229264,2.7395442893,-2.403781787,-1.1875068647,-0.5191652762,-0.3867692308,-3.7168760161,-1.0768020045,-0.1167654721,-1.2175738552,-1.3712801201,3.9363984694,0.7626062228,0.8203650537,-3.8785681969,0.5775584559,0.5727504666,1.0003955496,8.3069864372,-3.029695831,-0.7635249035,-0.2122959388,-1.0629056433,0.4690053083,0.1010911063,-1.9020388796,-1.5422959132,-0.5185760752,-0.3150757044,0.3801059319,-1.975051062,-1.384633224,1.4655426559,0.1160479896,3.1455923257,-1.1805124994,-0.3488195157,0.1393684401,-0.4186567133,-0.5787388652,0.6638602576,0.958797966,2.4795680041,0.1823926872,-0.4059859148,-0.4555000544,-3.4692496013,0.8473708087,0.7151995627,3.1965524987,-0.257916473,0.8214270734,0.8028169111,0.9045923707,-0.4396794465,-1.9803248841,-0.0977308217,0.7448720127,4.5600218948,-2.3136187883,2.1951205127,-0.6240505997,0.0122338422,-0.9931689392,-0.1045485583,0.5389964931,0.6622277107,-3.7498824848,5.0985598066,-0.4248914475,-0.6772111028,-0.3311600652,-0.4787733201,0.0917832659,4.6556115401,2.7324207493,0.9774291109,-1.4652943872,0.6980778478,-1.3300645079,0.7189899529,4.9765157185,0.4101996047,0.4537959513,2.0589948795,0.3018169488,-0.5237751218,0.6329787692,-0.9402144953,1.181378205,-0.0457246888,4.5319150309,0.1826333156,-2.1050723506,-0.0817049834,-2.9569513695,-2.4935612349,0.9389203484,-3.2865627227,5.5914119711,-1.5033242718,0.3553630278,-0.4482118297,-0.0103449935,1.451515725,-0.5991993978,5.5845854322,0.0169029632,1.0928209177,0.9389920567,0.3735223054,-0.7568379922,-3.133298077,-0.2147368724,0.4030749959,0.0729674669,0.2300795996,2.2353742977,-0.53965227,0.7842952825,0.0430941578,-1.1682093784,-0.2911269412,0.3459323379,0.704799266,0.0165839576,2.1166141809,-0.0884768576,-1.8355829947,-0.2533919552,0.1361064782,-1.0781323096,0.2935022837,1.0679506702,-0.5603083374,-0.4267233007,0.8457259218,-0.2479113736,0.7283254172,0.4228361683,-2.103058012,-0.052642378,1.669523415,0.7561961912,-2.5649420477,1.2792058395,-0.7827651568,2.1703325005,4.2122317019,-0.0283680698,0.9938224874,-0.8852272628,-0.0319967708,-0.5487806751,0.3785307146,-0.1107070367,0.4744180777,-0.6336635032,-1.0947156529,0.3342130894,0.5108918655,3.4227347882,1.1430184949,-2.575900983,1.1363574719,-3.0990808632,-1.2239200999,1.1146594453,0.3999676275,0.3062552566,-0.0591476677,-1.3785931254,0.3567293058,0.1635206031,0.330880035,2.0748793779,0.4378194787,1.5031464507,-0.1885495082,1.4601406614,0.7331772267,-0.3520823097,-0.032272603,0.5706643411,-0.8792648364,0.3020779278,-0.0751072101,0.1440908256,-0.0145900248,1.0497138704,0.4643710749,1.4909377074,0.6056018162,0.4917561947,0.0014940559,0.6581651486,0.059350482,1.3871307953,-1.4414372054,0.4557991922,0.3201724295,-0.2575817897,0.4207328005,-0.0650101583,-0.9692981624,3.25106834,0.5983793533,-0.1157604264,0.6911380851,0.5662999341,0.1725448072,0.101279397,-0.0163142925,-0.0572559739,0.7186033231,-2.8173074491,0.6614701748,0.6094056225,-0.392094397,0.0371248121,-2.5468187742,0.4845138846,0.8524122935,-0.8218654807,-1.4882037059,-0.3155787103,0.042538237,-0.2345949035,-0.2241433727,-0.3972392709,0.0133210291,-0.1082039737,-1.340002134,-0.5270563664,0.1706150555,0.5047788152,0.4304433216,0.3279322895,0.0477152939,-0.9902179255,1.1576086965,0.4461506192,0.0859199562,2.084005259,-0.1528780952,-0.5962528389,0.1244145396,-0.2581339076,0.257708382,-0.795720968,0.0565378246,-2.3019375316,-0.3742436368,-1.9096080344,1.4471174299,1.4056615642,-1.3869508226,0.698886681,0.6639535582,1.5906803879,1.4672717361,-1.5611484564,1.1281140651,-1.4932536463,-0.6054562589,0.5569453943,-1.5503195695,-1.3426019045,-0.9455087654,-0.8810847084,0.0016376262,-0.3296238921,-0.314974969,-1.7722495914,-0.8681054635,0.8429462253,1.7868737426,-0.3731447536,1.3910594166,-0.0724579882,-0.6291298503,2.9897143396,-1.3772096676,0.1009093367,-0.3513928826,-2.9963855712,0.3908446175,0.0607993285,0.1391276502,1.6334209239,0.7018319323,-0.514607268,-1.3291094891,0.7009606671,-1.0095147758,-0.3331079275,1.48383641,0.5618629625,0.1220517599,-0.1873488521,-4.54070686,-0.0241747766,0.1805298474,0.6526733514,2.3995070405,0.0439882547,0.6611461402,-0.2477642877,0.6495189908,0.1051277526,1.976322932,-0.7991549816,0.7143480293,-0.7077011947,0.4434200926,-1.1007606924,0.4556134459,0.4853357266,4.0523291476,-2.0275344314,0.0252540517,0.6285883869,-3.0704339685,0.8115627601,-0.0387500565,-0.0842663769,-1.0448929189,0.7125011824,0.3903771062,-0.2011060192,1.7314767336,-0.2988166689,-0.090578271,-0.4395871891,-0.7016343868,-1.6668473208,0.5615065862,0.3941775649,2.5321755291,0.7562208396,-5.0436971578,-3.2934441394,1.064647196,1.9261298585,-0.0937876126,-0.8808829243,-0.130036663,-2.3558890937,-0.0359680251,-2.3420991261,0.8864229156,-2.5127322053,0.9599717494,-4.8926675059,-0.0571740467,-2.9596604981,-0.50674915,-0.6534352094,-0.1928191535,0.0210779003,0.7284927707,-0.9094887067,-5.0582188075,0.9279738046,-1.2273440864,-0.5606725737,-0.6878411433,-1.8684026662,-0.5265358991,-0.4320918621,-0.9679591507,0.3023221216,-0.982845322,-0.0154926622,0.3915405811,-0.4149969396,1.1979633454,2.3943088342,-5.0895323606,-0.0237081012,-1.1926423882,0.8263288092,0.9492191,0.3410494752,-0.1497565449,-0.0686153573,0.6249169721,-0.3201726363,-0.2877311511,-2.0967279665,-0.4914547724,-0.52737861,1.7173733456,1.1606596079,0.2311689829,0.0226069829,-1.096399156,-0.7757965712,0.7508372769,1.8488789327,0.7014905447,0.0410979257,-0.038712727,-1.7264916608,1.1750994611,-1.5324224186,1.5476386896,0.3487709434,0.3183118561,1.0250079789,0.1443769046,-0.0079858302,1.6727601503,-0.4336174108,-1.4221325849,-1.6831101917,0.2318811325,0.4297356861,-2.2518320556,-0.9515514604,0.7396585512,-0.3738244041,0.2122510079,-0.578895354,-0.0094923382,1.2012551371,0.7762383639,0.1657329183,-0.5962416092,-0.393309659,-0.3197101196,-0.5333575175,0.1242517043,0.034945607,-0.1210433113,-1.0598532595,0.1197326627,1.258069288,-0.9845043363,0.9021777736,-0.2008783704,1.9878981955,2.4388734764,1.1511802335,1.1151114178,1.4003538016,0.3353886,7.5023440703,-0.4174625442,-0.8382779355,-0.8081076225,0.1976467984,0.2402930585,0.2076410478,0.0874526732,1.4662398526,-0.1917708471,-0.5523218814,-1.4111425098,0.1489625564,-1.1611632258,-0.0564720854,0.8612847607,0.9081678131,0.9510420101,-0.0579208958,0.1794927658,1.039139282,-0.205878922,-1.7855308251,1.3830768426,0.1800630571,1.6195514931,-0.0784757961,-1.226775756,-1.2592329709,1.0729371149,-1.9639086361,1.1311708629,1.4158128469,0.6126705902,-1.3885298579,-0.1808211914,-1.5995269671,0.6459170896,-1.8095988818,-0.3387519547,-1.3297327312,0.778063341,-1.5903483239,-2.2304558656,0.6674209142,-0.3989285028,-1.1833610674,-0.7153084502,1.2428965737,-2.4293788217,-1.0796494277,-1.2893957544,-1.4566586362,-0.2223692443,-0.02359488,-1.1472851455,-0.7328887873,0.2058467974,0.3681377625,0.3951323403,-1.0837880351,0.3767402507,-0.0330555878,-0.0899983692,-0.4146011596,0.3633269862,0.357796684,-0.8309265305,1.3638904996,0.1494238371,1.5047053734,-0.9807488336,0.7330075603,-0.451448325,1.337479768,0.5485711421,-0.7516851791,3.7772683768,0.1798789047,-0.478700054,1.1560728471,1.8585544821,0.9269888858,-0.0599108168,-2.5927243783,-0.2154737441,1.0037591527,0.6167962214,-0.307882967,-2.0712907963,-2.186800974,0.0188795688,0.3709355665,0.9813324898,-0.5626624802,-0.3352827291,1.0646130488,0.3408471464,-2.4454655482,0.3935575587,0.5713370876,-0.0448112752,0.3613118751,-1.7312378276,1.0503103538,0.2967290283,1.7938179633,-0.9101630008,-0.8462997365,0.3270141052,-0.0514912559,-1.4296959991,-1.1513179321,-0.0050946119,0.3803206285,-0.1600704788,1.1154006221,3.5673862233,0.0177467513,-0.2358581555,0.8176868131,-0.7404666493,-0.1391557678,0.2626734459,-0.4375463633,-0.2011645248,0.7337154976,-1.7443958029,0.2706314465,0.1863238665,0.8416606394,0.5991704002,-1.5807501255,-0.0579340719,0.3417452373,-0.4705930382,0.3556409111,0.2469130243,0.485760982,0.0650737393,0.3061311615,-4.5227897975,0.0216613146,-2.4208336385,0.4548486469,1.0076848583,0.0950140993,-1.0522284646,0.4084921874,0.1367542802,-2.7626978272,-0.5786823929,1.5317324705,-0.5208344776,0.1949969773,0.168351342,-0.1980644336,0.4124086193,0.1197106097,0.0757590908,0.6358250821,0.7524108394,-0.1063679088,-0.6047974472,-0.0292510839,-1.7510951316,-2.1743251867,-1.7297679143,-1.4488634664,0.0481456463,-0.5910341683,0.2556928024,-0.8434846187,2.9823448537,-0.370979629,-0.1513537516,1.3469745024,-0.0668972626,-1.0522322575,-1.010784145,-1.2999725817,-1.6113809342,-1.5140069625,1.1575560557,-0.0885064616,-0.4346715301,0.5402375329,0.0170358737,-0.2403766651,0.0416571451,-1.8329901751,-0.7843061752,0.3552271688,0.629944476,2.3325605957,2.1534359767,-1.01543245,-1.6669094131,-0.179941121,-0.2732480317,-0.5569983054,2.6815493871,-0.9439411007,1.5789208689,-0.7307849701,-2.2603059181,2.5683070438,-1.1415079712,0.8718647797,-0.6746531612,-1.1526808977,0.8816684857,0.0598692948,1.2724610709,1.4650209128,1.001903361,0.5303011306,1.1460547742,0.0845062524,1.4889089053,-1.6534478884,-0.3588647283,-0.5900196078,-1.4257078745,-0.4441995206,-1.8636104793,0.614653002,1.7051180354,0.2479631172,1.169562148,0.5850605961,1.2965949784,0.8048138415,2.2617644451,-1.2023104959,-1.8603713404,0.3583620294,-0.4562612535,-0.4805392659,-1.195307628,0.3025821234,-0.2915884481,-0.4985742822,0.6589357504,0.7533374634,2.8451897789,-0.0156440885,-1.6093703509,-0.7742979424,1.0482148426,2.3298089764,0.7874943016,-0.021224194,0.6598933431,-0.3104226804,0.5106309806,0.6144520536,2.6699355294,-0.9841275999,1.1519524989,-0.7642324845,-0.8200527995,0.4853798123,4.524081839,0.4748221305,-0.236578393,-0.7503206066,-3.7383425062,0.6599999265,-4.0158973188,-0.9733589438,-1.7674062272,-0.4582643266,-0.8778813185,0.676262833,5.7065859655,0.6063100458,-0.5336388896,-0.1444562711,-0.9127456322,0.909037428,-2.5896618782,-0.763530739,3.8576128553,-0.5105628323,-2.1326178107,2.6356011948,-1.7687218592,-3.4495341184,1.3143814162,7.014536459,0.6698252299,1.1369978101,0.1405297558,1.491529536,-0.3683937243,0.2795031682,1.9704587982,-0.6035443564,0.4812454501,-0.9740635946,1.6976054627,-0.3202160492,0.051019401,-0.6399037946,-0.3547406856,-0.4388297597,3.1465057815,0.033875795,0.7270810544,0.716943635,1.1334980233,-0.4238864438,0.1024369818,1.0855007832,0.8989234294,-0.3609409891,1.5987683017,-0.5333342071,1.413987313,0.2600939451,-0.8922568402,0.0857787218,1.8602781315,0.4520527591,1.4755452731,-0.3700528907,0.7111090157,0.4726756046,1.1672167046,-0.8682290528,0.9433717873,0.1890715659,-0.9974990077,1.3343214071,0.3840839801,-0.2775967021,1.2903913292,-0.904167844,0.093568625,-1.5139970635,1.132040671,0.6573035598,-4.0569376458,0.2244825577,-1.0801333843,1.5709711165,-1.3669858806,1.8843929849,-0.2842884068,0.7295794893,1.4992292424,0.6497251295,0.2599279582,-0.160846931,-0.9796627286,1.2301992479,0.5244201501,-1.1946126462,0.7661619264,0.2728833006,-3.2270741197,-0.3069106411,0.1670657552,-0.1798267865,-0.4584012329,-0.9205563645,0.018366738,-0.2678712965,-0.4373826625,-0.5889291636,-1.0893321131,-3.0167976794,-0.8996952449,0.244147967,-0.9623981653,0.0936199081,-0.4002878945,-1.0379549598,-5.0699996214,0.4480178351,-1.8951135317,-0.6242167708,0.6635062802,-1.5641393644,1.1802318475,-2.470097368,0.0927675553,0.0903308105,1.0236795438,-0.5762717281,-1.2269970823,1.281700546,0.3522144695,-0.2238724914,-2.3525468429,-2.9700771945,-0.7543219162,1.8477018942,-1.1452995437,0.8734101244,-0.6399471005,1.9216161653,-0.41200262,0.1848149283,-5.1182940874,1.2638812973,-0.1969126916,-0.1061385941,-0.8549732147,3.4454529831,-0.778146025,0.2736276979,-1.2427578974,2.7357433782,-1.1017980887,1.7408573152,0.0904053705,-0.4599336776,0.6923114934,5.9304437627,-1.3691913318,-3.1871297791,-0.1447754067,0.300314775,0.1439219013,3.0480331703,-0.2807539796,-3.8125756957,-1.2804492647,-2.6680107872,1.1131456877,-0.7338927292,2.7278958944,-0.1051824015,0.1110913192,4.6096914,-0.3048599644,0.6951717926,-0.172304211,-0.3667404173,0.5878586386,0.6414638281,0.0043053891,0.0251174545,0.4918767248,0.5081208676,-0.1533028158,-1.2083784682,0.3756783545,0.8231273642,0.0320737287,1.1205799644,-0.9118580107,-0.3580626364,0.4646758037,-1.2151343167,0.2776216764,-0.3087821625,2.2088477459,2.6414579691,-0.4601406702,-0.281830922,0.1621250154,-0.4312098055,0.0231489624,-0.5971105304,-0.0098104385,-0.6785162015,-0.5310432232,-0.0750483806,0.9236671389,-0.6979150039,-0.5106128087,-0.3585265883,1.7036646636,0.0649316125,2.1413886405,0.4833470647,1.8552396772,0.4096693954,-0.7238857654,2.792448318,0.4175906686,-0.5551183579,1.0891533721,1.4262422876,0.5450811756,-0.2135340294,-0.0015109294,0.3318829898,0.5084266564,1.4403546641,0.500114093,1.8910493038,-1.0522506443,-0.2669876325,-0.8190268581,0.1691974994,-1.0694167386,-4.2509942917,-0.1069609547,0.1989821621,4.87937158,0.3534512949,0.8915472608,-0.4056718013,0.3112580798,1.429848265,0.7276262017,0.2857119247,0.7516074595,-0.362902664,0.0005957202,-1.6599389996,-0.0736352007,0.2544328391,-0.6226878212,1.7306697068,0.0346706208,-0.5677474693,0.3376842159,0.2089812267,0.537266114,1.3072215845,1.3247662317,-0.2866580097,0.2121856676,1.7211150024,-0.5369728654,-1.1753017727,-0.4336235728,-0.0387173527,-0.1356398397,-4.7391100429,-0.2025217433,0.7267061409,0.7987142313,0.6092957005,-1.3756018162,-0.9609446462,-0.3604273096,0.5326830765,0.5882559495,-0.4882581419,-1.3310909852,0.2971809411,-0.2223931955,-1.4691760928,-0.3043919151,-1.4435153384,0.8417751884,-0.081694738,-1.89393706,1.6649052153,0.0633643327,1.6808710767,0.37788751,1.3906211257,1.5292652867,2.2168410789,-1.4525145466,0.8778742007,-0.9872306436,0.6674925007,-1.2427257892,-1.8279897885,-1.1199168725,-0.3748286445,4.068043119,0.5480339931,0.5388099713,2.406420792,-1.4833115459,0.7722493535,1.0821986302,1.1220768959,0.2486196725,-0.7649733703,-0.5206251621,0.07638311,-1.5604183189,-0.4321938692,-0.3951057523,-0.5851856335,-1.12555455,-0.143625646,-1.1768896,1.1632121614,1.4091431396,-0.038716168,-0.8387288095,1.530273809,0.1900946301,1.3817923661,-0.6901033708,1.0642410085,0.3822642162,-0.9862644102,1.2201638103,0.1002569668,-0.1471231987,2.0258486452,-1.4564890726,-1.0725572945,0.0443093229,-0.1936233087,0.5750618013,-1.0430568956,-1.4839358038,-0.282736941,-0.1863034554,-0.6623520575,-1.4475621682,0.1037759549,1.5789418992,1.003523663,-1.1421409695,-0.8165516089,-1.084715245,-0.2256624261,-1.6813153047,-0.4874216325,0.2156878427,-0.1544953536,-0.9681064004,0.5728244374,1.618948286,-0.010171787,-0.6116787499,0.2747197076,-0.2653934297,-0.0962666162,-0.3989453274,0.9319438613,1.1700270807,-1.0505434062,-3.1644195496,-0.4810019975,0.0046183745,0.6443422991,1.1406421384,-0.5001213971,0.5174691092,0.314251912,0.2788858664,0.6462801319,-0.1403164853,-0.8395074101,0.7861989506,4.1960673026,-0.5314896849,0.4388975019,-0.2113408265,-0.6993770652,-2.2110159432,0.1310167002,-1.2447201828,0.6264717152,0.6480245046,-0.6692526963,0.8575798679,-0.9758111404,-0.671411892,0.928364052,-0.2336898036,0.4923096266,-0.2213839351,-0.4647863255,1.547229618,0.6177985932,-1.5254537834,0.371915292,0.4054729687,0.1881247283,0.3182818672,-0.8107230379,1.5213766099,-0.330245888,-0.143782294,-0.6404999435,-0.7735699561,0.4012087277,-0.2514264589,1.2935275783,0.269809462,-0.6957246088,-0.2129911714,-3.0241758426,2.2544562618,0.075893222,0.1436853563,0.448643013,0.3918362629,1.4882566922,0.2298445423,-2.3466066909,-0.6972515411,-2.6315570625,-1.5751760598,0.4385572793,0.332721011,-0.3973626102,0.6587934695,0.600353917,3.3769209438,-0.0367809076,0.4577317754,0.261321074,-0.2124502573,-3.0376318101,-0.2151675885,-0.121259859,-0.5622288954,-1.0479132064,-0.1792364604,4.4875962255,-0.1385336846,-0.3558468934,-0.147228071,-0.7832657882
