encog,BasicNetwork,java,3.4.0,1,1561695981625
[BASIC]
[BASIC:PARAMS]
[BASIC:NETWORK]
beginTraining=0
connectionLimit=0
contextTargetOffset=0,0,0,0,0
contextTargetSize=0,0,0,0,0
endTraining=4
hasContext=f
inputCount=21
layerCounts=4,49,67,49,22
layerFeedCounts=3,48,66,48,21
layerContextCount=0,0,0,0,0
layerIndex=0,4,53,120,169
output=0,0,0,1,0,0,0,0,0,0,0,0,0,0,0,0,0,0,0,0,0,0,0,0,0,0,0,0,0,0,0,0,0,0,0,0,0,0,0,0,0,0,0,0,0,0,0,0,0,0,0,0,1,0,0,0,0,0,0,0,0,0,0,0,0,0,0,0,0,0,0,0,0,0,0,0,0,0,0,0,0,0,0,0,0,0,0,0,0,0,0,0,0,0,0,0,0,0,0,0,0,0,0,0,0,0,0,0,0,0,0,0,0,0,0,0,0,0,0,1,0,0,0,0,0,0,0,0,0,0,0,0,0,0,0,0,0,0,0,0,0,0,0,0,0,0,0,0,0,0,0,0,0,0,0,0,0,0,0,0,0,0,0,0,0,0,0,0,1,0,0,0,0,0,0,0,0,0,0,0,0,0,0,0,0,0,0,0,0,0,1
outputCount=3
weightIndex=0,147,3363,6597,7653
weights=##0
##double#7653
   -1.1545458301,-0.2804019001,-0.8453266537,0.7138627393,0.5234076362,-0.1658454434,0.3418147927,0.4926870754,0.7444667585,-0.8520076468,1.0033543717,-0.8380439979,-0.5719876194,-0.3819130525,0.4575127968,-0.1863875531,-0.7984716269,-0.0867814772,0.6210494068,-0.57662311,-0.0538057251,0.5749626818,0.1384006753,-0.3705187342,0.7334373772,-0.5007677867,0.0857010886,-0.8958277345,0.0222065207,-0.6515772198,0.6299369901,-0.4194673055,0.3716478354,1.3731634162,-0.0180428421,-1.4330828251,-0.9657862282,0.5131753248,-0.5525199959,-0.621729239,0.7569994284,0.4514104924,0.908946983,-0.202048018,1.1127677039,-1.2650086585,-0.5981436729,0.6038254951,0.1901406517,0.8393031078,-0.480835511,0.5890847373,0.3903031273,0.0383079604,1.0275553474,-1.093615627,-0.1398340419,0.1819190346,0.0027021204,-0.1989427879,0.2295457763,-0.1476005297,-0.1757283825,0.0222920556,0.7510066529,0.6515759792,0.1334067376,-0.3993768547,0.3078877654,0.722101873,0.3296542669,-0.119089995,0.2051046536,0.2107789234,0.1985267023,-0.4856819338,0.0813688961,0.4394718184,0.0184475683,-0.9961564219,1.2158665897,0.1449491403,-0.2533702351,-0.0660916976,0.0297545144,0.6004110145,-0.3077002572,0.5036850177,0.233937195,0.7713812037,0.9213838058,-0.6992979827,-0.5712628556,0.2856413746,0.6072221262,0.3263222558,-0.1806864288,-0.7142342275,-0.1061830195,0.0542620454,0.3003238468,-0.0653422314,-0.0082693976,0.0032324051,-0.0683229896,0.0260896049,0.3779915357,-0.1613187386,-0.0608617551,-0.0097416358,0.0104801045,-0.320938701,-0.1180022605,0.027841133,0.011025149,0.5176421293,-0.2181543446,-0.2256978672,0.6594870748,0.2718473137,-0.7246941304,-1.3748630491,-0.2467544969,0.0423687351,0.0750273418,0.2704463441,0.8722278147,-0.0111920192,-0.5256599109,-0.0278560089,0.0026979324,0.0752698461,0.1817554223,0.0144778894,0.0116144701,-0.4562703433,0.0875718956,-0.0196692281,0.2143254213,0.0462654762,0.133748874,-0.6962235743,0.1224209988,0.0603304691,0.0005419741,0.025366444,0.5270906299,1.7639337969,2.6131169319,-0.7564113202,-0.6077276345,-1.4343665283,-0.4508942864,-0.0474270755,-1.166264802,0.8261346583,0.8981552461,0.0054485162,6.8929250369,-0.5710364791,-5.4592862814,2.0452395653,3.6111378473,-0.2924852182,-2.7093590578,-0.1609163627,0.8295353077,5.6512639023,4.3105352063,0.706644073,1.552263102,0.8147900635,1.2256377095,-0.061183127,0.295966408,-3.3509850249,0.2434388059,0.31334752,-0.3356749035,1.359836233,0.0310830564,4.2282695704,-1.3464924059,-3.517884102,-9.3874470097,0.7880426235,-3.2330366374,-0.9797667499,0.9141907302,1.3161706541,-0.4112900659,0.0528220011,-0.6426704573,0.9887717444,1.9343496621,0.3493917524,-0.1992384544,0.741664164,0.3789720369,-2.2922346521,-1.8761672434,0.5182448293,0.5912877829,1.3969042732,0.2436732863,0.0583635139,-5.238165785,-0.4262554559,1.2109882409,1.4870906055,1.0247772574,-1.6623965553,0.9172699203,-0.5189969546,1.7286130771,1.6152723069,3.1868339967,1.5063674299,3.7516763442,-0.7104607374,1.5988740423,3.9678022219,0.3202059666,2.4637136658,-0.8593622655,-0.7460777735,-0.4659455878,-0.8374056604,-0.4638717173,1.0203958164,1.1118156347,-1.6469041302,0.586437644,2.7044229948,-1.7462721253,-1.3513477395,1.8696169132,0.3441797014,1.1320465082,-3.4236888817,0.2759643903,0.9472800896,-0.0936767296,1.8143217054,1.6215605134,-0.6016092332,-1.8746763267,-1.1514783002,-1.6677369992,1.4448183864,0.2577694409,-1.193236063,0.8324366376,-6.1672612774,-0.8289651326,-0.0741248983,-1.5949635874,-0.6293566366,1.5777929412,0.0070078055,-0.7289347763,-1.5112259547,0.4360565899,1.686813816,-1.8937480812,2.1418245482,-3.5479617114,-1.1168146486,-0.5776035899,-5.0707773898,-0.5467041381,-1.7088945795,1.0027389956,-0.2841407889,-0.2569995959,0.4005444576,0.5016833328,-0.0362104703,3.1357911703,0.0434944235,0.3366910924,1.1219185965,0.1347441393,0.1725605348,0.2520136581,-2.2844215211,-0.2186953411,0.0958509171,2.2253374862,-0.2109376874,0.8944304722,-0.2417322614,-1.9785732112,-5.1541399452,0.1820773778,0.7622510738,-0.7484088486,1.1943727347,0.6157899105,0.6123107401,-3.9129459822,-0.2451467765,0.8453418071,0.7786578896,0.3804872633,-1.5731132021,3.3932389307,-1.7347681098,0.6273241553,0.4297229549,-0.4407217598,-0.9638833366,0.1352692208,0.2827301783,1.8795772814,-3.8146734772,1.2277194615,-0.4621474647,4.0195779292,-0.1289896919,1.5016433839,-0.8169793973,0.1366635689,1.0432637097,1.4696027486,-0.3623668365,-1.9704564027,0.153752269,0.2313201405,0.9318824686,1.5613328938,-0.7445719183,-4.9817372037,-3.7816924151,0.2701819902,1.0717779266,-3.4320271708,4.1598668985,-0.4511505607,6.6234779259,-3.5861257597,-0.9492320597,3.0874504284,-3.5243600846,-4.4530718573,1.4833670642,1.7376100189,0.1199239998,-2.8813473225,0.1035045012,0.2375083801,-1.3740931551,2.0399701572,-0.5388531895,4.0509860698,0.2577525381,1.7884845269,-0.8446035526,-2.0669445669,1.3766520611,-1.7372951062,1.8657526933,-0.2151661782,-0.2125757649,-0.4487614092,-2.4717275244,-0.6548741144,2.965099696,0.3909957055,0.6781914106,-0.9524736404,0.6577125923,-0.9272153508,-1.1472407469,-1.4432717794,0.7252000266,1.7919555378,1.4394061915,1.7421610021,-0.1080318151,0.3804960889,-4.9256314392,0.7043392059,-0.6489674009,0.3774593327,6.8419549212,-0.9356858673,-4.0200922176,0.5920255564,-0.6656417166,0.345735308,-0.1454987694,1.1235483954,-0.2016511132,-0.8403960662,-3.0460692997,0.8153883788,1.0992006262,0.8726172606,1.1238113153,-1.8730527029,-0.1705167463,1.3962248486,-4.0695222304,-1.9328460729,2.0661254931,1.5605402817,-0.424007029,-0.1380230335,-3.0087361553,3.7425512403,-0.0904457281,1.9558020586,-1.2333347301,-0.3678030679,-1.4454273887,-0.7758695501,-2.2899225583,-1.2347608588,-2.1103718708,-0.7263005943,1.5355843507,-0.3966602785,1.7349666492,0.7662144654,0.455551522,0.1470316233,0.2367834985,2.290631743,0.720117741,0.600354717,-3.4960270453,2.3477926652,-0.152994118,-1.3696723851,-0.763745583,4.0445674034,-0.232667922,3.0776637442,2.9786978027,-0.7450403863,2.2087016174,0.7217331439,-1.4889695339,1.5814340784,-1.4738584131,-0.4293565849,-0.5564652471,-2.4300286916,-0.3615729103,-1.2770502513,-0.0953731421,0.8980107609,-1.0625000925,1.8529078067,-1.7250235701,-1.4123110588,-1.3177466624,-0.225424211,0.8810113927,1.9405538333,2.6575683094,2.8308603423,0.3551826864,5.2824689567,-1.8776591278,6.4888999862,1.6922431432,-1.1456686341,0.6796819922,2.4415830764,2.3584640453,15.7032673289,4.9116559408,2.289550771,0.6353579285,1.7868840568,7.9017822186,0.7957289051,-0.2865459413,7.4625245963,1.2004432306,-0.689943715,-2.8442822507,-1.4781960634,-0.1249105707,0.6915713259,-0.2749215491,-1.7754603415,-0.9863804843,-0.6801890176,-0.4085596935,-3.371859285,2.579381968,-0.5307498231,3.2856078212,-0.8404368039,-1.5445331314,1.1769709931,1.8660805813,0.7158599471,-0.1569305739,2.2882513831,-1.1543496133,-2.515088298,4.4253787783,1.5577532559,-2.2436875356,5.4740093246,1.1785300783,0.7863920802,-0.2017868994,-0.3485764405,0.464153951,1.0938745477,-1.3977775865,1.19740253,1.8084793188,-1.4208598423,-7.3688730254,0.573579623,2.1664806811,0.2431985335,0.7204836343,1.3550851334,-0.1348590555,-0.5492791844,-0.8080171732,0.2736448974,-0.9251270754,0.4507192735,2.923569636,-0.691543245,-3.0511658135,-1.1674085173,0.597041118,-0.1656865051,-2.4069251362,-0.9472902595,0.4576425485,0.5282229897,-2.5167941912,-0.4252311195,-1.5054310187,0.5290833515,0.6746403722,-1.6477161051,-2.2067494683,-1.2068013454,-0.5053482028,-0.66963264,-0.1729353468,-0.4246252907,-0.9614657532,0.9300919087,1.2107944314,-0.3268209642,-0.9041990041,-0.2889081505,0.5027321942,0.9847541162,0.3850304608,-1.3082154789,-0.7778676737,0.3871740869,-0.269236033,-1.2590031739,0.9762325717,-0.0826672023,-0.2836482997,2.4670693669,0.2412808993,-1.9929374516,-0.1264207913,-0.7530343836,0.0629859633,0.3291167276,1.4904245431,0.9860897803,-0.2616976709,-1.0639003961,2.0082464433,-0.6983007421,-1.0073480994,0.096183624,1.3886694246,-0.8106783846,-0.22895545,-0.2819324242,-0.3606320561,0.4457121459,1.779895887,-0.0965294992,-0.9173991868,0.102787388,0.8768095484,-0.08974329,0.9848551283,-0.4388622881,0.865549582,0.3530865072,-1.4577383613,-0.3839568513,0.6333383429,-0.3344708914,-0.2863326716,-0.0037774818,-1.4079975355,0.8253476624,0.7507745992,1.3719185249,0.2614582253,0.5574317324,-1.3809045388,-1.5791520539,0.1937103361,-0.3501140464,6.4223283298,-0.9564130617,1.0047389084,-2.2185519626,0.0515974529,0.3312794967,-0.2139648783,0.6994799813,-0.3120211964,-0.7659446662,2.1397392042,0.7082639831,1.3019057304,0.6135605679,-1.4317269879,-0.6566718209,0.1480880299,0.6572751909,0.8520977087,5.8430561914,2.2392670196,-1.4408395391,-7.2610685848,-1.2511176038,3.0599161208,-1.6882925562,5.9036022965,-1.9489500636,-0.0796978145,1.5768848901,0.0501073222,1.1701486111,2.2210208188,-3.2448205127,-10.1571028487,0.8101521233,8.0571630426,1.2678069024,-3.6280053005,0.3705229693,0.9917299009,-1.0004217578,0.8310220438,-1.4471188889,-1.4505760473,0.2616761523,0.6481659318,0.7080191213,4.6164787458,-0.4117271221,-1.0835673613,-2.1046158665,-0.4689347056,0.3857561717,-0.1440063411,3.8773673081,0.9308029669,-1.1630422955,-2.2348785209,-0.1441026443,0.3589565199,-0.8015009098,-3.3213877536,-0.2806943477,-0.9827045943,0.4614989723,-3.0050182447,0.2593930008,14.7307466908,-1.9511600223,2.0438618753,-1.1879010479,0.6460509386,4.2291740631,0.6030913378,-0.8371353452,-0.5849801514,0.6388564417,2.6755196311,-0.3671622966,-2.3199262702,-0.7315814013,-0.400469741,-6.6078324104,0.9544903903,-0.0015087465,0.5374363567,-8.5625930949,-0.3485428905,-0.8064825407,0.8280051289,-3.7272902824,-1.6950018804,-4.4514805834,5.5504648434,0.3250287032,5.234626705,-0.9289332825,-3.6961837994,-2.8638701903,1.5700040048,-7.2863211179,-1.147508224,8.1547396424,-6.5094159759,2.8169650792,-0.5714168231,0.8009289739,0.3832419125,-1.4683110745,-0.5003810168,0.4041265105,-0.0537527786,-1.9726506047,-2.196099909,3.1207461589,6.5561698965,-0.2552307499,-1.7405852954,0.5741412762,-0.1981636339,0.434251364,1.3635047777,1.2368610951,-2.2155269203,-1.7593406922,0.2188235594,-0.2698630691,0.5789602211,7.373765843,-0.352060656,0.0371342456,0.7204245,-1.0786285815,0.5631716795,-0.6685811102,-0.1143978349,-1.186720652,-0.6964779155,-1.5304015983,0.865354795,0.6575486768,0.7800874829,0.3153801001,-1.6102831401,0.3929954787,0.5274469112,-1.0100304344,-0.5547110676,0.1383656216,-1.1444557217,0.741641663,-1.3472324917,-0.9273373482,-0.7700813692,3.1472706084,0.7908041428,0.7517935271,-0.8396187436,-0.2804553844,0.1769274309,-0.790147816,0.5662218712,-0.2840204642,0.6297652023,0.8914696309,-0.8428769022,-0.1544671631,-0.2769190685,0.6743548032,0.5614227928,0.4920919477,-0.1417670903,-0.2939472427,-0.0422232207,-1.5694145855,0.176934025,1.7565956936,0.1591620423,-0.0854184122,-0.2722276652,0.4229559005,2.5167872273,-0.0659079685,-0.0888628169,-0.267316975,-0.6942531258,0.9292215702,-0.1579381679,0.1948000685,0.1734811092,0.1944205414,-1.5109842721,0.0749924948,0.5709712043,-0.4222737593,0.0328857288,0.3348860928,1.1497135085,-0.3404916081,0.2965049359,0.7569050104,-0.4967703445,-2.3584140721,-2.4892547904,0.7247286101,0.3773884687,-1.2171532762,-0.205327471,-0.3169589679,-1.3440975302,0.9734223919,-1.477293549,0.1074198678,0.0138714317,-0.6197029212,1.8696054048,1.2081666718,0.2906634087,-0.0558268605,0.6176917606,2.0166566042,1.3853306886,-2.0504316222,0.9099392632,2.758111982,3.2075540442,0.0927554067,3.2177990451,0.0447724169,2.1791215867,0.8737162755,-1.4917336089,0.8030876297,-2.2594401279,0.9176875831,-1.1269747162,-1.9508757598,1.5878792068,-0.8868002599,0.3709114104,0.4776224122,-0.4319275385,-0.597097289,-1.5413451492,-1.2684390067,1.5558249815,3.0880369906,-1.8864108424,3.9276434404,0.758637765,-2.219134915,-0.0059287021,-0.1893542986,-0.5982380493,0.5418938261,-0.1194570845,-1.162204072,-0.8024898389,1.0764944782,0.3734371164,-0.0171829361,-5.0438776698,-1.5828487333,1.3952297941,-1.2609039537,-1.2324681485,-0.500780969,-2.8642404192,2.2623530606,-1.2539972119,0.4518889309,-0.3001347377,-4.9950705306,3.1249289852,4.1952209332,-0.9493277015,0.0858724879,5.3756760994,-2.2237445092,1.192961753,-2.5117763815,0.883730289,0.6094258204,1.8418563056,-0.6782006138,-0.3996765473,-0.5376256632,2.0753176908,-0.5227566995,1.1616897721,0.9974850911,-2.676616965,2.2022733971,0.5117935828,-1.7613370484,-2.106707213,-1.0769940267,1.1335500228,0.9307063165,-6.2559378288,1.4127728903,3.2201433363,-0.214080375,2.0027015933,-0.5596582205,3.9089676835,0.0614923607,-1.5298684953,0.9646269743,-0.8377336587,0.1029236119,-0.8582053523,0.8063302478,1.3710525597,-0.849449351,12.7667810917,-0.6011224445,2.4009118141,-3.4153937289,-0.0631285297,-0.102540595,-3.546012835,1.3680816955,-3.9782532467,2.7801755547,1.3458488938,-0.6333620066,0.4317692404,8.5566665273,-0.0813960238,-0.8213841598,-0.2954477675,-0.1321304496,-1.6556196825,-0.1541888929,-0.2933933464,0.2390643544,-0.9707403404,-4.3880031086,-0.7635912667,-1.7551981164,3.5757471742,1.1538049954,-0.5507195484,-1.7986855045,0.3739762346,0.6339469486,-1.1092656988,4.1118290083,-0.3618644827,2.0306411708,-0.0644047438,1.2170290878,-0.984348574,-2.0058517045,0.7386757532,1.1284567766,1.2460020755,0.151593397,1.2756033195,-0.41305422,-0.5024968425,0.2282887682,-0.4949946658,0.7811550002,-0.5848286955,0.4817452248,-0.6022129275,0.0394690978,1.6996370535,-3.2957255886,-1.7074884482,-2.0166552858,2.6553533357,-1.1928695509,0.5114408898,0.4477615258,1.173128643,0.6771522609,-1.3339407107,-2.4360443959,-0.2292057333,1.0907357649,1.3870246259,-2.1791417141,-0.9298496629,-0.7863192767,-2.123625467,0.0555962493,1.0910474521,0.7249819526,0.1428130281,3.0380694873,0.8898946818,-0.5930394685,-0.6960524049,2.1145021948,0.7745571169,-1.2793900814,-0.1748722257,0.5539953022,0.4369679888,-0.8966620552,-0.9639801012,-0.6639336936,1.1150822467,1.6919669901,1.6787641558,-0.6668352823,1.2333749288,0.3218107126,-0.7069274426,-0.5169355458,0.1594275156,1.4136069993,0.3341527673,0.7887354391,-0.3480226623,-2.4862916183,0.498264634,-1.6759679441,-1.55375984,2.9856003481,0.8564318773,-1.4563087001,1.5487378327,0.1328375516,0.0132687643,-0.7422197573,-0.0951337532,-1.0632037677,0.5390669267,-0.1311346356,0.6738040035,-0.5112118187,-0.8533912459,-1.2090450747,0.6499701394,-0.167225251,-0.9832868365,0.4854996008,-1.5669394335,0.890179767,1.2554214892,0.33445027,-0.8148943683,1.7982621072,0.8324309186,0.6684309388,-0.5214771707,-0.390688992,-1.3601913887,0.0499833928,0.6886290848,-0.5847832321,0.7368282243,0.0310464504,1.1718842758,-0.0590901653,-0.0853031837,-0.9693047195,0.43522649,-1.2978617709,-0.1840998463,0.2521604311,-0.3944210134,-1.9678217694,-0.5747026258,1.3305736875,-0.0254514796,2.15046265,1.1637922313,0.7872114977,-0.3272882767,2.9051432872,0.1202712026,-0.1177076205,0.1670116865,1.3812871793,0.0620706325,2.1258781906,-0.2064684406,2.5205361581,0.1361679131,-0.9442508601,0.1317813404,0.8925468768,1.2932845828,0.8526982138,-0.0036527917,-2.9280404009,-1.9149962145,1.7951339507,0.2564509919,0.1256961294,0.197632186,-1.4389628244,-0.138789825,0.4417065731,-0.29498709,-1.101416335,0.2530557373,1.8226043994,-0.4036321494,0.2661087436,0.1405152408,-1.6896790979,0.3320666793,1.1825885443,1.4597541604,-0.875081292,0.9510427762,0.8288273335,0.5960638651,1.7455823269,0.3121261253,1.7099838273,0.0813551924,-0.7438313227,-1.0881961937,-0.4408424615,-0.322328415,-0.0115358485,-1.3277508224,-1.499393911,0.2609942554,0.1619838101,-0.0691370552,0.0773822926,-1.7684548651,0.3026736693,-0.4599855129,1.5034879469,-0.3119919469,1.3341021579,-0.6621419252,1.6188185498,0.1563907572,0.0468826224,-0.0008238348,1.0677298538,-2.8787038467,-0.6863418879,0.7415702673,0.8584670257,0.8268245526,-2.9725935248,-0.7171578033,0.8129804302,0.9633493228,-1.177686687,-2.4354137787,-0.9432922655,1.1408070003,-3.9931516948,11.9919080661,-0.4903602293,1.8064708184,1.6940000101,-1.7159349675,0.5755715769,-2.5703254641,3.932420874,0.9653809977,-0.4130177553,0.6467258163,0.4515502389,0.0850757486,-0.1371681978,-0.767711218,0.6564257724,-7.92024968,2.1127491791,-1.1348800128,-0.044568623,0.9799830656,1.2495158605,0.8172261962,-1.0413717895,-1.003459304,1.2938127912,-3.7323648253,-3.6707942004,0.9644089694,4.4305404105,-0.5033665659,-0.8787106386,-1.2949351399,-0.0202613237,-4.3970643336,-0.1352243735,4.0101800066,-2.1032952021,2.0345899781,-0.1754655113,-0.7333597679,0.0040278828,0.9780515526,-0.9744866076,0.5165290719,-1.5106685914,1.0128759247,0.3541289674,-0.9326841356,0.0700008863,7.9614540417,0.0021673332,1.147249694,2.9591700938,1.1222787454,0.7008815108,2.5344714556,-8.2698609753,0.3574013532,0.9649833661,-0.5303743975,1.0831593224,-0.4163771832,-4.7144619264,-1.2231521401,1.1617440938,-0.2829285214,-11.8698777406,18.5125736654,-3.9157688627,4.5241710957,1.1100418214,-0.2970639491,0.5848563079,-0.6094607366,1.8769708347,0.3259990957,0.7082158507,1.7739704056,3.608116518,-1.0950238478,1.6792200677,-0.8668374692,-0.8471859043,-0.1078803292,3.257154946,0.6674745821,0.7584582259,-1.7102914534,0.9373921162,1.0420474894,-1.3580736188,-0.4210050939,1.2292837155,0.9742812153,0.97668407,0.4135078148,-1.3199451099,-0.4784527012,-0.2520066098,-1.113728836,-2.593747943,-0.7389820254,0.2008924171,1.6325947538,-0.9111249569,-0.2899765022,1.355507547,0.9368752623,0.6978077695,9.1761777672,-0.1283749011,-0.8643351432,-2.3287210717,0.0243576146,-5.9385304898,3.1188865574,0.0671560332,-0.2345903646,0.3590597564,-1.048471165,0.2718707857,-1.6236588319,-0.5375652661,-0.2157370163,-0.7578035798,-0.9447077456,0.1988818426,1.9111528612,1.5633566942,-0.3708825486,-0.0759062666,1.2758511085,-3.7337817624,-0.2401156547,1.3195830061,-3.5809416961,1.1094081673,3.3054152866,1.1648924211,-0.3780619817,-0.0302507583,0.3547745172,0.7788998961,-1.5580100086,-0.9255194014,-1.1409359452,-2.1654275315,0.550707277,0.2677198221,-0.0428140333,1.911682641,0.960659199,-1.6164728523,-0.8760887649,0.0674849881,-0.2496965846,-1.3758752905,-0.2364973281,1.0755056294,0.8849101208,-1.4167578797,5.5414754425,-1.4285390309,-0.7106590396,0.5123789249,0.0896335899,-5.2900911412,0.0688768616,-0.9375894757,-0.980731306,-0.6920619328,0.3567007831,-1.6266482487,1.9672718076,3.6614957152,-0.3191913002,4.0116481415,-0.1632538367,0.2792773843,-0.1371313667,-2.5510965939,2.15659922,-2.3703899964,-1.4556966553,1.6560217127,-5.1446409696,-0.0101809957,0.1787101208,-1.928740321,1.3369321513,-3.1808036797,-3.5624427639,1.331832013,0.0692479777,0.7835710056,-2.4657240598,-0.5091037356,-1.1841119888,-0.5845564183,4.1840416504,-3.9966901282,0.1454376017,0.6300674096,0.4052822923,13.0057978873,-1.1478916588,0.8824323325,3.515379684,3.5422083223,0.3166236724,-0.2089545506,0.6389484444,1.5088535698,-0.2328009788,0.9098286874,-3.4594313064,3.3274157151,-1.1312073416,-3.0512670737,-3.5831469677,-0.5743420923,-0.7071366182,-0.1495669356,3.123768776,-0.5860180694,0.2925210084,3.9394428859,-0.4954789457,-2.4593099959,0.3710961281,-1.8404032518,1.2140845193,0.5851489729,-0.8645668155,6.1063284711,-0.3284558658,0.8942206616,0.6580452909,-3.910329313,0.3926324792,1.206450952,-0.1621655497,0.9020920268,0.7651467032,0.622632533,-0.9166347297,0.2210540071,1.3157672065,0.2645491122,0.4348251289,-0.5892112826,-0.0408393136,-1.1762087121,-2.0114025778,-0.0299868838,-0.6209917064,-0.2937821088,-2.2966594089,-0.3676081437,0.3471859172,-0.3821259948,3.3027751599,-0.9086640417,0.8397444789,0.0624608169,-0.5321436187,0.8010929192,-0.0982188726,-0.150040508,-0.4983965792,-0.7497424218,-1.2855733383,-0.8800757892,0.2420329837,-0.1712233542,0.0529261794,-0.2312406029,0.926805333,-0.6320142908,-0.1973047917,-1.3402387212,-0.13167806,0.3466355447,-0.3935803729,-0.3931988113,-0.0008831068,-0.2832422299,-0.8867833831,0.3738194122,-0.269323745,0.0461248015,0.2401427738,0.3557932808,-0.7556376473,0.0699869648,-0.6142644314,0.1980696204,0.5447649685,0.0751035475,0.5575001808,0.2891579856,0.1841550956,0.0715606885,0.4115932583,1.4622403869,0.0932401347,0.7911982608,0.8347967281,0.1777066572,-0.1158396776,-0.1113322104,-2.5842011789,0.3877207946,-0.2200218848,0.2347671124,0.0610630859,0.7644540444,0.1250839218,0.6366227672,-0.3144327834,-1.3870476515,-0.9613361258,-0.4931165896,-0.1275410881,-0.5720793784,-0.1303194518,0.4830292556,0.0793433626,-0.5608917276,0.7518741615,0.8097435247,-1.2721949062,0.9615114413,-0.2373983507,-0.0493228517,0.2604189134,0.7342633453,-0.3423008672,0.3540170849,-1.4242947497,0.0234669736,-0.0538501836,0.5857625613,-0.2888050222,0.261552978,0.1531033301,-0.1326361566,0.1818698757,-1.0696072029,-0.958328373,-0.0534655412,1.9227883466,0.1838048107,0.2998374163,-1.2106255006,0.5584355796,0.0954950515,-1.2846825176,0.0727204891,0.9724106216,-1.3955454213,-0.2913873893,-0.6653008017,-1.0566243141,0.683972684,-0.0323397064,-0.2934745538,-0.1206793119,0.1915487261,0.0211911895,-0.8389623854,0.1793221185,1.2845130279,-0.3404380064,-0.8667844143,-1.7401353681,-0.6143128496,0.2156426129,-2.9844067207,-0.9716888233,-0.1582708413,-1.8242455654,0.6597908564,1.5161735575,1.1490576222,-0.5459855771,0.1478518216,-0.9340920592,0.8312724868,-3.6618335914,-0.1725005281,-0.5634232008,-0.0114555917,1.2171721417,-1.1397401707,-0.5648978351,-0.0316411472,0.914165874,1.6960024799,-0.1078233081,1.0735233351,-0.1770584139,-2.8902840942,-0.0750276089,1.4774948701,-1.1038018237,0.0617591772,0.2711256558,-0.1452827838,0.4476063836,0.772781482,-1.1394568019,-0.6218966418,-0.1385597835,-0.5999633603,1.0882922104,1.9325121197,-0.0641604332,-1.2311835519,-1.0199206509,3.6708271386,0.4691980648,-0.0087748492,-0.8571388732,-0.8437138313,-0.1785168336,-2.4430749227,0.0949829187,-0.0242518339,0.3151072849,0.9927944753,-0.2221276174,0.3854321795,0.0681862408,0.8240983895,0.3593399844,0.1345479022,0.5960785981,-0.9588753523,-0.6200462743,0.8325484799,-1.7166636435,2.8767799767,0.5438713861,0.2316688626,1.4927067486,1.5599736897,0.5432620614,0.5150586179,-0.1992619406,6.0803735316,0.3513405905,1.0962991149,0.9978192135,-0.0493183728,-0.982542062,-0.7707537711,0.3171901374,0.0773616208,-0.6508524748,-2.1414720212,-0.0103273181,-1.5635519452,0.8134804668,0.1731869625,-1.2876026333,-1.7586525864,0.9695642526,-0.0790350725,2.6459254635,0.2112493855,0.2678966034,0.9039645169,0.2414568065,0.1138208072,0.4040009331,-0.0912560919,0.3343369553,-0.3685409117,-0.5016999854,0.172080337,-0.1367774983,-0.2229735514,-0.1615825434,1.4907993577,-0.6803609217,-0.2104416655,1.781601405,-1.6507653875,-1.4983288426,-0.1345529747,0.5500662058,-0.0027709043,-0.3007117736,0.1570938323,1.6311392017,0.1530179553,-0.9618765645,0.6154484369,1.2203098398,0.3140479932,-0.8815955995,-0.0666350476,-0.2688922806,0.4442558225,0.4748941391,-0.5562725066,-0.4427722724,2.1132277719,-0.3795276939,-0.9230450487,-0.6330615083,0.9732449841,-0.392072091,-0.0565380785,1.0426180163,1.9489359796,-2.2186865701,2.4242921294,-0.9567242934,1.1253838339,2.3987221332,-0.0905348014,-2.071524274,0.2093469652,-1.0378403638,0.4275747829,-0.9717160548,0.6175168503,-1.0657180392,-0.4486705558,0.9577584316,-0.8650611973,-1.0444724052,1.0145297557,0.9545700439,0.1459151829,-0.1641769355,-0.359802821,-2.7687947608,-0.1207351137,-0.1169262548,-0.1617243463,-2.9742688482,-0.4280270648,-0.6227756232,-1.2629323497,-0.206750212,-1.3566584264,-0.6841397288,0.5984000133,-0.1911490261,-0.4950057229,1.0244916273,0.3145457238,1.1815125175,0.5597479767,0.1078210657,0.708287722,-0.2924769129,-0.3276779461,-1.0112695027,0.3152870036,-0.3255887499,1.1595798143,0.616498092,-1.1073091678,-0.5721656331,1.1940949059,-2.4587143788,0.0764395567,-0.673033211,-0.669595024,1.3247995062,0.5031789927,-0.694469111,-0.5166685504,-0.8956296084,-1.7346599513,-1.1500492416,0.5298189709,2.0751194158,1.5286311966,-3.8811662782,0.9520660729,2.2901384224,1.1910256697,-1.9275801625,-2.7747908786,-0.5137737566,-1.6669622396,0.3364804891,-0.057292792,-5.4498477127,-2.5588609966,1.7960389429,1.5620312151,-1.3082108331,0.8283025303,-0.1576499046,-0.2579595913,-0.736938021,-0.6481303389,-2.695212878,4.0877021354,4.6232219288,4.3067969928,1.4689538595,0.3901740142,0.296655854,-0.8011656224,-0.6261957474,0.0050193448,-0.5201518232,0.1897419902,3.4677366643,3.4372545943,2.2343752197,-0.5688208643,-1.375129606,-0.819980896,0.1587726962,0.3649115801,1.6832396088,1.9743151479,-0.9257017113,-1.1159303726,0.6986882487,-3.5386735381,0.1620370589,-1.0874490351,-1.7495650093,3.3110517597,0.5134315455,0.2100805907,-0.2331279384,-1.0582983005,-0.8136327305,0.3977191454,-0.101627383,0.5176937289,0.7225014872,0.2093669845,0.7214858285,-0.4456031378,-2.1226971811,1.49016246,0.4067579349,0.5745889427,0.1106910753,1.0378360014,0.4220246748,-0.1769973483,-0.0349096993,1.4157759648,-1.3245594825,0.3065021416,1.0289030209,1.0625997902,-3.7531045641,-0.5799848116,-1.1566614071,3.2335005369,0.3784008179,-0.3955595587,-0.793830922,1.1845567053,0.4280431265,-1.3432396235,1.3114092956,-0.0392145264,0.1695268598,-2.40714455,0.3718126224,1.0302280745,-1.5547186889,-0.7994083817,-1.3294259071,-0.8884315438,0.3224054645,1.9083405393,-0.2076506726,2.4210970266,-0.0970425708,-1.3268746834,-2.1983635873,0.9140090307,0.1699366959,-0.6029721644,-0.8303595127,-2.4923558699,-1.9199576974,-0.0887346115,-0.5040847887,0.3017541259,0.2837580082,-2.2451334304,-0.8677039889,-0.4460675553,-0.7497224699,-2.0095505499,0.9252871151,0.2410755519,1.1738180297,-0.6190474106,-0.400594432,-0.1242905214,-1.3404864395,-0.639282745,-1.2707841829,-0.8633334215,-0.3266073513,-0.3646112593,2.1478571376,-0.2411338546,1.0639079088,2.1490345031,-0.7839352666,-0.7401728796,2.4022175896,1.270614677,-0.3100682039,0.3486233764,-0.2378578063,-1.3755422311,-0.3449037544,1.0391859095,1.2255137161,0.3016886079,-0.9105448346,0.5654876062,1.445930988,-0.6334186105,-0.2263989533,-0.6538120087,0.8023796602,-1.0006857795,-1.8056524444,-1.028377669,0.4462411239,-0.0975536861,0.7088669248,0.1009833616,-0.7053187324,-1.9262840988,0.2358942867,0.5964379857,-0.3149465139,1.3573637606,-0.9240544943,1.6665723782,1.024371348,-2.1554751054,0.8790967848,-1.1449767495,-0.1581529453,-0.6299881182,0.7871824513,0.12614739,1.1729002839,-0.6137429443,-0.3869599795,-1.7588296349,0.4430225854,0.9592868515,2.7379014972,4.9669422754,-0.1068348225,0.1849973528,-0.9304075159,2.0432091439,-0.5071770035,-0.0081761987,-3.4952671236,2.8906954648,-0.7207054175,-0.3307235477,-0.4096487439,1.0183062951,0.4363432835,-0.5446369675,-0.4116729727,1.0582798259,1.5279508833,0.0938814847,11.4653006793,-4.3361583836,1.9551381379,-3.1233032996,-0.267757394,-2.7033076384,2.9137198032,0.6191773153,6.0795571027,-1.5183068744,-1.4059292663,0.9642349641,2.3672953364,-1.2536035466,0.5153323152,-1.1828304577,1.1830979493,-2.3217326611,-0.9536135688,1.9717738876,0.5492423617,0.4569108477,-5.4142461303,-1.2788657255,-2.1599357596,-3.104241216,1.084959476,-0.033953597,0.5193054008,2.6273306893,-0.3661185023,0.5990586747,1.9446188243,-2.9706959187,-2.4801274282,1.1598917415,-0.1811844337,-0.2174417919,0.2562479249,-1.5220677325,1.8561627569,1.9963933317,-1.7887483465,-0.0220603361,2.6051628354,0.2765300281,-0.9787021463,-1.4152502015,3.1145803643,0.4260097353,-0.1322205832,-1.282762929,-3.310312298,3.9980870125,1.0000616575,-2.5955705476,1.1571735736,-1.1084682884,1.3324640419,-0.6078495377,0.0433198056,2.0260593958,2.2715716689,-0.6692920826,-0.224242884,0.7982654521,-0.1651950547,1.1205181161,0.1265438709,0.3386830439,0.5747050727,1.0176219747,1.195976007,-0.728102478,-1.1418844176,-0.4203956316,1.0937854944,-4.6027213495,-0.9989366682,2.328005081,0.1007833796,0.6206521267,-0.6093802121,0.482576453,0.344532749,1.4629931525,-0.3252195745,1.0521998844,-0.5750811512
   -0.7828614737,-0.6626524563,0.7104957546,0.2352598933,-3.2822294785,-1.474327979,1.3183884015,0.0533118561,0.3446118555,-0.6428616982,-0.4300213861,0.6013406872,-1.1538767618,-0.4299700331,-0.3487768242,-1.2094276891,0.1181959541,-2.9881767077,0.1400139561,1.8783880271,-0.9401298205,0.1544841955,1.6794118762,0.2328670924,-1.3498710039,-0.5482225407,-0.4647984892,-0.5766581264,0.1161469741,0.2037281993,-0.291753735,1.0153047946,0.0298337167,2.249702149,-0.6456694742,0.2028529042,0.6984120735,1.1078391662,1.7590622164,0.8748206636,0.4805647135,-0.4680948104,2.6331409811,2.6735656161,2.4192424139,0.2646283224,-2.9834802497,-0.2520539363,0.1711270865,10.0119955809,-16.2821945127,0.2792891366,1.1057566891,-5.7063215669,1.1634807797,-1.0630093982,4.6643127415,2.4039287376,-0.2880529587,2.2014495094,-0.4125314729,-5.0721277929,2.4641038782,1.7404083431,-4.5606478652,-0.3079848147,3.0535586061,0.738019742,10.2768746735,-4.9888414593,0.473309454,1.7233308064,0.5885656893,-1.6106469488,-1.2051106084,2.1001135792,-2.0371593688,14.8954989378,-1.8535774254,-10.1187700397,-0.5405116992,5.006475077,-0.7894078861,1.9420064585,-1.8209350117,4.1658844525,3.1893044503,1.1459936753,0.462654139,1.4786741578,1.5296590504,-3.5822581359,4.5188811794,0.5676934672,-1.7955043594,-4.4354907952,0.630533512,4.1637299627,-1.4959972681,1.3486040158,-0.5343619333,-2.8474128559,-0.4729521478,0.0173880775,-1.2775419808,0.8128306845,-4.5002182043,-0.8464009115,0.9183765506,-0.8676772632,0.3099181556,0.2093717972,-1.0576895877,0.8214807199,0.0972710062,0.14728727,-0.9604385779,0.068909114,1.504009385,0.3561591913,-1.3826290846,-2.0204398378,-0.4820176413,-1.5803260602,-0.6747445966,0.0228443408,0.8887857772,0.0175795925,-0.1107146081,-0.754181446,0.6338668938,1.3672247571,2.6128369627,-0.1923470389,1.0234452883,-1.3971088401,-0.004505947,-0.8754971368,-1.9274502905,-0.428419366,0.2410102277,1.4813084553,-3.0630100786,0.617984626,-0.6402816415,-1.3677928071,0.873973211,-0.3928560826,-0.5070704415,-0.0288544754,-0.9002820182,0.0999781312,-0.6106014798,1.6407409693,-4.8758028206,1.9383349368,2.187441663,-0.017639186,-0.8994820276,-0.7837546385,-1.4936887538,1.2539746555,-0.7945220477,-0.8107205743,-1.3280262906,0.4653673084,0.0110267278,-0.4948491368,-0.6733484723,-0.4368414858,0.6462745734,-1.0374670618,1.0605804532,-0.7344541885,-0.0528501417,-0.2762251699,0.9082106104,0.3204085939,-0.3779256745,-0.514500591,-0.2805937714,0.2825103006,0.6102985025,-0.0096582232,-1.1760848187,0.5949822653,-0.0889319167,-1.1920567896,-0.9605711535,0.3879847452,-0.4603348539,-0.7315093568,-1.219651796,-0.4541225278,0.1153032609,0.731915542,-0.1781599053,1.4429699795,1.3407716426,-0.6730666176,-0.8705453356,-0.0830511319,-0.3767627007,-0.4815642869,-0.1999890327,0.0214278947,0.6000483682,0.9330036565,0.7343856861,0.6113116435,-0.2588476946,0.1384328247,-0.2624009984,-0.2584425702,-0.1859274727,-1.2722033926,1.4241773257,-0.1525533926,-0.1361570804,-0.1507083685,-0.6149649319,-0.8114976095,0.9744642597,-0.7674301643,-0.2946456683,-1.1300344767,-0.4953473527,2.1467793617,0.1936693388,-0.9428443179,-0.9340784539,-0.6780284203,-1.0772248634,-0.11227883,-0.3669190044,0.9036323037,-0.7639160784,0.0342217014,-2.2838953878,0.1875189764,0.3182839825,1.2484917206,-0.4735440131,-1.8552468964,-0.1463814858,-3.7886957074,-1.8120660328,-2.5916402352,0.4808767312,1.2902181987,0.3621113335,2.0740645182,0.2610575087,-0.8446170714,-0.9434676313,1.7557403937,-1.3601654566,0.5631444615,-2.8026949637,0.731432076,1.0939768699,0.1784849519,-0.8298847278,0.174539827,-1.2110436231,0.1671658436,0.5779702063,-0.288174849,-0.4784405739,0.639649952,-0.0829277044,-0.5257599694,0.2232427807,-0.6391307372,-2.2802144206,0.6906630252,0.1380340523,-0.4977687136,-0.3132523556,0.309714891,-0.8596601004,1.542244137,1.540279967,-0.6149692866,0.594716465,0.9363488141,-0.2327080781,-0.9205812049,-0.8523882536,0.0232654135,1.7356633815,-0.3402822584,-1.6459570451,-0.4343552598,0.2582521644,-0.0643522929,-0.9286583253,2.1775907185,1.3569582293,2.7981294777,-1.853306926,-0.639436874,1.1305357703,0.4942413126,-0.9047993661,4.1949322771,-1.0949791381,-1.1592631235,-0.0667799274,-0.8783793664,-0.532331855,-5.357856674,-4.355314164,-1.2229986814,0.7348171231,-0.0450431667,-0.1298878383,0.3826250601,-0.7226266479,-0.1656402758,-0.2184717143,-0.0345125963,-5.1126768582,-1.8601016076,-0.4195390849,0.6885903623,2.3215787971,2.7272382061,1.0498163624,3.6314655263,0.8468893279,-1.5403356972,-2.9328157694,-0.5661359291,1.7321078445,-1.4552874109,-3.1865231288,-1.901459377,0.8737061088,0.2298028431,4.2276886496,-1.1427853477,-1.7056307504,-1.8241057882,2.5916029976,0.1564932442,0.4121478389,0.9433293737,-0.5156587752,8.1738428895,-0.5777868426,0.0966010379,0.3621293987,-0.8894739134,-1.872892279,0.1356192814,1.2369653942,0.5373486253,-0.6509541422,-0.3653503843,-0.4192010315,3.5579493585,1.0165018207,0.1064480827,0.5921848358,1.120510717,0.945672804,-0.3032418764,-0.7497880545,-0.5719187543,0.1361511922,-0.4769072762,-0.0795503994,0.8394098699,0.0036173614,-0.7944009517,0.4848628577,-0.7361376626,-0.1987013999,0.8626716649,0.1372542564,-0.5598857738,0.8252695742,1.0278226302,-2.3767200345,-1.4376524579,1.43555228,1.3917102128,-1.3993294562,0.1748614238,-1.9308436665,-4.2543394837,-0.1605829814,0.7834326879,0.1406965498,1.0039630162,0.2212725404,0.8110547063,1.3147465447,1.1047531128,-0.5389092391,-0.0784426821,-0.7022056211,2.3613720876,3.0795658968,-0.6958312291,-0.6492849591,-0.6366166484,-0.1414891693,0.8273237472,-1.6806967703,-1.254972899,0.0280923202,-0.0176423466,1.1234838,0.5258848547,-2.0601534726,-1.352103737,0.5767547834,4.7293379433,-2.3447583303,-1.3821109445,0.6620210711,0.1489619927,1.406154548,-0.7434264866,1.2188312605,-0.0297999672,-0.6461483029,-0.1419312711,0.5739817621,-0.7236711103,-0.3629628011,0.2384670312,0.6372164978,0.6337380564,-0.8050136264,0.6885352072,-0.6341693853,-1.1938538078,0.6204637446,-2.1856410956,1.3812150922,0.1247839522,0.6462051378,-0.0380365642,0.338924692,0.6116459538,1.4336437348,0.2540035027,-0.5208443862,-0.4802217477,0.5791997329,0.5325349906,-1.2887407704,-1.5525712365,-2.3682013334,0.8923800345,-0.6515733216,-0.4633497875,0.6434598928,0.4750689827,0.1619641103,0.0843213699,1.0479050993,2.1154423159,-0.4088338863,-0.9688658408,-1.4541442043,-1.4770222898,0.4561286687,4.2168565502,-1.7144458649,-1.1587719586,-0.4153691538,-1.1699471396,-0.7783335038,0.9406435594,0.2817394646,0.75891788,-1.665367814,-3.0062126476,-0.3176662794,-1.6272652111,1.7644575313,-1.85137862,-1.2471475592,0.0990430571,-1.2588361937,-2.4216555256,0.8786705015,0.5726705273,-1.5431736226,-1.571491824,-1.6937840521,5.3117337311,0.5530473789,3.118803649,1.1732709598,-0.8139678785,-2.331869473,-1.4540224808,-1.5791643638,-7.3413576302,1.514573862,0.5845984664,1.0624932798,-0.2484586292,-2.7212573409,1.2456612524,-0.41562943,22.8459072953,-0.1543426529,-6.8561268639,-1.5517919395,1.7503437131,-0.2601304913,5.2156650351,0.4048283019,-1.2268119533,-1.0310624509,2.0621878903,-1.8930964922,0.4753478452,-1.6293559388,-0.101074491,-2.8094819846,0.1363089865,1.3765712287,-0.9403854162,-2.396702928,-1.1186338437,-1.9966398262,0.8862796699,1.3214564975,-0.6107281503,-3.5935757668,8.6789038425,2.125731342,6.4068007716,-0.7534692116,1.0951886075,-1.4055850931,0.8387228953,-3.1157375142,-0.4683238681,-0.7998038391,0.6888602109,5.3724564891,0.9461699873,5.055009688,-1.0504948545,-0.7295331523,0.4270496058,-4.1316535085,-2.9731391078,0.7389235439,-0.2947931633,-1.0526129358,0.755045145,-0.8213224665,-1.5836117286,17.3526621861,-3.84043864,-1.139023233,1.1316825285,-8.3579641469,1.0679804081,1.1051307621,-0.9525335816,1.075143528,1.2044129421,-1.8906403876,-2.1006119,27.7994521655,8.268528283,0.1992589717,1.2244971002,-0.0642902195,3.0467568882,-0.4273610619,-1.1379561439,-0.2597374078,0.438390763,1.2678861829,-2.3462598317,0.0557449195,1.1721506251,-1.3676825226,-0.7728813042,1.8157077126,-0.8016985625,-0.3371201337,-0.8223258978,-2.9301559388,0.025093759,1.6182856055,0.3640787763,-1.6162502558,1.0391206367,-3.2290503628,-0.7990414841,-0.4356171016,-1.9808737661,-0.7308488764,-1.3184802948,-0.492173951,0.7799253008,-0.2761540376,0.1323224851,-0.6114406916,0.2810019734,1.6194483645,-0.1523597159,-0.3839034873,0.0942985944,-0.1056153049,-0.0461378175,0.0187887712,1.270248968,0.3286587385,-0.6577004488,0.3822100656,0.0748968514,-0.5230087462,0.7278088444,0.5364457668,-0.236778056,-1.4732861315,-0.5805441717,-0.0544228681,0.3679958557,2.3150136701,0.1364708305,-0.7051833086,1.6060826737,-0.9768911151,0.3060763426,1.6219081449,-0.3072278628,-0.0261613745,0.5297182486,-0.3155459846,-0.7002825191,0.9754787288,1.1332587548,1.1317184458,-0.4553090816,0.2432674563,2.0122896169,1.1262714474,0.6242998606,-2.9049093788,-0.3451594584,1.2570021501,0.2790725286,2.2555686926,3.5907882995,3.1964748876,2.2215772835,26.0881797355,70.3319220794,-5.0351336314,-0.3827362806,1.5686181231,-0.5035698717,2.2686762826,0.4724050628,-8.7713895049,5.0317488544,0.4936374195,1.6017303539,-0.2441922042,11.310733644,-7.2443827557,-0.6369198808,-1.6777751656,-1.6384149875,0.570916117,-4.2684985338,4.511677857,-0.9769615717,0.390614956,-1.2527267131,3.4436739904,0.8946084643,0.6704992611,-0.8158353769,1.240105007,-0.3489856405,-0.335030455,0.7401146503,7.4460120581,-2.4152274655,-0.9508604941,-0.1223648893,-2.0754266872,-1.3148669164,1.1452269574,-0.8895295722,-6.4573295276,-1.5363086445,-0.1658392551,2.0473605873,-0.4951201364,-0.0399447349,-0.5090718154,0.3282669706,-1.2720449648,0.9244179773,5.0271192947,-0.3243441506,-0.7337715458,0.3578544765,-0.0449593455,1.0648344408,-1.0600632619,0.9980709575,0.3567760678,-0.1766948747,0.7070988072,-1.1832857752,0.4146296935,0.2010564505,0.0064073265,0.6817116956,-0.1167650945,-1.2459505842,0.3836510678,-0.7433994629,-0.8336225267,-0.0769042465,0.0174400513,-0.8355129785,0.3140797287,-1.6555485004,0.5219239976,0.7042855587,-0.1920171412,-1.442725273,0.8445247151,0.9804375463,0.2950176803,-0.671194776,-1.4114551723,-2.1261419644,0.0485903657,-0.1924596293,1.1896012444,-1.6861292694,1.1492068069,1.2202044549,-1.8958271393,0.1033771792,0.8107131018,-0.6613624776,2.3491375809,1.1710541585,0.5704389823,-0.2587125526,-0.3134158617,-1.4837737214,0.6779080495,1.4576560461,-0.4256616626,-0.6498612773,0.0095361184,-0.09583022,-0.5787304025,0.07747409,-0.3409524436,-0.5048028567,0.2196204303,0.6603282465,1.1799899811,0.6314352755,-0.5812095731,-0.0586521151,0.7650419513,-1.3928050125,-0.5190150994,-2.3595873789,0.4686078618,0.6952240361,0.9837842504,-0.4433417748,10.9137425949,0.8952635709,-1.2016265612,-0.1713375863,2.1421223375,1.0969855534,0.3242737986,-1.1332714623,-0.2149662997,-1.7131763611,3.9507244722,-0.5554035407,0.2649556351,0.2150720345,0.1613960529,-0.3714958939,0.9209456585,-5.1541968468,-0.8763032014,-0.5004454992,-8.0342518848,3.6272962535,-0.8124009236,1.4740064758,0.65027228,2.7168864864,-1.6562024899,-1.5350502303,0.4243715546,2.212482969,-0.0793418763,-0.4271268197,-0.6302034133,10.8816088632,0.6052863331,-0.6496554649,-2.2958434991,-4.615014736,0.36337108,-2.8621734794,-1.9117062336,-0.7279147637,1.6512892118,1.2682573486,-0.2048656998,-0.1354985023,-0.6745978136,-0.2536768122,3.245765171,0.3104824211,-0.5245267414,1.3998791862,1.1641315271,1.6451489099,-0.1661440139,2.9491239011,-2.0318743245,-4.6710406131,0.1306490661,1.7673887051,0.7755855393,-0.8896882742,0.4461164138,1.3854117794,-0.1157916411,-0.9329870764,-0.2205980499,0.4942172375,0.0263313201,-0.5355853761,-0.8181651806,-0.5392822273,-0.0813215398,0.1414797718,-0.227538077,-2.2630030062,-1.0421780292,0.2550449687,0.5781400944,-0.7332923702,0.4081107674,0.3371523765,-0.0562174106,1.1895078234,-1.5984606326,-0.7884187296,0.763513054,1.6991325164,1.0458669862,0.2341192735,1.2530732331,-0.881154848,0.4143297808,-0.0076820341,0.1663061959,0.4109699004,1.1380710296,-1.5636116275,-0.724274568,0.3025633446,1.6349423074,0.8619849197,-1.0927963007,-0.6158665017,-1.0109064406,0.3679888123,-0.1996852638,-0.2190391557,-0.3414803022,1.5706858483,1.5868876663,1.569154307,1.4040086875,-0.3382034754,1.0038302736,-1.7121210978,0.4555006048,-0.2410973506,-0.9987882057,-0.7220402361,1.869707846,-1.1599902426,0.578270238,-0.6369963002,-2.3454332884,2.8732304436,0.9438626496,-1.4046418735,-0.4139570049,0.5393189781,-0.9118344241,-0.3038448449,-0.67512356,0.4623256726,-1.2899982455,1.0273407417,0.5328789613,-0.4485335475,-1.1844620598,0.036853667,0.281223072,0.1609778663,-0.484983927,-0.8400309878,-0.9028212326,-0.3033094311,0.5018147128,0.4470200093,-0.3255038822,-0.6518777148,0.2716965137,1.2711608089,-0.8855218405,-0.0440305588,-0.871890998,0.7024718434,1.0819044181,-1.8737767434,1.0596345973,-0.0260642391,0.4222769862,0.1467915755,2.0711886115,-0.2457950902,-1.3514596746,-0.5573280854,1.7334776634,-0.4690592638,0.6322861814,1.5802802529,-1.1407670463,-0.9950954064,-0.2112303115,-0.3406621596,-0.8023274384,-0.0893502291,-0.056521902,0.2646222612,-0.5375957796,0.5987337334,0.1090259489,0.73656384,0.941462004,0.122743641,1.0749027728,-0.2527934921,-0.818235745,-0.538732937,0.301931454,-0.3321865656,1.0185279648,-1.7473087711,-0.2759029693,-0.8524857518,-0.418322056,-0.9720599858,-1.5664096823,-0.4098231943,-0.4395036589,1.1519828245,-0.4371866119,0.5360225716,0.5774390724,-1.3741774018,0.6955624129,1.2466563739,-0.4071282355,0.0365860949,-0.1046909711,-0.561295999,0.1608351048,-0.7673592386,0.3863708319,-0.6940470678,0.6892184752,-0.5318911377,0.1247829896,0.6038782981,2.0011073867,1.4872191999,-0.0118900184,-0.1223071497,0.2024582644,0.2327300037,-0.1384465127,-0.0613613027,1.4989121383,0.2030714572,-0.6007807819,0.0188111576,0.1244729832,-0.1540326351,-0.880192358,0.3525059121,-0.6265405866,-0.960053314,1.4637644817,-0.1117259305,-0.8898255373,-1.0081206172,-0.3346898728,-0.7696669327,-0.5516310342,0.0952126294,-0.1149135573,0.3268054558,-0.4606077561,-0.0698718833,-0.4730562057,0.4643058394,0.0485842054,1.4119630694,-0.2152100669,-0.1711307919,0.1487440891,-0.121000063,0.1054414666,-0.0125886808,1.3185555348,-1.0158446186,-0.0997442014,0.0820130715,-0.1278299495,-0.6967139196,-1.1812345393,-0.7544328804,0.9224098629,1.2612929184,0.7208314159,0.1838641849,-0.4537138473,0.1324679198,1.1061160262,0.0157250343,-0.4210962359,0.8977580124,-1.5927613571,-0.1423776955,-0.9322851288,1.2502516028,0.0755291297,-0.047747022,-0.9038253165,-0.5432882615,0.4466967419,3.8839467041,-1.6094170816,1.3390009969,-0.117927006,-0.8876153565,-0.2463259752,-2.704239995,-0.1440414724,-0.4818494261,0.3617432575,0.2534986839,0.0597855106,0.2417644298,-0.0723277562,0.6986396813,-0.5526804879,-2.5483110942,-0.3676460164,-0.0155630449,-1.4260439705,-0.6872513143,1.7574555025,-1.6472595751,0.7335502484,-0.4616888223,-0.0583429829,0.9249236152,1.656683487,1.4862575207,0.4067484712,0.940714363,-0.5467494808,1.2129453703,-0.5633536658,-0.5773559449,0.8380817264,1.3981357583,-0.6315676233,1.5000509349,0.5310938631,-1.2922535364,-0.8911093768,0.9604313481,1.2410043188,0.5062053088,0.65023714,-0.2078434613,1.3654810182,2.8746482136,-3.4885584358,-6.1794231599,0.0292827155,0.845842744,-0.0582714683,-0.4192833312,-0.7619029731,-0.2258251277,-0.8445216722,0.7779421444,0.1716145788,-6.0827828183,1.0674324842,0.7851899026,0.5452416938,2.3029509766,1.425189,-0.2258648755,2.5654257842,-2.9517610612,-0.5535638648,0.4618518127,2.4508377229,1.8171388466,-0.000365461,0.1991161944,-2.5516553699,-0.9594875895,-1.8655616694,0.8511912158,0.3015050966,-2.9352122385,0.7038653097,1.1103181803,0.4621745695,0.2822143875,1.3586029534,0.9095899406,0.2546442479,1.0161246506,0.869331282,-0.1711225699,-0.5075829663,4.8924263464,-0.1218419533,-1.5449881241,0.0618840234,-0.6576414395,-0.4273304113,4.6836619605,5.0865000943,-0.9516533914,0.8059849309,-2.4254209749,-1.0317542119,-0.6907553598,-0.9948337482,1.3511274943,0.1545687149,-1.0998536376,0.3202873951,0.3550141989,-0.2596820765,-0.565566139,-0.806849517,0.6735835358,0.581650444,1.5440904211,2.2136943698,-0.0155681758,-0.4651591659,-0.5043265832,0.2605734658,0.1483162737,-0.1084240028,-0.3662658532,1.515469862,-5.2395166911,-0.361353589,0.8041111114,-1.2088110535,0.0860599345,-0.6683555365,1.9423730251,1.0288416927,0.600221958,0.0366446404,-1.1084662437,-0.413718236,0.5431771092,-0.9073117864,-1.4706607969,-0.6134314711,-0.2939668444,1.97887325,0.8772540411,0.2300593389,-0.5371961659,-1.6711047093,-1.4916906758,0.4179939145,-0.8922426664,-0.9201924563,0.6501729605,2.9354052511,-1.6461692345,0.8405193898,-0.393568677,0.5883963714,-2.4929047069,0.9832604136,-0.7554437926,2.0409766004,-0.7208104592,-0.7489381808,-2.1206988912,2.6593116534,-0.220471118,0.3889263954,0.164121705,-1.0168362299,0.2004266972,0.1610956088,0.2592229537,1.1260334208,0.5161347511,1.4325006074,0.2325190018,0.492562798,0.2932577077,0.7107214681,0.6180946469,-3.2091959644,0.1840491782,0.3975915371,-0.6945989717,-7.2789487011,-0.6429760979,0.9813685976,-0.0268578506,-0.8848885816,0.189481278,1.609833055,-1.5409340439,0.0915317188,0.2737511889,-0.6885292208,0.0661135601,0.8434536015,0.4274101669,1.5324519132,0.548661677,-0.6371722348,-0.2633737623,-9.0415910171,-7.9170415586,2.565556195,0.4742230884,0.0830270658,1.8282755115,-0.9822175559,-1.1291059504,0.6143904198,-0.1404363642,-0.1132988348,-2.9281149951,0.0578415581,7.7717881274,2.1499991911,-0.1163536964,-0.0012149196,0.3199892387,-1.0775554267,0.1907628371,-1.4198581534,-4.0041649933,-0.4898581112,-1.5344690828,0.8090543578,3.0780619844,-0.0638370657,0.7945947924,-0.2050453844,2.7554235427,0.8050300249,0.3014968728,-1.3250495258,0.2899808531,0.1119243328,1.1031376314,-4.0599029547,-0.759597965,-1.3472377689,-1.001547285,-0.5647122254,-0.7984558323,0.8366181918,4.8559816189,-0.7103993106,-1.6998944993,3.6224524594,2.0289295389,1.7954173371,-0.2027762073,-0.0870141979,0.7259110807,-0.3659047695,1.0609066978,-1.0141317078,-0.4386029212,-5.9789383256,-0.257067395,-0.1742181281,-0.0738282935,-0.191557347,-1.7569438831,-0.8536899975,1.567228066,-1.181120709,-0.1055385446,0.1444099431,-2.7248966811,-1.3454127824,1.2898166542,-0.4239640454,-9.0865966088,0.5159217753,-0.4668193031,0.320545367,-0.3981221526,-0.859488771,0.160404836,-3.0703356693,-2.7511777001,-0.3049734817,-0.9562428195,-0.2365444775,0.9394210591,-0.1675406249,-0.4345447696,-0.7892719092,7.294246974,-1.1453708473,-0.8578812853,-0.6032677251,0.2894029485,1.942825276,-0.5295452235,-0.8642902336,-0.4329617024,3.2136837507,4.0276640791,0.4604644565,-0.0642693816,-1.0860681044,-0.3764041278,-2.5974606829,0.9914737924,5.0800629662,1.3908769163,-1.9318007227,0.036150985,0.1435085907,-0.8485465753,-0.7419318711,0.3297587531,-0.4421441356,0.3679817351,-0.5413825901,0.5342362372,-2.6481546399,-0.373830225,-3.1913103101,-0.9104329208,-3.2983866188,0.8956101818,-2.6332727916,-0.4643980934,-1.1478974549,0.738150105,-2.6101252886,-1.0149432836,0.1765678708,-0.9391988684,-0.3152910931,0.0536106897,2.7712472965,0.6689395743,0.29667442,0.9908856422,-2.6500800218,-3.1733596849,-0.5917474771,-0.6467698866,0.4984410507,1.6869884739,-0.678352653,0.7963044288,-3.9216895228,-0.8406266117,0.8269023271,0.6206322982,-0.6465386829,1.0384224235,0.9024086639,0.6103633649,0.3837436583,-0.8445822178,0.4658707199,-0.7967076251,-0.1372992437,-0.250113644,0.2647914523,0.9985167567,0.6893638888,-0.2252414712,-0.6649693965,-0.3764839805,-0.5878282144,3.3002345187,0.8075749475,0.9552840662,0.9565349763,2.0269318091,0.5325143225,-0.7867533273,-0.1544311315,0.6060782854,-0.2875814497,0.9442405453,-0.0126333592,0.7861949468,0.4559624318,-1.1595621819,0.9755377526,0.3535185538,0.3582340891,0.3382358569,0.8416249446,3.3186542166,-0.8470610889,-0.2001588707,-1.4273212186,-0.1821655706,0.6594149646,1.9428569152,0.0906347022,0.1627277936,0.4037747761,-0.467224714,0.7044508985,-1.8566236954,0.6582362026,0.830236734,-0.6101061514,1.7420564019,0.9962105234,0.470148819,0.3902041558,-0.573162937,-1.758489143,-0.9869008909,0.0778113607,-0.2843366511,0.2521035883,-1.0708586024,-0.4248462731,-0.3267876982,-0.8242861692,-1.0321571444,0.781057979,1.2391659814,0.4861466272,-1.6365909405,0.3221762258,-0.1860599737,-0.6263117209,-0.3053465534,-0.8497206454,-0.8494162997,0.9047812075,-1.6735335517,-0.9806046026,0.2737206007,0.2147786975,0.5115609364,1.0260546244,0.0164218888,1.1492420985,0.1767384471,0.9413458965,-0.6317851818,-0.2043119056,-3.0572106489,0.2422478938,-0.2041207013,4.0690552274,0.6861100031,-1.0640861914,0.3090031262,0.7030738332,-1.1606267258,-0.7124113351,-6.9189305157,-0.8473627711,0.9110798405,1.4959792669,-0.1018038772,0.0882228959,-0.8922015504,0.1206900188,1.0787632242,1.325707821,0.9381853762,-0.305032084,-1.6468619404,-0.7564397786,-0.52069265,-0.0821648368,-0.3000950311,0.7198119173,-0.7465047578,0.6207119386,0.441323273,-1.0163816746,-0.8708897285,0.3276350697,2.4729982475,-0.2492204527,-2.8665941517,0.6994322981,-2.0862619715,-0.845016237,1.0503886269,-3.0340557219,-0.7806636179,7.6553208581,-0.6100124411,2.3574687353,-0.5073153782,-1.5358101213,0.1416323709,0.8610370364,-0.1727850914,1.6473459883,-1.4664771995,1.0328209666,-0.0589315313,-0.0478908827,0.6916266258,0.5513133096,0.1664643446,2.1961779749,-0.2641723343,-1.8798079392,-1.0918089618,-3.1913107975,0.1931903407,1.1589020032,0.115395136,0.7410566007,-1.6725579459,0.766451741,2.0867308352,-2.0103315516,0.513176046,1.4874198912,0.732797278,-1.7781390084,-1.30257475,-0.8164444652,0.1646386836,-0.0819921474,0.9440664878,0.6869229682,-0.0864215328,3.1052059104,-0.3176156089,-0.7872648604,1.2808484121,-2.3747109658,-0.1171825017,0.6035599184,1.9424773787,-0.1208839849,2.3509733282,-0.3564616827,-1.0800900424,-0.3902245423,0.3279714168,-0.8195763351,2.0618738617,1.3449977779,-0.4470958424,1.4788693972,-4.1979405299,1.366260887,0.9227884725,-1.4115723642,2.3200413641,-0.2073989467,6.0291591954,0.1089008191,0.4790063894,-4.0774900668,1.2570325229,-1.2017408504,-0.5713185992,0.2963339935,1.9872745787,-0.1411526831,-0.933534585,1.4690972506,0.5298184665,-1.1155328763,1.294417229,-1.4481905522,-0.0735371718,-0.7818970531,0.6821005623,1.0292095931,0.6358907427,0.2732864748,-0.0755875943,0.2097771744,-1.8504481394,0.1919929059,-5.824671028,-0.2038892727,0.8989876701,-0.0979195114,-1.0149080497,3.1484065864,-0.3607859892,0.5155262528,-0.0406918313,-0.4412293567,0.6856480472,-1.2762394536,0.3275508075,1.2715757518,1.0737907252,-2.0637086462,0.7927813481,0.803931332,1.2232357151,0.7569592038,-0.4194334117,-1.5542350889,-0.4673888575,1.9529113848,-0.3887306457,-4.1784974993,1.5874400704,-0.0291674627,-0.394248386,-0.7222718943,1.0750783274,-0.2380474498,0.1715769665,1.1961861548,1.1276215879,1.6883510874,-0.5787383898,2.5853255236,1.3694025239,0.7435802972,-0.408705059,0.3393274993,0.5594629676,-2.4154796617,0.6124539826,-0.8380322968,-0.5155718142,-0.942422839,1.4447232417,1.2514497369,-0.4489660544,-2.8969791341,-0.2523415068,-1.6792763938,2.4489742218,0.1104567622,0.0500670556,-2.6048783224,-3.3427325983,0.6998533523,0.7888858556,-0.154872847,1.347288426,-0.6082231756,-0.3899137447,0.703980554,-1.6435587169,0.8552769551,-1.0739807361,-0.1533575666,-0.2044338846,0.003722733,0.3869983366,-0.392862439,0.123107689,1.3789980929,-1.5053239108,0.3672512553,-0.154032086,0.2948849834,1.1235044129,-0.0371805916,1.9270113743,1.1167068072,1.2809349947,-0.5313910182,0.0984828123,-0.2368400236,0.1725255281,-0.1761079405,0.0835076752,-0.3170138542,-0.7346281502,-0.39832318,0.3307835097,-0.0690735012,-0.1419873546,1.3124158685,-1.1386007712,0.4378086437,-1.7986689671,-1.0370675669,0.1264365223,-0.5622788361,-0.6392858352,-0.1557902971,0.1308230554,-2.6840300018,-0.5471159836,-0.125938225,-0.194142794,-0.4192063832,-1.2740170849,-2.9447756975,1.0292183481,-0.8621665924,-3.1832505159,1.1620630062,-0.0263093655,0.1341077791,-1.4683842218,-0.2992831308,-0.8119808398,0.5084399748,-2.4351973951,0.4995730135,0.7232504936,0.6462947342,0.5096787259,-2.3883848012,-0.4936698014,-0.4680234993,1.0102117335,1.3621226134,1.1486555231,-5.1565515612,0.5680078333,-0.7882653823,-1.4446604846,0.412331403,0.8618236993,5.6189871541,0.4501506861,1.3708730562,1.4215704544,0.0002865009,0.4347715927,-0.4223309303,0.0553607392,-2.9403706158,0.4371336,-1.5511373425,-2.2945402774,-1.2138848029,-2.9006065848,4.0481534521,-3.6398545745,-1.4318704917,-0.5568964587,0.1873011146,0.5211556963,-0.4937344553,-0.5330435727,-0.5402759765,-1.5130891808,0.3685745742,-0.5668501289,0.6046800555,-1.6035767242,-0.1183570992,0.8881586503,-0.0716793098,1.3017993403,1.6817262716,-0.761443324,0.2721624472,0.2483217758,0.7109644848,-0.6668447326,-1.5453031383,-0.5188575975,1.4061685979,-1.2067204486,0.9882121723,0.2383499954,1.1112707257,0.8576631147,-0.1764180842,-0.1115463898,-0.5220744905,-0.739982275,0.1542599283,-0.8223444106,1.5810185503,0.3657524983,-0.1598712072,-0.1890630693,-0.1968405597,-1.2341920021,-0.1779732508,-0.0014365173,0.3934865422,-0.486108363,-1.6182410374,-0.9380306775,-3.0506763336,-1.0944843036,0.7870298542,0.0535198027,0.8486139839,-0.0083317903,2.3269377378,-1.2668006927,0.4474347976,-3.0793873496,-0.1483942094,-0.1488204997,0.857502239,-1.3513905389,-1.5798514415,-0.0272436019,-0.1787508033,1.1795108398,0.7329237628,0.8512825907,0.7910294765,0.7383618903,2.6207122024,1.3360522474,-0.2593614492,0.572004393,-0.881980725,-0.0769080689,-1.4685583622,0.4494930257,-1.2702519502,-0.9110762463,-0.9932413348,-4.8586828584,0.0318464357,0.0241729184,-0.5203081184,-0.0722782929,0.5659526539,-1.1997214724,0.0273211844,0.0358749768,1.2486182327,-1.3539362206,0.0337880027,-2.0864587635,0.6384529017,-0.2225072849,1.2408852905,-0.3347492089,-0.0143355123,-1.7818886873,0.2049480376,3.1299408326,0.7072159978,-0.4130954583,-0.6177386144,-1.330347531,1.3719197387,0.4834654405,-0.4212059218,-1.3648541589,-0.3230406035,1.3894560008,-0.1871829927,-1.6318428401,-2.479612735,0.3928923433,0.5759056412,1.6448978557,-0.6223134891,1.0823333326,3.0892253365,1.2984618869,-0.43212592,0.9479393055,0.1299725758,0.1417884076,1.0693183851,1.3756305309,0.0313247056,1.0608605476,-2.4746823207,-1.5517745575,0.7315848643,0.6252461111,-0.5752575898,1.7117482993,-2.4005326501,0.8235294418,0.4956067658,-4.0291874888,0.3940963826,-0.0604571312,-0.7883991255,0.1135276528,2.9024778526,1.2111235146,2.7463483761,-0.8821040277,0.5716474423,-0.2173646794,-0.289694114,-0.5457370735,0.1800919698,0.2199272748,-0.9396994785,-1.9860429313,0.0157944518,0.4296395599,-0.9087481159,0.6380018735,-1.3547158959,1.0557301635,-0.550675392,0.9701307947,0.0290365864,-0.0390283669,-0.5572865403,-0.1598091476,0.883200888,-0.641835163,-0.8288415383,0.5383281247,1.7167104888,-0.9457164672,-1.072780226,0.5454191097,-0.8605764237,-0.2942368656,0.0309139614,-4.4702166627,-0.0814686579,-0.4507426193,0.7296087684,-0.9764059658,1.5637667078,-1.4172005917,0.1761566996,-1.2995658966,0.0528486664,0.8692293598,-1.2377130721,-0.3173303074,0.0649501574,1.7124612462,1.1855161062,0.9156453782,-0.1562300539,0.0842423437,1.1655446556,1.8721513696,-0.1024632884,-1.0143682354,0.4933804058,-0.7979982749,0.9934580313,1.4021601939,1.177233065,0.4664690821,-0.8354210692,0.3660321237,-0.1110560423,2.3406637134,-0.3347690061,-1.4117673729,0.0852855878,0.4721591689,0.3182577619,3.3948658367,1.722562066,-0.1512402478,0.2817586356,-0.8376548874,0.6109481968,7.8216899193,-0.063205057,0.8831292623,0.3280712524,0.0836452897,4.3296413386,-0.7329283587,-0.1437735994,0.8241737977,0.1071503531,1.5080215816,1.371205516,1.9556423547,1.565336246,-2.3058131046,0.1775411355,4.4438300041,2.9113595168,0.2229185513,-3.7432633673,-12.0395628506
   -2.2836265654,-1.284997244,-0.5935993559,1.2923786039,0.217007292,-1.5314814257,0.1928733612,-0.9581765677,0.1259443778,-0.2298895847,-1.3234579435,1.2193862302,-1.182139931,-0.734548875,-0.0563276592,-0.7541642361,0.6997026367,-0.6827370983,0.0854239976,1.4675775441,0.696272606,-0.1812605462,0.0083677827,3.7305370831,1.8387005436,-0.2923151342,-0.2633056244,-0.1735286838,-0.6908130309,0.2158480436,-0.4315945186,0.0436501271,-1.1864377427,0.8119025542,0.32552542,1.4094429424,0.7336187765,0.250812157,-0.9811407004,0.90731121,1.2277741763,1.0432939051,0.8795530493,0.1262439496,0.9273800908,-0.0496144185,-0.3978478652,0.5573479628,-1.7281589873,-0.6558965046,-0.3846385404,0.878769658,0.0713831969,0.615798425,-0.5305604384,2.0429117186,0.3677795046,1.5774981577,2.8099350642,-0.5846923878,0.5571200974,-1.0979590062,0.2119794535,0.0040073239,0.213043591,0.5334527711,-0.911358457,0.2707733639,0.5344883041,0.3589588575,0.3511308365,0.1469517643,-0.0836964962,-1.2133492975,0.5245503284,0.4673168983,-0.5132954224,0.0132105699,-0.5923097254,-1.1060366903,-0.7406214687,0.9950490062,-0.6675622252,-0.7862279411,-0.734649325,0.4808346148,0.3829831649,0.884286538,1.0132412044,0.2555498113,0.3195659663,-0.2964730685,-0.6571028133,-0.4474300813,-0.1978034783,0.632483418,0.0088367152,-0.4432082978,-3.0090383162,0.7253256431,-0.5977499425,0.5563794467,-2.3740878565,-0.9998149013,-1.0246830305,-1.6671565605,-1.0536804054,1.0462531398,-0.1930244177,-0.8375965666,1.7448696242,0.6995625025,-1.2631715182,-0.4362940734,-0.3338785556,0.9843663829,-0.8690175205,-1.0014894566,-0.038271016,0.8504098101,-4.4196656545,-1.366165359,-0.6250094703,0.4100959703,-0.1144743942,-0.3290129691,0.9462590886,-0.1754877659,-0.2071591767,-0.2604376043,1.0179366855,-1.7816536744,2.035934816,-0.8310232316,-0.0569210679,-0.1959832235,-0.3969816723,0.4092315392,-5.4733970861,0.0201505267,-0.2789517907,-0.1922948284,-2.1496785364,0.7595507583,0.1883536729,-2.4978386315,-3.8645948357,1.3144245513,-0.875649309,0.0995861581,-0.1097511514,0.7271226858,0.1757189427,-0.4110765364,-0.3731066345,0.4213673173,0.3806915348,1.6755315507,-0.5893052674,0.6501447932,1.112428821,-0.0284709647,0.7032410544,-0.9165531969,0.8466104577,0.8357625111,-0.9005095677,-0.6596303881,-1.530695934,0.4522100854,0.0531703527,-0.6897010679,-2.6043113801,-0.1042836507,0.2623876368,0.0515060728,-0.9842309249,-0.2366250481,0.6003739696,-0.2538703802,0.0334500639,-0.772111631,-1.3901021702,-0.7686933727,-1.6649152311,0.4376735359,-0.6076394159,-0.7588037196,-1.4151678366,0.2613721017,1.6544006406,0.1385194059,-0.6700947633,0.2846180566,0.1439693281,0.8873501675,0.3317863337,0.1297138465,0.4533852972,0.5718568356,-0.7964979501,-1.0417305512,0.3554226461,-0.0512154044,-0.0929288798,0.8903888723,-0.3310504348,1.781502782,0.1598650154,-1.8704847704,0.2973546991,-1.1274565616,1.2443082841,0.7837854598,-1.1982265179,0.8674243164,0.6098431535,1.0887704821,-0.2059054945,2.6317425035,0.1372039911,1.2104639695,-0.6395377411,0.9911669789,-0.3147699466,1.2745907093,-0.2151588853,-0.9184595527,-0.2214178849,-0.8501042271,-0.3237873011,1.6715834366,2.0322057369,1.4234810666,-0.9463364223,0.1161995157,1.4088716186,0.3669383762,-0.8177681191,-1.7424810138,0.751685641,1.4899429414,-0.199842478,-0.7694451066,-0.9567450185,-1.0475039824,-0.1282296469,-0.0823871561,-1.0653358748,2.6885668975,0.0738082992,0.6949483439,-0.0056962758,0.2683788116,-0.3621669636,1.0376459095,-0.1308937455,-1.9824194948,-0.092069616,-0.0503008261,1.1906782595,1.3213252668,-0.8838081199,0.5207959086,1.0642487892,0.3085305255,-1.4502002,-1.1355975488,0.6226376702,1.8925889314,-0.5201260193,-0.2795767119,-0.6036205882,-1.3574653422,1.2235578907,-0.0297992092,0.391539047,4.912660285,0.2307888209,-0.5713479487,-0.158170944,0.6398443619,-1.0525184386,-0.9255207814,0.2171636763,0.0549454468,-0.4678333398,0.1437740965,1.3614721008,1.6162354781,0.8354577757,0.7773627386,-0.6333035277,-1.1756771959,-0.8153233504,1.2222794211,1.3744861985,0.317505984,2.1822017907,0.5646290597,2.8329158273,0.2766699805,-4.0663614662,-0.0275734677,1.0178325051,-0.3916333867,0.5149704368,0.8959811724,0.338175067,-0.4329958991,0.897211601,-0.0701286986,0.990211304,-0.676981844,-0.4354932991,-1.2787413907,-0.2764394678,-1.1286838106,-0.6032300456,-0.2064683885,-4.1491448212,0.6669633145,3.8883348574,1.085029869,-0.6695588236,0.1479711769,1.3893322731,-1.2792511391,-3.2227957742,0.5931473709,0.6075437728,0.3762022781,0.3479682552,-0.2049523276,-0.5612881525,-0.8922906591,-1.0394232592,0.2242349954,1.1072205275,-0.3884559955,-0.8818388618,-0.1284469359,0.1822008401,-0.6324660881,-0.9775704971,-0.4936637351,0.9383856621,2.8591991721,-0.9905613719,-0.5879336025,-0.9904715234,-2.6188578243,0.1161078986,-0.671221484,-0.3848390662,-2.4069995554,-0.011763856,-2.7106898043,-0.1721327591,0.4299750983,4.2357119801,0.1398780085,-0.0444215977,-0.2771710126,0.9710542224,-0.7463212396,1.720460446,1.5623236818,0.3402288097,-2.4569612961,0.9237360396,-2.7766430719,0.1960616458,-2.7888029965,-1.1351391181,1.7769519643,0.3319911246,0.4447948111,0.7599587059,-0.5840150141,0.2076311436,1.8650643999,0.9406187052,1.9591723952,1.0177922966,-0.4860508585,-0.0163411366,-1.0969968171,-0.9554857807,0.105172261,-1.429000783,3.1469430043,0.7286047573,-0.6321827531,0.4792105838,0.5933368735,0.7350446924,-0.3067067514,-1.1561363167,-1.9681350166,1.1401600309,-0.9157507027,0.8219795633,-0.8239412133,2.5740551052,-0.6824823123,-0.2863486496,-0.609096566,-0.8259227291,-0.1467160162,-0.4886630469,-0.0990432134,-0.2802010892,-0.8569479613,1.9483709762,-2.0889733636,-1.2702131481,-1.1236055025,-0.2515039596,-0.9840414156,-1.3161388405,-2.1350736397,0.0451033825,1.0005874746,0.4457038598,-1.0570923458,0.8844476225,-0.8407836658,0.10049192,0.8128688887,-0.3944022915,-1.0993203487,-0.1233061413,0.5154245806,0.5479449578,-0.496542138,0.0113935987,-1.657588079,0.1710154753,-1.3703005744,-3.7918554383,-1.2924517344,-0.1780873796,0.5206708935,-1.2066798243,0.8110155949,-0.7765314793,-4.3857675737,-2.2629121928,-3.6222712785,-0.598027181,0.1218964822,-1.1021486883,-1.7887218956,1.0268150886,0.878690381,-0.015255677,2.7637548122,-1.4420553732,-0.4731280039,0.8217570137,0.1321264555,-0.581160964,1.1073721923,-0.8591493322,0.5999951755,0.1728542756,-2.5045764294,-0.3500060927,-3.6741180831,-1.2452355637,-0.3914324564,1.3204452162,-1.0098370126,1.394351935,-2.1604159637,-0.0752164572,0.0683558785,0.4000357396,2.6777064867,-0.2577380452,3.9246670474,0.3515694848,-2.8977011159,1.2741168665,1.4198172427,-0.7472577703,1.0841060327,-1.7082114643,0.3336733723,-1.1772530466,-0.0174450288,-0.6958062631,0.5374369368,-3.8852180991,-1.0275891452,0.4131528812,-0.211571942,2.9178695973,-0.8324059804,-2.4253146503,0.7563018946,0.2434656415,-0.1843226806,0.4701958437,0.267663105,1.529644491,0.84934506,-0.7898446067,0.454309384,-0.1208802937,1.1023368147,-2.9285039064,-0.724363829,0.8184171422,-0.7907345258,-5.9860130189,0.3027576198,-0.4990329369,-0.4810877336,-4.3457977469,-0.1256167138,-2.9866478742,-2.4487423523,-1.6314765886,-0.0426826535,1.2133674235,-0.2794460517,-0.0622930536,-0.1521612719,-2.8144095631,-0.8601665397,1.3721467019,-0.5974188668,-1.5574766506,-0.5977893768,-0.6754264952,1.8190664444,-0.3597024045,1.2638106504,-0.1579028672,1.7491916902,0.4582455639,-2.2787722404,0.5634665593,-0.2296228544,-0.190419427,1.1525287921,0.515174263,-0.0113106792,0.419092858,-0.5318417645,-0.7183256444,-4.2649058674,-0.4059357813,0.1999446188,1.5335313938,0.1824864405,0.4206311773,0.0311814061,0.4004572402,2.338649763,0.1133891362,-0.2194757595,-0.4123994611,-0.2197505312,-0.2126048177,1.4087448437,-0.4585123195,-2.1339560999,-0.5845315004,0.5899269515,0.4478954002,-1.7784202015,0.7015397767,-0.3322036466,-0.3455589538,-0.8437139136,0.4754613041,-0.2429211301,0.9961898059,0.738509378,-0.7930920472,1.3899966278,-0.2284411793,0.3618971237,0.6526349701,0.206099994,0.7794966417,0.3745795608,-0.5860643198,-0.2818457745,-0.8190897949,-0.2236223883,0.8965503489,-2.4752194841,-2.3948112016,-0.6503117246,-0.9247351339,0.4292279673,1.4735684603,0.963600102,-0.5009908756,1.013992966,0.5021319104,1.1994329343,-0.6561409939,-0.7498894383,-0.8049478188,0.0934342566,-2.7329303044,-1.1150673434,-0.0268127295,0.1810716531,0.2315384942,-0.3922134121,-0.9155397792,-0.623048278,-0.968811497,1.046723894,-1.3279937209,-0.5864647549,-0.0839999906,0.2021653344,-1.2657873828,0.0202707605,-0.0277621177,0.2712648577,-0.4968648063,0.3648828817,-0.5692705459,0.3485881361,-1.9263555565,0.3130320385,-0.5093917678,0.5992030612,0.0115478699,0.3540587262,-0.7461751162,1.214010126,0.2005073006,-0.4040567153,-0.552700874,-1.1845643777,-3.9810442992,4.4462349843,0.5046346613,0.6506210811,0.9074994654,-0.9463344709,0.2729087446,-1.0954014553,0.9159179248,-2.2455816011,-5.2184729847,-0.786562586,-0.7736843251,0.6280630611,-0.6586365497,-0.0342690783,1.3139426957,-0.5149203161,-2.2458311658,1.7127870872,0.7316103662,-1.4423425569,0.3349442076,-0.5787261781,0.393108507,-2.8643415719,-0.9295199873,1.6887675046,0.4031850621,1.357204946,0.5997739367,-4.5920302648,0.4081840402,-0.2966146054,-0.0718748217,1.3509141934,-0.777708076,0.6218593207,-1.6324579433,0.032729252,0.7664580868,2.766224314,0.6989320306,0.7673357765,0.5580338547,-0.9773304914,0.2184673789,-0.7431876014,1.1381740406,-1.5689433107,2.389842308,2.3810038141,-0.3869531056,-0.3753434802,1.3904276131,0.9177345546,0.7057648813,-0.0188733236,-2.3529858809,-0.0605512397,-0.1848422555,1.8229390981,1.1175536062,-0.7994420103,-0.089475308,1.2834208213,1.1163413501,-0.6458281536,1.1017062961,-0.2598804037,0.4356263263,0.5554300478,1.8225382425,0.1218140678,1.66294912,0.6816428418,0.3471007658,-1.6056172656,1.0465919013,-1.6771756141,0.6345161168,-0.0196101602,0.952914597,-0.1810673001,-0.7506979758,1.5222558787,-1.5062001111,-0.0508700255,0.0204927346,-0.5877313179,-0.3074984619,-1.0938991721,0.1597829791,0.3902685361,-0.4273333026,4.3768138621,0.8482984159,-2.3314575316,-1.239027477,4.690934023,-2.303527772,0.1848065403,-0.7258834708,-0.1162567099,1.4623425346,0.1822216701,0.2093407521,1.3602978628,-6.4580429261,0.4992257446,-1.796666928,-0.6795334274,-0.2585317508,-1.1625875698,0.2868313914,0.2669846801,-0.7217792241,-0.3602437795,-1.0690014128,-3.2136903408,0.7011552542,4.2764976366,-0.7936291508,-0.2983615967,-1.0361094396,2.1997481784,-1.2812738048,1.405160678,-1.3779023732,0.3638794797,-0.2472796815,5.4107340538,-1.0659667075,-0.4770609198,1.5779737205,-1.0019321827,3.8516034803,0.5360926445,-0.1096920857,2.9482473988,2.2375691602,1.8314538535,2.1255007598,1.8286283361,-0.2710641251,-1.4086501821,-2.6891031819,0.0224818732,-0.5424185189,-0.3715258143,-0.7352744344,0.4825508474,0.5583290173,-0.2696700327,0.2764428332,-0.3941652164,-0.2598309771,0.1663709053,-1.2411511368,2.073004965,1.0578654539,1.2117531327,0.4294450159,0.8592477291,1.4586731441,2.3465954996,-1.9340491499,2.169295908,-1.0905195636,1.4884715426,-0.243263595,-0.8945714633,-0.4160780882,1.5341483233,1.1725711537,0.9570643437,1.6594634877,1.576009902,0.6733200531,1.4886450213,-0.0381244629,0.7056514558,1.6578736896,-0.8226661478,-0.2254332366,1.4421520179,-2.0737355638,-1.29026643,-0.1012990971,-0.3982327386,-0.5063076376,3.0307682264,0.0130178359,-3.7622419079,-0.5628317575,-0.7450527409,-1.7695803314,0.5795459763,-1.5232659657,0.2700967823,1.1708876283,-1.5369284725,0.060684171,-1.225786629,-0.1239744565,2.0378669327,-2.3564242763,-0.1623015179,-1.4201098632,0.2447999351,0.7211611383,-1.4412266335,-0.8006910554,-0.0439485993,-0.4182119092,0.2551777184,-0.4043996238,-0.4248113229,-0.8939075236,-3.3644631828,0.3280012994,-3.5311933449,0.6904860581,0.7322134984,-0.2282757204,-1.0002860143,0.4255326142,4.2282327659,-0.780825604,-2.1688686997,-0.0562013363,0.4748608868,-0.4890304513,-1.3452019329,0.9250466494,-0.2037987259,-4.5912143264,2.7388900816,-2.4488165456,-1.1874982647,-0.5193185642,-0.3869225188,-3.7227942774,-1.0766487166,-0.1169187601,-1.2177962186,-1.3712763902,3.9504028523,0.7627595108,0.8202117657,-3.8986934527,0.5777117439,0.5501865162,1.0005488376,8.3081328476,-3.0539144574,-0.7633716155,-0.2124492268,-1.0630589312,0.4688520203,0.1000408482,-1.9021936796,-1.5424492011,-0.5187293632,-0.3149560548,0.3799526439,-1.97561607,-1.3847865119,1.4092896429,0.1162012776,3.1468657253,-1.1806657873,-0.3485125133,0.1392151521,-0.4188100013,-0.5788921532,0.6159538483,0.958644678,2.5116220918,0.1822393992,-0.4067347643,-0.4553467664,-3.4888023405,0.8466957056,0.7153528507,3.1965042507,-0.2392757986,0.818375977,0.8029701991,0.9067427474,-0.4375290698,-2.0269229884,-0.0998811984,0.7470223893,4.5814630708,-2.3527175842,2.2447520294,-0.6262009764,0.0143842189,-1.0365462478,-0.106698935,0.5575465162,0.660077334,-3.8471029355,5.19073087,-0.4270418241,-0.6750607261,-0.3290096885,-0.4766229434,0.0930248025,4.7682029184,2.734571126,0.9795794876,-1.4626419422,0.7002282245,-1.3446821776,0.7211403296,5.1407325788,0.408049228,0.4538049465,2.0611452562,0.3032926017,-0.5216247451,0.6351291459,-0.9380641186,1.2697694275,-0.0435743121,4.5300410636,0.1847836923,-2.1049950271,-0.0838553601,-2.9569937211,-2.49365935,0.9367699717,-3.2854605357,5.6035448502,-1.503214618,0.3532126511,-0.4482098297,-0.0103429935,1.4521946053,-0.5992013978,5.5845874322,0.0169149312,1.0961184167,0.9389940567,0.3735203054,-0.7568359922,-3.133300277,-0.2147388724,0.4030771959,0.0729654669,0.2300815996,2.2361817358,-0.53965427,0.7842972825,0.0430961578,-1.1682073784,-0.2911247412,0.3459343379,0.704801266,0.0165859576,2.1166121809,-0.0884748576,-1.8355851947,-0.2533899552,0.1361044782,-1.0781343096,0.2935044837,1.0679526702,-0.5603061374,-0.4267213007,0.8457279218,-0.2479093736,0.7245758108,0.4228381683,-2.1030072507,-0.052640378,1.669525615,0.7561941912,-2.5649400477,1.2792036395,-0.7827671568,2.1703303005,4.2122297019,-0.0283702698,0.9938204874,-0.8852120628,-0.0319815708,-0.548808205,0.3785155146,-0.1106918367,0.4744356777,-0.6336425732,-1.0947196529,0.3341978894,0.5109070655,3.4227281882,1.1430032949,-2.575929583,1.1363422719,-3.0990852632,-1.2239939638,1.1146442453,0.3999828275,0.3062704566,-0.0591324677,-1.3785567955,0.3567469058,0.1635358031,0.330895235,2.0748617779,0.4378346787,1.5031424507,-0.1885343082,1.4601342614,0.7331620267,-0.3520691097,-0.032257403,0.5706775411,-0.8792496364,0.3020931278,-0.0750920101,0.1440886256,-0.0145748248,1.0497162704,0.4643862749,1.4910335448,0.6055866162,0.4917713947,0.0014854559,0.6581499486,0.059326282,1.3871221953,-1.4414592054,0.4557839922,0.3201724295,-0.2575817897,0.4207328005,-0.0650101583,-0.9692981624,3.25106834,0.5983771533,-0.1157604264,0.6911380851,0.5662999341,0.1731408035,0.101279397,-0.0163140925,-0.0572559739,0.7231949969,-2.8173184491,0.6614701748,0.6094056225,-0.392094397,0.0371248121,-2.5468187742,0.4845138846,0.8524122935,-0.8218654807,-1.4882037059,-0.3155787103,0.0395567582,-0.2345949035,-0.2245605595,-0.3972392709,0.0133210291,-0.1082039737,-1.340002134,-0.5270563664,0.1706150555,0.5047788152,0.4271001884,0.3279322895,0.0477397633,-0.9902179255,1.1576086965,0.4461506192,0.0859199562,2.084005259,-0.1528780952,-0.5962528389,0.1244189396,-0.2582599905,0.257708382,-0.795716568,0.0565422246,-2.3019419316,-0.3742480368,-1.9096036344,1.4471218299,1.4056591642,-1.3871120678,0.698882281,0.6639579582,1.5920773363,1.4672673361,-1.5611124884,1.1281096651,-1.4932788143,-0.545715041,0.5569409943,-1.5503151695,-1.3425975045,-0.9455043654,-0.8810803084,0.0016420262,-0.3296194921,-0.314970569,-1.7722539914,-0.8681010635,0.8426617926,1.7868781426,-0.3734291864,1.3910550166,-0.0724535882,-0.6291254503,2.9897187396,-1.3772052676,0.1009137367,-0.3513884826,-2.9937576231,0.3908490175,0.0639582672,0.1391320502,1.663083641,0.7018275323,-0.514605068,-1.3291138891,0.7009562671,-1.0316742901,-0.3331123275,1.4811467816,0.5618585625,0.1227272095,-0.1866734025,-4.6109472542,-0.0248502262,0.181205297,0.6716961894,2.4276865235,0.0440665184,0.6604706906,-0.2470888381,0.6494535087,0.104452303,1.9948805877,-0.7998304312,0.724339481,-0.7060466467,0.442744643,-1.1000852428,0.4562888955,0.4860111762,4.0693474989,-2.0274668857,0.0259295013,0.6292638365,-3.0706523358,0.8122382097,-0.0003711874,-0.0835909273,-1.0869636413,0.7118257328,0.3904259349,-0.2004305696,1.7315195184,-0.2981412193,-0.0899028214,-0.4389117395,-0.6856257001,-1.6661718712,0.5410565675,0.3948530145,2.5379341051,0.75554539,-5.0432608061,-3.2620236541,1.0639717464,1.9260256097,-0.0686807556,-0.8957199934,-0.1307121126,-2.3476943761,-0.0277733075,-2.2980484803,0.878228198,-2.5045374876,0.968166467,-4.9038631057,-0.0131191539,-2.9678552157,-0.4985544324,-0.8050314007,-0.2010138711,0.0129219609,0.7202980531,-0.9181179597,-4.9863290062,0.9698187974,-1.2191493688,-0.5524778561,-0.6796464257,-1.912453312,-0.5183411815,-0.4238971445,-0.9597644331,0.3441671143,-0.9746506044,0.0286322542,0.3997352987,-0.3690018007,1.1897686278,2.4025035519,-5.0813376429,-0.2692837254,-1.1844476706,0.8345235268,0.9574138176,0.3492167509,-0.1415618273,-0.177324731,0.6331116897,-0.0813611912,-0.2959258687,-2.0885332489,-0.4996546581,-0.5355733276,2.3348834839,1.2026118089,-0.2615201051,0.0144122653,-1.096399156,-0.7757965712,0.7508372769,1.8488789327,0.7014905447,0.0410979257,-0.038712727,-1.7264916608,1.1750994611,-1.5324224186,1.5476386896,0.3487709434,0.3183118561,1.0250079789,0.1443769046,-0.0079858302,1.6727601503,-0.4336174108,-1.4221325849,-1.6831101917,0.2318811325,0.4297356861,-2.2518320556,-0.9515514604,0.7396585512,-0.3738244041,0.2122510079,-0.578895354,-0.0094923382,1.2012551371,0.7762383639,0.1657329183,-0.5962416092,-0.393309659,-0.3197101196,-0.5333575175,0.1242517043,0.034945607,-0.1210433113,-1.0598532595,0.1197326627,1.258069288,-0.9845043363,0.9021777736,-0.2008783704,1.9878981955,2.4388734764,1.1511802335,1.1151114178,1.4079657616,0.34300056,7.6134554754,-0.4250745042,-0.8306659755,-0.8012766111,0.1728405479,0.1981861398,0.2000290878,0.0950646332,1.5013934652,-0.1993828071,-0.6137883919,-1.4187544698,0.1812828544,-1.2547188705,-0.0640840454,0.8688967207,0.9157797731,0.9586539701,-0.0522459665,0.1849517006,1.046751242,-0.198266962,-1.7908383079,1.3906888026,0.173156965,1.6271634531,-0.1051466929,-1.234387716,-1.2487237211,1.0805490749,-1.9827098768,1.1387828229,1.4234248069,0.6202825502,-1.3755999048,-0.1732092314,-1.5946200386,0.6535290496,-1.8202242658,-0.3463639147,-1.3220262854,0.8832999586,-1.5979602839,-2.3091672121,0.6491452814,-0.3837917496,-1.1909730274,-0.7154121418,1.2427928821,-2.4309181758,-1.0795457361,-1.289499446,-1.4945622614,-0.2461407823,-0.0243266977,-1.1471814539,-0.7329924789,0.2065786151,0.3682414541,0.3954788421,-1.0836843435,0.4094234847,-0.0331592795,-0.0898946776,-0.4147048512,0.3632232946,0.3576929924,-0.8115812841,1.3630899821,0.1493201455,1.5046016818,-0.9800170159,0.7329038687,-0.4786378208,1.3373760764,0.5695881034,-0.7515814875,3.732371301,0.1797752131,-0.4788037457,1.1559691555,1.8584507905,0.9268851942,-0.001223919,-2.5928280699,-0.2271057843,1.0036554611,0.6166925297,-0.3077792754,-2.0861978864,-2.1551694706,0.0189832604,0.3710392581,0.9814361815,-0.5625587886,-0.3351790375,1.0651075751,0.3413416727,-2.4400568367,0.3930630324,0.5718316139,-0.0061993161,0.334299952,-1.7318684058,1.0498158275,0.2972235546,1.7872818092,-0.9106575271,-0.8499212046,0.3265195789,-0.0814656939,-1.3234541441,-1.1518273944,-0.0046000856,0.3808151548,-0.1595759525,1.1283121467,3.5210767382,0.0182412776,-0.2353636292,0.920273751,-0.739972123,-0.1155313133,0.2631679722,-0.4027804387,-0.2016590511,0.7314701645,-1.7439012766,0.3071297178,0.1868183928,0.8421551657,0.5996649265,-1.5671316511,-0.0574395456,0.3371589519,-0.4700985119,0.358072888,0.246418498,0.4346684423,-0.0286779359,0.3056366352,-4.5281679336,0.0209704634,-2.4261634701,0.4543541206,1.0077610663,0.0950903073,-1.0521998126,0.4084159794,0.1368304882,-2.7627419152,-0.6015071274,1.5317589585,-0.5209106856,0.1950731853,0.1677901736,-0.1981406416,0.4122692786,0.1196344017,0.0757524028,0.6359012901,0.7523346314,-0.1062917008,-0.6047212392,-0.0291748759,-1.7510884436,-2.1744224262,-1.7296917063,-1.4487872584,0.0475072875,-0.5909579603,0.2556994904,-0.8434084107,2.9823515417,-0.371055837,-0.1513470636,1.3470507104,-0.0668571441,-1.0521560495,-1.010707937,-1.2998963737,-1.6114210622,-1.5139307545,1.1576831408,-0.0884302536,-0.4346958181,0.5401613249,0.0171120817,-0.2404528731,0.0415809371,-1.8335197509,-0.7843823832,0.3552524248,0.629868268,2.3325605957,2.1534359767,-1.01543245,-1.6669094131,-0.179941121,-0.2732480317,-0.5569983054,2.6815493871,-0.9439411007,1.5789208689,-0.7307849701,-2.2603059181,2.5683070438,-1.1415079712,0.8718647797,-0.6746531612,-1.1526808977,0.8816684857,0.0598692948,1.2724610709,1.4650209128,1.001903361,0.5303011306,1.1460547742,0.0845062524,1.4889089053,-1.6534478884,-0.3588647283,-0.5900196078,-1.4257078745,-0.4441995206,-1.8636104793,0.614653002,1.7051180354,0.2479631172,1.169562148,0.5850605961,1.2965949784,0.8048138415,2.2617644451,-1.2023104959,-1.8603713404,0.3583620294,-0.4562612535,-0.4805392659,-1.195307628,0.3025821234,-0.2915884481,-0.4985742822,0.6593650346,0.7537667476,2.9937728049,-0.0160733727,-1.6089410667,-0.8765644482,1.1449002398,2.2782212204,0.7870650174,-0.0207949098,0.6088709075,-0.3108519646,0.5021771746,0.6140227694,2.6537036331,-0.9307394758,1.1515232147,-0.7638032003,-0.8196235153,0.4858090965,4.6344085524,0.4747747669,-0.2361491088,-0.7498913224,-3.6144357039,0.6604292107,-3.9723493766,-0.9729296596,-1.8082727117,-0.4586936108,-0.8210673898,0.6766921172,5.7255245224,0.60673933,-0.5332096054,-0.1440269869,-0.9030137998,0.9094667122,-2.7248919567,-0.7631014548,3.8611621108,-0.5109921165,-2.1852589748,2.6593959739,-1.7691511434,-3.4554426203,1.084954637,6.999734559,0.6693959457,1.1369978101,0.1405297558,1.491529536,-0.3683937243,0.2795031682,1.9704587982,-0.6035443564,0.4812454501,-0.9740635946,1.6976054627,-0.3202160492,0.051019401,-0.6399037946,-0.3547406856,-0.4388297597,3.1465057815,0.033875795,0.7270810544,0.716943635,1.1334980233,-0.4238864438,0.1024369818,1.0855007832,0.8989234294,-0.3609409891,1.5987683017,-0.5333342071,1.413987313,0.2600939451,-0.8922568402,0.0857787218,1.8602781315,0.4520527591,1.4755452731,-0.3700528907,0.7111090157,0.4726756046,1.1672167046,-0.8682290528,0.9433717873,0.1890715659,-0.9974990077,1.3343214071,0.3840839801,-0.2775967021,1.2903913292,-0.904167844,0.093568625,-1.5139970635,1.132051671,0.6573145598,-4.0573118282,0.2244715577,-1.0801223843,1.571014867,-1.3855963359,1.8912367442,-0.2842994068,0.7295904893,1.4992360824,0.6497141295,0.2611418916,-0.160857931,-0.9801459617,1.2317424592,0.5244091501,-1.1946016462,0.7661729264,0.2728943006,-3.2270860356,-0.3068941922,0.1670767552,-0.1798157865,-0.4584056329,-0.9205453645,0.0213178953,-0.2678602965,-0.4438728998,-0.5889401636,-1.0890401103,-3.0167866794,-0.8996930449,0.244158967,-0.9623871653,0.0936309081,-0.4056243928,-1.0379439598,-5.0592970991,0.4480288351,-1.8951091317,-0.6242277708,0.6635172802,-1.5641299554,1.1802208475,-2.470097368,0.0927814712,0.0839420531,1.0236685438,-0.5767384684,-1.2274638226,1.2820466708,0.3526812098,-0.2243392316,-2.3530135831,-2.9863250881,-0.7561759102,1.8481686345,-1.145766284,0.8751593768,-0.6394803602,1.9813465167,-0.4115358797,0.1889005529,-5.114276045,1.2636313971,-0.1973794319,-0.1066053344,-0.855439955,3.4462851559,-0.7786127652,0.2731609576,-1.2432246377,2.735495678,-1.102264829,1.7399635528,0.0899386302,-0.4618149283,0.6927782337,5.9299770225,-1.3696580721,-3.2733827012,-0.145242147,0.2998480347,0.143455161,3.1388354117,-0.2812207198,-3.8198627328,-1.280916005,-2.665760469,1.113612428,-0.7343594694,2.7431813702,-0.1047156612,0.1129725699,4.6080572799,-0.3030059704,0.6956385329,-0.1716358836,-0.3660720899,0.593293688,0.6407955007,0.0049737165,0.0249773899,0.4937767927,0.5048385913,-0.1539711432,-1.2077101408,0.3704229256,0.8224590368,0.0323205492,1.119911637,-0.924999762,-0.3775004405,0.4640074763,-1.2144659893,0.2782900038,-0.3081138351,2.226867521,2.6421262965,-0.4594723428,-0.2811625946,0.161456688,-0.4305414781,0.0134624649,-0.596442203,-0.0183431267,-0.6791845289,-0.5318442747,-0.0743800532,0.9235648343,-0.6972466765,-0.5099444813,-0.3578582609,1.7007792466,0.0655999399,2.1407915762,0.4840153921,1.8558958046,0.409001068,-0.7663435444,2.8036930193,0.4169223412,-0.5555557893,1.0903579155,1.4181176367,0.5444128482,-0.2132837676,-0.0012606676,0.3222162568,0.5081763946,1.440604926,0.4884775598,1.903846463,-1.0520003825,-0.2672378943,-0.8187765963,0.1689381095,-1.0696670004,-4.2296022772,-0.1072112165,0.199238824,4.9230611088,0.3531946331,0.8917975226,-0.4054215395,0.3115083416,1.4296920806,0.7278828636,0.2859621865,0.7518577213,-0.3631722539,0.000845982,-1.659462777,-0.0733849389,0.1933624295,-0.622938083,1.783516922,0.0349208826,-0.5727746228,0.3379344777,0.2092314885,0.5375163758,1.2704750767,1.3250164935,-0.3088387086,0.2124359294,1.7241469635,-0.5372231272,-1.1750515109,-0.4257703078,-0.0389676145,-0.1358965016,-4.7907438268,-0.2027720052,0.7264558791,0.7987142313,0.6092957005,-1.3756018162,-0.9609446462,-0.3604273096,0.5326830765,0.5882559495,-0.4882581419,-1.3310909852,0.2971809411,-0.2223931955,-1.4691760928,-0.3043919151,-1.4435153384,0.8417751884,-0.081694738,-1.89393706,1.6649052153,0.0633643327,1.6808710767,0.37788751,1.3906211257,1.5292652867,2.2168410789,-1.4525145466,0.8778742007,-0.9872306436,0.6674925007,-1.2427257892,-1.8279897885,-1.1199168725,-0.3748286445,4.068043119,0.5480339931,0.5388099713,2.406420792,-1.4833115459,0.7722493535,1.0821986302,1.1220768959,0.2486196725,-0.7649733703,-0.5206251621,0.07638311,-1.5604183189,-0.4321938692,-0.3951057523,-0.5851856335,-1.12555455,-0.143625646,-1.1768896,1.1632121614,1.4091431396,-0.038716168,-0.8387288095,1.530273809,0.1900946301,1.3817923661,-0.6901033708,1.0642410085,0.3822642162,-0.9862644102,1.2201638103,0.1002569668,-0.1471231987,2.0258486452,-1.4564890726,-1.0725572945,0.0443093229,-0.1936233087,0.5750618013,-1.0430568956,-1.4839358038,-0.282736941,-0.1863034554,-0.6623520575,-1.4475621682,0.1037759549,1.5789418992,1.003523663,-1.1421409695,-0.8165516089,-1.084715245,-0.2256624261,-1.6813153047,-0.4874216325,0.2156878427,-0.1544953536,-0.9681064004,0.5728244374,1.618948286,-0.010171787,-0.6116787499,0.2747197076,-0.2653934297,-0.0962666162,-0.3989453274,0.9319438613,1.1711930579,-1.049377429,-3.1564286432,-0.4821679747,0.0057843517,0.645984281,1.1370930517,-0.4937383995,0.516303132,0.3154178892,0.3078246095,0.6451141547,-0.1598216382,-0.8406733873,0.7992560545,4.1965887017,-0.5326556621,0.4400634791,-0.2101748493,-0.698211088,-2.2098790835,0.1321826774,-1.2435542056,0.6276376924,0.6468585274,-0.6680867191,0.8647392993,-0.9746451632,-0.6566659098,0.9271980748,-0.2993802661,0.4934756038,-0.2116343762,-0.4636203483,1.5483955952,0.6189645704,-1.4975116234,0.3730812692,0.4132520481,0.1892907055,0.319689754,-0.8118890151,1.5779966519,-0.3257546632,-0.1449482712,-0.6658973411,-0.7466546006,0.4269759774,-0.2525924361,1.293892749,0.2701746327,-0.7038301337,-0.2133563421,-3.0238106719,2.3175319962,0.0455060864,0.1224882315,0.4482778423,0.3922014336,1.4879098995,0.2294793716,-2.3406714422,-0.6976167118,-2.6401595137,-1.5932350451,0.4381921086,0.3330861817,-0.3969974395,0.6591586402,0.6158690604,3.423798758,-0.0364157369,0.4580969461,0.2603788275,-0.2120850866,-3.0370325947,-0.2148024178,-0.1493648804,-0.5625940661,-1.0824075791,-0.1788712897,4.5468465321,-0.1381685139,-0.3554817227,-0.1468629003,-0.7984199768
