encog,BasicNetwork,java,3.4.0,1,1562026426951
[BASIC]
[BASIC:PARAMS]
[BASIC:NETWORK]
beginTraining=0
connectionLimit=0
contextTargetOffset=0,0,0,0,0
contextTargetSize=0,0,0,0,0
endTraining=4
hasContext=f
inputCount=21
layerCounts=4,49,67,49,22
layerFeedCounts=3,48,66,48,21
layerContextCount=0,0,0,0,0
layerIndex=0,4,53,120,169
output=0,0,0,1,0,0,0,0,0,0,0,0,0,0,0,0,0,0,0,0,0,0,0,0,0,0,0,0,0,0,0,0,0,0,0,0,0,0,0,0,0,0,0,0,0,0,0,0,0,0,0,0,1,0,0,0,0,0,0,0,0,0,0,0,0,0,0,0,0,0,0,0,0,0,0,0,0,0,0,0,0,0,0,0,0,0,0,0,0,0,0,0,0,0,0,0,0,0,0,0,0,0,0,0,0,0,0,0,0,0,0,0,0,0,0,0,0,0,0,1,0,0,0,0,0,0,0,0,0,0,0,0,0,0,0,0,0,0,0,0,0,0,0,0,0,0,0,0,0,0,0,0,0,0,0,0,0,0,0,0,0,0,0,0,0,0,0,0,1,0,0,0,0,0,0,0,0,0,0,0,0,0,0,0,0,0,0,0,0,0,1
outputCount=3
weightIndex=0,147,3363,6597,7653
weights=##0
##double#7653
   -1.1537935411,0.0757950741,-0.6548479415,0.6884286647,0.5815515023,0.0196927597,-0.2151130548,0.4236557716,0.6959868529,-1.0397581775,-0.0244999068,-0.2632842565,-0.1105037873,-0.1508137041,0.1884594778,-0.4815977047,-0.2199457062,-0.3223967756,-0.949832084,-0.1290759975,0.0048624367,0.3038694755,-0.0432394649,-0.3698687714,-0.31785559,-0.5359067167,-0.3136049549,-0.6216550775,-0.7408615491,-0.4166123104,0.8638325094,0.0924141968,0.9439019776,-0.4017861201,0.0336439752,-0.79943711,-1.2145246577,0.099932242,0.5022756947,-0.7692793125,0.1307155666,0.8287455462,0.6027653637,-0.4321951157,1.1130618007,-0.545396828,-0.7818629959,0.2407141758,-0.0623268613,0.0545755122,-0.2800216325,0.0421220542,0.0295174483,0.2306610482,0.2588470919,-0.5073803891,-0.255027121,0.1283583524,-0.723147339,-0.0808500306,0.0108539414,-0.0533428323,-0.0585530251,0.0688715273,-0.0739402815,-0.0621793279,-0.0240015397,0.0527621971,0.5303438966,0.6489731293,0.162626908,0.1088707151,0.1673563545,0.0929820903,0.0695235921,-0.0922186063,0.0644334176,0.3943211603,0.0982887536,-0.8978421076,1.2948293238,-0.1806033668,-0.0308142628,0.0660455309,0.174296319,0.3993454051,-0.2490819621,0.0185597265,0.3531246288,0.1769324544,0.9658410507,-0.4137809445,-0.6390372475,0.3981367393,0.1590643036,0.0390600382,0.1161188245,-0.814867274,0.1374841565,-0.0049376788,0.1258670375,-0.3104687579,-0.0888721931,-0.0935122121,-0.1828590667,0.0869086138,-0.0886655333,0.2975212501,0.4441762779,-0.4306468337,-0.3029952101,-0.3517630228,-0.0904146674,-0.1764227038,-0.0836932493,0.6353986436,-0.0058425882,-0.2734394397,1.0402595203,0.3391755624,-0.6951797398,-1.3463935721,-0.3793251984,-0.2512944951,0.0779703453,0.1640718646,0.6673083158,-0.0041214246,-0.5983846825,-0.664867964,-0.0785483076,0.2695611764,0.0083069718,0.2711755298,-0.0719442142,-0.3887929654,0.1065654264,-0.2072138482,-0.0634551075,0.5178207315,-0.3389267345,-0.7390351178,0.1041189467,0.1739631175,0.1155075871,0.0528404343,0.6048605404,0.1113564666,3.2823822776,0.2676726536,-0.8995962768,0.233152889,-0.3276956558,0.2906610978,-1.0960223408,1.8625500439,1.4183395114,0.4366702039,-0.808677148,-0.2195024674,-5.764117928,1.8406824274,3.8930721636,-0.4559856598,-1.2475443815,-0.6571028281,1.3267357922,-1.7715137374,2.4106935018,0.3170405823,1.829150283,0.2465853091,1.6620374565,0.1943628856,-0.1051185307,-0.5398304413,-0.6427512963,-1.6612625395,-0.0798936037,1.4288676918,-0.6405687456,4.8107038753,-1.3671880961,-0.6022101199,-0.7253589365,-1.6516101076,0.6339154042,-3.1200111149,0.9027825253,2.4553800015,0.0848801399,0.0993948847,-0.8770481789,1.1911040944,1.1688546815,-1.4107137174,-2.0835988664,0.1923316791,0.087452854,-2.3008975686,-1.379980778,-0.2924746105,1.1924582922,1.9359247843,1.0328121489,0.5373321907,-0.2435973188,-2.1752583492,1.7071747063,1.1998164258,1.3665747648,-1.8362555619,0.7660865396,-1.01518342,1.6133564841,0.3236698235,0.171216151,1.4378139931,0.5320702625,-2.2243638367,2.9455011418,1.1267066042,0.9571910137,0.270703927,-1.4410332124,-1.7734297288,-1.3828649841,1.0919385798,7.0780522549,-0.1639452926,2.8004819331,-1.9212716612,0.7193498868,2.571510752,-2.2088574732,-0.3897760559,1.8756168216,-2.7226363476,0.3807447713,-0.7061275791,2.0521709405,3.4263501465,-1.163374948,0.7912245751,0.3494308427,-1.592360309,-0.6739699889,-0.8517891264,0.4977481641,0.7679463594,0.4006647128,-0.8194126156,2.0581863995,-6.2598410939,-1.0239139825,-0.0306800753,-1.3920988808,-1.3810411113,2.167199872,0.2959594842,-0.0348247166,-3.1438284162,-1.6894164666,-1.8361544256,-3.8404168189,0.4666132959,-1.2903721987,-1.2497268914,-0.645531653,-7.4374929666,-2.0785251372,1.0261917789,2.7326299701,5.5047821014,1.1923760191,0.2676322148,1.0641172365,-0.4733415626,1.5841537608,0.245800482,0.4696033352,-0.4682628267,0.1395067591,-1.8239341745,-0.695946957,0.5389213225,3.1450076257,-0.9671920214,5.0937052834,-0.6054840592,1.6224154611,-2.8637010826,0.0957135908,-2.0314041268,-7.7750724066,-0.5994043127,-2.8699693323,-0.0545183974,1.2898142234,-0.1779957153,-3.1225529765,-1.3760465024,-3.7781795178,1.914415943,0.994421674,-1.9417940057,0.5032717662,-0.0630572786,1.4329369997,0.9772581231,-3.8865275443,-4.6197505121,2.4335609559,1.2091148266,1.406810879,-0.7755324626,-0.111846906,-1.2530886042,8.9812686245,-1.4504381036,-4.0195786451,2.7267682965,-0.3271107277,2.54914295,2.2464513723,1.8543261432,-2.5712906873,-0.1652496885,1.8744946153,-1.0613407652,-0.6256274563,0.3255934702,-8.0509549961,-11.4941922123,1.0604884456,1.0395215117,0.5898187323,4.752612045,-0.7748091633,5.1101767418,-0.1708633362,-2.2360968954,3.8777568838,-0.6075298969,-5.5621864846,1.4655474844,2.2208012466,-0.6703824556,1.5760801712,0.2649848776,0.8168231225,-0.9995252856,1.5963583219,0.5545130813,3.7868489848,0.5569931671,2.1333634739,-0.9496689701,2.2737989143,-2.3641819421,-1.7907781236,3.4547562334,2.6197428987,2.4070500812,0.6343680264,-2.0700952118,-0.2803062449,2.5905318265,-0.4957632478,2.5204800451,-1.9550515438,-0.9845581244,0.045585936,-0.8609379318,-1.8557051267,1.7359758164,0.6878408177,0.5778288499,0.6779394758,-1.756074799,1.9360196407,2.243088151,-0.2091270492,0.1276473553,2.2228284057,0.2377491572,-0.5981339663,-0.7017181183,-1.3368791161,-0.0300241465,-0.4646999538,-0.2153497349,-1.6264867632,0.1728620884,-1.9180834905,-2.4502560633,-0.1981264237,0.7415352526,-0.7456354797,0.3001428892,-2.0384452774,-0.5450846158,0.9906031928,-1.1310239743,-2.0630091405,-1.3390711845,3.7639295295,-2.6968870603,1.5729158673,-3.3833040248,-0.0235640517,-0.0175750273,-0.5869790623,-1.2869885966,0.0067648016,-1.8236080471,-2.0031800417,-1.4393946996,-0.0419802151,-4.9664050671,2.0905769291,0.5819099458,2.0996565122,2.0748355511,-1.7949813095,1.8561890187,0.883578437,2.1772892838,0.0082153775,1.3318796812,4.2083957977,-2.0157513818,2.6611287106,1.0397865257,-2.5624530288,-0.1463355147,7.1948632236,-1.5108626671,2.0888984161,4.4327096557,-0.9482340197,1.4364404462,2.5954582708,-2.4387825642,3.7224925646,0.0860796747,-1.7656278088,-0.6921256995,-0.4379598618,-1.426677606,-1.7652995405,1.0831627032,0.5563421997,-0.2063124307,1.5882545888,0.5714112185,-0.7015801633,0.3535633453,-0.0137598725,0.5918020004,3.1333190177,1.4804151756,-1.0848070461,-1.3347734838,3.5396319063,-4.4443645691,7.3193259509,3.2474155984,-2.3384492778,2.3286180719,0.310887288,-8.7466158921,13.6517509705,5.2816185425,5.6622338444,6.6549075022,0.5941034131,7.838580014,2.4510131658,0.1785815521,6.095719317,2.3932238743,0.4896013521,-1.1720017874,-0.3771458067,-1.7402078812,0.5927364671,-1.1401240263,-0.068183122,-0.2259151711,-0.7118078952,-0.7979125626,-3.7321702263,2.0987983631,1.9774578575,1.2975747664,0.2172821737,-1.3715753221,0.1874706708,0.3712524425,1.1064715921,-0.5489618133,1.5138313895,-0.6100918286,-2.9098189357,2.0416911182,-0.5503927423,-1.3163371445,2.254639462,2.2049261576,-0.4589991495,0.877779639,-0.1358851801,-0.2317562175,-2.1443386081,-1.2626359792,0.4087948896,0.3808105259,-0.9694633799,-4.3315603909,1.6536150927,0.8381878943,0.6216832152,1.1326926887,1.1098843216,-0.3247617181,-1.1558482902,-0.417450183,0.3218843954,-1.3789526564,-0.6995197347,4.4579735104,-0.9021228772,-4.0129103301,1.7705469672,0.206429473,1.4596478091,-0.9150815288,-0.8892361047,1.295808616,-0.3082813917,-2.5150700627,0.4528190624,-1.8960426637,0.7797973132,1.0872540758,-1.6119698171,-2.2809559606,-0.8161897004,0.02293713,0.0402254032,0.5798777205,0.1749984922,0.9867144292,0.7520796382,0.5926270985,-0.9804587489,4.4523313081,0.0959284059,2.2251074755,0.5694986517,0.8240296421,2.7690827355,-2.0381191191,-0.7750545216,-1.6799718817,-0.7312176454,0.6324882706,1.2295419192,-1.5758354076,-0.7739114186,0.5901757923,-3.1701450348,-0.9550226122,-0.3934467051,0.8992591294,-0.3244076968,0.5152728453,-0.3486470596,-1.029180868,-1.3098644928,0.3162733171,-0.1390917214,0.3503698807,-0.2335742973,0.9484141448,-0.2856777027,-0.0373984249,-0.9056909137,0.2917127814,0.290289563,1.9211068559,0.7259552597,-1.4450488107,-0.261491665,2.075316397,-2.250301227,-2.4312432973,-1.7043625265,-0.4049960821,0.1020869598,-1.1622136105,-0.0402125502,-0.2755452511,-0.2199093386,-0.7854892378,1.9706761442,-0.2855856921,-0.1597363025,0.1240819213,1.715662826,0.3684742616,4.7175953898,0.102272041,-1.2771600002,-0.150033965,-3.0929092354,-1.0169826663,-0.7376205052,0.4052903145,0.4446946534,0.3250561905,-0.1875466765,-2.3361795706,0.6997444412,0.381578504,-0.228843966,-8.0742908617,0.6066321161,-3.3101950401,1.1717683764,-6.3841694576,2.1867031206,1.7933012359,0.057822397,4.2368881318,-1.6615468646,-0.8884299588,0.5369444028,1.042671163,-1.9589595296,1.1301678575,-1.0230273706,2.6346089011,0.2656124101,-2.5001349846,-1.2115169725,-0.0553581602,3.3075402921,9.127216786,2.6307552281,-4.9092144499,0.0916624756,8.7004564261,0.5103141954,-3.1688969723,0.666048152,0.4092035379,-2.3031501296,1.8412550033,9.4185347815,-2.0289070065,2.5279764946,-0.6020721202,1.351706043,2.994921137,-1.9199051433,-1.391204071,-2.5569175094,0.1305180883,0.1465804149,-0.188179838,1.9178619599,1.6002082912,-2.5553804675,0.1309933346,-4.6260485994,0.9584093138,0.3009919178,-3.7517043182,5.7500515612,-0.2936623632,-0.1379538216,-4.4919858223,0.2584625956,14.4106318823,-1.3145405061,7.3345354141,2.2284448687,-0.5458016719,2.8718788728,-3.5561863816,-0.49161202,1.2404100813,-0.0067995376,4.7707567103,-0.3513993023,-3.0241734534,0.2817406627,6.7054742696,-6.6381696863,1.6621861743,-0.7092093705,-1.7319779005,-2.0194724685,-0.8305859647,5.290860833,3.5634475715,-4.9085292852,-1.7016138057,-3.2978354354,4.6455507834,5.0267577088,-3.6592462058,-0.6216991505,0.4439721607,-0.5877848268,2.6122676264,-2.0548436332,0.6965115167,-3.4290825859,0.7027778479,4.0487920816,1.5902149342,2.0250073665,-3.3675070915,-2.1858955551,-0.5102922222,0.8459451547,-0.0934367937,-3.0186771851,-3.1944451389,3.5412514939,9.2398693917,1.7577419341,6.4854037984,-0.1335545078,1.405039915,-2.1176298451,6.0662761725,1.2680834886,-16.8772775032,-0.6712596852,3.1951076325,-0.9775588531,-4.650673773,8.4314931483,-2.3335150379,-0.9007082675,1.428120284,-0.5544703042,-0.1353105043,-0.4175246652,-0.5989060066,-3.4527594519,-0.8631471291,-0.9700986057,0.4398007818,0.8821369836,1.2737240013,-0.0918320236,-1.3954373271,0.7298788708,0.9328292351,-2.2407588644,0.2540081209,0.369229489,-0.7625825383,0.2571334913,-0.86272432,-1.5831419359,-1.252821717,3.1328407455,0.6403625774,1.5523577441,-0.6183584145,-0.3369779204,0.7628021581,-0.8223621107,-0.1744355157,-0.6643928673,1.0662142307,0.2543186195,-0.5028259618,-1.3270774243,-0.7265356153,0.1907399989,0.8665546935,-0.2675077841,1.0409566141,5.0981194898,-0.1404563396,-0.7047903311,0.7124680042,2.8029083333,-0.1452849504,0.8863135281,-1.4753972614,0.3730413396,2.4265611489,-1.196634837,-0.907938043,0.6852249236,-0.2097449541,0.4447133985,-0.0344684469,-0.5151282066,-0.8847042169,1.6787998849,-2.0942854199,-1.9596512574,1.055479376,-1.0517939704,-2.9425669664,0.462319376,1.2331459217,-0.8249997798,1.65284292,-0.5073977251,0.5060147074,-0.0791432535,-4.0404160487,0.38879103,0.4771314662,-2.3772256024,1.0490143513,-0.6979622126,-2.1023618747,0.5428017637,-2.4483163292,-0.5802753239,1.1947831442,-0.5585802745,-1.0194919946,-1.3233606903,0.6838466466,0.2053497762,0.5029902531,2.3685036012,0.6036974838,-0.1423439786,0.8192176973,1.8118741247,0.4656555964,-1.9680741698,0.5716243422,0.8966176801,0.1225918775,-0.1228238656,0.2174534598,2.0383856625,-0.9524806027,1.9152123971,-0.1761145031,-0.9597213939,2.9734156194,-0.5617294175,-1.1664614443,-0.4768402191,-0.070359849,2.5795091118,-4.5278199728,-0.8460915589,0.8275566196,0.6503678126,-1.7250109997,3.5976319181,-0.3850843061,-1.6168440209,-2.1156445724,-0.5825375365,0.4419888531,0.7704641027,-0.2457895917,0.4925611755,0.2829823723,0.4786122215,4.7238652421,-0.410366174,0.1904640193,-1.4415226235,-0.5785130413,-2.4614841266,-0.8392849106,-1.7988211691,-1.1598853285,-0.5639254938,-0.8001731004,-2.018464067,2.1151845261,-1.178786967,0.2489455208,4.4349452971,-0.9295967077,-1.409470188,3.8013655014,1.1372316405,1.988554373,-3.4685657753,-2.1008694703,2.504136344,5.000699871,-0.6408493335,-0.4372522176,0.9630161255,-0.7523362256,-0.2769568029,0.566201225,-0.6047796189,-0.8698744441,2.303821965,1.9849989422,-0.0019542372,0.6578762513,-0.146875779,0.9290153488,3.155456137,-3.8859127986,-1.5733476253,0.3223556381,-0.2245998697,-0.133456103,0.2691587649,3.142696349,-1.7376137488,-2.3516227331,-0.5757096774,-0.7197381787,-1.0174891566,-0.504452883,1.4224388792,0.2655383889,-1.4373453519,9.5785644671,0.5209031172,2.1586514256,-4.0138144787,-0.10047981,1.9056435219,-5.2765359743,-0.306873444,-7.2747475188,2.3025981532,-0.2730723085,-1.250515836,0.3944179601,3.9778183013,-3.4417366643,-0.9952973632,-0.237881693,-0.0947791693,3.0329631707,0.7408074439,0.2388323157,3.2599495973,0.9448388331,-2.0188173235,-1.2203980845,-1.4443766734,6.2350885261,0.2616683747,2.4261376406,-2.8685861311,-2.0197703211,-3.416902144,-1.3249946345,2.7621356139,-4.2502823758,0.9269403293,0.0495371909,1.1030871531,-1.8902547092,-0.2605751266,-0.6668194432,3.379057184,-1.6339549568,0.8486690403,-0.604866758,1.1311089702,-0.7786509416,1.2185612941,0.745259619,5.9692641746,-1.307658655,1.6850973734,0.4969490057,1.0811453188,1.8477936833,4.4143758676,-2.4643578918,-0.7406312703,-3.1455946224,-0.1398613372,-1.7534269563,1.0059132103,-1.6200470736,0.7910927236,-0.4051243744,2.9830637806,0.3311982227,-1.3564159964,2.7171159486,-0.8466775542,-2.6542592491,-0.9002612114,-2.7175225404,1.4387173226,-1.7956529054,-0.7991491159,16.8748778572,3.1908962695,0.9256026978,-0.7069814032,-0.3374950995,2.2369668909,7.8192753962,-1.0986776557,-0.060930291,1.6009168029,1.8050363822,-0.5926477677,-1.5935812774,-5.4002712614,-3.1008290862,2.338201984,0.5615291619,1.8178154016,0.5691360394,-1.7432612905,-3.7147216676,-1.7399911804,0.762542149,1.1465752847,-2.134095956,0.0074913802,-0.4942576562,-1.8400566244,-0.0398099895,-1.5297329502,2.4350160586,2.4653955174,-0.3389131677,-1.7394256398,1.5025028388,-0.5133974423,0.6562306203,-0.67197459,0.0511012407,-0.5169687738,2.4419861559,0.7009203166,0.0436267857,1.4808645015,-0.207156252,-0.5628100808,0.460138289,-4.5954179418,-1.1853786512,0.1391377626,-1.8247733625,0.2439447731,0.2854893924,-2.3158191224,-0.2686593744,1.132495219,2.8241603334,0.0221798985,-1.3678638425,-0.9139308509,-0.8139563948,0.8473908153,0.0423940909,-1.033729316,1.0036592502,-0.5140890103,1.6734550844,1.0922188314,0.0609318102,0.9352376808,-0.2110085039,-1.4805624537,0.2621351476,3.4608403901,0.1061004802,-1.3215867755,4.3463717332,-0.9055923057,0.659712797,4.2183328147,-4.7339979013,6.0214826978,-1.0173801806,0.9038293072,-0.8844799706,-0.5359837776,0.5634160619,1.1794793295,0.2662352595,1.4183057332,0.0483308489,0.8215379296,3.3261072496,-1.2606402718,0.5478867176,-4.0082417184,1.8059755034,1.6673151519,-0.5597583174,1.5196673552,0.5425912892,0.221933797,-1.3703876058,-0.9818948773,-0.9977092045,0.2489034476,-0.8518225816,-8.1955008012,-1.9896106055,-1.9230078938,-0.7015911899,1.3988058084,-0.0202764404,1.5555298088,0.2668685727,2.839323231,-0.3934448704,2.5875940923,1.6543352907,-1.2305876969,1.2460796419,1.246890854,1.7220614227,1.1923907059,0.0871940646,8.189850667,-0.9537336771,0.2961085169,-0.3494027301,-0.8569478387,5.0183886672,-1.7600341024,-0.7593166179,-0.5917970876,-0.5408490011,0.2608552838,10.666349344,-0.3387230846,-2.4609820634,0.7911765463,0.4964035164,-12.2942203775,0.1041134303,0.2110529913,-0.459761321,1.24850558,-0.3692132491,-2.4691787809,-1.0402538129,3.5796990074,-3.6486771188,2.0207505025,0.9092979707,-8.9915292037,-1.2619249828,-1.3329770158,-0.1357236238,-2.4778184919,3.9345912605,-5.0869517139,-0.2243123356,-1.1425821245,1.3422580306,-1.3794323503,12.717871332,-0.2113923764,5.4558518208,1.6867298152,-0.7762651064,1.9114590468,-1.6849275543,5.3981579335,0.7722478975,1.0449795542,-6.5806846613,-0.116255272,-0.9150855121,3.7307113675,0.3953868584,0.5239588773,-13.0267675981,0.0393039825,0.3073706558,0.1723896724,-2.2026938692,-2.4802873563,-0.6436758489,0.0434169773,-1.4187595716,4.0389023007,3.9916602189,0.4640611807,3.8477568392,5.5818375099,-4.0280840399,-4.0981245709,-1.0956452809,-0.7906048893,-2.1586419104,2.9959108206,6.5863463047,-1.6981422408,-0.171982864,-1.5691006244,-0.5340699089,-1.592789644,0.8340267119,2.9190328678,0.9760256007,-1.7099584504,0.9353253957,-2.349965421,1.4368675801,1.6683701183,-0.9661790441,1.2216346887,-0.5839434811,0.4361850602,1.6345881103,0.3364043905,1.8947187241,-1.4117401649,0.8304065549,0.0642433868,-1.3413176618,1.6988465624,1.3398904478,1.4885467415,-1.8830225857,1.7781536283,-0.4434003741,-0.9137362434,2.9205524677,-0.2486426235,-0.3667753189,1.6234409263,-0.0648614993,-0.5543444409,-1.3193871129,-1.4831322147,-0.3780713139,-0.3289471774,0.9643164667,2.9881454066,-0.3970569303,-0.3098980924,-0.7307835796,0.0345679061,-0.5460060543,1.3084980282,0.9164512315,-0.0096662064,-1.1692201615,2.0236857609,0.4012308291,-2.2641959443,-2.2631276718,0.4600004908,1.9132125602,0.8213949005,2.2226496311,-2.8429478491,-1.6797864053,0.4078638358,-0.5270712087,-0.1765839723,1.1051069499,0.301973227,2.3543081086,-0.4002527877,1.0263695081,2.0153779926,0.569584854,-0.0921967211,3.3743725787,1.3659560325,-1.5242055888,-1.00941315,-0.6879658044,-4.5351541722,0.7155196985,6.1304809922,-2.7328943927,-0.4638802181,-6.9768186687,1.4338526896,-0.940106006,-2.5650988362,-1.0608719766,-6.5054793632,-2.3856128046,1.5303170212,0.8964943803,0.7452790521,0.0972849354,-0.8620802921,2.1609833002,-6.1350023683,-1.8316287293,2.5968837032,-2.5697799337,-2.0329108526,3.4926519799,-1.7169488769,-0.8285405789,0.7012427715,-0.6639528829,0.9281874695,-2.6497684565,9.8135062801,6.4393280353,-3.3523651966,-0.4267797249,-0.5300831606,-2.3334632933,0.4713208153,-3.60609276,-3.5368042576,2.7287852791,-0.8577060288,0.6014110394,-0.2382700801,-1.638980607,2.5579547305,-1.2530650508,-1.3495258019,1.9888487209,-5.1793796213,-0.1537980937,-0.2331071844,0.8758076154,-7.8314275456,6.1418883045,0.3653840337,3.0041896132,-6.3910292678,-1.4210674101,-2.4133096056,2.7534458331,2.1844213306,0.5198355845,2.7322722828,1.1539868052,-0.5068966412,0.7052764802,-3.1910094199,3.2592438707,-1.8916445536,-1.1991301176,-0.5796723731,-0.3852983455,-2.545857696,-0.3943829218,-1.1644624491,0.3295916735,0.9798847511,-0.1904956753,2.2237248063,-1.2474420488,-0.2644906907,-1.9704439207,-0.8363552565,-0.825275084,-0.4765184624,0.4739062449,-2.3468233164,0.8246872094,0.1384504346,-0.0777363968,-0.2002339478,-1.4491513492,1.8852133087,0.3463371951,1.5156064323,1.5117234065,-0.5646454438,3.0027332205,1.0357266199,-5.2143708778,0.1229690685,-0.7489995911,0.283389892,-1.1834869632,-1.5544814339,5.3077566035,-1.7138500084,-1.9983726782,-0.0490460284,0.0959688414,-0.227138333,-3.2560009008,-4.8426159966,-0.1592772921,0.6687674642,1.1274669391,0.5291220578,2.7861689824,0.2263120681,0.0806643952,-1.1236850322,0.3228593095,0.3285557693,1.6640330378,-0.8811547238,0.7079163191,0.8476140472,1.9143516251,1.5683701632,-0.4754533941,0.4046658417,-0.5577978249,0.4244046052,-0.3220053253,1.0303455566,-1.5971427591,1.5085558988,1.6747851334,-0.1693471428,-0.492349968,-2.0484218698,-0.7477466059,1.7933474222,-2.1048218451,0.4657727221,3.252492111,-0.5830179423,-0.766326454,-0.7673851275,0.2712869786,0.2066271582,-0.3390205565,2.2739264253,-1.3029183448,-0.2911371293,-7.2865890475,-0.5920049755,0.3510644609,-1.4333682734,-0.6241346861,2.0140614377,-3.7460756904,-0.6545967247,0.1980322269,-0.4191990805,0.2036193597,0.6434490488,-0.7216453756,0.3876868578,-0.0755183216,0.1957658744,-0.7342304645,-0.018531023,-0.1783641741,-0.1213904549,0.5270000496,-1.781763638,0.3843388964,-0.3265237393,-2.799523001,-0.2274615271,-2.6476662503,1.7258269719,0.4377652562,1.5265178203,0.4133338395,0.2380715841,0.7118102966,-1.163908251,1.0694702682,0.0059544402,2.1179806007,0.3282916249,0.6906303868,0.5069566942,-0.142298663,-0.1943540007,-2.1033915236,0.5318871359,-0.8580676717,0.6681785298,-0.533622332,1.6243869213,-0.5003116297,0.8446044967,-1.1884610462,-0.0110515966,-0.6743216072,-0.6341765731,0.4195075468,-0.6159794965,0.7061354512,-0.0772848697,0.7935958295,-0.3652418666,-1.0015692561,-0.4632160688,-0.4122387763,0.1015553114,2.0348947586,0.3914380545,-1.3885377036,0.0579937521,0.6317691026,-0.4479334983,-0.4382524654,0.6412624425,-1.9328768127,1.4456312393,0.3706358036,0.0552421204,-1.0226714556,-0.9281614112,-0.6551557187,0.9413093119,-0.175930831,1.9467394333,2.4467725177,-0.2619729657,-0.4646051052,0.5096801818,-0.3533416906,-1.9848308063,-2.6549593588,0.821977752,0.3255232792,-0.4710092653,-0.9253092419,0.2911575651,1.3570756965,0.8241313683,-0.3713606489,-1.1534306837,0.5379465796,-0.4540743306,-0.2191383372,-1.6265266526,1.0502404016,2.4158853771,2.6981780743,-1.7267405442,-0.9982297546,0.3097691412,0.9768878166,-1.3676931345,-0.1117326934,-0.0113545979,-1.7660829439,-1.0842493151,1.9570210993,0.1732058234,0.1373059994,1.539447471,-1.1694814485,1.3063699938,-4.4261939682,-0.0662912535,-0.2802912417,0.3942105742,0.4182295353,-0.4904426896,0.3029645431,2.6443406865,0.5498054972,2.0603628567,-0.548096662,1.3380996981,0.0906137068,-2.786763289,-1.0906855365,-0.1941350092,-1.6167954002,0.4040566465,0.3598821124,-0.9018474116,0.7755900105,1.2040615735,-0.5816171815,-0.3077536182,-0.9903304496,-0.6797363107,1.8526525872,2.2968724965,-0.2874093195,-1.2602973784,-0.6572991256,2.9290403238,-0.1201007128,0.5558394185,-1.2217208142,-0.7652297404,0.1858435432,-4.1925836056,-0.1555676013,-0.2892561247,0.7711298632,0.8649091551,0.142272729,0.0029546132,-0.296174136,2.6274812394,2.5198681028,0.1068392352,0.2669804756,-0.4181066027,-0.2556858975,1.3560542173,-2.0810240203,2.8755893547,1.61509445,-0.1955081241,1.2739182588,1.9243340665,0.7838182566,-0.3535266117,6.9669873409,7.3094319704,-1.8384884398,0.0495632338,0.1130074007,-0.2251349802,1.6484744242,-0.7656288444,0.9251404517,-0.4778177488,-1.3588537285,-2.1166111584,0.3363222993,-3.2976209918,-0.3600361656,-0.6713957384,-0.482807034,-2.5634382599,0.7755475255,1.1729254767,1.664865964,1.0592621429,-2.0495523901,0.0060983214,0.3247935725,2.6675030514,-2.035493781,0.2180959906,0.5918024689,-0.3737693225,2.5909797015,0.2959656028,-0.6885432511,-0.5301613084,0.3678216512,6.0585932424,2.6747374626,0.1781994098,1.5434981731,-2.3280828248,1.6344985473,-0.4650009094,-0.3320868276,0.0015459285,0.4930979076,-2.6300802598,0.7703453557,-0.9861964324,-1.948864826,0.2136690204,0.7288372972,-0.4907476061,1.5100083595,-2.2058104821,-0.0746395612,1.4993327908,3.2425916397,1.1178993981,-1.5067518527,1.3084321726,8.4524362683,-0.3586593918,-6.2901011242,1.4377664533,0.4127235083,-1.378350842,-1.1170058068,-0.4514470595,-2.0249873827,0.3632838352,0.2740329309,-0.4748762512,-0.4852261404,-1.0488344793,-0.1889875018,-0.9643279253,-2.3733452955,0.4793051392,0.9873691981,0.1636125228,0.123261167,0.1874032269,0.0697983935,-1.0662424676,-0.8434611241,1.3456296514,-1.8774855977,0.3267560236,-0.7356391995,-1.5514773508,0.882459616,1.2544317519,-0.4232784642,0.2817222296,-0.4852563104,0.9335343259,-0.1979002548,2.1244126967,0.030656391,0.4635924279,-0.3004972266,0.2553322832,1.2872885432,-0.411056581,0.5245666467,-0.6326794762,1.57626026,0.6115336449,1.3338880814,2.1460348923,-0.2823404228,0.4653550678,0.119177878,1.378212799,0.992664143,-0.6905575857,-0.4914094842,-0.0663955186,-0.3709843628,0.6749871343,0.3110664833,0.0617481497,-1.7851897381,-0.6116137326,0.4180715085,0.3293317895,-0.4932878407,0.6497291163,-1.9193994189,0.0643242245,-1.0170180654,0.3286377006,-0.1269755416,-0.6662475844,-2.9702704314,0.2391757191,-1.2501605438,-0.4810239974,-1.0810308822,1.5051962466,-2.3215408542,-1.4961214964,-0.4479899229,2.3021361242,-6.1868787604,-0.5297882265,2.0124868608,5.2482918393,-1.1786895976,-0.750898283,0.1646090811,-0.3890305078,-3.0892570686,-2.470462043,-1.4637493585,3.1671826437,0.0433581652,2.3067335187,2.2039057012,-1.7875680834,-0.8417157569,0.9437338387,0.7240607128,-0.0357635125,0.7254771595,2.8546841092,2.3673846868,1.2002218798,0.3838675144,1.2066914002,1.6375158867,-0.2944475477,1.3273321194,0.9927063915,1.8813789564,0.463426719,0.6491891784,-0.7936394619,0.1401812342,-3.2814453007,1.0980391743,1.9732535747,-0.8112781275,3.5560043291,2.4545370825,-0.112178395,3.26631636,-1.1291755273,2.1270322806,2.646121149,-0.8972232921,-0.4598644381,0.2200848421,-0.1128920012,0.2054588923,-0.3991510022,-1.4383081436,1.3720371163,0.7290169206,0.9204537932,-0.2505663874,0.0057603794,0.0903270477,2.9276522599,-0.2609653601,1.795000855,-0.7102769995,0.1462622926,1.3474293902,1.0790341938,-3.2985108694,-1.4861642643,-0.0949949067,2.067034393,-0.1137674337,-2.8101824264,-0.3603596595,0.8594707101,-0.1824317007,-0.2853988105,1.6916179583,0.2891375909,1.331325207,2.2544567728,1.1012653299,3.775523281,1.3463199826,-0.6794280623,-1.1060787863,-5.5207070435,-1.3084500819,3.0911486726,-6.8557146858,3.0993099669,-0.8106487398,-1.6516921206,-2.2991746323,2.2370352438,1.2421794938,-0.1467743069,-1.6900963006,-2.1047346837,-1.0659746796,-1.928263911,-0.7105810036,0.5626384562,1.4240189097,-3.1961304343,1.1926110556,-4.8101104288,-2.2529042284,-1.8120451099,1.2503731103,8.5024595497,-0.4134151574,0.8777159051,-5.4604989096,5.4698452911,-1.6639972326,1.3461333852,-0.9456981877,-3.137583941,-3.4288120525,0.5701387251,2.5004330865,-0.5662198498,0.1493661141,-0.0844545413,0.99351532,-1.3491697777,4.1224076649,2.6585116901,0.2920024016,0.7881561836,1.5563465627,0.1619035474,-3.2806142204,-0.5034825119,0.9861564852,0.7365377925,3.6720964395,0.1449324697,2.8651134522,-1.6966113449,-0.835398925,-0.0472755834,-3.6047952247,10.9785033285,-3.3946223423,-1.9724806053,3.0574866706,0.9539393352,0.6688798494,1.0089800836,0.0028154675,-0.1535045313,-0.3302411541,2.4889279922,0.1571223914,0.3662851458,0.1861503482,1.1961199826,0.3429656065,4.9312791981,-0.2160953002,-2.4424676911,-3.0794144345,4.918059425,1.4490435289,0.3731912335,-6.3238423237,-1.2235341022,-0.6160976793,-5.0709413127,2.8069447719,3.4557896906,3.1765390819,1.105754905,-0.9141488187,0.7939973245,-1.500522076,1.4073244592,-7.2528479401,0.7478438912,-2.8475123615,-2.7632678218,-3.5421535718,0.278276424,0.6700337723,2.5421420627,1.4922035312,0.2370689631,-1.0206729444,-5.9988410529,-1.5073058752,0.3790765455,11.2214564551,2.6977138072,0.0369080266,-0.5986887263,1.7689113502,-7.8822017985,1.0183784357,4.9840426706,-0.2255286662,-3.53166817,-3.0571178521,-0.036124532,1.0337566269,-1.7244499707,-0.934819419,-1.4240037394,0.4322798734,-0.7257149052,0.9125351247,4.6285908601,-2.4808764218,-3.0132513325,0.3786372909,-1.0224531398,-6.6960469838,-4.2257858007,-1.5236022873,2.9128590388,1.45816726,-0.3496832671,1.5935627899,-3.9194117483,-0.5783054766,-0.8155597655,-1.2707473991,-1.6707474615,-3.2999136507,-1.0081265394,0.9325518173,-1.7402080491,0.3678021428,5.4611730336,-2.0018989061,-0.074572292,7.709682201,5.4824200665,-4.4317602512,-0.5007001697,-3.7542720295,-0.5075009778,0.1089526985,-0.8241294057,-1.8194758031,3.6043950615,-0.6760849181,2.1976768334,-0.358586232,-1.2799048731,1.5736373236,2.8218880511,-0.3545741651,3.1504965132,5.6451915203,-0.9104653643,-0.2721866334,-0.1095525486,-1.0999596328,2.1914528861,-1.4526368202,0.2975094736,-0.7165244071,1.6775772088,-0.1105596394,-1.4137464422,-0.5602640221,-0.4623088922,1.4290270839,-3.8419918309,0.2205843086,1.0684613084,-0.3656524359,-0.6015021132,-0.3161440857,0.1893403266,-0.5126945881,0.854010395,0.1596405049,-0.4035997246,-0.3588138627
   -2.1309612462,0.7506103751,0.2813923432,1.1088216419,-0.8050944283,-1.8588754506,-0.2502920086,-2.6839082723,-0.9750311143,-0.6756599842,0.5416650933,1.1697764877,0.9922780253,-0.052572667,0.8885517439,-0.9088179382,1.6803307241,1.4674255623,-4.447628284,1.5997313775,-0.6907540044,-0.4225868361,2.6935264699,0.3386509629,-1.9165642554,0.7043014224,0.4109628513,-8.1483452677,-0.1770891523,1.2746629693,-3.3617420104,1.3102698159,1.3966083094,1.3794273419,-1.8659086288,0.0732058228,0.4051759471,2.4203529636,1.3375783428,-1.3031092837,1.0247292895,-0.174858684,5.3985586173,1.587678762,3.7746803923,-0.905498082,-0.5822740228,-4.950882875,2.6663803184,7.1444960968,-12.4525101014,-0.0237949814,3.3729863883,-5.2929191877,2.2860769045,4.2119853433,0.2918362495,7.280688618,-0.2762388665,1.5466001578,-0.107179028,-5.3690640438,3.8122330756,2.9983056892,-5.9203268546,0.6399255353,2.4376967917,0.1835770771,10.4679645637,-11.0759474783,1.2034818128,-2.6523921821,2.6807840707,-3.5766654877,4.7235472543,3.277219655,-5.9126365552,15.9704789703,-1.5482878312,3.3368186248,0.2102329213,6.1903787028,-4.6749179105,3.3985272859,-0.469853275,3.3083987383,3.6444371839,1.4515891601,1.230224237,3.0147414614,2.606398974,-4.6341456176,4.4449353444,1.5884264502,2.9418588852,-4.7408432401,3.0810858795,1.7891123468,-3.0072675716,5.2235442382,0.4179749129,-1.8248815945,1.7349993819,-0.2879643674,-0.1813802254,-0.7820139141,-2.1146838192,-2.3446461307,1.2237289955,-0.6119286178,0.6745660735,-0.146626456,-1.1971253668,0.5194752845,-0.0590820486,-0.0394071161,-0.1520099158,1.3333900913,1.6123447138,-0.2219980683,-1.0660838745,0.0835032916,-0.4537833574,-1.2876362077,0.112675992,0.2643080921,1.0223287742,-0.1218596749,0.0287246593,-0.2087400876,0.0868761496,2.0265157919,0.8447689714,0.4226517422,0.7827725103,-1.1553806458,-0.462035138,-0.2437438657,-1.8869811653,-0.7621596292,0.1622099747,0.9903661388,-2.1642801992,-0.4715918741,0.5609943432,-1.4696134988,1.5569960895,-0.4156369492,-0.5591319167,-0.7733500501,-1.0891947259,2.7610522697,-0.0714181454,2.6668188962,-1.2464555179,1.7436518579,3.1375417811,0.1088731366,0.4181500408,0.1093480992,-1.6677341827,1.227785166,-0.6550827803,-0.9501598417,-1.2936708445,1.9288182359,-0.5030563511,0.247486276,-1.1509924924,-0.3747755265,0.7857138408,-0.2797236338,-5.2265792993,-0.7328262736,0.203217099,-0.4156644373,0.1436805683,0.6691207396,-0.5473285636,-0.5587050385,-1.3473461403,0.5208985628,0.8025673868,-0.45762478,-0.6818258221,0.5156108902,-0.5244226546,-0.8308533794,-1.092296449,-0.0974626632,-0.7569741724,-0.1430393676,-1.5191860092,-0.893746812,0.2131899236,0.8559921679,0.3331861898,-0.1687626858,0.8420067255,-0.0751065864,0.0082764275,0.1969719767,-0.9432275887,-0.6189009801,0.0561941405,-0.1826700035,0.5278046143,-0.1284377346,2.1724631205,0.7156455096,-0.3478116254,0.5849348299,-0.1638796035,1.3873362844,0.064931435,-1.5606533404,0.4817238293,-2.3726453111,-1.1999308554,-0.3811847261,-0.4771939187,-0.7043949906,1.7226360707,-0.6653574018,-1.4949918355,-1.5016062596,-0.0639967907,1.7970381993,0.0465086908,-1.0407309806,-1.5993428636,-0.6829952705,0.1910185014,1.2919727101,1.0065510478,-0.1029855346,-0.8588243616,-0.0636649613,-2.1969779397,-0.8187967283,-1.1285064486,-0.2355728104,-0.3756573504,0.3496022622,1.9743161099,-0.5739645567,-1.9851863504,-0.1591525822,6.0628583383,1.1791323602,1.3496472323,6.0497781114,0.5856236211,-8.609322027,-0.2730913135,1.2083654317,-0.162038957,-3.4654904181,-3.473303224,-0.2655613149,0.688819433,-0.0963859901,-1.1316674178,-4.2100390389,-2.5782304931,-0.1281871828,1.8343875024,-2.1288351081,-0.8126992508,-0.4905381364,-0.2999302223,-0.2783202012,0.6320444546,-2.0185038831,-2.1748826831,-1.8495865827,-0.0528962728,1.5934716246,-0.8521612454,-0.2666460857,0.3488262062,0.9877713535,-0.9273589593,-0.8564722612,-4.225665054,0.5945376555,-0.0383162937,0.3630892097,-1.1096222702,2.6972908061,3.9423552788,-1.6773029929,-1.8508408727,-5.0298514889,0.8464166379,-1.0657773366,-0.6537873833,1.2047907314,1.8540549566,4.6631773459,-0.3659959349,3.1955896042,2.573616688,-1.3206995996,-0.6299284241,-2.1336774289,-2.3895390502,0.804842807,0.6704335261,-1.1532503084,4.4872618421,0.005821826,0.4532161066,-1.9272400023,1.3363576417,-4.9095270753,-0.2064896969,0.0352771922,-10.7860044763,-0.0959658418,1.6110417377,0.3325869291,-1.9768515029,-1.7663344104,1.6702611974,0.4951240499,-0.0459589352,1.0897855363,0.3576374664,4.321716725,-1.3298244143,1.6730860515,-2.1133550448,-2.1769717157,-1.7129731787,-0.2042484209,-1.4673061994,-2.7463560459,-0.4157230599,-0.9354563335,0.9340893223,-0.3022500852,2.7695371626,-3.1715789186,1.8840507106,-1.1275184752,-0.2648492669,-5.6956685297,-2.2038975812,5.4606822902,-0.6334711874,1.1453928796,0.3631888792,-1.2384235397,0.6520270739,-0.553251709,1.5711803903,-1.8563074316,2.6659791131,-1.1769136364,0.5539690083,2.1447265425,-0.018085869,0.7986269787,-2.2184263439,0.0673147572,-0.262081123,0.2498887844,-0.1645089748,-2.4230433032,1.9896615709,0.2152716198,1.1431287009,1.34456252,3.4059550494,1.9253577905,-0.2073160383,-2.3427538603,0.1749785899,-4.6078566986,0.759218724,0.1197838618,3.5707015864,-1.3268060068,0.6173497637,1.5240967708,-0.495379545,0.3602816012,-2.4916056516,-3.7331965239,1.2622043679,-1.3938069562,0.8060810633,0.5624453316,-0.6922956348,1.0484612584,0.1899658703,-0.3192932719,-0.5267313178,1.1521163953,-3.8158741319,-1.1254586168,0.9752421576,2.0330321146,1.1296623679,0.6259258836,-0.6418443579,-1.4229387832,0.4917553471,1.5573139238,0.1245310291,0.9519925676,2.0131614671,-0.0892978716,1.815737559,1.4265495297,-2.3114386437,2.280697535,0.426985488,-2.3140474244,-4.2721874624,-2.4317492484,0.6504851009,-0.7305768749,3.470144361,3.4593907643,4.753385663,3.3124186737,-1.2836556481,0.910321467,0.5294835199,-0.0955419006,-0.439999527,-5.0457266036,1.9418150093,-0.1588178528,0.1536637375,-0.7076415213,-0.6786676275,-5.0848350638,0.173411059,-2.3021935102,4.6689347001,0.1692821944,0.3469032242,-0.8194856629,1.330046707,0.4281914506,2.3464088543,1.2850534792,-0.380556631,-0.6857439117,0.9816784021,0.7231667426,-1.1364971815,2.1904953064,-1.602028205,1.2187979032,-2.8049547516,-1.5894634022,0.4956431757,-0.0763996756,-0.0214903929,0.2677758731,-1.9561873691,-2.5250134273,0.0577330532,2.7580363983,-0.9112215213,0.2541190763,-0.0457945456,3.6502844227,1.2963148744,-0.3446530387,0.0855996138,0.2448095059,1.9977959338,0.8052605454,-0.5088573813,1.1254610158,-1.850047633,3.6548963746,-0.419023269,-1.969320471,1.980407062,-2.2698759458,-0.1760386989,0.2047197993,1.3254013587,-2.6047198361,1.1898787641,2.6347276741,0.2941998762,-1.071594304,-2.4502238928,0.2847368833,-0.2367005037,3.3022581522,0.9901553089,0.1086707267,-0.5609181738,-0.5029479125,-0.9899985158,-10.0309670283,1.7325392217,0.7680529696,2.840984589,-1.9693577449,-0.6421539193,1.422986129,-0.5990839332,23.2728389776,-0.8624486215,0.7241543689,-1.9085259705,0.1675059171,-0.6920617003,1.0649430864,1.1793030221,-0.7505269598,-0.5830489476,2.5753464844,-1.470830683,4.2642405413,-0.9294715415,-0.1144326769,-2.5059469757,-0.0689789879,1.2835441547,-1.2971194472,-2.0388321595,-0.2216903076,0.5958447433,1.1137411198,3.634703784,-0.0076693375,0.5742051056,2.505297566,3.6460139783,0.3835774591,1.2054801732,-0.5856527293,-1.2658612487,0.1471663612,-3.3008002621,0.6527252426,-0.6427510619,0.3580748322,-21.9821999644,-0.5454966116,2.114095388,-1.660725646,7.6521406405,1.774518447,1.3730958537,-3.277430958,0.3821895129,-0.6401803672,-0.3718820038,1.3592773605,-0.4210935732,-0.738497641,26.1733798825,-1.4799785643,-0.782289202,8.8277573111,-4.7688439318,0.1539457215,1.4321431368,-0.974401597,1.1928262077,0.9893429948,-1.5339063566,-5.7588225893,26.6737263685,-3.5543962406,1.2785458831,0.8677630692,-0.7018854958,1.9248915207,0.5279095817,-1.2465170898,0.1094319887,-0.287157281,0.9371804889,0.0808628834,-0.0498110406,-0.74048059,-1.5047397003,0.4034128754,0.4376337105,-1.6473231024,3.7164237797,-1.3462955613,3.2490416664,0.9838341496,2.1251717968,0.3492620498,-0.7055822478,-1.2251666598,-3.6326178485,0.3654010821,2.0069329093,-0.8945732711,0.4668883099,0.1211338358,1.0416107139,-0.7251630418,1.952112441,2.2213154067,-3.2378523138,0.7215125885,1.8117992796,-0.1848151815,0.2943075471,-1.4995977372,1.879076696,-1.3059082541,1.3103532911,-0.2492772737,-0.7916471916,-1.9556667025,3.3873261238,0.5854698154,-0.9707977104,-1.8058326685,-0.8542646878,-0.8173990361,0.1152350908,0.7288811739,-0.1713335023,-0.1388903356,2.5093124869,-0.354015054,-2.3391983368,1.3947265759,-1.5875937747,0.86833336,1.5974716326,-0.8141140541,-2.8111501087,1.6925742958,2.2888072879,-0.4756603921,1.4823649201,1.4566852752,2.1718611216,-0.1779921088,5.8429399344,6.2663450293,0.863810088,3.0373667869,-1.1460863926,-0.583652767,1.2370694767,5.3342757916,4.0317316557,14.4692658622,0.6050769008,9.689410436,18.9544320924,63.3247371078,-4.2419117521,-0.3635690666,1.4842309162,2.1221003845,1.6041766151,0.4515719801,-9.8267558335,2.9116495256,0.6216773405,1.0584630079,0.39222785,10.6480333481,6.2415079625,24.5493451744,-5.5573875993,-0.5218920918,0.5180381973,-0.3837260576,1.4968821569,-0.9579073145,-0.0814427742,5.0377931105,-7.2780776787,-2.8553645223,7.5117931729,-1.1578605592,-4.8340575187,-2.5654244583,-0.1689229946,0.3768488721,-11.8299098026,1.4618217498,-1.8856666583,-13.9903531024,3.1877262613,16.2659387518,1.1260597434,-8.1693216088,-1.0831264812,4.9373106409,-0.5276098569,-0.9077717303,-0.4716676736,4.7585268688,-0.5282390294,15.7066524585,-1.247439628,8.0242326786,0.8001929444,-0.3051769366,-0.8533939139,0.9606941634,1.6159413851,0.7967605302,-2.5364678096,0.9815845893,0.6383715524,-0.3843375297,4.1281171465,-0.9956575268,2.3112298274,-0.0115987256,0.5816146059,-0.0247428869,1.488290518,-1.4382146577,1.0782489426,-0.4026015458,-1.0223091022,0.1113277024,0.9456510635,-1.1111392558,0.5352117842,-1.2988744394,0.3878836383,1.0372952387,0.4539917424,-1.1659943429,0.8419983939,1.5503958865,-0.5910957054,0.0337012563,-2.6814627061,-1.8793821795,-1.3398408428,-0.2931694365,1.0015048385,-1.8771132441,0.9794819397,3.2898152026,-1.7913684764,0.0409469539,0.1503581368,-1.2874917946,1.1039442107,1.00919689,0.5915411438,2.5155681919,0.0200865039,-1.0210827703,-0.0895244376,1.341894417,-0.3257463224,-0.4611747018,-0.3485729926,5.071283439,0.3377847809,-0.2481066722,0.9803264173,-0.6140842568,-0.0171349488,0.849014822,1.4096217246,0.2965475349,-0.7360423675,0.3923636162,0.5763553758,0.2018624825,-3.0050373052,-2.7507578126,-1.2391351315,-5.6495422578,7.3479052805,-0.9674436938,10.7566328718,-3.3432230293,-1.8448607754,1.0292652244,-4.0405970949,0.9824950183,2.1619733781,-0.6799349954,0.5321255588,-0.1152208714,1.5307548377,0.0625523773,0.1311225937,3.5693492875,5.7659517335,-0.7767693996,-2.3594779961,-1.5464566494,-1.3722532266,-4.3282417826,-7.3914366158,2.8132834347,-0.3505411347,4.9877473497,-2.6436795979,1.560790097,-4.4620770437,3.4356187729,1.0812144792,1.3020097997,5.1483741436,2.1989248787,1.7295607132,10.4135009846,-0.5848107115,-1.346264498,-2.9170777687,-11.4000973347,0.981326998,-2.6461492434,0.1055622179,-1.8987472053,6.2826546312,-1.5852068929,0.3355142021,-0.8064002829,-1.2925537316,-1.8346430919,2.5919936262,-0.7986487416,-2.5037230653,2.3946502431,-0.6172123113,3.7785472308,-0.7840999319,0.5042521708,-2.6226095639,-10.5901508934,1.6099321421,2.3853446231,2.3549324775,0.413663938,-0.1917584216,0.0185788315,0.4094536846,-0.6334549135,0.7197735035,-0.02432749,-0.492284476,0.798335511,-1.6076328383,-1.3916763805,-0.3687039094,-1.5323094688,1.1563537888,-0.5824801298,-1.7114703905,0.2436525758,-0.7557807927,0.7479344207,-0.1166091664,0.3076845625,0.437203002,4.6921828887,0.8880786721,-0.1642911225,1.6386899048,-0.9363720972,2.3037557487,-0.2634301474,-0.3993365802,1.1262455003,0.0826546554,0.0235946361,-0.5180829414,0.4001622933,-0.1958498575,-0.4120690725,-1.2236595226,0.3807208936,1.8141794177,0.0758584428,-1.3318365386,0.3444303807,-2.1256905584,-0.9659320748,1.575141374,0.1957653059,2.6645497633,1.2363856675,1.0836985167,1.4488466999,1.1760619821,0.9957174117,-0.0583816439,-1.0342277859,-0.3381737238,-0.1189492162,0.8332186077,-0.5985232151,1.1115561795,0.1739306445,-0.9449087302,-1.1541101492,-0.3772181573,1.6112769156,-0.3900582375,0.5885941853,-0.821783595,-0.6695821225,0.0277173117,2.1157816646,-0.7924470705,1.3688189256,-0.8983856354,1.6930387716,0.0795356036,0.7650533399,-1.0653674733,-2.67812733,1.3110700213,-2.1666228665,2.2794076171,0.192413931,-1.6288850746,0.3327260261,-0.1355702111,0.7009235017,1.7988981964,0.3722588062,0.1745042222,1.2810233298,-0.395082943,-0.5816782498,-1.0865678838,-0.8979375824,0.712088569,-0.6897178032,0.9607884138,0.5669456658,-1.9611653338,-0.2900204312,0.7548376507,0.5448830006,-0.6290569028,-0.0071402491,2.9678020941,-0.3677298,1.6565809289,0.9822784309,-1.5252222903,-3.2547367354,0.5635018949,-0.6941275201,-1.0263505112,-0.53508507,-0.9848339671,-1.5875130475,1.1819514707,-0.2988705984,-0.5270095083,1.8464333352,-0.0704904066,0.4356862118,1.1641069068,-1.0610137951,-0.0060661535,0.0512405154,-0.3341040032,1.7646473497,0.4564218436,-2.9738244632,-0.9018357255,-0.2164502946,1.4596224426,-0.3779514542,-4.3636367325,0.2107284356,2.1742253698,-0.3371969418,-0.1422879849,0.4201146006,-2.3083456478,-1.9199232493,-0.6746153879,0.5373618728,1.0736085134,-3.6003550111,1.391461491,-3.3241873041,-0.8717166793,-1.1764078372,1.4633384947,-0.2946593098,1.22989306,0.0201294019,-0.2797491017,-2.3091301998,-0.8027632302,-0.692637046,-0.3017930436,0.397278038,-2.2412511873,2.3043671976,0.7133264899,-0.2053775606,-1.5053811097,0.1075571261,-0.4524278865,1.7696630103,1.0715093489,-2.1730103167,0.242778805,0.3482161128,-0.3638395017,-0.0485103993,0.0033568082,-1.5052515155,-2.1182209361,0.0586739377,-0.7739666403,0.1183619141,-1.4283085,-1.1014656294,-0.860952811,0.6784041559,-0.335551727,-1.1468395461,-2.5979784208,-1.0127162691,-0.3395281512,0.4902069042,-0.9652558182,1.3012144423,-1.5349853264,-1.1979677258,1.671152611,1.3363273257,-6.2433817879,-1.7018705659,0.9772234614,0.1741598877,1.1002824994,-1.265736482,-0.9727889315,0.4784909557,1.2233343643,0.3835840531,-0.7189633861,-1.2895524833,-0.7310175217,1.1911684001,-0.9813857752,0.9306634923,-1.0952570871,1.9899231112,-1.1675146458,0.0658992026,-1.3427412142,1.4586972106,-0.1329164781,1.7418670009,-0.5054090068,-0.8071740999,0.7988448397,4.3114436885,-1.732526533,1.3666912868,-0.2340217126,-1.5869402961,0.4839279297,-2.4026086678,-0.0249670802,0.4341624423,0.5983331583,-1.6484103797,1.0735917899,0.4502951725,-0.8995853648,0.7848604996,-0.4962768302,-2.8258553437,-0.5407044086,-0.0482700626,-1.2307270846,-2.8753528181,1.9750619565,-0.9791571657,0.2699071634,-0.5813460806,-0.4997700626,0.5282073984,1.8848903507,0.9601699256,0.1983028634,0.6218319708,-3.4576783649,2.8106081815,-1.5457975669,-1.2196116486,0.9403671495,1.6016806585,-0.8400132311,1.0729048376,4.1631381587,0.4109725894,-0.886703905,1.1688769559,1.5505307119,0.4956125114,0.2803114167,-0.6660303406,0.7017720192,0.1931712931,0.7844783207,-0.0063489319,3.6361549096,0.8231285292,2.369635978,0.3769154961,0.5324057816,-0.2966275998,-1.5887308602,-1.1599813233,1.0117597827,-0.9178054608,0.8973737231,0.9559617817,0.1284453631,-3.0001318335,1.4505326832,0.5664054325,0.204498656,-0.6451786169,1.4628458311,-2.7827931648,0.8807158333,0.4006027013,-2.2862840081,-0.1762020854,-1.027725801,-0.3894680637,0.1487726373,-0.0009824572,0.1317514162,-0.2083860785,0.5330945601,2.6974572045,1.7830900882,-0.0806272534,3.6535023379,-0.6581679294,0.174929234,0.8458048894,1.0722376346,-3.8346931444,-0.6255151597,0.9971556866,-0.6129150287,-0.5162714444,-0.2795823153,-0.4875826784,-1.0579557763,0.6175263717,2.0427898967,0.1370958808,1.5755412755,-0.8411361448,0.5055604999,-0.5206965987,-1.3301735269,3.2229979475,0.7410665576,-0.9818686301,0.150228634,-1.4646400689,-0.4700644353,-1.0982011611,0.0494402253,0.746039787,-1.9810897056,1.9770879552,2.9740965189,3.0941751492,-0.73265249,-3.2808145802,1.4578671289,0.7771138069,-0.6063828023,0.5759889814,-2.4012132784,-6.9506158663,-1.5830110424,1.2548531011,-1.6596357529,1.0120247688,0.1960256245,1.5027683484,3.1778175316,0.9466167683,-0.5619491983,0.7511132075,0.2882281991,-0.1076219342,-0.4231893274,-1.6732678858,-1.6702932532,-1.4598688843,2.176062526,-2.414172737,1.6462406646,-0.089461743,0.1726953353,-1.30592225,1.3876378522,-1.7494049776,-2.5552689247,1.3622007891,4.0303912197,-1.2982000468,1.3050390438,-1.0841941359,1.4566568461,-2.5222151589,1.7147480164,0.1635069202,2.0051176663,1.0900387074,-1.1996801705,-4.1212177917,2.1756285048,0.9962452251,1.4588909142,0.0460154975,-1.5963566064,0.0309560366,-0.2896463809,0.7139728066,1.2526784846,0.1970357062,1.0212846022,0.6832609915,1.1621471265,-1.5796310434,2.1485207013,1.4227325336,-0.943125644,0.5828222072,-0.3474748164,-0.6963672129,-8.0696346381,-1.4479826985,0.2057187231,-1.6202974603,-0.7776564218,-7.2565841179,2.0924415522,1.5220150922,-17.682559674,-0.8778699259,0.1161086659,-0.7385243266,1.1103080327,2.1264711296,0.6829310779,-9.1571257712,3.3141561133,-0.8704366118,-8.1268153815,-5.9136347667,2.400475961,1.302623868,0.1598187066,0.4832763113,-7.5538265275,-1.143863979,-2.2524785902,1.1965267636,0.7478792838,-4.4188991757,0.3564965304,8.9804667218,3.1609738131,0.1650288238,-3.4865908228,-0.4851536689,-1.671754646,0.9958262379,-2.5824960401,-4.0477905756,-3.6090567303,-3.3004530279,-8.4684504249,3.8991806698,1.4591217231,-0.0100430943,0.5995925023,1.3148037403,1.6495135441,1.2506913779,2.4813601486,-2.5511761215,-10.2695052974,0.2984997447,-0.3314073237,9.4080585116,-1.5602711299,-1.9145481375,0.2399256613,-0.8599665806,1.2163451616,-1.8932561254,1.8712084114,-1.9823936013,2.7671118924,0.2589015823,0.8054657456,-0.5825031771,0.2163156381,1.7191724733,-0.7456317393,0.264189226,-1.3938586776,0.1441316556,1.8845443497,5.4478632221,0.2055088417,0.3058986763,0.1881696228,-1.4890327022,-0.1312303125,1.9469550358,-0.8013937392,-0.5233976765,-0.0043535833,-0.4740603621,-1.8051793763,-0.3920491337,-0.8036910152,-11.725463142,1.3552741726,-0.3270824599,0.7002723368,-0.0183951828,-0.4797618012,-0.2059064887,-2.5762023809,-3.7483901624,-0.1558707056,-0.7397232922,-0.6162714473,1.2790454736,-0.8105452388,0.5994578661,-1.0383595862,6.9168441003,5.2320761928,-1.2376082551,-1.4366485814,-0.6399104773,0.4883365816,1.4358373015,0.6262013874,0.5221747935,-0.888484995,1.0921610837,1.1305297556,-1.0408566014,-3.2178763325,0.2936611713,-1.765026113,1.6615390915,0.8763896575,1.3059854312,2.6430863118,-0.6339143141,-0.5265567084,-1.5186118744,0.63277073,-0.4979088676,-1.1122094347,-0.302083564,-1.2800538802,0.2860225961,1.7186854428,-1.3074812844,-0.1304793471,-0.2403676217,-0.0633433082,1.1656212256,-2.2366378757,-1.1344633925,-1.817962754,0.0680848059,-0.1130663125,-3.7973327063,5.7998845803,-1.6579015725,-0.4851350123,0.7236759888,4.9331756373,2.0610188387,0.1543867733,0.803093762,-0.6861183354,-0.6285238876,0.078317822,0.521197545,1.0527439971,1.3599559871,-1.4326684897,-0.188792083,-4.4209351507,0.3134400301,0.6119662271,-0.2095462788,-0.1349845593,0.4835644981,0.0722300869,0.2153569111,-0.4464349187,-0.3248995894,-0.7416294885,-1.5175732329,1.144913509,1.0320991087,1.547004205,-0.0793625687,1.1899880125,0.6049371058,0.1652091805,-0.7490643796,0.2423503626,4.2331438166,1.6377535245,-1.2006120933,0.1263563993,3.0006927217,0.8723810759,-0.4322741274,1.1277816212,1.4362568624,0.5425971273,-0.6840804684,-0.391277345,0.1543368957,2.0457377811,-1.9305636207,0.1453591756,0.4146503075,-0.1137742347,0.0018032653,-0.1033385529,2.3653970326,0.8940282201,-1.0303374477,-1.4120953652,-0.1192309705,0.0111330053,4.5690982721,0.0277001021,0.120588314,2.1663811102,-0.6042806543,0.6415162984,-1.7938054315,1.5264403503,0.7673021339,0.9390139753,1.6791218018,0.8591728273,-1.9028205193,0.9627957222,-1.0851483369,-2.2704745429,-1.4988862908,0.014867301,-0.2213593267,0.3150381884,-1.0079240023,-0.0532556458,-0.0122134386,-2.6092890604,-0.9692236359,1.1831771229,1.1762313813,0.2737527193,-1.7103212928,0.3787505157,-0.6980453736,-0.5633771208,-0.2424119533,-0.9126552455,0.4641672708,-2.0340017413,-0.9671520188,-1.4435392027,0.2107860006,0.1518346378,0.07811928,0.3390625009,-0.0927958283,1.1115946581,-0.6307013523,0.8784112964,-1.909946068,-0.8061808598,-3.1746336929,-1.5370152123,0.3224492193,4.5060660233,0.3491037285,-1.6161313098,0.9108720804,0.1971325961,0.4336668346,-0.1105423809,-8.6856683836,-0.2454938169,0.1916577884,-3.9989036542,-0.8146178131,-0.4027564513,-1.3831808976,-0.3702893284,-0.5955447436,0.8853864463,0.336316422,-0.9069010382,-1.5010714334,-0.89985815,1.0517873611,-0.6845181158,1.0428808677,1.3216808715,-0.672740422,3.3942348636,-0.516093788,-1.5073610218,-1.4727586827,-0.2742338845,2.5982464714,-4.5395242862,-0.5794671365,1.6624041975,-2.6374075279,-0.2431472828,1.1282969862,-2.887533094,-0.2529046607,10.0999878292,-1.0137236364,4.938578449,0.094553576,-1.6660533501,-0.3126336905,1.1737437544,-0.6057067886,2.0464266448,-1.4446299932,0.4988296494,-1.3043005002,0.4063751787,0.2373605644,-0.6344317342,0.620730406,1.5066698175,0.1900937271,-1.7219763781,-2.6972221904,-4.3773244896,-0.2472024301,0.7185092324,-0.3249976348,0.8523969133,-2.1268339122,0.3121856796,1.6324647738,-2.3269847785,-0.124009131,0.9864240863,0.2784814349,-1.0199350513,-0.8483086886,1.8293072748,-4.8843397677,4.2256014393,0.503673717,0.2326569068,-0.5406875942,-0.4974133991,1.0075792831,0.1020203101,0.086226945,-0.3531418082,0.3370835597,0.8204700285,2.7509238389,-1.3046985104,3.8269068749,-0.3649937066,-2.8038641124,0.0640415191,-0.3860624421,-1.733610194,2.1621715456,1.3406316368,0.9951093391,-0.8288507,-0.3185821483,-1.2037843206,1.8368223314,-2.1256062231,-0.1946017775,0.7066349122,1.2769629179,1.022934678,0.5219266128,-0.7770433964,1.0751786805,-2.1157747093,-1.4853524581,-0.6176998654,1.8201922247,-0.6510096934,-1.8475684439,0.5550633917,-0.7644275511,-1.8295667352,-0.0216487041,-2.3622244111,0.0045016787,0.1321368058,1.8738946447,2.3179794466,0.1178864703,-0.6407473841,-0.9896214532,-0.7042566845,0.6888056855,0.764954387,-0.7304290642,-0.0555231316,0.8830176866,0.8161143475,0.9281965197,1.352506061,0.3532478697,-0.1822646276,0.1997713283,-0.0400254258,1.5996819061,-1.3262703859,1.0329425648,0.7355817788,1.8983418734,-2.3276061102,-0.8525749904,2.4518608075,3.43023252,0.0515674465,0.6880704094,-1.5891010763,-1.1727806148,1.059140548,-1.094122403,-2.7430095957,2.068184978,-0.7278532985,0.1551116134,-0.1729118949,1.6244383268,-0.3810394022,1.3227204811,1.9015779121,2.0735073965,2.7235362241,0.3080785579,1.4428415955,2.0747942812,-0.2876081595,-1.1140968163,1.7546454146,-0.3206376507,-1.2862740541,1.161813982,-0.1326405395,0.1898199431,-2.1189423123,0.4608009379,1.369796693,0.0340663315,-2.5811780368,-0.9577332641,-3.5373971713,-0.0591296086,-0.6882591762,-0.6835138042,-3.3958894514,-0.7060332319,-0.005538405,-0.0162849832,-0.2038629015,1.8092921723,0.8026949412,0.1372226122,0.6054152937,-1.4058059137,0.4114535753,-1.0249906816,-0.5024479728,-0.6017884097,0.0527127875,0.924609643,-0.3438723845,-0.4142168744,1.9127804477,-1.9097362043,0.3182612008,-0.2030221405,0.2458949289,1.0653168685,-0.5303024529,1.8780213198,1.0677167527,0.4086986657,-0.8077292461,2.2672650986,-0.3219717029,0.425378263,-0.127117886,-1.8317692325,0.5727174866,-2.7821434893,-0.4473132345,0.2817934552,-0.1180635557,0.1303180381,1.3078065041,0.2947645152,-0.6419791388,-1.5685608316,-0.9880775124,0.5076324003,2.290613193,0.5136133081,0.6550185362,-1.2668314732,-0.7175767627,-0.4981259291,0.5009125711,0.0479779256,-1.61758573,-2.0156194095,-2.9931733729,2.2707653571,-0.1662203382,-0.062477135,0.7199422866,0.5109613156,-0.6355067052,-1.9105049414,-0.0633772498,-1.2541015594,0.1256533508,-0.0822012569,0.0574522939,1.1653712132,1.0884154538,0.9517994455,-5.1504216281,0.0445174334,-0.0259027797,1.4523324531,1.4606893415,1.7951078862,-1.8661410961,1.2144601964,-0.4780601553,-1.8867812042,-0.3265269788,0.8682760624,3.1654627445,0.8922714057,1.8129937758,1.863691174,-0.0490491666,1.1763739173,-13.7411522617,0.7969630638,-0.532679065,-0.0049871196,-1.9899456233,0.4130973962,-1.551155484,9.1505159224,1.558895837,0.6107978799,-1.8739912113,-1.2074956839,-0.1252245076,2.2479719219,1.1018221658,-0.5965512847,1.4430398245,-2.2891969541,0.6170793321,-0.2543245067,0.430329036,-4.7901481624,0.194168523,0.6269142234,0.2408463124,0.4493284877,-0.641100921,0.0596459246,-0.040363175,-0.0642038464,0.3984388626,-0.5197362176,-1.7197328918,-0.8313832197,1.0936429757,-1.4951068388,0.7108909117,2.7466623753,0.7779720865,-0.7249888881,0.136107538,-0.0937181325,-1.8178417868,-1.2052679487,-0.1582656939,-1.1348700328,1.2684929281,0.4941988659,0.4273966835,1.2948895942,-1.7229817442,-1.6774980009,0.1345523714,-0.2108969574,2.3640767975,1.5109775137,-1.8325096362,1.1732160523,-1.9498550016,-0.7819586814,2.94434411,0.6989734646,1.4999384444,-0.8186645465,1.9002064427,-1.2751794014,-0.1820427364,-2.3578707336,-0.7938478713,2.0211348175,2.6726396662,-1.9968442008,0.7717203553,-0.6726972638,0.4182273769,0.0798873442,-0.1238301784,1.4967362526,1.4364831384,1.3838155522,0.7844567559,3.3759875422,0.3860922127,1.2174580549,0.2691992585,0.6765650762,-2.3679146547,1.0949466876,-2.875080853,-1.5565299082,-1.3642238856,-5.5363053575,1.3195191199,0.6696265803,0.1251455435,0.573175369,-0.7215617427,-0.2557457106,-0.7375572024,2.2596864893,0.6099341216,-1.9993898825,-2.2170979413,-1.2004454335,-0.1190197526,-1.8761582736,2.0280977003,-2.0952503836,-0.6597891742,-2.1126118215,-0.0768561963,1.8659895179,0.4215303834,-0.7433222734,-1.8774594432,-1.0581120324,0.0306019662,0.7652696744,-0.5937303986,0.0271356665,-0.0412363696,0.6152299493,0.0946212412,-0.6479480396,-2.9645376573,0.5452615852,0.1662625798,1.2352547943,-1.0319565505,0.9401392036,3.0057493093,1.016657653,-0.7139301539,0.8124740942,-0.3116503897,0.5002553976,0.7719764933,2.0142916824,0.3131289395,-1.2403808648,-1.8470010755,-0.1104215628,0.3219418029,0.3434418772,-0.8570618237,0.6099905992,-4.733954797,-2.9964879743,-0.8223992659,-3.7029778249,0.6759006165,-1.0634007087,0.0623392196,-0.684688751,2.5393196426,4.2532307729,1.8847459794,-0.6002997938,2.2422279923,0.9505525454,-0.0259762305,-2.8138014814,-1.351104215,-0.501828137,5.1233728196,-0.9869795512,-0.604922773,1.2481501004,-0.5886291101,0.0172846487,-3.129785956,0.4350129387,-0.6917051858,0.3652998216,0.0910867389,0.5316888579,0.0134306845,0.4109080772,0.5966177243,0.1963464861,-0.2081243135,1.1590453495,1.428897192,-0.1803533389,-3.136021868,1.1661363345,-2.0500903431,-0.9149540904,-0.4494794523,-5.2267373474,-0.6653982838,0.1199746055,1.3503259932,-0.355688741,1.0255948083,-0.1265773578,-1.9914104117,0.3763300938,0.7711673712,0.248512135,-1.5327123809,0.8945995345,-2.9405713076,1.483067542,0.983831774,1.6036831586,-0.7769472787,-0.5506010616,0.0751288099,1.1521272048,1.5573753215,-0.5616422723,2.9923596699,-3.168525324,2.3905721371,2.4925760396,-0.1428401713,-3.6075284163,0.2549947765,1.823903424,0.9793598034,0.8313255103,-2.0193963008,-0.3677228008,-1.0051302579,-0.6182566768,-0.7721580838,3.6406278805,0.8083921684,-1.2416560935,-0.8086572101,-0.7079416932,-0.4794676489,5.9645462387,-1.1536209027,3.1412781608,1.4184870981,-0.7744422465,2.8820695166,-2.5451025762,-1.2341894451,-0.266242048,-0.9832654926,3.7728273275,0.7037596386,2.9262319581,0.8883964122,-2.2729555449,1.2679569812,4.972414348,4.184680182,-0.4195791525,-3.0420739486,-12.4285395017
   -1.4094381337,-0.1945813983,-1.9164010956,0.104191282,0.7966647586,-0.4119063853,1.3409349377,-1.0517480795,-1.5418610233,-1.4072396726,-0.3152706216,0.206524358,-2.1657756764,0.2736384469,1.1487649489,0.2540230858,-0.1158849658,-0.7429297521,0.9001770425,0.4593902222,-0.3119147159,-1.1894478681,1.0463385215,2.3675627171,0.8305132217,-1.3005024561,-1.8971704669,-1.0892526314,-0.7659501338,-0.6998589978,-0.9460425044,1.051837449,-1.4360263655,1.4744554168,-1.2254831809,0.4012556205,-0.2745685454,-0.7573751649,-0.2543338963,1.8765434632,2.0220015031,-0.4525838247,0.6263741951,1.1344312715,1.5941182461,0.0203025791,1.9382264729,1.2596339782,-3.4621499825,1.2138970211,0.6235487815,0.1225840018,0.7694013162,-1.2543565265,-0.5960563106,-0.5603040982,0.1862188368,1.7091809714,3.4806110773,-1.4564524949,1.421059608,-1.2874958114,-0.6597806536,-1.2245583146,-0.6587165161,0.4652491127,-1.1622393793,0.4469820463,1.0952084112,0.9196789646,0.9118509436,-0.6436877412,1.354118902,-0.3415891904,1.4896224355,1.2858762586,0.4562376029,0.2154380738,0.2794503817,-1.7472735779,-1.6123815758,0.6128849955,-1.8355440942,-0.2416763682,-0.1739292179,1.3525947219,1.254743272,0.0786070115,1.3575522333,0.0588301494,0.244392167,-1.623226493,-1.5288629204,-0.1850351416,-0.0512958639,-0.1904119538,0.5980045826,-0.9822820873,1.6104617064,-0.146434464,-0.3184956959,2.0296336933,-2.2437210564,-1.0290691479,-1.9981072696,0.0133934967,-0.1083267233,0.1307794229,-1.2522786643,-0.17834232,1.6032419913,-0.3596917441,-1.5440285528,-1.49554832,1.5254961715,2.0618210107,-1.4832717671,0.05776479,1.0209832306,1.9096640567,-4.4090148181,-0.7549439338,0.4342447763,1.4693502169,1.0391585188,0.2502412775,-0.3124781406,0.6037664807,-1.4445976636,-1.3196918509,0.4288331762,-2.0087994278,2.4421403108,0.228231015,1.0023331787,0.8632710231,-1.4336548713,0.7384857858,-3.8012333573,0.0854047733,-2.2016445436,-1.251549075,-3.4491649505,0.2820934631,-0.4659005737,-2.9051389003,-3.957460804,0.2631996162,-1.9349035556,0.2055678541,-0.4157328474,0.8331043818,0.0697372467,-0.1050948404,-0.0790883305,0.5153856213,0.0747098388,1.9815132467,-0.6952869634,0.5441630972,1.418410517,-0.1344526607,1.0092227504,-1.2225348929,0.7525921537,0.9297808151,-1.1945278717,-0.9536486921,-1.824714238,0.7581917814,-0.2528113433,-0.9956827639,-2.9102930761,-0.5102653467,-0.0435940592,-0.0425122312,-1.2902126209,-0.1306433521,0.9063556656,-0.1598520762,-0.2605682401,-0.778093327,-1.6841204742,-1.0746750687,-1.9708969271,0.7436552319,-0.4016577199,-0.4528220236,-1.3211495326,0.5673537977,1.9603823366,0.3445011019,-0.3641130673,0.2905997526,-0.1940123679,0.8813684715,0.7377680297,0.4356955425,1.3703272568,0.4679219777,-0.6925630922,-1.0243000282,0.459357504,-0.0130359921,-0.2344772788,-0.2645307861,-0.2271155769,1.6399438446,0.2395535603,-1.7665499125,0.2355138929,-1.0235217037,1.5321626088,0.845626266,1.2860346225,0.8292651226,0.5716839597,1.0506112883,0.7345654168,3.783937805,0.0332691332,0.7655998402,-1.3095520016,0.0872125552,1.7780275934,0.5333263887,-0.0736131263,-0.8145246948,3.9325858993,-3.1462527739,-0.4767078402,1.6334242428,1.928270879,1.3195462087,-0.842679716,-0.6320615326,1.5128064765,-1.0279024142,-0.4702197201,-1.6385461559,0.8556204989,2.1522046326,0.0006948661,2.7769695755,-4.2670486542,-0.4852301593,-0.024294789,0.0056898398,-1.7139921714,3.0867780665,-1.5688647453,0.3274046031,0.333812022,-0.6287051007,-0.0111831784,1.8387742531,-0.9320220891,0.0346109382,0.7090587276,0.4628872571,1.9918066031,-0.0134680196,-3.7741807362,1.7737288839,0.6087204456,-0.1469978181,-1.9057285436,-0.611907834,-0.042908096,1.0914605878,-1.3212543629,-0.5409169522,-1.225503151,-0.1092213488,0.4224295471,0.3275437348,1.1926673906,3.867210932,2.9996408957,-0.7599365055,-0.6136992876,-0.1612839817,-1.8536467822,-0.5379690127,2.1302614594,1.1099375092,-1.8615086577,0.7109379375,2.1626004444,1.9083047864,1.657410276,1.6402410628,0.0312425269,-1.3841457689,-1.1935291482,2.0234077647,-0.1103193921,0.250976693,2.1256802099,0.8035367075,2.0526000004,0.133480415,-1.6671218461,-0.4520153188,1.0093617961,-0.5198858765,3.2065484166,0.8875104634,-0.229358666,-0.4414666081,-1.1329665974,4.6760330327,0.5518043895,-0.668511135,-0.4270225901,-1.2702706817,0.0159062759,-1.2683629844,-0.5947593366,-0.1979976795,-4.3498195137,0.3437166129,1.6332855345,1.093500578,-0.6195296338,0.1395004679,6.0595279422,-2.8928132668,-3.3228704881,0.6016180799,0.6160144818,0.3846729871,0.0878133566,0.1531655511,0.2626091591,-2.0298161714,-1.6934853846,0.2157642864,1.6335289353,-1.2526434274,0.9255023365,1.7067321163,-1.1553668264,-0.2189587711,-0.9860412061,0.3244014656,1.739083655,0.1839886268,-1.8772846529,-2.6529158719,0.1918159202,-2.1268145764,0.4632439821,-1.4719194769,0.6235797318,-2.2740102353,-0.8124618489,-1.987400797,-0.972830752,-0.4015154085,3.2297158806,-0.4899192483,0.5562763952,0.3235269803,1.5717522153,-1.9611632797,2.1855031889,2.3630216747,1.1409268026,-0.4343700014,1.7244340325,-3.2624518259,0.9967596387,-3.2759008424,-1.935837111,2.2816865002,-0.9693329982,1.2452639114,1.3606566988,0.2166829788,1.0083291365,1.2110859079,0.2993683388,2.3541441703,2.0445157193,-0.4381622553,-0.8170391295,-1.9325065649,-2.7593416363,-0.9307497189,-1.5999603335,2.2833611142,-0.5575503556,-1.432880746,0.4970066656,0.660625716,-0.4386537995,1.6071077561,-0.8638383164,-2.6437947389,-0.2196789917,-1.0476878376,0.7546907208,-0.7304792505,4.6882596951,-0.7497711548,-0.5002693166,-0.6763854085,-0.0402948763,0.0636607099,0.4125709961,0.0101236152,-0.1710342606,-0.7477811327,1.5890821294,-1.9935451395,-1.2029243056,-1.05631666,-0.1287431564,-1.5419003896,-0.764626977,-2.1274120839,-0.8295387555,0.9332986321,0.3758047242,-1.0375323688,1.0182213349,-0.7316168372,0.1677807625,0.8801577312,0.1930716394,-0.414568904,-1.4400983998,1.5327666687,0.3951869568,-0.5638309805,0.0598725776,-1.897493861,-1.1110778435,-0.3141049809,-4.2996290438,1.0557972748,-0.2453762221,-1.4030688718,-1.1453205274,3.2431934996,0.7573705409,-4.4623768887,0.338052679,-5.0022109201,-1.0407803975,0.0605371853,-1.519393263,-0.8440366771,0.9654557917,-2.6046923587,-0.0766149739,2.212239303,-1.869378029,-0.1168374357,0.8831163106,0.1934857524,-0.5198016671,0.9159339469,-1.2544811925,0.6613544724,0.2342135725,-2.7276395622,-0.4821163379,-1.4746739676,-1.1908297632,-0.3511516747,1.2590859193,-2.466772786,-0.4000027746,-3.4746423159,-0.0138571603,0.1297151754,0.4613950365,1.8273565855,0.0876901203,3.9187849301,0.8286569146,-1.6617814885,1.2127575696,1.0949619089,0.0007889094,2.9978626131,-2.9124490514,-1.0425245291,1.1652675086,-0.0788043257,0.2584616234,1.2917048233,-2.6004571169,-1.5522570317,-0.2749901023,0.1489831824,1.5818892324,0.9864087,-3.1795825368,1.5105697811,0.7746717311,-0.9385905671,-0.1061004649,-0.4866047815,4.0559597356,2.0040908869,-1.5441124932,1.2085772705,0.6333875928,1.8566047012,-3.3327696231,0.0947949684,1.5726850287,-0.0364666393,-5.6323518545,1.0570255063,-0.8339845144,0.2731801529,-3.6479132385,-0.8798846003,-1.5232506692,-2.2361252232,-0.8538302213,0.711585233,1.96763531,0.4748218348,-0.8954707188,0.4161066146,-1.1442826232,-0.0498986532,0.7313496904,-1.3516867533,-2.5033787599,-1.6754584113,-0.9636943817,0.4680470387,-0.1150387913,1.7497967601,-0.9121707537,2.9082015034,1.8025353771,-2.3428756462,0.4066967461,-1.9518804611,1.112467533,-0.0137901412,2.0281821049,-1.3556004924,1.7633826712,-0.8854253361,-2.0626154576,-2.4757262542,-1.7502255945,0.2457235524,0.427352109,-0.4229096584,1.5649209905,1.1754712193,1.5447470534,1.0963312229,1.2421805356,1.1248140537,0.9318903521,0.9945036474,0.9316849955,0.8230395229,0.8857774937,-1.3194548661,-1.9288213136,-0.5900386857,-0.3803606476,-1.5683370345,1.8458295899,1.0120861666,0.9987308594,-1.7358239253,0.2904527026,-0.4613389142,1.5529596191,1.1163943917,-2.1373818604,-0.0721758929,-0.2501551041,-0.3948726895,-0.0760299754,0.5411965775,-0.1570948602,-0.9697102524,-0.4301270347,-0.433560496,2.5254110368,1.5297375588,0.9170515948,1.012143956,-3.1383469702,-1.9366260343,-0.5930204124,-0.1785581796,-1.3864294935,1.2953148235,1.595812351,1.3457076875,-0.5218087773,1.5151043346,-1.8520772355,-0.6841641598,-0.7392225403,0.1591595351,-1.950465683,-1.5748190296,-0.358527451,-0.2057675293,-4.2379661641,-0.8216724587,-1.6937163954,-0.8702732294,-0.9549436763,1.3784386155,-2.5151826196,-1.1118000976,-0.6275000122,0.2678906129,-1.5975021043,-0.311443961,0.3483490941,-0.8832784076,2.7703937494,1.1332915599,0.3301241442,0.6803028576,-1.4573289948,1.4658175588,0.1568600017,-0.6657354978,-0.8680849157,0.5862811278,-0.4144603947,0.6874201762,0.1154566736,-1.0945568883,-0.9086985548,-1.2823839135,-3.8852284413,10.1083594311,1.5380211119,0.7356717081,0.912952282,-1.8612983932,0.3579593716,0.2542337752,1.0009685518,7.481683687,4.2500431787,-0.3509934989,-1.0180031085,0.3837442777,-0.9029553331,0.174173057,1.8728179766,-0.5999709431,-2.3308817928,1.6100109729,0.5430110095,0.2197600644,0.1802365459,-0.8286160848,0.478159134,-1.9514301543,0.0089603724,3.0889829613,0.1588662787,1.272154319,0.5147233097,-4.470786307,1.2784425785,-1.8311242147,-0.6070169011,0.562847551,-0.692657449,-0.1080815752,-0.0320655023,0.257221607,1.0876582219,3.1204621525,-0.3706400707,0.8523864035,2.557791801,-1.5678092807,0.7327916593,-2.4522249913,1.2910460943,-0.8523524348,4.6723621962,1.322256319,0.2035256837,1.1228378848,3.0937921687,1.5082133439,-0.5864640353,0.5716054657,-2.2539651345,-0.2186846559,0.5546857597,1.2324603088,0.5270748169,-1.3899207996,0.5058072825,0.8283422012,0.5258625608,-1.2363069429,0.7934871705,-1.8443463457,1.7767777417,0.0178837623,4.6650531338,0.7122928571,-2.801754363,0.8570354568,-1.5361051025,-2.1960960549,0.456113112,-2.2676544034,0.0086820411,-0.4439239787,1.8788961962,0.3803850816,-0.5892094032,2.112734668,-0.7981411273,-0.8217342499,3.5737241194,-9.4050390839,1.7233186387,-2.4170431003,0.7502617684,1.2646997238,-1.218439394,2.3946142297,-0.2879575897,-0.5882531308,-3.0719911882,2.9248158232,-0.7964639516,0.9759126317,-1.5169895622,3.1446561356,2.253448626,1.1988044997,1.0004468435,1.007593353,-3.6092409833,0.5938441887,-1.809240789,-0.6921072884,-0.2711056118,-1.2565950256,-0.7187533967,-0.5241214113,-1.5128853155,-1.1945832162,-2.2229622857,1.3758525714,-0.0899508372,1.61945852,-0.0025230594,3.3504287975,-0.07641055,-0.8471232503,-1.2938476658,0.6140545866,-2.1690084646,0.7560136802,1.1300071274,-0.1421262279,-0.563385974,0.2601603043,2.3690798119,-0.1509550882,6.099063989,0.6119500416,-0.2579486765,1.3880404151,2.4369476285,2.6225599449,2.1315667425,1.1325495237,2.2578663278,-1.1188869998,-1.8932736004,0.6727378019,-0.617220982,-1.1676328841,0.060804378,-0.3139252459,0.6846096621,0.5264087797,-0.5270107747,0.401913596,-1.2601648354,2.3017271907,-0.9193581434,1.2769261526,0.2617866415,0.4156743203,1.2255238283,0.0603231429,0.6625943317,1.5505166872,-2.6298189842,2.2205821877,-1.3336886066,0.6925881536,1.578573861,-0.0984926509,1.2484610123,1.8448577898,1.8656868708,0.1609855313,0.8633846753,0.7799310896,1.4714674287,2.1414600852,0.6957053135,1.5244965389,2.453952502,-0.0265873354,0.5709826052,1.926456944,-1.1050323706,-0.5452665395,0.4964554272,2.5885862499,0.2897711748,3.0827383892,-0.0097365873,-1.8028411595,-4.1140119815,-0.6481475665,-2.0739998548,3.755562313,-0.6401178458,0.2928512055,1.118846667,0.624796061,0.0834385942,-2.8527923769,-0.1012200333,2.6648594233,-2.3136394214,0.8120654572,-1.4807896588,0.1841201395,0.6604813427,0.3108565109,-1.0308751038,-0.0667030225,-0.4409663324,-0.1483879325,-0.4378068119,2.0105489878,-0.9166619468,-2.9464417251,0.3507557226,-1.4419015693,1.3422190453,0.1991204735,-0.288955516,-1.0230404375,0.402778191,2.4722671814,-3.2496595901,-2.3678189941,-2.4549221004,0.2420475816,-0.4662760281,-2.0765199184,-2.0131749906,1.3823379343,-4.9033907613,2.9268225773,-3.7744454933,-1.1647438415,-0.7137122898,0.4695292743,-4.2375449331,-1.7810425906,-4.6083806819,-1.3985584908,-1.6541755625,2.9954679491,-0.0936922823,2.5999717972,-1.5321863711,-0.2787400492,1.2621089825,0.1440970445,7.7947254859,-2.0269726806,-6.156841283,0.6440025663,-0.2066071382,1.3253038134,-0.1034416647,-2.6846781232,-0.6859974081,0.3377224299,0.9711914953,1.3743424718,0.0652606078,-0.5283347189,-0.4087518257,-0.7402505155,0.5063981349,-3.4661525923,1.4154594247,0.9956669452,0.4376417918,0.2775596399,-1.3718857909,4.6318397213,2.4727880713,-0.9234788342,-0.9479064482,-1.3117985595,-3.9926429377,0.9470201009,1.7278312729,2.2946384314,3.5667625998,-4.9320061556,-0.053481594,0.5308406286,-0.1893382413,1.946190287,-1.6343727365,1.2554043791,-1.1079396921,-0.7600694933,2.2528603001,-0.8743918049,0.2480578294,1.0806159983,-0.3548897635,0.7315836784,0.4118865055,-0.6970066064,2.8512619373,-2.1002172947,-0.4268698976,-0.08081886,-0.2284321149,1.8339086291,3.1209838147,2.9827619545,1.2277703161,-1.4080001254,0.376597829,-2.3324394955,0.9693666917,0.9253218286,0.1598583995,-0.6143961134,4.3161526426,-0.9403385055,-0.2734339166,0.8833199744,-0.6898732901,-0.5089926203,-0.1845677205,4.14255472,1.5700918387,-0.5859251617,-0.3320461886,-1.6160577739,0.9376818255,1.8563810187,-2.6509314685,0.4980477048,-2.7019616308,0.1050218226,-1.2161922886,-1.2132979964,0.925851187,0.3687810611,5.7158449733,0.2331308816,0.2537208025,-0.4628809227,1.5764753083,-1.9597909951,-2.6621767251,0.9882161305,-0.2009119133,1.2759204698,-0.4044223137,0.3780362462,0.3283281889,-0.4186577204,-1.1598588451,-2.3711623813,0.571014092,-0.5901372408,-0.4981537369,-1.1863690453,0.4660598306,-1.2564573165,-1.2083209834,-1.4563449581,1.485663934,0.1248206933,0.5924059922,1.5575288673,-1.3309036793,-1.6296763036,-0.3572270811,-1.4508643765,1.7942908522,-0.3451442906,-0.6345329351,-1.0555953809,1.1972044033,1.9591491941,-1.5051054364,1.5049834159,0.2201878461,2.0629576503,3.9265386374,1.5497126083,2.1967754903,-0.9705097038,-1.1172792118,0.6051911818,-0.0161868444,0.6413080758,0.0908533625,0.6343690242,-2.4041479031,1.4194955304,-0.5743905755,3.2076809232,2.2283009359,-0.4401150211,2.0216399129,-3.4433891689,-0.2224177109,0.7879418863,-0.5853148135,-0.6790271844,-1.0444301087,-0.3831692982,-0.3567448117,-0.9217618379,-0.754402406,0.2750361347,-0.6474629623,0.477953457,-1.2738319492,1.5012285521,1.8184596677,-0.4253143974,-0.2282680941,-0.9719664829,-1.8645472774,-0.7832045132,-1.1603896511,1.5447560363,0.1777059973,0.4066662304,0.0790886339,0.8411638912,1.6908842572,1.346754275,0.8052130587,1.2434475896,1.5895135454,0.8119817043,-0.8163335227,1.5410816332,0.6709413998,-0.1684112802,-1.4312961044,-0.8882306734,-1.3636679791,3.5156029122,0.6608272081,0.6527235818,0.6019675756,0.6554425689,2.6317431637,0.0121088875,0.5594791718,-0.1464264834,0.7802398565,-2.5236574705,1.5770165475,0.698576132,-0.3029238875,0.1262953216,-2.6689062739,0.5735717153,0.941582803,-0.7326949712,-0.3248983776,-0.1702990084,-0.6546720825,-0.1454090338,-1.9285705199,-0.4864097804,0.2457488527,-1.4751737065,-1.653531022,-0.4378858569,0.259785565,0.5939493247,0.5665108144,1.4311278408,-0.0498085481,-0.2872816938,0.8353280245,0.3569801097,-0.1254176481,-1.8080969271,-1.1672830886,-4.7702764049,0.8612543283,0.7922678609,0.1685378725,-0.3401130631,-0.1108822864,-1.9632064841,0.9243801913,-1.8310623404,0.5402323695,1.7277329401,-0.8079490178,0.866306792,0.6079481772,2.025136181,1.6346918471,-0.3152260193,1.2955341761,-2.7458215033,-2.2383057964,-0.1237862444,-1.5635981057,-1.3558804407,-0.9587873016,-1.2643850931,0.8938408836,-0.4970440031,-0.48239508,-1.3030520423,-0.0076947135,2.5391826846,1.6193846951,-0.9328076886,1.5584795276,-1.1538567743,-0.6788409699,3.1435929509,-1.3904882038,-0.0665107743,-0.5188129936,-2.0513641975,1.2003880027,0.1736793315,0.7288424866,1.9040821612,0.8692520433,-0.5480499314,-0.8681706439,-1.0797476598,-1.6301710646,-3.0110280154,2.497035556,0.7292830735,0.6793155776,-0.0944382751,-2.8393374967,1.9238887154,0.0156395544,1.104270649,0.8955780168,0.1981282921,0.5682355632,-0.1551411602,0.4711639683,0.0122171756,-0.8826160808,-0.8920655586,-0.3178969303,-1.8739255034,0.7347146979,-0.9954053851,0.5609687532,0.5906910339,2.3035093508,-1.2501983206,0.1181646287,0.7214989639,-3.2949112401,1.0043598764,0.4246771998,0.0494595795,0.0266876399,0.6195906054,1.1088485706,0.5907845469,1.0855697519,-0.1934613616,0.002332306,-0.3466766121,-0.5329344973,-1.5659333916,1.460601352,0.611515213,1.5223293239,0.6633102626,-3.384564028,-1.8552693229,2.9624848042,1.2217224939,-0.5511641977,-0.6744070263,-0.22294724,-4.6581275071,0.6124463131,-3.9099935507,1.5673425784,-1.6366696495,-1.0395285647,-4.6380951106,-0.8633990743,-3.6080748363,-0.5790003905,2.9283892266,-0.8412334917,-0.0915560839,0.0800784325,-0.3752278097,-2.342168192,0.0681723839,-0.5789297482,0.0877417645,-0.0394268051,-2.927818185,0.3004510121,0.2163224761,-0.3195448125,-0.1392448874,-0.3347060584,-1.4219964681,1.0399549193,-0.0616100321,0.5495490072,2.4451843184,-4.7860753611,1.1761862084,-0.54422805,1.4747431474,1.5976334382,-0.2057012683,-0.525603559,1.5671665926,0.4795314623,-1.7227542921,-0.9361454893,-1.6350309638,-0.2389536322,0.567404999,0.4959341967,-0.9108229299,-0.7926475419,-0.6258073553,-7.3935972747,-0.0376526689,0.427310478,6.4504733774,0.4633466424,-1.4785519789,-0.1035580677,-0.9883503985,0.4369555588,-1.0129830994,0.5550740128,-0.3893729589,-0.0338501085,0.2868640766,0.7157729787,-2.2552342973,0.8091918259,0.3045264915,-0.6839886826,-0.9449662894,-0.3062649698,1.1686393674,-1.5136881533,-0.2134075581,1.2778024535,-0.1481565793,-2.1690154333,0.1590554595,-0.3013232781,0.4631112348,1.3635341248,-0.7487238227,-2.2899507156,0.3448342433,0.4184337827,0.2047863848,-0.4143970814,0.9359728118,-0.685855371,-1.015779735,0.0956608116,0.5199253857,-1.5226482386,2.0501302153,0.759832464,2.2106266843,1.9642611391,0.2324106251,0.3769675155,0.9622103904,0.9964988263,2.1867641566,0.3960988896,-1.4631861639,-0.5791223137,-0.1537374589,0.3828100273,-0.4534691785,0.7485628995,0.0651611228,-0.8528810734,0.6171501758,-2.0722527361,-1.6316886905,-1.047732429,0.5867967805,1.522394987,1.5692780394,1.6121522364,-0.4453602146,1.1606993689,1.7002495083,0.4552313043,-0.7570473906,2.0782980652,0.8749829466,2.2806617194,-1.3410727455,-1.8878859823,0.4054057426,0.4888247159,-1.4012908231,1.7922810892,2.0769230732,1.2737808165,-2.3646135528,-0.5638617362,-1.81863547,-0.2360727061,-2.6569776302,-0.999862181,-2.3042397569,1.9577587629,-0.8681474527,-1.6406165221,0.1188912088,-0.5092525001,-1.8444712937,-3.4243322631,0.9644895541,-1.5533590317,-2.0647128884,-1.9715181623,1.1003914448,2.4352435973,0.5986859864,-0.8688781259,-1.0371580945,0.8263017451,0.6465447821,-0.711619431,-0.8053810155,2.0306008639,-0.6085309054,0.7997025143,-0.6930081792,0.0849199666,0.0793896644,-0.1375684746,0.3495132452,-0.1289831825,1.2262983538,-1.7327700429,0.3761280407,1.8361611402,1.1779128133,1.9475043178,-0.4732781595,0.5245965733,-1.00708583,-0.5771432894,0.8776658275,1.5801474625,0.6485818662,-0.5575359195,-3.3021400906,-2.5048181684,0.2541612521,0.8650414945,-0.0294759474,-1.1577986101,-0.9456927211,-2.9658506909,0.8755464248,0.0594456617,-1.3962056032,-0.0568757095,1.9151905661,0.0969830006,-1.8849809296,0.4891745742,1.0814317297,0.0037574798,1.9525380907,-1.2190122356,1.2941744996,1.2231729837,0.8687878391,-0.666298855,0.8999156181,0.570878251,-0.7861553234,-1.7356330606,-2.9396375003,-0.2513553592,0.1340598812,-0.4063312261,1.2669451937,3.1949501199,-0.2261173945,-0.4797223013,1.3145227601,-2.5241784102,-1.4152860931,0.0188093001,0.0457288688,0.042699621,-2.5823639745,-3.4195682059,-1.8038456899,-0.0599368808,0.5977964936,0.3553062544,-0.5755183096,1.489477386,-1.9034121113,1.6000101839,0.1587235742,0.4907771701,1.6569636188,1.0874443536,0.6403111949,-2.3394979842,0.1775697032,-1.6187329445,0.6987127927,0.2664049934,-1.0462657656,-0.9737802526,0.5497720523,1.096405399,-2.2649267268,0.1938149931,-0.3740457629,0.6204453873,-0.7462828876,0.4282658755,0.9432154313,0.3232131629,1.2609904746,-0.3525279583,-0.0092507403,1.4186907043,-1.2476477737,-1.7460773121,-1.1705309488,-0.6812014646,-0.4468447098,-2.8710477792,-2.3901433313,-1.130024604,-1.5323140332,0.2229950069,-1.9847644836,2.4365493234,0.7703002359,0.0174907181,0.2616946375,-0.810410837,-2.1935121224,-2.1520640099,-2.4412524466,0.6365803168,-1.0752868274,1.0045096862,-1.0297863265,-0.0824319967,1.6815173978,0.6355009911,0.4052145154,0.78293701,-1.1153729386,0.3569736897,0.5576914905,1.7712243409,0.931241557,2.0543853839,-1.0811663716,0.4021303885,-0.7195401282,-2.5739223947,1.3504462595,4.0670863057,-0.8448905079,1.0827901637,-7.175223291,-2.1612553253,5.7684260309,-1.0424573784,1.7173025354,-0.7230888656,-2.9433660207,0.7826178929,-0.039181298,1.1734104781,1.6596406338,1.5202879452,0.4312505378,0.8589999722,3.6250601599,2.8753841049,-1.7674533586,-0.4579153211,-0.4213471958,-1.3266572817,-0.6019911515,-2.5367834678,0.4815134811,1.6060674426,0.1489125244,1.0705115552,-0.0618888111,0.1910915078,-1.0555147389,-1.5617167193,-1.5116608235,-1.7613207476,-1.4816623035,-0.116779639,-1.4617874815,0.3966146189,2.6063067207,1.3431107069,-0.3995236894,0.9689113844,0.9847802784,3.4623245948,-1.2519545408,-1.7824629883,-0.1765226687,-0.2837292458,3.4119762198,0.5560514866,0.3646052231,4.7095874519,-0.5418654954,0.1752386514,0.3830092386,2.7151559522,-0.8552019203,1.3092753549,-0.53278171,-0.588602025,0.7168305868,4.6312442982,0.6430681586,-0.005135578,-0.5188777916,-4.3066022256,1.0791585118,-3.7768454017,-0.743900975,-1.0123031913,-0.6897071416,-1.0982581311,0.0558575888,4.5767722914,0.8377608203,-0.3021960746,0.0869865439,-1.7043073087,0.707440937,-2.2305416697,-1.1367903818,4.4003492938,-0.7420056473,-1.4118940892,0.7117982162,-2.3579456624,-3.2961175853,2.6699407392,6.4563508473,0.4383824149,1.3281532523,-0.0210489899,1.4284574326,3.1497926759,-0.4010037283,2.1060940884,-1.3731589328,0.6595674776,-0.8124848489,1.4579401521,0.7731280668,0.2125981467,0.41635219,-0.1931619399,-0.6424993172,4.8868278296,-1.9066068132,0.2882812814,0.278143862,0.6946982503,-0.9915014287,-0.0591417639,0.9239220375,0.7373446837,-0.0309354345,2.8145858501,1.7584204836,1.6853907546,-0.6979044074,-0.7306780945,-1.8093694803,0.4981636544,0.2302748028,1.0367455001,-0.5316316364,0.54953027,-0.83788326,1.9371184532,-0.8510937547,1.55056307,-1.3727822699,-0.835920262,1.0842403317,0.5440266274,1.0325596301,4.1807069657,-1.2373664358,0.8761994362,-1.3524183178,0.5289352276,-0.027345497,-3.2914981404,-1.7545822645,0.2664831163,-0.2180700694,0.2948328274,0.3104702428,0.40036065,0.2180692867,3.8589738953,1.3343741863,0.7381758886,0.5238021258,-0.6589282101,1.6326030945,1.9159688986,-1.879261703,0.0815128696,-0.4117657562,-2.4052169374,-0.8934174496,-0.5175833016,-0.8644758433,-0.9308894286,-1.4254043663,-3.3121429466,-0.9622191939,0.3816939966,0.0957198932,-2.5798477458,-0.9408962529,-1.5815289509,-0.4405010898,-1.6470472221,-0.5910291487,-0.3447188411,-0.9258084544,-5.7540386234,0.6551003925,-1.565784689,0.060432286,1.2766687,-1.275297134,1.3285742235,-3.0745877414,0.701274222,-1.0901211516,1.7083286006,-0.8494265108,-0.4642543476,1.4018103596,0.2848273828,-0.9958918306,-3.5843008954,1.7648888117,-0.726944966,1.0849591595,0.385613016,0.2800187794,-1.4026898352,3.3066897696,-1.1747453547,1.1743694166,-0.8327512558,2.2173958426,0.5658300431,0.6566041406,-0.09223048,-0.8583537191,-0.4162701859,1.0363704326,-0.4800151627,4.201733051,-0.3340239139,-1.4773505499,0.8531481052,-4.9510130095,-0.0704312413,4.4744936647,-2.4283338391,-3.9885982914,0.617967328,1.0630575097,0.906664636,-0.1353694383,-0.7132417005,-3.9510071911,0.3261463898,-0.4918072835,0.350402953,-1.8389927443,3.7759027995,-0.3070158543,-0.1556178005,-1.1408796896,-1.2616378221,-0.0675709421,-0.5216107472,-1.4042418275,0.8408203992,-0.7433221738,0.4054075839,-0.8356664192,0.4235676292,-0.9562586493,0.6441985944,-2.0058798784,-0.4029833617,1.6206287744,0.3239623243,1.9180813746,-1.805663784,1.9541718942,0.9706820692,-1.6670357269,-0.1742797338,-0.7606835727,2.5642256266,1.8439565589,-1.2576420804,-1.0793323322,-0.8484790826,-1.2287112157,-0.7119665353,-1.3946119406,0.7955678497,0.1189852087,-0.1103449998,1.4088220637,0.1392405106,-1.1498164141,-1.3081142189,-1.1560279985,2.5474361788,0.9700542246,-1.0173684122,0.2338865743,2.4194072882,1.2071708056,0.7523663888,1.5401025647,-0.248860078,0.1832416848,1.8245167415,-2.2084885063,1.3425825858,0.963129366,-0.2187531689,-1.6086066473,-0.2306905934,1.4168660759,-3.7414158014,2.5450253959,-1.1925518643,-0.049745393,-1.2985356416,-1.248815076,-0.8521744991,1.1623851362,0.1102812848,0.2808563863,3.5234742556,-1.5696269566,1.1070385501,-0.190180512,0.5267493691,1.4087758844,0.1895020874,0.0684696852,0.53436522,-0.4565597377,-0.5359675546,1.3005876621,-0.3571344871,0.7285498815,-0.4054455817,4.6473485702,0.2163620516,-0.6934360408,0.5531755052,-0.0082610128,0.3200238745,0.6538157847,-0.5377125329,-1.2406532103,-0.2828128562,1.049961304,-0.3197306259,-0.9992383396,-0.2621543448,0.3977126042,0.9669321418,-3.0790919541,-2.4241840868,0.9439483804,0.6987142313,0.9092957005,-1.2756018162,-0.4609446462,-0.8604273096,0.2326830765,0.2882559495,-0.1882581419,-1.6310909852,0.3971809411,-0.3223931955,-1.7691760928,-0.4043919151,-1.7435153384,1.3417751884,-0.581694738,-1.39393706,1.9649052153,0.3633643327,1.9808710767,-0.12211249,1.6906211257,1.8292652867,2.5168410789,-0.9525145466,0.9778742007,-0.6872306436,0.9674925007,-1.5427257892,-2.1279897885,-0.8199168725,-0.6748286445,3.768043119,0.8480339931,0.8388099713,2.706420792,-1.7833115459,0.2722493535,0.5821986302,0.6220768959,-0.0513803275,-1.0649733703,-1.0206251621,-0.22361689,-1.2604183189,-0.5321938692,0.1048942477,-0.8851856335,-1.42555455,1.8054227396,-0.8403609578,2.4207588955,2.6653855704,-0.3752929855,-0.7330689477,1.8717166611,0.5266232723,1.0452637239,-0.3535774566,1.6831447786,0.045735574,-0.1047940776,0.8836351681,0.4321877411,2.4674234794,3.0156858836,-1.1199604304,-0.7360286523,0.3808379651,-0.5302804912,0.9123704861,-0.7065282534,-1.1474071616,0.0552942146,2.0025345437,-4.812740458,-1.1108567796,-0.2272381715,1.242413257,0.2907192485,-1.4794499172,-0.4833299343,-0.7481866028,0.1108662161,-1.3447866625,-0.8252037954,0.0879680124,-0.5940115137,0.714617662,0.6447790098,1.2824196438,-0.3467004292,-0.7611074252,-0.7042608756,-1.0692275277,2.4045897004,-2.5742384655,0.5954152191,1.8672916589,-0.6616284606,-2.5134707838,-1.5492185942,-0.2457799766,0.8329198784,0.2111832782,-0.1747251986,0.1285541636,0.6849196321,0.2380532259,0.2573651863,-1.4091238274,-1.2284223557,-0.197601209,4.5187013332,-2.9932865956,0.7675135022,0.1172751738,-0.3707610649,-3.2935774421,1.2055294836,-0.8558052372,1.0153866608,1.0689248132,0.4053198961,0.9563912914,-0.5868961948,-0.7153992223,0.5394491064,1.5700122358,0.6146096226,-0.0691982841,-0.1361703252,1.9361445636,1.0067135388,-1.7785016692,0.5439436767,0.1289049042,-0.5185701564,0.8896343591,-1.1996379835,0.6229611057,-0.2288348458,-0.8824705677,-0.1311106411,-0.7079743711,-0.458851387,-0.6403414045,0.6331609325,-0.1315154772,0.3332407883,-2.0845279035,-2.3745014013,1.2976039595,1.9317776912,-0.2610200721,0.8499679522,0.3146378244,1.5969588675,0.6311694815,-0.8894192438,-0.2959266019,-2.3832904089,-0.8896696839,1.072688672,-0.0686039282,-0.7986875494,0.2574685303,-1.550574245,1.5314672054,-0.4381058468,0.0564068362,1.2049053524,-2.0276132832,-1.804886917,-1.9022692135,1.1628306751,-0.1609039562,2.6290525538,2.7476674348,2.629742905,-0.5398586238,-0.7571718326,-0.5485530102,0.3964891736
