encog,BasicNetwork,java,3.4.0,1,1561964456386
[BASIC]
[BASIC:PARAMS]
[BASIC:NETWORK]
beginTraining=0
connectionLimit=0
contextTargetOffset=0,0,0,0,0
contextTargetSize=0,0,0,0,0
endTraining=4
hasContext=f
inputCount=21
layerCounts=4,49,67,49,22
layerFeedCounts=3,48,66,48,21
layerContextCount=0,0,0,0,0
layerIndex=0,4,53,120,169
output=0,0,0,1,0,0,0,0,0,0,0,0,0,0,0,0,0,0,0,0,0,0,0,0,0,0,0,0,0,0,0,0,0,0,0,0,0,0,0,0,0,0,0,0,0,0,0,0,0,0,0,0,1,0,0,0,0,0,0,0,0,0,0,0,0,0,0,0,0,0,0,0,0,0,0,0,0,0,0,0,0,0,0,0,0,0,0,0,0,0,0,0,0,0,0,0,0,0,0,0,0,0,0,0,0,0,0,0,0,0,0,0,0,0,0,0,0,0,0,1,0,0,0,0,0,0,0,0,0,0,0,0,0,0,0,0,0,0,0,0,0,0,0,0,0,0,0,0,0,0,0,0,0,0,0,0,0,0,0,0,0,0,0,0,0,0,0,0,1,0,0,0,0,0,0,0,0,0,0,0,0,0,0,0,0,0,0,0,0,0,1
outputCount=3
weightIndex=0,147,3363,6597,7653
weights=##0
##double#7653
   -0.8851416455,0.1013171242,-0.679621486,0.8107174614,0.6065427149,-0.501806448,-0.2566470372,0.3985102576,0.7436276422,-0.9700944768,0.0005375132,-0.2070920677,0.0310574061,-0.1497359732,0.2900637441,-0.5194083842,-0.4558337238,-0.3452838655,-0.8911308459,-0.4325643559,0.029848808,0.3264568147,-0.0770930311,-0.5251364243,-0.3445304514,-0.5118081836,-0.3258209673,-0.5940588313,-0.7183758732,-0.2347570672,0.8388461381,0.0675413194,0.9190284619,-0.4326684189,-0.4572303931,-0.8243296737,-1.1895575343,0.1251376113,0.4627874081,-0.7462114984,0.3996123114,0.8040559036,0.6276362907,-0.4081763494,1.138048172,-0.6866987085,-0.3051262255,0.2445553627,-0.03734049,-0.0103616525,-0.2776401666,0.0296420764,0.0319165921,0.2333387206,0.0429342142,-0.5101483199,-0.2568961834,0.0293706791,-0.7999628963,-0.0857610768,-0.0236397614,0.0170183875,-0.0687452138,0.0355456932,-0.0661597804,0.0688164318,-0.0116688638,0.0900129788,0.4171795901,0.6516619637,0.1311319861,0.0062706228,0.1905548806,0.0962463507,0.0672536463,0.1847926556,0.0005211298,0.3924985245,-0.0511584244,-0.900530942,1.3094823049,-0.1808776879,0.0723757455,0.0064336846,0.1714871425,0.4019553059,-0.2462914374,-0.001638558,0.3545753062,-0.0053241309,0.9633708314,-0.4114279266,-0.6366602777,0.4008255737,0.1691398623,0.0233356681,0.1329283209,-0.8121784396,-0.1954121249,-0.0518444907,0.1685122579,-0.3558380529,-0.1354074731,-0.1055420412,-0.1249724027,0.1351754926,-0.2457560178,0.3503590656,0.4026667283,-0.3866412272,-0.1824863878,-0.3763876477,-0.1397905271,-0.1120592119,-0.1860319332,0.7289217395,0.0154675001,-0.2718824134,0.9937644003,0.2891430233,-0.462027357,-1.4683138742,-0.3867143267,-0.1287300529,-0.2379254287,0.0843843531,0.6203163761,-0.1879997773,-0.5518895625,-0.3291198119,-0.0304340446,0.168714639,-0.0042616708,0.3181117601,-0.1184621422,-0.4355108894,0.1697455248,-0.2518158808,-0.0244788593,0.5637968702,-0.3859723328,-0.7855981123,0.0576238267,0.0692761851,0.0361871038,0.0063054247,0.5583654204,0.0907831328,3.3002548918,0.2499804088,-0.8681436646,-0.0057196215,-0.2774415674,0.3083533426,-1.0474648571,1.7702282604,1.4006472666,0.6439236206,-0.8264873105,-0.2381435403,-5.7818101728,1.8583825038,3.9128058296,-0.2572101777,-1.2652366263,-0.6394105833,1.3092553442,-1.7538214926,2.4306797979,0.2993483375,1.6502539814,0.3959410109,1.6443452117,0.1766706408,-0.1431506387,-0.5575226861,-0.7321317283,-1.6435702947,-0.4598649867,1.4684964573,-0.666679125,4.72016431,-1.3494958513,-0.5845178751,-0.6842099066,-1.6345089429,0.6463333456,-3.1371019336,0.9034997385,2.4376877567,0.0675088531,0.1709680779,-0.8593559341,1.17343086,1.1109735054,-1.4279303954,-1.9825271388,0.1746394343,0.1051450988,-2.3908927131,-1.3976730228,-0.529445487,1.1747507849,1.6632390129,1.0713936918,0.7294369738,-0.225905074,-2.1608577953,1.6894824615,1.2174896603,1.3842670096,-1.707426729,0.7484068231,-0.9974911752,1.8701040466,0.0585143524,0.3225774881,1.3864526559,0.382008996,-1.8170905473,2.6941398046,1.4480679414,1.0785523508,0.5220652641,-1.4911108391,-1.5082742576,-1.6905525633,2.0132040185,6.8213284301,0.1223316347,2.9138432702,-1.669910324,0.4679885496,2.8228720892,-2.4602188104,-0.8243900111,2.1282772406,-2.9747869025,-0.0372414475,-0.4547662419,2.3035322777,3.3717185541,-0.9120136108,0.539863238,0.0980695055,-1.8174786002,1.1999255334,-0.5901449534,0.5415754566,0.5165850222,0.1493033756,-0.8978099478,2.0064713014,-6.5105634766,-1.3760402904,-0.2620414125,-1.1407375436,-1.1296797742,0.146831414,0.044598147,0.2165366205,-3.1951897534,-1.4380551294,-1.8875266587,-3.583272515,0.2152519587,-1.2390108616,-0.9983655542,-0.6968929902,-7.3861316294,-1.4106754963,0.1884347663,3.4796154801,5.2565283192,0.9431767525,0.518993552,0.9127558993,-0.7247028998,1.635751772,0.4971618192,0.218241998,-0.4897893645,0.819370983,-2.5014372016,-0.0184439299,0.5308572685,3.6242859583,-0.2896889943,4.9838982563,0.3873924184,0.9424098919,-2.3287789892,-0.5817894363,-2.7069679131,-8.4525754337,0.0780838003,-1.9912291672,-0.3310895707,0.6123111963,0.4995073118,-3.8001848523,-0.6985434753,-3.138341506,1.2369129159,1.406077629,-1.482056116,-0.1742312609,-0.7405603057,2.1124929347,0.299755096,-3.2092716718,-3.942247485,2.6876240029,1.2134852239,0.7291335778,-0.6544831821,0.5656561211,-0.5755855771,9.6738387979,-0.4379337867,-3.332031223,2.4190480392,-0.0368416246,1.8716399229,1.5696597878,1.8642379061,-1.8937876602,-0.8427527156,1.9715346767,-1.7395627572,-0.5357452609,-0.3519095569,-7.373451969,-12.1716952394,0.3829854185,1.7103709626,-0.0876877977,4.4754912757,-1.057583528,5.7898390037,0.5066396909,-2.0762154457,3.2002538567,0.0699731302,-4.8846834575,1.3961344913,1.5420665319,0.0071205715,1.5104033628,0.2379604837,0.9771856751,-1.1598522104,2.0034175053,-1.3713950951,3.6264864322,2.2000172109,2.3470902198,-0.7893394053,2.6439790228,-2.2047422938,-1.9814316536,3.6153791289,2.4058723655,2.3120347877,1.1567930597,-1.9097326592,-0.4406687975,2.7508943791,-0.6561258004,2.3624297279,-1.7961071896,-1.3720199424,-0.5596551878,-0.7005753792,-1.6953425741,1.5207360684,0.8482033703,0.417320309,0.5175769232,-2.3381555326,1.8258126352,2.4141112571,-0.0390049565,-0.0327151973,2.0624658531,0.5907913611,-0.758498519,-0.9201330663,-1.3506132852,-0.4560174373,-0.3043374012,0.2332886541,-1.959337743,0.0124995358,-1.7577209379,-2.6106186159,-0.0377968589,0.5812809647,-0.585161864,0.1397803366,-1.8780827248,-0.3847220632,0.8302406402,-0.9706614217,-1.8483980645,0.5704291325,4.2551200179,-2.8616101132,0.9225057422,-3.2229414722,-0.1839266043,-0.1779375799,-0.3687825094,-1.126626044,-0.153597751,-1.8225292756,-2.0021012702,-1.4383159281,-0.0430589866,-4.9653262956,2.0894981576,0.5808311743,2.1007619235,2.0759143226,-1.793902538,1.8596809498,0.8824996655,2.1767594638,0.0069336167,1.405591651,4.2094745693,-2.0148086657,2.6622074821,1.0387077542,-2.5613742573,-0.1474142862,7.1959419951,-1.5102424478,2.075868397,4.4337884272,-0.9471552482,1.4375192177,2.402256173,-2.4377037927,3.7214137931,0.0850009032,-1.8589073675,-0.6941465639,-0.4384846031,-1.4277563776,-1.766378312,1.0820839317,0.5552634282,-0.2073912022,1.5893333603,0.6378874655,-0.7026589348,0.3546421168,-0.012681101,0.5907232289,3.1322402462,1.4814939471,-1.0858858176,-1.3336947123,3.5385531348,-4.4446213968,7.3182471794,3.2484943699,-2.3373705063,2.3275393004,0.3119660595,-8.7476946636,13.652829742,5.2824921808,5.0951355567,1.0516504953,0.5951821846,7.8375012425,2.4499343943,0.1796603236,6.0968077058,2.3921451028,0.4597247989,-1.142450219,-0.4066826809,-1.74479996,-0.7723088121,-0.9361106078,-0.0386462478,0.0127412348,-0.7511922568,-0.8274494368,-3.7026115236,2.0692568489,1.9480017052,1.2680378923,0.2468190479,-1.4171548285,0.0068723454,0.3417155683,1.1360084663,-0.5809993187,1.5433682637,-0.582678213,-2.9393558098,1.4787969735,-0.1692269961,-1.3458740187,2.2251025878,2.2343333187,-0.4885360237,0.9115172304,-0.1063483059,0.2463299601,-2.1728149147,-1.2925291719,0.5990910805,0.4103474001,-0.9399265057,-4.2184932694,1.7514058066,0.8661482887,0.3297641974,1.2286811316,1.0803474474,-0.3539576413,-1.0709571386,-0.3879133088,0.2923475212,-0.9656524603,-0.7290610489,4.390654548,-0.9316597514,-3.9833734559,1.741010093,0.1768925988,1.6317258433,-0.944639941,-0.995336369,1.493060157,-0.523732636,-2.4855331885,0.5420348043,-1.9255795379,0.8093341874,1.11679095,-1.479887094,-2.309405954,-0.7866528262,0.3688568434,0.1371112783,0.4308400391,0.4723705652,1.0545025825,1.3574163491,0.69250572,-1.1497893705,0.4680485829,-0.0039502156,2.438814963,0.4688011515,0.6943378604,2.6690500184,-2.2142260837,-0.2467849887,-1.7980911514,-0.8310962669,0.7323668921,1.0548577949,-1.4759567861,-0.5661023432,0.4902526551,-1.6963861095,-0.819205521,-0.4933253266,0.7993805079,-0.1317908065,0.4153942238,0.5849418582,-0.9293022465,-0.9274114643,0.2348982457,0.1392833831,0.2701893492,-0.1336956758,1.0482927663,-0.3577876423,0.1740907931,-0.9233298633,0.8552577297,0.3446447188,1.8212282344,0.6245664899,-1.4253946696,-0.1616130435,1.9754377755,-2.1688869488,-2.5303987341,-1.4886100446,-0.5046260962,0.2019655813,-1.286770118,-0.1400911717,-0.0056980281,-0.3708445843,-0.7042318457,1.5348452704,0.1164187246,-0.005637062,0.0555439242,1.6157842045,0.4805311405,4.8174740113,-0.0405681614,-1.2969008715,-0.0501553435,-3.5912712133,-0.517738835,-0.7664791534,0.4340726225,0.586798016,0.2784645879,-0.1586880283,-2.1918512013,0.7346372074,0.3527198558,-2.3249204664,-8.7760954142,-1.1274400152,-3.3390536883,1.3196912231,-6.6301675241,2.149591695,1.7644425877,0.0866810452,3.8661681717,-1.6326882164,-0.8596493229,0.5081574803,0.3805418029,-2.0101539805,1.1013092093,-1.0518860188,3.294493615,0.2367537619,-2.1999486319,-1.1826583243,-1.5089764765,3.3102848612,9.8414754525,2.2871196646,-4.8803558017,0.1205211238,8.7353378831,-0.3008127888,-3.7647755563,0.6363944926,0.6315019766,-2.3320087778,1.486618054,9.6694981799,-2.0000483583,2.5012354403,-0.3684008484,1.3228473948,3.0317969136,-1.9487637916,-1.3623454228,-2.5857761576,0.1016594401,-0.5766314992,0.0166500221,2.0528859553,2.1545921954,-1.9325568101,0.1592294723,-4.09051578,0.9295506656,0.329850566,-3.72284567,6.180618385,-0.3225210114,-0.1090951734,-4.4113924625,0.1777791703,14.3551379761,-1.2703566325,6.1349195251,2.2714925899,-0.6267528121,3.8268398404,0.6707632993,-0.4106608798,1.4424066456,0.0738838877,6.0571093883,-0.2704481621,-3.1059094716,0.1990183752,5.3933014994,-6.5572185461,1.5812350341,-0.6282613039,-1.8129290407,-2.0998834188,-0.7496348244,-5.8015967742,3.4782523495,-4.827578145,-1.6206626655,-3.3801390054,4.7265019236,4.1831272993,-3.740197346,-0.1605698792,0.4165308136,0.3294500105,2.5498023247,-2.1357947734,0.6155603765,-2.9471316551,0.6822451816,4.117065911,1.665295136,2.1092139427,-3.2865559513,-2.1045896053,-0.2324743457,0.7649940145,-0.0117212434,-2.2257455786,-3.1134939987,3.7513774031,9.3208205319,1.6767907939,6.4412199248,-0.0526033676,2.72247378,-2.0116787049,6.0094670725,2.7134713826,-18.9156875686,-0.7521783752,3.1144719233,-0.8966077129,-4.5822543095,8.3505420081,-2.7912672184,-0.8197571273,1.3471691438,-0.3304212587,-0.3593595498,-0.1934756197,-0.8229550521,-3.2287104064,-1.4610436837,-1.1941476512,0.2238498273,0.6579802544,1.4977730468,-0.3158810691,-1.1713882816,0.9539279163,1.1568782806,-2.4648079099,0.0299590754,0.2057785345,-0.5385334928,0.0330844458,-0.6386752745,-1.8071909814,-1.4768707625,3.356889791,0.4163135319,1.3283086986,-0.394309369,-0.1129288749,0.5387531126,-0.5983130652,-0.3984845612,-0.8884419128,0.9525240321,0.478367665,-0.2787769163,-0.7291897097,-0.9505846608,-0.0333090466,-0.3580308249,-0.4915568296,0.8169075686,4.5003518283,-0.5645053851,-0.4807412856,0.9365170497,2.5788592878,-0.3693339959,1.1103625736,-1.4312045053,0.5970903851,2.2025099034,-0.9776575715,-1.1319870885,0.9092461198,0.0143040914,0.220664353,0.1895805986,-0.2910791611,-0.6606551714,1.4547180261,-2.3183344654,-2.1837003029,1.2795284215,-1.2758430159,-3.1666160119,0.6863684215,1.4571949672,-1.0490488253,1.6674707626,-0.5188912794,0.5040694082,-0.2937966592,-4.0484280421,0.5810297873,0.4656379119,-2.4295112394,-0.0003637064,-0.6864686583,-2.1143049422,0.554295318,-2.4578999301,-0.5687817696,1.1832895899,-0.5700838369,-0.8054117086,-1.311867136,0.6723530923,0.2221662646,0.4914966988,2.3561932018,0.6151910381,0.1328541321,0.7916011317,1.823367679,0.4771491507,-1.9792329687,0.5831178965,1.9092917548,0.1110983232,0.0664696722,0.2555137018,2.0496587951,-0.6860180986,1.9037188428,-0.1876080574,-1.0802268576,2.9119821318,-0.5606500396,0.5702734635,-0.5025499939,-0.0588662947,2.5910026661,-2.1242168163,-0.8575851132,0.8387214202,0.6743738755,-1.6777361123,3.630828972,-0.3735907518,-1.6283375752,-2.0152893582,-0.5710439822,0.2846497113,0.846346562,0.8463634602,1.1116172566,0.00551433,0.4671186672,4.7109356198,-0.3988726197,-0.0887666786,-1.4530161778,-0.5943808452,-3.0670028459,-0.8507784649,-2.4834405017,-1.0784805939,-0.6453302284,-0.9834762416,-2.7231346725,1.8910788316,-1.0973822324,-0.4861607224,4.7039613069,-1.0110014423,-1.2075254259,3.7199607669,1.0598357268,1.9071496384,-3.3871652226,-2.0194760468,2.4289431443,4.9192951364,-0.5594445989,-0.5194033213,1.0444208601,-0.9218280767,-0.3583615375,-0.6824026246,-0.1320549716,-0.9512791787,2.2224172304,2.0665322312,-0.0833589718,-1.5884280148,-0.0654710444,0.5980272693,3.0740514024,-3.9978991508,-1.3457033499,0.4037603727,-0.1431951351,-0.2510505946,0.349080706,3.2006321963,-1.9279652412,-2.9613767776,-0.657114412,-0.8010994228,0.1344445181,-0.4230481484,1.3410341446,-0.0752474919,-1.2693876422,7.3392036908,0.4394983826,2.2400561602,-4.273620899,-0.1818845446,1.2412228812,-5.3579403224,-0.8280625739,-7.3517749698,2.581960829,-0.1916675739,-1.1714617238,0.3130132255,4.0593861246,-3.3603319297,-0.7080784234,-0.3167022594,-0.0133744347,3.3471233991,0.7003589927,0.2899495712,3.2088323418,2.4273881812,-1.2761123672,-1.27151534,-1.2075852234,7.0742991057,0.3127856302,-1.4003845978,-2.8281376798,-2.499300059,-3.373486788,-1.5449073192,2.4525059495,-4.2734552621,0.9780575848,-0.0015800646,1.1542281285,-1.9413719647,1.795186267,-0.6204628589,4.7036184246,-1.0388959842,0.8997862958,-0.5537495025,1.0847731012,-0.7275336861,1.1727351123,0.6941423635,6.4932272368,-1.2663446443,1.6909440518,0.599052126,1.0300280633,1.7966764278,5.2271571595,-2.8331837663,-0.9858255615,-1.0118571379,-0.2030707873,-1.7023097008,1.0517873215,-1.6445310624,0.7399754681,-0.3540071189,-0.6625747398,0.3823154782,-1.4456746595,2.7609688233,-0.8977948097,-2.6055516665,-0.8491439559,-2.7558508154,1.4898345781,-1.6927549132,0.2834648094,13.2655319043,3.139779014,0.3631393276,-0.6558641477,-0.388612355,2.1858496354,6.5065380772,-1.0344828943,-0.1120475465,3.2167172786,3.3207427699,-1.5690522756,-0.4864695391,-6.5072666446,-1.3997395927,2.1643572105,0.7063717354,0.6906041343,0.7429808128,-2.0214657412,-3.5410576788,-1.5236348019,0.9363869224,0.9727305113,-2.950026339,0.2173317537,-0.3204128827,-2.0139013979,0.0084767935,-1.7035777237,0.6714962385,2.6392402909,0.9087620789,-2.4875924051,1.6763476123,-0.3395526688,0.6362710089,-0.4981298165,-0.1227435328,-0.6908135473,2.2821719186,-0.7862768772,0.5416844643,1.2882415289,-0.3810010255,-0.7366548543,1.6428506796,-5.0617222668,-0.8698108588,0.3128325413,-0.7796629143,0.4177895466,0.7149986732,-2.3031216407,-0.4425041479,1.3063377924,5.4538063847,0.1960297885,0.2089865884,-0.7400860774,-0.9878011683,-0.349381531,0.2162388644,-0.9950147296,0.9626774318,-0.2680377998,0.6913019671,0.740340284,-0.1129129633,0.6774557769,-0.0371637304,-0.6198768379,0.0882903741,4.3463857299,1.917765496,-1.495431549,1.8656714493,-0.5785664711,1.3041332779,1.6993168231,-4.4279791222,5.1120356179,-0.690354346,0.3013933918,-0.5694888533,-0.8630096122,0.8904418965,0.8524534949,-0.0607905751,1.0912798986,0.3753566835,1.1485637643,2.7299213342,-1.5876661064,0.8749125522,-4.4210546463,2.133001338,1.9771783121,-0.886784152,1.614887878,2.20251169,-0.1050920376,-1.6974134404,-0.6548690427,-1.3247350391,0.5759292822,-0.524796747,-7.9250668742,-0.2120953666,-2.2500116942,-0.3595283971,1.725831643,0.3067493942,1.2285039742,-0.8209554494,3.160209982,-0.720470705,1.7306256398,1.3273094561,-1.5576135315,0.9190538073,1.5739166886,1.3950355881,0.9208906979,-0.23983177,8.2715873555,-1.2807595117,0.6231343515,0.7053295917,-1.1839736733,4.6784190034,-1.582864983,-1.0863424525,0.0276032792,-0.2138231665,0.5878811184,13.159241,-0.6657489192,-2.9968808468,1.1182023809,-0.510483732,-12.7763910717,0.4311392649,0.3627007605,-0.6509856281,1.0582324203,-0.2101181978,-1.4954765336,-1.076388757,3.3884747003,-3.6877568966,1.9789643432,1.1005222778,-9.8661106559,-1.0707006757,-1.1417731617,0.0555006834,-2.6690161579,3.7433894874,-4.8957274067,-0.0330880285,-1.3338064316,1.6376120985,-1.5706566574,12.5265634387,-0.0201680693,4.8842147593,2.0648409882,-0.5850407993,2.1026833539,-1.5358477765,5.5893822406,-0.5423458161,0.853755247,0.4002858671,-0.265483469,-0.7234120333,-0.2104097581,0.2041625513,0.3327345702,-12.9062130941,0.193299448,0.3392404427,0.4185619446,-1.911195049,-2.2890630492,-0.451280133,-0.6660622783,-1.6099838787,4.2301266079,5.2717550112,0.6552854878,3.4642600913,5.7730618171,-4.2193083471,-2.3512002863,-0.9044209738,-0.9932675627,-2.2667947068,4.566821626,6.5032119782,-2.0990347105,-0.3632071711,-1.7755621175,-0.3428456018,-0.9042806627,0.6428024048,3.5636072104,1.2405846892,-1.9011827575,0.3678313599,-1.8084243206,0.8953772468,1.6103664484,-1.244601285,0.8576739025,-0.0424840291,0.2108002995,2.1749173415,-0.2051367099,2.4369187987,-1.9532778804,0.2892698735,-0.4772160651,-0.7998698247,2.2401181094,0.8023750978,0.9470872895,-1.3415631337,1.1359165199,0.0980590779,-0.3752472873,2.3790930157,-1.0140257631,-0.0926337102,1.0819814743,-0.6063209513,-0.3898258721,-1.8608465649,-0.9439052957,0.1633881381,-0.6308810942,0.8022289182,2.8233545493,-0.9029506533,0.2315613596,-0.1893241276,-0.1267164459,0.0059719329,1.8453128603,0.3749387761,0.2781988717,-1.7106796135,1.4822548122,0.357026839,-1.7227364923,-2.8044193089,-0.0796499566,1.3717342834,0.4910241299,1.6811901791,-2.3014883971,-2.2210354212,-0.1335956162,-0.8617340293,-0.7180434243,1.1004228424,0.2578835705,2.8924941007,0.1412066643,1.5677612708,1.4739185406,1.1109112088,0.4492627309,3.5389884314,0.5700608506,-0.9827461368,-0.9749491208,-0.7258961383,-4.5768167296,0.6173018031,6.3150697357,-3.825416558,-0.4983641702,-7.0874947342,1.0616847646,-0.9056220539,-2.6627678158,-1.0251471111,-7.0500070263,-2.3508614023,1.4929092082,0.8581125738,2.2995541362,0.1317688875,-0.8965642442,2.1910295005,-6.1694863204,-1.8695590632,2.632772539,-2.4383372172,-3.2023825346,3.527135932,-1.6824649248,-0.8555454947,0.7357267236,-0.2326692339,0.8937035174,-2.1985341205,9.8574076607,8.876476671,-3.2498123178,-0.461263677,-0.5645671127,-1.8318189051,0.6458098584,-3.6450372237,-3.453842034,2.7195344589,-0.8232220767,0.6343811392,0.1969299079,-1.6734645591,2.5847240743,-1.0718782971,-1.3150418498,2.4780140358,-5.1450005005,-0.1882820458,-0.1272412035,0.9102915675,-10.461778835,-1.6593171516,0.4004026856,3.3317677828,-8.3788648853,-1.4555513622,-2.4477910988,2.7879297852,2.6092018353,0.4853516324,1.441487985,1.1869163183,-0.5413805933,0.7217659373,-3.0764568581,3.1455385527,-2.1078228334,-1.027333488,-0.8101422369,-0.2716569343,-2.3738090717,-0.4182231116,-1.2781038603,0.3457315997,0.8653836292,-0.3057623809,2.1100833951,-1.1331222691,-0.2066296777,-2.024617584,-0.9499966677,-0.7116336728,-0.5998629007,0.5875476561,-2.4550936329,0.7110457982,0.0787980074,-0.0125058016,-0.313875359,-1.5627927604,1.8997989221,0.2326957839,1.6297671798,1.6253648178,-0.1665297565,2.589756807,0.8991040421,-5.4013622481,0.2366104797,-0.6353581799,0.0920624166,-1.2681275271,-1.4459859389,5.5710806292,-1.6591198562,-2.1120140894,-0.1630075843,0.1457324212,-0.1134969218,-3.3696423121,-4.6582690237,-0.272913507,1.1883519266,0.9853078354,0.6427634691,2.6172391414,0.1126706569,0.5070133917,-1.1722797542,0.3029841883,0.436428879,1.5481499192,-0.7673223894,1.0553695779,0.733972636,2.0279930364,1.6820115744,-0.2275362708,0.1272969068,-0.4441564137,0.3283532048,-0.2108471956,0.971341055,-0.2176934347,1.1242526531,1.4594914325,-0.0591116664,-0.425396791,1.1902306312,-0.8579820823,2.1231218408,-2.2157927849,0.3776642442,3.1423067787,-0.4713296985,-0.1363670457,-0.7986798867,0.1610515022,0.3168626346,-0.1197810087,2.3841619017,-1.0731513821,-0.4013854119,-1.6712080561,-0.4231162674,0.2408289845,-1.5436037498,-0.5230583482,1.9038259613,0.6819972318,-0.5443612483,-1.2453036549,-0.3644884705,0.1618463622,0.534953086,-0.6114098992,0.4979223342,0.1593842624,-0.3381953956,-0.9845548825,-0.3028135061,-0.1554645349,-0.2316259313,1.3216661314,-0.6379786356,0.4945743728,-0.4367592157,-2.0400164305,-0.3376970035,-1.5907956523,1.6156260079,0.5480007326,1.6211054915,0.3030983631,0.2662561804,0.6119772803,-0.9277351903,1.71453625,-0.116979422,2.2282180771,0.0553469326,0.5803949104,0.6066698593,-0.0320631866,-0.444851456,-1.957036845,0.6421226123,-0.7580676717,0.5681785298,-0.433622332,1.5243869213,-0.6003116297,0.7446044967,-1.2884610462,-0.1110515966,-0.7743216072,-0.5341765731,0.3195075468,-0.5159794965,0.8061354512,0.0227151303,0.6935958295,-0.4652418666,-0.9015692561,-0.3632160688,-0.5122387763,0.2015553114,1.9348947586,0.2914380545,-1.2885377036,0.1579937521,0.5317691026,-0.3479334983,-0.3382524654,0.5412624425,-1.8328768127,1.3456312393,0.2706358036,-0.0447578796,-0.9226714556,-0.8281614112,-0.5551557187,0.8413093119,-0.275930831,2.0467394333,2.5467725177,-0.3619729657,-0.3646051052,0.4096801818,-0.2533416906,-1.8848308063,-2.7549593588,0.721977752,0.4255232792,-0.3710092653,-0.8253092419,0.1911575651,1.4570756965,0.7241313683,-0.2713606489,-1.0534306837,0.4379465796,-0.5540743306,-0.3191383372,-1.7265266526,1.1502404016,2.3158853771,2.5981780743,-1.6267405442,-1.0982297546,0.2097691412,1.0768878166,-1.0676931345,-0.2117326934,0.4472324053,-2.2266367347,-0.6236955243,1.8614961241,0.2154223066,-0.0315005929,1.0788936802,-0.7088939048,1.302816314,-3.9656401774,-0.5273541803,0.1802625491,0.854764365,0.8787833261,-0.9509964804,-0.1594652248,3.1047407093,1.010359288,1.5998090659,-0.0907928957,0.8775459073,-0.369940084,-2.3262094982,-1.2464825282,-0.9324759974,-1.1562416094,0.8646104373,0.139316512,-0.4412936208,0.3150362197,0.7435077827,-0.8002852324,-0.0872217554,-0.5297273178,-0.7105306579,1.3920987964,1.8363187057,-0.2877032718,-1.4808623055,-1.1159299138,3.3895941146,-0.4622863303,1.0163932093,-0.7612107427,-0.7622354329,-0.2747102476,-3.7319994436,-0.1599155991,0.1712976661,0.5203041738,1.3254629459,-0.3182810618,0.463508404,0.1643796548,2.6306448182,2.9804218936,0.567393026,0.4675571576,-0.5186326354,-0.7162396883,0.8934676255,-1.6204702295,2.4150637878,1.1545406592,-0.1990536698,1.4932990297,1.4637802757,0.6620879033,-0.9017108191,-0.9406833536,6.3452939693,-2.2924787127,-0.0549009925,-0.3957679109,-0.1359665325,0.9004925006,-0.2568535328,0.8389356801,0.0536246898,-0.8536204186,-1.6078358468,-0.1721246758,-4.0917290467,-0.0675055222,-0.1626204268,-0.9915823456,-2.0533521138,0.2667722139,1.0654242992,2.1736412757,0.9732605456,-2.6409738691,0.514873633,0.8335688841,2.14122725,-1.5267184694,0.159763438,0.0830271573,-0.6270470718,3.7000545229,0.7123095721,-0.492109652,-1.03893662,-0.1409536604,6.2643614358,2.176790574,0.2775323835,1.9043820051,-2.0196521335,2.1432738589,-0.3128615591,-0.537740726,-0.5072293831,1.0018732192,-2.7455492146,1.5796179123,-1.5692384206,-1.4400895144,-0.2951062912,1.0959467437,0.0180277055,0.5434430189,-1.3313288677,0.1143848549,1.8633059927,2.3822020962,0.6091193267,-1.8029021112,1.8172074842,-2.2420382669,-0.8674347034,-6.6458418702,2.348802945,-0.0960518033,-1.312376651,-1.2776708641,-0.6286332779,-1.9928258048,0.3535698331,0.2654537893,-0.4425162298,-0.2719084958,-0.5433970541,-0.2227213872,-0.3558114155,-2.4009489507,0.6006629411,0.9549917869,0.0989766936,0.1444993297,0.1455943905,0.0374383721,-1.0338824462,-0.8758213347,1.3779896728,-1.9105528111,0.2943489626,-0.8644808539,-1.2575682785,0.8500995946,1.2220717305,-0.5096722466,0.2493622082,-0.629665715,0.9658943473,-0.0189531424,2.2731715186,0.1057837551,0.7997025372,-0.2681372052,0.2876923046,1.1546155354,-0.3429547843,0.5283423271,-0.8088443915,1.3711838625,0.5791736235,0.9349752337,2.0106098982,-0.2499804014,0.4329972464,0.9863721265,1.4099585598,0.7470283853,-0.7229154071,-0.4590494628,-0.0337827752,-0.4033443842,0.7075194828,0.034993511,0.2126562015,-1.151224618,-1.2842921989,0.4452504349,0.5500526308,-0.5256478621,0.6820891377,-1.8870393975,0.3195754598,-1.0493780868,0.360997722,1.0670675273,-0.3443638627,-3.2709038569,0.0629435605,0.0580700897,-2.2202748134,-0.7590900772,1.3574583163,-1.9966996958,-1.8179235701,-0.1266297834,1.9802196517,-5.4982915676,-0.8517290315,2.3336985861,5.5677076166,-1.0248246302,-1.072839088,0.4865498861,-0.5313518113,-2.7673162636,-2.075217009,-1.7856901635,1.3011042476,0.2520883708,1.9847927137,1.8819648962,-1.4711971815,-1.1636565619,-0.2021152532,1.0460015178,-0.2098882704,0.5264232745,2.5981488724,1.9898932149,1.5221626848,0.7058083194,1.1903028604,1.8059843902,-0.0448816871,-0.3105304807,0.9717985727,1.5594381514,0.1415650075,0.6245596965,-0.4716986569,-0.1763064839,-2.7630912269,0.8416395854,1.8791402382,-1.1332189325,3.8779451341,2.2541079714,-0.4341192,0.5797765308,-1.3496816609,-0.5980445478,3.0094090288,-1.722735641,-0.1379236331,0.8274368449,-0.4348328062,0.5144213063,-0.0772101972,-1.1963140206,1.0517973194,1.0509577256,0.7421948258,-0.0767990581,-0.172498588,0.2800862557,2.2942440819,-0.1212081521,1.9732598224,-2.6289406113,0.3989757376,1.1691704228,1.2542143211,-3.4710957374,-2.5147113859,-0.2732538741,2.2408447386,-0.0389600647,0.0974968359,-0.5386186269,1.0377296775,-0.8649816248,-0.1071398431,1.8698800937,0.1108786234,1.3533460223,2.9799875423,0.9230063625,3.5972643136,1.527547268,-0.8576870297,-1.2480192489,-5.3424480761,2.8849441551,2.912932336,-7.2878392532,2.4612421554,-0.6323897724,-1.4734331532,-2.2819182965,0.9054747113,1.4622055138,-0.1843753912,-1.3682896455,-2.2829936511,-1.2550186387,-1.0804985112,-0.5323220362,0.3798503144,1.5492332867,-3.3743894017,1.0524105957,-4.9883693963,-2.074645261,-2.0018023179,1.0721141429,8.7753021241,-0.620168256,0.7047900867,-5.4870343393,5.4361870753,-1.485788504,1.5240590669,-1.1239571551,-2.9547729637,-3.2505530851,0.566153449,2.3221741191,-0.3879608824,-0.3925782558,0.4752054862,0.4514908931,-0.8071453508,3.6311720716,2.108892949,0.8340268285,0.4430378547,1.6345280971,-0.3801208795,-3.1836468846,-1.0631425394,0.4446812928,0.1931684653,4.2307619,0.4415378485,2.4094890253,-2.2386357718,-0.2933744981,-0.5892389919,-3.0627707978,10.7020130745,-3.9379382012,-1.2384641924,3.7898182581,0.4119149083,0.1268554225,1.5510045105,-0.5392089594,-0.0838166831,0.2117832728,3.0068866736,-0.5007471912,-0.195497367,0.4953648167,1.7381444095,0.8849900334,2.2620161166,0.5250630456,-1.9000554796,-2.8747486707,4.0017882725,0.907019102,-0.1688331934,-3.9421011561,-0.6815096753,-1.1581221063,-1.284322514,2.980126443,3.5666229624,2.6345135814,1.6477793319,-1.4548837755,0.2519728976,-0.9647559654,0.8653000323,-7.234699707,0.0316054569,-2.3162877917,-3.902847017,-2.9916129813,-0.2637480029,1.2120581992,3.0841664896,0.7593390061,-0.3049554638,-0.4786485175,-5.960376808,-1.5739756209,0.4201654805,11.1771569636,5.6350510363,2.8734726905,-0.6397776613,2.7435075625,-4.4024377949,1.0594673707,6.1716682095,-0.1839272203,-1.7566887037,-3.0164677146,-0.078030362,0.1859716912,-1.6659412952,-0.893730484,-1.4650926744,0.4708142232,-0.7668038402,1.0611008609,4.6695385882,-2.7392588077,-0.801799592,0.4197262259,-0.9813642048,-6.7412364052,-4.1846968657,-0.0282271871,2.8717701038,1.3970181179,-0.2966629818,1.5612506094,-3.8697685131,-0.6193944116,-0.8566487005,-1.8077367599,-1.5106679788,-2.8502088664,-0.924594877,0.5735425487,-1.6991191141,0.8112610753,5.6763360071,-2.0429878411,-0.0340733524,9.9082134163,5.5242162431,-4.4309493799,-0.4596275705,-3.7953609645,-0.370231746,0.1500416335,-1.0280088714,-1.7783844681,3.4980809237,-0.7357099912,-2.4439211673,-0.399675167,-0.7458767151,1.6147262586,2.7813891115,-0.3956631001,1.104353615,5.6431858051,-0.9515542993,-0.6610359552,0.2792967732,-1.2177103172,1.8026035643,-1.1716197178,-0.0285398359,-0.3276750853,1.3081732684,0.2782896824,-1.802595764,-0.1714147003,-0.851158214,1.0401777621,-4.2308411527,0.6094336304,1.4573106302,-0.7466695383,-0.990351435,0.0727052361,-0.1995089952,-0.1238452663,1.2428597168,-0.2292088169,-0.3167826405,0.0300354591
   -2.519810568,0.3617610533,0.670241665,0.7199723201,-0.4162451065,-1.4700261288,0.1385573132,-2.3656911821,-1.3638804361,-0.2868106624,0.9305144151,1.5586258095,0.6034287035,-0.4414219888,1.2518010412,-1.29766726,1.2914814023,1.0785762405,-4.8364776058,1.2108820557,-0.3019046826,-0.8114361579,2.3046771481,-0.0344983558,-2.3054135772,0.3154521006,0.7998121731,-7.7594959459,-0.5659384741,0.8858136475,-3.0984927131,0.9214204941,1.8854576312,1.7682766637,-1.477059307,0.4620551446,0.0163266253,2.5074436572,1.7264276646,-0.9142599619,0.8358799677,0.2139906378,5.6939593945,1.5962868119,3.7656741421,-0.8800378878,-1.0364380077,-4.6656461706,2.6754487492,6.6017447709,-13.2628019909,-0.0328634122,3.5116100389,-5.3018220869,2.6827347696,4.2029169125,0.3009165404,8.2578092169,-0.2794374497,1.537531727,-0.0981105972,-5.3782274995,3.8213015064,3.29752138,-5.9293952854,0.9290854136,2.9660835353,0.1745086463,10.4588961329,-11.0671401776,1.194413382,-2.5860390227,2.6898525015,-3.5755786865,4.511512688,3.5714486429,-6.5549294192,15.9795474011,-1.5392194004,3.1673849286,0.481807266,6.0423137089,-4.6898018292,2.5786497719,-0.4789217058,3.299091063,4.4215618204,1.4606575909,1.2211481042,3.7632192386,2.6310921064,-3.682732342,4.4358669136,1.597494881,2.8262201466,-4.7499116709,1.9256088812,1.7636038934,-2.9972490755,5.1979170887,0.7034160084,-1.8158131637,2.391789935,-0.2970327982,-0.1723624713,-0.7729454833,-0.7562897954,-2.3531219565,1.2327974263,-0.4869286178,0.5995660735,-0.071626456,-1.2721253668,0.6674752845,-0.2490820486,-0.1144071161,-0.4720099158,1.2833900913,1.6873447138,-0.2969980683,-0.9910838745,0.1585032916,-0.3787833574,-1.3626362077,0.037675992,0.2893080921,1.0973287742,-0.1968596749,0.1037246593,-0.2837400876,-0.3051238504,2.1015157919,0.7697689714,0.3476517422,0.8577725103,-1.0803806458,-0.537035138,-0.1687438657,-2.0119811653,-0.8371596292,0.0872099747,1.0653661388,-2.0892801992,-0.1615918741,0.4859943432,-1.5446134988,1.3819960895,-0.4906369492,-0.6341319167,-0.6483500501,-0.9641947259,2.8360522697,0.0035818546,2.5918188962,-1.3214555179,1.8186518579,3.0625417811,0.1838731366,0.2931500408,0.1843480992,-1.7427341827,0.987785166,-0.5800827803,-1.0251598417,-1.2186708445,1.8538182359,-0.6280563511,0.172486276,-1.2259924924,-0.4497755265,0.8607138408,-0.3547236338,-5.3015792993,-0.6578262736,0.278217099,-0.4906644373,0.1554789262,0.5523826881,-0.2941194413,-0.5115394497,-0.9992550364,0.5580501151,0.5493582645,-0.2387794144,-0.7004661344,0.7688200124,-0.7246124304,-0.5313134839,-0.8428979896,0.0360016007,-0.9556612669,0.2036714292,-1.5392191833,-0.6405376897,-0.0400191987,0.6914417284,0.0799770675,-0.4333568337,1.1202678981,0.4054219685,-0.0917086101,0.450181099,-0.6900184664,-0.9267449017,0.3094032628,-0.4328640292,0.274595492,-1.0635367678,1.2586420034,0.5005333049,0.3016338038,0.3317257076,-0.4170887258,0.8544135035,1.4739020894,-1.3880066977,-0.1367957568,-1.0830740254,-0.9467217331,-0.0359996265,-0.0619598731,-0.9576041129,1.9784818904,-1.4387608938,-1.2418484902,-0.7210264218,0.1489991516,1.543829077,0.1540698729,-0.7875218583,-1.5974213562,-0.2726981416,0.4011144908,1.0089552782,-0.0950886717,-0.356186232,-1.360139958,0.189544161,-1.832118841,-1.0720058506,-1.2806400056,0.0329613672,-0.6288664727,-0.8677612215,1.7834539196,-0.4591329976,-2.1000179094,-0.4599961824,6.4869356679,1.0643008011,0.8850620913,6.3922295834,0.7004551802,-8.4404751011,-0.161146672,1.322817075,-0.0472559148,-3.5765309488,-3.5891669277,-0.2566390429,0.8036509921,-0.2112175492,-1.0696313153,-4.3248705979,-2.8250317558,-0.0143161642,1.8554623775,-1.1173233623,-0.6978676917,-0.3757065773,-0.5914364936,-0.1634886422,0.5172100612,-2.1333354422,-2.1635967458,-1.736990982,0.0598674301,1.4708540679,-0.9669928045,-0.3814776448,0.3441004509,0.8728568811,-1.1764236619,-0.7345065786,-5.2187024071,0.7093692146,0.0765152654,0.5905004828,-1.2244538293,2.8121339332,4.2314579311,-1.4163640936,-1.528444051,-4.9167008822,0.7315850788,-1.2726509935,-0.5389558242,0.9797318335,1.9688865157,4.6361883905,-0.1408580238,3.0718773415,2.4588099886,0.233921488,-0.515096865,-2.248520556,-2.5043706093,0.1425261856,0.785278801,-1.2680818675,4.4947905224,0.1943553692,0.2625819622,-1.7357328847,1.7023872563,-4.5967447162,-0.0179561537,-0.1761459967,-7.9407445847,-0.284499385,1.5582427908,0.1437603192,-2.1697093316,-1.9548679536,1.8587971805,0.6847127844,-0.1941009612,0.9012519931,0.5461710096,4.2017207113,-1.1412908711,2.522647506,-2.301888588,-2.087297573,-1.3774996571,-0.3927819641,-1.6558397426,-2.540605611,-0.6042566031,-0.7818420009,1.1226228655,0.4475258151,2.5787868072,-3.3771943014,1.8652462864,-0.938984932,-0.0763157237,-5.7237073318,-2.0742016568,6.0845222706,-0.23732812,1.8214144517,0.174655336,-1.4272707291,-1.8393646676,-0.3647181658,1.3792750791,-2.1141118111,1.390982687,-0.933943542,0.3654354651,2.3332600857,-0.2144219668,0.6100934355,-1.5996987612,-0.1225745973,-0.5700896899,0.070638684,0.1109888727,-2.23450976,1.7242739747,0.0267380766,1.3347510234,1.5330960632,4.3979246905,2.9960729213,-0.0187824951,-2.599607628,0.1448020134,-4.5765192082,1.1356419847,0.1049940513,3.9392979041,-1.3581456973,0.6186457287,1.0013334152,-0.4640329217,-0.1634493661,-2.4611829278,-3.7046600409,1.2935440584,-1.4244988531,0.6151287161,1.2878713684,-0.6609559443,1.0171215679,0.3036583571,-0.3506329624,-0.8125211249,1.183459217,-3.8903820953,-0.7494267003,1.0065818481,2.0643718051,1.0994349879,0.6572655741,-0.6745955437,-1.4542784737,0.0716728148,1.5791490728,0.0662103058,1.6034491283,1.9818217766,-0.1206375621,1.9080924454,1.0536276702,-2.6923580774,1.0481534713,-0.103662366,-2.2827077339,-4.241106546,-2.6571550725,0.6191454104,-0.6995091253,4.4447246906,3.4905014468,2.9288901576,3.327801979,-1.3149953386,0.9837872681,0.5608232104,-1.3398937265,-0.4088839,-5.0165843178,2.1886235919,-0.2240920664,0.1224361259,-1.1635572782,-0.647327937,-5.1160698998,0.1420713685,-2.5352431234,1.4757011998,0.1379425039,0.2417421346,-0.7246467526,1.2248856174,0.5333525402,2.4412477647,1.3902145688,-0.2753955414,-0.7909158727,0.8765173124,0.6180056529,-1.2277278984,2.095656396,-1.9636275752,1.1030136616,-3.0737017216,-1.6946212832,-0.4051825888,-0.1815607652,0.0836706967,0.1626147835,-1.8510262795,-3.4701382643,-0.0553645486,2.8768460591,-1.0163826109,0.1489579867,-0.1509556352,3.7551368632,1.1911537848,-0.2394919491,0.1907607034,0.0829791082,1.8425912898,0.7120261318,-0.6036962916,1.2306221054,-1.7448865434,3.7600574642,-0.3138621794,-6.0880847878,1.3468219928,-2.1647148562,-0.2811997885,0.0995587097,1.2305624483,-2.4995587465,1.0847176744,2.7398887637,0.1890387866,-0.9664332144,-2.5262308845,0.3898979729,-0.3418615934,3.1970970626,1.0953163985,0.0035096371,-0.6557570841,-0.6081090021,-1.1662581644,-9.8613031595,2.7956217518,0.66289188,2.9461456786,-1.8641966553,-0.747315009,1.317814168,-0.4939228436,23.2604878058,-0.8544999198,0.7118031971,-1.8961747987,0.0201547453,-0.6647105285,1.0772942582,1.2169518503,-0.5780263739,-0.5954001194,2.8450122847,-1.5011095122,4.2524704881,-0.9418227132,-0.1020835052,-2.4930706328,-0.0812893715,1.2711929829,-1.2847682754,-2.0514496101,-0.2093391358,0.603793445,1.101389948,3.333333688,0.0299794907,0.5618539338,2.4929463942,3.6599267074,0.3712262873,1.217831345,-0.5733015575,-1.4311464534,-0.5436733955,-3.1460472508,0.620385942,-0.6303998901,0.370426004,-21.9698842909,-0.5331454398,2.1031950101,-1.7730768177,8.8513071133,1.7621672752,1.3607446819,-4.7072888717,0.3945406847,-0.652531539,-0.7771289924,1.3469261887,-0.3587424014,-0.7508488128,26.1857310543,-1.3673297361,-0.7946403738,8.8401084828,-4.7897238007,0.146172309,1.3933901254,-0.959795078,1.2051753795,1.0501277578,-1.5462575284,-5.7464714175,26.6860775403,-3.593105092,1.2661947113,0.880114241,-0.1647826028,1.7901361311,0.6472006658,-1.2661020218,-0.5497514964,-0.4185115037,0.8178870048,0.2249519784,-0.2847799745,-0.6172938336,-1.4282653259,0.7932538414,0.4215687543,-1.5291118524,3.5740367323,-1.687246723,3.3669684155,1.1031276337,2.0058783127,0.7658045881,-0.8248757319,-1.3979856741,-3.5137143658,-0.7295208468,2.1929501402,-0.775279787,0.586181794,-0.0630511142,1.160904198,-0.8443834812,1.8328189569,3.0744636259,-3.1850537172,-0.5261940744,0.9120106995,-0.3041086656,0.175014063,-1.70298238,2.2570330725,-1.3708476272,1.5595069935,-0.0845710936,-0.6723537075,-1.1505005545,3.6564468748,0.4661763313,-0.8515042263,-2.274882738,-0.7844631771,-0.6916391396,0.23458019,0.6095876898,-0.1522334238,-0.0195968515,2.4856221669,-0.3347215699,-1.3383780873,1.5592534001,-1.711518558,0.7474000194,2.2386583142,-0.69482057,-2.9304435928,1.5732808117,1.9072419425,-0.3555316636,1.363071436,1.8663267173,2.145825987,-0.1505082116,5.8385600539,4.3497361724,0.2450426682,3.0119048189,-1.1331244246,0.7839205755,1.2625270447,5.3097554733,4.0577705919,14.4952713735,0.6305485488,9.663936588,18.927871255,63.3501196209,-4.2164497841,-0.3890310346,1.3509434755,2.0966384165,0.5340090346,0.4770339481,-9.7212226912,2.452098658,0.6471393085,1.0839249759,0.4766709129,10.6734953161,6.388308142,24.5238832064,-6.9456487355,-0.4108528724,0.5442972037,-0.1750698075,1.4714201889,-0.9833692825,0.1607461445,4.6862381592,-7.3048862776,-1.8693707132,8.9224024853,-1.1323985912,-4.8086211771,-0.1615559176,-0.1943849626,0.4023108401,-11.9455522316,1.5256515237,2.0677382919,-13.9648911344,3.1622642933,16.3344316656,1.1515217114,-8.4174274989,-1.0555476788,4.8259479943,-0.2738565569,-0.9739944563,-0.4974357955,5.1717270157,-0.5027770614,14.894526303,-1.272901596,7.6211127936,0.8851272416,-0.3306389046,-0.9148773939,1.1502841895,1.553060939,0.9132778574,-2.1057759029,0.9913558924,0.6806076257,-0.7769458851,2.8807939678,-1.0379157354,-0.4689135447,-0.0843272222,0.5390933289,-0.0680455946,1.5366749031,-1.3915269397,1.0852701809,-0.4448376191,-0.9800730289,0.0696075848,0.9878871368,-1.0642232946,0.492410265,-2.2192218083,0.3552968283,0.9950591654,0.4117556691,-1.1237482476,0.7997623206,1.5926200398,-0.548859632,0.0045246936,-2.0136533227,-1.9252641208,-1.3915529063,-0.2509333632,1.0437409118,-1.6760571484,1.0943991078,2.435811933,-1.6936773612,0.336660736,0.1081220635,-1.3300855926,1.2164901853,1.0514329633,0.5493050705,-1.4411736258,-0.0221552992,-0.9045875783,-0.1320910641,1.3841304903,-0.2321750969,-0.5034107751,-0.4008739627,-0.0281767905,0.4083170196,-0.4198401707,0.9735694244,-0.5716149075,-0.0965100519,0.8067787487,0.8280440702,0.3387836082,-1.1637412319,0.2870465557,0.6185914491,0.7043643744,-3.0781828986,-1.9984324344,-2.7490002742,1.8135634484,0.8020133981,-1.0406046277,10.8296402282,0.6595994372,-1.7717838614,1.920320748,-3.9673775596,1.0549138772,2.235134312,-0.753016696,0.3429099205,-0.134958584,1.6039157716,-0.0106085566,0.2189802493,3.4961883536,1.4191495982,-0.7036084657,-2.4320842189,-1.3577693224,-1.2990922927,-4.2550808487,-7.4646828134,2.8864443686,-1.2486120499,4.9145864158,-2.912993456,1.9619128097,-4.3885819374,-1.2327630195,1.0080535453,1.2288488658,3.691530631,0.134102064,1.6110508304,9.8893311877,-0.8760358987,-1.2731035641,-2.8445558314,-7.3659943966,0.9081660641,-2.5729851047,-4.7065774383,-1.7373653636,7.9518896626,-1.512045959,0.2623532682,-0.1569121005,-1.2193927977,-1.8468316922,2.7047395309,-0.5469064031,-1.7942845258,1.699623468,-0.6903732452,3.1096447616,-0.710938998,0.2836212511,-2.6957704978,-11.5964624475,1.3015432674,2.3121836892,2.4359489999,0.3450149916,-0.1191919991,-0.0168745311,0.2293147883,-0.4892860503,0.6511245571,0.0073583038,-0.4420567319,0.8669844574,-1.8426214529,-1.3230274341,-0.2997591413,-1.4636605224,1.0877048424,-0.9428036418,-1.2761722992,0.3123015222,-0.8244297391,0.8009794364,-0.1852581128,0.2352237632,0.5058519484,4.621486898,0.8327906108,-0.0956421761,1.7073388512,-1.2187778901,2.3724046951,-0.3310579586,-0.4679855266,1.0567279586,0.1183997237,0.0922435825,1.2098328511,0.3315133469,-0.2644988039,-0.6481376501,-1.2595712131,-0.3998061655,1.6448582054,-0.5946472267,-1.2631875922,0.4130793271,-2.3359504762,-1.0345810212,1.6437903204,0.1657800259,2.6531074956,1.1875384961,1.1523474631,1.3801977535,1.2094611917,1.0643663581,0.1572182404,-0.9992932755,-0.3224925823,0.0678168951,0.5883168164,-0.6671721616,0.4301415934,0.2425795909,-1.0166911227,-1.2227590956,-0.1249146554,1.6795847242,-0.4587071839,0.4843072642,-0.7944527918,-0.5786230342,-0.0632417766,2.2067407529,-0.8834061588,1.2778598373,-0.6074465088,1.7726510955,0.1704946919,0.549700143,-0.9111204671,-2.2461666737,1.210343311,-2.4171268428,2.3630085209,-0.1039105494,-1.5379259863,0.2417669378,-0.0467797001,0.6099644134,1.8395932684,0.455184996,0.1389899034,1.1719167705,-0.3041238547,-0.4907191615,-0.8485782102,-0.8069784941,0.6211294807,-0.7806768915,1.2062866971,0.8378147653,-1.8443544101,-0.3916537858,0.6638785624,0.4539239123,-0.5163446462,0.1019184243,2.8843508539,-0.289117574,1.5656855755,1.0732375192,-1.3081974127,-2.5595907968,0.4725428066,-0.6033997349,-1.1097741705,-0.4441259817,-1.2721353324,-1.7007273041,1.0909923824,-0.2079115101,-0.43605042,1.5587405225,0.0188018964,0.5945692783,1.0489683711,-1.6757061311,-0.0718920365,0.3629401996,-0.2431449149,1.6736882614,0.3654627553,-3.4206895001,-1.0108766372,-0.3074093829,2.0249124716,-0.8024058442,-4.1202734644,0.0603279353,2.420601376,-0.3400893867,-0.5667423749,0.8458231752,-4.0441383772,-1.4954688593,-1.1013797948,0.9618162628,1.5096547889,-3.1759006211,0.967007101,-3.751943108,-0.6928990464,-0.7519534472,1.0388841047,0.9516181683,0.80543867,-0.4043249881,0.1447052883,-2.0206350935,-1.2471998167,-0.268182656,0.1226613464,-1.2864205659,-1.8167967973,1.8799128076,0.2888720999,0.0400420414,-1.3711051711,0.5318580879,-0.9133188251,1.3452086203,0.6470549589,-2.4499349787,0.4311515241,-0.5225221681,0.0606087159,0.0933563247,0.4278111982,-1.074518767,-2.084983674,-0.3657804523,-0.3495122503,-0.0084809726,-1.00385411,-1.0553159142,-0.436498421,0.2539497659,-0.3367112269,-0.7223851561,-1.7600023794,-0.7735876825,0.3256698227,0.7014282845,-1.3897346712,0.8767600523,-1.7310971785,-0.7735133358,3.6206154967,0.9118729357,-5.0285137394,-1.2516396605,0.5527690714,0.1119518877,1.1749320994,-1.327944482,-0.9105809315,0.4655309557,1.2449343643,0.4457920531,-0.7811713861,-1.3111524833,-0.7932255217,1.1600644001,-1.0435937752,0.8560138923,-1.1574650871,2.0521311112,-1.1415946458,0.0442992026,-1.4049492142,1.5209052106,-0.1951244781,1.9210260409,-0.4432010068,-0.8818236999,0.7241952397,4.2492356885,-1.794734533,1.3044832868,-0.2232217126,-1.7660993361,0.5461359297,-2.3404006678,-0.0508870802,0.4082424423,0.5236835583,-1.5862023797,1.1357997899,0.5125031725,-0.8684813648,0.8470684996,-0.5221968302,-2.8880633437,-0.4660548086,-0.1104780626,-1.2929350846,-2.8131448181,2.0372699565,-1.0050771657,0.2591071634,-0.6435540806,-0.4907700626,0.4659993984,1.9470983507,0.9342499256,0.1360948634,0.6964815708,-3.3830287649,2.7890081815,-1.4711479669,-1.1574036486,1.0025751495,1.6124806585,-0.9022212311,1.0819048376,4.2253461587,0.4217725894,-0.908303905,1.2310849559,1.2093003915,0.5345477013,0.2294866275,-0.570100655,0.5694256153,0.303683176,0.8234135106,0.0059653218,3.6761042318,0.7841933393,2.4086246213,0.3379803062,0.4928893587,-0.3355627897,-1.5497956703,-1.1210461334,1.0906945178,-0.9567406507,0.936308913,0.9178105742,0.167380553,-2.6768213434,1.4115974933,0.5594795386,0.6289469509,-0.6841138068,1.4239106412,-2.8063368754,0.8417806434,0.4205852313,-2.2473488183,0.0354260873,-1.0321776325,-0.4288536779,1.6869730477,0.0379527327,0.1706866061,0.6741715707,0.5862889326,2.7130245591,1.0335161189,-0.2986933775,3.614567148,-0.6974429925,0.1878262689,0.8847400793,1.0332838656,-1.9772460598,-0.6644503495,-0.4906165047,-0.6529010129,-0.4773362545,-0.2914241934,-0.5265178683,-0.4772433194,0.4824130745,1.5656861234,-0.2678123791,1.6142218818,-0.8022009549,0.5206191467,-0.5596317886,-1.3455516627,3.2619331374,0.3351469628,-1.0213999941,0.1891638239,-1.3738198145,-0.5610422037,-1.0074331517,0.343747473,1.1440612435,-2.4381773684,1.8863199458,2.6899795949,3.0929613177,-0.641800253,-3.3731240427,1.5487713642,0.8667473322,-0.5156147929,0.4850905641,-2.4921755018,-6.8702622676,-1.492243033,1.1640850917,-1.5686462862,0.9212567594,0.1008744923,1.5935363578,3.1399404569,0.8379811148,-0.4711811889,0.8418812169,0.1974601897,-0.0168539248,-0.5096577989,-1.7640358952,-1.6933029774,-1.3725044643,2.2668521844,-2.1523340199,1.5554726552,-0.1802297524,0.2914404241,-1.3955557233,1.2179256757,-1.955290403,-2.6423995809,1.4529687985,4.1211750734,-1.4013035597,1.2142710344,-0.9934380945,1.494706004,-2.1798803936,1.7116028049,0.2587843368,1.9143496569,1.1808702491,-1.1089121611,-4.1574623219,2.2663825462,1.0886302323,1.422038234,0.0931035795,-1.6871246158,-0.0686537647,-0.1988783715,0.6232047972,1.1619104752,0.1839390037,1.1175169766,0.5924929821,1.0838212734,-1.8779568964,2.0701948482,1.5091868165,-1.0214514971,0.7711480603,-0.2691489633,-0.994693066,-8.3679604911,-1.5263085516,1.5368759228,-1.3219716073,-0.7375007892,-18.2929061346,1.9420024019,1.2318148951,-24.7923660859,-0.956195779,0.194434519,-0.8168501797,1.1886338858,1.8281452766,0.1226175597,1.7513809709,3.0158302602,-0.9487624649,-8.2051412346,-3.839957306,2.3221501079,1.3809497211,0.2381445597,-0.487572631,-4.9402853887,-0.845535352,-2.2841499632,1.2748526167,0.8262051369,-4.3405733226,0.4348223835,8.6740152129,4.8179827129,0.3614803328,-3.5649166759,-0.563479522,-1.593428793,1.074152091,-2.6689475491,-3.9694647226,-3.6873825834,-3.214001519,-7.7157936902,3.9775065229,1.38079587,-0.0883689474,0.6779183554,1.2364778872,1.9478393972,1.1723655249,1.2553597796,-2.4728502684,-10.291006489,0.2201738916,-0.2530814706,9.4863843647,-1.6467226388,-1.9928739905,0.3182515144,-1.313806958,1.098453539,-1.7753645027,1.4928572886,-1.9566543469,2.8850035151,0.2073673335,0.687574123,-0.4646115545,0.0975682251,1.3379432899,-0.6277401167,0.3820808486,-1.275967055,0.0262400329,1.766652727,9.1906076624,0.0876172191,0.1880070537,0.0702780002,-1.3711410795,-0.2491219351,1.8290634132,-0.9192853618,-0.6412892991,0.6852034919,-0.5419333247,-1.8221796946,-0.2714200323,-0.6857993926,-11.6599626203,0.845827052,-0.4451468839,0.5823807142,-0.1362868054,-0.5976534238,-0.4354111654,-2.6972844761,-3.6304985398,-1.7014797374,-0.6218316696,-0.4983798247,1.3969370962,-1.0398700991,0.9288414858,-1.1490914524,6.4193292829,5.4857989195,-1.1197166325,-1.5875888015,-0.4937270778,0.6421531821,1.8908013742,0.4800179879,0.375991394,-0.7423015956,1.2383420832,0.9843463561,-0.8946756019,-3.364059732,0.1474777718,-1.9112095124,1.515355692,1.0495834527,1.4521688307,2.4958805462,-0.4877309146,-0.3803733089,-1.3724284749,0.4891143892,-0.3505725064,-0.9660260352,-0.1559001645,-1.132717519,0.3275657104,1.8623228628,-1.2680972434,-0.2766603466,-0.3865510212,0.344542378,1.8057126761,-2.0420277684,-0.988279993,-1.6717793545,0.2142682054,-0.259249712,-3.9435161058,5.6459489492,-1.804086972,-0.6313184118,0.5774925893,4.7869946378,1.9136824775,0.8658451487,0.9449266637,-1.3428354747,-0.7828212791,-0.0678655775,0.3895656229,1.1697680035,1.2429319807,-1.3010392076,-0.3058160894,-4.143767668,0.4304640365,0.7289902335,-0.3265702852,-0.017960553,0.804302683,-0.0447939195,0.5503670805,-0.5634589251,-0.207875583,-1.0766396579,-1.1825630636,0.8099033397,0.6970889394,1.2119940357,-0.1963865751,1.3070120189,0.7219611122,0.2822331869,-0.6320403733,0.359374369,4.1618134473,1.7547775309,-1.3176360997,0.0093323929,2.1344440737,0.7408176112,-0.315250121,0.7927714519,1.5532808688,0.6596211337,-0.8011044748,-0.059645423,0.0373128894,2.3807479504,-2.0475876271,0.0283351692,0.2976263012,-0.2307982411,-0.115220741,0.0136854534,2.4279931059,0.3736233265,-1.1473614541,-1.2976310972,-0.2086849907,0.1005870255,4.4233151596,0.1171541223,-0.3654381563,2.07692709,-0.6937346745,0.7309703186,-1.8832594517,1.4380629937,0.8567561541,0.4535479955,1.768575822,0.7697466647,-1.4173545395,0.5027788227,-0.5996823571,-1.7850085631,-1.013420311,0.1043217612,-0.3107876894,0.2255841682,-1.0973780225,-0.142710106,-0.1432527066,-2.4549862079,-1.0586827361,1.2740254059,1.2656854015,0.2730629052,-1.3834567936,0.2892964955,-0.2125793938,-0.652831141,-0.3318659735,-0.8232012253,-0.0212389003,-1.9445477211,-1.4526580464,-1.3540851825,0.3002400208,0.241288658,0.1675711002,0.428544837,-0.15668834,1.0214333034,-0.3677117221,0.9678653166,-1.6308069885,-0.8850224572,-3.1878678744,-1.5835181967,0.4012908168,4.7108738921,0.2702621311,-1.6946644221,0.9897136778,0.0851344746,0.4826137483,-0.0317007835,-8.4797861451,-0.1666522195,0.0527991493,-4.2047858927,-0.2980850814,-0.6086386898,-1.5890631361,-0.5761715669,-0.5167031462,0.8082808476,0.2574748246,-0.9841361229,-1.579615717,-0.9778179434,0.5607804843,-0.7682600621,1.1176122783,1.4005224689,-1.3770064931,2.5222898003,-0.5923225496,-1.7132432603,-1.5516002801,-0.3530754819,3.477284364,-4.6615162834,-0.5006255391,1.2749554392,-2.5585659305,-0.1643056854,1.2071385837,-2.8089646795,-0.1803598671,10.0805840308,-0.7855321044,6.4801944598,0.1733951734,-1.6391376633,-0.4140019975,1.2708265031,-0.6830144957,2.1477949518,-1.3292944918,0.3974492412,-1.4056688072,0.5077434857,0.1359922574,-0.5721449319,0.722098713,1.622120213,0.2914620341,-1.824873183,-2.8126725859,-4.263528371,-0.3626528256,0.6030588369,-0.4404480303,0.9537601971,-2.228195436,0.2108173726,1.5310964668,-2.4283480623,-0.2883011104,0.6144585582,0.1771131279,-0.9185667443,-0.7469403816,0.7552868715,-4.609436119,4.124203281,0.3882233215,0.1312885998,-0.6420559012,-0.3965849404,1.1628403572,0.2034023513,-0.0905936248,-0.2517735012,0.4384518667,0.9218383355,2.8585163131,-1.2034037837,4.1066796967,-0.4512943328,-2.1312238738,0.1654098261,-0.3860624421,-1.733610194,2.1621715456,1.3406316368,0.9951093391,-0.8288507,-0.3185821483,-1.2037843206,1.8368223314,-2.1256062231,-0.1946017775,0.7066349122,1.2769629179,1.022934678,0.5219266128,-0.7770433964,1.0751786805,-2.1157747093,-1.4853524581,-0.6176998654,1.8201922247,-0.6510096934,-1.8475684439,0.5550633917,-0.7644275511,-1.8295667352,-0.0216487041,-2.3622244111,0.0045016787,0.1321368058,1.8738946447,2.3179794466,0.1178864703,-0.6407473841,-0.9896214532,-0.7042566845,0.6888056855,0.764954387,-0.7304290642,-0.0555231316,0.8830176866,0.8161143475,0.9281965197,1.352506061,0.3532478697,-0.1822646276,0.1997713283,-0.0400254258,1.5996819061,-1.2105517372,0.4852314677,0.749928491,2.4858671431,-1.7798950131,-0.4608956512,1.9041497104,2.8885308534,0.5992785436,0.1403593123,-2.1368121734,-0.6250695177,1.4508198872,-0.5464113059,-3.2907206928,1.6765056387,-0.5387819881,-0.2365677258,-0.5645912341,1.2327589876,0.1666694949,0.7790473996,1.353866815,1.5258475743,2.179860069,-0.2352301978,0.6938938186,1.5270831841,0.2601029376,-0.5663857192,2.3023565117,0.1193750544,-1.8339851512,0.7701346428,-0.6803516366,-0.357891154,-1.4790701122,0.8554612965,1.9175077901,0.1128382731,-2.0334669397,-0.410022167,-2.9896860741,0.4885814885,-0.1460404924,-0.7036844341,-3.2412062436,-0.5112722619,0.5421726921,-0.0422699313,-0.161303309,1.5867459782,0.9294178233,0.096075112,0.5601239457,-1.3631216321,0.4540394443,-1.0675502741,-0.4592047741,-0.7333268022,0.010153195,0.8820500505,-0.386431977,-0.3799765306,1.9553400402,-1.9433961169,0.3608207933,-0.160462548,0.2884545214,1.0223789516,-0.485616384,1.9205809123,1.1102763452,0.4476745568,-0.8456157984,2.4379617162,-0.3116650645,0.2836075463,-0.1696774785,-1.6934969436,0.4178276183,-2.7386273404,-0.404753642,0.3243530477,-0.0755039632,0.0853134805,1.3399950124,0.2510200785,-0.6865807201,-1.6111204241,-1.0306371049,0.4650728079,2.2520822231,0.4568946263,0.8800878728,-1.1426032152,-0.7290657713,-0.5406855216,0.5009125711,0.0479779256,-1.61758573,-2.0156194095,-2.9931733729,2.2707653571,-0.1662203382,-0.062477135,0.7199422866,0.5109613156,-0.6355067052,-1.9105049414,-0.0633772498,-1.2541015594,0.1256533508,-0.0822012569,0.0574522939,1.1653712132,1.0884154538,0.9517994455,-5.1504216281,0.0445174334,-0.0259027797,1.4523324531,1.4606893415,1.7951078862,-1.8661410961,1.2144601964,-0.4780601553,-1.8867812042,-0.3265269788,0.8682760624,3.1654627445,0.8922714057,1.8129937758,1.863691174,-0.0490491666,1.1763739173,-13.7411522617,0.7969630638,-0.532679065,-0.0049871196,-1.9899456233,0.4130973962,-1.551155484,9.1505159224,1.558895837,0.6107978799,-1.8739912113,-1.1397598214,-0.1499994373,1.4943930249,1.2376646944,-0.571776355,1.4673846112,-2.3364718839,0.59042633,-0.229549577,0.4064399563,-4.7264815921,0.2189434527,0.6516891531,0.2656212421,0.424553558,-0.6658758507,0.1401157338,-0.0651381047,-0.0889787761,0.3736639329,-0.4946683914,-1.7442801449,-0.8561581494,1.068868046,-1.5220243364,0.6643716255,2.813180696,0.74989436,-0.6999116044,0.1608824677,-0.0890403076,-1.7010304434,-1.2293614264,-0.1830406236,-1.1596449625,1.2437179984,0.5189783576,0.4517657896,1.3195878583,-1.6981884083,-1.6527230712,0.1593273011,-0.1870078777,2.3921724602,1.5340822771,-1.8965053478,1.2531062314,-2.0415449675,-0.7571837517,2.6804586743,0.6967415184,1.5021703906,-0.8015817837,1.9024383889,-1.2729474552,-0.1842746826,-2.3639852979,-0.7916159251,2.0212774766,2.6197927679,-1.9946122546,0.7739523015,-0.6704653176,0.4159954307,0.077655398,-0.1216332279,1.4945043064,1.4342511922,1.381583606,0.7866510664,3.3698751779,0.3838602665,1.2152261087,0.2630868942,0.6743707657,-2.3701116052,1.0927147414,-2.8729784815,-1.554297962,-1.3235974304,-5.5385373037,1.319661779,0.6673946341,0.1229135973,0.5709434228,-0.7193297965,-0.2535137644,-0.7195917872,2.2619184355,0.6121660678,-1.9971579363,-2.210983377,-1.198251123,0.4534921936,-1.8845250976,2.0002920108,-2.2624823298,-0.657557228,-1.787316762,-0.1757740184,1.96490734,-0.0250270846,-0.6450566993,-2.211827403,-1.1570298546,-0.0637157238,0.8641874965,-0.6106418491,0.0132546178,0.0576814525,0.4743345439,0.1935390633,-1.2980350862,-2.823642252,0.1021831074,0.3071579852,1.3761501997,-0.8910611451,1.0390461884,2.9756171266,0.9177398309,-0.812847976,1.162440329,-0.4106777437,0.9077045571,0.6726431383,2.0592184296,0.4120467616,-1.5004316464,-1.6434257795,-0.3595127242,0.4628372083,0.2445240551,-0.9559796458,1.1524102872,-4.946089245,-2.6580435854,-1.1809636383,-3.6040600028,0.7748184386,-1.0418763477,0.1613556339,-0.8936029544,2.0637252254,3.9669666911,1.9221361883,-0.5013819717,2.1379414401,1.0548375307,-0.1302612158,-3.1595164961,-1.4553892003,-0.6561131223,5.227657805,-1.0084535646,-0.7092077583,1.343865115,-0.6929140955,-0.0870003366,-3.2840709414,0.3307279534,-0.5874202005,0.519584807,-0.0631982464,0.6859738432,0.1677156698,0.5651930625,0.492332739,0.2920615007,-0.1038393282,1.2633303348,1.5105136924,-0.2260683536,-2.9817368826,1.2704213198,-2.1509433548,-1.0192390757,-0.5537644377,-5.072452362,-0.5672196388,0.2742595908,1.4546109785,-0.2514037557,0.921309823,-0.2808623431,-2.117528408,0.2220451085,0.6668823859,0.1442271497,-1.6284273955,0.7903145492,-2.8362863222,1.4873525274,0.4595467887,1.507968144,-0.881232264,-0.7620588595,0.4098387406,1.2074172741,1.4976261426,-0.896352203,2.6576497392,-2.8338153932,2.6699076672,2.1578661089,0.0968716263,-3.917932421,-0.0797151542,1.4891934933,0.6446498727,1.1660354411,-1.68468637,-0.7024327316,-0.6704203272,-0.2835467461,-0.4374481531,3.3059179498,1.1788191926,-0.9069461628,-0.4739472794,0.8646557503,-0.1447577182,6.2992561694,-0.818910972,3.271154741,1.0837771674,-1.109158537,3.2167794474,-2.1502536248,-0.8994795144,0.0684678827,-0.6485555619,3.4292585265,0.3601930377,2.5933611475,0.5536864814,-2.6076654756,0.9332470505,4.5892319742,3.841111381,-0.5734875409,-3.128562192,-12.7632494324
   -1.7998541072,-0.529291329,-1.9769345292,0.3476654986,0.030935342,-0.4843690908,1.0976498679,-1.3818811548,-1.2983868067,-1.1638875652,-0.5587448382,0.4662798433,-2.0715506482,0.0301642303,0.9052907322,0.0105488692,0.1308633421,-0.4994555355,0.6358740155,0.7028644388,-0.0684404993,-0.9459736515,0.8026863826,2.5689264724,1.0739874383,-1.0570395652,-1.6534863007,-0.8621548532,-0.7505630216,-0.530307756,-1.1908089045,0.8083632324,-1.6860769188,1.7913812227,-0.9684833041,0.6447298371,-0.0310943288,-0.5139009483,-0.5013397411,1.4116105988,1.9540269719,-0.6960580414,0.3828999785,0.8909570549,1.396938428,-0.2269022441,1.6304411414,1.8073197435,-3.681519034,1.1140993839,0.3800745649,-0.191742373,0.1695029754,-0.6544581857,-0.800728531,0.0395289057,0.4750771776,1.1092826306,2.8853446528,-0.8565541541,0.8256444889,-1.9500041173,-0.0598823128,-0.9356999738,-0.0588181753,-0.1346492281,-1.4510977201,0.7866506244,0.8063500704,0.6308206238,0.6229926028,-0.0445343503,0.778976567,-0.9414875312,0.8897240947,0.7516251401,-0.1419362954,0.6711145637,-0.3204479591,-1.1477751105,-1.012483235,1.2126104891,-1.8463767473,-0.8366306479,-0.4627875587,0.7526963811,0.6548449312,0.6785232739,1.6464200893,0.65866011,0.2246912319,-1.0233281522,-0.9289645796,0.4103576623,0.548592789,0.3983234994,0.3721839921,-1.0435996678,1.8263757343,0.4534638768,-0.3184956959,2.0296336933,-2.2437210564,-1.0290691479,-1.9981072696,0.0133934967,-0.1083267233,0.1307794229,-1.2522786643,-0.17834232,1.6032419913,-0.3596917441,-1.5440285528,-1.49554832,1.5254961715,2.0618210107,-1.4832717671,0.05776479,1.0209832306,1.9096640567,-4.4090148181,-0.7549439338,0.4342447763,1.4693502169,1.0391585188,0.2502412775,-0.3124781406,0.6037664807,-1.4445976636,-1.3196918509,0.4288331762,-2.0087994278,2.4421403108,0.228231015,1.0023331787,0.8632710231,-1.4336548713,0.7384857858,-3.8012333573,0.0854047733,-2.2016445436,-1.251549075,-3.4491649505,0.2820934631,-0.4659005737,-2.9051389003,-3.957460804,0.2631996162,-1.9349035556,0.2055678541,-0.4157328474,0.8331043818,0.0697372467,-0.1050948404,-0.0790883305,0.5153856213,0.0747098388,1.9815132467,-0.6952869634,0.5441630972,1.418410517,-0.1344526607,1.0092227504,-1.2225348929,0.7525921537,0.9297808151,-1.1945278717,-0.9536486921,-1.824714238,0.7581917814,-0.2528113433,-0.9956827639,-2.9102930761,-0.5102653467,-0.0435940592,-0.0425122312,-1.2902126209,-0.1306433521,0.9063556656,-0.1598520762,-0.2605682401,-0.778093327,-1.6841204742,-1.0746750687,-1.9708969271,0.7436552319,-0.4016577199,-0.4528220236,-1.3211495326,0.5673537977,1.9603823366,0.3445011019,-0.3641130673,0.2905997526,-0.1940123679,0.8813684715,0.7377680297,0.4356955425,1.1580684765,0.3155768806,-0.5402250986,-0.9821598372,0.6117026011,0.2937091822,-0.3867481517,-0.4234937387,-0.0747704798,1.4875987475,0.1921381374,-1.6142048154,0.5422590673,-0.8711766066,1.385308088,0.5388810916,1.5465831406,0.5225199482,0.2649387853,0.7438661139,0.8859518121,3.6447139422,-0.1190759639,0.6132547431,-1.4627938115,-0.9599983356,1.6090173294,0.3833879808,0.0787319708,-0.6621795977,-4.236391123,-2.8028389637,-0.6335271818,1.3266790684,1.7759257819,1.1672011116,-0.6949567987,-0.324524566,1.6651515736,-0.6639434789,-0.317874623,-1.4862010588,1.007965596,2.3042214832,0.1511297667,2.7125022788,-4.4194154903,-0.7046465887,0.1280503081,0.0056898398,-1.7139921714,3.0867780665,-1.5688647453,0.3274046031,0.333812022,-0.6287051007,-0.0111831784,1.8387742531,-0.9320220891,0.0346109382,0.7090587276,0.4628872571,1.9918066031,-0.0134680196,-3.7741807362,1.7737288839,0.6087204456,-0.1469978181,-1.9057285436,-0.611907834,-0.042908096,1.0914605878,-1.3212543629,-0.5409169522,-1.225503151,-0.1092213488,0.4224295471,0.3275437348,1.1926673906,3.867210932,2.9996408957,-0.7599365055,-0.6136992876,-0.1612839817,-1.8536467822,-0.5379690127,2.1302614594,1.1099375092,-1.8615086577,0.7109379375,2.1626004444,1.9083047864,1.657410276,1.6402410628,0.0312425269,-1.3841457689,-1.1935291482,2.0234077647,0.5966668904,0.1231585402,2.2130638529,0.9332117312,2.1804181532,0.2612985678,-1.7949399989,-0.5798334716,1.1371799489,-0.6476190456,3.1224363347,1.0153286162,-0.1015405132,-0.3136484553,-1.2607847502,4.5482148799,0.6796225423,-0.7963292878,-0.5548407429,-1.3980888345,0.1437244287,-1.3960961535,-0.7225774894,-0.3258158323,-4.477626529,0.5476166102,1.068407952,0.9656824252,-0.4354286681,0.2673186207,5.8576097992,-0.7209324247,-3.4506013763,0.4737999271,0.488196329,0.2568548343,0.2156315094,0.2809837039,0.3904348017,-1.9019980187,-1.5656672318,0.3435824392,1.7612621044,-1.1248252746,0.8306982919,2.2577455053,-1.8908725471,0.5641054524,-0.8582230533,0.5145745547,1.5563185083,0.3667537735,-1.8600497996,-2.4701507252,0.1745810669,-2.3095797231,0.3442578309,-1.2891543302,0.3664641416,-2.4861181842,-0.6296967022,-2.0046356503,-0.7900656053,-0.5842805552,3.2469507339,-0.5071541016,0.5735112485,0.3407618336,1.5889870686,-1.778398133,1.97339524,2.180256528,0.9581616559,-0.0452221289,1.5416688858,-3.2452169726,0.813994492,-3.0646267301,-1.7530719643,2.4644516469,-0.9520981449,1.0385360065,1.3778915521,0.0339178321,0.8255639898,1.3938510546,0.2821334855,2.6243471565,2.027280866,-0.2553971086,-0.6342739828,-1.720398616,-2.5765764896,-0.7223857191,-1.7827468512,2.2661262609,-0.5403155023,-1.2501155993,0.6019632996,0.7563771235,-0.534405207,1.287789729,-0.9595897239,-2.7038632872,-0.1239275841,-0.9468891835,0.6589393133,-0.6259976053,4.7118005345,-0.8455225623,-0.554142738,-0.772136816,0.0077278802,0.1175341313,0.5623229617,0.0639970366,-0.1171608392,-0.6939077113,1.4955319534,-1.8891848054,-1.1071728981,-0.9605652525,-0.025242717,-1.3820545653,-0.7532932158,-2.1075048249,-0.9648448192,0.8375472246,-0.6996295192,-0.4165522301,1.0487619069,-0.6777434158,0.26353217,0.9759091387,0.1350406233,-0.7567063415,-1.5405575975,1.4688893555,0.2994355493,-0.659582388,-0.0446090676,-2.1731683136,-1.2182700141,-0.4626132122,-2.6287446655,1.0544041693,-0.3411276296,-1.9467519008,-0.6087771147,2.7069328641,1.0789324838,-4.9989203014,-0.1982280887,-4.4657955139,-0.5043219172,-0.4760062274,-0.9829018463,-0.0195122023,0.428912379,-3.1412357714,-0.6131583866,2.7487785157,-1.3328346163,-0.4266759498,1.4196597233,0.7300291651,0.0167417456,0.3793905342,-0.7180027685,1.1978978851,0.7707569852,-2.1910961495,0.0543557511,-2.0040838751,-0.6552813933,-0.8877740544,0.7225425066,-3.0008832965,-0.327147011,-2.9380218327,0.5226862524,0.6662585881,0.9979384492,1.2905025611,-0.4476908967,3.3821793645,0.815755241,-2.1983249012,0.6762141569,0.5584184962,-0.536748919,2.4614568478,-3.023511663,-0.8214405604,0.8344945699,-0.6153477384,0.2584616234,1.2917048233,-2.6004571169,-1.5522570317,-0.2749901023,0.1489831824,1.5818892324,0.9864087,-3.1795825368,1.5105697811,0.7746717311,-0.9385905671,-0.1061004649,-0.4866047815,4.0559597356,2.0040908869,-1.5441124932,1.2085772705,0.6333875928,1.8566047012,-3.3327696231,0.0947949684,1.5726850287,-0.0364666393,-5.6323518545,1.0570255063,-0.8339845144,0.2731801529,-3.6479132385,-0.8798846003,-1.5232506692,-2.2361252232,-0.8538302213,0.711585233,1.96763531,0.4748218348,-0.8954707188,0.4161066146,-1.1442826232,-0.0498986532,0.7313496904,-1.3516867533,-2.5033787599,-1.6754584113,-0.9636943817,0.4680470387,-0.1150387913,1.7497967601,-0.9121707537,2.9082015034,1.8025353771,-2.3428756462,0.4066967461,-1.9518804611,1.112467533,-0.0137901412,2.0281821049,-1.3556004924,1.7633826712,-0.8854253361,-2.0626154576,-2.4757262542,-1.7502255945,0.2457235524,0.427352109,-0.4229096584,1.5649209905,1.1754712193,1.5447470534,1.0963312229,1.2421805356,1.1248140537,0.9318903521,0.9945036474,0.9316849955,0.8230395229,0.8857774937,-1.3194548661,-1.9288213136,-0.5900386857,-0.3803606476,-1.5683370345,1.8458295899,1.0120861666,0.9987308594,-1.7358239253,0.2904527026,-0.4613389142,1.5529596191,1.1163943917,-2.1373818604,-0.0721758929,-0.2501551041,-0.3948726895,-0.0760299754,0.5411965775,-0.1570948602,-0.9697102524,-0.9282496513,-0.0037668058,2.7271388593,1.2980806854,0.4872579046,1.2873561468,-2.7085532799,-1.3750366213,-1.0228141026,0.2548478242,-1.561244671,0.8655211333,1.5634586607,0.9159139973,-0.0277879716,1.5474580249,-1.9219878754,-0.6518104696,-0.7068688501,0.1915132253,-2.3903088985,-1.1487433,0.0712662392,0.2240224814,-3.7861357961,-0.7098357163,-1.5199958695,-0.4457591788,-1.4381340009,0.9486449253,-2.9455451193,-2.2187752577,-0.2068773309,0.3002443031,-1.1677084141,0.1183497292,-0.0814465961,-0.8858334374,1.7586690534,0.9525700387,-0.099669546,0.2505091674,-1.8907349986,1.0524966408,0.2305498689,-0.2505926934,-0.9693588233,0.7758804416,-0.8442540849,0.6874201762,0.1154566736,-1.0945568883,-0.9086985548,-1.2823839135,-3.8852284413,10.1083594311,1.5380211119,0.7356717081,0.912952282,-1.8612983932,0.3579593716,0.2542337752,1.0009685518,7.481683687,4.2500431787,-0.3509934989,-1.0180031085,0.3837442777,-0.9029553331,0.174173057,1.8728179766,-0.5999709431,-2.3308817928,1.6100109729,0.5430110095,0.2197600644,0.1802365459,-0.8286160848,0.478159134,-1.9514301543,0.0089603724,3.0889829613,0.1588662787,1.272154319,0.5147233097,-4.470786307,1.2784425785,-1.8311242147,-0.6070169011,0.562847551,-0.692657449,-0.1080815752,-0.0320655023,0.257221607,1.0876582219,3.1204621525,-0.3706400707,0.8523864035,3.041488726,-1.6951510816,0.8601334602,-1.8844759486,1.1318773724,-0.7250106339,4.5450203953,1.1949145181,0.3308674846,0.9969854546,2.942941196,1.6355551448,-0.4591222344,0.6989472666,-2.3813069354,-0.3460264568,1.0109151735,1.1051185079,0.399733016,-1.5172626005,0.6155139864,0.7010004003,0.3985207599,-1.3636487438,0.6661453696,-1.2549537266,1.6752651203,-1.0404662064,5.0565541453,0.839634658,1.5735471872,2.1547873957,-1.6470725421,-2.3234378558,0.3287713111,-2.3949962043,0.136023842,-0.3165821778,1.9886029001,0.1271173292,-0.4618676023,2.2400764689,-0.6707993264,-0.694392449,3.7865457588,-13.0076670508,1.0996670628,-2.8641257125,0.8776035693,1.1646997238,-1.118439394,2.2946142297,-0.1879575897,-0.6882531308,-2.9719911882,3.0248158232,-0.6964639516,0.8759126317,-1.4169895622,3.2446561356,2.153448626,1.2988044997,0.9004468435,1.107593353,-3.7092409833,0.6938441887,-1.909240789,-0.7921072884,-0.3711056118,-1.3565950256,-0.6187533967,-0.4241214113,-1.4128853155,-1.0945832162,-2.1229622857,1.2758525714,0.0100491628,1.51945852,-0.1025230594,3.4504287975,-0.17641055,-0.7471232503,-1.3938476658,0.7140545866,-2.0690084646,0.6560136802,1.2300071274,-0.2421262279,-0.463385974,0.1601603043,2.2690798119,-0.2509550882,5.999063989,0.5119500416,-0.1579486765,1.4880404151,2.5369476285,2.5225599449,1.9840024358,1.2353406546,2.1444419629,-0.8116994689,-1.9960647313,0.5731914893,-0.5144298511,-1.0650675941,-0.0419867529,-0.2113848812,0.7961611925,0.4236176488,-0.6298019056,0.2991224651,-1.157468311,2.4045183216,-1.0234388179,1.3797172835,0.3645777724,0.5184654512,1.1227326974,0.1632322565,0.7653854626,1.6533078181,-2.5272379294,2.323579703,-1.2815254111,0.7953986673,1.475741353,-0.2012837818,1.150272082,1.9499163617,1.9682423685,0.2637766622,0.9661758062,0.8827222205,1.3687605281,2.0385445679,0.59338772,1.4272464091,2.3511613711,-0.1293784663,0.4684041904,1.8241684523,-1.2165330364,-0.7603244584,0.4278806706,2.7961735735,0.1869800439,3.0431147818,0.0233565987,-1.8359343455,-3.990477869,-0.6812407525,-2.377080739,3.788655499,-0.5998468319,0.2597580195,1.1734533034,0.4459980662,0.0503454082,-2.9230912095,-0.1343132193,2.7187246753,-2.2433405889,0.7480521584,-1.4104908263,0.254418972,0.7307801752,0.2777633249,-0.9720605082,-0.0336098365,-0.4078731464,-0.1080434677,-0.4047136259,2.0484182795,-0.8835687608,-3.0688268229,0.3176625366,-1.8136737188,1.2485311963,0.2537271099,-0.2186566835,-0.9899472515,0.435871377,2.4391739954,-3.2414878247,-2.3411571747,-2.3798865439,0.2089543956,-0.4993692141,-2.1353034106,-2.0463242471,1.4880546788,-4.8702039965,2.8704866686,-3.7046137673,-1.1978370275,-0.9305356407,0.068871329,-3.8368869878,-2.8058046565,-4.4268872339,-0.9979005455,-2.0548335078,2.594317616,0.306965663,2.5529874441,-2.7999690908,0.1219178961,1.6627669278,0.5447549898,7.4602611437,-2.4276306259,-5.2799401755,0.243344621,-0.6072650835,0.9246458681,0.2972162806,-4.0918977053,-1.0866553534,-0.0629355154,0.57064173,0.1432755116,-0.3335642501,-0.9289926642,-0.5670248567,-0.3395925702,1.4959494375,-4.4570145047,2.4492406131,0.5950089999,0.0369838465,-0.1230983054,-0.9707740673,5.0168551711,2.6724724214,-1.4246961871,-0.5472485029,-0.9111406142,-3.9456585845,1.3473392954,3.0495057197,2.1283390947,3.5376545348,-4.5162752817,0.3471763513,0.3590706985,-0.2191285039,1.1136164016,-1.9138047316,1.2852071283,-1.0781494295,-0.7870057541,2.2238186804,-0.8446015423,0.2175980976,1.4557767426,-0.3250995009,0.761373941,0.4416767681,-0.7259555134,2.8214716747,-2.3568189859,-0.4566601602,-0.1106091226,-0.2582223775,1.8636706175,3.0953926508,2.9529716919,1.1979819287,-1.4358102299,0.5895806653,-2.4684647944,0.9400636947,1.1094164406,0.1896486621,-1.4284279749,4.9155463512,-0.9708760662,-0.3032241792,0.8535297118,-0.7196635527,-0.4408873673,-0.2157199556,4.1721800224,1.6720050284,-0.5561348991,-0.302255926,-1.5861187514,0.967634145,2.0277190411,-2.6348462945,0.5648719199,-2.457762658,0.1348120852,-1.1839436614,-1.2455466236,0.9580998142,0.3365324339,5.7480936005,0.2653795088,0.2214721753,-0.4951295499,1.6087239355,-1.9920396223,-2.6299280979,1.0204647577,-0.1686632861,1.308169097,-0.4366709409,0.345787619,0.2960795617,-0.4509063476,-1.1921074723,-2.4034110085,0.4781380457,-0.5578886136,-0.5304023641,-1.2186176725,0.4983084578,-1.2242086893,-1.1760723562,-1.4885935853,1.5179125612,0.1570693205,0.6246546194,1.5252802401,-1.3631523065,-1.6619249308,-0.3894757083,-1.4831130037,1.8265394794,-0.3128956634,-0.6022843079,-1.0233467537,1.2294530305,1.9913978213,-1.4728568092,1.4727347887,0.2524364733,2.0307090231,3.8942900102,1.5174639811,2.2290241175,-0.9705097038,-1.1172792118,0.6051911818,-0.0161868444,0.6413080758,0.0908533625,0.6343690242,-2.4041479031,1.4194955304,-0.5743905755,3.2076809232,2.2283009359,-0.4401150211,2.0216399129,-3.4433891689,-0.2224177109,0.7879418863,-0.5853148135,-0.6790271844,-1.0444301087,-0.3831692982,-0.3567448117,-0.9217618379,-0.754402406,0.2750361347,-0.6474629623,0.477953457,-1.2738319492,1.5012285521,1.8184596677,-0.4253143974,-0.2282680941,-0.9719664829,-1.8645472774,-0.7832045132,-1.1603896511,1.5447560363,0.1777059973,0.4066662304,0.0790886339,0.8411638912,1.6908842572,1.346754275,0.8052130587,1.2434475896,1.5895135454,0.8119817043,-0.8163335227,1.5410816332,0.8458612306,-0.0615028351,-1.5390647771,-0.6660482251,-1.4705764242,3.4086944671,0.7677356532,0.7596320269,0.4950591305,0.7623428587,2.6096978921,-0.0947995576,0.4525707267,-0.2533349285,0.8855348577,-2.4167490254,1.4699173941,0.8054845771,-0.1960154424,0.2332037667,-2.7758279862,0.6806217475,1.0484912481,-0.6257865261,-0.2179551294,-0.0658147835,-1.1230139363,-0.0385178661,-2.035657735,-0.5933182255,-0.0342291563,-1.5069490635,-1.5465986359,-0.3309774118,0.3666940101,0.7008577698,0.4597753961,1.3260685258,-0.1567163494,-0.4543557391,0.7284195794,0.2500716646,-0.2323260932,-1.9155600466,-1.2723391476,-4.1377295318,0.9038828535,0.8181745574,0.0616294274,0.0489467406,-0.1280073728,-1.9460813977,0.9824180738,-1.813937254,0.5526008136,1.7106078537,-0.8714863685,0.8834318784,0.818848297,2.0547970445,1.6518169335,-0.2981009329,1.3126592625,-3.1417102795,-2.2554308828,-0.3734641592,-1.5807231921,-1.3730055271,-0.975912388,-1.2472600067,0.7542971761,-0.5141690895,-0.4995201664,-1.319629922,-0.0245009299,2.3061789474,1.6043896384,-0.6234157456,1.575604614,-1.1754172322,-1.3529771025,3.4556352606,-1.4076132902,-0.0836358607,-0.53593808,-2.0363602599,1.2795785389,0.1908125455,0.5712429232,1.9212072476,0.8863771297,-0.530924845,-0.8510455574,-1.8830882946,-1.5434089631,-2.858200964,2.7114382086,0.7464081599,0.6012688108,-0.0962775951,-2.8375098757,2.236043606,0.0174788744,1.1185546993,0.8937386968,0.1942852176,0.5700748832,-0.1514516742,-0.0435531744,0.0140564956,-0.8683320305,-0.8902262386,-0.3197546399,-1.8882095536,1.0980385861,-1.0096894354,0.5466847029,0.5764069836,2.3052787168,-1.3098814209,0.1163253087,0.7194698558,-3.2969322096,1.0270322448,0.0214856665,0.0504287864,0.0274272261,0.6214299254,1.5130636133,0.6544108073,1.0839141311,-0.2077454119,0.000492986,-0.3485159321,-0.5311022173,-1.5517073843,1.4584188965,0.5224286676,1.5241686439,0.6651495826,-3.3820518936,-1.795811859,3.0706367211,1.1181145981,-0.296485953,-0.4842303829,-0.22110792,-4.2479559588,0.6326062875,-3.9269441495,2.3966276181,-0.6412625508,-1.0596885391,-4.6179351362,-0.847736114,-3.6282348107,-0.5299883956,2.8875621749,-0.8613934661,-0.1117160583,0.0599184581,-0.3550678353,-2.3220082176,-1.4184120754,-0.5587697738,0.1079017389,-0.0192668307,-2.9479781594,0.3316993918,0.2364824505,-0.2993848381,-0.5228379672,-0.3142710094,-1.3713489785,1.0601148937,-0.0601636435,0.5293890328,2.4265888388,-4.776331723,1.2169195997,-0.5240680756,1.4949031218,1.6177934126,-0.2266870266,0.2475100839,1.5457792587,1.0389063521,-1.7429142665,-0.9563054637,-1.6840429587,-0.2593820637,0.3489054283,-0.2899061893,0.9004033714,-0.2287100737,-0.6459673297,-0.7316109696,-0.1478701229,0.5375330455,6.4001884544,0.5735640964,-1.3685782759,-0.2137755216,-1.0985678525,0.5471730128,-1.1232907791,0.1343025412,-0.2791555049,0.0763673455,0.3970815306,0.6057860882,-2.3654517513,1.0564521271,0.1943090375,-0.7942061366,-1.0551837434,-0.1961704319,1.0583973224,-1.6239056073,-0.3236250121,1.1676976654,-0.2562640305,-0.8994452193,0.0487621642,-0.1892997559,0.5733286888,1.5425209203,-1.3130040207,-2.4003006053,0.2346167893,0.3082163287,0.0945689308,-0.3041796275,1.0462667763,-0.5756623179,-1.0558992669,0.2058782656,0.6301428397,-1.4124404989,2.1594272956,0.871741453,2.0990831093,1.941885462,0.7760407666,0.4871849695,0.9622103904,0.9964988263,2.1867641566,0.3960988896,-1.4631861639,-0.5791223137,-0.1537374589,0.3828100273,-0.4534691785,0.7485628995,0.0651611228,-0.8528810734,0.6171501758,-2.0722527361,-1.6316886905,-1.047732429,0.5867967805,1.522394987,1.5692780394,1.6121522364,-0.4453602146,1.1606993689,1.7002495083,0.4552313043,-0.7570473906,2.0782980652,0.8749829466,2.2806617194,-1.3410727455,-1.8878859823,0.4054057426,0.4888247159,-1.4012908231,1.7922810892,2.0769230732,1.2737808165,-2.3646135528,-0.5638617362,-1.81863547,-0.2360727061,-2.6569776302,-0.999862181,-2.3042397569,1.9577587629,-0.8681474527,-1.6406165221,0.1188912088,-0.5092525001,-1.8444712937,-3.6467535158,0.8236669941,-1.4625364717,-1.9312681443,-1.831101133,1.2412140048,2.2944210373,0.4583425059,-0.7280555659,-1.1779857667,0.6481734313,0.7873673421,-0.570796871,-0.6645584555,1.6056668307,-0.7493534654,1.270827669,-0.8338307392,-0.0559025934,-0.0614328956,0.0032540854,0.2091224263,-0.2698057425,1.085210475,-1.8738799442,0.2350181394,1.7332069883,1.037495784,2.1088349586,-0.3324555995,0.6655797857,-1.6689815143,-0.7179709617,0.7368432675,1.4393249025,0.5077593062,-0.4167133595,-3.1038110769,-2.3765572748,0.3948915601,1.0058640545,0.1113466126,-1.0169709379,-0.8048701611,-2.8356954159,0.36672534,-0.5809488233,-1.486634613,0.0839468505,1.4270283287,0.4576859675,-2.1626335941,1.3307582925,0.7207287628,-0.3593420886,1.9983802273,-0.8644011166,0.9334715327,1.8098440788,1.5480273976,-1.0270018219,0.5368160497,0.2101752841,-0.4624284803,-1.3725334922,-3.0536164015,0.1117442092,0.4971594496,-0.0432316577,0.988954217,3.4607664189,0.1345855724,-0.119015026,2.3839120654,-1.9115686384,-0.8810311909,0.379512267,-0.1092584726,-0.3180033459,-1.9213545993,-3.9938342004,-1.1290436077,0.3031626876,0.9584994605,0.7160092213,-0.6175793565,1.1267260224,-1.9710122896,1.5147921924,-0.2019793927,0.1300742032,1.5922795256,0.7786516148,0.6655364227,-1.1282166028,1.1535929255,-2.0507603541,0.3380098258,0.2664049934,-1.0462657656,-0.9737802526,0.5497720523,1.096405399,-2.2649267268,0.1938149931,-0.3740457629,0.6204453873,-0.7462828876,0.4282658755,0.9432154313,0.3232131629,1.2609904746,-0.3525279583,-0.0092507403,1.4186907043,-1.2476477737,-1.7460773121,-1.1705309488,-0.6812014646,-0.4468447098,-2.8710477792,-2.3901433313,-1.130024604,-1.5323140332,0.2229950069,-1.9847644836,2.4365493234,0.7703002359,0.0174907181,0.2616946375,-0.810410837,-2.1935121224,-2.1520640099,-2.4412524466,0.6365803168,-1.0752868274,1.0045096862,-1.0297863265,-0.0824319967,1.6815173978,0.6355009911,0.4052145154,0.78293701,-1.1153729386,0.3569736897,0.5576914905,1.7712243409,1.7555055465,1.7405617951,-0.7673427828,0.696891414,-0.4057165394,-2.2600988059,1.0366226707,3.2888576529,-0.5310669191,0.7726928693,-7.4940566313,-1.8474317365,6.0822496197,-0.7286337896,1.4034789466,-1.0369124544,-2.8919735416,0.4687943041,-0.3530048868,0.8595868893,0.0803266893,1.2255269196,0.117426949,1.7142265761,3.3302991343,2.5854692117,-2.0485962828,-0.7717389099,-0.1125530534,-1.0128336929,-0.2881675627,-2.8506070566,0.1635116214,1.2922438538,-0.1649110644,0.7566879664,0.2519347777,0.5049150966,-0.7416911501,-1.6460364997,-1.1978372347,-1.4474971588,-1.1628289632,0.1970439498,-1.352993339,1.7866100021,2.5219747528,1.6293876825,-0.0857001006,0.8722929357,0.9615460091,3.6777312658,-1.0923118558,-1.7305858759,-0.1570752787,-0.3069351678,3.3886716606,0.5792857559,0.3423008667,4.6121149263,-0.5186312261,0.1984582089,0.4062435079,2.6950963777,-0.8784214778,1.2988327906,-0.5560012675,-0.6118215825,0.6936110293,4.6544026913,0.6180482247,-0.0283698473,-0.5421120609,-4.3298364949,1.0565580128,-3.3562947566,-0.7683272348,-1.0002942026,-0.6664728723,-0.8128085899,0.128270031,4.638324765,0.8145412628,-0.3254303439,0.0637522746,-1.6829034675,0.7230614901,-2.2107663604,-1.299862551,4.4235835631,-0.718771378,-1.3886598199,0.7295205254,-2.3366251087,-3.2756691895,2.8136890268,6.424954392,0.4616166842,0.9510662182,-0.0195769058,1.4269853485,2.9556516887,-0.4024758124,1.795556168,-1.3836257528,0.6610395616,-0.813956933,2.0014305153,1.0182295631,0.2111260626,0.1058142696,-0.194634024,-0.6410272331,5.19736575,-2.30086285,0.5988192018,0.5886817824,1.0052361707,-1.0455278625,-0.0576696798,0.9253941216,0.7388167678,-0.0294633504,1.8769454577,1.4920079827,2.3598059952,-0.6950665984,-0.7321501786,-1.0697334588,1.5236805226,0.2441271371,1.3472834205,-0.5301595523,0.5510023541,-0.8393553441,1.6418873485,-0.9051201885,1.8173635308,-1.374254354,-0.8373923461,1.0827682476,0.5425545433,1.8461575103,3.729017472,-1.2402042448,0.5731117724,-1.3538904019,0.5360568797,-0.0099449475,-3.307954054,-1.698123268,0.2490825668,-0.2353851019,0.3122333769,0.3278587955,0.3829601005,0.2354753739,3.8770810554,1.3169736368,0.720775339,0.5064015763,-0.6422698336,1.6500036441,1.8851604522,-1.8618611535,0.0989134191,-0.3943652067,-2.4226414328,-0.877130221,-0.5001827521,-0.8470752938,-0.9135616694,-1.3201096303,-3.1682039141,-0.9431600386,0.3638856203,0.0783193437,-2.6085919684,-0.7292973105,-1.5638975172,-0.4231005403,-1.6296466726,-0.5736285992,-0.3630931506,-0.9433117887,-5.7714391729,0.6374765953,-1.5831852385,0.0430317365,1.2592681504,-1.2926571897,1.3097539701,-3.0290378752,0.7566634471,-1.1942045507,1.6909280511,-1.5303732908,-0.1752741279,1.1128301399,-0.0022886871,-1.2848720503,-3.8732811152,2.0538690314,-1.6747884232,0.7959789398,0.6728612702,0.5672128444,-1.6916700549,3.0177095499,-1.4637255744,1.4633496363,-0.5437710361,1.9284156229,0.8548102628,0.9455843603,0.1967497397,-1.1473339388,-0.1290219317,1.3253506523,-0.191034943,4.4889786652,-0.045046459,-1.1883703302,1.1421283249,-5.2688374248,-0.359411461,4.185513445,-2.1392682563,-3.7013550773,0.9069475477,1.3520377294,1.1956448557,-0.424349658,-1.0022219203,-3.9504156563,0.0371661701,-0.7807875032,0.0614227333,-2.1262409985,3.4869225798,-0.5941319241,0.2334424896,-0.8536738319,-0.2984026236,-0.3565511618,-0.5216107472,-1.4042418275,0.8408203992,-0.7433221738,0.4054075839,-0.8356664192,0.4235676292,-0.9562586493,0.6441985944,-2.0058798784,-0.4029833617,1.6206287744,0.3239623243,1.9180813746,-1.805663784,1.9541718942,0.9706820692,-1.6670357269,-0.1742797338,-0.7606835727,2.5642256266,1.8439565589,-1.2576420804,-1.0793323322,-0.8484790826,-1.2287112157,-0.7119665353,-1.3946119406,0.7955678497,0.1189852087,-0.1103449998,1.4088220637,0.1392405106,-1.1498164141,-1.3081142189,-1.1560279985,2.5474361788,0.9700542246,-1.0173684122,0.2338865743,2.4194072882,1.2071708056,0.7523663888,1.5401025647,-0.248860078,0.1832416848,1.8245167415,-2.2084885063,1.3425825858,0.6697232243,0.0940071362,-2.9031780013,0.0916981883,1.1041057708,-4.4565433678,2.857785701,-0.8797915592,-0.3625056981,-0.9857753365,0.914133004,-1.1649348042,1.2823583599,-0.2024790203,0.5936140514,3.4035010319,-1.4496510929,0.9870653264,-0.3101537357,0.4067761454,1.0960155793,0.5022623925,0.3812299903,0.8471255251,-0.1437994326,-0.2230570732,0.2134389952,-0.044374182,0.4157895764,-0.7182058868,4.7673217939,0.4249769868,-0.3799293997,0.4332022815,0.3044992923,0.6327841796,0.3410554796,-0.8713237512,-1.5534135154,0.0004268387,0.7372009989,-0.632490931,-1.3119986447,-0.5749146499,0.0849522991,1.0782693268,-1.5549231587,-1.3160334041,0.6311880753,0.6987142313,0.9092957005,-1.2756018162,-0.4609446462,-0.8604273096,0.2326830765,0.2882559495,-0.1882581419,-1.6310909852,0.3971809411,-0.3223931955,-1.7691760928,-0.4043919151,-1.7435153384,1.3417751884,-0.581694738,-1.39393706,1.9649052153,0.3633643327,1.9808710767,-0.12211249,1.6906211257,1.8292652867,2.5168410789,-0.9525145466,0.9778742007,-0.6872306436,0.9674925007,-1.5427257892,-2.1279897885,-0.8199168725,-0.6748286445,3.768043119,0.8480339931,0.8388099713,2.706420792,-1.7833115459,0.2722493535,0.5821986302,0.6220768959,-0.0513803275,-1.0649733703,-1.0206251621,-0.22361689,-1.2604183189,-0.5321938692,0.1048942477,-0.8851856335,-1.42555455,1.7826207368,-0.8684229661,1.4944128698,2.8760027062,-0.3472505355,-0.7050235837,1.8436546528,0.498561264,1.0733257322,-0.3816394649,1.2271218437,0.0737975823,-0.0767320693,0.9116971764,0.403957687,2.4393614711,3.0443044179,-1.1480224387,-0.7640906606,0.3527759568,-0.5022595205,0.8817542611,-0.7345902617,-1.1754729715,0.0272890864,0.1189558415,-4.3125544321,-1.1383439663,-0.1991250851,1.2704752653,-0.9773976502,-1.6253675012,-0.5115436844,-0.7762486111,0.0828042078,-1.3728486708,-0.8004296901,0.1087324313,-0.5659430638,-0.011041841,0.6728410181,1.3104816521,-0.3186384209,-0.7334510681,-0.676207061,-0.7420186223,2.2873104715,-2.6435873652,0.6234772274,1.8951003778,-0.6894371795,-2.4856620649,-1.5770273131,-0.2179712577,0.8297116442,0.1833745593,-0.2025339175,0.1563628825,0.6571109132,0.2800994657,0.2851739052,-1.4123320616,-1.2006136368,-0.2254099279,4.5219095674,-3.0199371591,0.7707217364,0.120483408,-0.3675528307,-3.2903632661,1.2023212494,-0.8836139561,0.9875779419,1.065716579,0.4021116619,0.9842000102,-0.6147049137,-0.6875905034,0.5672578253,1.6380514799,0.6178178568,-0.097007003,-0.132962091,1.9083358447,0.9789048199,-1.7506929503,0.5255932914,0.1567136231,-0.4702603599,0.917443078,-1.1718292646,0.6507698246,-0.2708810856,-0.8546618488,-0.2130444624,-0.73578309,-0.3123746604,-0.6125326856,0.4053057145,0.0458776791,-0.2294101702,-1.9951678787,-2.5518945576,1.1202190028,1.6640943169,-0.0725479474,0.6725747959,0.496752252,1.7183850398,0.4537763252,-1.0668124001,-0.4733197582,-2.2058972526,-0.7122765276,0.8954471547,0.1087892281,-0.6212943931,0.4348616866,-1.7276696617,1.7053059831,-0.2607126905,0.2337999925,1.3759678063,-3.2608806419,-1.9916193106,-1.7253472575,0.9851358883,-0.3382971125,1.1620280408,0.6488392297,3.0111650015,-0.3624654675,-0.5797786763,-0.3711598539,0.2190998169
